FANN_FLO_2.1
num_layers=3
learning_rate=0.700000
connection_rate=1.000000
network_type=0
learning_momentum=0.000000
training_algorithm=2
train_error_function=1
train_stop_function=0
cascade_output_change_fraction=0.010000
quickprop_decay=-0.000100
quickprop_mu=1.750000
rprop_increase_factor=1.200000
rprop_decrease_factor=0.500000
rprop_delta_min=0.000000
rprop_delta_max=50.000000
rprop_delta_zero=0.100000
cascade_output_stagnation_epochs=12
cascade_candidate_change_fraction=0.010000
cascade_candidate_stagnation_epochs=12
cascade_max_out_epochs=150
cascade_max_cand_epochs=150
cascade_num_candidate_groups=2
bit_fail_limit=3.49999999999999980000e-001
cascade_candidate_limit=1.00000000000000000000e+003
cascade_weight_multiplier=4.00000000000000020000e-001
cascade_activation_functions_count=10
cascade_activation_functions=3 5 7 8 10 11 14 15 16 17 
cascade_activation_steepnesses_count=4
cascade_activation_steepnesses=2.50000000000000000000e-001 5.00000000000000000000e-001 7.50000000000000000000e-001 1.00000000000000000000e+000 
layer_sizes=20 22 4 
scale_included=0
neurons (num_inputs, activation_function, activation_steepness)=(0, 0, 0.00000000000000000000e+000) (0, 0, 0.00000000000000000000e+000) (0, 0, 0.00000000000000000000e+000) (0, 0, 0.00000000000000000000e+000) (0, 0, 0.00000000000000000000e+000) (0, 0, 0.00000000000000000000e+000) (0, 0, 0.00000000000000000000e+000) (0, 0, 0.00000000000000000000e+000) (0, 0, 0.00000000000000000000e+000) (0, 0, 0.00000000000000000000e+000) (0, 0, 0.00000000000000000000e+000) (0, 0, 0.00000000000000000000e+000) (0, 0, 0.00000000000000000000e+000) (0, 0, 0.00000000000000000000e+000) (0, 0, 0.00000000000000000000e+000) (0, 0, 0.00000000000000000000e+000) (0, 0, 0.00000000000000000000e+000) (0, 0, 0.00000000000000000000e+000) (0, 0, 0.00000000000000000000e+000) (0, 0, 0.00000000000000000000e+000) (20, 5, 5.00000000000000000000e-001) (20, 5, 5.00000000000000000000e-001) (20, 5, 5.00000000000000000000e-001) (20, 5, 5.00000000000000000000e-001) (20, 5, 5.00000000000000000000e-001) (20, 5, 5.00000000000000000000e-001) (20, 5, 5.00000000000000000000e-001) (20, 5, 5.00000000000000000000e-001) (20, 5, 5.00000000000000000000e-001) (20, 5, 5.00000000000000000000e-001) (20, 5, 5.00000000000000000000e-001) (20, 5, 5.00000000000000000000e-001) (20, 5, 5.00000000000000000000e-001) (20, 5, 5.00000000000000000000e-001) (20, 5, 5.00000000000000000000e-001) (20, 5, 5.00000000000000000000e-001) (20, 5, 5.00000000000000000000e-001) (20, 5, 5.00000000000000000000e-001) (20, 5, 5.00000000000000000000e-001) (20, 5, 5.00000000000000000000e-001) (20, 5, 5.00000000000000000000e-001) (0, 5, 0.00000000000000000000e+000) (22, 5, 5.00000000000000000000e-001) (22, 5, 5.00000000000000000000e-001) (22, 5, 5.00000000000000000000e-001) (0, 5, 0.00000000000000000000e+000) 
connections (connected_to_neuron, weight)=(0, 2.22894152243076280000e+001) (1, -5.41697407172276600000e-002) (2, -9.97079815878758420000e+000) (3, 2.16187552571365100000e-001) (4, 2.58742674147684790000e+001) (5, -1.19192227354960440000e+000) (6, -5.55627861941646990000e+000) (7, -6.25264811982217620000e-001) (8, 1.62181353140969020000e+000) (9, 1.53463883093292650000e-001) (10, 4.13813075625491040000e+001) (11, 1.59590336770405170000e+000) (12, 2.02929989185281070000e+000) (13, -6.51407121223850220000e-002) (14, 6.35815182406053610000e-001) (15, -5.21172822763592000000e-001) (16, 4.15377013703964510000e+000) (17, 1.88987943378917020000e+000) (18, -1.87900524170782570000e-001) (19, -5.76350407182657400000e-001) (0, 2.57854764041597560000e+001) (1, -2.97730860649155490000e-001) (2, -5.87180891115210460000e+000) (3, 3.33562857050170140000e-001) (4, 3.10886236974353420000e+000) (5, 2.60651793729875480000e+000) (6, -1.89653071295914660000e+001) (7, 5.05776196892954060000e-001) (8, -1.56447952333121770000e+001) (9, -5.24528788802504310000e-001) (10, -7.45849708256906930000e+000) (11, 3.82254943287504090000e-001) (12, -6.62291436008084630000e-002) (13, -5.90778930983470900000e-001) (14, 1.48990212929310160000e+001) (15, 4.77780701316899490000e+000) (16, -2.05468325925415000000e+000) (17, 2.81921818681940910000e+000) (18, -6.05966042126013060000e+001) (19, 7.95310629184791900000e-001) (0, -1.40560579365875660000e+001) (1, -1.45500674043378320000e+000) (2, 9.68915364435461690000e+000) (3, 7.77061123101813080000e-001) (4, -2.41879039354401600000e+000) (5, 2.00678061115869750000e-001) (6, -6.27602580552357910000e+000) (7, 5.08783633903346910000e-001) (8, 1.17927188468205860000e+001) (9, 2.23089508927063280000e-001) (10, -9.13321993892363610000e+000) (11, 4.58487461527006970000e+000) (12, -2.11979871345150850000e+001) (13, -8.40486129479947500000e-001) (14, -1.84857250474827270000e+001) (15, -1.47332641730000740000e-001) (16, 1.34487922435547840000e+001) (17, 1.47680827404586850000e-001) (18, 4.62040663687946120000e+000) (19, -8.63536391617375500000e-003) (0, 8.07490238101974430000e+001) (1, -9.59347738065555730000e-001) (2, -1.26916564493462700000e+001) (3, 2.53475840105595740000e+000) (4, 2.32402912779003440000e+001) (5, 2.41855087974197010000e-002) (6, 5.14177788141496280000e+001) (7, 2.71444526732543510000e+000) (8, -1.21659768848747450000e+001) (9, 1.75402605841938450000e-001) (10, 1.71357581546611200000e+000) (11, -1.72081174911938130000e+000) (12, 5.29665783751032660000e+000) (13, 2.93781185320721550000e+000) (14, 1.47927140129359080000e+000) (15, 2.23302201281326770000e-001) (16, 9.08208215844338440000e+000) (17, 4.81378640948959990000e+000) (18, 9.52452354350566740000e-001) (19, -1.60501728679290220000e-001) (0, 8.70209979078616770000e+000) (1, -2.19646332551299010000e-002) (2, -4.05349814601256320000e+000) (3, -2.57807755603154780000e-001) (4, -7.71344660781624110000e+000) (5, 4.92482054818596140000e-001) (6, 1.19818286209566830000e+000) (7, -2.23986981840365640000e-001) (8, 1.46173470470343680000e+000) (9, -1.78003105295384820000e-001) (10, -3.63130266135901180000e+000) (11, 1.81139794624799340000e-001) (12, 1.20882555820392710000e+000) (13, 3.33656867784074160000e-001) (14, -9.84700387273836080000e-002) (15, 2.80355940893098290000e-001) (16, -7.81416221674786370000e+000) (17, 1.58631772405032650000e-001) (18, 2.42483819319499960000e+001) (19, 8.95674060144314170000e-002) (0, 6.12216559819549300000e+000) (1, -5.66989477053169380000e-001) (2, 4.06677686340323360000e-001) (3, 1.54372169622435080000e-001) (4, 1.66075337279691750000e+000) (5, -6.08083257183711440000e-002) (6, 1.09928129789661680000e-001) (7, 8.81463193091147350000e-002) (8, 1.21883447395776970000e+000) (9, 6.46875717680583380000e-001) (10, -9.69940514361835860000e+000) (11, 3.45792980468249270000e-002) (12, -1.12489635614502830000e+000) (13, 2.22691731088608010000e-001) (14, -1.23800870444469740000e+001) (15, -2.40179202108130040000e-001) (16, 6.42184651244470390000e+000) (17, 4.48622773683082720000e-002) (18, -5.68816893882184970000e+000) (19, 7.83547221571903600000e-001) (0, 3.67979477284480990000e-001) (1, 8.58887198838833470000e-001) (2, 9.13764427474619720000e+000) (3, 6.08930158961712880000e-001) (4, 4.13696366143240720000e+000) (5, 1.44021186308472200000e+000) (6, 1.01738477835667980000e+001) (7, 7.34866472619059160000e-002) (8, -1.16973549461113750000e+001) (9, 1.85216444106684850000e+000) (10, 1.32438505791549770000e+001) (11, 1.10313693778387180000e+000) (12, -7.21627979289284220000e+000) (13, 1.53335301188920800000e+000) (14, -2.13160131163691740000e+001) (15, 1.19070879199730810000e+000) (16, 1.39183307839303690000e+001) (17, 1.48521103528805680000e+000) (18, -3.52875455507611550000e+000) (19, -1.23022079395584030000e+000) (0, -1.58148916191305130000e+001) (1, 3.20715321236002940000e-001) (2, -2.89264291069757430000e+001) (3, 7.38933040247634620000e-001) (4, 2.12592842094471780000e+000) (5, 1.99449286515959080000e-001) (6, 2.39404198915059220000e+001) (7, 3.20546467718209660000e-001) (8, -3.99725403441661830000e+000) (9, 9.36121996819536120000e-001) (10, -9.03944407304936350000e+000) (11, 4.33596642834526260000e-001) (12, -1.99178705066772200000e+000) (13, 1.76129209348807440000e-001) (14, -3.44571876063827710000e+000) (15, 1.62489519580719690000e+000) (16, 2.20604781548147210000e+001) (17, -2.41301375060447160000e-001) (18, 2.32351817766045830000e-001) (19, 7.22046410256773850000e-001) (0, -1.60255853549632870000e+001) (1, 6.96978389880940300000e-001) (2, -5.51598408970397710000e+000) (3, -1.94917144168355480000e-001) (4, -7.18662999937541170000e+000) (5, 1.07103163145451870000e+000) (6, 2.03313909095632670000e+000) (7, 1.93088613680650170000e-001) (8, 7.16605571550107180000e+000) (9, 3.22746942038524830000e-001) (10, 6.47831694911840740000e+000) (11, 2.48823394535717780000e-001) (12, 6.10129936912403540000e+000) (13, -4.34185059748043720000e-001) (14, -5.47733512414611100000e-001) (15, -4.20028836378270760000e-001) (16, -3.31108784092292210000e+000) (17, 8.03834260297756200000e-002) (18, -5.10323925914476640000e+000) (19, 2.26035918805786020000e-001) (0, -5.75831634440032490000e+000) (1, -2.91770279439634680000e-001) (2, 1.94224678193279130000e+001) (3, 2.35307829350323370000e+000) (4, 5.50450449325239250000e+000) (5, 7.10312731692423930000e-001) (6, 7.76459402576150560000e+000) (7, 6.84245544898618220000e-001) (8, 9.97651291230609690000e+000) (9, 4.59661034702896760000e-001) (10, 2.82816848823131830000e+000) (11, 6.75634075017570330000e-001) (12, -5.02956402795615380000e-001) (13, 1.26566083493782460000e-001) (14, -8.93650441936466480000e-001) (15, 6.25555316566649420000e-001) (16, 5.01066011284616470000e-001) (17, -2.94636900144130850000e-001) (18, 3.17371679221270690000e-001) (19, -3.81044587409389180000e-001) (0, 1.40372044207583710000e+001) (1, 1.43534339154940750000e-002) (2, 8.89689617338197540000e+000) (3, 6.69583113243669700000e-001) (4, 3.37093348558618330000e+001) (5, 1.80547094781446130000e+000) (6, -3.23962191140776090000e+000) (7, 8.02439366277202390000e-002) (8, 7.09968990619651750000e+000) (9, 5.71069204101965380000e-001) (10, 1.76863231829173840000e+001) (11, 4.95844657358932570000e-001) (12, 2.62096008530122330000e+001) (13, 5.17887758974288210000e-002) (14, 1.15055307394948050000e+001) (15, 1.38818621957290690000e+000) (16, -2.03770908405171120000e-001) (17, -8.94541839564735210000e-001) (18, -4.34301491787383470000e+001) (19, 3.84535805053630050000e+000) (0, -7.54187848448914230000e-002) (1, 2.60504517653756600000e-001) (2, -2.24138244110243390000e+000) (3, -1.92405393495545560000e-001) (4, -7.91583885360960870000e+000) (5, -3.09616611909152640000e-002) (6, -3.03970725603134230000e+000) (7, 7.90825395531172930000e-001) (8, -9.68864083373462210000e+000) (9, -3.09029470515362390000e-001) (10, -2.93837880713318440000e+000) (11, -6.76166991283350950000e-002) (12, -3.28691164857278830000e+000) (13, 4.56157599787687230000e-003) (14, 1.37330779479906460000e+000) (15, 9.20758029070250730000e-001) (16, 3.69379733111936170000e+000) (17, 9.88444820718048730000e-001) (18, -1.42556609200069940000e+001) (19, 1.25317121113598890000e+000) (0, 3.78488252073936880000e+001) (1, -1.96535575099503370000e-001) (2, -5.54487294576780340000e+000) (3, 6.64668667523165220000e-001) (4, -7.45619096463762170000e+000) (5, 5.81961378797290710000e-001) (6, 1.99373040129369810000e+001) (7, 1.03189695167113070000e+000) (8, -4.77671793359109920000e+000) (9, -7.75180336618268350000e-001) (10, 3.44530048437903290000e+000) (11, 8.89659678887956380000e-001) (12, 4.48062623374296990000e+000) (13, 6.60110115322658400000e-001) (14, 5.91651381777984310000e+000) (15, 7.18789927881391260000e-002) (16, 5.95938483357742330000e+001) (17, 9.10267963321083620000e-001) (18, -2.42187524698377260000e-001) (19, -4.80423149920063020000e-001) (0, 2.90755658008276470000e+001) (1, 1.57701712669667840000e+000) (2, 2.45810583773486610000e+000) (3, -2.20456790053321290000e-002) (4, -8.74532330980631480000e+000) (5, 1.09807725876087290000e-001) (6, -3.30176262867205140000e-001) (7, -2.01633661644388670000e-001) (8, 7.11444695142983270000e+000) (9, 1.75738377875623030000e+000) (10, 1.71303194765858230000e-001) (11, -9.19749381165320010000e-001) (12, -2.26150219114479700000e+000) (13, 1.86190878494414360000e+000) (14, 1.27215161492692330000e+001) (15, -3.53323530677372010000e+000) (16, 4.42610131848437580000e+000) (17, 1.39858960797026350000e+000) (18, -4.18873487653515610000e+001) (19, 4.49243605991494770000e-002) (0, -1.21139388749610790000e+001) (1, 3.14354681037313730000e-001) (2, 5.20143756933065230000e+000) (3, -1.79155999043832750000e-001) (4, 3.13356448989625220000e+000) (5, -3.40159718287396770000e-001) (6, -5.69633868794860290000e+000) (7, -4.66836941501907580000e-001) (8, -9.76809945614705800000e-001) (9, -1.84803227168458340000e-001) (10, 1.38409249467936420000e+001) (11, -1.16871082140185170000e-001) (12, 1.80275065728890490000e+001) (13, -1.13575470263824310000e-001) (14, -2.03025394491429670000e-001) (15, -1.96659083388416040000e+000) (16, -3.36050164991242850000e+000) (17, 6.36546462407700190000e-001) (18, 6.18421564239673580000e+000) (19, 8.38457799129329160000e-001) (0, -6.37711404478858300000e-002) (1, 1.16722132455068750000e-001) (2, -9.24112157699858330000e-001) (3, -1.20467474646148950000e-002) (4, 4.69755459813335000000e-001) (5, -4.05978692042607000000e-001) (6, 8.89862247101957940000e-001) (7, 2.15951565751800470000e-002) (8, -8.43954824507704200000e-001) (9, 5.75072483151892810000e-002) (10, 1.33614648252662370000e-001) (11, 1.53237827150634230000e-002) (12, 2.24091554261330650000e-001) (13, -4.41545166124744790000e-002) (14, -3.55860932471742500000e-001) (15, -8.05807547308399070000e-002) (16, 6.85231139109521160000e-001) (17, -4.07791763537473710000e-001) (18, 8.72764460587306940000e-001) (19, 4.80702237412056620000e-002) (0, 2.03081355150331480000e+000) (1, -4.45066045392886470000e-001) (2, 2.32613471723722500000e+001) (3, -2.71861804897389230000e+000) (4, -1.15353713420692260000e+001) (5, 1.67987606931350200000e+000) (6, -2.33247847480605660000e+001) (7, 5.15801817013972540000e-001) (8, -5.62189524218937910000e+000) (9, 1.08081520415525170000e+000) (10, -1.04776671035927900000e+001) (11, -2.63033828392801980000e+000) (12, 5.82391681946057280000e-001) (13, 3.01647424884536330000e-001) (14, 9.37133720970631520000e-001) (15, 2.22977043024559900000e+000) (16, -1.57863596657979140000e+001) (17, 7.05542410089374790000e-001) (18, 8.45035132706540000000e+000) (19, -1.34896975700920990000e-001) (0, 1.38348559800416650000e+001) (1, -1.86165969397429090000e+000) (2, 1.71066565544523090000e+000) (3, 3.59430319784339810000e-001) (4, 4.13864481931281870000e+000) (5, -4.44098072292745560000e-001) (6, 1.60665396671365390000e+001) (7, 3.41596158806834190000e-002) (8, -1.89815475138739630000e+001) (9, -1.23135185514680490000e-001) (10, -3.25606335854337910000e+000) (11, -5.16459327759028350000e-003) (12, -3.99326397748020100000e+000) (13, 1.79952940351386340000e-001) (14, 6.48588927782831730000e-001) (15, -7.48981007641459700000e-001) (16, 2.42191989982527960000e+000) (17, 3.21314638246378290000e-001) (18, 9.33975001983084140000e+000) (19, -1.04144286178848410000e-001) (0, 1.33715774620608730000e+000) (1, -5.61905965250470980000e-001) (2, -8.93658608477405100000e+000) (3, 4.93489006369084600000e-001) (4, -7.42266944250433360000e+000) (5, -2.79070262293042100000e-001) (6, 1.45238844747518670000e+001) (7, -2.18091661595496280000e-002) (8, -9.33926989196347090000e-001) (9, -3.21668056659146220000e-001) (10, -1.55868452020939460000e+000) (11, -1.67188723255674520000e-001) (12, 3.13617549735862140000e-001) (13, 6.80237189558951380000e-002) (14, 8.27744633653551000000e+000) (15, 5.76833465143271810000e-002) (16, -5.57857430359993780000e+000) (17, -8.44353392867537410000e-001) (18, -3.58050463755153640000e+000) (19, 4.18370868350178390000e-001) (0, 4.37253258617993970000e-001) (1, 7.56047820305453390000e-002) (2, 2.70463539727002370000e+000) (3, 5.97543567251667350000e-001) (4, 1.17887714034716710000e-001) (5, -6.07852979818590060000e-002) (6, -9.65183178745405300000e-002) (7, 8.11250052853056300000e-003) (8, -2.84111526865712890000e-001) (9, -2.86641532745751990000e-001) (10, 4.08198859021586810000e-002) (11, -1.38889221321291220000e-001) (12, -1.39286659768350990000e+001) (13, -2.72779098147045150000e-002) (14, 5.85655527311632510000e-001) (15, -4.64776854188429370000e-002) (16, 6.60763966962976210000e+000) (17, -3.79489960566218370000e-001) (18, 1.07220835370276380000e-001) (19, 1.27051554244786350000e-002) (0, 5.31169460434505040000e+001) (1, 2.65341993816653150000e+000) (2, -4.59724656794839600000e+001) (3, -4.00717732192688910000e-001) (4, 7.91887338581395820000e+000) (5, -2.82550050042309180000e+000) (6, -5.06276808252198690000e+001) (7, 3.68232620672910790000e-001) (8, 1.36156130587921690000e+000) (9, 2.39771674461544880000e-001) (10, 6.48199292691980930000e+000) (11, 1.20422967097727060000e+000) (12, -1.62505634696735900000e+001) (13, 3.22485991396735990000e+000) (14, -7.09272123782294270000e+000) (15, -1.43290200614524000000e+000) (16, 4.99805311522894870000e+001) (17, 3.08412360434009700000e+000) (18, 1.51312951102261550000e+001) (19, -1.49162218274458100000e+000) (20, 2.08659572161410490000e+000) (21, 3.91068059212875070000e-001) (22, -2.56562868079972000000e+000) (23, -8.12952587542138170000e-001) (24, 1.92999041458522820000e+000) (25, 1.04938335450493510000e+000) (26, -1.62861800200867560000e+000) (27, 1.16724818499672840000e+000) (28, 3.00930869856176080000e+000) (29, 4.02111612791751850000e+000) (30, -2.35685707054014990000e+000) (31, 6.19309352772549500000e-001) (32, -2.58126053764160810000e-001) (33, 1.08955380041805120000e+000) (34, -1.79361181332657040000e+000) (35, 1.50276405549391810000e-001) (36, 3.95541059446718190000e-001) (37, 4.25012404689342320000e-001) (38, 1.39515002742439440000e-001) (39, -2.91657024501609960000e-001) (40, 1.80746554575602160000e+000) (41, 7.39384021673582080000e-001) (20, -2.49538706127106820000e+000) (21, -1.45957384205375670000e+000) (22, 1.45064864172817320000e+000) (23, 3.14446806905438780000e+000) (24, -4.58693628797017360000e-001) (25, 3.75621463159663490000e-001) (26, 1.08381937257782530000e+000) (27, -1.75141014720975120000e+000) (28, 3.87946793264831030000e-002) (29, -1.61271577314069890000e+000) (30, 2.69781004286137580000e+000) (31, 1.05376409960849070000e+000) (32, -1.95167338119490360000e+000) (33, -2.73135189599706060000e+000) (34, -5.61437932095067980000e-002) (35, 3.95108795033875190000e-001) (36, -2.80776917520942960000e+000) (37, 1.77559606955950490000e-001) (38, -2.33673772915499400000e+000) (39, -2.66136203410973600000e-001) (40, 5.81641943752788380000e-002) (41, 5.05355004240034770000e-001) (20, -1.02718582477694610000e-001) (21, 1.99169584283306470000e+000) (22, 1.14266317394548070000e+000) (23, -2.27702792847212930000e+000) (24, 6.35437949346096320000e-001) (25, 5.22770499361399850000e-001) (26, 5.72757972535784640000e-001) (27, 1.75552470508952090000e-001) (28, -1.61042196602719970000e+000) (29, -1.45694317877419290000e+000) (30, 6.23402701619889250000e-002) (31, 3.45384058982713520000e-001) (32, 1.21618431851902690000e+000) (33, 1.65013861969255360000e+000) (34, 2.40145565989774350000e+000) (35, 2.87558612659056710000e+000) (36, 2.51243287588084390000e+000) (37, 8.50548839460063430000e-001) (38, 1.54066577445044080000e+000) (39, 1.70518347114121530000e+000) (40, -9.07136913070873740000e-001) (41, 6.45219302791931960000e-001) 
