FANN_FLO_2.1
num_layers=3
learning_rate=0.700000
connection_rate=1.000000
network_type=0
learning_momentum=0.000000
training_algorithm=2
train_error_function=1
train_stop_function=0
cascade_output_change_fraction=0.010000
quickprop_decay=-0.000100
quickprop_mu=1.750000
rprop_increase_factor=1.200000
rprop_decrease_factor=0.500000
rprop_delta_min=0.000000
rprop_delta_max=50.000000
rprop_delta_zero=0.100000
cascade_output_stagnation_epochs=12
cascade_candidate_change_fraction=0.010000
cascade_candidate_stagnation_epochs=12
cascade_max_out_epochs=150
cascade_max_cand_epochs=150
cascade_num_candidate_groups=2
bit_fail_limit=3.49999999999999980000e-001
cascade_candidate_limit=1.00000000000000000000e+003
cascade_weight_multiplier=4.00000000000000020000e-001
cascade_activation_functions_count=10
cascade_activation_functions=3 5 7 8 10 11 14 15 16 17 
cascade_activation_steepnesses_count=4
cascade_activation_steepnesses=2.50000000000000000000e-001 5.00000000000000000000e-001 7.50000000000000000000e-001 1.00000000000000000000e+000 
layer_sizes=20 22 4 
scale_included=0
neurons (num_inputs, activation_function, activation_steepness)=(0, 0, 0.00000000000000000000e+000) (0, 0, 0.00000000000000000000e+000) (0, 0, 0.00000000000000000000e+000) (0, 0, 0.00000000000000000000e+000) (0, 0, 0.00000000000000000000e+000) (0, 0, 0.00000000000000000000e+000) (0, 0, 0.00000000000000000000e+000) (0, 0, 0.00000000000000000000e+000) (0, 0, 0.00000000000000000000e+000) (0, 0, 0.00000000000000000000e+000) (0, 0, 0.00000000000000000000e+000) (0, 0, 0.00000000000000000000e+000) (0, 0, 0.00000000000000000000e+000) (0, 0, 0.00000000000000000000e+000) (0, 0, 0.00000000000000000000e+000) (0, 0, 0.00000000000000000000e+000) (0, 0, 0.00000000000000000000e+000) (0, 0, 0.00000000000000000000e+000) (0, 0, 0.00000000000000000000e+000) (0, 0, 0.00000000000000000000e+000) (20, 5, 5.00000000000000000000e-001) (20, 5, 5.00000000000000000000e-001) (20, 5, 5.00000000000000000000e-001) (20, 5, 5.00000000000000000000e-001) (20, 5, 5.00000000000000000000e-001) (20, 5, 5.00000000000000000000e-001) (20, 5, 5.00000000000000000000e-001) (20, 5, 5.00000000000000000000e-001) (20, 5, 5.00000000000000000000e-001) (20, 5, 5.00000000000000000000e-001) (20, 5, 5.00000000000000000000e-001) (20, 5, 5.00000000000000000000e-001) (20, 5, 5.00000000000000000000e-001) (20, 5, 5.00000000000000000000e-001) (20, 5, 5.00000000000000000000e-001) (20, 5, 5.00000000000000000000e-001) (20, 5, 5.00000000000000000000e-001) (20, 5, 5.00000000000000000000e-001) (20, 5, 5.00000000000000000000e-001) (20, 5, 5.00000000000000000000e-001) (20, 5, 5.00000000000000000000e-001) (0, 5, 0.00000000000000000000e+000) (22, 5, 5.00000000000000000000e-001) (22, 5, 5.00000000000000000000e-001) (22, 5, 5.00000000000000000000e-001) (0, 5, 0.00000000000000000000e+000) 
connections (connected_to_neuron, weight)=(0, 3.82760290208885860000e-001) (1, 9.58613526356947740000e-001) (2, -1.31142320031516000000e+000) (3, 2.16039143631986370000e-001) (4, -3.21599207822499400000e-002) (5, 8.53403708980446480000e-001) (6, -1.21448716371445050000e+000) (7, 4.91800595564787780000e-001) (8, -1.82383191380616430000e-001) (9, 8.22675421238776130000e-001) (10, -1.95752761648785360000e-001) (11, -3.23631913238977410000e-003) (12, 1.73107248143007260000e-001) (13, 2.27161003602400690000e-001) (14, -2.99018196098474460000e-002) (15, 2.29199577851527810000e-001) (16, 4.43434564526240970000e-001) (17, 1.56534936353861680000e-001) (18, 5.51811894704881540000e-002) (19, 5.76881615332812900000e-001) (0, 4.75034081564340070000e-001) (1, 2.00975738936603850000e+000) (2, 1.12673537317244250000e-001) (3, -3.42442083146301040000e-001) (4, 1.40661973844380280000e-001) (5, 1.46624947138795300000e-002) (6, -2.30878428803947780000e+000) (7, -1.57898423861659590000e-001) (8, -4.15332907991005700000e-001) (9, 3.26149590212482630000e-001) (10, -1.17902064185771590000e-001) (11, -5.13798518136546090000e-001) (12, 4.92380765470290420000e-001) (13, 4.00011153772520110000e-001) (14, 3.13375528681810570000e-001) (15, 5.30600980883566000000e-001) (16, 3.52406190759989360000e-001) (17, 2.25390866460547070000e-001) (18, 1.02840635941934270000e-001) (19, 8.16372025689372730000e-001) (0, -1.76112451029470370000e-001) (1, -9.15037700172795180000e-001) (2, 7.07375121757183420000e-001) (3, -4.98163358868831290000e-001) (4, 2.71261544379990060000e-001) (5, -1.27276328442276650000e-001) (6, 3.05343386954286710000e+000) (7, -3.28374843661171700000e-001) (8, 8.29949800986180990000e-001) (9, -6.09096827265998340000e-001) (10, 1.69192765155186240000e+000) (11, 2.76566115746828050000e-001) (12, -9.77157363248590040000e-001) (13, 8.43974841070548740000e-002) (14, 3.44949457802192330000e-001) (15, 3.46616947929591300000e-001) (16, -6.62939863918190710000e-001) (17, -5.68715070518740480000e-002) (18, 9.80285097285432560000e-001) (19, -8.06797952466147270000e-001) (0, 5.96733770374269640000e-002) (1, -4.10767949908915020000e-001) (2, 7.20573747327698300000e-001) (3, 1.73998361437535890000e-001) (4, -2.21943260466026140000e-001) (5, -6.99146115413512570000e-001) (6, 1.27023546032916150000e+000) (7, 2.03650261064563330000e-001) (8, -7.51131213980539140000e-002) (9, -6.17240174145110570000e-002) (10, 4.38322558411398830000e-001) (11, 4.94863376957170360000e-001) (12, 1.64538814772530850000e-001) (13, 7.43584358500014030000e-002) (14, 3.92438105674596420000e-001) (15, 4.66057498895791480000e-002) (16, -5.89469177637540480000e-002) (17, 1.98498893800301970000e-001) (18, 2.45182907095893850000e-001) (19, -1.15759470921270330000e-001) (0, 1.36977965736656940000e-001) (1, 1.20018413182138570000e-002) (2, 1.21980406980462850000e-001) (3, 2.28309754268018580000e-001) (4, 2.27978933670737680000e-001) (5, 5.77211231707504660000e-001) (6, 2.73282297385674220000e-001) (7, 6.63785209666869070000e-002) (8, 1.06796037895127590000e+000) (9, 8.42391290628774490000e-002) (10, 1.63617954937488260000e-001) (11, -3.16938409936637080000e-002) (12, 1.55183142266022200000e-001) (13, 1.43710253060792130000e-001) (14, 1.41592145134332210000e-001) (15, 1.33297655249382340000e-001) (16, 2.61436397328322520000e-001) (17, 3.07287957921385360000e-001) (18, 9.16501304448870570000e-001) (19, 3.03887941890954800000e-001) (0, 6.50516603165293360000e-001) (1, 1.57791930150507380000e-001) (2, 6.43419037627194770000e-002) (3, 4.95579126123412320000e-001) (4, -1.18144401221751540000e+000) (5, 6.17252593502900740000e-001) (6, 2.61037284554733680000e-001) (7, 2.34819258165826800000e-001) (8, -9.44481059986535420000e-001) (9, 2.90855832432388720000e-001) (10, 1.60215603610392000000e-001) (11, 4.17387065049814040000e-002) (12, 1.83797129535512970000e-001) (13, 8.32015016192587440000e-001) (14, -2.15117083245459500000e-002) (15, 3.12660493588748920000e-002) (16, 4.37603896165430610000e-001) (17, -8.11672145736526130000e-001) (18, -4.55443722263639690000e-002) (19, 4.57411615515765260000e-001) (0, 3.83294779955313970000e-001) (1, -5.33359839058564100000e-001) (2, 3.67817867204391640000e-001) (3, 4.94023850621874320000e-001) (4, 2.33403000213971420000e-001) (5, 5.28837262023051370000e-002) (6, 6.80143212469260020000e-001) (7, 2.08026481832899100000e-001) (8, 5.98232756092998700000e-002) (9, 1.30916793565344660000e-001) (10, 1.22598494781114870000e-001) (11, 3.68052333680514540000e-001) (12, 3.47276731710625620000e-001) (13, 1.58694274654005150000e-001) (14, 1.32453403691850270000e-001) (15, 2.43299050027416640000e-001) (16, -4.46855763937473170000e-003) (17, 2.28505038300467590000e-001) (18, -9.84173180215555800000e-002) (19, -1.00159477034030510000e-001) (0, -1.23389378697776550000e-001) (1, -6.34047574430042000000e-001) (2, -1.06594756609555420000e-001) (3, 9.65862790195099600000e-003) (4, 6.48454403286077400000e-001) (5, 3.52814795169161310000e-001) (6, 2.57674786280869090000e-001) (7, -1.20882835015077990000e-002) (8, 4.46833792445394170000e-001) (9, -2.07399269928564000000e-001) (10, 1.46902755571573840000e+000) (11, 1.71733070732855100000e-001) (12, -1.02277503970959630000e+000) (13, -2.33118384239116100000e-001) (14, 5.63071867605208440000e-001) (15, -2.05487740122551500000e-001) (16, -2.46986943400544220000e-001) (17, 2.16549444371248820000e-001) (18, 1.57794515806969840000e+000) (19, -2.16414433179353270000e-001) (0, 6.00855330959671030000e-001) (1, 6.91708339998728720000e-001) (2, 2.10664275603895170000e-001) (3, -3.28811690817946030000e-001) (4, 5.81015477854127990000e-001) (5, 5.11641173133694730000e-001) (6, 6.24305319656398020000e-002) (7, -8.08842625578091450000e-002) (8, 4.87503513570066100000e-001) (9, 4.45882796897886900000e-001) (10, -3.57017937153957800000e-002) (11, 4.06722358225858450000e-001) (12, 4.58066395376556910000e-001) (13, 2.13993853667883320000e-001) (14, 1.86881996739841680000e-001) (15, 5.08009698960926740000e-001) (16, 6.87997716422586720000e-002) (17, -7.64255390392197810000e-002) (18, -1.10256396968682450000e-001) (19, 2.79871180249202050000e-001) (0, 1.48506404719323890000e-001) (1, 4.25561019132034310000e-001) (2, 3.52468110681760980000e-001) (3, -2.78908907089720550000e-001) (4, 1.55517046282803110000e-001) (5, 1.66033273428221830000e-001) (6, -4.58097760801105040000e-001) (7, 9.68679992780729910000e-002) (8, 8.17113188598060230000e-002) (9, 4.12145491588377380000e-001) (10, 2.35547935219248030000e-002) (11, 2.59199729993816240000e-001) (12, 5.05051664096601520000e-001) (13, -1.61551732549371110000e-001) (14, 3.83830061913821520000e-001) (15, 3.91802473707117790000e-001) (16, 5.10950287421784580000e-002) (17, 3.24039805153433220000e-001) (18, -1.28668044592321950000e-001) (19, 3.64751692054029740000e-001) (0, 3.65550762058001800000e-001) (1, 3.35882062717588750000e-001) (2, 6.29117677065174520000e-001) (3, -3.79507053119999720000e-001) (4, 2.59822542139328430000e-001) (5, -4.41088378199501360000e-001) (6, -9.30113057797451460000e-002) (7, 4.88272270778347050000e-002) (8, 1.14758735860412080000e+000) (9, 4.50493880831687900000e-001) (10, 1.63941758504478560000e-001) (11, 2.03145077408503540000e-001) (12, -5.29285252159732880000e-001) (13, -4.01995360038845010000e-001) (14, 8.01476900171276710000e-001) (15, 3.95665694859348600000e-001) (16, 1.18560099719105500000e-001) (17, 1.17432526106724040000e-001) (18, 9.48206408884328280000e-001) (19, -4.21221559354391510000e-002) (0, 5.14571401514756000000e-001) (1, 8.41971952983682100000e-001) (2, -1.70081393731614180000e-001) (3, -5.01200687374785400000e-001) (4, -7.90594695237194080000e-002) (5, 3.28751580403084220000e-001) (6, -4.80546390192012450000e-001) (7, -2.25806139717313390000e-001) (8, 9.21393229672518720000e-003) (9, 3.38393242738677270000e-001) (10, -1.02624964348750070000e-001) (11, -5.79978297025851160000e-002) (12, 5.71272627999015240000e-001) (13, 4.19471218004454300000e-001) (14, -7.27223922173771830000e-002) (15, 4.03286961723250680000e-001) (16, 1.85796466132229440000e-001) (17, 4.33569568911412460000e-001) (18, 6.51331158487984260000e-002) (19, 7.76007636937258940000e-001) (0, 3.57032101561190860000e-001) (1, 5.72169337885578110000e-001) (2, -1.52721977053892740000e+000) (3, 3.47545364806976560000e-001) (4, 6.74844756317571130000e-001) (5, 3.75338919492827440000e-001) (6, -9.20480862781833390000e-001) (7, 9.76518113039112620000e-002) (8, 1.59993914699462290000e-002) (9, 3.94761766746667460000e-001) (10, -3.17496517334832080000e-002) (11, -2.85329099634416830000e-002) (12, 2.62376743564260000000e-001) (13, 3.13011277247240260000e-001) (14, -1.11485981046647090000e-001) (15, -1.28433419920723210000e-002) (16, 1.55203346818018950000e-001) (17, 1.41778269255912640000e-001) (18, -2.79994274821196270000e-001) (19, 3.55249833964137730000e-001) (0, 5.85097799360422060000e-001) (1, 6.01788855870735830000e-001) (2, 3.94727927640025570000e-001) (3, -1.73324627954133280000e-001) (4, -2.70514121081139800000e-002) (5, -3.04734563053165210000e-001) (6, 4.74961732486682390000e-001) (7, -1.88019273919870220000e-001) (8, 1.20897379917387890000e+000) (9, 3.54488017413326580000e-001) (10, -2.92121179578691550000e-004) (11, 2.32219806667741060000e-001) (12, 1.78729488812113420000e-001) (13, 1.07861781669517850000e-001) (14, 1.64004180513923070000e-001) (15, 9.83683033945445430000e-001) (16, 1.53734669605885470000e-001) (17, 5.01517129055221580000e-002) (18, 3.76283416189531980000e-001) (19, 2.49749075333486610000e-001) (0, -2.03125230393039760000e-002) (1, 7.05930407586182750000e-001) (2, -1.00381454361656570000e+000) (3, 2.61514209894332880000e-001) (4, 3.71821523884425020000e-001) (5, -2.00030115186186240000e-001) (6, -9.40368497749271000000e-001) (7, 3.67551816690021850000e-001) (8, -5.48103270560743930000e-001) (9, 1.26797223038870700000e-001) (10, 2.10244677880357310000e-001) (11, -6.11436221078577450000e-002) (12, 7.81522027827534490000e-002) (13, 4.50345265080116100000e-002) (14, 2.06332324306433700000e-001) (15, 1.20084029690090290000e-002) (16, 1.09982037241429940000e-001) (17, 8.11561567360858050000e-001) (18, 1.28799364166727600000e-001) (19, 3.53339505182622750000e-001) (0, -2.21130601755090690000e-002) (1, -4.41270367972232350000e-001) (2, 2.82647095887603780000e-001) (3, 5.22243086252793140000e-001) (4, -1.30253726701519020000e-001) (5, 1.06342438050843850000e-001) (6, -5.33806277507212770000e-001) (7, 1.71344448631108290000e-001) (8, -6.68898706109036120000e-001) (9, -5.46641463292383940000e-001) (10, 2.32448416941226370000e-001) (11, 3.17161542525911390000e-001) (12, -1.73096156805102650000e-001) (13, 4.87570450456918310000e-002) (14, 3.17968344238523830000e-001) (15, 8.18702981598119490000e-002) (16, 6.21339840614736130000e-001) (17, -2.14265092170613570000e-001) (18, -1.40546829353375870000e-001) (19, 5.52699702873168500000e-001) (0, -1.93077347635187300000e-001) (1, -1.11174848584937760000e+000) (2, 4.41186991011266240000e-001) (3, 3.54978014934170360000e-001) (4, -4.25227755588715800000e-003) (5, 1.24243404015832460000e-001) (6, 1.52457704266018950000e+000) (7, 4.52559909529924590000e-001) (8, 9.18194110895896170000e-002) (9, 3.99299455464870860000e-002) (10, 3.70284112354513250000e-001) (11, 7.05737752034869990000e-001) (12, -1.85272670658421850000e-001) (13, -1.35615343054760750000e-001) (14, 3.13811607968091770000e-001) (15, 9.46540674556900360000e-002) (16, 7.33218849503097930000e-002) (17, 1.40315572758131280000e-001) (18, 3.42090219351386670000e-001) (19, -5.43717907734905470000e-001) (0, 3.77182673934972790000e-001) (1, -4.72934052361029640000e-001) (2, 6.75371109935376410000e-001) (3, -1.42550701714316050000e-001) (4, 1.55891475539975230000e-001) (5, 5.70328580594798710000e-002) (6, 8.36623614096570600000e-001) (7, 2.64862420179820590000e-001) (8, 2.49365072750408760000e-001) (9, 1.73905878445891120000e-001) (10, -3.68537044065836220000e-002) (11, 4.42098483592787190000e-001) (12, 5.25541026954251090000e-001) (13, 1.07540113678277520000e-001) (14, 1.36831402875891630000e-001) (15, 6.24354787097498360000e-001) (16, -1.39908665820614290000e-001) (17, -1.62447712801210560000e-002) (18, 3.44651377726194530000e-001) (19, -1.61521214970791360000e-001) (0, 3.54461516131917120000e-001) (1, 4.15673323672196170000e-001) (2, 3.69960786723672160000e-001) (3, -3.89828098195670160000e-001) (4, 1.48388139926574130000e-001) (5, 1.52825265418907170000e-001) (6, -5.51829451650941110000e-001) (7, 8.94156065888986880000e-002) (8, 3.59959861473445050000e-002) (9, 3.55462141134354650000e-001) (10, 1.69251817177354600000e-001) (11, 3.12745873369840890000e-001) (12, 6.19748931430724070000e-001) (13, -1.73465795226904470000e-001) (14, 3.48441877792746490000e-001) (15, 3.35167951378822660000e-001) (16, 3.78931242485797540000e-002) (17, 3.27384531765773530000e-001) (18, -7.33091570486602560000e-002) (19, 3.32543439620964390000e-001) (0, 1.81366905615879540000e-002) (1, -1.85650467316426230000e-001) (2, -1.46645194511952900000e-002) (3, 7.88507608653062020000e-001) (4, 3.41621865850299020000e-001) (5, 2.86360118059533000000e-002) (6, 9.25405230439094060000e-001) (7, 5.21678908801302740000e-001) (8, -2.52912346239737680000e-001) (9, -1.42675613160426010000e-001) (10, 2.18228834600281140000e-001) (11, -6.80885485559235780000e-001) (12, 5.80276624607344750000e-001) (13, -6.40213845446907790000e-002) (14, 3.36028547094771530000e-001) (15, -1.80346512159266140000e-001) (16, -1.40740798678470030000e-001) (17, 3.42473555394848970000e-001) (18, 2.09641187987940290000e-001) (19, -4.06309339054667930000e-002) (0, 7.92432874105541530000e-001) (1, 9.15161974798177850000e-001) (2, 6.40692087946710680000e-002) (3, -2.39894403381681940000e-001) (4, 1.09997791647643520000e-001) (5, 2.49376143148366290000e-001) (6, -1.03076320704983320000e+000) (7, 4.05663375479211440000e-001) (8, 1.66892157302563790000e-001) (9, 1.09602745600890850000e+000) (10, -6.44789819031035720000e-001) (11, 2.66889402673860020000e-001) (12, 1.27290828508141330000e+000) (13, -1.45957246016984290000e-001) (14, -9.08022030406180350000e-003) (15, 3.98533390905038420000e-001) (16, 1.51447506422391800000e-001) (17, 1.62298817817614520000e-001) (18, -8.39398405601820550000e-002) (19, 1.12360591777451380000e-001) (20, -1.59182405926381910000e-001) (21, -1.16083461519053980000e-001) (22, 7.22250516718491610000e-001) (23, 6.28266742401761720000e-001) (24, 4.18497862371052080000e-001) (25, -1.55926707847933780000e-001) (26, 1.85179982574457140000e-001) (27, -1.95536088296707460000e-001) (28, 4.75724425723794200000e-001) (29, -1.27928413554078690000e-001) (30, 7.99236896563855770000e-002) (31, -1.74140264550148370000e-002) (32, -1.28893207868534980000e-001) (33, 6.93770071334991690000e-001) (34, -3.06109246799849350000e-001) (35, -2.04180505873031880000e-001) (36, 3.89380244300905730000e-001) (37, 2.46520420004311120000e-001) (38, -1.06785835114029740000e-001) (39, 2.21686150005194010000e-001) (40, 1.92083163333757770000e-001) (41, 2.11975671424980190000e-001) (20, 1.42533140860633710000e-001) (21, -4.33940045597377030000e-001) (22, -7.52881271508422100000e-001) (23, -1.54072220179919890000e-001) (24, 8.04359719665638240000e-002) (25, 1.18611969758088280000e+000) (26, 3.91399986976268820000e-001) (27, -3.88876913562968270000e-001) (28, 4.77577488233703610000e-002) (29, -4.74894636051397980000e-001) (30, 1.58686755766302090000e-001) (31, -4.42185895329624770000e-001) (32, 2.05360687302357240000e-002) (33, -4.97721784829049000000e-001) (34, 1.70259448990159600000e-001) (35, 5.49888208963930760000e-001) (36, 8.75486357779960640000e-001) (37, -8.92472149987099390000e-002) (38, -4.55833356470487780000e-001) (39, 7.10950234450492100000e-001) (40, 1.83890563351907320000e-001) (41, 6.63958014372202590000e-001) (20, 1.40223908862112060000e-001) (21, 9.30688178886954760000e-001) (22, -3.30793681356514820000e-001) (23, 3.97208674093620300000e-002) (24, 3.85169122897827840000e-001) (25, 1.89094451063729740000e-001) (26, -8.20540462857187040000e-002) (27, -5.99681043334446160000e-001) (28, 6.12028593022829530000e-001) (29, 1.55882372016584610000e-001) (30, 6.87689158959521600000e-002) (31, 7.83507450909487700000e-001) (32, 3.50896042830231620000e-001) (33, 5.88157743057751150000e-001) (34, 2.19030071916908540000e-001) (35, -4.51514693536258560000e-001) (36, -5.01575729438476170000e-001) (37, 2.61527449331634850000e-001) (38, 1.61517940715520280000e-001) (39, 3.05903467231504630000e-001) (40, 9.92168616489489170000e-001) (41, 9.46111486896934470000e-001) 
