FANN_FLO_2.1
num_layers=3
learning_rate=0.700000
connection_rate=1.000000
network_type=0
learning_momentum=0.000000
training_algorithm=2
train_error_function=1
train_stop_function=0
cascade_output_change_fraction=0.010000
quickprop_decay=-0.000100
quickprop_mu=1.750000
rprop_increase_factor=1.200000
rprop_decrease_factor=0.500000
rprop_delta_min=0.000000
rprop_delta_max=50.000000
rprop_delta_zero=0.100000
cascade_output_stagnation_epochs=12
cascade_candidate_change_fraction=0.010000
cascade_candidate_stagnation_epochs=12
cascade_max_out_epochs=150
cascade_max_cand_epochs=150
cascade_num_candidate_groups=2
bit_fail_limit=3.49999999999999980000e-001
cascade_candidate_limit=1.00000000000000000000e+003
cascade_weight_multiplier=4.00000000000000020000e-001
cascade_activation_functions_count=10
cascade_activation_functions=3 5 7 8 10 11 14 15 16 17 
cascade_activation_steepnesses_count=4
cascade_activation_steepnesses=2.50000000000000000000e-001 5.00000000000000000000e-001 7.50000000000000000000e-001 1.00000000000000000000e+000 
layer_sizes=20 19 4 
scale_included=0
neurons (num_inputs, activation_function, activation_steepness)=(0, 0, 0.00000000000000000000e+000) (0, 0, 0.00000000000000000000e+000) (0, 0, 0.00000000000000000000e+000) (0, 0, 0.00000000000000000000e+000) (0, 0, 0.00000000000000000000e+000) (0, 0, 0.00000000000000000000e+000) (0, 0, 0.00000000000000000000e+000) (0, 0, 0.00000000000000000000e+000) (0, 0, 0.00000000000000000000e+000) (0, 0, 0.00000000000000000000e+000) (0, 0, 0.00000000000000000000e+000) (0, 0, 0.00000000000000000000e+000) (0, 0, 0.00000000000000000000e+000) (0, 0, 0.00000000000000000000e+000) (0, 0, 0.00000000000000000000e+000) (0, 0, 0.00000000000000000000e+000) (0, 0, 0.00000000000000000000e+000) (0, 0, 0.00000000000000000000e+000) (0, 0, 0.00000000000000000000e+000) (0, 0, 0.00000000000000000000e+000) (20, 5, 5.00000000000000000000e-001) (20, 5, 5.00000000000000000000e-001) (20, 5, 5.00000000000000000000e-001) (20, 5, 5.00000000000000000000e-001) (20, 5, 5.00000000000000000000e-001) (20, 5, 5.00000000000000000000e-001) (20, 5, 5.00000000000000000000e-001) (20, 5, 5.00000000000000000000e-001) (20, 5, 5.00000000000000000000e-001) (20, 5, 5.00000000000000000000e-001) (20, 5, 5.00000000000000000000e-001) (20, 5, 5.00000000000000000000e-001) (20, 5, 5.00000000000000000000e-001) (20, 5, 5.00000000000000000000e-001) (20, 5, 5.00000000000000000000e-001) (20, 5, 5.00000000000000000000e-001) (20, 5, 5.00000000000000000000e-001) (20, 5, 5.00000000000000000000e-001) (0, 5, 0.00000000000000000000e+000) (19, 5, 5.00000000000000000000e-001) (19, 5, 5.00000000000000000000e-001) (19, 5, 5.00000000000000000000e-001) (0, 5, 0.00000000000000000000e+000) 
connections (connected_to_neuron, weight)=(0, 3.47899581867152200000e-001) (1, 3.97626735257071150000e-001) (2, 2.35959673834352700000e+000) (3, 1.72670490429432280000e-001) (4, -2.05651919801480080000e+000) (5, -2.39042635091751250000e-001) (6, -1.22641479847213340000e-001) (7, -3.34468622154839910000e-001) (8, -2.01595523256660060000e+000) (9, 2.83814477701761440000e-001) (10, -4.44333531819948500000e-001) (11, 9.15569469856927000000e-001) (12, 4.36105484936781420000e-001) (13, 1.79730679224822860000e-001) (14, 4.43195120003628150000e-001) (15, 3.97844650970766710000e-001) (16, -9.44130573477644730000e-001) (17, 5.09977521192401140000e-001) (18, 3.66534962611302810000e-001) (19, 4.52930691159289300000e-001) (0, 3.18132735720466690000e-001) (1, 3.20240259494547870000e-001) (2, 1.52425161059114630000e-001) (3, -8.49810709951684260000e-002) (4, 4.20246364500379890000e-001) (5, -4.49914189566949560000e-001) (6, -1.19976054331422070000e-001) (7, 2.79912032275261510000e-001) (8, -2.43205232810028790000e-001) (9, 3.26439375332465200000e-001) (10, -3.09793863334131390000e-001) (11, 3.08045435094080830000e-001) (12, 3.04664429644875390000e-001) (13, 4.17357590714657170000e-001) (14, 1.83180881178150040000e-003) (15, 3.08959151599394630000e-001) (16, 3.14429712532963980000e-001) (17, 3.11443008747916030000e-001) (18, -4.36356236779202540000e-001) (19, 4.65894558539965980000e-001) (0, -3.08513773469897450000e-001) (1, -1.86617738268680220000e-001) (2, -2.95827049873104210000e-001) (3, 1.15608580660298750000e+000) (4, -4.74809816752037090000e-001) (5, 5.24894054288360450000e-001) (6, 7.26521887846782620000e-001) (7, 4.06944339141795010000e-001) (8, -3.70948203794129180000e-002) (9, 5.88193514877446980000e-002) (10, 3.07703616481644370000e+000) (11, 4.33460012436688750000e-001) (12, -9.21120676595438280000e-002) (13, -4.81860761803683400000e-002) (14, 3.43979782240567860000e-001) (15, 4.33239302307057650000e-001) (16, -4.18240277807162000000e-001) (17, -1.27016907302433650000e-001) (18, 1.72462655056188340000e+000) (19, -1.36904152177350080000e-002) (0, -1.82702137399222700000e-002) (1, -7.47657230455471900000e-003) (2, -5.09312259761282250000e-001) (3, 3.50426163625685290000e-001) (4, -3.16543338293053990000e+000) (5, 2.65393275439352320000e-001) (6, 1.14526427323860910000e+000) (7, 2.65593184405644060000e-001) (8, 9.00353140999954890000e-002) (9, -1.82942498236157440000e-001) (10, 1.61488907618514820000e+000) (11, -8.40066229656902590000e-001) (12, -6.62804683615808020000e-002) (13, -8.43033354732893450000e-002) (14, 7.50111127973493110000e-001) (15, -1.31957775331344170000e-001) (16, -4.34635688035717780000e-001) (17, -3.84666204869239470000e-001) (18, 7.45271040010745180000e-001) (19, -1.44402843876165140000e-001) (0, -3.90656185076298120000e-001) (1, -7.58986931192421550000e-001) (2, -1.48104392437362060000e+000) (3, -7.47244247507677930000e-001) (4, 5.27342150553364970000e-001) (5, 2.47932734899783540000e-001) (6, 1.09207253785012080000e+000) (7, 9.29005792462229580000e-001) (8, 3.21019656719131330000e+000) (9, -6.72888996735392930000e-001) (10, 1.99305698971600440000e+000) (11, 5.31676167835013260000e-001) (12, 2.79988861554861020000e-001) (13, -6.68650151968490650000e-001) (14, -4.38902711639914460000e-001) (15, -6.41755796362268090000e-001) (16, 7.05123146362524040000e-001) (17, -1.74316859948292550000e-001) (18, 4.35562352829191480000e-001) (19, -1.09373493260243990000e+000) (0, 2.05364369764573260000e-001) (1, 4.00190211857769930000e-001) (2, 5.73522507522440160000e-001) (3, 4.02892013190448260000e-001) (4, -2.05182445207263700000e-001) (5, 3.10253007653486370000e-002) (6, -1.07659159616636040000e-001) (7, -1.83150260525020620000e-001) (8, -2.06761538958639690000e+000) (9, -6.97955238938861440000e-002) (10, -7.92752073722768900000e-002) (11, 5.06646604281180550000e-002) (12, 6.23507831479293890000e-001) (13, 2.54399824614522320000e-001) (14, 2.95654834601981610000e-001) (15, 3.21929122495787260000e-001) (16, -2.67802189455954960000e-001) (17, -1.76122815051954540000e-001) (18, 3.46967091225968800000e-001) (19, 4.50379421590022420000e-001) (0, 4.42536403895027350000e-001) (1, 3.33619165943909110000e-001) (2, 3.46762175856820680000e-001) (3, 2.94548505716629220000e-001) (4, 9.71886345190882680000e-002) (5, 1.18354403629153590000e-001) (6, -1.14177714401270070000e-001) (7, 2.39958418398656250000e-001) (8, -1.52951191769925090000e+000) (9, 3.87022872328979640000e-001) (10, 1.02304636010240590000e-001) (11, 1.18047473932200210000e-001) (12, 6.07357928894891600000e-001) (13, 3.05982446782089910000e-001) (14, -6.00639440636620840000e-002) (15, 4.15674831229133730000e-001) (16, -3.44218206219642330000e-001) (17, 1.06002531780959640000e+000) (18, 8.28909269777556860000e-001) (19, 4.17267848830996550000e-001) (0, 7.87778712120029030000e-001) (1, 1.00971553095932300000e-001) (2, -1.89629094112776540000e-001) (3, -3.76346470259987350000e-001) (4, 9.49181491581769120000e-001) (5, 5.60597072088137920000e-001) (6, -9.50384367039144080000e-001) (7, -5.47900801850256660000e-002) (8, -9.24057195699044650000e-001) (9, -6.97704066359739190000e-002) (10, -9.17651212254507080000e-001) (11, 2.06054518044516440000e-001) (12, 8.42507403246745890000e-001) (13, -7.42952502921166850000e-002) (14, 1.31741359564265690000e-001) (15, -3.17943705251039380000e-001) (16, 3.03984055953211100000e-001) (17, 2.64213547548084350000e-001) (18, -3.03028313783398780000e-001) (19, -2.51472069499789670000e-001) (0, -3.01023050635794020000e-002) (1, -6.98422958901264020000e-002) (2, -4.40672122019714510000e-001) (3, -2.39613670129209590000e-001) (4, -9.69778212748007130000e-001) (5, 5.53448318682570610000e-002) (6, 3.16901172809201710000e-001) (7, -2.07838981596036250000e-001) (8, -2.94560180656040340000e-001) (9, -9.36704212451931330000e-002) (10, 6.49419664944196560000e-001) (11, -3.25721605689965720000e-001) (12, 7.43981741155561590000e-002) (13, -8.62869780809729230000e-002) (14, 4.66034475812711070000e-001) (15, -8.97031360298259780000e-002) (16, -2.76756047011252840000e-001) (17, -9.75318366660387140000e-003) (18, 7.46530118159386860000e-001) (19, -1.41601330162544340000e-001) (0, 3.32937524116126820000e-001) (1, -2.83103703355840290000e-001) (2, 5.11729982771591760000e-001) (3, 1.25377840074146100000e-001) (4, -3.18069827573612950000e+000) (5, 5.59708647332929130000e-001) (6, 3.19620120565464120000e+000) (7, 1.15925166600008500000e-001) (8, -3.53426129929271940000e-002) (9, -7.14521077433884160000e-001) (10, 1.18483750030113950000e+000) (11, 7.83010831593616840000e-001) (12, -8.26809393521860340000e-001) (13, -2.16734849813616570000e-001) (14, 3.15486209371051540000e+000) (15, 6.19636415694489350000e-001) (16, -5.56086016479267810000e-001) (17, -6.01846065577917030000e-003) (18, 3.06632449473495240000e+000) (19, -7.15760244110116850000e-003) (0, -1.49017101757422940000e-001) (1, -4.13754985909380730000e-002) (2, 2.66093915448872840000e-001) (3, -1.48317253579576090000e-001) (4, -9.56994141124572480000e-002) (5, 1.59039133117915840000e-002) (6, 3.83923878886042850000e-001) (7, -2.82332390909199540000e-001) (8, -1.09299598802159490000e+000) (9, -2.38889260647428410000e-002) (10, -3.35556803171154110000e-001) (11, -6.47092391730128970000e-002) (12, 4.66515916708498680000e-002) (13, -1.26637320479114860000e-001) (14, 3.58655323822012040000e-001) (15, -8.46189074384400690000e-002) (16, 5.32603253951425830000e-001) (17, -1.34063488253346740000e-001) (18, 3.00421680376138140000e-001) (19, -1.50835949440775880000e-001) (0, 3.62702418330408280000e-001) (1, 3.05713892090588140000e-001) (2, 3.14134687649111070000e-001) (3, 3.71623702177639130000e-001) (4, 6.09276476506324660000e-002) (5, 6.76280845138975410000e-002) (6, -1.59655010000809560000e-001) (7, 1.97874677537184660000e-001) (8, -2.06926944234541920000e+000) (9, 3.65062422782993450000e-001) (10, -1.85202797024454860000e-001) (11, 1.70543812605081530000e-001) (12, 5.80728289826204060000e-001) (13, 3.81165553371155430000e-001) (14, -3.51615999425882450000e-002) (15, 2.80640649529467710000e-001) (16, 2.88898706293147340000e-001) (17, 1.01615935035906760000e+000) (18, -1.37164809445040560000e-001) (19, 4.54639675559755150000e-001) (0, 3.60506657031513360000e-001) (1, 3.86248990130867660000e-001) (2, 9.00662985375584090000e-001) (3, 5.47007915040407660000e-002) (4, 4.12922598715628750000e-001) (5, 9.30133259595228720000e-002) (6, -1.28646836834311480000e+000) (7, 1.43043817321191920000e-001) (8, -3.05931765869304240000e+000) (9, -3.01701327431688540000e-001) (10, -9.16692960287103010000e-001) (11, 1.76578726573032090000e-001) (12, 7.72707191269372150000e-001) (13, 3.64196623698856530000e-001) (14, 6.55720016471104120000e-002) (15, -1.25660456250084760000e-001) (16, 1.27096144954032850000e-001) (17, 1.55460964867667360000e-001) (18, -2.93427483562210270000e-001) (19, 6.03783639564097200000e-001) (0, -3.41965494672901050000e-001) (1, 2.66565183480342190000e-001) (2, 1.20114050965102040000e-001) (3, -1.59279316864221500000e+000) (4, 2.24844684539623610000e+000) (5, 6.24021152130070370000e-002) (6, -9.56262052673603420000e-001) (7, 4.02936330341225450000e-001) (8, 6.10315865830677980000e-001) (9, 1.30523921687544450000e-001) (10, -9.68499601684082110000e-001) (11, -4.75528851028153290000e-002) (12, 9.24044269696114860000e-001) (13, 4.40295133390594170000e-001) (14, -3.58257463072116090000e-004) (15, -3.01940287043819870000e-001) (16, 8.84029071231726690000e-001) (17, 2.08758786134584760000e-001) (18, 8.63177407486649950000e-002) (19, -9.87314028627828130000e-003) (0, -2.28790787372874000000e-001) (1, -1.54747783365186190000e-001) (2, -4.56466209757250050000e-001) (3, 3.10701752637518760000e-001) (4, 8.74331134189706430000e-001) (5, -1.56171960492734350000e-001) (6, 3.97539475184969240000e-001) (7, 2.71761860610878060000e-002) (8, 1.92940952783008380000e+000) (9, -5.14973350874363550000e-002) (10, 5.82971248021058260000e-001) (11, 4.27940968266496900000e-002) (12, -4.95963171261165070000e-001) (13, -2.01146228506941530000e-002) (14, 1.98412001204247820000e-001) (15, 1.38962859126579710000e-003) (16, 2.63575458105451170000e-002) (17, -1.24327861036894040000e-001) (18, 2.68834639282742820000e-001) (19, 2.44216038337644740000e-003) (0, 3.19459009482906340000e-001) (1, 4.49494411811209750000e-001) (2, 3.48023535332140980000e-001) (3, 3.16283096710663960000e-001) (4, -3.94749424521338100000e-001) (5, 5.14250630465977520000e-001) (6, 3.16597318886070510000e-001) (7, 2.81328047921361790000e-001) (8, 1.37618322621537480000e-001) (9, 3.81444258964601820000e-001) (10, 2.46938067552631010000e+000) (11, -9.19709710654926790000e-002) (12, 2.21715688367601890000e-001) (13, -1.82098156937869070000e-001) (14, -2.89726350066154790000e-002) (15, 3.96253444220982520000e-001) (16, -1.43857520950095160000e-002) (17, -6.30816566063417270000e-002) (18, 9.91859883385405980000e-001) (19, 2.93207788388607670000e-001) (0, -2.65177677698096690000e-001) (1, -8.26314813055060160000e-001) (2, 3.93671193484414150000e-001) (3, -2.22529929640267020000e-001) (4, 1.16127585253232200000e-001) (5, -9.11453765908687010000e-002) (6, 6.58645595365430440000e-001) (7, -2.78163689675206050000e-001) (8, -3.05647820944126510000e-001) (9, -5.53861820971997430000e-001) (10, 1.75204383817261940000e-001) (11, -3.29243334258068570000e-001) (12, -1.72100598195143840000e-001) (13, 1.69272707444082900000e-001) (14, 1.06057654271270380000e-001) (15, -3.33615824558964190000e-002) (16, 1.35147951076209420000e-001) (17, 6.96999520540832330000e-002) (18, 2.25228798625183800000e-001) (19, -2.85136174089251460000e-001) (0, -9.50134122894790160000e-001) (1, 6.47389101654911590000e-001) (2, 1.35927354759343230000e+000) (3, -5.54608258171252690000e-002) (4, 3.52257218340470140000e-001) (5, 2.82542124100048780000e-002) (6, 1.05273910966084520000e+000) (7, 8.33996431905855480000e-001) (8, 1.58483950575428170000e+000) (9, 7.39652723983422740000e-001) (10, 1.11701523366550900000e+000) (11, 3.14463465694478190000e-001) (12, -3.65191942906425540000e-001) (13, -7.18364890313134830000e-004) (14, -3.56210503598652920000e-003) (15, -5.74182019959835420000e-001) (16, 3.94533757147931650000e-001) (17, 1.06520552805843940000e-001) (18, -4.50052147813225560000e-001) (19, -1.16803075866197260000e-002) (20, 4.39776806975848280000e-002) (21, 3.97724391508526340000e-001) (22, 1.91434058406027620000e-001) (23, 4.32168798091123570000e-001) (24, 9.73996726702716980000e-001) (25, 2.97404951071693570000e-001) (26, 3.94587184430528310000e-001) (27, 7.96481106711053880000e-002) (28, 3.62872853181733120000e-001) (29, 4.93475496046968940000e-003) (30, 3.01300586639234870000e-001) (31, 3.51044703312944850000e-001) (32, -9.22605091148088060000e-002) (33, -1.82354103621221870000e-001) (34, -3.13652131672676750000e-002) (35, 4.59357693208184090000e-001) (36, 3.32654346872067300000e-001) (37, 3.97107936421215450000e-001) (38, 3.86493922591179320000e-001) (20, 4.09935470326653950000e-001) (21, 3.52283717003282590000e-001) (22, -1.44844011575804180000e-001) (23, 9.93855733024521460000e-001) (24, 2.29724362618871190000e-001) (25, 3.07317032123934190000e-001) (26, 4.70527126968371620000e-001) (27, 2.71671603451916990000e-001) (28, 3.79932179607811890000e-001) (29, 8.33956877274647070000e-001) (30, 3.17065967733532350000e-001) (31, 4.43189480076633950000e-001) (32, -5.25510358668415530000e-002) (33, -2.49104996258034620000e-001) (34, -1.52599345833171970000e-001) (35, 3.94874049669177940000e-001) (36, 3.02997364008268820000e-001) (37, -8.94467883697561000000e-002) (38, 3.95282985222146550000e-001) (20, 3.85346461636580820000e-001) (21, 4.13062526502707360000e-001) (22, -1.46069732273955730000e-001) (23, -4.86920268881373060000e-002) (24, -1.74037315336461130000e-001) (25, 3.70704127434018040000e-001) (26, 3.89466334744846710000e-001) (27, 2.00019247201251920000e-001) (28, 3.16821827104894370000e-001) (29, -4.78904544464422040000e-001) (30, 3.58411183193374060000e-001) (31, 4.17389919145315540000e-001) (32, 3.73621607946241880000e-001) (33, 4.04721933357031270000e-001) (34, 1.31636103628407000000e-001) (35, -6.22786671559003860000e-002) (36, 1.88253700417961910000e-001) (37, -4.92881830696231820000e-001) (38, 3.18262720402580250000e-001) 
