FANN_FLO_2.1
num_layers=3
learning_rate=0.700000
connection_rate=1.000000
network_type=0
learning_momentum=0.000000
training_algorithm=2
train_error_function=1
train_stop_function=0
cascade_output_change_fraction=0.010000
quickprop_decay=-0.000100
quickprop_mu=1.750000
rprop_increase_factor=1.200000
rprop_decrease_factor=0.500000
rprop_delta_min=0.000000
rprop_delta_max=50.000000
rprop_delta_zero=0.100000
cascade_output_stagnation_epochs=12
cascade_candidate_change_fraction=0.010000
cascade_candidate_stagnation_epochs=12
cascade_max_out_epochs=150
cascade_max_cand_epochs=150
cascade_num_candidate_groups=2
bit_fail_limit=3.49999999999999980000e-001
cascade_candidate_limit=1.00000000000000000000e+003
cascade_weight_multiplier=4.00000000000000020000e-001
cascade_activation_functions_count=10
cascade_activation_functions=3 5 7 8 10 11 14 15 16 17 
cascade_activation_steepnesses_count=4
cascade_activation_steepnesses=2.50000000000000000000e-001 5.00000000000000000000e-001 7.50000000000000000000e-001 1.00000000000000000000e+000 
layer_sizes=20 17 4 
scale_included=0
neurons (num_inputs, activation_function, activation_steepness)=(0, 0, 0.00000000000000000000e+000) (0, 0, 0.00000000000000000000e+000) (0, 0, 0.00000000000000000000e+000) (0, 0, 0.00000000000000000000e+000) (0, 0, 0.00000000000000000000e+000) (0, 0, 0.00000000000000000000e+000) (0, 0, 0.00000000000000000000e+000) (0, 0, 0.00000000000000000000e+000) (0, 0, 0.00000000000000000000e+000) (0, 0, 0.00000000000000000000e+000) (0, 0, 0.00000000000000000000e+000) (0, 0, 0.00000000000000000000e+000) (0, 0, 0.00000000000000000000e+000) (0, 0, 0.00000000000000000000e+000) (0, 0, 0.00000000000000000000e+000) (0, 0, 0.00000000000000000000e+000) (0, 0, 0.00000000000000000000e+000) (0, 0, 0.00000000000000000000e+000) (0, 0, 0.00000000000000000000e+000) (0, 0, 0.00000000000000000000e+000) (20, 5, 5.00000000000000000000e-001) (20, 5, 5.00000000000000000000e-001) (20, 5, 5.00000000000000000000e-001) (20, 5, 5.00000000000000000000e-001) (20, 5, 5.00000000000000000000e-001) (20, 5, 5.00000000000000000000e-001) (20, 5, 5.00000000000000000000e-001) (20, 5, 5.00000000000000000000e-001) (20, 5, 5.00000000000000000000e-001) (20, 5, 5.00000000000000000000e-001) (20, 5, 5.00000000000000000000e-001) (20, 5, 5.00000000000000000000e-001) (20, 5, 5.00000000000000000000e-001) (20, 5, 5.00000000000000000000e-001) (20, 5, 5.00000000000000000000e-001) (20, 5, 5.00000000000000000000e-001) (0, 5, 0.00000000000000000000e+000) (17, 5, 5.00000000000000000000e-001) (17, 5, 5.00000000000000000000e-001) (17, 5, 5.00000000000000000000e-001) (0, 5, 0.00000000000000000000e+000) 
connections (connected_to_neuron, weight)=(0, 1.33261431930613570000e+000) (1, -3.20924238761150060000e-001) (2, 1.14558894327342630000e+000) (3, -5.41237642925637590000e-001) (4, 2.53459209153543430000e+000) (5, -9.00248231632417020000e-002) (6, -6.92803120571721910000e+000) (7, -5.47804661475989830000e-001) (8, 1.65178449873577170000e+000) (9, 9.59268097845053960000e-001) (10, -1.01884142867325590000e+000) (11, -9.09949469145387990000e-001) (12, -1.41630361408940680000e+001) (13, -2.59515940108615250000e-002) (14, -3.99404611786314810000e+000) (15, -4.10301571277610400000e+000) (16, 2.91211870509818030000e+001) (17, 2.97013848121108200000e-001) (18, -1.17049665020237530000e+001) (19, 4.78959012939367430000e-001) (0, 3.57667100717067620000e+000) (1, -3.09782141765331150000e-002) (2, -1.55476374393688000000e-001) (3, -5.94182593245651260000e-002) (4, -2.19573948439480720000e-001) (5, 1.06642984248589090000e-001) (6, -2.71364341803446370000e-001) (7, 1.59707023689364820000e-001) (8, -2.52354230197161970000e+000) (9, 5.37002058270888080000e-002) (10, 1.26255834528664510000e+001) (11, -4.35605641427973810000e-002) (12, 6.34975026819102870000e+000) (13, -8.04304060521428280000e-002) (14, 1.39627090814797430000e+000) (15, -2.99413093068087890000e-001) (16, -4.25220620001438920000e+000) (17, -2.33978681601886180000e-002) (18, 9.01039939955046720000e-001) (19, 8.60528018530928750000e-001) (0, 1.44565392972707650000e+000) (1, 2.77833232032805370000e+000) (2, 6.95369584049191140000e-001) (3, -1.14586339130599720000e-001) (4, 1.32056814978917080000e+000) (5, -7.76680729527531590000e-002) (6, 9.50010113269018140000e+000) (7, 3.17119175966134480000e-001) (8, 1.95681111584337080000e+000) (9, 3.44787622908864550000e-001) (10, 2.77271787651711850000e+001) (11, 1.08019935168257300000e+000) (12, -1.57930436292379590000e+001) (13, -7.64836303873566490000e-001) (14, -7.70295954116665850000e-001) (15, -6.73583375213797520000e-001) (16, -1.60884618037323400000e+001) (17, 4.32501099699228950000e-001) (18, -2.08927877149636880000e+001) (19, -3.75124906169816630000e-002) (0, -6.59985563125415360000e+000) (1, 5.64532531365924760000e+000) (2, 1.23195335149177010000e+001) (3, 6.34588822643127660000e-001) (4, -1.08786024645114200000e+000) (5, 2.77295770297208140000e-001) (6, 7.88389819788573650000e+000) (7, 1.21740392263499020000e+000) (8, 5.58287830966869340000e+000) (9, 1.77931074035503180000e-001) (10, 6.56257141385748920000e+001) (11, 9.76150711066725800000e-001) (12, -1.63124457771833950000e+000) (13, -3.84034720954864020000e-001) (14, -2.55180500089603200000e+000) (15, -3.96430085026954260000e-001) (16, 9.52047229118855930000e+000) (17, 1.37947019879100880000e-001) (18, -3.23657351882701460000e+000) (19, -6.48486831954495910000e-002) (0, -8.92067003142121710000e+000) (1, -9.80492890547324250000e-002) (2, -3.07157785285085390000e+000) (3, -1.67880465679567850000e+000) (4, 2.45580226093358750000e+001) (5, -2.00145684575458030000e+000) (6, 1.18687081762631690000e+001) (7, -1.09104755702944240000e-001) (8, 6.75210642305876090000e+000) (9, 1.11684765162818110000e-001) (10, 7.11809443679061960000e-001) (11, -2.33778777906603970000e+000) (12, 1.57696578100090260000e+001) (13, 4.68630378559843690000e-001) (14, 6.93877777490260030000e-001) (15, -2.48136424699307690000e-001) (16, 1.32299318241948120000e+000) (17, -1.88835657985254040000e-001) (18, -7.13487029981672190000e+000) (19, 3.26480660554075080000e-002) (0, 9.90787929878937490000e+000) (1, -2.41601912499576330000e-001) (2, 3.97973796482502970000e-001) (3, -2.60056269981267300000e-001) (4, 3.41493345192707660000e+000) (5, 2.77927276150903960000e-003) (6, -6.09387461931276330000e+000) (7, 9.78769176539751600000e-001) (8, -7.70257350803049260000e+001) (9, 3.35437464200705250000e-001) (10, -3.55864672488184470000e+000) (11, -1.80349460150078360000e-001) (12, 1.14862203065322990000e-001) (13, 4.31228511200257350000e-001) (14, 2.17336508767828200000e+000) (15, -8.81659505818652380000e-001) (16, 1.34929209436023250000e+001) (17, 4.53228951629256360000e-001) (18, -9.46777944206268710000e+000) (19, 3.80946054646094770000e-001) (0, 8.44876978520469990000e+000) (1, 6.75091820407059510000e-001) (2, 1.03952764228261580000e+000) (3, 5.39370373155016790000e-001) (4, -2.39826475750197120000e+001) (5, 6.32808820860008560000e-002) (6, -3.83940025828995380000e+000) (7, 1.81765119316716930000e-001) (8, -2.46846374665085650000e+000) (9, 5.08381115307183330000e-001) (10, 8.63942918494620390000e+000) (11, 2.89834966663139390000e-002) (12, 6.60151703040976390000e+000) (13, 5.51906640420685160000e-001) (14, -1.59722433271053350000e+000) (15, 1.51514457258351660000e+000) (16, -6.55753453348556460000e+000) (17, 4.59188955243392760000e-001) (18, -8.26649173986001130000e-001) (19, 1.14459268919903410000e+000) (0, 8.79411752066767250000e+000) (1, 3.35847583399341620000e-001) (2, -2.22381437854480110000e-002) (3, -6.33261896069598600000e+000) (4, 2.56200790519755730000e+000) (5, -1.86397782252846130000e+000) (6, 2.73589481937933910000e+000) (7, 7.02866634314933460000e-001) (8, -3.34352336703825090000e+001) (9, -3.62010725817567710000e-001) (10, 3.70390359678543120000e+000) (11, 9.32118496246330110000e-002) (12, 2.02677349296409080000e+000) (13, -4.48857645057719410000e-001) (14, 8.93091919066929660000e+000) (15, -4.35946547621300140000e-001) (16, -4.95402051608490090000e+000) (17, 2.64424373365724160000e-001) (18, -5.75004019622362320000e+001) (19, 1.64896321595174210000e-002) (0, 3.07094965233662090000e+000) (1, -3.13986279891460770000e-001) (2, 4.56658667803013060000e-001) (3, 7.35286372795109440000e-001) (4, 8.95424968621766130000e-001) (5, 5.01977659389820200000e-001) (6, -2.67665316146450700000e+000) (7, -8.76219999717289260000e-002) (8, 7.78843867224773170000e-001) (9, -4.34529203940467730000e-001) (10, -5.20390404238522650000e+000) (11, 3.70796193421084660000e-001) (12, -1.32068890327614950000e+000) (13, 9.59648308322203490000e-001) (14, -2.32767520410050950000e+000) (15, -9.36397906884963850000e-002) (16, 1.58772774259860620000e+001) (17, -5.29062741728788190000e-002) (18, -3.22160235545096580000e+000) (19, 7.62729730290011560000e-001) (0, 5.13610574087339340000e+000) (1, 1.81791281385696390000e-001) (2, -7.66058151182619880000e-001) (3, 2.99377789219078980000e-001) (4, 1.33643037545734470000e+001) (5, 5.95224934632700280000e+000) (6, -4.05445241818281300000e+001) (7, 5.00471952694541210000e-002) (8, -3.46136390278322410000e+000) (9, 1.49790980655209750000e+000) (10, -2.12214194869957500000e+001) (11, 1.61011789744762960000e+000) (12, 9.39249034417318640000e+000) (13, 4.20918854231249640000e-001) (14, 1.11536958094634550000e+001) (15, 4.24376872083110790000e+000) (16, -1.41723381330315410000e+001) (17, 1.72601885790782440000e+000) (18, -1.01369465278480360000e+001) (19, 3.82916386996159210000e-001) (0, -3.25664783381376780000e-001) (1, 3.31709344280963080000e-002) (2, -3.05912980590505070000e-002) (3, 9.47175253812674420000e-001) (4, 4.59938150908255140000e+001) (5, 2.14706776996724450000e+000) (6, -3.88140030453939800000e-002) (7, -2.75377703766862550000e-001) (8, 1.45587179761535950000e+000) (9, -5.20940260851808330000e-001) (10, 3.83781403887872300000e-001) (11, 8.16350161987039690000e-001) (12, 1.35283522369923340000e+000) (13, 4.79793299716320830000e+000) (14, -1.37216792137927610000e+001) (15, -1.19824855720209770000e-001) (16, 1.58181012272472210000e+001) (17, 7.55781637564422850000e+000) (18, -1.67627758587523270000e+001) (19, 8.92961658007974110000e-001) (0, -2.11717731115014420000e+000) (1, -1.61899704658577920000e-001) (2, -1.18496337463900340000e+000) (3, -7.86130086114751880000e-002) (4, -2.43882303100758730000e+000) (5, -3.81021966429774210000e-001) (6, 2.23911504575796020000e+001) (7, 7.80608888159786080000e-003) (8, 7.34749145039181540000e-001) (9, -3.51151219399329690000e-001) (10, 1.62584593615836040000e+000) (11, -1.97309425227934420000e-002) (12, -4.28301408114811720000e+000) (13, -2.66504261362928430000e-001) (14, 1.63848835689609880000e+000) (15, -1.59654184416475780000e-001) (16, -4.60728518205700540000e-001) (17, 4.93025257801545050000e-001) (18, -6.12100166713403750000e+000) (19, -5.19072400339239510000e-001) (0, -1.84911409579329980000e+001) (1, 5.94194740086849140000e-001) (2, -3.98041517412657700000e+000) (3, -1.77227025069041950000e+000) (4, 2.39081394097665980000e+001) (5, -6.76317556833398340000e-001) (6, 1.60680476698665120000e+001) (7, 6.51115020764116980000e-002) (8, 7.71849620761791840000e+000) (9, -1.45168331777894510000e-001) (10, -9.92828972617453690000e+000) (11, 1.34597714914241510000e+000) (12, -1.60308847240198670000e+001) (13, -2.38001028785769340000e-001) (14, 1.16822255003362960000e+000) (15, 3.05826795430060190000e-001) (16, 1.39996958693765940000e+000) (17, -4.11495916381947670000e-002) (18, 2.94474167785392210000e+001) (19, 1.45234356108063260000e-001) (0, 3.32190429624248860000e+001) (1, -3.24708751141720290000e+000) (2, 2.76582183188931510000e+000) (3, 1.56566513588697220000e-001) (4, -2.27047374712533840000e+001) (5, 2.00161019041375620000e+000) (6, 3.33257167832095430000e+001) (7, 1.83598152465382800000e+000) (8, 1.93369802196045800000e+000) (9, 1.27580609217089180000e+000) (10, 7.06842818455293910000e+000) (11, 8.38128126137766880000e-001) (12, 1.58780874393753900000e+000) (13, -5.65493952823152180000e-001) (14, -1.75259634709792640000e+000) (15, -9.03870987150827370000e-001) (16, 2.58801673963913490000e+000) (17, 2.48491796091952160000e-001) (18, 1.06498888447112620000e+000) (19, -1.07669671199517940000e+000) (0, -4.54154631585499580000e+000) (1, -9.94537584754219970000e-002) (2, -1.56433951110042920000e+000) (3, -8.98597992333462350000e-002) (4, 5.52525203563070820000e+000) (5, 1.34158500017682150000e-001) (6, -1.32457907375796150000e+001) (7, 1.38310970410166330000e+000) (8, -1.84250731166104210000e-001) (9, -1.88965894525842990000e-003) (10, 2.25874272787618890000e+000) (11, -3.34664525487851030000e-001) (12, -3.55750065797194190000e+000) (13, -2.07996018201092560000e-001) (14, 2.15064013303980810000e-001) (15, -2.02065911356246690000e-001) (16, -6.29206820862128060000e-002) (17, 4.30135190666778920000e-002) (18, 1.33666353116699250000e+000) (19, -5.64570495091245790000e-001) (0, 2.88588779194452750000e-001) (1, 1.10346366154374450000e-001) (2, 1.15077654470781510000e+000) (3, 8.41542133069393850000e-001) (4, -1.39311267730648290000e+001) (5, 1.36538108428562600000e+000) (6, -5.54196684389734970000e+000) (7, 1.84591473173149560000e-001) (8, -1.71306934073628230000e+001) (9, 1.43070063009197650000e+000) (10, 3.32488752033900920000e+001) (11, 2.23417263525739030000e+000) (12, 1.30798103174270920000e+000) (13, 6.52523246393342690000e-001) (14, 5.47156523572944100000e+001) (15, 2.66285932754524390000e+000) (16, 6.64817300379923700000e-001) (17, 3.26936441351102950000e-001) (18, 5.50466888560216390000e+001) (19, 1.16176720485017260000e+000) (20, -1.25561891144267460000e+000) (21, 2.26519626222291910000e-001) (22, 1.06451990797329880000e+000) (23, 1.36055277323946290000e+000) (24, 2.07775406745724260000e+000) (25, -4.60002017755424100000e-001) (26, 4.51465900040015130000e-001) (27, -2.09192970402403900000e+000) (28, 4.94546795222193080000e-001) (29, -1.90641246377718430000e-004) (30, 1.87510274667494620000e-001) (31, -1.55486356798455650000e-001) (32, 1.29513935498331300000e+000) (33, 1.33274402967423610000e+000) (34, -1.24618253348152350000e+000) (35, -1.95665463329221390000e+000) (36, 7.89545653529282740000e-001) (20, -3.81833677383749510000e-001) (21, 9.67355556679275970000e-001) (22, -9.72669121365233870000e-001) (23, 6.43226914169046510000e-002) (24, -1.98275340699310500000e+000) (25, -1.57758361697688710000e+000) (26, 1.13524653140943000000e+000) (27, 2.48884000429632880000e+000) (28, -1.17333633545622810000e+000) (29, -2.08342477332671550000e+000) (30, 2.23149336812823580000e+000) (31, -3.63768046392452140000e-001) (32, -2.07714533202363550000e+000) (33, -6.93254034482821000000e-002) (34, -5.11498354451021330000e-002) (35, 2.44600117477930780000e+000) (36, 5.10576918823654860000e-001) (20, 1.38584980239140540000e+000) (21, 7.59037664658511750000e-001) (22, -3.53363895440618690000e-001) (23, -1.01854991240380550000e+000) (24, 9.74391363202597480000e-003) (25, 2.34518970121471830000e+000) (26, 6.48586804335233970000e-001) (27, -1.57056630279256400000e-001) (28, 1.87231291827915360000e+000) (29, 2.09648538964475280000e+000) (30, -2.46251037102145930000e+000) (31, -4.53432836732995230000e-001) (32, 9.32805261688675170000e-001) (33, -9.91976399973995000000e-001) (34, 3.08087620663135280000e-001) (35, -1.22714368164558560000e+000) (36, 1.11259083776384090000e+000) 
