FANN_FLO_2.1
num_layers=3
learning_rate=0.700000
connection_rate=1.000000
network_type=0
learning_momentum=0.000000
training_algorithm=2
train_error_function=1
train_stop_function=0
cascade_output_change_fraction=0.010000
quickprop_decay=-0.000100
quickprop_mu=1.750000
rprop_increase_factor=1.200000
rprop_decrease_factor=0.500000
rprop_delta_min=0.000000
rprop_delta_max=50.000000
rprop_delta_zero=0.100000
cascade_output_stagnation_epochs=12
cascade_candidate_change_fraction=0.010000
cascade_candidate_stagnation_epochs=12
cascade_max_out_epochs=150
cascade_max_cand_epochs=150
cascade_num_candidate_groups=2
bit_fail_limit=3.49999999999999980000e-001
cascade_candidate_limit=1.00000000000000000000e+003
cascade_weight_multiplier=4.00000000000000020000e-001
cascade_activation_functions_count=10
cascade_activation_functions=3 5 7 8 10 11 14 15 16 17 
cascade_activation_steepnesses_count=4
cascade_activation_steepnesses=2.50000000000000000000e-001 5.00000000000000000000e-001 7.50000000000000000000e-001 1.00000000000000000000e+000 
layer_sizes=22 23 4 
scale_included=0
neurons (num_inputs, activation_function, activation_steepness)=(0, 0, 0.00000000000000000000e+000) (0, 0, 0.00000000000000000000e+000) (0, 0, 0.00000000000000000000e+000) (0, 0, 0.00000000000000000000e+000) (0, 0, 0.00000000000000000000e+000) (0, 0, 0.00000000000000000000e+000) (0, 0, 0.00000000000000000000e+000) (0, 0, 0.00000000000000000000e+000) (0, 0, 0.00000000000000000000e+000) (0, 0, 0.00000000000000000000e+000) (0, 0, 0.00000000000000000000e+000) (0, 0, 0.00000000000000000000e+000) (0, 0, 0.00000000000000000000e+000) (0, 0, 0.00000000000000000000e+000) (0, 0, 0.00000000000000000000e+000) (0, 0, 0.00000000000000000000e+000) (0, 0, 0.00000000000000000000e+000) (0, 0, 0.00000000000000000000e+000) (0, 0, 0.00000000000000000000e+000) (0, 0, 0.00000000000000000000e+000) (0, 0, 0.00000000000000000000e+000) (0, 0, 0.00000000000000000000e+000) (22, 5, 5.00000000000000000000e-001) (22, 5, 5.00000000000000000000e-001) (22, 5, 5.00000000000000000000e-001) (22, 5, 5.00000000000000000000e-001) (22, 5, 5.00000000000000000000e-001) (22, 5, 5.00000000000000000000e-001) (22, 5, 5.00000000000000000000e-001) (22, 5, 5.00000000000000000000e-001) (22, 5, 5.00000000000000000000e-001) (22, 5, 5.00000000000000000000e-001) (22, 5, 5.00000000000000000000e-001) (22, 5, 5.00000000000000000000e-001) (22, 5, 5.00000000000000000000e-001) (22, 5, 5.00000000000000000000e-001) (22, 5, 5.00000000000000000000e-001) (22, 5, 5.00000000000000000000e-001) (22, 5, 5.00000000000000000000e-001) (22, 5, 5.00000000000000000000e-001) (22, 5, 5.00000000000000000000e-001) (22, 5, 5.00000000000000000000e-001) (22, 5, 5.00000000000000000000e-001) (22, 5, 5.00000000000000000000e-001) (0, 5, 0.00000000000000000000e+000) (23, 5, 5.00000000000000000000e-001) (23, 5, 5.00000000000000000000e-001) (23, 5, 5.00000000000000000000e-001) (0, 5, 0.00000000000000000000e+000) 
connections (connected_to_neuron, weight)=(0, 3.15337474663891240000e+000) (1, -1.01061643250101520000e+000) (2, -2.30570471803190460000e+000) (3, 3.70805806109554600000e-001) (4, 2.93750171280577410000e+000) (5, -4.43470899521773600000e-001) (6, -7.54866378570017190000e+000) (7, -8.17541414794682040000e-002) (8, -3.09924908972609040000e+001) (9, 1.63385802807767130000e-002) (10, -1.00117455190656360000e+001) (11, 1.96766465997059490000e+000) (12, 2.64143218387283470000e+000) (13, -2.87556267199791270000e-001) (14, -3.24580725000477210000e+000) (15, 8.09905094770391050000e-002) (16, 3.16181284082197460000e+000) (17, 2.77147438926270640000e-001) (18, -2.67591662534164220000e-001) (19, 1.35009887229807580000e+000) (20, -1.63059176940986280000e+001) (21, -6.58897074533910390000e-002) (0, 1.03201441554280390000e+001) (1, 3.91457336037657090000e-001) (2, -1.20856020072101610000e+001) (3, 3.01844121460201010000e-001) (4, 2.67226031721140700000e+001) (5, -2.15832278120278610000e-001) (6, 1.98865089882199190000e+001) (7, -4.53398685025173390000e-001) (8, -7.14703855163510400000e+000) (9, -3.06394616245716160000e+000) (10, 5.02568753593442170000e+000) (11, 6.33888753591469010000e-001) (12, -3.47312232443064910000e+000) (13, 4.83275321273723910000e-001) (14, 1.66632076373518340000e-002) (15, -8.87294428596622780000e-001) (16, -3.27263524093748930000e+000) (17, -6.22329420399630060000e-004) (18, 1.07397547448884400000e+001) (19, -3.37465635732282940000e-001) (20, 4.05970851169387210000e-004) (21, -4.04298300614387600000e-001) (0, -9.65130124316206370000e-001) (1, 1.42955919674886610000e+000) (2, -7.64263540913601420000e+000) (3, 5.63075863913219950000e-001) (4, -9.10143880063602580000e-001) (5, 9.18049906562712460000e-001) (6, 1.35551797488640790000e+001) (7, 3.37552169095603020000e+000) (8, -1.90017976711335910000e+000) (9, 5.32872595004154560000e-002) (10, 2.16867092405845340000e+000) (11, 2.32129075653603300000e-001) (12, -4.24277224610815560000e+000) (13, -1.48356934940660450000e+000) (14, 1.92109678133422860000e+001) (15, 8.98313894665412450000e-001) (16, -6.37939110036323530000e-001) (17, 4.27034015901768440000e+000) (18, -3.57180237993284210000e+001) (19, 1.47433436250573810000e+000) (20, -2.27908341544957760000e+001) (21, -4.13905276058339040000e-001) (0, 2.56884662462249880000e+000) (1, -3.91422740328690620000e-001) (2, 5.94129841921784640000e-001) (3, -2.58008342712181260000e-002) (4, -1.86748136102911850000e+001) (5, -2.63391326396539500000e-001) (6, 1.78441138404514500000e+000) (7, -2.06424370288773540000e+000) (8, -9.77594484207138770000e+000) (9, 7.22370686255598550000e-002) (10, 2.73453177295299390000e-001) (11, -6.57212600939691140000e-001) (12, -2.91892859731784560000e+000) (13, 7.73167185776320840000e-003) (14, 1.39988656859669390000e+000) (15, 1.98505498303922060000e-001) (16, -5.93425170626589970000e+000) (17, -3.61018363201128900000e-001) (18, 3.12679652518049410000e-001) (19, 4.59782708238181850000e-001) (20, -5.20972953576263990000e+000) (21, 2.46582861443672730000e-002) (0, -2.36642992737456210000e+000) (1, 6.85228269751640080000e-001) (2, 2.01850785109636540000e+000) (3, 8.08399310616847440000e-001) (4, 6.23155827133024780000e+000) (5, 1.98323370236179710000e-001) (6, 4.10888036398784440000e+000) (7, -1.60933579758582470000e+000) (8, -3.17893380380028670000e+001) (9, -7.95092538334372990000e-001) (10, 3.07152129258007720000e-001) (11, 4.07876803229461240000e-001) (12, -7.76963064928624720000e+000) (13, -1.48433963362039100000e-001) (14, -3.15399622027384700000e+000) (15, -1.28172301492185340000e-001) (16, -5.29241320823411240000e+000) (17, 3.70564701329671950000e-001) (18, 9.53217701542073410000e-001) (19, 5.72482081971909640000e-001) (20, -5.94016986538619030000e+000) (21, -1.20398890668085500000e-001) (0, -9.15710318731864700000e+000) (1, 6.04260889342402590000e+000) (2, 3.20187638651197170000e+000) (3, 2.63227156066360880000e-001) (4, 1.39710655036690920000e+001) (5, 9.00680662368749330000e-001) (6, 3.93206721134807990000e+000) (7, 1.41020450453506640000e+000) (8, 1.01153078851054960000e+000) (9, 1.69929124655289110000e+000) (10, -2.37013372239475920000e+000) (11, 7.89797622034950740000e-001) (12, -4.79693597683033880000e+000) (13, 2.95698463099473590000e+000) (14, -1.62340232969884110000e+001) (15, 9.42979369731416490000e-001) (16, 3.06292613367193840000e+000) (17, 6.09004591837962520000e-001) (18, -1.47297270165281550000e+001) (19, 2.74123805926196030000e+000) (20, -2.84234202273773340000e+000) (21, 9.09349954096298040000e-001) (0, -5.98377667280203520000e+000) (1, -9.07901553782129440000e-002) (2, -1.18829254842445610000e+001) (3, 1.98397171592779880000e+000) (4, 2.17382229693813360000e+000) (5, 2.37103669333058240000e+000) (6, 1.14806008530170180000e+001) (7, -2.42604379613411300000e-001) (8, -1.05818607860326510000e+000) (9, 1.47464377967184430000e+000) (10, 3.14539806128897050000e+000) (11, 1.63142862779514240000e+000) (12, 2.60660138062996530000e+000) (13, 6.19243227993203860000e-001) (14, 7.13578748632611500000e+000) (15, -4.78787031189500000000e-001) (16, -5.06425253362755460000e-001) (17, -4.34570966778479340000e-001) (18, 2.58477479830436560000e+000) (19, 1.15921296573812340000e+000) (20, -2.15843016082401040000e+001) (21, 5.78919974110108430000e-001) (0, 4.78068464538700670000e-001) (1, 1.57837068613240760000e-001) (2, -1.02962329995261490000e+000) (3, 1.58291596037124870000e-001) (4, 5.04612681298790220000e-001) (5, -2.85689221268420780000e-001) (6, 1.94466094424562860000e+000) (7, 5.59883343880240230000e-002) (8, -5.44320408585539630000e+000) (9, 1.66781893044163100000e-001) (10, 1.24435923091381270000e+000) (11, 2.44880696623608280000e-001) (12, 1.92821313414055750000e+000) (13, -1.38467574198786690000e-001) (14, 6.98380622182687990000e+000) (15, 1.60569450413934190000e-001) (16, 6.25809660464764610000e-001) (17, 5.32766366642741680000e-001) (18, -2.91583335552897880000e+000) (19, -2.90305907018977900000e-001) (20, 2.82100353666774200000e+000) (21, 2.24270735073623900000e-002) (0, 1.22993610477891460000e+001) (1, -2.35160410546672550000e-001) (2, 2.05779425036625980000e+001) (3, -5.29704673215359190000e-001) (4, -3.00439352838217300000e+000) (5, -1.69915547980453140000e-001) (6, 1.06135280713997860000e+001) (7, -8.63454974084959860000e-001) (8, 4.11416678783584620000e+001) (9, -8.42226636711842390000e-001) (10, 4.99920598703978380000e+001) (11, 4.62205286819890090000e-001) (12, 1.86415964037308270000e+000) (13, -1.69457247978519020000e+000) (14, 1.55636183170146370000e+001) (15, 2.12717085902737580000e-001) (16, 4.24333502745977310000e-001) (17, 1.69206860181173390000e+000) (18, 4.21054371476945110000e+000) (19, 6.40524415864673760000e-002) (20, -1.91409875029951170000e+001) (21, 5.13713945028625220000e-001) (0, 8.00667853279552370000e-001) (1, 3.36266730112744750000e+000) (2, 9.97707263447950020000e-001) (3, -4.16869567154068210000e-002) (4, 4.77516429196134570000e-001) (5, 2.27279483273049750000e-001) (6, 2.57482197236340190000e+001) (7, -8.48911234892063550000e-001) (8, 8.57630380400900980000e+000) (9, -2.71775190333451100000e-001) (10, -8.42637912966105770000e+000) (11, 9.32089235202242520000e-002) (12, 1.19463033897853440000e+001) (13, -1.35968754161185100000e+000) (14, -1.41322459885899900000e+001) (15, 3.03559273788757980000e+000) (16, 2.92227211779105560000e+000) (17, 3.28837671450950500000e-001) (18, -2.88816900002609160000e+000) (19, 4.01058920570644430000e+000) (20, 4.62866699199647870000e+000) (21, -1.86061080495642410000e+000) (0, 1.81809859474341100000e+000) (1, -9.90557823571915210000e-002) (2, 6.80860486538844120000e-001) (3, 1.42993203139942740000e-001) (4, 3.97806564781631680000e-001) (5, 2.86624078947701310000e-001) (6, 5.08862024287058290000e-001) (7, 2.60333826554473740000e-001) (8, -3.76847873558776860000e-001) (9, 2.11031073830128650000e-001) (10, 6.90468546421631800000e-001) (11, 2.32265437195328550000e-001) (12, -3.62590775746453820000e-001) (13, -8.62946843163932970000e-002) (14, 2.61832236943057910000e+000) (15, 1.29076963918835610000e-001) (16, 1.95651652469068130000e+000) (17, 1.52105742317285410000e-001) (18, 1.48416870062497870000e-001) (19, -1.07840766638880650000e-001) (20, -7.58639758600291800000e+000) (21, 3.92109579316595670000e-002) (0, -6.90312958721349190000e+000) (1, 1.25009001557576900000e+000) (2, 6.13273316532869210000e+000) (3, 1.37762762164601970000e+000) (4, -1.89787964613078360000e+000) (5, 3.04494748834229820000e+000) (6, 3.76787881278510020000e+000) (7, 1.17091083686970410000e+000) (8, -1.13244353491252410000e+000) (9, 7.18958521089691490000e-002) (10, 8.67346303872702860000e+000) (11, 7.43844904389969530000e-001) (12, -1.29302280725811110000e+001) (13, 3.99853579333936390000e+000) (14, 1.52648212981834450000e+001) (15, 3.33777587656354990000e+000) (16, -1.13367753161036360000e+000) (17, -5.40007904938520910000e-001) (18, 2.28006640798400010000e+001) (19, 5.86421523769911260000e+000) (20, -1.03622433558392900000e+001) (21, 4.99998435080184270000e-001) (0, 3.03743008212250360000e-001) (1, 6.81197476836170820000e-001) (2, -1.95990043058799410000e+000) (3, -5.87171505794695570000e-001) (4, 1.87287241782153730000e+001) (5, -2.51390874663207970000e-001) (6, 3.93907139292875110000e+000) (7, 2.89859417986473470000e-001) (8, 2.86105767827856070000e-001) (9, -5.88458713029524790000e-001) (10, -3.72075970806880110000e+000) (11, 5.36877094727183920000e-001) (12, -7.09983195797111550000e-001) (13, -3.97674438983288080000e-001) (14, -5.75217073423340790000e+000) (15, 2.96559825708427540000e-001) (16, -4.13569597212350890000e+000) (17, -1.79480852322945570000e+000) (18, 9.02257762356607000000e+000) (19, 4.24299304921529230000e-001) (20, -1.11616312694788520000e+001) (21, -4.82137338588375990000e-001) (0, -2.99084802290759200000e+000) (1, 4.62131857201663260000e-002) (2, -3.08851075109500520000e+000) (3, 6.59092757328563540000e-001) (4, 4.09784834752246320000e+000) (5, 4.54660943963899130000e-002) (6, -3.99536525718597770000e-001) (7, 4.20588672458427020000e-001) (8, 3.77422233770015710000e+000) (9, 2.60420275076406190000e-001) (10, 1.50053219679648290000e+001) (11, 2.12360570978691770000e-001) (12, 1.16980922488231030000e+001) (13, 3.11887594593031000000e-001) (14, 2.24130752839633370000e+001) (15, 5.75407958572627250000e-002) (16, 6.08660939187404180000e+000) (17, 8.07418115846844640000e-001) (18, 2.69740381160283340000e+000) (19, 2.66181149245200590000e-001) (20, 2.84409831736828700000e+000) (21, -1.36163721829799230000e+000) (0, 8.18103453422251990000e-001) (1, 3.65019049620783210000e-002) (2, 2.09168094488303820000e+001) (3, -1.68263719666904570000e-001) (4, 2.50502892003694420000e+000) (5, 2.46508204993185870000e-002) (6, 3.15839424531935920000e-001) (7, 7.70203123880856990000e-001) (8, 3.83623040223753090000e+000) (9, 2.09016191080279250000e-001) (10, 2.01733031958686170000e+000) (11, 4.21037376595802610000e-002) (12, 1.16638641101511430000e+000) (13, 1.09312016192603090000e+000) (14, -5.34139555772369420000e+000) (15, -1.19832377357444670000e+000) (16, 3.11471023715464490000e+000) (17, -1.66605591134717070000e-001) (18, -6.70578130572758900000e+000) (19, -4.61678675757721980000e-001) (20, 1.20760198831710380000e+002) (21, 5.42680390982667630000e-001) (0, -1.92757386183383550000e+001) (1, -6.45982181090623890000e-001) (2, -5.00580014622283900000e+000) (3, -9.50910882511655230000e-002) (4, -5.44548829049244270000e+000) (5, 1.71416363200183050000e+000) (6, 4.62385958237623210000e+000) (7, 5.18187811873425110000e-001) (8, 9.44921393932235950000e-001) (9, 8.84488937720486760000e-001) (10, 4.60487567639578190000e+000) (11, 1.82384817177922710000e-001) (12, 8.11250622062452110000e+000) (13, 5.66469498400049340000e-001) (14, 1.25614552261270550000e+001) (15, -5.26216927267725810000e-003) (16, 2.93705274858365770000e+000) (17, 5.83469769497788730000e-001) (18, 5.76098850086854420000e+000) (19, -1.25278692332527750000e-001) (20, 2.59186032968359470000e+001) (21, -1.59414410987222220000e+000) (0, -2.22700910432268080000e-001) (1, -5.50789675342179630000e-003) (2, -2.70759461967962520000e+000) (3, 4.75178116934486750000e-001) (4, -1.67218101080930490000e+000) (5, 6.15143741125493750000e-001) (6, 5.57207207000922900000e+000) (7, 2.64529873522232560000e+000) (8, 3.22634519793129830000e+000) (9, -3.38302763752401810000e-001) (10, -2.37851599658103740000e-001) (11, 5.26777796981230620000e-001) (12, 1.27942771493224450000e+001) (13, 6.17482338732896040000e-001) (14, 5.08866258150881820000e+000) (15, 4.43672345474183270000e-001) (16, 8.76032683469051350000e-003) (17, 5.18524182868565050000e-001) (18, -7.29422341565252540000e-001) (19, 7.97857767728752830000e-001) (20, -1.19831990374774890000e+001) (21, 9.14371632365360010000e-001) (0, -1.90617453979418580000e+000) (1, 5.07789400370438070000e-001) (2, 2.25698549649060040000e+000) (3, 4.49811482952761120000e+000) (4, 1.32600040721233000000e+001) (5, 1.78017414969235260000e-001) (6, 7.79171973627623870000e+000) (7, 1.10275721319561090000e+000) (8, 1.91095010041236040000e+000) (9, 6.66126118946870790000e-001) (10, 9.93215954928419850000e-001) (11, -2.11652303450784810000e-001) (12, 5.18575411053770900000e+000) (13, 5.03331598019811310000e-001) (14, -1.96479151850943360000e+000) (15, 4.57630038519992840000e-001) (16, 2.63738997966372010000e-001) (17, 4.78331226816815830000e-003) (18, -2.39898325037773970000e+000) (19, 2.15076080187665330000e-001) (20, 3.42981371912010100000e+000) (21, 9.83736586954555570000e-001) (0, 8.63907131646031880000e+000) (1, 6.96448113076351350000e-001) (2, 1.75404690331865280000e+000) (3, 5.35675054245477010000e-001) (4, 8.50018646780803700000e+000) (5, -1.70252892960557210000e+000) (6, 1.15273358940629290000e+000) (7, -9.77597580700961030000e-001) (8, 8.14194020305229490000e+000) (9, 6.59941478696830920000e-002) (10, 1.78733094813657760000e+000) (11, 6.18335597328906640000e-001) (12, 4.69156952448653360000e+000) (13, -4.25495213337657880000e-001) (14, -5.30656363929850940000e-001) (15, 2.02904333721820460000e+000) (16, 1.95719260742557100000e+001) (17, -1.07251125242001070000e+000) (18, -6.21887319208558220000e-001) (19, 2.01689624212669210000e+000) (20, 9.16789045718557460000e+000) (21, -9.72965432971116820000e-001) (0, 1.82916842941672220000e+001) (1, 1.02389126458546610000e+000) (2, -1.41762134108030690000e+001) (3, 1.10675782063528730000e+000) (4, 7.78116624814439910000e+000) (5, 3.09012252625002630000e+000) (6, -7.35444410476880250000e-001) (7, -8.52241502255388500000e-002) (8, 2.89257353134358560000e+000) (9, 1.49401397689555400000e+000) (10, -1.90280302402369370000e-001) (11, 2.68954801732349800000e+000) (12, -3.30457495559162100000e+001) (13, -6.57429016161233060000e-001) (14, 4.30546905485424960000e+000) (15, 4.73851545741756090000e-001) (16, 1.37934149140287070000e-001) (17, 2.59080958034893500000e-001) (18, -8.02517962586026590000e-001) (19, 3.67776600057183110000e+000) (20, -6.79270418883754880000e+000) (21, 9.77810620933469710000e-001) (0, 5.19753253045555660000e+000) (1, -2.53308240488213770000e-001) (2, 2.70383917293208630000e+000) (3, -2.99114729122123270000e+000) (4, -3.68756567357137180000e+000) (5, 7.43755949357779440000e-001) (6, 3.65096665752696260000e+000) (7, 1.41208936986778420000e-001) (8, 5.67284292549320310000e+000) (9, -9.83182873576709390000e-002) (10, -3.47110158869418410000e+000) (11, 1.44086920559229840000e-001) (12, 2.29822573257993520000e-001) (13, -4.22270506833363410000e-002) (14, 3.21367921773595900000e+000) (15, -9.08263643281818190000e-001) (16, 1.08451451396415830000e+000) (17, 1.58648905874220200000e-001) (18, -1.92102671516685940000e+000) (19, -1.11045749687240280000e+000) (20, -1.04664256317793700000e+000) (21, 3.44803259065551810000e-001) (0, 4.34246264962812100000e-001) (1, 6.72056090803977770000e-001) (2, 2.01082879481131060000e+000) (3, 2.76149186994010150000e-002) (4, 1.97078836104193880000e+000) (5, 1.14994892886884400000e-001) (6, 6.49959005014961470000e+000) (7, 1.05537607791741660000e+000) (8, 5.28638806472071640000e+000) (9, 2.02759281072919210000e-001) (10, 5.80368381513865830000e-001) (11, 3.85137919146086640000e-001) (12, 8.14296218946463310000e-001) (13, 2.48792850229597520000e+000) (14, 2.43349588493829130000e+000) (15, 3.97617678287945920000e-001) (16, 8.42616963800946530000e-001) (17, 6.49759552288923510000e-002) (18, -1.34668158851132500000e+000) (19, 1.05586236218132910000e-001) (20, 1.78015580845008120000e+001) (21, 1.73870720910103050000e+000) (22, -1.00040921923301540000e+000) (23, 1.22844615998991390000e+000) (24, 1.03377118158955120000e+000) (25, -1.04888654953583950000e+000) (26, -1.90598060961183150000e+000) (27, -1.70736418223162350000e+000) (28, 2.15861780840151420000e+000) (29, 2.19711653380260140000e-001) (30, 1.96406550154289630000e+000) (31, 9.82844245658090750000e-002) (32, -1.49388100130951960000e+000) (33, 8.93291531536152540000e-002) (34, -9.60630134616369920000e-001) (35, 9.03325516340522490000e-001) (36, -4.42233456261174880000e-002) (37, 2.76627293551624120000e+000) (38, 7.35673347087773100000e-001) (39, 1.10872302981462980000e+000) (40, 2.62160170677412510000e+000) (41, -3.78249277148641480000e-001) (42, 1.62405972079159130000e-001) (43, 4.96854183736871740000e-001) (44, 7.16089204152403400000e-001) (22, 1.07826567540668650000e-001) (23, -2.67294059583429710000e+000) (24, -3.10072319507433440000e+000) (25, 2.99064987409108470000e-001) (26, 5.43729809254506090000e-001) (27, -8.38969244132937830000e-001) (28, 2.57881135970451040000e-001) (29, 2.68642191683718680000e+000) (30, -7.40165573809509980000e-001) (31, 1.62005065811579210000e+000) (32, 2.45470860359279420000e-001) (33, 1.83210244708093820000e+000) (34, -2.13141884583773090000e-001) (35, 1.12376986303220990000e+000) (36, 1.76485407436139630000e+000) (37, -2.58634717422332860000e+000) (38, 4.01623122955112430000e-001) (39, 6.47529395245914460000e-001) (40, -2.92117538542237790000e+000) (41, 2.55383213585282930000e+000) (42, 1.61380007751267620000e+000) (43, 1.13074079995719020000e-001) (44, 2.49461683757427030000e-001) (22, 1.30479061300666710000e+000) (23, 6.67364861513517040000e-001) (24, 1.57065019023694190000e+000) (25, 1.41530078889035680000e+000) (26, 1.06618616008408070000e+000) (27, 2.72661075608824930000e+000) (28, -1.03199190564223000000e+000) (29, 1.12808356131712780000e-001) (30, 1.54926192587936090000e-002) (31, -1.83006932445107310000e+000) (32, -1.23293597993597180000e-001) (33, -2.03567867168148190000e+000) (34, 2.39799952058850340000e+000) (35, -2.30778584004790140000e+000) (36, -1.59768795035953200000e+000) (37, -2.43708433336739030000e-001) (38, 8.40234607759502320000e-001) (39, 1.12806668308835150000e+000) (40, 5.80366386550599470000e-001) (41, -1.43987005396035370000e+000) (42, 3.12474353362278800000e-001) (43, 1.55741241226642240000e+000) (44, 8.28033110760156290000e-001) 
