FANN_FLO_2.1
num_layers=3
learning_rate=0.700000
connection_rate=1.000000
network_type=0
learning_momentum=0.000000
training_algorithm=2
train_error_function=1
train_stop_function=0
cascade_output_change_fraction=0.010000
quickprop_decay=-0.000100
quickprop_mu=1.750000
rprop_increase_factor=1.200000
rprop_decrease_factor=0.500000
rprop_delta_min=0.000000
rprop_delta_max=50.000000
rprop_delta_zero=0.100000
cascade_output_stagnation_epochs=12
cascade_candidate_change_fraction=0.010000
cascade_candidate_stagnation_epochs=12
cascade_max_out_epochs=150
cascade_max_cand_epochs=150
cascade_num_candidate_groups=2
bit_fail_limit=3.49999999999999980000e-001
cascade_candidate_limit=1.00000000000000000000e+003
cascade_weight_multiplier=4.00000000000000020000e-001
cascade_activation_functions_count=10
cascade_activation_functions=3 5 7 8 10 11 14 15 16 17 
cascade_activation_steepnesses_count=4
cascade_activation_steepnesses=2.50000000000000000000e-001 5.00000000000000000000e-001 7.50000000000000000000e-001 1.00000000000000000000e+000 
layer_sizes=24 15 4 
scale_included=0
neurons (num_inputs, activation_function, activation_steepness)=(0, 0, 0.00000000000000000000e+000) (0, 0, 0.00000000000000000000e+000) (0, 0, 0.00000000000000000000e+000) (0, 0, 0.00000000000000000000e+000) (0, 0, 0.00000000000000000000e+000) (0, 0, 0.00000000000000000000e+000) (0, 0, 0.00000000000000000000e+000) (0, 0, 0.00000000000000000000e+000) (0, 0, 0.00000000000000000000e+000) (0, 0, 0.00000000000000000000e+000) (0, 0, 0.00000000000000000000e+000) (0, 0, 0.00000000000000000000e+000) (0, 0, 0.00000000000000000000e+000) (0, 0, 0.00000000000000000000e+000) (0, 0, 0.00000000000000000000e+000) (0, 0, 0.00000000000000000000e+000) (0, 0, 0.00000000000000000000e+000) (0, 0, 0.00000000000000000000e+000) (0, 0, 0.00000000000000000000e+000) (0, 0, 0.00000000000000000000e+000) (0, 0, 0.00000000000000000000e+000) (0, 0, 0.00000000000000000000e+000) (0, 0, 0.00000000000000000000e+000) (0, 0, 0.00000000000000000000e+000) (24, 5, 5.00000000000000000000e-001) (24, 5, 5.00000000000000000000e-001) (24, 5, 5.00000000000000000000e-001) (24, 5, 5.00000000000000000000e-001) (24, 5, 5.00000000000000000000e-001) (24, 5, 5.00000000000000000000e-001) (24, 5, 5.00000000000000000000e-001) (24, 5, 5.00000000000000000000e-001) (24, 5, 5.00000000000000000000e-001) (24, 5, 5.00000000000000000000e-001) (24, 5, 5.00000000000000000000e-001) (24, 5, 5.00000000000000000000e-001) (24, 5, 5.00000000000000000000e-001) (24, 5, 5.00000000000000000000e-001) (0, 5, 0.00000000000000000000e+000) (15, 5, 5.00000000000000000000e-001) (15, 5, 5.00000000000000000000e-001) (15, 5, 5.00000000000000000000e-001) (0, 5, 0.00000000000000000000e+000) 
connections (connected_to_neuron, weight)=(0, -3.54974142293733050000e+001) (1, 2.23149104748113780000e+000) (2, -1.49596749932395420000e+000) (3, -3.60740266769933980000e-001) (4, -2.32436182831479920000e+001) (5, 4.38139798620556630000e-001) (6, -8.39308867605295280000e+000) (7, 4.56092194493068090000e-001) (8, -2.06526910070972430000e+001) (9, -1.76871312656733040000e+000) (10, -7.05635880189309810000e+000) (11, 1.16873182141143570000e+000) (12, 1.30271304572994280000e+001) (13, -6.38326884437746880000e-001) (14, 1.52060132677215410000e+001) (15, -9.04947678047239520000e-001) (16, 1.25782976253862040000e+001) (17, -7.94499007230394350000e-001) (18, -4.36549954602266600000e+000) (19, 5.06710361339805070000e-001) (20, 2.79051262368114660000e+001) (21, -2.86632142413064890000e-001) (22, 2.04017828114504060000e+001) (23, -5.40708983605505460000e-001) (0, 2.68397063748440350000e+001) (1, 5.13435690610608670000e-001) (2, 1.37419528943570270000e+001) (3, 8.29813501977347380000e-001) (4, -8.34965140427489240000e+000) (5, -1.43116988028860190000e-001) (6, 1.94283025421225840000e+001) (7, -1.66046189097536710000e-001) (8, 2.10685316343288030000e+001) (9, -2.41245604304319020000e-001) (10, 2.77077159467263990000e+001) (11, -1.60216855130691660000e+000) (12, 2.57376904034469160000e+001) (13, 1.11342261965443670000e-001) (14, 4.38467338369502000000e+000) (15, -1.21547300273340890000e+000) (16, 2.58038400887119510000e+001) (17, 7.53991074602530790000e-001) (18, 1.93952897409394340000e+000) (19, 1.26586894384904980000e+000) (20, 1.63909039144944660000e+000) (21, 1.51790835147356250000e+000) (22, 1.71924158737518620000e+001) (23, -9.39554062916761910000e-001) (0, 1.04850152644925190000e+001) (1, 4.44952010148775500000e-001) (2, 5.63100283965108590000e+001) (3, 2.85327156855632190000e+000) (4, -2.24837669108838870000e+000) (5, 2.81675658519304630000e+000) (6, -3.86732900558537980000e+001) (7, 1.69986674258220340000e+000) (8, -4.96193846540404600000e-001) (9, 6.61438869035839260000e+000) (10, 5.07750853066093340000e+001) (11, 1.74026303856136470000e+000) (12, 5.57478663177938710000e+001) (13, 7.25976794191308010000e+000) (14, 5.36862372665680800000e+000) (15, 1.82227300821457750000e+000) (16, 1.49471279103886020000e+001) (17, 5.33547943664471620000e+000) (18, -2.74308797834090790000e+001) (19, 5.70237545616483120000e+000) (20, -7.59015397402139480000e+001) (21, 1.56512789424775590000e+001) (22, 1.08981274644714330000e+002) (23, 4.75126439685225770000e+000) (0, 3.96996655304032440000e+001) (1, -2.42747399492622320000e+000) (2, 4.78040160833387940000e+001) (3, -1.32980168372397300000e+000) (4, 2.98899960603960010000e+001) (5, -1.25151405170259240000e+000) (6, 1.75350201535880610000e+001) (7, -7.82202057236716100000e-001) (8, -5.41164619730441570000e+000) (9, 1.97452819764704210000e+000) (10, 6.41866483900987110000e+001) (11, 1.22752762755662510000e+000) (12, -4.22023806708005460000e+000) (13, -5.09918180861863250000e-001) (14, -5.54797740312353300000e+001) (15, 1.12976031148255200000e-001) (16, 7.74877175005067030000e-001) (17, 2.29461022409330140000e-001) (18, 3.06943871288807630000e+001) (19, -7.57554387626373390000e-001) (20, -1.68215682487122960000e+001) (21, -1.25455736877160850000e+000) (22, -4.47039058829791000000e+001) (23, -4.48266570682364810000e-001) (0, 2.35541432887950710000e+001) (1, 3.40912216755070800000e+000) (2, -2.36943157817087060000e+001) (3, 5.68197432122305560000e-001) (4, 2.27422036698976160000e+001) (5, 8.85755587213327030000e-001) (6, -3.21996020618418160000e+001) (7, -7.85662095963295840000e-001) (8, 2.73302187173024290000e+001) (9, 1.13277858750079390000e+001) (10, 4.11502922630439090000e+001) (11, -1.59505085342880300000e+000) (12, -1.16453858286495660000e+001) (13, 2.48999637541593400000e+000) (14, 1.62011030536300420000e+001) (15, 1.53581811749450380000e+001) (16, 3.67471910094066170000e+000) (17, 4.02021244572854820000e+000) (18, 1.99684009977838260000e+002) (19, -1.32826973311852090000e+000) (20, 1.49865540971473940000e+001) (21, -2.96365459106983310000e-001) (22, 1.64785456845960670000e+001) (23, 1.47633948238400110000e+001) (0, 7.17407781186456810000e+000) (1, -3.27161555463144760000e+000) (2, -5.88781972365202220000e+001) (3, 1.95600766987065100000e+000) (4, 3.46048007040230350000e+001) (5, -3.93882924090404210000e-001) (6, -2.06293795646364670000e+000) (7, 5.41185510992636500000e+000) (8, 2.90338153714104620000e+001) (9, -7.47279377750756080000e+000) (10, -5.62012383844476700000e+001) (11, 3.20445317681071450000e+000) (12, 1.73753052697140190000e+001) (13, -8.14757804209293780000e-001) (14, -2.50013886440425350000e+001) (15, 4.44589993520139780000e-001) (16, -3.11681510934879040000e+000) (17, 4.05890282798234200000e+000) (18, 5.34063709955994880000e+000) (19, 4.85336195467431610000e+000) (20, -1.24409620875483420000e+000) (21, 2.07803699543676720000e+000) (22, 2.09911343179988920000e+001) (23, -7.74693033596085020000e-003) (0, 1.32818577358231700000e+001) (1, -2.01343654663143350000e+000) (2, 4.51297763798010580000e+001) (3, 6.63207453137354810000e+000) (4, 6.60629860394732020000e+001) (5, -1.52066856101556810000e+000) (6, -1.33623691632585010000e+001) (7, -1.17052213811475030000e-001) (8, 4.34470582233025220000e+000) (9, 2.65820633546470700000e+000) (10, 9.60019651116882680000e+000) (11, 8.67977001996933950000e-001) (12, -5.11089683716548390000e+001) (13, -4.35524771465554130000e+000) (14, 1.05386129933823760000e+001) (15, 6.48989206201768950000e-002) (16, 2.70072454413995620000e+001) (17, 7.01997089735747930000e-001) (18, -6.47112019158346730000e+000) (19, 2.75234268089610210000e-001) (20, -3.51374580676478910000e+001) (21, 1.78175572815078430000e-001) (22, -1.03089494876146470000e+002) (23, 1.13562356158803230000e+000) (0, -2.77097942846233710000e+001) (1, 2.54223560320997070000e+000) (2, 2.19751442884289250000e+001) (3, 3.18683931727626790000e+000) (4, 4.42176241058860240000e+001) (5, 6.08717657364834960000e-001) (6, 5.43253779793650300000e+001) (7, -2.08811510064701180000e+000) (8, 3.45122412850922090000e+001) (9, -3.38686636969979650000e+000) (10, -1.64855514958947080000e+001) (11, 1.77856086005133670000e+000) (12, 1.52847217792701820000e+001) (13, 2.93085254495094940000e-002) (14, 5.66231444005961930000e+000) (15, -2.06989050270039600000e+000) (16, 1.67217069630049410000e+001) (17, -1.76965334205911340000e+000) (18, -8.52074161688425760000e-001) (19, 1.05350001180158850000e+000) (20, 6.10893946266868260000e+001) (21, 1.98288149596930370000e+000) (22, 5.51847080829823400000e+001) (23, 7.28178008135710210000e-001) (0, -2.32214347368314730000e+001) (1, -7.33913686883499010000e-001) (2, -1.88215281780394720000e+001) (3, 1.12767082561302100000e+000) (4, -4.09263058763741650000e+001) (5, 4.66786275460322560000e+000) (6, 3.11583287655262440000e-001) (7, 7.80675297106705130000e-001) (8, -2.67099511456144720000e+001) (9, -6.99016742003532700000e-001) (10, -2.77159170066831670000e+001) (11, 9.11662000580290010000e-001) (12, 8.37172027239922660000e+000) (13, 1.77826185289256040000e+000) (14, -4.85989012598369430000e+001) (15, -2.41595525386125690000e-001) (16, 7.37184940946151550000e+000) (17, -1.17157113492083600000e-002) (18, 3.43367884826683820000e+001) (19, 4.76046801932386440000e-002) (20, 2.54964700270641450000e+001) (21, -1.21581944044761570000e-001) (22, -8.55715919073434430000e+000) (23, 1.43391555069902220000e+000) (0, 2.45158036403055280000e+001) (1, -9.63421041704420780000e-001) (2, 1.75349190586879400000e+001) (3, 2.73249695006477830000e-001) (4, -2.00972595619841880000e+001) (5, -1.28506048885025880000e+000) (6, 2.84049559859650350000e+001) (7, -5.34275181605035400000e-001) (8, 4.27770153258906220000e+000) (9, 7.90272678175617800000e-002) (10, 3.18190752764069560000e+001) (11, -3.46932746959740360000e-001) (12, -3.43345020061078500000e+000) (13, -1.17643817871179660000e+000) (14, -1.23871691037809430000e+001) (15, -6.62265024660527830000e-001) (16, 9.18924728764339880000e+000) (17, -4.64167649139265060000e-001) (18, 2.48173429696358840000e+001) (19, -2.38274857872193410000e-001) (20, 5.87003068883019630000e+000) (21, -1.49398035935778210000e+000) (22, -3.37051568854636940000e+001) (23, 4.44380673763484500000e-001) (0, -4.33390633987569200000e+001) (1, -2.73092137346354800000e+000) (2, -3.95676713667733180000e+001) (3, -7.40896994669620780000e-001) (4, 4.36848436977319490000e+001) (5, -5.33387456355496670000e-001) (6, 3.61879968439917760000e+001) (7, -3.70541173989053670000e-001) (8, 6.91223131659768480000e+001) (9, -1.28368184083304750000e+000) (10, 2.38866697931325010000e+002) (11, 5.02564534642740870000e-001) (12, -4.83344535631465090000e+000) (13, 8.17885908162380270000e-001) (14, -2.38262262134547490000e+001) (15, 5.00228892573179710000e+000) (16, -1.32391186176714330000e+001) (17, 6.21861979092431680000e-001) (18, 2.59589350430385050000e+001) (19, -8.40288291604620490000e-001) (20, -1.46163339157701240000e+001) (21, -4.19219053567472520000e-001) (22, 3.03122870308796700000e+001) (23, -3.46646992160137260000e+000) (0, -6.75281164834824920000e+001) (1, -1.72223790793588580000e+000) (2, 3.21177145430309570000e+001) (3, 6.93028888214416660000e-001) (4, 1.70805430910324430000e+001) (5, -1.38387747387595740000e+000) (6, 2.30579433927441710000e+001) (7, -1.87584172711060270000e+000) (8, 3.52814843949671230000e+001) (9, -2.46129452446312590000e+000) (10, 3.38052574884584870000e+001) (11, 1.18379519907004930000e+000) (12, -1.18410031872607960000e+001) (13, -7.50136660876453920000e-001) (14, -2.67002768169551810000e+001) (15, -2.88482824479034020000e+000) (16, 9.01466156325741070000e+000) (17, -1.65019873875054750000e+000) (18, -2.30485574347771660000e+000) (19, -9.17343333637512530000e-001) (20, 3.70730518860890900000e+001) (21, 1.01652935063850680000e-002) (22, 1.94741014554941260000e+000) (23, -3.80979561586205540000e+000) (0, 2.82235340228158190000e+001) (1, -7.90846189836822600000e+000) (2, -6.05240828870052730000e+000) (3, 1.40201926313154000000e+001) (4, -4.54411452619471130000e+001) (5, -1.85408206467313620000e+000) (6, 1.61953153779575700000e+002) (7, 6.19594863635075320000e-001) (8, 1.48068419889569640000e+002) (9, 4.33356826597062210000e+000) (10, 3.06154088423478900000e+001) (11, 4.81706269493017030000e+000) (12, 4.11559195737016520000e+001) (13, -1.40535904821965390000e+000) (14, 2.57289861919800810000e+001) (15, 8.88430232967381880000e+000) (16, 1.16709647006371040000e+001) (17, 3.46406225436190020000e+000) (18, 7.11420832667689640000e+001) (19, 2.55882654252397620000e+000) (20, -1.67650883013505310000e+001) (21, 2.63543586485668510000e+000) (22, -2.37153737972236480000e+002) (23, 1.49930200123538100000e+000) (0, -3.36939022621163350000e+000) (1, 5.99236876435694790000e-001) (2, 1.09929198952857790000e+001) (3, -4.70030804003127130000e-001) (4, -1.04098012580545110000e+001) (5, 5.79891075640717180000e-001) (6, 6.62666524274883480000e-001) (7, 1.04871722039188220000e-001) (8, -6.97044971202421590000e+000) (9, 3.01414848322518360000e-001) (10, 7.19972979944675370000e+000) (11, 5.64465493893515910000e-002) (12, 6.45233675377820240000e+000) (13, 1.51010580724461520000e+000) (14, 2.87293244424270710000e+001) (15, 1.70029596281746660000e-001) (16, 1.39631712790692290000e+000) (17, -2.82363279152524240000e-001) (18, -3.28114804352737320000e+000) (19, -4.07617870631330540000e-001) (20, 7.91777250330431230000e+000) (21, -3.74269862426422130000e-001) (22, -1.18129440533869110000e+001) (23, 7.18809612477585010000e-001) (24, 4.27970291153599640000e+000) (25, 3.26237842363173640000e+000) (26, -2.62595086434135890000e+000) (27, 2.63808023426389000000e+000) (28, -1.51795071800296250000e-001) (29, -1.75245658659094010000e+000) (30, 1.67283620787316090000e+000) (31, -1.41467504668073270000e+000) (32, 2.37156093299726980000e+000) (33, -4.65377785551689090000e+000) (34, 1.33780614263935260000e+000) (35, -2.45438020033813760000e+000) (36, 5.88439887671368900000e-001) (37, -1.97077786293795400000e+000) (38, 1.74107815952740340000e+000) (24, -3.17016333959031590000e+000) (25, -2.73504789558735780000e+000) (26, 2.12495123390794130000e+000) (27, -2.49932469797687520000e-001) (28, -1.39121407411664480000e-001) (29, 2.99182360712759280000e+000) (30, 7.73206954439268900000e-001) (31, 3.60370115277341530000e+000) (32, -3.61326724205052140000e+000) (33, 2.03838887883049450000e+000) (34, 3.76811412021254010000e-001) (35, -5.79115308172460150000e-001) (36, -3.27545891029257370000e+000) (37, 4.11362082672193360000e+000) (38, 1.17413205437573190000e+000) (24, -2.55856500173610000000e-001) (25, -2.32037767613931440000e-001) (26, 2.51485491226794590000e-001) (27, -1.62519499364734550000e+000) (28, 2.70737657337538580000e+000) (29, -8.93305283836200780000e-001) (30, -2.58003296755841530000e+000) (31, -1.73646483969760950000e+000) (32, 2.93346755991404700000e-001) (33, 1.83017829706968340000e+000) (34, -1.88416682482286690000e+000) (35, 4.18398190224449170000e+000) (36, 2.18329658597077980000e+000) (37, -1.45498684341015740000e+000) (38, 1.57685181685587380000e+000) 
