FANN_FLO_2.1
num_layers=3
learning_rate=0.700000
connection_rate=1.000000
network_type=0
learning_momentum=0.000000
training_algorithm=2
train_error_function=1
train_stop_function=0
cascade_output_change_fraction=0.010000
quickprop_decay=-0.000100
quickprop_mu=1.750000
rprop_increase_factor=1.200000
rprop_decrease_factor=0.500000
rprop_delta_min=0.000000
rprop_delta_max=50.000000
rprop_delta_zero=0.100000
cascade_output_stagnation_epochs=12
cascade_candidate_change_fraction=0.010000
cascade_candidate_stagnation_epochs=12
cascade_max_out_epochs=150
cascade_max_cand_epochs=150
cascade_num_candidate_groups=2
bit_fail_limit=3.49999999999999980000e-001
cascade_candidate_limit=1.00000000000000000000e+003
cascade_weight_multiplier=4.00000000000000020000e-001
cascade_activation_functions_count=10
cascade_activation_functions=3 5 7 8 10 11 14 15 16 17 
cascade_activation_steepnesses_count=4
cascade_activation_steepnesses=2.50000000000000000000e-001 5.00000000000000000000e-001 7.50000000000000000000e-001 1.00000000000000000000e+000 
layer_sizes=24 15 4 
scale_included=0
neurons (num_inputs, activation_function, activation_steepness)=(0, 0, 0.00000000000000000000e+000) (0, 0, 0.00000000000000000000e+000) (0, 0, 0.00000000000000000000e+000) (0, 0, 0.00000000000000000000e+000) (0, 0, 0.00000000000000000000e+000) (0, 0, 0.00000000000000000000e+000) (0, 0, 0.00000000000000000000e+000) (0, 0, 0.00000000000000000000e+000) (0, 0, 0.00000000000000000000e+000) (0, 0, 0.00000000000000000000e+000) (0, 0, 0.00000000000000000000e+000) (0, 0, 0.00000000000000000000e+000) (0, 0, 0.00000000000000000000e+000) (0, 0, 0.00000000000000000000e+000) (0, 0, 0.00000000000000000000e+000) (0, 0, 0.00000000000000000000e+000) (0, 0, 0.00000000000000000000e+000) (0, 0, 0.00000000000000000000e+000) (0, 0, 0.00000000000000000000e+000) (0, 0, 0.00000000000000000000e+000) (0, 0, 0.00000000000000000000e+000) (0, 0, 0.00000000000000000000e+000) (0, 0, 0.00000000000000000000e+000) (0, 0, 0.00000000000000000000e+000) (24, 5, 5.00000000000000000000e-001) (24, 5, 5.00000000000000000000e-001) (24, 5, 5.00000000000000000000e-001) (24, 5, 5.00000000000000000000e-001) (24, 5, 5.00000000000000000000e-001) (24, 5, 5.00000000000000000000e-001) (24, 5, 5.00000000000000000000e-001) (24, 5, 5.00000000000000000000e-001) (24, 5, 5.00000000000000000000e-001) (24, 5, 5.00000000000000000000e-001) (24, 5, 5.00000000000000000000e-001) (24, 5, 5.00000000000000000000e-001) (24, 5, 5.00000000000000000000e-001) (24, 5, 5.00000000000000000000e-001) (0, 5, 0.00000000000000000000e+000) (15, 5, 5.00000000000000000000e-001) (15, 5, 5.00000000000000000000e-001) (15, 5, 5.00000000000000000000e-001) (0, 5, 0.00000000000000000000e+000) 
connections (connected_to_neuron, weight)=(0, 1.14083753727075400000e+000) (1, 6.55929774200985530000e-001) (2, 8.11897605162715140000e-001) (3, 3.07477978899918850000e-001) (4, -1.53449625010176850000e+001) (5, 1.68470210773662840000e-002) (6, -7.64461830279568930000e+000) (7, 4.74616120697553320000e-001) (8, 3.51443831724477020000e+000) (9, 1.97976123347083140000e-001) (10, -1.64725551590904080000e+001) (11, -4.99634613702876870000e-001) (12, -1.40386443058724150000e+001) (13, -6.26761967165748720000e-001) (14, -4.81176466545147450000e+000) (15, -6.49341257342306300000e-001) (16, 1.52515752248391220000e+000) (17, -1.09112118814119690000e+000) (18, 1.52549515080660250000e-001) (19, 1.42525652828174420000e+000) (20, 2.25071102218174260000e+000) (21, -2.05039715050566450000e-001) (22, -2.33089676936884200000e+001) (23, 7.24045797943829620000e-001) (0, -1.25348152725030230000e+001) (1, 5.63946684034062670000e-001) (2, 2.69943203461934510000e+001) (3, 1.09320740795455800000e+000) (4, 1.42763363726305290000e+000) (5, 7.98717352395696410000e-001) (6, 4.70186617106350190000e+000) (7, -1.10219783764472260000e+000) (8, 1.32634599897458520000e+000) (9, -2.66778944557802210000e-001) (10, 4.06807763474600530000e+001) (11, 2.13823320648909210000e+000) (12, -1.37709765716410510000e+000) (13, 1.31553109204873090000e+000) (14, -1.07057194621503790000e+001) (15, -2.25823594825555970000e-001) (16, 9.19263820785507410000e+000) (17, -4.23413076280090670000e-001) (18, -3.42615929278867970000e+000) (19, 7.29952481178232190000e-001) (20, 5.64489161480380820000e+000) (21, 7.37136940279138120000e-001) (22, 1.00403974451091980000e+001) (23, 3.83984844785861260000e-002) (0, -7.60355171791449000000e+000) (1, 1.86674788292431310000e-001) (2, 1.95150443672878730000e+000) (3, 8.17438206937405880000e-001) (4, 3.03469404102683130000e+000) (5, 2.30178387739379990000e-001) (6, 1.96955804821709200000e+000) (7, -3.51058284433712730000e-001) (8, -7.43832067912689190000e-002) (9, -9.79062775691283280000e-002) (10, -7.93563713178759840000e+000) (11, 2.43787751092409470000e-001) (12, -3.74263206553065380000e+000) (13, 2.78797268235252360000e-001) (14, -1.17535724118409380000e+000) (15, 2.43038474711739870000e+000) (16, -8.26082951070265280000e+000) (17, -4.42249558253781370000e-001) (18, -7.87835677063101340000e+000) (19, 6.49059292673093590000e-001) (20, 5.34709209675450330000e-001) (21, -2.67627220724036270000e-001) (22, 1.12997482163488630000e+001) (23, 5.49353390886780700000e-001) (0, 3.79478092984388000000e-001) (1, -6.61261949916881340000e-002) (2, 2.43190662150149840000e+000) (3, -5.20523598946211890000e-002) (4, 1.90256927357851540000e+000) (5, 4.86736189642749340000e-001) (6, -6.32005375045031490000e+000) (7, 5.35176793797122240000e-001) (8, -1.31190347727023400000e+001) (9, 4.84087313565193360000e-001) (10, 1.75044392831577640000e+000) (11, 7.42144898936600960000e-001) (12, -6.57378155898248640000e+000) (13, 6.53861908756713570000e-001) (14, 5.94481410512060720000e-001) (15, 2.32520553844627360000e-001) (16, -2.99818044159038570000e+000) (17, 2.32040617074473100000e-001) (18, 1.44041316857108410000e+000) (19, 7.12718481780524770000e-001) (20, -9.23036098194350170000e+000) (21, -6.08937813534295920000e-002) (22, -2.25970002500987700000e+001) (23, 1.22059354577778630000e+000) (0, 1.50200598245664740000e+001) (1, 9.59922974815554220000e-001) (2, -1.60365081066613510000e+001) (3, 1.41501798880359930000e-002) (4, -1.52287879189520790000e+001) (5, 4.78142187286776640000e+000) (6, 7.84362724224869900000e+000) (7, 8.72693621086342020000e-002) (8, 3.39652418610435160000e+001) (9, -5.08776688847635160000e-001) (10, 7.61616749919071450000e+000) (11, 1.04495414123694590000e+000) (12, -2.22924498811722890000e+000) (13, 1.58647296004299520000e+000) (14, -8.66994573381596820000e+000) (15, 1.11330766294397950000e-001) (16, -1.60833560569363070000e+001) (17, 5.77583193406954850000e-001) (18, 6.78789368801993480000e-001) (19, 3.89268502128336900000e+000) (20, 7.97394671710655350000e+000) (21, 1.89405537614339740000e+000) (22, 6.42541205819149310000e+000) (23, 8.27921245114035200000e-001) (0, 7.46622035579223130000e-001) (1, 1.49337872501745460000e+000) (2, 6.82845187668189620000e+001) (3, -3.24928060333560420000e-001) (4, 5.32451168853198100000e+000) (5, -8.13628358042290530000e-002) (6, 4.97038727414085550000e+000) (7, -2.93057319077695440000e-001) (8, 5.22811404523047310000e-001) (9, -2.99612149815723870000e-001) (10, 7.71275353082588030000e+000) (11, 3.26488990311052560000e+000) (12, -2.76186819113528550000e+001) (13, 6.50341706486046830000e-001) (14, 1.68212079956804560000e+000) (15, 4.09003235552886400000e+000) (16, 6.19556924832047220000e+001) (17, 3.18095081904712580000e+000) (18, -6.66878145315506640000e+000) (19, -1.46561620869647080000e+000) (20, 2.32773085052697670000e+000) (21, 3.77649577251696070000e-001) (22, 1.07161541617622160000e+001) (23, 5.24495996094249240000e-001) (0, -6.15502462237684340000e-001) (1, 5.31339589554270230000e-004) (2, 6.16424122022731340000e-001) (3, -1.14440353463392430000e-001) (4, 4.71319570802901030000e+000) (5, -3.33044615900685460000e-001) (6, -2.68351873859415550000e+000) (7, -2.18072443507113970000e-001) (8, 2.80594319825470510000e-001) (9, -1.14611780933093640000e-001) (10, -3.88459993319666050000e+000) (11, 1.29972953572479590000e-001) (12, -6.37906367452683810000e-001) (13, -2.69093095749319500000e-001) (14, 1.33776176193229280000e+000) (15, -2.33921134379555950000e-001) (16, 2.56731608601118650000e+000) (17, 2.33565046790488870000e-002) (18, 6.05693984541351040000e-001) (19, -5.07213980822943890000e-001) (20, 1.96554165219081910000e+000) (21, 2.22389518409986610000e-001) (22, 1.54746538025390910000e+000) (23, 9.45543725533855160000e-002) (0, 3.55145693221866840000e-001) (1, -5.83429096451569930000e-001) (2, -4.88886402331343950000e-001) (3, 1.13169839173462920000e-001) (4, -4.27561281882875790000e-001) (5, -9.45066561491896830000e-002) (6, 8.80643763047397780000e-001) (7, 1.13325928653969980000e-001) (8, 4.62139291592754910000e+000) (9, 2.08656788350974090000e-001) (10, 9.12587446863213000000e+000) (11, -2.87432540167280450000e-002) (12, 9.10472135682620310000e-001) (13, -1.55147604185007090000e-001) (14, 7.29446628638394380000e-001) (15, -1.81712480841067010000e+000) (16, 2.30958532326401090000e+000) (17, 9.16963312521208300000e-002) (18, -4.01370375241518250000e-001) (19, -4.17948564886950590000e-001) (20, 1.01318279231815980000e+000) (21, 5.99576355258272100000e-002) (22, -1.10914887190195470000e+000) (23, -2.21499737877995680000e-001) (0, 2.05183944887256260000e+001) (1, -2.23146304341993700000e-001) (2, 1.15506076940220000000e+001) (3, 8.94182950400335350000e-001) (4, -4.56784747210198460000e+000) (5, 1.85623878996135250000e-001) (6, 1.48461955549314270000e+001) (7, -1.25569379738195400000e-001) (8, -1.90550039649179330000e+001) (9, 5.72751018127293590000e+000) (10, 2.39877336144075580000e+000) (11, 3.30034079609595470000e-002) (12, -6.07075666160862500000e-001) (13, 8.14128337209306770000e-001) (14, -3.32810999953591490000e+000) (15, -1.44616342044904080000e+000) (16, 2.13028323201152460000e+000) (17, -3.04891993899148780000e-001) (18, -2.46450765768635730000e-002) (19, 1.88748526998250490000e+000) (20, 2.79560416971978660000e+000) (21, 7.15371441775323860000e-001) (22, -1.92130462813339720000e+000) (23, -4.51299417325931680000e-003) (0, 7.15010359992465720000e+000) (1, -4.23033028720383590000e-002) (2, -5.25232668384091820000e+000) (3, -5.89932597802350410000e-001) (4, -2.91894152204728160000e+000) (5, -1.03172627176507150000e+000) (6, 2.48968895663815890000e-001) (7, -2.52930072912349260000e-001) (8, 6.54570278652764780000e+000) (9, 1.95229106069316740000e+000) (10, 6.21349442547582510000e+000) (11, 2.76781360859291340000e-001) (12, 1.22641241755947350000e+000) (13, -1.21157041095717080000e-001) (14, 5.73783960305447580000e+000) (15, -1.04356755758595670000e+000) (16, 1.46812223928809050000e-001) (17, -2.45261150527018000000e+000) (18, -8.99059490042798260000e+000) (19, 1.54779867887726820000e+000) (20, 4.33423856372606320000e+000) (21, 1.33693046206468450000e+000) (22, 5.35028097905289490000e-001) (23, -6.58092403293608070000e-002) (0, -1.63083729448995600000e+001) (1, 3.80277338491079680000e+000) (2, -1.49880376059507480000e+000) (3, 9.65847512942203610000e-001) (4, 1.55450925575118170000e+001) (5, 1.22411664728923730000e+000) (6, 2.81109642959714190000e+000) (7, 8.38328281549187040000e-001) (8, 1.46190729315548840000e+001) (9, -2.04238027404222090000e-001) (10, 2.67102812692389650000e+000) (11, 4.64186606635941410000e-001) (12, 2.80974836486707420000e+001) (13, 8.91175448137238920000e-001) (14, 1.08104534065363700000e+001) (15, 1.55240649089978390000e+000) (16, 1.01210519260010340000e+001) (17, 7.07222750547732980000e-002) (18, -2.08581439739706940000e+001) (19, -5.67482868265904110000e-001) (20, 7.73702986513101990000e+000) (21, 3.80016040432155530000e+000) (22, -3.94348582338706950000e+000) (23, 1.75544050902226420000e+000) (0, 2.48383240361764070000e+000) (1, 1.07953388928225520000e+000) (2, 1.02073923121916490000e+001) (3, -4.40075154504037060000e-001) (4, -5.00063453285471840000e+000) (5, 7.62708940589971850000e-001) (6, -1.76065842952348320000e+001) (7, 1.45971488003922480000e+000) (8, 1.50715585667595740000e+001) (9, -3.23336019586051790000e-001) (10, -5.41222534879444610000e-001) (11, 4.85356956455611720000e-001) (12, -4.21954992926202980000e+000) (13, 1.17614114311683920000e-002) (14, -3.52240202211414650000e+000) (15, 1.40022704578971770000e+000) (16, 6.43511339221519040000e+000) (17, 9.27765616905373960000e-001) (18, 5.30921744063548530000e-001) (19, 4.94116041923857000000e-001) (20, -8.06098863537215850000e+000) (21, -5.49861717307077000000e-001) (22, 6.25918016365454480000e+000) (23, 6.53367250150760080000e-002) (0, 2.10812176424173290000e+001) (1, 1.12429682650593480000e+000) (2, 3.53435019180972710000e+000) (3, 3.84649260157853330000e-001) (4, -5.15488251885357500000e+000) (5, 1.46995497679010370000e+000) (6, 2.02015092849096580000e+001) (7, -9.87577039209980130000e-003) (8, 9.05219887055278250000e+000) (9, 6.19921965195730440000e+000) (10, 1.42410515535817520000e+001) (11, -5.19206919211179010000e-001) (12, 9.46340116173579910000e+000) (13, 2.56287658045479060000e+000) (14, 6.68011487627449350000e+000) (15, 1.14070408329074090000e+000) (16, -8.45725891113609940000e+000) (17, 1.56474993750477420000e+000) (18, 2.80985678420071490000e-001) (19, 1.25053859219628500000e+000) (20, -5.78430941843949940000e-001) (21, 1.09866019286661200000e+000) (22, 1.63090557956511260000e+001) (23, 1.00549963660521090000e+000) (0, 1.99664209173779410000e+000) (1, 2.53524891526709030000e+000) (2, 2.51384675719045560000e+001) (3, 3.00663502605566290000e-001) (4, -2.62106976467822330000e+001) (5, 4.48331049758695480000e-001) (6, -4.96530345499844210000e+000) (7, -8.52222357390315380000e-002) (8, 1.03918559941031030000e+000) (9, -8.71705042268957950000e-001) (10, 1.42233590691587840000e+001) (11, -1.06986633131616240000e-001) (12, 4.65535908234736980000e+001) (13, -6.62628778620509400000e-001) (14, 8.06710228181949770000e+000) (15, 1.62199251288386040000e+000) (16, 1.46236149895975600000e+000) (17, -6.24705730127026570000e-001) (18, -7.44210488264744120000e-001) (19, 6.14184712970369920000e-001) (20, 4.55613817886708360000e+000) (21, 8.34056872300973700000e-001) (22, 1.27025171666172780000e+001) (23, 4.49468164283726640000e-002) (24, -1.65098957442029070000e+000) (25, -1.72471189717077950000e-001) (26, -3.61170043192590000000e-001) (27, 9.72473726777308480000e-001) (28, 3.21757242346510030000e-002) (29, -8.47754352900417670000e-001) (30, -2.03036340740028270000e-001) (31, 6.29529798971273260000e-001) (32, 1.82959608898512080000e+000) (33, -1.42959555169763190000e-001) (34, 4.65225695331336510000e-001) (35, 1.41790955668848120000e+000) (36, -1.34969491221904760000e+000) (37, 1.25753628668301130000e+000) (38, 6.75320231489975110000e-001) (24, 7.50712276594242890000e-001) (25, 1.04025946070935050000e+000) (26, 4.25405531809716910000e-001) (27, 3.02037031601057100000e-001) (28, -1.50279813544075160000e+000) (29, -2.95329373003194340000e-001) (30, 4.30334227921135350000e-001) (31, -5.07668984902710730000e-001) (32, -1.88906594711700810000e+000) (33, 6.40322655133823360000e-001) (34, 6.91265239330503100000e-001) (35, 1.07030648399013700000e-001) (36, 1.37720838112564530000e+000) (37, -1.16673276048405720000e+000) (38, 2.89708790362422140000e-001) (24, 7.75956556166997320000e-001) (25, -8.93881744628679750000e-001) (26, 5.69898006015261750000e-001) (27, 4.17316357312199850000e-001) (28, 1.11627061217665320000e+000) (29, 8.53331428716000320000e-001) (30, 9.05612079072506850000e-001) (31, 4.34214016336463390000e-001) (32, 1.29000726465351300000e-001) (33, -4.97568199756865230000e-001) (34, -1.01485018988870280000e+000) (35, -1.00911539528547080000e+000) (36, 2.68074675712888840000e-001) (37, 3.03622296049636670000e-002) (38, 3.96035980727622970000e-001) 
