FANN_FLO_2.1
num_layers=3
learning_rate=0.700000
connection_rate=1.000000
network_type=0
learning_momentum=0.000000
training_algorithm=2
train_error_function=1
train_stop_function=0
cascade_output_change_fraction=0.010000
quickprop_decay=-0.000100
quickprop_mu=1.750000
rprop_increase_factor=1.200000
rprop_decrease_factor=0.500000
rprop_delta_min=0.000000
rprop_delta_max=50.000000
rprop_delta_zero=0.100000
cascade_output_stagnation_epochs=12
cascade_candidate_change_fraction=0.010000
cascade_candidate_stagnation_epochs=12
cascade_max_out_epochs=150
cascade_max_cand_epochs=150
cascade_num_candidate_groups=2
bit_fail_limit=3.49999999999999980000e-001
cascade_candidate_limit=1.00000000000000000000e+003
cascade_weight_multiplier=4.00000000000000020000e-001
cascade_activation_functions_count=10
cascade_activation_functions=3 5 7 8 10 11 14 15 16 17 
cascade_activation_steepnesses_count=4
cascade_activation_steepnesses=2.50000000000000000000e-001 5.00000000000000000000e-001 7.50000000000000000000e-001 1.00000000000000000000e+000 
layer_sizes=24 18 4 
scale_included=0
neurons (num_inputs, activation_function, activation_steepness)=(0, 0, 0.00000000000000000000e+000) (0, 0, 0.00000000000000000000e+000) (0, 0, 0.00000000000000000000e+000) (0, 0, 0.00000000000000000000e+000) (0, 0, 0.00000000000000000000e+000) (0, 0, 0.00000000000000000000e+000) (0, 0, 0.00000000000000000000e+000) (0, 0, 0.00000000000000000000e+000) (0, 0, 0.00000000000000000000e+000) (0, 0, 0.00000000000000000000e+000) (0, 0, 0.00000000000000000000e+000) (0, 0, 0.00000000000000000000e+000) (0, 0, 0.00000000000000000000e+000) (0, 0, 0.00000000000000000000e+000) (0, 0, 0.00000000000000000000e+000) (0, 0, 0.00000000000000000000e+000) (0, 0, 0.00000000000000000000e+000) (0, 0, 0.00000000000000000000e+000) (0, 0, 0.00000000000000000000e+000) (0, 0, 0.00000000000000000000e+000) (0, 0, 0.00000000000000000000e+000) (0, 0, 0.00000000000000000000e+000) (0, 0, 0.00000000000000000000e+000) (0, 0, 0.00000000000000000000e+000) (24, 5, 5.00000000000000000000e-001) (24, 5, 5.00000000000000000000e-001) (24, 5, 5.00000000000000000000e-001) (24, 5, 5.00000000000000000000e-001) (24, 5, 5.00000000000000000000e-001) (24, 5, 5.00000000000000000000e-001) (24, 5, 5.00000000000000000000e-001) (24, 5, 5.00000000000000000000e-001) (24, 5, 5.00000000000000000000e-001) (24, 5, 5.00000000000000000000e-001) (24, 5, 5.00000000000000000000e-001) (24, 5, 5.00000000000000000000e-001) (24, 5, 5.00000000000000000000e-001) (24, 5, 5.00000000000000000000e-001) (24, 5, 5.00000000000000000000e-001) (24, 5, 5.00000000000000000000e-001) (24, 5, 5.00000000000000000000e-001) (0, 5, 0.00000000000000000000e+000) (18, 5, 5.00000000000000000000e-001) (18, 5, 5.00000000000000000000e-001) (18, 5, 5.00000000000000000000e-001) (0, 5, 0.00000000000000000000e+000) 
connections (connected_to_neuron, weight)=(0, 5.40888561071921270000e+000) (1, 6.52422619556553840000e-002) (2, -5.24116123371891170000e-001) (3, -5.49420467752663070000e-001) (4, -7.10983723334070230000e-001) (5, 6.49643957132251760000e-001) (6, 8.27421272565462500000e-001) (7, 2.00602830385354650000e-001) (8, -1.45857661024291290000e-001) (9, 2.45842780140147890000e+000) (10, -6.91696315837404540000e+000) (11, 1.27175448885047020000e+000) (12, -5.95357716344367750000e-002) (13, 5.46641947493476830000e-001) (14, -2.50893996059438870000e+000) (15, 1.45657775826199540000e+000) (16, 1.52956958863613370000e+001) (17, 6.85698979446790920000e-001) (18, 4.85134979331120330000e+000) (19, 5.99074806063249700000e-001) (20, -4.35031934632464920000e-001) (21, 8.02087777939226700000e-001) (22, -1.00781846155023020000e+001) (23, 6.06466184543493210000e-001) (0, 2.10129723337698460000e+000) (1, 7.70023455298380680000e-001) (2, -1.33876583497432340000e+000) (3, 8.59488449081816870000e-001) (4, 1.51503149008140050000e+001) (5, 4.34573867205779900000e-001) (6, -1.84420353345223090000e+001) (7, 1.72827435584484240000e-001) (8, 1.16310442305665300000e+001) (9, 2.44091074675026190000e-001) (10, 6.50992245159954930000e+000) (11, -1.10414982902254550000e+000) (12, 1.98065040554846680000e+000) (13, -3.33867616797756450000e-001) (14, 1.88157252960257000000e+000) (15, -1.60456061768359230000e+000) (16, 5.97602844031824180000e+000) (17, 7.55964035380024860000e+000) (18, 8.30110743085707090000e+000) (19, 1.53587299581640690000e-001) (20, -1.32840236038537980000e+001) (21, 4.09573851224062050000e+000) (22, -2.44102980375230130000e+001) (23, -2.93007167284873790000e-003) (0, 5.27194933642100950000e+000) (1, -9.19742080077076360000e-001) (2, -3.22211865980595880000e+000) (3, -9.69958960804508660000e-002) (4, -1.42905803813521380000e+001) (5, -3.91792600560934010000e-002) (6, -2.73883837541482710000e+000) (7, 2.74800479936148800000e+000) (8, 5.92328676534685240000e-001) (9, 8.11350738114326560000e-001) (10, 4.36918301280961340000e+000) (11, 3.59301564946980840000e-001) (12, 1.86591045231615350000e+001) (13, 1.39853467174041810000e+000) (14, -7.75825625539684530000e+000) (15, 7.75994863137874910000e-002) (16, 1.89440257668358880000e+000) (17, 4.69835518513788130000e-002) (18, 2.44501107477949460000e+000) (19, 1.17270720824900130000e+000) (20, 7.76706160661696110000e+000) (21, -6.13546044698554740000e-002) (22, 9.68960980484875730000e+000) (23, -6.87851689480999260000e-002) (0, -3.12426932102668610000e-002) (1, 2.53816141412707090000e-001) (2, 8.94978206156909150000e-001) (3, -1.10113844532178480000e-002) (4, 3.53905829775814920000e-001) (5, -8.89087767179379430000e-005) (6, -3.11825058632925030000e-001) (7, 4.78225547729338010000e-001) (8, -3.62642839382068540000e-001) (9, 2.89570817409334380000e-001) (10, 1.18140025847077990000e+000) (11, 5.54740535683082080000e-002) (12, -1.80308546750411160000e-001) (13, 1.47640726647385010000e-001) (14, 2.46660714414393050000e-001) (15, 1.91043500811363540000e-001) (16, -2.10610077593644230000e+000) (17, 5.99979823388592170000e-002) (18, -2.75229922178334590000e-001) (19, -3.51324861539421530000e-003) (20, -7.29255065330344680000e-001) (21, -7.65014456461053480000e-001) (22, 5.63667571406595960000e-001) (23, 2.34987712840258600000e-001) (0, 2.51654394227297340000e+000) (1, 2.41096604941562830000e-002) (2, -1.06127299501895680000e+000) (3, 7.05760233747426550000e-002) (4, -7.44707576807873210000e+000) (5, -4.16331021153620700000e-001) (6, 2.86933216333544030000e+000) (7, -1.68570909172830210000e-001) (8, -1.11023218560260270000e+000) (9, 3.82582630112091540000e-001) (10, 5.80926840342346470000e+000) (11, -1.62557340222932220000e-001) (12, -9.87741372894546670000e-002) (13, 4.12698333204022440000e-001) (14, -5.49333885807363580000e+000) (15, -2.27188344570673110000e-001) (16, -1.69429831995422400000e+001) (17, 7.62909048617776970000e-001) (18, -1.54166875670138510000e+001) (19, -1.60888848654172390000e+000) (20, 2.53852068541476790000e+001) (21, 1.15775092424369610000e+000) (22, 2.94646070111458110000e+000) (23, -1.63383466677815140000e-002) (0, -1.81085786090165920000e+000) (1, 2.30256621490068180000e+000) (2, 1.54714490808324140000e+001) (3, 2.65704572877435430000e-001) (4, -1.80996429227015930000e+000) (5, 7.71694815975949020000e-001) (6, 2.64893865279537040000e+000) (7, -9.25585489107233590000e-001) (8, 1.56286043183597060000e+001) (9, -1.31661704920539000000e-001) (10, 1.22029964157248860000e+001) (11, 1.54441107546561850000e-001) (12, 2.81471755294514110000e+000) (13, 5.85221671483724390000e-001) (14, -4.28402862462995330000e+000) (15, 6.04427162290259060000e-001) (16, 9.48087572118902420000e+000) (17, -1.49203394582302580000e-001) (18, -1.08932028716097020000e+000) (19, -7.33951658930110050000e-001) (20, 7.10643049457423180000e+000) (21, 1.86503476131022540000e+000) (22, -3.12594400494107380000e+000) (23, 8.56933571153188630000e-002) (0, 8.45092279995777300000e-001) (1, 2.03925629087075040000e-001) (2, 1.49566462454154350000e+000) (3, 5.73306360606959390000e-001) (4, 3.54352084104108620000e-001) (5, 3.81225529671890110000e-001) (6, -6.03503120057256810000e-001) (7, -4.08173238975364730000e-001) (8, 3.75668102520480160000e-001) (9, 2.29568932617423950000e-001) (10, 3.93834263575120900000e+000) (11, 1.53247460567323300000e+000) (12, 7.42107448412404570000e+000) (13, 1.38708480467114440000e+000) (14, -4.88189385487756320000e+000) (15, 2.62831503833410750000e-001) (16, -3.23221634156404210000e+000) (17, 1.91188135781708100000e-001) (18, 4.79094519060346700000e+000) (19, 1.05979817822170360000e+000) (20, 2.50477265880905090000e+000) (21, -3.89473872467924480000e-002) (22, 5.24342598373093520000e+000) (23, 1.05022236184278330000e+000) (0, -3.64166165931686690000e+000) (1, 1.55748418222422710000e+000) (2, -4.38430510662300650000e-001) (3, 3.61231846660777180000e-001) (4, 1.15226408920008640000e+000) (5, 1.74220780851129220000e+000) (6, -1.07829810993677490000e+001) (7, 7.39156125385569520000e-001) (8, 1.41381916264169920000e+000) (9, 4.55673501234437960000e-002) (10, 1.59241276050250400000e-001) (11, 9.04848520340999940000e-001) (12, 2.72123847094952390000e+000) (13, 6.87648124942617070000e-001) (14, -5.53245276449980560000e-001) (15, 1.72905470603485570000e-001) (16, 2.55746025360233440000e-001) (17, 5.36779002923095440000e-001) (18, 1.82238434961543230000e+001) (19, 1.34599564071809400000e-001) (20, -1.53414201801750760000e+001) (21, 2.69496980146829710000e-001) (22, -9.74029838801561350000e+000) (23, 6.20991875541186290000e-001) (0, 2.78896623816961630000e+000) (1, 1.53822233975684110000e-002) (2, -3.94441037489794090000e-001) (3, -3.67557372475308670000e-001) (4, 1.60646411296999480000e+000) (5, 6.84561656527664650000e-001) (6, 4.05576418639178870000e-001) (7, 6.09073169159853950000e-002) (8, -7.38875574682747340000e-001) (9, -1.27532810694572380000e+000) (10, -1.53092853105092460000e+001) (11, 2.97627292537440270000e-002) (12, 7.78453605038853080000e-001) (13, 8.91615331402130780000e-002) (14, 7.88943623320597530000e+000) (15, -1.36444130396011000000e+000) (16, 3.71039804767048320000e+000) (17, -4.20506753441780290000e-001) (18, 1.75140005696656580000e+001) (19, 9.07622873224279810000e-001) (20, -2.36040609420389110000e+000) (21, -1.36705695902839360000e+000) (22, -1.01323086363469650000e+000) (23, -2.75099597171160730000e-001) (0, -2.67519976020097800000e-001) (1, 7.46087531564048060000e-001) (2, 6.76647624014255640000e+000) (3, -2.03083524447750300000e-001) (4, 4.84951246404892790000e-001) (5, 1.34446307406393670000e+000) (6, 3.43125891698376900000e-002) (7, -2.84651843562009950000e-001) (8, 3.55954682476737670000e+000) (9, 4.27152512250056020000e-001) (10, 7.64013971392979660000e+000) (11, 5.42366651061499280000e-001) (12, 5.84718904487145790000e+000) (13, 1.53156455939565120000e-001) (14, 9.26493950772807650000e+000) (15, 4.46635960676713180000e-001) (16, 2.79197598055909730000e+000) (17, -4.90497413511218120000e-001) (18, 5.03459109021048960000e+000) (19, 1.49868167222285860000e-002) (20, 1.67324064370142230000e+001) (21, -4.58487825268626750000e-001) (22, -3.34474072385524720000e+001) (23, -1.18950410595309060000e+000) (0, 8.01709967279002010000e-001) (1, 6.09624968217042040000e-001) (2, -9.43864692500180700000e+000) (3, -3.66505296029894620000e-001) (4, 1.60138212247317570000e+001) (5, 1.18664695176899440000e-001) (6, -3.93454905861426020000e+000) (7, -1.33929227856687240000e+000) (8, 1.27978047925608540000e+001) (9, 5.98129983832405340000e-001) (10, 1.49616058720976510000e+001) (11, -1.14794013187333680000e-001) (12, -5.10782646933812370000e-001) (13, 3.92008001454444490000e-002) (14, 8.94256323142801260000e+000) (15, -4.37648339334705310000e+000) (16, -7.76850794733106390000e+000) (17, -1.19362099625432800000e-001) (18, -5.48921833924738230000e+000) (19, 2.68867947685614390000e+000) (20, 9.78829342100734400000e+000) (21, 6.97860799490125470000e-001) (22, -2.58145998601204350000e+001) (23, 3.13514935404126010000e-001) (0, 7.16069100394856670000e+000) (1, 7.19318320388546010000e-002) (2, -7.55108473766046370000e+000) (3, 4.11726508892353180000e-001) (4, 4.03107669885457300000e+000) (5, -4.41358034614662050000e-001) (6, -3.51907001788318690000e-001) (7, -4.62833344672835880000e+000) (8, 5.94819477980160900000e+000) (9, -5.24887182976374820000e-001) (10, -1.16033556308996850000e+001) (11, 1.66519695542324550000e+000) (12, -4.22879487210916420000e+000) (13, -7.10731258534961080000e-002) (14, 5.12259652257589740000e-001) (15, -1.36805349398650720000e-001) (16, -1.64019412412287970000e+000) (17, -8.52726134836905850000e-002) (18, 1.74612657216862250000e+000) (19, -1.79114258221767570000e-001) (20, -1.46054871723238340000e+000) (21, 2.96831973085012050000e-002) (22, 1.61832066072881950000e+001) (23, 7.23738627811314340000e-002) (0, -3.13012208401227540000e+000) (1, 7.35397513074174340000e-001) (2, 4.32929946096450990000e+000) (3, -2.20974634488712740000e-001) (4, -2.32183761432048460000e+000) (5, -1.82656922345496690000e+000) (6, 5.22676669584509530000e-001) (7, 7.64766283482315870000e-002) (8, -1.17278558979670100000e+000) (9, 2.69476458136370580000e+000) (10, 1.22713128763765590000e+000) (11, 1.62182205171818490000e+000) (12, 2.65553450678766370000e+000) (13, -7.79982691518286970000e-002) (14, 4.07220883799948370000e+001) (15, 4.88040759739962970000e-001) (16, 3.43657249301909400000e+000) (17, -5.28324347288509850000e-001) (18, 6.24977048489106850000e-001) (19, -5.15957007195492530000e-001) (20, -2.71331291056569810000e+000) (21, 2.56795843562527760000e-002) (22, 5.50549447391655190000e+000) (23, -1.49044720754891480000e+000) (0, -1.59022682805203090000e+001) (1, 1.10022478055863470000e+000) (2, 1.58786725085065530000e+000) (3, 3.62165759604175410000e+000) (4, 1.73051687762588590000e-001) (5, 1.69563475034857490000e+000) (6, 2.06776990631412370000e+001) (7, 1.05227075347779150000e+000) (8, 6.34420378843450190000e+000) (9, 9.14121082055828760000e-001) (10, 3.40087434102331980000e+000) (11, 1.08126890575888630000e-001) (12, 3.00840917990827740000e-001) (13, 3.94129656248840070000e+000) (14, 7.68358051804515880000e+000) (15, 7.00250064051569980000e-001) (16, 1.48539833426746190000e+000) (17, 8.25995833354687740000e-001) (18, -2.72465289925631570000e+001) (19, 3.32464577650945840000e+000) (20, 3.79468824017139570000e+001) (21, 1.39760341651170010000e+001) (22, 1.72600231872287710000e+001) (23, -2.94837986813548110000e-001) (0, 1.79142624423236250000e-001) (1, 2.45212722844162840000e-001) (2, -2.46741060523380020000e-001) (3, 4.36865146666669920000e-001) (4, 2.92852733591034030000e+000) (5, -4.59636365047654850000e-003) (6, -1.55028260163250840000e+000) (7, 5.46051829120067010000e-002) (8, 2.99516077126601550000e-001) (9, 3.61822912517604960000e-001) (10, 1.58667471523436320000e+000) (11, 1.27961890442755220000e-001) (12, 4.19280334074980670000e-001) (13, 1.79115010675581580000e-001) (14, 6.57884387689431080000e-002) (15, 2.78771288411747810000e-001) (16, 7.94487833182506820000e-001) (17, -3.68918693203863990000e-002) (18, -6.19544116761099440000e-001) (19, -1.05568113682714490000e-001) (20, -2.58688580650758260000e+000) (21, -1.58094746597194340000e+000) (22, -2.81763282721724460000e-001) (23, 1.68415579759343630000e-001) (0, 1.07228321972709460000e+000) (1, -5.42757462764320350000e-001) (2, -6.18864335552412740000e+000) (3, 2.55363616221698510000e-001) (4, 8.05310765329426030000e+000) (5, 2.76516181126821410000e-001) (6, 1.72172959920711100000e-001) (7, -7.22012989061573630000e-001) (8, -3.29883645136746000000e+000) (9, -9.32099299693223550000e-002) (10, 1.72918689029765070000e+001) (11, 7.47616784336439660000e-002) (12, 1.29175551670415130000e+001) (13, -8.10715913654997290000e-001) (14, 6.15047894815461740000e-001) (15, 6.31777237006799890000e-001) (16, 3.31935123581191150000e-001) (17, 2.08884056327978770000e-001) (18, 4.15761244522890470000e+000) (19, -1.48084527238525590000e+000) (20, 1.10509272326595270000e+001) (21, 6.79237351335486910000e-001) (22, 2.61639724350684480000e+001) (23, -3.29263479158206080000e-001) (0, 9.88138477694016790000e+000) (1, 1.87398518275101650000e-001) (2, -1.17829642833590530000e+001) (3, -1.68004153863178460000e+000) (4, -2.66238025149440670000e+001) (5, -5.30237595007395160000e-002) (6, 2.57943908901085540000e+000) (7, -1.14245871174984830000e-001) (8, 1.00988446490745200000e+001) (9, -3.74989888112762290000e-001) (10, 2.66434702647708790000e+000) (11, 1.08642659843869440000e-001) (12, 1.82159773313809940000e+001) (13, -2.78890245228005540000e-001) (14, -5.30625633707196260000e+000) (15, 2.92291726394459990000e-001) (16, 9.50443310489812280000e+000) (17, -1.39886660513801690000e-001) (18, 2.43394125778268840000e+000) (19, 1.22039713319922830000e-001) (20, 9.16111647810837760000e+000) (21, -5.83410066326147250000e-002) (22, 3.39139991763371140000e+001) (23, -5.71358241287699410000e-001) (24, 6.53109127799530730000e-002) (25, 2.44867633687448210000e-001) (26, 2.12532278573532450000e+000) (27, 3.00863911311246680000e-001) (28, -1.51774557348834630000e-001) (29, 2.39556112085267610000e+000) (30, 1.34757701113951800000e+000) (31, 5.87815856901853230000e-001) (32, 1.33293232914594300000e+000) (33, 5.50762999188593620000e-001) (34, 2.07373183218818190000e+000) (35, -1.32389873303546590000e+000) (36, 1.32373412656477800000e+000) (37, -4.47338955812584370000e-001) (38, 4.97088250148862270000e-001) (39, 2.56612866573349320000e+000) (40, 1.99861123575690610000e+000) (41, 5.84813760310543550000e-001) (24, 7.59976049915588310000e-001) (25, 3.58980695841062890000e+000) (26, -1.40027474599930880000e+000) (27, 5.54857430558694960000e-001) (28, -2.16541997207922420000e+000) (29, -1.55482268189578710000e+000) (30, 4.61984495566850230000e-001) (31, 7.41303158364416850000e-001) (32, 7.05804542550454550000e-001) (33, 2.82618117759157070000e-001) (34, -3.69603222692693080000e+000) (35, 7.17868302087936590000e-002) (36, 1.71975510952125420000e+000) (37, 1.47229639753501450000e+000) (38, 5.29190872394406650000e-001) (39, -4.34659464626835250000e-001) (40, -2.55111315788111260000e+000) (41, 3.48419940018637850000e-001) (24, 1.32522221802781930000e+000) (25, -3.09416121514676550000e+000) (26, -3.91310173096511120000e-001) (27, 1.14032089464166190000e+000) (28, 3.50917984249089530000e+000) (29, 4.84051337084314470000e-001) (30, 3.42170656144146660000e-001) (31, 4.87928110827335500000e-001) (32, -1.44873121774949020000e+000) (33, -1.52063599366773030000e+000) (34, 2.08258399441553270000e+000) (35, 1.07608951025098910000e+000) (36, -3.03267671586562580000e+000) (37, -9.00205938945054960000e-001) (38, 9.39797308718396620000e-001) (39, -8.44429156585417620000e-001) (40, 1.10858151588671840000e-001) (41, 9.71744727132479950000e-001) 
