FANN_FLO_2.1
num_layers=3
learning_rate=0.700000
connection_rate=1.000000
network_type=0
learning_momentum=0.000000
training_algorithm=2
train_error_function=1
train_stop_function=0
cascade_output_change_fraction=0.010000
quickprop_decay=-0.000100
quickprop_mu=1.750000
rprop_increase_factor=1.200000
rprop_decrease_factor=0.500000
rprop_delta_min=0.000000
rprop_delta_max=50.000000
rprop_delta_zero=0.100000
cascade_output_stagnation_epochs=12
cascade_candidate_change_fraction=0.010000
cascade_candidate_stagnation_epochs=12
cascade_max_out_epochs=150
cascade_max_cand_epochs=150
cascade_num_candidate_groups=2
bit_fail_limit=3.49999999999999980000e-001
cascade_candidate_limit=1.00000000000000000000e+003
cascade_weight_multiplier=4.00000000000000020000e-001
cascade_activation_functions_count=10
cascade_activation_functions=3 5 7 8 10 11 14 15 16 17 
cascade_activation_steepnesses_count=4
cascade_activation_steepnesses=2.50000000000000000000e-001 5.00000000000000000000e-001 7.50000000000000000000e-001 1.00000000000000000000e+000 
layer_sizes=26 24 4 
scale_included=0
neurons (num_inputs, activation_function, activation_steepness)=(0, 0, 0.00000000000000000000e+000) (0, 0, 0.00000000000000000000e+000) (0, 0, 0.00000000000000000000e+000) (0, 0, 0.00000000000000000000e+000) (0, 0, 0.00000000000000000000e+000) (0, 0, 0.00000000000000000000e+000) (0, 0, 0.00000000000000000000e+000) (0, 0, 0.00000000000000000000e+000) (0, 0, 0.00000000000000000000e+000) (0, 0, 0.00000000000000000000e+000) (0, 0, 0.00000000000000000000e+000) (0, 0, 0.00000000000000000000e+000) (0, 0, 0.00000000000000000000e+000) (0, 0, 0.00000000000000000000e+000) (0, 0, 0.00000000000000000000e+000) (0, 0, 0.00000000000000000000e+000) (0, 0, 0.00000000000000000000e+000) (0, 0, 0.00000000000000000000e+000) (0, 0, 0.00000000000000000000e+000) (0, 0, 0.00000000000000000000e+000) (0, 0, 0.00000000000000000000e+000) (0, 0, 0.00000000000000000000e+000) (0, 0, 0.00000000000000000000e+000) (0, 0, 0.00000000000000000000e+000) (0, 0, 0.00000000000000000000e+000) (0, 0, 0.00000000000000000000e+000) (26, 5, 5.00000000000000000000e-001) (26, 5, 5.00000000000000000000e-001) (26, 5, 5.00000000000000000000e-001) (26, 5, 5.00000000000000000000e-001) (26, 5, 5.00000000000000000000e-001) (26, 5, 5.00000000000000000000e-001) (26, 5, 5.00000000000000000000e-001) (26, 5, 5.00000000000000000000e-001) (26, 5, 5.00000000000000000000e-001) (26, 5, 5.00000000000000000000e-001) (26, 5, 5.00000000000000000000e-001) (26, 5, 5.00000000000000000000e-001) (26, 5, 5.00000000000000000000e-001) (26, 5, 5.00000000000000000000e-001) (26, 5, 5.00000000000000000000e-001) (26, 5, 5.00000000000000000000e-001) (26, 5, 5.00000000000000000000e-001) (26, 5, 5.00000000000000000000e-001) (26, 5, 5.00000000000000000000e-001) (26, 5, 5.00000000000000000000e-001) (26, 5, 5.00000000000000000000e-001) (26, 5, 5.00000000000000000000e-001) (26, 5, 5.00000000000000000000e-001) (0, 5, 0.00000000000000000000e+000) (24, 5, 5.00000000000000000000e-001) (24, 5, 5.00000000000000000000e-001) (24, 5, 5.00000000000000000000e-001) (0, 5, 0.00000000000000000000e+000) 
connections (connected_to_neuron, weight)=(0, 1.12690248415745640000e-001) (1, 2.55750848257884300000e-001) (2, 9.93899485300473120000e-001) (3, 1.14035309027549040000e+000) (4, -5.50754996337601390000e-001) (5, 1.21109645994272210000e-001) (6, -2.40646489048282270000e+000) (7, 8.22303329637175810000e-002) (8, -5.75456217655982980000e-002) (9, 1.52479474172055620000e-001) (10, 4.65531736253391330000e+000) (11, 1.20187421028622650000e-001) (12, 4.89725370912656910000e+000) (13, 8.50865231439739690000e-002) (14, 1.55916479593174430000e+001) (15, 1.44306643506375680000e-001) (16, -6.88073802195296460000e-001) (17, 6.27574112188621910000e-001) (18, 6.49410003032784110000e+000) (19, 1.63015358913892770000e-001) (20, -2.62145619476111280000e+000) (21, -2.53654726931139760000e-002) (22, 6.86101293039139910000e+000) (23, -2.03123827428041380000e-002) (24, 1.33873806610185930000e+001) (25, -8.49671235878489360000e-001) (0, 1.45221071108940560000e+000) (1, 4.29037668384799340000e-001) (2, 7.80660125202538160000e-002) (3, 2.51821770571412480000e+000) (4, 7.26982092718575500000e+000) (5, -6.93142579062042020000e-001) (6, -5.43710571946764750000e-001) (7, 7.07971355989868380000e-001) (8, -1.51565561706710610000e+000) (9, -1.52380870120126830000e-001) (10, 1.06812190447468460000e+000) (11, -4.67502976555792150000e-001) (12, 2.10431072128288270000e-001) (13, 1.05865808415292100000e+000) (14, -5.88629641540851090000e+000) (15, -8.42382435904993510000e-001) (16, 3.55579616390432430000e+000) (17, 1.53382242018342410000e+000) (18, -3.08284870256092970000e+000) (19, -1.26525380742244090000e+000) (20, 1.20777190357416350000e-001) (21, 4.09204897981914560000e-001) (22, -2.04722283468450000000e+001) (23, 1.46963352844169840000e+000) (24, -3.56399686399489110000e+001) (25, -8.58593995607031400000e-002) (0, 6.56736343545871740000e+000) (1, -2.35805738893384030000e+000) (2, 2.39907277180965470000e-001) (3, 7.58521697306877300000e-002) (4, -6.28445299011646250000e-001) (5, 5.39101064258437070000e-001) (6, -1.66945060189714690000e+000) (7, 6.42660160954015460000e-001) (8, -1.93208384070265860000e+000) (9, 3.71854630169773210000e-001) (10, 1.35720127344333340000e+000) (11, 1.54071974542654820000e+000) (12, -3.76434167882736430000e-001) (13, 1.83496373255926710000e-001) (14, 1.03028351697856270000e+000) (15, 2.70410501463087540000e-001) (16, -3.93674412524548380000e+000) (17, -1.26760695041131140000e+000) (18, 3.08981280601693210000e+000) (19, 6.70977486216445150000e-001) (20, -1.42500362077666140000e+000) (21, 2.12731091473727130000e+000) (22, -9.19378870102650940000e+000) (23, 6.31149376264333320000e-001) (24, -1.02255923134248740000e+000) (25, -1.11491611970948690000e-001) (0, 6.40015714074545890000e+000) (1, 3.16352313848651660000e+000) (2, 2.80124722485591500000e-001) (3, -4.69145293590144840000e-001) (4, -2.57488884575057320000e+000) (5, 1.34161891737267000000e+000) (6, 2.64960960922909020000e+001) (7, 9.31678010969377410000e-001) (8, 2.40038067695324340000e+000) (9, 3.65247029359515860000e-001) (10, 7.71044182736951300000e-001) (11, 5.94215834109786960000e-001) (12, 2.48976724828786860000e+000) (13, 1.34589585325381120000e-001) (14, 8.99054954209936060000e+000) (15, 8.91270462683637520000e-001) (16, 6.97707550738930430000e-001) (17, 3.69528558443465550000e-001) (18, -1.83624663745293540000e+000) (19, 2.67853440113601180000e-001) (20, 3.99439326597560220000e+001) (21, 3.32970651823330280000e+000) (22, -1.27165962727666830000e+000) (23, 1.07099291805483260000e-001) (24, 1.01556293373550870000e+001) (25, 1.54386918858397810000e+000) (0, -1.22223965014359830000e-002) (1, 4.20579937331758970000e-001) (2, 7.20354928631938170000e-001) (3, -4.84104890862493630000e-002) (4, -9.88460024691038140000e-002) (5, 7.47023803487779780000e-002) (6, 9.58501159781485870000e+000) (7, 1.31964564061901070000e-001) (8, -1.84030281155806140000e-001) (9, 2.49507867300489410000e-001) (10, 5.72665742187358770000e-001) (11, -3.30817276640818160000e-002) (12, -1.14675106160953040000e-001) (13, -9.69200161794499800000e-002) (14, -3.35147397547817330000e+000) (15, -3.81254952784866180000e-002) (16, -1.19622101845209730000e-001) (17, 2.50790634421807990000e-001) (18, -1.56202466070952320000e+000) (19, 1.42553456511919260000e+000) (20, -1.71902069692964010000e-001) (21, 5.94454514269302310000e-002) (22, 7.34211405966267440000e-001) (23, 2.03364239016932490000e-001) (24, -2.00489173053983820000e+000) (25, 2.75361976344454920000e-001) (0, -2.92972289250237050000e-001) (1, 9.11179114304290490000e-002) (2, 4.44019805152358450000e-001) (3, 2.71507256276700970000e-001) (4, 9.58993042245102620000e-001) (5, -1.73364864501839440000e-001) (6, 1.14929885235214520000e+001) (7, 1.53058145088454810000e-001) (8, 7.59454471456176010000e-002) (9, -6.89488754279068750000e-001) (10, -1.29889700608441360000e+000) (11, 3.92345005077576750000e-001) (12, 4.94293538406744060000e-001) (13, 5.78729559705538410000e-001) (14, -9.56446222028146890000e-001) (15, -2.46093628545975880000e-001) (16, 1.87959339158996720000e+000) (17, -1.20304690740024700000e-001) (18, 3.64228763659752600000e-001) (19, -6.66829863075033560000e-002) (20, 9.16566828927068400000e+000) (21, 3.53784565982093960000e-001) (22, -2.03797896058354590000e+000) (23, 5.37704579088597260000e-003) (24, 5.24177015308150020000e+000) (25, 1.25865745103873380000e-001) (0, -2.47974237780469360000e+000) (1, 1.42368887145762290000e-001) (2, -5.06015340989318880000e-001) (3, -1.29999247113311060000e+000) (4, 7.21768832202995260000e-001) (5, 3.58648028153161570000e+000) (6, -6.71526837425074350000e-001) (7, 4.90467612699240610000e-001) (8, 1.88409674276660830000e+001) (9, 1.72675247579423830000e+000) (10, 1.22276839251794820000e+001) (11, 2.81221192012511480000e+000) (12, -9.89003864358104150000e+000) (13, -7.37530474613357520000e-001) (14, -7.85764819329049490000e+000) (15, -1.16499281734305680000e-001) (16, 6.06974724640929160000e+000) (17, 3.33406381790160290000e+000) (18, -5.82630914731044220000e+000) (19, 2.88366218480939630000e-002) (20, -4.42441859418877040000e+000) (21, 3.46632701067749790000e-001) (22, -1.82271677397547370000e+001) (23, -1.04929489110209220000e-001) (24, 7.19489586450194590000e+001) (25, 1.99513630655589200000e+000) (0, 4.40848290748428080000e+000) (1, 1.96522770545210300000e+000) (2, 1.98386924675626330000e+000) (3, 9.00424418176957590000e-002) (4, 5.68497466796845520000e+000) (5, 2.30156950639061220000e-001) (6, -2.09961662805496860000e+000) (7, 5.52514211618202130000e-001) (8, 1.37178685312807290000e+001) (9, -4.20919731991414370000e-002) (10, -2.14557347979467740000e-001) (11, -2.64889723050587330000e+000) (12, 2.56241503572532770000e+000) (13, 2.78429692993708900000e-001) (14, 1.21998403964274100000e+000) (15, 2.63776651058461430000e-001) (16, -1.62310266909179020000e-002) (17, 8.64326235115532300000e-001) (18, 4.53417855636321930000e+000) (19, 1.34434816605270680000e-001) (20, 2.71752314853151990000e+000) (21, -6.28461444809510770000e-002) (22, 4.34565851494994430000e+000) (23, -8.73844934679068610000e+000) (24, -4.62349223563510140000e+000) (25, -3.16966404211047990000e-001) (0, 1.27199970329226700000e+000) (1, 7.07262872099770010000e-001) (2, 1.06991682354668890000e+000) (3, -8.23810503349191040000e-002) (4, 9.65074239331441650000e-001) (5, 1.86421262906413560000e-001) (6, -7.99707896973743450000e+000) (7, -8.60609630936808870000e-002) (8, -1.10115707237398800000e-001) (9, -6.35754409820297630000e-001) (10, 1.50972204488966370000e-001) (11, 7.74683115580610950000e-002) (12, 4.11865028772382310000e+000) (13, 5.13713836705145120000e-002) (14, 3.93413696102798170000e+000) (15, 1.77583772308918610000e-001) (16, -2.56872551811876850000e-001) (17, 3.09419960721389390000e-001) (18, -4.29058391364750380000e-001) (19, 9.68648081310035240000e-002) (20, -2.06038557275671240000e+000) (21, -8.84338942366266890000e-002) (22, 5.93466202928356830000e-001) (23, 7.30836045589863810000e-002) (24, 9.91345863931569430000e-001) (25, -6.67411391352995540000e-001) (0, 3.63503831815619360000e+000) (1, 3.36455841993876350000e-001) (2, 1.06143424608117560000e+000) (3, 3.47926912758309280000e-001) (4, 4.42626093319885060000e-001) (5, -2.00401682831327340000e-001) (6, 1.57914102570539510000e+000) (7, -3.82208809668650010000e-001) (8, -7.11958586510374580000e+000) (9, -1.46036748039666650000e-001) (10, 6.73400758572353040000e-001) (11, -2.28126405879325810000e-001) (12, -3.36143415840612340000e+000) (13, 9.10790774869608690000e-002) (14, 1.02638818614029860000e+000) (15, 1.42443027868058430000e-001) (16, 3.17594216828902960000e-002) (17, 3.94494197752776500000e-001) (18, 6.03476876833050180000e-001) (19, -1.95031691810861090000e-002) (20, -9.66910047421826140000e+000) (21, -2.50079246764893630000e-001) (22, 3.34971844968364650000e+000) (23, 3.67892512092517890000e-001) (24, -1.16317904597242250000e+001) (25, 1.50856531347466070000e-001) (0, -4.25801659499970950000e+000) (1, 2.46153817493530800000e-001) (2, 4.04142355426778620000e-001) (3, 2.21002935556591780000e-001) (4, -1.60209278004209170000e+000) (5, 1.15500690032451710000e-001) (6, 5.26930726558016360000e+000) (7, 6.00627497549876320000e-001) (8, 4.12062117303097720000e-001) (9, -1.46707295826760150000e-001) (10, -2.17635041929276830000e+000) (11, 3.55845477848244360000e-002) (12, 8.77834302317767450000e+000) (13, 6.06105971900492650000e-001) (14, -6.50706131871625890000e+000) (15, 3.24303252131788290000e-001) (16, 1.11708962793867910000e-001) (17, -2.00895775270449380000e-001) (18, -2.86270342322121340000e+000) (19, 1.70718362324096760000e-001) (20, 5.51990646793679480000e-001) (21, 2.40945701634243950000e-001) (22, -4.73842643673065110000e-001) (23, 2.84319260587464480000e-001) (24, -3.18178885713126960000e+000) (25, 1.19047534954619110000e+000) (0, -4.37445427958454670000e+000) (1, -1.37488594554881270000e-001) (2, 1.22016711160487290000e-001) (3, 1.52379173745403040000e+000) (4, 2.26533531834968190000e-001) (5, 1.37165897798351070000e+000) (6, -3.33026575010414840000e+000) (7, 1.11105682957517480000e-001) (8, 9.00625423403858210000e-001) (9, 1.25243671383995170000e+000) (10, -1.69112108613411280000e+000) (11, -8.00587822435881590000e-002) (12, 2.59665101558041120000e+000) (13, 1.23995179152316760000e-002) (14, -5.21701771141091260000e+000) (15, 1.25025799816311570000e+000) (16, 8.65389094948699980000e+000) (17, 1.38669543314368180000e-001) (18, -2.68308273462169120000e-001) (19, 7.37995162617258730000e-001) (20, -2.93919152874464860000e+000) (21, 4.68521365576946620000e-001) (22, 3.02248281500936770000e+000) (23, -5.57421085662904050000e-001) (24, -3.12441324409660530000e+000) (25, 2.93803863820772890000e-001) (0, -7.37641856632812140000e+000) (1, -3.27160126658516400000e-001) (2, -1.46320605906902720000e+000) (3, 7.55753385490595120000e-001) (4, -2.77328740873088840000e-001) (5, 1.22060604834495920000e+000) (6, 3.17716930811296240000e+000) (7, 1.68280555582663080000e+000) (8, 1.33271840486807320000e-001) (9, -4.44771995524374190000e-001) (10, 3.48819983628636180000e-002) (11, 1.73228284408607190000e-001) (12, 4.49931041517124180000e+000) (13, 2.64491139508433900000e+000) (14, -1.22673368197286410000e+001) (15, 7.60851491151051770000e-001) (16, 2.77578044209202270000e+000) (17, 2.26758261296205520000e-001) (18, -9.75263246806693300000e-001) (19, 7.22072345502378920000e-002) (20, -3.52301058120326750000e+000) (21, 3.04881758486297620000e-001) (22, 1.41980075472082450000e+000) (23, -6.93693856787041540000e-002) (24, 1.08833775282346750000e+000) (25, 8.71528791322924820000e-001) (0, -1.41398830975613790000e+000) (1, 3.21201115413324920000e+000) (2, 6.54618357164880040000e-001) (3, 7.30358842302482270000e-001) (4, 2.10849819162252850000e+000) (5, 1.24475541076939480000e+000) (6, 1.11767175296004970000e+001) (7, 1.60115256490808040000e-001) (8, -1.14705374704360220000e+000) (9, 4.18248835865070450000e-001) (10, -5.81289654697826900000e-002) (11, 2.81004617340960560000e+000) (12, 5.92877203660184700000e-001) (13, -7.22027830564339200000e-002) (14, -1.34877956211147190000e+001) (15, 9.12642717018608000000e-001) (16, 6.95668415774499320000e+000) (17, 1.89994036905987080000e+000) (18, 9.66131529139500400000e-001) (19, 6.35780975504777970000e-001) (20, -5.20941627368457950000e-001) (21, 6.31312592007718300000e-003) (22, 1.98855957835488580000e+001) (23, 2.23676398831102930000e+000) (24, 2.44243278180477180000e+001) (25, 3.30480712853516600000e-001) (0, 6.55934212102577250000e+000) (1, -7.59977673942641290000e-002) (2, 6.15966910147859890000e+000) (3, -4.22424161291861440000e-001) (4, 3.30057195828074520000e-001) (5, 7.14633708709708440000e-001) (6, 5.70874259726497010000e-002) (7, 3.22391398600545410000e-002) (8, 8.17216932554287290000e+000) (9, 5.41182315538356050000e-001) (10, 3.32482957330850930000e-001) (11, 1.25966703992319130000e-001) (12, 6.72464817050480870000e+000) (13, -7.26333376293195500000e-001) (14, 4.79111487257831000000e+001) (15, 9.35904753264386820000e-001) (16, -3.24584364329353160000e+000) (17, 2.35979680230796160000e-001) (18, 1.90514895829039890000e+000) (19, 1.08473611375567170000e+000) (20, -9.30392245297876920000e+000) (21, 6.68409340134105250000e-001) (22, 1.43845040574546900000e+001) (23, 1.07796731765159960000e+000) (24, 5.71445317805939720000e+000) (25, -5.48596627404347670000e-001) (0, 3.36553749641799890000e+000) (1, -6.07855377846856610000e-001) (2, -1.13351110491143810000e+000) (3, 4.06801541861428310000e-001) (4, -7.95883391413207430000e+000) (5, 1.43947621299704670000e-002) (6, 5.17113186718983100000e+000) (7, 4.58248483960881030000e-001) (8, 1.24482242948102280000e+000) (9, 1.55957146755507270000e+000) (10, -2.57523738970690810000e-001) (11, -1.31477898473355140000e-001) (12, -2.58212545679365670000e+000) (13, 1.60310293832642640000e-001) (14, -3.18478110690932240000e-001) (15, -3.93176815244638770000e-001) (16, 2.22673517212216330000e+000) (17, 5.90197390679950810000e-001) (18, 7.14896946076733910000e+000) (19, 1.39497469972965710000e-002) (20, -9.15765606767310000000e-001) (21, -5.20115253643155580000e-001) (22, 8.55880418319617810000e-001) (23, -1.69702012257960930000e+000) (24, 3.30599308697818190000e+000) (25, 6.51209687824800040000e-001) (0, 1.06600811578237170000e+001) (1, 3.54274086773734890000e+000) (2, 1.29159800323783090000e+001) (3, 9.84012680913156520000e-001) (4, -6.56801151073231670000e-001) (5, -7.48129743728827010000e-001) (6, -1.26475212482945500000e+001) (7, 7.38199004708208430000e-001) (8, 1.38771895933157690000e+000) (9, -1.81114157569912470000e+000) (10, -4.22081873275198750000e+000) (11, 2.85293547235146940000e-001) (12, 6.60169106663594190000e+000) (13, -3.21558091640051720000e-001) (14, -6.67541356750781570000e+000) (15, -3.60440226591117470000e+000) (16, -1.01332189393333500000e+001) (17, 3.25853208021120410000e+000) (18, -7.74447550701202920000e+000) (19, -9.37605739624750990000e-002) (20, -1.93009423753620730000e+000) (21, -8.98921023673413870000e-001) (22, 1.24600354228768030000e+001) (23, -2.01511371360842210000e+000) (24, -8.98439827992997490000e-001) (25, -3.45956183467669640000e-002) (0, -3.25206338250161140000e+000) (1, 4.00614572266794090000e-001) (2, -5.56456068523300380000e+000) (3, 2.14019446906867210000e+000) (4, 2.69175273751719810000e+000) (5, -2.04073183533003050000e-001) (6, -1.23379001480354700000e+001) (7, 1.80081201416979170000e-001) (8, 1.49085003954186490000e+000) (9, 6.44105035582912880000e-001) (10, -7.03373154934370470000e-001) (11, 4.94295530483747750000e-001) (12, 1.89262094098070040000e+001) (13, 5.98960076362908490000e-001) (14, 6.38724358770522250000e-001) (15, -1.17554826407117190000e+000) (16, 6.34677770165144370000e-001) (17, 8.76543474615454900000e-001) (18, 2.21959693359468260000e+000) (19, -2.31047126918170060000e-002) (20, 4.98207615110323050000e+000) (21, 4.34610197499741720000e-001) (22, 1.22171843910839840000e+000) (23, -7.56158430221198550000e-001) (24, 9.28861388897097460000e-001) (25, 6.67159221677770310000e-001) (0, 4.83047860631677390000e+000) (1, 1.28145396517099410000e-001) (2, -1.24965630120251530000e+001) (3, -4.34183724939987080000e-001) (4, -6.25829403524932050000e-002) (5, 4.79770522389421580000e-001) (6, -6.89459369596676290000e+000) (7, -1.56410149766541080000e-001) (8, 8.16699403713838780000e-002) (9, -6.26629879252035620000e-001) (10, 4.12253664393414530000e+000) (11, -5.52389091186895050000e-001) (12, 1.33628748529084880000e+001) (13, 3.49571468456989780000e-001) (14, 1.13183062798729560000e+000) (15, 7.94002477148936010000e-001) (16, 7.62443507707072230000e+000) (17, -8.52059739015675890000e-001) (18, -8.80526932266672980000e+000) (19, -1.84166307985426660000e-001) (20, -3.99501298168781290000e-002) (21, -1.71003092465169090000e-001) (22, 3.28490238640259770000e+000) (23, 2.74393887533798520000e+000) (24, 5.53783468709469420000e+000) (25, 3.11215651024784380000e-001) (0, -8.90977947545781750000e-001) (1, 6.21448619304018900000e-002) (2, 2.32164930670121450000e-001) (3, -1.12168100879203870000e-001) (4, 2.41882823860900270000e+001) (5, -2.33521082077605750000e-001) (6, -8.38188064673559440000e-001) (7, -2.46332463659881480000e-001) (8, 2.71437024192580640000e-001) (9, -3.54237593090772520000e-001) (10, 8.78318324992902080000e+000) (11, -2.54491183617079290000e-001) (12, 1.69709053860967640000e+001) (13, 3.13594732847666420000e-001) (14, 2.63863540056923180000e+001) (15, -2.26910225727566280000e-001) (16, 1.38018544324758330000e+001) (17, 5.85745759686094770000e-001) (18, 4.83334725535677910000e+000) (19, 2.22846130232073510000e-002) (20, 8.24130419355594970000e-002) (21, -5.15748663165640830000e-001) (22, 5.94801170432796060000e+000) (23, 2.68720464017822680000e-001) (24, 2.34185991903657360000e+001) (25, -1.02496918634561810000e+000) (0, -7.01053358440965950000e-001) (1, 1.49515151316578910000e+000) (2, 4.21208789013822050000e-002) (3, 5.43537996411879390000e-001) (4, 5.89027787902723590000e-001) (5, 2.66832205144465070000e-002) (6, 9.16896385261263940000e-001) (7, 4.20680327115126930000e+000) (8, 1.51736047302347350000e-001) (9, 4.34125796911021930000e-001) (10, 4.85957601241387090000e-001) (11, 9.42440313609594350000e-001) (12, 6.14522165086299220000e+000) (13, 2.01976718881752190000e+000) (14, 3.85894651726552370000e+000) (15, -1.19715256275491000000e+000) (16, 2.17559612056703640000e+001) (17, 4.50825767626067360000e+000) (18, 7.58283516960577280000e-001) (19, -1.49760074506465200000e+000) (20, 1.61743898476312360000e+001) (21, 5.33040747620268270000e+000) (22, -1.36300539804315020000e+000) (23, -7.66186482015948080000e-002) (24, 3.38444392097959580000e+001) (25, 5.30069446412328890000e-001) (0, -2.17740085779986800000e+000) (1, 7.90875094233788320000e-001) (2, 1.57271395536288900000e+000) (3, -3.73786389538967090000e-001) (4, 2.50757856447581200000e-001) (5, 2.97067083940821150000e-001) (6, -7.44368707379566400000e-001) (7, 4.83031530691227230000e-002) (8, 8.64799989975791440000e-001) (9, -4.09232063850872910000e-001) (10, 4.07454115626972150000e-001) (11, 3.69963844780153210000e+000) (12, 1.09472346597216340000e+000) (13, 4.80655580693419710000e-002) (14, 1.76033217841567800000e+000) (15, 1.91616491584549460000e-001) (16, -1.12997895447743700000e+000) (17, -8.93934998487081240000e-001) (18, -3.48269713534097480000e+000) (19, 1.92920523209651640000e-001) (20, 1.47743258503470810000e-001) (21, 4.25461105095782830000e-001) (22, -7.90404621946002690000e-001) (23, 4.98493066564892340000e-002) (24, -5.35642511538458700000e+000) (25, 2.17304420506639260000e-001) (0, -6.13711483083830340000e+000) (1, 4.55460523962691270000e-001) (2, 8.19810206013668500000e-001) (3, 5.41558220876751430000e-001) (4, -3.74496998414182110000e+000) (5, 4.39724351267052620000e-001) (6, 1.08796818887345470000e+000) (7, 2.91990617010932260000e-001) (8, -1.66007581303614550000e+000) (9, 1.49050017071011550000e-002) (10, 3.49539175415816850000e+000) (11, -4.38856298724782050000e-001) (12, -7.28075039335263410000e-001) (13, -1.11418118903474710000e-001) (14, 5.63503495876140900000e+000) (15, -4.71602714488268400000e-001) (16, -4.12792532114229620000e+000) (17, 3.63321895282170570000e-001) (18, 1.97862819411756870000e-001) (19, -2.16374120893126690000e-001) (20, -5.70118318223926130000e+000) (21, -1.04746342658903670000e-001) (22, 1.20801000130429910000e+000) (23, 3.90694157929922570000e-001) (24, -7.62633490053361210000e+000) (25, 1.80999125931754850000e-001) (26, 3.95234039666385650000e-001) (27, 5.41130647974249700000e-001) (28, 2.70634170693128780000e-001) (29, 1.14984913955749570000e+000) (30, 1.99937916262561740000e-001) (31, -9.24299266393660780000e-001) (32, -7.47486317499640670000e-001) (33, 4.55493093671439970000e-001) (34, 1.20552070293145010000e+000) (35, -2.69775458014294760000e-001) (36, -3.86990596094957400000e-002) (37, 1.65499554887079800000e-003) (38, 2.96467125378952150000e-001) (39, -1.04550744309055110000e+000) (40, 1.64630365525354790000e+000) (41, 1.50345246656599010000e-001) (42, -1.00734841232887630000e+000) (43, 1.85852584070648800000e+000) (44, 5.31163599609757560000e-001) (45, 1.50754946656381540000e+000) (46, 5.84914727777872570000e-001) (47, 6.73951983384776580000e-001) (48, 7.72105430386634480000e-001) (49, -2.70747299252691990000e-003) (26, -1.24964401220220920000e+000) (27, -1.61080578531166260000e+000) (28, -2.08206110993758160000e+000) (29, -3.35408523252127670000e-001) (30, 1.21196991355915350000e+000) (31, 1.59588581220056190000e+000) (32, -1.00561082935412150000e+000) (33, -1.99043705173355280000e+000) (34, -4.37350338937792460000e-001) (35, -1.98359190953353160000e-001) (36, 6.83372442852618670000e-001) (37, 1.98767816226402740000e+000) (38, 1.26363574786124720000e+000) (39, 1.15243431566213790000e+000) (40, -1.27464897141551510000e+000) (41, 1.67884078101118980000e+000) (42, 4.26372788577195560000e-002) (43, -3.18205826400173700000e-001) (44, 5.66412068863383910000e-002) (45, 2.26387938667018310000e-001) (46, 7.30070061659501830000e-001) (47, -5.77553456323571580000e-001) (48, 5.03950336306107500000e-002) (49, 5.23929135308413670000e-001) (26, 1.87319373558538330000e-002) (27, 3.64131459058355370000e-001) (28, 2.26457435790819210000e+000) (29, 1.27722652574372150000e-002) (30, 8.26980465539318420000e-002) (31, -8.33363099867400760000e-002) (32, 2.68227636853741420000e+000) (33, 1.52531294453470980000e+000) (34, 3.57711198463133550000e-004) (35, 3.27909687264052300000e+000) (36, 3.02039490879252300000e-001) (37, -1.82758454685472720000e-001) (38, 1.74507521204369440000e-001) (39, -2.93083683196421360000e-001) (40, -7.96660445115750740000e-001) (41, -9.00589153948503700000e-001) (42, 5.79116301147449720000e-001) (43, 2.40420314855941880000e-002) (44, 6.51241728752402270000e-001) (45, -1.43654856973701080000e+000) (46, -2.00187204542802720000e+000) (47, 9.82807106559769990000e-001) (48, 3.55521784770882860000e-001) (49, 4.81792616490862520000e-001) 
