FANN_FLO_2.1
num_layers=3
learning_rate=0.700000
connection_rate=1.000000
network_type=0
learning_momentum=0.000000
training_algorithm=2
train_error_function=1
train_stop_function=0
cascade_output_change_fraction=0.010000
quickprop_decay=-0.000100
quickprop_mu=1.750000
rprop_increase_factor=1.200000
rprop_decrease_factor=0.500000
rprop_delta_min=0.000000
rprop_delta_max=50.000000
rprop_delta_zero=0.100000
cascade_output_stagnation_epochs=12
cascade_candidate_change_fraction=0.010000
cascade_candidate_stagnation_epochs=12
cascade_max_out_epochs=150
cascade_max_cand_epochs=150
cascade_num_candidate_groups=2
bit_fail_limit=3.49999999999999980000e-001
cascade_candidate_limit=1.00000000000000000000e+003
cascade_weight_multiplier=4.00000000000000020000e-001
cascade_activation_functions_count=10
cascade_activation_functions=3 5 7 8 10 11 14 15 16 17 
cascade_activation_steepnesses_count=4
cascade_activation_steepnesses=2.50000000000000000000e-001 5.00000000000000000000e-001 7.50000000000000000000e-001 1.00000000000000000000e+000 
layer_sizes=28 23 4 
scale_included=0
neurons (num_inputs, activation_function, activation_steepness)=(0, 0, 0.00000000000000000000e+000) (0, 0, 0.00000000000000000000e+000) (0, 0, 0.00000000000000000000e+000) (0, 0, 0.00000000000000000000e+000) (0, 0, 0.00000000000000000000e+000) (0, 0, 0.00000000000000000000e+000) (0, 0, 0.00000000000000000000e+000) (0, 0, 0.00000000000000000000e+000) (0, 0, 0.00000000000000000000e+000) (0, 0, 0.00000000000000000000e+000) (0, 0, 0.00000000000000000000e+000) (0, 0, 0.00000000000000000000e+000) (0, 0, 0.00000000000000000000e+000) (0, 0, 0.00000000000000000000e+000) (0, 0, 0.00000000000000000000e+000) (0, 0, 0.00000000000000000000e+000) (0, 0, 0.00000000000000000000e+000) (0, 0, 0.00000000000000000000e+000) (0, 0, 0.00000000000000000000e+000) (0, 0, 0.00000000000000000000e+000) (0, 0, 0.00000000000000000000e+000) (0, 0, 0.00000000000000000000e+000) (0, 0, 0.00000000000000000000e+000) (0, 0, 0.00000000000000000000e+000) (0, 0, 0.00000000000000000000e+000) (0, 0, 0.00000000000000000000e+000) (0, 0, 0.00000000000000000000e+000) (0, 0, 0.00000000000000000000e+000) (28, 5, 5.00000000000000000000e-001) (28, 5, 5.00000000000000000000e-001) (28, 5, 5.00000000000000000000e-001) (28, 5, 5.00000000000000000000e-001) (28, 5, 5.00000000000000000000e-001) (28, 5, 5.00000000000000000000e-001) (28, 5, 5.00000000000000000000e-001) (28, 5, 5.00000000000000000000e-001) (28, 5, 5.00000000000000000000e-001) (28, 5, 5.00000000000000000000e-001) (28, 5, 5.00000000000000000000e-001) (28, 5, 5.00000000000000000000e-001) (28, 5, 5.00000000000000000000e-001) (28, 5, 5.00000000000000000000e-001) (28, 5, 5.00000000000000000000e-001) (28, 5, 5.00000000000000000000e-001) (28, 5, 5.00000000000000000000e-001) (28, 5, 5.00000000000000000000e-001) (28, 5, 5.00000000000000000000e-001) (28, 5, 5.00000000000000000000e-001) (28, 5, 5.00000000000000000000e-001) (28, 5, 5.00000000000000000000e-001) (0, 5, 0.00000000000000000000e+000) (23, 5, 5.00000000000000000000e-001) (23, 5, 5.00000000000000000000e-001) (23, 5, 5.00000000000000000000e-001) (0, 5, 0.00000000000000000000e+000) 
connections (connected_to_neuron, weight)=(0, -1.39480031927163870000e-002) (1, 7.29739050003026080000e-001) (2, 2.33436068256110460000e-001) (3, 8.55918141493274280000e-001) (4, -1.74013596791577770000e+000) (5, 2.47449514063611710000e+000) (6, 4.92180117752032850000e+000) (7, 3.88891865304266560000e-001) (8, 7.39105824061689630000e+000) (9, 2.46490965603897220000e-001) (10, -1.20302683621738140000e+001) (11, 3.77680869880665240000e-001) (12, 3.89597046099750540000e-001) (13, 5.39297740932037640000e-001) (14, -1.59089870527705310000e+001) (15, 7.60825539874851690000e-001) (16, 5.73708091656032000000e-002) (17, -1.02096331989867630000e-001) (18, -6.89404583426220440000e+000) (19, -4.76411868810217230000e-002) (20, -8.34741619980518100000e-001) (21, 2.53434068671475050000e-001) (22, -2.15641722990093630000e+000) (23, 3.40862007924645380000e-001) (24, -2.60484950532243650000e+000) (25, -4.06221036722988090000e-001) (26, 1.82538150237065760000e+001) (27, 9.61190355045711710000e-001) (0, -1.60786923521974130000e-001) (1, -1.37615949353572440000e-001) (2, 8.54325872050014200000e-001) (3, -2.32510206806895410000e-001) (4, -1.14174112826295700000e+000) (5, 4.24255009476186900000e-002) (6, -1.99984135018564780000e+000) (7, -1.28025468370400660000e-001) (8, 1.84528755777817440000e-001) (9, -8.86948236497916880000e-004) (10, 6.89504337096728680000e-002) (11, -9.00521514162423710000e-002) (12, 1.11604256939589960000e-001) (13, 1.01906704778119920000e-001) (14, 4.96944363789297410000e-001) (15, -2.48691119508691950000e-002) (16, 2.44117126209842940000e-001) (17, -2.20804053976958240000e-001) (18, 1.45470164411096410000e+000) (19, -2.03794995889361760000e-001) (20, -3.56259647864751550000e+000) (21, 1.95269606214476230000e-001) (22, 5.48601012974449300000e-001) (23, 7.54244114188524100000e-003) (24, -6.37548869977810130000e-001) (25, -2.38819643855856940000e-001) (26, 4.06944430178710090000e+000) (27, -6.74659695488559730000e-004) (0, 3.89676090099151830000e+000) (1, 7.35241630814510110000e-001) (2, -2.17753243781278630000e+000) (3, 1.50004544255091350000e-001) (4, 1.67452285320245840000e+001) (5, 2.64684555924302560000e+000) (6, 9.72371834946348200000e+000) (7, 1.54728668096368690000e+000) (8, 8.56151389183220960000e+000) (9, -1.99797732941611610000e+000) (10, -2.09614356132179180000e+000) (11, 3.60475611162774430000e-001) (12, 1.27508339919480370000e+001) (13, 2.57676429085049240000e+000) (14, 1.69111472839101320000e+001) (15, 5.83707517498338380000e+000) (16, -1.39886113979077380000e+000) (17, 1.22669997496485710000e+000) (18, 1.82347331166676940000e+000) (19, -1.20202583291543450000e+000) (20, 1.45401363980887870000e+001) (21, 6.27660212985830230000e+000) (22, 2.90622194392497240000e+001) (23, 2.61958071485667470000e-001) (24, 1.08096543540569190000e+001) (25, 1.88269222261032740000e+001) (26, 3.27922526857121640000e+001) (27, -1.80735250388093190000e+000) (0, -1.30974000830253040000e-001) (1, 3.55895330505590970000e-001) (2, -7.82249706582366680000e+000) (3, 2.59347178046079700000e-002) (4, 1.30768226667076020000e+000) (5, -6.91404198231293620000e-001) (6, 8.65745745715163120000e+000) (7, -5.12905146797742240000e-001) (8, 3.36799552528647080000e+000) (9, 1.15995534806844640000e+000) (10, -4.16129154818718570000e+000) (11, 9.20924603839753530000e-002) (12, 1.97637795340131970000e+000) (13, 1.54574727503503860000e-002) (14, -1.19668594791458080000e+000) (15, -1.44143266873730910000e-001) (16, 2.03440407439939540000e+000) (17, -1.60513236190651940000e-002) (18, 4.36376507607620570000e+000) (19, 1.63806195289820320000e-001) (20, 1.10847856255674080000e+000) (21, 6.39759092280162480000e-001) (22, 2.07271740078094980000e-001) (23, -4.37215224114167300000e-001) (24, -1.84198667042277790000e+001) (25, -2.10883180029935500000e-001) (26, 2.78055610266807420000e+001) (27, -1.29517488194889780000e-001) (0, -2.24053903289838050000e+000) (1, 8.38000778013295530000e-001) (2, 3.90481684485499380000e+000) (3, 3.65689932985429820000e+000) (4, 2.52834268182657840000e+001) (5, 3.66342161047447660000e-001) (6, -2.60050477684455750000e+000) (7, 1.92954794352843130000e+000) (8, 8.44492506253076770000e+000) (9, 6.96269042458640850000e-001) (10, 4.12824336542281360000e+001) (11, 2.90201586765042840000e+000) (12, -2.73847669095598010000e+001) (13, -1.17881580323611960000e+000) (14, 6.53307873417800340000e+000) (15, -4.25972413064555360000e-001) (16, 3.54670405616579740000e+000) (17, 3.71032252908479520000e+000) (18, 2.21808284064918270000e+001) (19, 6.76184518279949390000e+000) (20, -3.90997420313942450000e+000) (21, 1.23071517736513020000e-001) (22, 1.75384061015130070000e+000) (23, 8.28043137299164340000e-001) (24, -1.03959336729773500000e+001) (25, -2.23889782259060730000e+000) (26, -2.97418235908855130000e+001) (27, 5.60463030153059540000e-001) (0, -7.22422227132732740000e-001) (1, 1.66940890346331880000e+000) (2, -2.14618180953617890000e+001) (3, 6.11241949820738210000e-001) (4, -9.81089266353730730000e-001) (5, 8.05356617498692140000e-001) (6, 3.27506464135537030000e+001) (7, 7.38357291536451580000e-001) (8, 2.80984324404590640000e+001) (9, -6.44938993143847840000e-001) (10, -4.26224711904150130000e+001) (11, 2.07955954188211640000e-001) (12, -2.05826277546049410000e+000) (13, -3.53636751029839880000e-001) (14, 4.72976815183064830000e+001) (15, 3.14339897136276440000e+000) (16, 8.51066730154044100000e-001) (17, 5.04704168219735290000e-001) (18, -8.22909094734932190000e+000) (19, -1.66775462033120370000e+000) (20, 1.46585042351299030000e+000) (21, 2.85890928211648370000e+000) (22, 9.70174920136073910000e+000) (23, -2.91041031846498210000e-001) (24, 1.76457622166088960000e+000) (25, 7.17236780860695160000e+000) (26, 1.25454253881419650000e+001) (27, 2.26507874322581570000e-001) (0, 3.68905874106941380000e+001) (1, 5.43263916171681240000e-001) (2, -2.99132557661530330000e+000) (3, -1.22723142292430000000e+000) (4, 2.96531886314951800000e+000) (5, -2.50181383464279540000e-001) (6, 1.92439168483667200000e+001) (7, 1.35021804452202550000e-001) (8, 7.75018126683290940000e+001) (9, 4.62349569858380550000e-001) (10, 1.84613445511775040000e+001) (11, 5.03795574441617690000e+000) (12, 3.25101681913360130000e+000) (13, -1.37774375070567180000e+000) (14, 4.01658331228456960000e+000) (15, -1.05852086542504110000e+000) (16, -6.41759487635579800000e+000) (17, -1.71134429399277030000e-001) (18, -1.91129813348808140000e+001) (19, 4.79060164727200480000e-001) (20, -5.34511577006367420000e-002) (21, -2.72874222364991560000e-002) (22, 1.51980208914828490000e+000) (23, 2.96312468173633880000e-001) (24, -2.18761475025784960000e+000) (25, -8.87331267047150260000e+000) (26, 2.68238663697779820000e+000) (27, 2.21230849189594650000e-001) (0, 8.58800399454024270000e+000) (1, 4.92189462656508370000e-001) (2, 3.85614151217791880000e+000) (3, 5.47093560699547180000e-001) (4, -1.27045373869503550000e+001) (5, 7.09944289288003240000e-001) (6, -6.08917014693013400000e+000) (7, 1.06431182930352670000e+000) (8, 7.50246951295240990000e+000) (9, 2.17002159065595170000e-001) (10, -2.53945075394535280000e+000) (11, -4.31795218753084740000e-001) (12, -3.15683322888287270000e-001) (13, 5.87918131715627370000e+000) (14, -1.19674868267525400000e+000) (15, 6.38224829862919400000e-001) (16, 7.28301991666617130000e-001) (17, 1.35591682312711290000e-001) (18, -5.40485365682106260000e+000) (19, 2.61765313401101760000e-001) (20, -1.06301593574879720000e+000) (21, 1.77810662649725690000e+000) (22, 3.08620271447193150000e+000) (23, 2.40295388516257140000e+000) (24, -3.83771189244226390000e+001) (25, 5.35335713109483270000e+000) (26, 6.16962071468874240000e+001) (27, 1.10196823582100230000e+000) (0, 3.18794842114965120000e+000) (1, 1.07912607847603080000e-001) (2, 4.42534140220873700000e+001) (3, -1.79470396889400780000e-001) (4, -6.32643771231851670000e-001) (5, 6.56182129184992020000e-002) (6, 4.97953941066026930000e+000) (7, 3.31155403239934380000e+000) (8, 4.03739856522733830000e+000) (9, -7.21880184986361080000e-001) (10, -1.80787327669794730000e+000) (11, -1.15579229741910900000e-001) (12, -6.42921071770235030000e+000) (13, 1.92384485540493310000e-001) (14, 1.74538348734174060000e+001) (15, 6.29009138129195680000e-001) (16, -2.13088404992433710000e+000) (17, 1.22420117234693440000e+000) (18, -2.55843134249276180000e+000) (19, 2.55146986734309630000e-001) (20, 1.39455515664210170000e+001) (21, 2.63786671212864250000e-001) (22, -1.19049464537614940000e+000) (23, 1.31671205267451170000e+000) (24, 5.04389933248310300000e+000) (25, 5.17072643491680810000e-001) (26, -6.90032857750934970000e+000) (27, 2.47469870276081390000e-001) (0, -1.35975665618151130000e+000) (1, 8.38238610022803000000e-002) (2, 8.39597349813489120000e+000) (3, 9.66266436346117420000e-001) (4, 4.55159832722932920000e+000) (5, 2.50376249038725740000e-001) (6, -3.00024914255020080000e+001) (7, -2.76718193938595920000e-001) (8, 4.65726247024728700000e-001) (9, 4.86566202697263530000e-001) (10, -1.14761700858161360000e+001) (11, -1.37357103619450610000e-001) (12, -1.57569533148464220000e+001) (13, -3.44826250362037900000e-001) (14, -6.39389485499208730000e+000) (15, 4.07429916782120820000e-001) (16, 4.18998880536306030000e+000) (17, -1.97035122469291600000e+000) (18, 3.07780739312468880000e+000) (19, 1.29550796444200510000e+000) (20, 2.50918503870088920000e+000) (21, -3.32968894279656200000e-001) (22, 3.03655204251230200000e+000) (23, -2.20422642005107240000e+000) (24, 1.31659351230133360000e+001) (25, 5.04382982796859780000e-001) (26, 3.42185009025899800000e+001) (27, -2.51489833441254400000e+000) (0, -1.40026263013066090000e+000) (1, 4.27757580339426400000e-001) (2, -4.86773329306497080000e+000) (3, 7.66133720169030250000e-001) (4, -5.59424179560037520000e+000) (5, 6.23795749900382220000e-001) (6, 1.26599777247476250000e+001) (7, -2.82869665424806960000e-001) (8, -6.44348000356865570000e-001) (9, 8.84778076715832640000e-001) (10, 4.43911127893700290000e+000) (11, 5.38642010894967790000e+000) (12, 3.78723070956743800000e+001) (13, -7.08713329784896320000e-002) (14, 3.91348428913521000000e+001) (15, 1.87109933678655530000e-001) (16, 2.08800951998066830000e+000) (17, 1.70647085251157290000e-001) (18, -1.26197030655417280000e+001) (19, 4.24848781067187090000e+000) (20, -4.27355252804623560000e+000) (21, -3.65115947567259900000e-001) (22, -1.13819956372535370000e+000) (23, -4.01306907614646140000e+000) (24, 4.29419360126915000000e+000) (25, -1.41681416211545020000e+000) (26, 1.20205919790777770000e+001) (27, -8.32416229927337710000e-002) (0, 9.23481976236552480000e-001) (1, 1.20137844590172830000e+000) (2, -1.62941231713862390000e+001) (3, -1.43243911682708000000e+000) (4, 4.46869990890862880000e-001) (5, -6.87319595714469210000e-001) (6, 2.00844270151247390000e+000) (7, 1.02472240414184300000e+000) (8, 1.42567071424998520000e+001) (9, 7.97705342655712020000e-001) (10, 4.13937407120206300000e+000) (11, -1.15512689562148200000e+000) (12, 1.81767305884737750000e+000) (13, -3.71354124844563980000e-001) (14, -3.09330925172731450000e+001) (15, 2.18104889309311570000e-001) (16, 6.81451024070937450000e+000) (17, -1.40036186500377730000e-002) (18, -2.52998809041988260000e+001) (19, 7.36343388907704370000e-002) (20, 7.65039483204667990000e+000) (21, -3.07667853813482880000e-001) (22, -3.35096665997548730000e+000) (23, -2.43171304371074500000e-002) (24, 1.30049520947741990000e+001) (25, 9.60485076812463760000e-001) (26, -4.57488341875740990000e+000) (27, -6.28366163304403120000e-002) (0, -1.33069641538429080000e+000) (1, 2.24264849446975000000e-001) (2, -9.16053131516445630000e-001) (3, -1.49315788913147450000e-001) (4, -1.12406416368168730000e+000) (5, -3.68969480731204950000e-001) (6, 1.37719780015151730000e+000) (7, -3.44253205246649210000e-001) (8, -5.08464112826197210000e+000) (9, -8.49074686091023520000e-002) (10, -1.24912912389101920000e-001) (11, -1.47586526659820970000e-001) (12, 3.96098766750254820000e+000) (13, -1.03138191683813250000e-002) (14, 9.66921136673016710000e-001) (15, 1.17231459244399790000e-001) (16, -1.45337255772605770000e+000) (17, -1.47045513595178590000e-001) (18, 4.76879825659959230000e-001) (19, 8.39243556961731700000e-003) (20, -2.89470187567092090000e-001) (21, -1.76409047239197480000e-001) (22, 6.95544566599239240000e-001) (23, 2.71982494361521190000e-002) (24, -2.31378603641004600000e+000) (25, -5.63302085081426180000e-002) (26, 1.36236972546619900000e-001) (27, 7.39608244536761610000e-002) (0, 6.62719443242670620000e+000) (1, 1.02292693485423600000e+000) (2, 1.08365844665663040000e+000) (3, 4.31330140919015000000e-001) (4, 1.21394303807440770000e+001) (5, 3.72901867595051980000e-002) (6, -2.65899581376713770000e-001) (7, 2.36003657231082280000e+000) (8, 1.56498997493817590000e+000) (9, -4.52690110305171150000e-001) (10, 4.29908212641646440000e+001) (11, 3.78516629379212100000e-001) (12, 5.66515321891721820000e-001) (13, 1.53561283970730260000e+000) (14, 5.04561272127720260000e+000) (15, -5.47921221710705240000e-002) (16, -2.61198926230552930000e+001) (17, -1.98462153783039160000e-001) (18, -2.63199888248478730000e+000) (19, 3.19173667545535130000e+000) (20, -1.81427040368682470000e+000) (21, 1.08984221154130110000e+000) (22, -6.72014394037556160000e+000) (23, -5.63982955454962800000e-001) (24, -1.42902778745076820000e+001) (25, -2.52664553250578520000e-001) (26, -1.14401211173815620000e+001) (27, 9.77813866535588990000e-001) (0, -4.89751537855320050000e-001) (1, -7.62370486495174420000e-002) (2, 1.02814110404807860000e+000) (3, -1.20798773570981790000e-001) (4, 2.36416956124852140000e-001) (5, 1.23506681967306420000e-001) (6, 7.07812785283244540000e-001) (7, -8.26145655188911950000e-002) (8, -3.65352689220475650000e-001) (9, -4.17162285435209310000e-002) (10, -9.42338253343191550000e-001) (11, -1.03170208868950480000e-001) (12, -3.92632250804742040000e-003) (13, -2.15042307690940290000e-001) (14, 1.34452400820327460000e+000) (15, 3.89672912081445720000e-002) (16, 2.64073317701229060000e-002) (17, 2.26683313572208220000e-001) (18, 1.37012347568402750000e+000) (19, -1.74386987280954090000e-001) (20, 2.11819384619115900000e-001) (21, -1.43941624882789580000e-001) (22, 1.40193483371024510000e+000) (23, -1.81753253188306190000e-003) (24, -1.07873013404527110000e-001) (25, 5.64389097781131670000e-002) (26, -1.63531142145652940000e+000) (27, 4.06553484863098130000e-002) (0, 5.28722683048402090000e-001) (1, -2.74090641852308530000e-001) (2, 8.01967691855084760000e-001) (3, 2.15777615279479850000e-002) (4, -1.75387502372981530000e+000) (5, -8.41896404608874910000e-002) (6, 9.73235584871694590000e-001) (7, 1.37555492007559980000e-001) (8, -2.39398476488633970000e-001) (9, -4.34449676124698400000e-002) (10, -5.89575726808964570000e-003) (11, -4.44509611501082650000e-001) (12, 1.18807792028586470000e+000) (13, -2.97879303591957260000e-002) (14, -2.63209047915061830000e-001) (15, -1.33818426959649070000e-001) (16, 4.37745468338126440000e-001) (17, 1.15466151357368670000e-001) (18, 1.41842561272889880000e+000) (19, 1.63314977401492390000e-001) (20, 1.73466302754091810000e-001) (21, -2.33079839334904730000e-001) (22, -9.23058473331642320000e-003) (23, -2.20676850261295410000e-001) (24, 7.80115217300565320000e-001) (25, -3.92693661375160370000e-001) (26, 8.64055798626422730000e-002) (27, 2.36928735965102970000e-001) (0, -7.73874347163296860000e+000) (1, -2.43352640556040480000e-003) (2, -7.25705296262448130000e+000) (3, 1.09245709165058110000e+000) (4, -7.06426406563434650000e+000) (5, 7.76092813567938240000e-001) (6, -3.95726259675318650000e+000) (7, -3.34492036111770020000e-002) (8, -3.66906475735940640000e+000) (9, 6.84931935014176260000e-001) (10, 3.14610503767988710000e+000) (11, 5.43588886890105650000e-001) (12, 3.78037157632516240000e+000) (13, 1.34798855846902610000e+000) (14, 3.48140496779112940000e+000) (15, 6.34247216014025350000e-003) (16, -4.29330326837067670000e+000) (17, 5.29842007029755150000e-001) (18, 1.67922314103544610000e+000) (19, 4.26676082702757200000e-001) (20, -7.86401772500774590000e-001) (21, 1.01908179018255750000e+000) (22, -7.47219631427356810000e-001) (23, 1.37248884558464730000e-001) (24, -5.55966986234752820000e-001) (25, 4.89054445999377700000e-001) (26, -8.45478056369933920000e+000) (27, 4.87007676373995340000e-001) (0, -1.97520644656158420000e+000) (1, -1.30360088268972300000e-001) (2, 4.60576462034806240000e+000) (3, -8.31675786379686200000e-001) (4, -8.28718824958055040000e-001) (5, 3.26356739438097950000e-001) (6, 2.53775522505622460000e-001) (7, 5.89956334875763710000e-001) (8, 1.81127877553989960000e-001) (9, 3.49166052015813630000e-001) (10, 3.61238698194296060000e+000) (11, 2.10264561051217580000e+000) (12, -2.01166436542359130000e-001) (13, 8.91675508766344440000e-002) (14, 1.06159585730270110000e+000) (15, -8.24723403913267370000e-001) (16, -4.58929437666058780000e+000) (17, 4.74132732140900130000e-001) (18, 3.39193595480070000000e+000) (19, 4.98009670771574760000e-001) (20, 4.20573054691577710000e-002) (21, -2.91533405564650020000e-002) (22, -4.68272128028085710000e+000) (23, 2.21925343372904370000e-001) (24, 1.02966031334159000000e+000) (25, -9.83434023310930660000e-002) (26, -5.62304299618098110000e+000) (27, 9.30806288917402080000e-002) (0, 1.96894869283871080000e+000) (1, 1.67027171106503770000e-002) (2, -1.05372139800846210000e+001) (3, 5.31610189322861080000e-001) (4, 2.92772178114041550000e+000) (5, 1.27776945336822490000e-001) (6, -4.77070865659398710000e+000) (7, 3.66461830110197530000e+000) (8, -6.09113642288283130000e-001) (9, 5.99333450387387940000e-001) (10, -1.56789761171413320000e+001) (11, 1.38727782205373560000e+000) (12, 9.72681576264282980000e-001) (13, 2.07432862115218030000e-001) (14, -3.76154468434652010000e+000) (15, 5.34185735447311530000e-002) (16, -2.00829824449863330000e-001) (17, -2.05696658876744520000e-002) (18, 2.44349304044581580000e-001) (19, 5.04235240510732870000e-001) (20, 3.45285526163408200000e+000) (21, 5.01004170788972860000e-001) (22, -4.15388941275526060000e+000) (23, 6.13406201519369640000e-001) (24, 7.71613537320679390000e-001) (25, 1.00355547482662290000e+000) (26, 2.92322023454156500000e+000) (27, 3.07283601832616780000e+000) (0, 1.95919134456135580000e+000) (1, 7.60063457744186570000e-002) (2, -6.10644914850893450000e+000) (3, 2.40806829229323500000e+000) (4, 1.23829523601915630000e+001) (5, 9.52652001921337590000e-001) (6, 3.29904992449995090000e+000) (7, -1.54429757057631870000e+000) (8, 5.63662588264581110000e+000) (9, -1.45591287478883110000e-001) (10, 7.65400180119361280000e+000) (11, 4.78855686754863010000e+000) (12, -3.58845474116398670000e+000) (13, 2.22639659079294590000e+000) (14, 3.23127482889862990000e+001) (15, 1.48248461407877930000e+000) (16, 5.20741607203776090000e+000) (17, 1.99577795502595860000e-001) (18, 1.18546657206737430000e+000) (19, 5.62026481741575550000e-001) (20, 3.54888370020494430000e+000) (21, 8.05453043754634890000e-001) (22, 1.41817222219467640000e+000) (23, -1.32763028196993390000e-003) (24, -1.47820933508540740000e+001) (25, -4.90763193228003380000e-001) (26, -5.51127165562322400000e+000) (27, -3.40271217866028210000e-001) (0, 1.10799320370134820000e+001) (1, 1.59860274348117470000e+000) (2, -1.49630986495548530000e+000) (3, -6.50077754009629530000e-001) (4, 6.08116435870026970000e+000) (5, -1.19462013526644960000e+000) (6, 2.14898427441993610000e+001) (7, 4.54134158188086280000e-001) (8, -1.02099601315982920000e+001) (9, 3.01764067913876580000e+000) (10, 3.37282379002729510000e+001) (11, 2.94325123464408980000e-001) (12, 1.59386834788959300000e+001) (13, 7.59194343072385980000e+000) (14, 2.14981203959910380000e+000) (15, 7.22107513663612190000e+000) (16, -2.18142186663595350000e+000) (17, 3.95784614503840390000e+000) (18, -6.41322652265492340000e-001) (19, 2.57112645586197490000e+000) (20, -1.27733404196378550000e-001) (21, 2.49562900007227340000e+000) (22, 1.08304980750192520000e+001) (23, -4.41905343990314430000e-003) (24, -7.87412828185009950000e+000) (25, 3.47423113550510980000e-001) (26, 4.09173382833824280000e+001) (27, 1.53145765588839230000e+000) (0, 1.09988047652472170000e+001) (1, 2.20870012929565320000e+000) (2, 5.95896577416532300000e+000) (3, -1.08179025576003850000e+000) (4, 1.32449837084539750000e+000) (5, -1.29037385482383350000e+000) (6, -1.02876274439289790000e+000) (7, -6.10143569088291590000e-001) (8, 4.00322326691441700000e+000) (9, 1.55027670857581150000e-001) (10, 2.17692915298212530000e+001) (11, 1.37077216924857530000e+000) (12, 5.46627609694900210000e-001) (13, 6.17074985558237480000e-002) (14, -4.64185340223986280000e-001) (15, 6.80343115880053030000e-001) (16, 1.61042480749239520000e+000) (17, 9.38598478711158980000e-001) (18, -4.22688878328263910000e-001) (19, -3.85711766741856980000e-001) (20, 5.18520735147425340000e+000) (21, -2.47340035240678250000e-002) (22, 3.33772778147074380000e+000) (23, -1.64851907399119210000e+000) (24, 8.79723590663048500000e+000) (25, 2.43807009424755500000e-001) (26, 1.68203633688696610000e+001) (27, 4.30175620231562640000e-001) (28, 1.36531161242245800000e+000) (29, 6.05482773330821120000e-001) (30, -3.06672366114885190000e-001) (31, 1.66453099908600600000e+000) (32, 6.09946477841907480000e-001) (33, 3.13862621855404870000e-001) (34, -1.16437863634073800000e+000) (35, -3.79997397507599640000e-001) (36, 1.79843459619158040000e+000) (37, 2.23938100419753900000e+000) (38, -1.99798212304040400000e+000) (39, 7.24283740268218960000e-001) (40, 1.04190680284567680000e-001) (41, -8.33705409569727380000e-001) (42, 4.17533244922703940000e-001) (43, 2.32491975887115180000e-001) (44, 7.60194772374734760000e-001) (45, 2.27787130902177330000e+000) (46, 4.62776434534011350000e-001) (47, 1.72413104580387790000e+000) (48, -2.01270925355905430000e+000) (49, 1.69353826404127020000e-001) (50, 4.44469981944742240000e-001) (28, 3.29730601125759360000e-001) (29, 4.17443327255372140000e-001) (30, 1.18716782530706880000e+000) (31, 9.56351712419347270000e-002) (32, -1.21707714085060050000e+000) (33, 1.07019477209596300000e+000) (34, 1.62694260205300310000e+000) (35, -1.01954829049304000000e+000) (36, 1.49997728735136400000e-002) (37, -1.41389346662116890000e+000) (38, 3.07307836069291840000e+000) (39, 6.21674533130999410000e-001) (40, 1.72726444102387220000e+000) (41, 6.59895911397354320000e-002) (42, 1.87751231796040790000e+000) (43, 5.61009647331092820000e-001) (44, 1.04223077082490080000e+000) (45, -1.55054072607815900000e+000) (46, 6.49612072468080610000e-001) (47, -9.16401890759362070000e-001) (48, 1.60686348603277840000e+000) (49, -2.57822278423418760000e+000) (50, 6.48779519493831060000e-001) (28, 4.03006081308483810000e-001) (29, 3.78336556724147450000e-001) (30, -9.46064356877631350000e-001) (31, -1.80372328618559540000e+000) (32, 4.05807566052250930000e-001) (33, -7.56242909210029570000e-001) (34, -2.19079642346472290000e-001) (35, 1.49001186419034220000e+000) (36, -1.63411949112681290000e+000) (37, -3.46885422846089480000e-001) (38, -1.47480466284026450000e+000) (39, -1.59720938435098090000e+000) (40, -1.40021068957653320000e-001) (41, 1.56935779913341870000e+000) (42, 4.35849671030316080000e-001) (43, 8.34317602088248010000e-001) (44, 4.08118768587033050000e-001) (45, -4.00828247368529730000e-001) (46, 5.30765034150986750000e-001) (47, -1.21767968196458280000e+000) (48, 2.89432583083091780000e-001) (49, 2.52599303606305450000e+000) (50, 4.58314530002847110000e-001) 
