FANN_FLO_2.1
num_layers=3
learning_rate=0.700000
connection_rate=1.000000
network_type=0
learning_momentum=0.000000
training_algorithm=2
train_error_function=1
train_stop_function=0
cascade_output_change_fraction=0.010000
quickprop_decay=-0.000100
quickprop_mu=1.750000
rprop_increase_factor=1.200000
rprop_decrease_factor=0.500000
rprop_delta_min=0.000000
rprop_delta_max=50.000000
rprop_delta_zero=0.100000
cascade_output_stagnation_epochs=12
cascade_candidate_change_fraction=0.010000
cascade_candidate_stagnation_epochs=12
cascade_max_out_epochs=150
cascade_max_cand_epochs=150
cascade_num_candidate_groups=2
bit_fail_limit=3.49999999999999980000e-001
cascade_candidate_limit=1.00000000000000000000e+003
cascade_weight_multiplier=4.00000000000000020000e-001
cascade_activation_functions_count=10
cascade_activation_functions=3 5 7 8 10 11 14 15 16 17 
cascade_activation_steepnesses_count=4
cascade_activation_steepnesses=2.50000000000000000000e-001 5.00000000000000000000e-001 7.50000000000000000000e-001 1.00000000000000000000e+000 
layer_sizes=30 30 4 
scale_included=0
neurons (num_inputs, activation_function, activation_steepness)=(0, 0, 0.00000000000000000000e+000) (0, 0, 0.00000000000000000000e+000) (0, 0, 0.00000000000000000000e+000) (0, 0, 0.00000000000000000000e+000) (0, 0, 0.00000000000000000000e+000) (0, 0, 0.00000000000000000000e+000) (0, 0, 0.00000000000000000000e+000) (0, 0, 0.00000000000000000000e+000) (0, 0, 0.00000000000000000000e+000) (0, 0, 0.00000000000000000000e+000) (0, 0, 0.00000000000000000000e+000) (0, 0, 0.00000000000000000000e+000) (0, 0, 0.00000000000000000000e+000) (0, 0, 0.00000000000000000000e+000) (0, 0, 0.00000000000000000000e+000) (0, 0, 0.00000000000000000000e+000) (0, 0, 0.00000000000000000000e+000) (0, 0, 0.00000000000000000000e+000) (0, 0, 0.00000000000000000000e+000) (0, 0, 0.00000000000000000000e+000) (0, 0, 0.00000000000000000000e+000) (0, 0, 0.00000000000000000000e+000) (0, 0, 0.00000000000000000000e+000) (0, 0, 0.00000000000000000000e+000) (0, 0, 0.00000000000000000000e+000) (0, 0, 0.00000000000000000000e+000) (0, 0, 0.00000000000000000000e+000) (0, 0, 0.00000000000000000000e+000) (0, 0, 0.00000000000000000000e+000) (0, 0, 0.00000000000000000000e+000) (30, 5, 5.00000000000000000000e-001) (30, 5, 5.00000000000000000000e-001) (30, 5, 5.00000000000000000000e-001) (30, 5, 5.00000000000000000000e-001) (30, 5, 5.00000000000000000000e-001) (30, 5, 5.00000000000000000000e-001) (30, 5, 5.00000000000000000000e-001) (30, 5, 5.00000000000000000000e-001) (30, 5, 5.00000000000000000000e-001) (30, 5, 5.00000000000000000000e-001) (30, 5, 5.00000000000000000000e-001) (30, 5, 5.00000000000000000000e-001) (30, 5, 5.00000000000000000000e-001) (30, 5, 5.00000000000000000000e-001) (30, 5, 5.00000000000000000000e-001) (30, 5, 5.00000000000000000000e-001) (30, 5, 5.00000000000000000000e-001) (30, 5, 5.00000000000000000000e-001) (30, 5, 5.00000000000000000000e-001) (30, 5, 5.00000000000000000000e-001) (30, 5, 5.00000000000000000000e-001) (30, 5, 5.00000000000000000000e-001) (30, 5, 5.00000000000000000000e-001) (30, 5, 5.00000000000000000000e-001) (30, 5, 5.00000000000000000000e-001) (30, 5, 5.00000000000000000000e-001) (30, 5, 5.00000000000000000000e-001) (30, 5, 5.00000000000000000000e-001) (30, 5, 5.00000000000000000000e-001) (0, 5, 0.00000000000000000000e+000) (30, 5, 5.00000000000000000000e-001) (30, 5, 5.00000000000000000000e-001) (30, 5, 5.00000000000000000000e-001) (0, 5, 0.00000000000000000000e+000) 
connections (connected_to_neuron, weight)=(0, 1.54179905749926040000e+000) (1, -3.30738677210347800000e-002) (2, -1.71447880363304550000e-001) (3, 1.51098319567602420000e+000) (4, -1.14392781675249530000e+000) (5, -1.34810173179628650000e-001) (6, 1.70969770087059400000e+000) (7, -3.35813564905631080000e-001) (8, -9.53771235512090420000e-001) (9, -9.53418771116231090000e-003) (10, 3.98912251829188320000e+000) (11, 3.48166726213147700000e-001) (12, -8.03472573104060040000e+000) (13, 3.81170222926454250000e-001) (14, -1.71701285592866900000e-001) (15, -5.15628915130717290000e-001) (16, 8.93810076481853780000e+000) (17, -6.78033472444903530000e-001) (18, 3.62098509664899160000e+000) (19, 1.24190618332183100000e-001) (20, 2.97574596139828310000e+000) (21, -1.52156107309117440000e+000) (22, 6.59829508269155870000e-001) (23, 5.07609680872922130000e-001) (24, -4.58571238247773240000e-001) (25, 7.99923117334598310000e-001) (26, 3.61551673963949490000e+000) (27, 4.74559064541763890000e-001) (28, 6.38556255365640800000e+000) (29, -5.64305465371076340000e-002) (0, 3.41883307313502580000e+000) (1, -2.71791950518313370000e-003) (2, 2.86870166017281600000e-001) (3, 9.04263632388530160000e-002) (4, -7.54034145358589700000e-001) (5, 1.38480032830977790000e-001) (6, 2.19875909994365860000e+000) (7, 8.74793726561992200000e-002) (8, 6.04302152456135500000e-001) (9, -8.70773657258002260000e-001) (10, -2.27552099561884960000e-001) (11, 3.05567010214492340000e-001) (12, 1.02266578004582760000e+000) (13, 1.18437249738258190000e-001) (14, -1.70790540434031330000e-001) (15, 4.26625204525160120000e-001) (16, 3.19414861718419820000e-001) (17, -6.17895737647606870000e-003) (18, 4.59935732253964450000e-001) (19, 2.85300084472112910000e-002) (20, 4.63983532256612820000e+000) (21, -1.01883630012538600000e-002) (22, -6.02123062863560220000e-002) (23, 6.41304294629831850000e-001) (24, 1.22137136302929080000e-001) (25, -1.85504984500326490000e-001) (26, 4.37545802608678260000e+000) (27, 1.05721637950438280000e-002) (28, 2.12363813104399250000e-001) (29, -2.03739079649569860000e-001) (0, -7.87454075104299660000e-001) (1, -6.58995567959681510000e-001) (2, 2.30652567855354200000e+000) (3, -1.30046780002503780000e-001) (4, 6.59943589439493370000e+001) (5, -5.10260102688290030000e-001) (6, -2.98466245710068230000e+000) (7, 3.62881219191812580000e-002) (8, -1.60035747315431860000e+001) (9, 2.08516591195337410000e-001) (10, -3.28391322274633190000e-001) (11, 6.04958006580554870000e-001) (12, 4.74066613863181190000e+000) (13, 5.65830287201324780000e-001) (14, -3.70345076973727270000e+000) (15, 5.65566592596631450000e-001) (16, 4.87251058640682330000e+001) (17, 1.16652061196284020000e-002) (18, 1.38156490891221530000e+000) (19, 1.25980192048111390000e-001) (20, -8.73394401824238110000e+000) (21, -5.70306328328387120000e-001) (22, -1.69433357202399100000e-002) (23, 3.47815075193277090000e-001) (24, 9.37168576117999310000e+000) (25, 2.33623405540080680000e+000) (26, 6.63434005238131070000e+000) (27, 1.38702027831606260000e-001) (28, -7.09168819621358270000e+000) (29, 4.52339291696449600000e-001) (0, -7.24668859103313250000e-001) (1, 2.52794067803751850000e-001) (2, 5.46880020666518750000e-001) (3, 2.81250779719708300000e-001) (4, 6.39270569519253320000e+000) (5, 9.22252488642764240000e-002) (6, 1.21161895897023330000e+000) (7, -1.25718967591024060000e+000) (8, -7.75187591381219620000e-001) (9, 1.13661880448533200000e+000) (10, 2.38816235550741940000e-001) (11, 4.68679203704299650000e-002) (12, 7.15717061230958800000e-001) (13, -1.59233334366607030000e-001) (14, -3.44658349340052240000e-001) (15, 7.56245740589376100000e-001) (16, 9.65130742407542820000e-001) (17, 2.31278443423922590000e-001) (18, 9.50449082730456470000e-001) (19, -7.64788487777320670000e-001) (20, -4.20099672770880490000e-002) (21, -1.25836038752825370000e-001) (22, 4.09632636032246480000e-001) (23, -1.05882241028110290000e-001) (24, 3.38865130705729430000e-002) (25, -4.40853319096331190000e-001) (26, -2.45952356384624620000e-001) (27, -1.84116352872338180000e-001) (28, -2.24934980511033500000e-001) (29, -4.06605163879898490000e-002) (0, -7.80366558973305200000e-001) (1, 2.48602712051419150000e-001) (2, -2.19783283622124650000e+000) (3, 5.60167752065699240000e-001) (4, -3.88611816112926360000e-002) (5, 1.39624943294433310000e-002) (6, 7.33126153770132100000e-002) (7, 3.81616354420815480000e-001) (8, 9.53448606148038170000e-001) (9, 4.65244806470732850000e-001) (10, 2.02379088916761570000e-001) (11, 1.29582746799542900000e-001) (12, -5.31300162978484910000e-002) (13, 2.68240517248236500000e-001) (14, 5.02860810278775270000e-001) (15, 2.54217331990162610000e-001) (16, 5.60630731026726890000e-001) (17, 5.13886569082977030000e-001) (18, 2.89941310509164610000e-002) (19, 2.42086128869425630000e-001) (20, -1.24026107589693550000e+000) (21, 7.57604995716203160000e-002) (22, -1.07184265944266910000e+000) (23, 8.70118593179699640000e-001) (24, 5.26950881802987330000e-001) (25, 3.98515100494727660000e-001) (26, 7.82277785459832290000e-002) (27, 1.18397722719295940000e+000) (28, 4.37662596671926200000e-001) (29, 3.51591683765068550000e-001) (0, -1.80061099639424160000e+000) (1, 5.74147508427849900000e-001) (2, -2.65688981453261700000e-001) (3, 4.05008674144479770000e-001) (4, 7.60677138228193430000e+000) (5, -1.97901899856588850000e-001) (6, -8.05538798212962700000e-001) (7, -6.26073762771904520000e-001) (8, 2.47916456915282520000e-001) (9, 1.34598558441328130000e+000) (10, 2.13912672016600030000e-001) (11, 3.81318045699542420000e-002) (12, -5.29503067919889950000e+000) (13, -6.09461880424709900000e-002) (14, -1.08113649923489110000e+000) (15, -1.89866520243162920000e-001) (16, 1.09044281929645110000e+001) (17, -7.43342038647694330000e-001) (18, 4.97417495751351140000e-001) (19, 4.78117855882541910000e-001) (20, 2.49212291922304820000e-001) (21, 1.63380085025460530000e-001) (22, 4.02565056229785670000e-001) (23, 3.20537523511370380000e-001) (24, -5.90341821730527780000e-002) (25, -9.98367147513282930000e-001) (26, 2.23163185582318650000e-001) (27, 5.63121039128458150000e-002) (28, 4.68313684845420130000e-001) (29, -8.52512405349775680000e-001) (0, -4.77666473341614580000e+000) (1, 8.37543744305587090000e-001) (2, -3.89940197108877480000e+001) (3, 5.45660675742063670000e-001) (4, 1.35762779570166610000e-001) (5, 9.91414937420983850000e-001) (6, -6.23297888844218330000e-001) (7, 3.97466059899965250000e-001) (8, 8.34763511941886980000e+000) (9, 7.77895566833696760000e-002) (10, 8.42966059434475780000e-001) (11, 1.40899158870026690000e+000) (12, 7.19515681170539350000e+000) (13, 1.11723841988152880000e-001) (14, -2.42808814101631350000e+000) (15, 1.36587445759444060000e+000) (16, 1.80481597531871600000e-001) (17, 3.21647817588189970000e+000) (18, -8.70554985743216390000e+000) (19, 1.17349712027934740000e+000) (20, 1.06297397882465750000e+001) (21, -2.48494105910156050000e-001) (22, -2.48189280798108940000e+000) (23, 1.11712546316254540000e+000) (24, 4.48516412206611610000e-002) (25, -5.33760723587373060000e-003) (26, -3.73304170485350850000e+000) (27, 9.27267180629939960000e-001) (28, 9.35921690130847850000e+000) (29, 9.15240767785098890000e-001) (0, -1.81334847405478180000e+000) (1, 1.64398250437817140000e-001) (2, -3.25692964258453490000e+000) (3, 3.81106767395555100000e-001) (4, 3.64403518594578170000e-003) (5, 2.62382234072783220000e-001) (6, 1.55563772100202360000e-001) (7, 4.19302991624543760000e-001) (8, 1.95467351629326090000e+000) (9, 4.51999950595375510000e-001) (10, 3.81147630181639440000e-001) (11, 2.55716134608974580000e-001) (12, 6.07282428002890170000e-002) (13, 3.08418621214923030000e-001) (14, -9.13040286567062680000e-002) (15, 2.44895934607140150000e-001) (16, 2.21124122779337020000e-001) (17, 5.26017120080956690000e-001) (18, -1.20956214177639110000e+000) (19, 8.12837736771026220000e-001) (20, -3.48246068584768760000e+000) (21, -4.10129772931576780000e-002) (22, -4.60663557203072480000e+000) (23, 3.11974839818553120000e-001) (24, 4.61800465109921010000e+000) (25, 3.95056707086836880000e-001) (26, 7.66302248110677930000e-002) (27, 3.81937260973582600000e-001) (28, 4.58271864885710920000e-001) (29, 6.41062674656669550000e-001) (0, 5.86651266388877700000e+000) (1, -7.91880714347826530000e-002) (2, 1.30720410729524070000e+000) (3, 8.94096427184885130000e-001) (4, -9.29080278842468670000e+000) (5, -3.13707464835440760000e-001) (6, 2.15060914157111230000e-001) (7, -2.56172560484211780000e-001) (8, 2.48296351020994480000e-001) (9, 2.82615717145124680000e-001) (10, 1.30998139824305610000e+000) (11, 2.66299708998925080000e-001) (12, 6.84008427642748500000e-001) (13, 2.54815792734493170000e-001) (14, 1.03697434171401230000e+000) (15, -1.08537863709572770000e+000) (16, -2.33913060368424850000e-001) (17, -2.21281086377063900000e-001) (18, -7.70301680191858180000e-001) (19, 1.88861672889013260000e-001) (20, 1.40345517093871940000e-001) (21, 1.76707270337191440000e-001) (22, -1.27242861025886810000e-001) (23, 2.78789611995506450000e-001) (24, 1.40138495595677950000e+000) (25, -3.61835154950421570000e-001) (26, 2.54425439160122430000e-002) (27, -3.25821989862428270000e-001) (28, 2.55181207211433940000e+000) (29, 2.78399764923095930000e-001) (0, -8.24792064942471590000e-001) (1, 6.37355800668124360000e-001) (2, -4.98268703136606030000e+000) (3, 3.96985324502057500000e+000) (4, -2.41778719219591620000e+000) (5, -6.57501906026415760000e-002) (6, -1.54501041659289630000e-001) (7, 7.78157737150057090000e-001) (8, -2.60053408633155010000e-001) (9, 3.30529678644830540000e+000) (10, -9.88304261260482650000e-001) (11, 4.72173801934644870000e-001) (12, -3.51960178915908810000e+000) (13, 4.39368864872648700000e-001) (14, 3.64041379530398500000e-001) (15, -1.64005346430614910000e+000) (16, 3.64647803381964270000e+001) (17, 6.80701885253522380000e-001) (18, 2.58614704289021660000e+001) (19, 5.38575041469691480000e-001) (20, 8.43408914035172600000e-001) (21, 7.59667519629161210000e-002) (22, 9.39405648273237050000e+000) (23, -1.75567814629435940000e-001) (24, -6.05539405314887610000e+000) (25, 8.09264783397489200000e-001) (26, 1.31112380424730560000e+001) (27, 3.66776120497220860000e+000) (28, 2.90594311261308750000e+001) (29, 3.24656932937288920000e-001) (0, 9.52120463249840340000e-001) (1, 3.02448447854614440000e-001) (2, 6.80993636031259000000e+000) (3, -1.11030295291776630000e-001) (4, 1.15262875843611880000e+000) (5, 2.19587799449774310000e+000) (6, 8.99215513801858180000e+000) (7, -3.39542712405574150000e-001) (8, 9.44663096305885650000e+000) (9, 4.72001913089498630000e-001) (10, 1.00537610533047400000e+001) (11, -9.42495919205226800000e-002) (12, -3.93019058083488750000e-001) (13, -8.96567788850021610000e-002) (14, -4.22817685067936390000e-002) (15, -1.73714538425735210000e+000) (16, -3.12617217990601380000e-001) (17, 1.45131661202874380000e-001) (18, 8.08992901485782490000e+000) (19, 1.01708165837054690000e+000) (20, 3.60022397394044760000e+000) (21, 6.16231901167169750000e-001) (22, -1.99239497833064580000e+001) (23, 1.86448512651765070000e-001) (24, -8.10593889406620600000e+000) (25, -2.76659330514238370000e+000) (26, 1.30011569441375820000e+000) (27, 6.53635080121248270000e-001) (28, 1.77975984467055070000e+001) (29, -4.46500469334249190000e-001) (0, 3.04353730058123960000e+000) (1, 2.62139178948076090000e-001) (2, -3.57935657416422860000e-001) (3, 1.56988076312703820000e-002) (4, 8.10586424033687520000e-001) (5, -8.84003761655652140000e-003) (6, 2.30363827441947410000e+000) (7, 1.44579881722890470000e+000) (8, 1.50907229886109140000e+000) (9, -9.06195924193470390000e-001) (10, -3.35874028446292790000e-002) (11, -2.58512586034213730000e-001) (12, 5.90615102572112600000e+000) (13, -9.74189979164392410000e-003) (14, -7.76392803194814070000e-001) (15, -4.13842024789306210000e-001) (16, 3.05730987573596600000e+000) (17, 1.07249106223851090000e+000) (18, 7.12250882345901190000e+000) (19, -6.96116663147609890000e-001) (20, 2.37386637215804310000e+000) (21, 2.69068580145360610000e-001) (22, -1.15659486121601880000e+000) (23, -9.68290663838591410000e-001) (24, -2.38371927782832980000e+000) (25, 8.12477820362134560000e-001) (26, 6.08325809732682350000e-001) (27, -3.65685964015428240000e-001) (28, 7.03612433477383270000e+000) (29, -5.12261830006086600000e-001) (0, 2.15063128432067120000e+000) (1, -1.83430798403124150000e-001) (2, -2.84049378990848310000e-001) (3, -4.92598977023751440000e-001) (4, 2.63156661939280270000e+000) (5, 4.77514883126083260000e-001) (6, -1.85988147956802930000e-001) (7, 4.94890069856370910000e-001) (8, 6.30244625146058550000e+000) (9, -1.06531435481775840000e+000) (10, -1.50648728922194860000e-001) (11, 3.80585333897381220000e-003) (12, -1.89887755747349920000e-001) (13, -4.33434747074690930000e-001) (14, -4.85872586961807860000e+000) (15, -3.90249209115795240000e+000) (16, 2.81141016833412530000e-001) (17, -1.41003704409375740000e-002) (18, -5.43559336540027570000e-002) (19, -2.48690237407906690000e-002) (20, 4.23938738225065840000e-001) (21, 1.24034741863100960000e-001) (22, 2.06244948632238010000e+000) (23, -3.59588286307850390000e-001) (24, -3.26937375226342790000e+000) (25, -5.15177141131006770000e-001) (26, 3.45785881151742690000e-001) (27, 3.73053430324703280000e-001) (28, 1.71015350983013830000e+001) (29, -1.73495777471035700000e-001) (0, 2.69144493890304980000e+001) (1, 4.51603371113540930000e-001) (2, 4.28856984477831330000e-001) (3, -1.94902066673527700000e+000) (4, 5.48270386169969550000e+000) (5, 8.64941322612319930000e-001) (6, 1.02310228324991550000e+001) (7, 1.25175254432784920000e+000) (8, 9.76265581703545600000e-001) (9, -6.26515170100284790000e-001) (10, -2.69403550459634820000e+001) (11, 3.42583613101236530000e-001) (12, -5.93085819750040070000e+000) (13, -2.49986085108797380000e-001) (14, -8.43053618874786000000e+000) (15, 2.63109572546006600000e+000) (16, 1.32958783714521100000e+000) (17, 6.11702043333173570000e-001) (18, 8.21347574771586150000e+000) (19, -5.38899968117860450000e-001) (20, -1.22710221052667240000e+001) (21, 7.55573302836647700000e-001) (22, -5.51942594341441000000e-001) (23, 1.63744622894423830000e-002) (24, 8.55080994506955290000e-001) (25, 9.81047218114209920000e-001) (26, 6.14975958796731500000e-001) (27, 6.55776547992797500000e-001) (28, 5.74417768035669950000e+000) (29, 2.49540542652069330000e-003) (0, -8.37346203624487020000e+000) (1, 9.92973941722484430000e-001) (2, 2.17780461703070440000e+000) (3, -2.70100120946698500000e-001) (4, -6.91792171399873720000e+000) (5, 1.03623227840786300000e+000) (6, 8.04492908398542110000e+000) (7, 1.09121197008874440000e+000) (8, -2.63849886812207890000e+000) (9, -7.09114336152544960000e-002) (10, 5.64240060105906550000e-001) (11, 1.26252572891775030000e+000) (12, -1.39294886053588430000e+001) (13, 3.43100462278777800000e+000) (14, 1.07793389382751790000e+001) (15, 1.33030860881634800000e+000) (16, -4.23355422079937500000e+000) (17, 1.52886864864126240000e+000) (18, 2.04322886799785020000e+001) (19, -2.19801303700583730000e-001) (20, 8.67021212061665270000e-001) (21, 1.89071343257572670000e+000) (22, 5.78055788899416270000e+000) (23, 9.09401262135309030000e-001) (24, 1.27074230863945590000e+001) (25, 5.09996724294797120000e-002) (26, -7.64854790661968220000e+000) (27, 9.09635121658831790000e-002) (28, -2.76123938430569030000e+001) (29, 3.46378224084830270000e-001) (0, -1.21306711791931420000e+001) (1, -4.36061950289466820000e-001) (2, 4.87758249322533420000e-001) (3, 2.78878602385772390000e-001) (4, 2.74822647221569200000e+001) (5, 8.24325496885823350000e-001) (6, 4.72111979519364410000e+000) (7, -4.94857843696162660000e-002) (8, -1.17042965633756920000e+001) (9, 9.43566664295817480000e-001) (10, -6.88007462163753130000e+000) (11, -1.09169444869376830000e+000) (12, 1.93828991984002760000e+000) (13, 6.54681186622811610000e-001) (14, 5.37537819943394360000e+000) (15, 8.46625492191605880000e-001) (16, -9.25442247007415950000e-001) (17, -4.36435536725977460000e-001) (18, 8.00796540994661040000e+000) (19, 8.02781555552033680000e-001) (20, 4.42936984379138700000e-001) (21, -1.10701354353112500000e-001) (22, 1.06318566125393920000e+000) (23, -6.64843175343820430000e-001) (24, 9.75474475079740610000e-001) (25, 7.77881757931156100000e-001) (26, 2.29308180171140740000e-001) (27, 3.17251121335750790000e-001) (28, 1.55371244262795430000e+000) (29, -4.92432856303676840000e-001) (0, -1.05402010356404860000e+001) (1, 1.98419092769783010000e-001) (2, 1.59677639016550540000e+000) (3, 3.78510450269811230000e-001) (4, -6.72400091392773460000e+000) (5, 3.58331650345314610000e-001) (6, 3.77831646044899990000e-001) (7, 6.34658669675878580000e-001) (8, 3.04818365299722680000e+000) (9, 3.00735267913715910000e-001) (10, 9.64682520373391190000e-001) (11, 3.10738764664352800000e-001) (12, 3.96130910332555130000e-002) (13, -6.45997792638497660000e-001) (14, 2.47254462999801030000e+000) (15, 1.13992192371060950000e+000) (16, -2.25443498651432040000e-001) (17, -1.72093704203005320000e-001) (18, -5.27613535073372940000e-001) (19, -6.77221992932294570000e-001) (20, -6.57669872924526860000e-002) (21, 3.11157274978924260000e-001) (22, 2.98333212088601750000e-001) (23, -5.04815838749573360000e-001) (24, 3.35565918971726120000e+000) (25, -4.99136143556593910000e-001) (26, -5.58333299601207860000e+000) (27, 1.60130330436720540000e-001) (28, -1.57452788896518130000e+000) (29, -3.58845388084278570000e-001) (0, 9.02866935864974210000e-002) (1, 1.00756591324689670000e-001) (2, 5.06938376369053590000e+000) (3, -1.49989003047142080000e-001) (4, -5.37647662596682260000e+000) (5, -1.32185907382093130000e-001) (6, 1.53704092270803730000e+000) (7, 4.44502759787109080000e-002) (8, -1.13006307274745050000e+000) (9, 8.97978929243396230000e-002) (10, -6.47570806915535730000e-002) (11, 1.15317205629712400000e-001) (12, -1.86742809404226360000e+000) (13, 3.34361502963572090000e-001) (14, 6.56658506707308960000e-001) (15, 1.79008915146521170000e-001) (16, -9.52009188037595580000e-003) (17, 9.89731190220224930000e-001) (18, 4.59600833222935710000e-001) (19, 2.46086601256907760000e-001) (20, -7.17912606841706050000e-002) (21, 1.81496900316433840000e-001) (22, -1.26036421234371290000e+000) (23, 2.26366273895392540000e-001) (24, -7.80367072308145170000e-002) (25, 4.28693709496306090000e-001) (26, -2.65764526501599600000e-001) (27, 6.44976759301026800000e-002) (28, -1.36123005063291750000e-001) (29, 5.48782353458584060000e-001) (0, 1.44661153067734140000e+001) (1, 1.38130425487438170000e+000) (2, -6.58425521852057740000e+000) (3, -6.05467402845727530000e-001) (4, -5.43597263084150570000e-001) (5, 3.32799367902046510000e-001) (6, 6.44688225961669040000e+000) (7, 5.83392731643375790000e-001) (8, 2.38083258650652980000e+000) (9, 2.22968612184344290000e+000) (10, 1.83930393053106740000e+000) (11, 5.79606789218932050000e-001) (12, -3.64239986995167530000e+000) (13, 4.55935240501541110000e-001) (14, -7.93249923040734560000e+000) (15, -1.02480533869703570000e+000) (16, 1.14149336834902030000e+001) (17, 2.89918803048124470000e+000) (18, -8.30531516901243450000e+000) (19, 2.17464855281602640000e-001) (20, 1.38208785477059470000e-002) (21, 8.22708822123606630000e-001) (22, 5.92604555912443500000e+000) (23, 2.50462285140812090000e-001) (24, 9.60524942015301140000e-001) (25, 3.86675122849129860000e+000) (26, 2.01039000978105280000e-002) (27, -6.08901203878136730000e-001) (28, 3.81105635896673920000e+000) (29, 1.66267224345266110000e-001) (0, -8.05199149521659410000e+000) (1, 6.67298351509811090000e-001) (2, -3.58059210193920620000e-001) (3, 3.20861278596087710000e-001) (4, 4.37344445919277190000e+000) (5, -3.28057200830205800000e-002) (6, -9.85494321112921620000e-002) (7, 8.46155134514568360000e-001) (8, 8.26618456655938870000e+000) (9, -6.40360313342736350000e-001) (10, 1.96737043602037630000e-002) (11, 3.03584073820540920000e-001) (12, 2.38080214997516700000e+000) (13, -1.40805755347094580000e-001) (14, 3.40743249166300500000e+000) (15, 4.54659654232267170000e-001) (16, -2.55357481335426240000e-001) (17, -6.21098841201575100000e-001) (18, -3.32011325768044430000e-001) (19, 1.78874945545380060000e+000) (20, -5.97009552661243070000e+000) (21, 2.14081615904505560000e-001) (22, 1.12855160655527240000e-001) (23, 6.99960481470492170000e-001) (24, -1.03707222649369490000e-001) (25, -1.03280093979894790000e-001) (26, 6.24156182880439950000e-001) (27, -3.63150011906843500000e-002) (28, -2.25458604661945870000e+000) (29, 5.56903817723435450000e-001) (0, 6.67862178817784180000e+000) (1, -6.07272005165732100000e-001) (2, -9.72919769117353540000e+000) (3, -3.34084246894924550000e-001) (4, -1.12581644431291960000e+001) (5, -2.13999570065598110000e-001) (6, -1.14963386244195490000e+000) (7, -1.52360670289880100000e-001) (8, 1.57920851396077140000e+000) (9, 1.78829412924499910000e-001) (10, 1.24440694131290310000e+000) (11, -7.93082775229212220000e-001) (12, 1.91902997264403390000e+000) (13, 2.10386656815894970000e-001) (14, 1.20430063868182760000e+000) (15, 2.44063054688947460000e-001) (16, 2.98066831531018830000e+000) (17, -1.11160364042402830000e-001) (18, 8.21433209931415890000e-001) (19, -8.04683480204093970000e-001) (20, 1.62828490905389490000e+001) (21, 7.12023124940478700000e-001) (22, 6.71221283412414830000e-001) (23, -2.51504577686042230000e-001) (24, 5.46913818821840090000e-001) (25, 6.24314672746543180000e-002) (26, 2.26466966463551550000e-001) (27, -3.20848356713203440000e-001) (28, 2.67970644714190800000e-001) (29, -1.14837476242198800000e-001) (0, -2.41028873136375220000e-002) (1, -1.98473649580215570000e-001) (2, 1.09129315678366900000e+000) (3, 7.47560245702200660000e-003) (4, 3.03767408753934760000e-001) (5, -3.01172528311305480000e-001) (6, 1.17671185453919000000e-001) (7, -1.08983007602154170000e-001) (8, -6.21376685337151740000e-001) (9, -2.44001343397446780000e-001) (10, 7.65631560344664170000e-001) (11, 9.58104608070074890000e-002) (12, -1.68875052446145810000e-001) (13, 5.20970226362241430000e-002) (14, 1.03983034382788750000e+000) (15, -2.29373658888256840000e-002) (16, 4.24036857309524840000e-001) (17, -6.62747019556622630000e-001) (18, 9.02149079826947970000e-002) (19, -1.32758147105646680000e-001) (20, -1.22468211918673630000e-001) (21, -2.68002207457125550000e-001) (22, 8.26932229824671290000e-001) (23, -1.74929416496541620000e-001) (24, 4.15156850323932570000e-001) (25, -1.00080137329798830000e-001) (26, 9.28088267393855970000e-001) (27, -8.07640227440275390000e-002) (28, -4.55321917253325210000e-001) (29, 5.38491772929933220000e-002) (0, 1.72663452723598380000e+000) (1, 1.11298821857559180000e-001) (2, -3.83540474364530310000e+000) (3, -1.46743364335398450000e-001) (4, 5.98716614565109380000e-001) (5, 6.42713005792476810000e-001) (6, -4.18912324396804790000e+000) (7, 8.14188778259393870000e-002) (8, 1.01151897718739310000e+000) (9, -3.86324126897229550000e-004) (10, -1.08162741375706600000e-001) (11, 5.80687394972698500000e-001) (12, -5.04974577882207850000e+000) (13, 1.54674426228631650000e-001) (14, 4.87306474608981470000e-001) (15, 2.20481818955194140000e-001) (16, 9.01584235315971540000e-001) (17, -1.71619678495594010000e-001) (18, -1.53044558243402040000e+000) (19, 1.33523691668479020000e-001) (20, 4.36895117074964920000e-001) (21, 6.44306944971683390000e-001) (22, 4.69386179959422400000e-002) (23, 2.49594487412370110000e-001) (24, 6.25731713479083410000e-001) (25, 1.82776547552676170000e-001) (26, -6.13719608904098050000e-001) (27, 2.62044155558412650000e-001) (28, 4.40770666674261290000e-001) (29, 6.73208025724004730000e-001) (0, -2.17735920848715520000e+001) (1, 4.95255748059989900000e-001) (2, -3.29578005136984720000e+000) (3, 5.90766943245352040000e+000) (4, -7.78300378013807670000e+000) (5, 1.07823840549063350000e-002) (6, 3.10114038121529210000e+001) (7, 4.31751296836554440000e-001) (8, -1.88925057619855110000e+001) (9, 6.04472437810852360000e-001) (10, 6.46270390282982170000e-001) (11, 9.80115299783353320000e-001) (12, -1.09781670443572320000e+001) (13, 8.62160305608656860000e-001) (14, -5.82317249125597590000e+000) (15, 4.22558650184840180000e-001) (16, 5.55440082975417760000e+000) (17, 7.97224390409919660000e-002) (18, 5.18430030728777870000e+000) (19, 2.50406076293023360000e+000) (20, 3.21037103315465620000e+000) (21, 5.28676241485659530000e-002) (22, 6.96240396483695270000e+000) (23, 7.71140201158387110000e-001) (24, 1.22944580057595830000e+000) (25, 2.55450302698591540000e-001) (26, 2.34030046910024000000e+000) (27, 1.68497446497743430000e+000) (28, 4.13129655806490970000e+000) (29, 2.52170417034468350000e-001) (0, -7.14085903397393460000e+000) (1, 1.42579179004025200000e-001) (2, 1.42782139235622750000e-001) (3, 4.64210087919744330000e-001) (4, 4.33612691145823440000e+000) (5, 1.16879953295567730000e-001) (6, 1.48113825612989450000e+000) (7, 8.46924549151114150000e-001) (8, 3.40613324420102210000e+000) (9, 4.87037299513651930000e-001) (10, 8.66987652488043770000e-001) (11, 5.38722966773219620000e-001) (12, -1.04678042184663920000e+000) (13, 1.82590725558516690000e-001) (14, 5.04008944796781380000e-001) (15, 1.09516832135492880000e+000) (16, -4.36604546033076020000e-001) (17, 3.21082562971596670000e-002) (18, -9.11103597143932410000e-002) (19, 2.50632525340805660000e-001) (20, -6.56479756221188700000e-001) (21, 4.48365188676489890000e-001) (22, 7.05418778217076210000e-002) (23, 1.66642836247209350000e-001) (24, 6.11737641351603190000e-002) (25, 7.69530329234010550000e-002) (26, 4.05468157650254040000e-002) (27, 2.47029981552033840000e-001) (28, 5.63699364655279920000e-001) (29, 6.15976221220261300000e-001) (0, 2.46848694107784090000e+000) (1, -3.00933355981241600000e-001) (2, 2.04495168375594670000e+000) (3, 3.64525222234430850000e-001) (4, -1.10963946389418540000e+001) (5, 5.87983048230255380000e-001) (6, 4.92979727443636230000e+000) (7, -1.52000308711043800000e+000) (8, 1.54146847654228390000e+000) (9, 7.16164216543415000000e-001) (10, 7.76385218291449950000e+000) (11, -6.33119491404560970000e-002) (12, -1.30473598639638320000e+000) (13, -5.76332096825799430000e-003) (14, 2.04286541859753170000e-001) (15, -2.03180610274173640000e-001) (16, 1.86129834137151610000e+000) (17, -6.60029675289390720000e-001) (18, -6.78858786948366700000e+000) (19, 1.09887137880778060000e+000) (20, 5.47064206681308640000e+000) (21, 8.94054024384474820000e-002) (22, 9.88292110110266740000e-001) (23, 1.29950044093878030000e+000) (24, 4.10004372743542230000e-001) (25, -2.01224489553297780000e-001) (26, 1.13348727362027810000e+000) (27, -1.17488854759782810000e+000) (28, -8.93636950607057720000e-001) (29, 4.66149417933641940000e-003) (0, 2.55126357785327380000e-001) (1, -1.36830742130902210000e-001) (2, 4.17412127861545080000e-001) (3, -2.67300311338062310000e-001) (4, 6.40685538167384610000e-001) (5, -2.36729031996114280000e-001) (6, 5.46371492327725860000e-001) (7, -1.63943066942615960000e-001) (8, -4.79690053175490790000e-002) (9, -1.49043415688566800000e-001) (10, 2.35639960112715220000e-002) (11, -2.18842290674636610000e-002) (12, 4.79148984618556430000e-001) (13, -2.29316090144977890000e-001) (14, 7.90553926524804270000e-001) (15, -2.52116817942249910000e-002) (16, 5.24863014557669700000e-001) (17, -6.05193530484659180000e-001) (18, 8.91230939466916010000e-001) (19, 3.12154335023763500000e-002) (20, 1.98367847146573430000e-001) (21, -3.41990184364827750000e-001) (22, 1.05803139930967450000e+001) (23, -2.08622282984617490000e-001) (24, 2.47105168359326690000e-001) (25, -1.25285510772392080000e-001) (26, 1.27712312864671240000e+000) (27, -1.46666300023531540000e-001) (28, -4.96770016782376170000e-002) (29, -2.96756726318107250000e-002) (0, 6.31692476249025800000e-001) (1, -1.39132117400934400000e-001) (2, 2.62787057125663280000e+000) (3, 3.47842768768621500000e+000) (4, 1.18864100283182110000e+001) (5, 2.24165320573123860000e-001) (6, -2.96710192233822000000e+000) (7, 6.21332847166626400000e-001) (8, -2.24652996121712430000e+001) (9, -6.44027494005711910000e-001) (10, -1.15873617227127800000e+001) (11, 7.54145639022186790000e-001) (12, 3.99376572288932600000e+000) (13, 1.15248754684295430000e+000) (14, -4.73343083792109100000e+000) (15, 5.15691815323671590000e-001) (16, 7.08907574031411070000e+000) (17, 3.04219867575036880000e-001) (18, 1.29626712891285510000e+000) (19, 1.87137458730346010000e-001) (20, 2.13986862945841770000e+001) (21, -8.26596519690765640000e-001) (22, -6.41961258566962730000e+000) (23, 4.13686895952330780000e-002) (24, 6.97744253604231090000e+000) (25, 3.43972243773039430000e+000) (26, 8.44211839472048450000e+000) (27, 4.45211628737596400000e-001) (28, -4.87842581665524920000e+000) (29, 6.43722083128373760000e-001) (0, -6.09285530099706870000e-002) (1, -1.29635451209773520000e-001) (2, -3.74196649603071580000e-002) (3, -1.68820996423223040000e-001) (4, 4.22483408262625810000e-001) (5, 1.59689484968447760000e-001) (6, 3.81901992195269600000e-001) (7, 8.89005015854513890000e-002) (8, 5.77035345310283660000e-001) (9, -6.84300880904972320000e-001) (10, 5.31812190470304990000e+000) (11, -6.42703883722795300000e-001) (12, -7.55650804813157940000e-001) (13, -1.66106002880309940000e-001) (14, 6.66384499755739990000e-001) (15, -2.47762993191089490000e-001) (16, 9.10677457252567770000e-001) (17, 4.96181005909885230000e-001) (18, 3.91342832887899060000e-001) (19, -1.02974880981135470000e-001) (20, -3.02288290383567080000e-001) (21, -9.17117485078928480000e-002) (22, -4.26891740803333160000e-004) (23, -1.55472297463701310000e-001) (24, 5.45614586107136980000e-001) (25, -4.42204316974446840000e-001) (26, -9.76663006561616230000e-002) (27, -9.27435255334641690000e-002) (28, -1.01403618442367240000e-001) (29, 3.86909628685900980000e-002) (30, 1.46046607588500390000e+000) (31, 3.74953880815232730000e-001) (32, 7.91408142421323730000e-001) (33, 1.17655477268297610000e+000) (34, 2.22661188771935220000e-001) (35, 1.62289106091029230000e-001) (36, -6.43983919323808940000e-001) (37, 2.31280317736542730000e-001) (38, 4.98136532477585490000e-002) (39, 8.14430599077700660000e-003) (40, 8.17725144453720910000e-001) (41, 1.41897086169844730000e+000) (42, 2.16397640866755750000e-001) (43, 1.29293825372890160000e+000) (44, 2.02318768391304830000e-001) (45, 2.88644020055022540000e-001) (46, 1.69815446953099580000e-001) (47, 5.25072629960771090000e-001) (48, 7.55040978779936420000e-002) (49, -2.81057807972951660000e-001) (50, 3.15771069274340450000e-001) (51, 7.56336963074026310000e-001) (52, 8.52281290571175520000e-001) (53, 9.84718748368983770000e-001) (54, 4.96576480378303870000e-001) (55, 7.85142952346480350000e-002) (56, 9.62508889317257530000e-001) (57, -1.09214395236751820000e-001) (58, 7.29494226827289040000e-001) (59, 2.11935835899056240000e-001) (30, -2.66766410912039730000e-001) (31, 4.37936012554297830000e-002) (32, -1.94804580072358820000e-001) (33, -5.48754357756653930000e-001) (34, 4.13322801962753170000e-001) (35, 2.04052512903544400000e-001) (36, 6.84507824324013250000e-001) (37, 4.27893503879869570000e-001) (38, -1.35420179589268060000e+000) (39, 6.20965168128483350000e-001) (40, -8.49176848634333070000e-001) (41, -7.79257499593899010000e-001) (42, 9.77999331763631190000e-001) (43, -1.55843237240680790000e+000) (44, 7.50091524907770650000e-001) (45, -4.76101907881672390000e-001) (46, 7.56493618066920390000e-001) (47, 4.07833565382742290000e-001) (48, 7.84549330463745310000e-001) (49, 4.98455352212600070000e-001) (50, 5.94964497915783990000e-001) (51, 3.50029197063073560000e-001) (52, 3.50877040985202000000e-001) (53, -1.00078358341352300000e+000) (54, 3.72463351502026360000e-001) (55, 8.38590223458712150000e-001) (56, 2.34494141345993670000e-001) (57, -7.52938091770624100000e-001) (58, 5.21601133748099130000e-001) (59, 3.28401311341177840000e-001) (30, -6.33058649370523700000e-001) (31, -1.21071949641940350000e+000) (32, -8.67813669850214130000e-001) (33, 7.89929562385163320000e-001) (34, 3.51180171138671340000e-001) (35, -1.82928278882323130000e-001) (36, 4.66004126706446360000e-001) (37, 3.68165841770953790000e-001) (38, 1.22628879750782070000e+000) (39, -8.34582786580332580000e-001) (40, 1.53906804202813880000e-001) (41, -2.98314436787397440000e-001) (42, -6.21410978922070090000e-001) (43, 2.71296249782614300000e-001) (44, -1.10059957120569420000e+000) (45, 8.77477089694813640000e-002) (46, -7.40415872119415510000e-001) (47, 2.86360632513483870000e-001) (48, -4.18836703540366450000e-001) (49, 7.68916766320153930000e-001) (50, -3.87888193319228080000e-001) (51, 5.48883445216089450000e-001) (52, 2.88028229332667580000e-001) (53, -3.65954355824944070000e-001) (54, 4.40445824562168460000e-001) (55, -6.81683165328399340000e-001) (56, 5.56973286374904400000e-001) (57, 1.23577363939748540000e+000) (58, 6.55118088412664950000e-001) (59, 2.83091507728935880000e-001) 
