FANN_FLO_2.1
num_layers=3
learning_rate=0.700000
connection_rate=1.000000
network_type=0
learning_momentum=0.000000
training_algorithm=2
train_error_function=1
train_stop_function=0
cascade_output_change_fraction=0.010000
quickprop_decay=-0.000100
quickprop_mu=1.750000
rprop_increase_factor=1.200000
rprop_decrease_factor=0.500000
rprop_delta_min=0.000000
rprop_delta_max=50.000000
rprop_delta_zero=0.100000
cascade_output_stagnation_epochs=12
cascade_candidate_change_fraction=0.010000
cascade_candidate_stagnation_epochs=12
cascade_max_out_epochs=150
cascade_max_cand_epochs=150
cascade_num_candidate_groups=2
bit_fail_limit=3.49999999999999980000e-001
cascade_candidate_limit=1.00000000000000000000e+003
cascade_weight_multiplier=4.00000000000000020000e-001
cascade_activation_functions_count=10
cascade_activation_functions=3 5 7 8 10 11 14 15 16 17 
cascade_activation_steepnesses_count=4
cascade_activation_steepnesses=2.50000000000000000000e-001 5.00000000000000000000e-001 7.50000000000000000000e-001 1.00000000000000000000e+000 
layer_sizes=30 6 4 
scale_included=0
neurons (num_inputs, activation_function, activation_steepness)=(0, 0, 0.00000000000000000000e+000) (0, 0, 0.00000000000000000000e+000) (0, 0, 0.00000000000000000000e+000) (0, 0, 0.00000000000000000000e+000) (0, 0, 0.00000000000000000000e+000) (0, 0, 0.00000000000000000000e+000) (0, 0, 0.00000000000000000000e+000) (0, 0, 0.00000000000000000000e+000) (0, 0, 0.00000000000000000000e+000) (0, 0, 0.00000000000000000000e+000) (0, 0, 0.00000000000000000000e+000) (0, 0, 0.00000000000000000000e+000) (0, 0, 0.00000000000000000000e+000) (0, 0, 0.00000000000000000000e+000) (0, 0, 0.00000000000000000000e+000) (0, 0, 0.00000000000000000000e+000) (0, 0, 0.00000000000000000000e+000) (0, 0, 0.00000000000000000000e+000) (0, 0, 0.00000000000000000000e+000) (0, 0, 0.00000000000000000000e+000) (0, 0, 0.00000000000000000000e+000) (0, 0, 0.00000000000000000000e+000) (0, 0, 0.00000000000000000000e+000) (0, 0, 0.00000000000000000000e+000) (0, 0, 0.00000000000000000000e+000) (0, 0, 0.00000000000000000000e+000) (0, 0, 0.00000000000000000000e+000) (0, 0, 0.00000000000000000000e+000) (0, 0, 0.00000000000000000000e+000) (0, 0, 0.00000000000000000000e+000) (30, 5, 5.00000000000000000000e-001) (30, 5, 5.00000000000000000000e-001) (30, 5, 5.00000000000000000000e-001) (30, 5, 5.00000000000000000000e-001) (30, 5, 5.00000000000000000000e-001) (0, 5, 0.00000000000000000000e+000) (6, 5, 5.00000000000000000000e-001) (6, 5, 5.00000000000000000000e-001) (6, 5, 5.00000000000000000000e-001) (0, 5, 0.00000000000000000000e+000) 
connections (connected_to_neuron, weight)=(0, -2.91109708542251510000e+000) (1, -3.40685985478904110000e-001) (2, -1.53483391695666850000e+001) (3, 7.87140902721348850000e-002) (4, 3.60094906560413600000e-001) (5, 3.10171295067179940000e-001) (6, -7.82328390762171550000e+000) (7, 1.86328394496382520000e+000) (8, 2.12225309690275380000e+001) (9, 1.56852047271756170000e+000) (10, 2.70988310703740520000e+000) (11, 8.50634839315889960000e-002) (12, 2.02307057209086990000e+000) (13, 1.39905778197518760000e-001) (14, -2.58426656131078580000e+000) (15, 1.93347642717815220000e+000) (16, 2.59105990920584550000e+001) (17, 6.31926748992760800000e-001) (18, 2.87434781001169700000e+000) (19, -1.23415674660547500000e+000) (20, 1.02175586076141570000e+000) (21, 1.33710565899341760000e+000) (22, -2.27957118622529190000e+000) (23, -4.70801111741080250000e-001) (24, 4.96840748303741810000e-001) (25, 6.62455345152100470000e-001) (26, 5.58440322591496230000e+000) (27, 5.65266291854025040000e+000) (28, 2.02754241713516090000e+001) (29, -8.36953157141147370000e-001) (0, 6.55481900622293430000e+000) (1, -9.86889561705059230000e-002) (2, -3.70915030420830010000e+000) (3, 8.21317329939104560000e-001) (4, -4.76682472371415810000e-001) (5, 4.54378374196268420000e-001) (6, 2.28792510063464420000e+000) (7, 5.32029285162242130000e-001) (8, 4.87369690359818470000e-001) (9, -6.34955769518960270000e-001) (10, -1.32991913998644900000e+000) (11, 1.00330036020694440000e-001) (12, 5.82777597598577580000e-002) (13, 1.09730631255101710000e-001) (14, 3.28611349836381020000e-001) (15, 1.36496593169844370000e+000) (16, -2.10289881893102490000e+000) (17, 1.34597920059127410000e+000) (18, -1.28969245567742840000e+001) (19, 2.42315030415688830000e+000) (20, 2.90021907596281190000e+000) (21, -5.24997690298635300000e-001) (22, 5.04089614001688830000e-001) (23, 1.90930760136847950000e+000) (24, 3.32122997196656080000e+000) (25, 3.39947772554633600000e-001) (26, 2.15129949405832550000e-001) (27, -5.43104777057036860000e-001) (28, -6.26957633049371040000e+000) (29, 1.20629334842918130000e+000) (0, 8.04433970595420660000e-002) (1, 2.58090790535691450000e-001) (2, -8.24747292355370140000e-001) (3, 5.15199828217171470000e-001) (4, 7.19837626670045250000e-001) (5, 1.97460144654006370000e-002) (6, -2.18365635327943730000e+000) (7, 1.63867676192921770000e+000) (8, 1.81653711496438650000e+000) (9, 1.72035061611000990000e-001) (10, 6.19524611348311940000e-001) (11, 3.91030718239228140000e-001) (12, 4.63555735778544920000e-001) (13, 9.20003566324747560000e-001) (14, -4.10166077048628210000e+001) (15, -1.76364134856554000000e+000) (16, 1.42745365767264170000e+001) (17, 2.22046663080055670000e+000) (18, 1.62484445305312910000e+001) (19, -5.43579704580730790000e-001) (20, -1.01998802703383140000e-002) (21, 6.38709882382346720000e-001) (22, -5.82832665500248040000e-001) (23, 6.04101781509888890000e+000) (24, 3.93748294510729690000e+001) (25, 2.84864209327532420000e-001) (26, 1.76001976100234680000e+001) (27, -2.15829338566197100000e-001) (28, -3.22449207975053700000e+000) (29, 3.25544767266833850000e-001) (0, -2.27137620596774380000e+000) (1, -1.30093384335836810000e+000) (2, 6.80930670408993690000e-001) (3, 2.52986304131696040000e-001) (4, 7.04376782374613600000e-002) (5, -5.97948758785408430000e-001) (6, -4.04209423705178670000e+000) (7, -5.56908349133816700000e-001) (8, -4.20439496217879680000e-001) (9, 1.07375584839147030000e-001) (10, 1.26907918161005480000e+000) (11, -9.61612549364998930000e-002) (12, -4.79554909974315770000e-001) (13, 8.89193379879017340000e-002) (14, 7.86804962008476720000e-001) (15, -7.53573480062875500000e-001) (16, 2.61444128339763470000e+001) (17, -1.18041491381391990000e+000) (18, 1.46954589226633470000e+000) (19, 2.55769901350764940000e-001) (20, 8.48723687547449760000e-001) (21, 8.65374906363808210000e-001) (22, 5.84820076582929000000e-001) (23, 1.21382301820054190000e-001) (24, -4.87627594570976870000e-001) (25, -3.35734192071838470000e-001) (26, 5.72034465151781020000e-001) (27, 2.78418175432605030000e+000) (28, 2.33629545504266640000e+001) (29, -1.06754699836312470000e+000) (0, -3.40698561241297070000e+000) (1, -4.03502332478678840000e-001) (2, -1.55178387423241090000e+001) (3, 5.50094910220893070000e-001) (4, 6.08128581400949940000e-001) (5, -6.36383234061170260000e-001) (6, -8.57371398369742720000e+000) (7, 3.08127718040542730000e-001) (8, 2.10303886293996860000e+000) (9, 4.46736769573586770000e-001) (10, 3.21042900890874350000e+000) (11, 1.27891293042085210000e-001) (12, 1.95801470869472150000e+000) (13, 1.33456520689399310000e-001) (14, -2.15023283637224340000e+000) (15, 1.50594854685226800000e+000) (16, 2.74759468218052620000e+001) (17, 2.55356522143317280000e-001) (18, 1.43059702016253730000e+001) (19, -2.81790901085260390000e+000) (20, 2.52669332740617780000e+001) (21, 7.27266040477269170000e-001) (22, -3.24032209602063450000e+000) (23, 1.08173487270922700000e-001) (24, 1.23410055784852180000e+000) (25, 1.06858166511821060000e-001) (26, 5.82111476292525910000e-001) (27, 4.04326110134965600000e+000) (28, 5.53198486750110960000e+000) (29, -4.20865753909530570000e-001) (30, -8.51606672118932710000e-001) (31, -5.56997185360907030000e-001) (32, 1.34912438736233800000e+000) (33, 1.85501651561933770000e+000) (34, 1.20468823298422920000e+000) (35, 8.60051820380415500000e-001) (30, 2.83494611694492440000e+000) (31, 7.12230647855037310000e-001) (32, 4.48334049974221940000e-001) (33, -3.06538273024973760000e+000) (34, 4.75566592407067330000e-001) (35, -8.57708809652786420000e-002) (30, -1.87961600118808230000e+000) (31, 1.22039480905513640000e+000) (32, 4.35594941129317130000e-001) (33, 1.30688529860877020000e+000) (34, -1.59618892773537250000e+000) (35, 2.89050248018703910000e+000) 
