FANN_FLO_2.1
num_layers=3
learning_rate=0.700000
connection_rate=1.000000
network_type=0
learning_momentum=0.000000
training_algorithm=2
train_error_function=1
train_stop_function=0
cascade_output_change_fraction=0.010000
quickprop_decay=-0.000100
quickprop_mu=1.750000
rprop_increase_factor=1.200000
rprop_decrease_factor=0.500000
rprop_delta_min=0.000000
rprop_delta_max=50.000000
rprop_delta_zero=0.100000
cascade_output_stagnation_epochs=12
cascade_candidate_change_fraction=0.010000
cascade_candidate_stagnation_epochs=12
cascade_max_out_epochs=150
cascade_max_cand_epochs=150
cascade_num_candidate_groups=2
bit_fail_limit=3.49999999999999980000e-001
cascade_candidate_limit=1.00000000000000000000e+003
cascade_weight_multiplier=4.00000000000000020000e-001
cascade_activation_functions_count=10
cascade_activation_functions=3 5 7 8 10 11 14 15 16 17 
cascade_activation_steepnesses_count=4
cascade_activation_steepnesses=2.50000000000000000000e-001 5.00000000000000000000e-001 7.50000000000000000000e-001 1.00000000000000000000e+000 
layer_sizes=30 16 4 
scale_included=0
neurons (num_inputs, activation_function, activation_steepness)=(0, 0, 0.00000000000000000000e+000) (0, 0, 0.00000000000000000000e+000) (0, 0, 0.00000000000000000000e+000) (0, 0, 0.00000000000000000000e+000) (0, 0, 0.00000000000000000000e+000) (0, 0, 0.00000000000000000000e+000) (0, 0, 0.00000000000000000000e+000) (0, 0, 0.00000000000000000000e+000) (0, 0, 0.00000000000000000000e+000) (0, 0, 0.00000000000000000000e+000) (0, 0, 0.00000000000000000000e+000) (0, 0, 0.00000000000000000000e+000) (0, 0, 0.00000000000000000000e+000) (0, 0, 0.00000000000000000000e+000) (0, 0, 0.00000000000000000000e+000) (0, 0, 0.00000000000000000000e+000) (0, 0, 0.00000000000000000000e+000) (0, 0, 0.00000000000000000000e+000) (0, 0, 0.00000000000000000000e+000) (0, 0, 0.00000000000000000000e+000) (0, 0, 0.00000000000000000000e+000) (0, 0, 0.00000000000000000000e+000) (0, 0, 0.00000000000000000000e+000) (0, 0, 0.00000000000000000000e+000) (0, 0, 0.00000000000000000000e+000) (0, 0, 0.00000000000000000000e+000) (0, 0, 0.00000000000000000000e+000) (0, 0, 0.00000000000000000000e+000) (0, 0, 0.00000000000000000000e+000) (0, 0, 0.00000000000000000000e+000) (30, 5, 5.00000000000000000000e-001) (30, 5, 5.00000000000000000000e-001) (30, 5, 5.00000000000000000000e-001) (30, 5, 5.00000000000000000000e-001) (30, 5, 5.00000000000000000000e-001) (30, 5, 5.00000000000000000000e-001) (30, 5, 5.00000000000000000000e-001) (30, 5, 5.00000000000000000000e-001) (30, 5, 5.00000000000000000000e-001) (30, 5, 5.00000000000000000000e-001) (30, 5, 5.00000000000000000000e-001) (30, 5, 5.00000000000000000000e-001) (30, 5, 5.00000000000000000000e-001) (30, 5, 5.00000000000000000000e-001) (30, 5, 5.00000000000000000000e-001) (0, 5, 0.00000000000000000000e+000) (16, 5, 5.00000000000000000000e-001) (16, 5, 5.00000000000000000000e-001) (16, 5, 5.00000000000000000000e-001) (0, 5, 0.00000000000000000000e+000) 
connections (connected_to_neuron, weight)=(0, 5.98977773157771680000e-003) (1, 3.88148294458733330000e-002) (2, 8.81765216331732880000e-001) (3, 1.08173739414949870000e-001) (4, -1.37320700870422540000e+000) (5, -3.94450042688220760000e-001) (6, 2.86960910320370410000e-001) (7, 4.31898108906183350000e-001) (8, 6.43838403124024740000e-001) (9, 5.12828694265848590000e-002) (10, 7.09546833081810990000e-001) (11, -9.89194447609096780000e-002) (12, 4.41664960952351970000e-001) (13, 3.57595512729100670000e-001) (14, -3.02058798436267430000e-001) (15, 2.60947449081288030000e-001) (16, 2.13662666568574910000e-001) (17, 1.41594837564333190000e-001) (18, -1.60590924544812700000e+000) (19, -2.75436636536731120000e-001) (20, 5.96481224683972800000e-001) (21, 1.11355364134941850000e+000) (22, -1.07141035048266750000e+000) (23, 3.25519222112881580000e-002) (24, 1.88009530287854830000e+000) (25, 2.92398607043539650000e-001) (26, -1.48007306193239670000e+000) (27, -3.70873661045403920000e-001) (28, 2.01242012086617740000e-001) (29, 4.57579920657281420000e-001) (0, -4.29119627214501920000e-001) (1, 1.23045958148175720000e+000) (2, -1.18156479994261910000e+000) (3, -7.60938577928215320000e-002) (4, -4.13303584176581700000e-001) (5, 2.56365499959669230000e-001) (6, -4.75210696071711350000e-001) (7, 1.34740224583925650000e-001) (8, 8.10617513808579160000e-001) (9, 1.23181568827885310000e-001) (10, 1.74670907042218860000e+000) (11, -2.69043200125294040000e-002) (12, -2.17226200769574550000e-001) (13, 3.92311828435776220000e-001) (14, -1.55469169477641600000e+000) (15, 2.96724116145012210000e-001) (16, 5.82354792933747370000e-001) (17, 7.68977905878261430000e-001) (18, -3.27962581786130520000e-001) (19, -1.80817232943391300000e-002) (20, 1.51073006792816170000e+000) (21, 6.68748090448985090000e-001) (22, -7.75239867266366840000e-002) (23, -2.15283678623016510000e-001) (24, 2.24663410122859910000e+000) (25, 1.30254136901368200000e+000) (26, -1.45109532964329380000e+000) (27, -2.70980422884053550000e-001) (28, 3.20257327606209240000e+000) (29, 2.47528285191604690000e-001) (0, 1.20758530337448320000e+000) (1, -1.22166386731004040000e-001) (2, 3.04026858614356410000e+000) (3, 1.11125418373426780000e-001) (4, -1.05177597011249670000e+000) (5, -7.66140982271629190000e-003) (6, 2.05450791776820130000e-001) (7, 3.85665290052437050000e-001) (8, 5.96373188302284250000e-001) (9, 1.16962498546162840000e-001) (10, 1.09686709005217680000e-001) (11, 1.45656037849307090000e-001) (12, 2.08506759608613560000e-001) (13, 2.24395993398847300000e-001) (14, 2.87566077283145300000e-002) (15, -1.61316147385182570000e-001) (16, 2.71893053291644840000e-003) (17, -4.41185418876900990000e-002) (18, 9.83843913190970980000e-002) (19, -2.74991079889466810000e-001) (20, -5.71329260761705090000e-001) (21, -5.07734369075560150000e-002) (22, -3.33270555712009810000e-001) (23, 1.19806736869795270000e-001) (24, 4.23250857441157700000e-001) (25, -6.03336821491798240000e-001) (26, -9.85876310927390250000e-001) (27, -1.14630958089513430000e-001) (28, -1.62499690131117070000e+000) (29, 4.29030769214258030000e-001) (0, 2.01489217089492220000e-001) (1, -1.20859488786574240000e-001) (2, -9.97516651573777390000e-002) (3, 1.32172913272973150000e-001) (4, -3.36329472237195280000e-001) (5, 3.07459622776085960000e-001) (6, 3.93488829563320290000e-003) (7, -1.52445182616612750000e-001) (8, 4.91028691280986250000e-001) (9, 7.54339262429207370000e-002) (10, 8.14168336239151190000e-001) (11, 2.61889641524264860000e-001) (12, 4.60498794852849340000e-001) (13, -1.12848742630335790000e-001) (14, 9.77200718893347360000e-002) (15, -7.89893709751608720000e-002) (16, -2.49574432740252930000e-001) (17, 8.99180316882423610000e-002) (18, -4.47720693983611360000e-001) (19, 7.68079222135955030000e-002) (20, 2.99983143907699760000e-001) (21, -5.12977201718980840000e-002) (22, 2.84491935202243920000e-001) (23, -1.43985419946288110000e-003) (24, 2.55087516119070660000e-001) (25, 2.72271721757094910000e-001) (26, 6.63114369559814480000e-002) (27, 7.76006743220827990000e-002) (28, 6.26297067963080380000e-001) (29, -1.57953231633760350000e-002) (0, 1.29854390773215590000e+000) (1, 2.15064275274824520000e-001) (2, 2.57426438071948540000e-001) (3, -3.13188144009105440000e-001) (4, 3.95579113636906000000e-002) (5, 1.06593683891211820000e-002) (6, -1.50185688799028410000e+000) (7, 2.59687397158783610000e-002) (8, 2.53095904558452390000e+000) (9, 3.17770755303531430000e+000) (10, -1.80417684671286830000e-001) (11, 2.66769973022729150000e-001) (12, 2.37610674835517030000e+000) (13, 3.99609104519886400000e-001) (14, -6.36293149796493320000e-001) (15, 4.96362406412676870000e-001) (16, 3.50290742319947500000e-002) (17, -2.03121114795863370000e-002) (18, -3.02706057813424940000e+000) (19, 1.56509933143640670000e-001) (20, -1.93027049909102990000e-001) (21, 1.90332528369345200000e+000) (22, -3.14713504281412340000e+000) (23, 3.84857553973044610000e-001) (24, 9.41717445658640460000e-001) (25, 1.10989912934089520000e-001) (26, -3.57242792325585870000e-001) (27, 3.54723473812101060000e-001) (28, 4.20447560371448540000e-001) (29, 7.15994413109643400000e-001) (0, 6.91143777195516010000e-001) (1, -4.45621975391663820000e-001) (2, 1.35652086200553910000e+000) (3, -1.22128442217999010000e-001) (4, 3.64785530564513520000e-001) (5, 7.54515462292974090000e-002) (6, 7.80061890418425550000e-001) (7, -1.21272168790278050000e-001) (8, 2.27453866151777070000e-002) (9, 2.97025071956229350000e-001) (10, 1.78207469080971210000e-001) (11, -2.17811911991838080000e-001) (12, 9.31808763164645780000e-001) (13, -1.74389601570929530000e-001) (14, 1.37101436288168980000e+000) (15, -9.59199830945083880000e-002) (16, -3.92276742952737400000e-001) (17, -5.61722315384782370000e-002) (18, -3.83338965583119860000e-002) (19, 3.35402896891813180000e-001) (20, -1.74063398109186640000e-001) (21, -2.25480075499655150000e-001) (22, 3.13041213759679030000e-001) (23, 2.93353480934116730000e-001) (24, -7.69009105596671070000e-002) (25, -1.92691273975604120000e-001) (26, -1.82077173580054650000e-001) (27, -2.35212571138151030000e-001) (28, -9.14474279001685210000e-001) (29, -4.51778559779186930000e-002) (0, -3.53816823915322380000e-001) (1, -2.26118768410783990000e-001) (2, 6.05789255157490160000e-001) (3, -1.88344138115234040000e-001) (4, 9.27711199136784790000e-001) (5, 1.29035389917010910000e-001) (6, 1.30307310795440800000e+000) (7, 1.31992133956738760000e-001) (8, -2.31562022564134120000e+000) (9, -1.42225699617649800000e-001) (10, -1.01901528976539860000e+000) (11, -2.90533762120279590000e-001) (12, -1.22029771067603440000e+000) (13, -1.10221623037540000000e-001) (14, 7.69634793714406350000e-001) (15, -9.89531618749068110000e-002) (16, 3.63519497857508420000e-001) (17, -1.04321056169524960000e-001) (18, 3.01959597841364320000e+000) (19, -4.79387517685747680000e-002) (20, 6.97296698264374570000e-001) (21, -3.28798456054722850000e-001) (22, 6.75630736518530230000e-001) (23, 5.88502753215179170000e-002) (24, -3.91648411165649300000e-001) (25, 1.01789248786960940000e-002) (26, 1.05458310448050050000e+000) (27, 9.83829150898305610000e-002) (28, 7.10402814866529790000e-001) (29, -9.36154896037495880000e-002) (0, 1.69515444880435240000e+000) (1, 2.65884072896007740000e-001) (2, 5.59206523551029510000e-001) (3, 6.98359799111670560000e-001) (4, 2.71547296304651550000e+000) (5, -4.68833873415921480000e-001) (6, 2.73148400385219010000e-002) (7, -1.47771221460691850000e-001) (8, 3.42898074670585750000e-001) (9, 7.50753063908869980000e-002) (10, 8.52010389636471690000e-002) (11, -1.14434062061339950000e-001) (12, 1.24152656898829910000e+000) (13, 3.67921599658681210000e-001) (14, 4.76571255172605290000e-001) (15, -2.00391079086828680000e-001) (16, -3.68897932805514920000e-001) (17, -8.28504392349535660000e-001) (18, -3.27529629309845360000e-002) (19, 1.27275157421757710000e-001) (20, -1.57243213294076420000e-001) (21, 1.39418667490405270000e-001) (22, 1.35969239941170980000e+000) (23, 1.39320782042927830000e-001) (24, -5.85727844401284670000e-001) (25, 6.29240088468851630000e-002) (26, 8.67104403045111830000e-001) (27, 2.03700588688153160000e-001) (28, -4.45112546369812570000e-001) (29, -1.19353252287231120000e-001) (0, 8.87633953426557150000e-001) (1, 1.01404924190087200000e+000) (2, 1.07240463729763440000e+000) (3, 4.01580002588927790000e-001) (4, 1.46678182633511070000e+000) (5, 8.95135174241459050000e-001) (6, 2.11923961652635550000e-001) (7, -6.33302427095678080000e-001) (8, -8.60206210799346620000e-002) (9, -1.17215733671242970000e-001) (10, -4.01813037202122360000e-001) (11, 1.01842119297138690000e+000) (12, 3.92061713476147820000e-001) (13, 3.92420724988001350000e-001) (14, 2.18468341671171200000e+000) (15, -2.42737774463301750000e-001) (16, -5.98363179001568990000e-001) (17, 1.47235561553107880000e-001) (18, 4.04073089511000900000e-001) (19, 7.72151429384188900000e-001) (20, -6.38847798745461710000e-001) (21, 1.28434258826051200000e-001) (22, -1.22384019358175730000e+000) (23, -3.02470370411898170000e-001) (24, -7.24242087127310750000e-001) (25, 6.01480036530195990000e-001) (26, 2.70601861720250980000e+000) (27, 6.59768668558436080000e-001) (28, -2.16460703979731940000e+000) (29, 6.53459387219300410000e-001) (0, 2.35938311529346880000e+000) (1, -6.30277015546345080000e-001) (2, 3.03257205282575180000e+000) (3, 1.43856876171195640000e-001) (4, 1.47919274789339880000e+000) (5, -6.35893848749754520000e-002) (6, 9.67493753384992330000e-001) (7, -1.57827252628630780000e+000) (8, 1.01646370466702170000e+000) (9, 4.78690440318622900000e-001) (10, -9.46569669716675670000e-001) (11, 7.97675017265013910000e-002) (12, 3.09219729785486220000e+000) (13, -2.61255387466009240000e-001) (14, -4.60533571337239380000e-001) (15, -1.45672836605204080000e-001) (16, -8.80992145695142390000e-001) (17, -8.31216584168631200000e-001) (18, -4.88751323596157900000e-002) (19, 1.33623553819000540000e-001) (20, -1.08100870531136640000e+000) (21, -8.29449456175872960000e-001) (22, -2.18325953417078560000e-001) (23, 4.84233540174938080000e-001) (24, 8.45909724494716690000e-002) (25, -4.79102689495461280000e-002) (26, -1.62411645943265460000e-001) (27, 6.98331893454968160000e-002) (28, -3.09894168272098640000e+000) (29, 1.34483709267909760000e-001) (0, 3.94975687547734770000e-001) (1, 1.31597236854750220000e-001) (2, -5.06566286866930280000e-001) (3, 1.65281183203238150000e-001) (4, 7.93567830427571290000e-001) (5, -1.43880239923070200000e-001) (6, 2.34984687517347910000e-001) (7, -9.18365260634488030000e-002) (8, -3.27676311613903760000e-001) (9, 2.30271418546668110000e-001) (10, 4.20796275959382240000e-001) (11, 9.62883984379825500000e-002) (12, 2.73009132995916500000e-001) (13, -4.36372381614457960000e-001) (14, -7.87411867611452210000e-002) (15, 3.75553772021013370000e-001) (16, 4.69218324197973930000e-001) (17, -1.05225885633085940000e-001) (18, 5.78963405598854400000e-001) (19, -1.27966041010277700000e-001) (20, -3.70669476317051830000e-001) (21, -1.42316070108646800000e-001) (22, -1.23179751986733590000e-001) (23, 9.13289691038280120000e-002) (24, -4.27072065048140880000e-001) (25, -6.59997450926085080000e-001) (26, 1.01513074754747730000e+000) (27, 1.67884382220453290000e-001) (28, 6.96498878655887440000e-001) (29, -1.75262222217639760000e-002) (0, -7.08309110605001010000e-002) (1, 2.92061963866680540000e-001) (2, -6.53581307059413530000e-001) (3, 3.19952602677061100000e-001) (4, -1.62864070019359250000e+000) (5, 3.16498929551407130000e-001) (6, -1.20204819868534550000e+000) (7, 3.53608116677404380000e-001) (8, 6.34386234599312200000e-001) (9, 4.49562680940494730000e-001) (10, 7.55495239661729050000e-001) (11, 3.36147740686179750000e-001) (12, 3.77794323083838870000e-001) (13, 8.89211036338316270000e-002) (14, -9.92162932114818320000e-001) (15, 4.06650816440091710000e-002) (16, 4.12140359719062710000e-001) (17, 3.06234626969258740000e-001) (18, -3.24881336684412330000e-001) (19, 3.53625698881954330000e-001) (20, 3.05453860588745400000e+000) (21, 2.27874288597617050000e-001) (22, -2.09895282076393630000e-001) (23, 3.57323531008891640000e-001) (24, 3.15317141985719740000e+000) (25, 3.08529332071508460000e-001) (26, -5.97937953270289980000e-002) (27, 3.17422154469646830000e-001) (28, 3.07401492453704870000e+000) (29, 2.41917560203515850000e-001) (0, -1.01651595982145660000e+000) (1, 2.50683710053381250000e-001) (2, -4.98349091802243240000e-001) (3, 2.02007887124841940000e-001) (4, 3.67390621104275170000e-001) (5, 1.24961746704603930000e-001) (6, 1.11784734320293660000e-001) (7, 3.11563547956109350000e-001) (8, -2.30841197358080490000e+000) (9, -2.13753433231255230000e-001) (10, 1.75924136382182180000e+000) (11, -5.54709601695376060000e-002) (12, 2.31400352888124630000e-002) (13, -3.49723577395428750000e-001) (14, -7.20220938923241240000e-001) (15, 5.63874516705954680000e-001) (16, 4.14466555495227540000e-001) (17, 3.42006438195510740000e-001) (18, 2.02564976363917460000e+000) (19, 1.03265209872211410000e-001) (20, 1.11748921495512450000e-001) (21, 2.03125115594702980000e-001) (22, 1.65626284666232240000e+000) (23, 1.68975252737672830000e-002) (24, -2.51248913718557230000e-002) (25, 2.35556774504792010000e-001) (26, 1.28922349772148030000e+000) (27, 1.06370373613393310000e-001) (28, 4.35139163225148400000e-001) (29, -1.26717299121815790000e-001) (0, -3.20808475075359480000e+000) (1, -4.10044568831389320000e-002) (2, -1.01195663358164230000e+000) (3, -1.74437554678946310000e-001) (4, -3.19012820751727140000e+000) (5, 2.04808834671153630000e-001) (6, -5.90158606745409210000e-001) (7, 7.76284757274640520000e-001) (8, 4.38398220239613610000e-001) (9, -2.07963619775214520000e-002) (10, 1.01673781344361600000e+000) (11, 1.86028100006229740000e-001) (12, 4.00334045827768210000e-001) (13, 1.42758627810211890000e+000) (14, -3.03122927936824290000e+000) (15, 5.45399930393635660000e-001) (16, 5.79743355609487090000e-001) (17, 1.29935196531522800000e-001) (18, 2.23823462273833530000e-002) (19, 2.79545579026549420000e-001) (20, 2.02411417727801980000e+000) (21, 9.60174853200243650000e-001) (22, -1.47483769920762450000e-001) (23, -4.01282676902398050000e-002) (24, 3.09539554009001970000e+000) (25, 1.39323997747784370000e-001) (26, -2.62550498923713900000e-001) (27, 2.60053965323790780000e-002) (28, 3.12812259135894080000e+000) (29, 9.90504902392450180000e-002) (0, -2.17748757191894400000e-001) (1, 1.86728956018104710000e-001) (2, -4.25491689746123390000e-001) (3, 4.12440562944247410000e-001) (4, 5.59121852178310120000e-001) (5, -1.34169055864177240000e-001) (6, -7.78286443580062160000e-001) (7, -7.89093991371649930000e-001) (8, -8.85610064793121320000e-001) (9, 5.08733156555060570000e-001) (10, 1.39150289776942440000e-001) (11, 1.67593283371055700000e-001) (12, 2.98776146653957690000e-001) (13, -2.86125908873288430000e-001) (14, -5.42180301069495440000e-001) (15, 2.62591461037221810000e-002) (16, 3.38779648679300020000e-003) (17, 1.35881414366862190000e-001) (18, 4.26478567532702690000e-001) (19, 1.67353148376783640000e-001) (20, 1.51918450869722420000e-001) (21, 1.54208400914675690000e-001) (22, 6.33305561899494500000e-001) (23, 1.02014816511137210000e-001) (24, -1.24675155778396840000e-001) (25, 2.23635449175171030000e-001) (26, 5.94362575750194910000e-001) (27, 1.41014024757015520000e+000) (28, 5.88479590588452230000e-001) (29, -4.63691930293678380000e-002) (30, 2.94053566026787620000e-003) (31, 1.40655632241960090000e-001) (32, -3.14271199642116420000e-001) (33, -1.85209856237307100000e-002) (34, -2.65840477160644460000e-001) (35, 7.71106615379847230000e-002) (36, 3.86713185568231750000e-001) (37, -6.34692795331058130000e-002) (38, 3.47142745918374460000e-001) (39, -4.56195693067072920000e-001) (40, 1.82624403304052520000e-001) (41, -3.45334574733587170000e-002) (42, 1.88121222134431690000e-001) (43, 7.29592294464002510000e-002) (44, 7.39749557417486160000e-002) (45, 4.29755641985829160000e-001) (30, 6.45225006029096940000e-001) (31, 1.88119095082095650000e-001) (32, 1.81250709259074330000e-001) (33, -2.03659884359551350000e-002) (34, 4.61792369572587680000e-001) (35, -4.82394029418808800000e-002) (36, 6.43085738939088710000e-002) (37, -4.03863246059232460000e-001) (38, -1.23907684251309240000e-001) (39, 1.10578503792984990000e-001) (40, 6.09590895657411560000e-002) (41, 5.42621276129204160000e-002) (42, 1.14674108459265550000e-001) (43, 3.76330777345286360000e-001) (44, 7.73630708396903370000e-002) (45, 3.96857065870601270000e-001) (30, 3.79769830602553820000e-001) (31, -6.76002744438159770000e-001) (32, 3.65147326234272980000e-001) (33, -8.90938245125683790000e-002) (34, 7.39363238569255680000e-001) (35, 1.30305577955800030000e-001) (36, 2.43953671928192390000e-001) (37, -1.39000440675087570000e-001) (38, 8.76212784612076190000e-001) (39, 4.08074318743437750000e-001) (40, 5.14477495268562050000e-002) (41, -5.29261774816235380000e-002) (42, 2.82824448998972440000e-002) (43, -6.59523252005096210000e-001) (44, -5.54685363469965660000e-001) (45, 7.37595001393247630000e-001) 
