FANN_FLO_2.1
num_layers=3
learning_rate=0.700000
connection_rate=1.000000
network_type=0
learning_momentum=0.000000
training_algorithm=2
train_error_function=1
train_stop_function=0
cascade_output_change_fraction=0.010000
quickprop_decay=-0.000100
quickprop_mu=1.750000
rprop_increase_factor=1.200000
rprop_decrease_factor=0.500000
rprop_delta_min=0.000000
rprop_delta_max=50.000000
rprop_delta_zero=0.100000
cascade_output_stagnation_epochs=12
cascade_candidate_change_fraction=0.010000
cascade_candidate_stagnation_epochs=12
cascade_max_out_epochs=150
cascade_max_cand_epochs=150
cascade_num_candidate_groups=2
bit_fail_limit=3.49999999999999980000e-001
cascade_candidate_limit=1.00000000000000000000e+003
cascade_weight_multiplier=4.00000000000000020000e-001
cascade_activation_functions_count=10
cascade_activation_functions=3 5 7 8 10 11 14 15 16 17 
cascade_activation_steepnesses_count=4
cascade_activation_steepnesses=2.50000000000000000000e-001 5.00000000000000000000e-001 7.50000000000000000000e-001 1.00000000000000000000e+000 
layer_sizes=32 16 4 
scale_included=0
neurons (num_inputs, activation_function, activation_steepness)=(0, 0, 0.00000000000000000000e+000) (0, 0, 0.00000000000000000000e+000) (0, 0, 0.00000000000000000000e+000) (0, 0, 0.00000000000000000000e+000) (0, 0, 0.00000000000000000000e+000) (0, 0, 0.00000000000000000000e+000) (0, 0, 0.00000000000000000000e+000) (0, 0, 0.00000000000000000000e+000) (0, 0, 0.00000000000000000000e+000) (0, 0, 0.00000000000000000000e+000) (0, 0, 0.00000000000000000000e+000) (0, 0, 0.00000000000000000000e+000) (0, 0, 0.00000000000000000000e+000) (0, 0, 0.00000000000000000000e+000) (0, 0, 0.00000000000000000000e+000) (0, 0, 0.00000000000000000000e+000) (0, 0, 0.00000000000000000000e+000) (0, 0, 0.00000000000000000000e+000) (0, 0, 0.00000000000000000000e+000) (0, 0, 0.00000000000000000000e+000) (0, 0, 0.00000000000000000000e+000) (0, 0, 0.00000000000000000000e+000) (0, 0, 0.00000000000000000000e+000) (0, 0, 0.00000000000000000000e+000) (0, 0, 0.00000000000000000000e+000) (0, 0, 0.00000000000000000000e+000) (0, 0, 0.00000000000000000000e+000) (0, 0, 0.00000000000000000000e+000) (0, 0, 0.00000000000000000000e+000) (0, 0, 0.00000000000000000000e+000) (0, 0, 0.00000000000000000000e+000) (0, 0, 0.00000000000000000000e+000) (32, 5, 5.00000000000000000000e-001) (32, 5, 5.00000000000000000000e-001) (32, 5, 5.00000000000000000000e-001) (32, 5, 5.00000000000000000000e-001) (32, 5, 5.00000000000000000000e-001) (32, 5, 5.00000000000000000000e-001) (32, 5, 5.00000000000000000000e-001) (32, 5, 5.00000000000000000000e-001) (32, 5, 5.00000000000000000000e-001) (32, 5, 5.00000000000000000000e-001) (32, 5, 5.00000000000000000000e-001) (32, 5, 5.00000000000000000000e-001) (32, 5, 5.00000000000000000000e-001) (32, 5, 5.00000000000000000000e-001) (32, 5, 5.00000000000000000000e-001) (0, 5, 0.00000000000000000000e+000) (16, 5, 5.00000000000000000000e-001) (16, 5, 5.00000000000000000000e-001) (16, 5, 5.00000000000000000000e-001) (0, 5, 0.00000000000000000000e+000) 
connections (connected_to_neuron, weight)=(0, 5.74109332104703940000e-001) (1, -1.07378645007355640000e-001) (2, -6.59400390249237470000e-001) (3, -3.07010731012808010000e-001) (4, 6.32092731406223910000e-001) (5, -1.77450148052843810000e-001) (6, 2.51158147066978090000e-001) (7, -4.26784987237891880000e-001) (8, 8.16729136352841500000e-001) (9, -2.59968850790036840000e-001) (10, 3.78921626277167080000e-001) (11, -2.87911575480097380000e-001) (12, 7.35088120698010330000e-002) (13, -1.18108391835634470000e-001) (14, 1.44441730243165980000e-001) (15, -3.42341898892490890000e-001) (16, -1.92405868726924080000e-003) (17, -2.55126216142984200000e-001) (18, 1.37064047647231040000e+000) (19, -3.07217976799280310000e-001) (20, 8.88286754606632870000e-001) (21, -2.29011819078741020000e-001) (22, 8.65067527513625920000e-001) (23, -1.02013420892675720000e-001) (24, 6.92701427306927410000e-001) (25, -3.40970418708480880000e-001) (26, 4.10836076876940070000e-001) (27, -2.44251196905007930000e-001) (28, 4.40020855019348340000e-001) (29, -4.13464623876542980000e-002) (30, 1.62486222086500960000e+000) (31, -3.10611531537348220000e-001) (0, 1.54667932116465210000e+000) (1, 9.20073556596525400000e-002) (2, -1.27173448140481280000e+000) (3, 3.34499112879322100000e-001) (4, -4.94042146675925780000e-001) (5, -1.98858331454027090000e-003) (6, -2.33326317276271900000e-001) (7, 7.06523171990270930000e-001) (8, -3.43298548483677020000e-002) (9, 4.67494042005575150000e-001) (10, 5.25441211404821470000e-001) (11, -2.95411966552555420000e-001) (12, 1.88200352126430430000e+000) (13, -5.54920020805532990000e-002) (14, -5.45163089692208170000e-001) (15, 6.24687515430132010000e-001) (16, -4.75088373104594060000e-002) (17, -5.48735042094640860000e-001) (18, 3.15699832421109770000e+000) (19, 1.27235652449239960000e-001) (20, 9.17559215980326530000e-001) (21, 1.15404170534242010000e-001) (22, -1.28485810858265130000e-001) (23, 4.74968703027141390000e-001) (24, 6.75200108996818930000e-001) (25, 4.21021873344335880000e-001) (26, 1.64092535061858390000e-001) (27, -2.89076517239399870000e-001) (28, 5.60800642209646760000e-004) (29, 1.37590278819364530000e-001) (30, 2.80870416560764370000e+000) (31, -2.55946633933226140000e-001) (0, -3.18527591252309160000e+000) (1, 4.04895311772391960000e-001) (2, 1.14253130015085120000e+000) (3, 4.30756980911275290000e-001) (4, 3.67437191287774580000e-001) (5, 2.43088996389641930000e-001) (6, -3.04473025613192320000e+000) (7, 6.54400930157679860000e-001) (8, 1.28320110887738540000e-002) (9, 7.34141862764253970000e-001) (10, 3.09172732714473410000e+000) (11, 3.85099496552638250000e-001) (12, 3.02562014842528540000e+000) (13, 1.74311058036433760000e-001) (14, 4.89467377892849940000e-001) (15, 7.13116836454817520000e-002) (16, 5.87613807485383830000e-001) (17, 1.21261180071550550000e-001) (18, -1.34771470476219560000e+000) (19, 3.31018644115594200000e-002) (20, -3.20926883280248900000e+000) (21, 7.62038483510757650000e-001) (22, -8.53946437962268320000e-001) (23, 9.12632467784766780000e-002) (24, -6.47851070111731820000e-002) (25, 2.59272266589287980000e-001) (26, 1.01307460744369080000e-001) (27, 3.58892012670753050000e-001) (28, -1.28821763356312010000e+000) (29, 1.55855544085733540000e-001) (30, -5.46875726766947510000e-001) (31, 3.85989475516403220000e-001) (0, 3.14731636327440390000e-001) (1, 1.79004622403508560000e-003) (2, 1.67530044421294160000e-001) (3, -1.02656639026650940000e-001) (4, 4.31078106784435310000e-001) (5, -7.15741624282326540000e-002) (6, 3.05209109608535820000e+000) (7, -3.25975680413600870000e-001) (8, 3.12000538859375450000e-001) (9, -1.35019780759511040000e-001) (10, 1.98525585519754910000e-001) (11, -1.82597113301353530000e-001) (12, -3.15735843163833870000e+000) (13, -1.92004687149119000000e-001) (14, 3.95602512769023640000e-001) (15, -6.52993207362202450000e-002) (16, -8.72564115989919590000e-002) (17, -2.53039844308613700000e-001) (18, 4.89596654794645480000e-001) (19, -6.71140885969715440000e-002) (20, 3.47559621420497070000e-001) (21, -8.09853561262103840000e-002) (22, 8.15262974371732120000e-001) (23, -2.79388721654367510000e-001) (24, 2.32985165743780530000e-001) (25, -2.35742480769612910000e-001) (26, 5.36854394601624870000e-001) (27, -1.16182029853194970000e-001) (28, 3.66313887781347600000e-001) (29, -2.06734814300222590000e-001) (30, 3.16455556702250510000e-001) (31, -1.27148269179050530000e-001) (0, 5.19192784759892170000e-001) (1, -7.80134217620042370000e-002) (2, 2.67669583193736790000e-001) (3, -4.82560034503932980000e-002) (4, 2.81776698847541920000e-001) (5, -6.54889572594310330000e-002) (6, -3.15373904681878070000e+000) (7, -1.78930496513165870000e-001) (8, -3.27207264516884810000e-001) (9, -8.83156785010656980000e-002) (10, 1.66358602296011120000e+000) (11, -7.45892991919116930000e-002) (12, 1.55336563776837750000e+000) (13, -2.68097217579861050000e-001) (14, -3.96122749661535770000e-001) (15, -1.21347905555784230000e-001) (16, 3.08466345284343470000e-001) (17, -1.35650926543757540000e-001) (18, 9.31001720736724940000e-001) (19, -1.51623367200007940000e-001) (20, 2.92292286612574610000e-001) (21, -1.48154546580234300000e-001) (22, 4.35400162325981550000e-001) (23, -1.80670458464600840000e-001) (24, 3.17259931972261710000e-001) (25, -1.58790673066238230000e-001) (26, 4.51667625754118170000e-001) (27, -5.32374520629825540000e-002) (28, -3.37108884462586190000e-001) (29, -1.05807078421282150000e-001) (30, 9.52254169904609870000e-001) (31, -8.48814228461004520000e-002) (0, 9.31381517064529320000e-001) (1, -1.73205062003870670000e-001) (2, 1.70447630844770020000e-001) (3, -2.22235815717578190000e-001) (4, 6.70196980020896230000e-001) (5, -1.46316114385785570000e-001) (6, 9.41697167327371520000e-001) (7, -4.44131178902620270000e-001) (8, 6.83966511476078230000e-001) (9, -2.81355569858723790000e-001) (10, -1.81103808080433250000e-001) (11, -1.55160108658196350000e-001) (12, -4.75994141161775800000e-001) (13, -1.83812738517830530000e-001) (14, 5.82536133611802010000e-001) (15, -1.65339943129956200000e-001) (16, 3.81918430533864930000e-001) (17, -1.34996819821666670000e-001) (18, 9.97684131573510910000e-002) (19, -3.69400594913373510000e-001) (20, 7.88262339053653170000e-001) (21, -2.66102884084566060000e-001) (22, 9.78458642484535180000e-001) (23, -2.20433832813527350000e-001) (24, 5.56518999811337570000e-001) (25, -3.34989247054720380000e-001) (26, 4.27223988103803080000e-001) (27, -2.10028784285679250000e-001) (28, 4.81738384937862860000e-001) (29, -9.65466585227013060000e-002) (30, 4.79769154902412060000e-001) (31, -3.63730428813256460000e-001) (0, -3.29771358844031030000e-001) (1, 2.85624353936617060000e-001) (2, 1.40786706323681350000e+000) (3, -1.43000877909076950000e-001) (4, 2.04487850866012430000e-001) (5, 1.16338396092300740000e+000) (6, 3.90953502967425930000e-001) (7, -7.46458269904531900000e-002) (8, 1.75972524691247630000e-001) (9, -2.58786872447534400000e-001) (10, -4.92149904901049540000e-001) (11, 4.33980365717299530000e-001) (12, -2.23468725892199990000e-001) (13, 5.69260986929611910000e-001) (14, 4.81912328508265100000e-001) (15, -1.79831793146012050000e-001) (16, 3.02747609033996060000e-001) (17, 8.53788467871677840000e-001) (18, -4.63540917545473890000e-001) (19, -9.21812276423760180000e-002) (20, -6.46515879650816250000e-001) (21, 9.67569334577475510000e-003) (22, -4.78867320414912530000e-001) (23, -1.17138963377282790000e-001) (24, -9.73029240573471820000e-002) (25, -1.23722600705304930000e-001) (26, -2.02204413751603610000e-001) (27, 5.28663996143699850000e-001) (28, 4.59465744638168420000e-001) (29, 3.35502284367356020000e-001) (30, -7.02606791499911510000e-002) (31, 6.45177496514226070000e-001) (0, 3.21074588360574880000e+000) (1, -1.91515609151719090000e-001) (2, 7.00046816905782740000e-002) (3, 3.12987470971097080000e-001) (4, 1.64954897937477800000e+000) (5, 2.39317023677185160000e-001) (6, 3.01736819517732170000e+000) (7, -2.14108844552471090000e-001) (8, 3.07144534442063400000e+000) (9, 1.00347526138114610000e-003) (10, -3.03813845915869770000e+000) (11, 4.35706932156910310000e-001) (12, -1.05980506955826170000e+000) (13, 3.71383762408136140000e-001) (14, 3.69796008732434510000e-001) (15, -2.93770120824965010000e-001) (16, -2.66814063543713290000e-001) (17, 6.74033724220377330000e-001) (18, -6.96213685891401980000e-001) (19, 2.68372608521768640000e-001) (20, 3.12199466158012750000e+000) (21, 4.13913242175479700000e-001) (22, -5.20805789032240400000e-001) (23, -1.48204827830981320000e-001) (24, -1.98519436649727790000e-001) (25, 3.94585676873590750000e-001) (26, -3.33499381542558370000e-001) (27, 5.19013511755972880000e-001) (28, 7.22442475165447020000e-001) (29, 4.85240238745994810000e-001) (30, 4.84320990906333070000e-001) (31, 4.80272934009805360000e-001) (0, 1.10798813392161980000e+000) (1, -2.70625713909651080000e-002) (2, -1.57424969514084910000e-001) (3, -2.61775749492350160000e-001) (4, -1.27944322175405700000e+000) (5, 6.56377963920504040000e-002) (6, 3.15109622451377460000e+000) (7, -2.99378400307312830000e-001) (8, -1.11123373567338420000e-001) (9, 6.28993415287034120000e-002) (10, -4.25534325182256530000e-001) (11, 1.22786682273850310000e-001) (12, -1.05877059912297480000e+000) (13, -4.15706567182383410000e-002) (14, -3.07507083275590800000e+000) (15, 2.29581128868719540000e-001) (16, -4.86716344951501620000e-001) (17, 2.59179137586284410000e-001) (18, 1.03707748833371880000e+000) (19, 4.54736705404950090000e-001) (20, 1.10298935455025720000e+000) (21, 2.70089622788995180000e-001) (22, 6.15428364367478500000e-001) (23, 2.68132995141582290000e-001) (24, 1.22250839929997970000e+000) (25, 1.37941518626534120000e-001) (26, -2.74315023924038110000e-001) (27, 1.14156389223848810000e+000) (28, 1.03998276181451080000e+000) (29, -4.72752597275939300000e-002) (30, 1.59996957121105890000e+000) (31, 2.16759067103253660000e-001) (0, 4.31730088768170070000e-002) (1, -8.55573671869177820000e-002) (2, 5.97420555991473920000e-001) (3, -8.79837872455083990000e-002) (4, 4.05929843619017790000e-001) (5, -1.57108831671548540000e-001) (6, 4.92133999223334300000e-002) (7, -9.78697042896409240000e-002) (8, 4.13231613089851180000e-001) (9, -1.95902350026107010000e-001) (10, 1.52462352411484260000e-001) (11, -6.44940841977312690000e-002) (12, -6.21744690641102490000e-001) (13, -1.59619432760291110000e-001) (14, 1.53430184562315850000e+000) (15, -7.36245161727753230000e-002) (16, 8.06410917428264980000e-001) (17, -2.50897510292315440000e-001) (18, 3.45753996990175450000e-002) (19, -1.78991531670325360000e-001) (20, 3.58149221187669400000e-001) (21, -9.38271531925680690000e-002) (22, 7.28499664651615310000e-001) (23, -2.73242481328406390000e-001) (24, 1.60096981063911930000e-001) (25, -1.09973435926758110000e-001) (26, 4.06995994229084000000e-001) (27, -2.18923489688146840000e-001) (28, 4.08074142309873880000e-001) (29, -8.20399882233749100000e-002) (30, -8.53991233744067490000e-002) (31, -1.24212478119678820000e-001) (0, 1.11949326104618450000e+000) (1, -1.18035501607653300000e-001) (2, -1.01060165309270160000e+000) (3, 2.25395833224536910000e-001) (4, -2.82893452352196820000e-001) (5, -1.05489786507853460000e+000) (6, -3.13820559932168930000e+000) (7, 4.37284331071981780000e-002) (8, -3.85392307556801090000e-001) (9, 3.64171189512421720000e-001) (10, 1.85383187475281770000e+000) (11, -2.05555483243375910000e-002) (12, 3.13615481804113030000e+000) (13, -8.51876913557649690000e-003) (14, -9.47753751765569860000e-001) (15, 5.34968266275217990000e-001) (16, 1.11486102317251830000e-001) (17, -3.08399095768147500000e-001) (18, 1.12886215767016700000e+000) (19, -6.36524727946568000000e-002) (20, 9.10946124969687300000e-001) (21, 4.43070909063250640000e-001) (22, -1.58055718497337930000e-001) (23, 5.92599724679887970000e-001) (24, 3.16921145915871260000e+000) (25, 1.66191730779827050000e-001) (26, 1.42316366102487320000e+000) (27, 1.41361218914766000000e-001) (28, -1.36104512234738180000e-002) (29, -6.08747554174523880000e-002) (30, 2.14413612217685460000e-001) (31, 9.47276565185159870000e-002) (0, -2.14378640432035490000e-002) (1, -1.17162580700022640000e-001) (2, 6.57714690997803000000e-001) (3, -1.45191136835148060000e-001) (4, 5.82657374183676910000e-001) (5, 3.16198500393488400000e-001) (6, 1.71471621667397050000e+000) (7, 1.28625996614252060000e-001) (8, 3.86979578198886450000e-001) (9, -1.83662697309236510000e-001) (10, -1.48205858371465600000e-001) (11, -1.38015333012094290000e-001) (12, -2.82841635379219520000e-001) (13, -2.13188959658695330000e-001) (14, 5.49290283507025250000e-001) (15, -3.07661722594466000000e-001) (16, 4.51192935102358080000e-001) (17, -1.41905999612121470000e-001) (18, -2.05820990600541260000e-001) (19, -3.90884970233515650000e-001) (20, 8.69841930113033570000e-001) (21, -3.18489359474560360000e-001) (22, 6.31852540596673730000e-001) (23, -2.48326899635416490000e-001) (24, 2.07000155743538310000e-001) (25, -2.77498977668687590000e-001) (26, -2.42889697672989740000e-001) (27, -8.26423077780978900000e-002) (28, 1.06871721490005370000e+000) (29, -4.69983179406235070000e-002) (30, -2.07232987330874250000e-001) (31, -2.15195270349910090000e-001) (0, -3.77936921168168240000e-002) (1, -1.00921125379881100000e-001) (2, 3.62301305529023230000e-001) (3, -2.45105689105240860000e-001) (4, 5.24639996905271740000e-001) (5, 1.71608211704192630000e-001) (6, 3.10629031564298950000e+000) (7, -3.37833211630482850000e-001) (8, 4.78869732551366610000e-001) (9, -2.41206643479208120000e-001) (10, 1.49184009222986080000e-001) (11, 4.40404465057258220000e-001) (12, -3.16263186921691910000e+000) (13, 5.57666643171186080000e-001) (14, 8.19103403966345840000e-001) (15, -3.67435508130246450000e-001) (16, -3.06672122325648910000e+000) (17, 5.77368791902270970000e-001) (18, -2.82513750171395020000e-001) (19, 3.78484602414916050000e-001) (20, 1.41265221955811790000e+000) (21, 4.21298496191778560000e-001) (22, 1.01944474979377130000e+000) (23, -1.60912347551588120000e-001) (24, -6.46394518248405330000e-001) (25, -8.87878987662777120000e-002) (26, -1.77032791568356270000e-001) (27, 6.01764977832815570000e-001) (28, 3.17331912523554660000e+000) (29, 3.53501955532941450000e-001) (30, 6.36091299265790920000e-002) (31, -3.91550253446554140000e-001) (0, 3.16675174232518500000e+000) (1, -1.57319145091145880000e+000) (2, -3.19899051233683010000e+000) (3, -2.20718703560707220000e-003) (4, -2.99128681843574880000e-001) (5, -5.49673987001516370000e-001) (6, 3.04923465073029390000e+000) (7, 1.42157333802424120000e-001) (8, 1.22864027167714070000e+000) (9, 3.72440701922785030000e-002) (10, -1.14688394401453970000e+000) (11, -8.19644150930270540000e-001) (12, -1.36293004512640370000e+000) (13, 2.77105706204126890000e-001) (14, -3.17061526777338100000e+000) (15, 6.18096801254417880000e-002) (16, -4.39023473147072460000e-001) (17, 4.28672635974365170000e-001) (18, 1.47173543909239910000e+000) (19, 4.44208140794937260000e-001) (20, 3.17574222097477850000e+000) (21, -1.27847886464714930000e-002) (22, 9.55914438071335580000e-001) (23, -1.29669494557063340000e+000) (24, 1.03009506635467260000e+000) (25, 2.89938374983111090000e-001) (26, -2.10656802688558640000e+000) (27, 8.94772141209422420000e-002) (28, 2.52561236581735220000e+000) (29, 5.74522199888566790000e-001) (30, 3.21062381329142980000e+000) (31, 2.10445374986316630000e-001) (0, 3.13656375359409890000e+000) (1, -2.35513540238705600000e-001) (2, -8.36679063293485510000e-001) (3, -5.26687747620029120000e-001) (4, -1.30356431586348930000e+000) (5, -1.13353252040046300000e-001) (6, 3.12284305026464450000e+000) (7, 8.40343347583697160000e-002) (8, 2.49323418684230410000e-001) (9, -2.28662431009572840000e-001) (10, -1.59853205716681380000e+000) (11, 8.99782400187678840000e-003) (12, -2.13209491110154190000e-001) (13, -6.56382675796493560000e-002) (14, -3.16139285552658130000e+000) (15, 1.17554843070364210000e-001) (16, -2.18059214745739110000e+000) (17, 3.81976794441609290000e-002) (18, 3.01634890805275810000e+000) (19, 4.65054255701515710000e-001) (20, 1.31450425981694300000e+000) (21, -5.07669981910006900000e-001) (22, 3.13998782591074650000e+000) (23, 4.60956287805995430000e-002) (24, 1.39712144854803500000e+000) (25, -2.09100389392084750000e-001) (26, 7.53223286710207110000e-001) (27, -2.34079929143428010000e-001) (28, 1.00739998382883680000e+000) (29, -1.20558585690782320000e-002) (30, 2.76122491685327280000e+000) (31, -3.90673622612252860000e-002) (32, -2.55636184374156580000e-001) (33, 4.10452730985312260000e-001) (34, -2.23077685659017750000e-001) (35, 3.47152406208283420000e-001) (36, 2.62272346284871120000e-001) (37, -1.87181879193034640000e-001) (38, 5.73351875288606210000e-001) (39, 9.69972830921097750000e-003) (40, 5.79551514426702720000e-001) (41, 2.67580871819450170000e-001) (42, 2.50990604020813690000e-001) (43, -1.96562982848448970000e-001) (44, -5.18233681046863930000e-002) (45, 6.60518117714498980000e-001) (46, 4.10574038012714360000e-001) (47, 5.67018940532371120000e-001) (32, -3.34586141269597740000e-001) (33, 5.07395521553100220000e-002) (34, -5.65244888297992130000e-002) (35, 3.32494611495236790000e-001) (36, 4.42772933451011820000e-001) (37, -3.66409872212558270000e-001) (38, 4.71382952779158810000e-001) (39, -2.09191727432843340000e-001) (40, -2.88017155385696170000e-001) (41, 3.41314191704783780000e-001) (42, 2.14130547066065770000e-001) (43, -3.62625692468669600000e-001) (44, -7.61169672302299820000e-002) (45, -1.80001369967537100000e-001) (46, -8.29323466122259820000e-002) (47, 6.80114020472320830000e-001) (32, -3.67069051909880820000e-001) (33, -2.55278390370107410000e-001) (34, -4.89439223105899710000e-002) (35, 3.71526594498733650000e-001) (36, 3.16936749935281590000e-001) (37, -2.92343708999511450000e-001) (38, 1.39558507781179430000e-001) (39, -1.32749272913177840000e-001) (40, -2.39820934378816850000e-001) (41, 3.74987287909677000000e-001) (42, -4.37483281289215260000e-001) (43, -2.58182331537342210000e-001) (44, -8.47930794114027530000e-002) (45, -2.65457388341153730000e-001) (46, -5.07064912244619140000e-001) (47, 5.55638920961247450000e-001) 
