FANN_FLO_2.1
num_layers=3
learning_rate=0.700000
connection_rate=1.000000
network_type=0
learning_momentum=0.000000
training_algorithm=2
train_error_function=1
train_stop_function=0
cascade_output_change_fraction=0.010000
quickprop_decay=-0.000100
quickprop_mu=1.750000
rprop_increase_factor=1.200000
rprop_decrease_factor=0.500000
rprop_delta_min=0.000000
rprop_delta_max=50.000000
rprop_delta_zero=0.100000
cascade_output_stagnation_epochs=12
cascade_candidate_change_fraction=0.010000
cascade_candidate_stagnation_epochs=12
cascade_max_out_epochs=150
cascade_max_cand_epochs=150
cascade_num_candidate_groups=2
bit_fail_limit=3.49999999999999980000e-001
cascade_candidate_limit=1.00000000000000000000e+003
cascade_weight_multiplier=4.00000000000000020000e-001
cascade_activation_functions_count=10
cascade_activation_functions=3 5 7 8 10 11 14 15 16 17 
cascade_activation_steepnesses_count=4
cascade_activation_steepnesses=2.50000000000000000000e-001 5.00000000000000000000e-001 7.50000000000000000000e-001 1.00000000000000000000e+000 
layer_sizes=32 32 4 
scale_included=0
neurons (num_inputs, activation_function, activation_steepness)=(0, 0, 0.00000000000000000000e+000) (0, 0, 0.00000000000000000000e+000) (0, 0, 0.00000000000000000000e+000) (0, 0, 0.00000000000000000000e+000) (0, 0, 0.00000000000000000000e+000) (0, 0, 0.00000000000000000000e+000) (0, 0, 0.00000000000000000000e+000) (0, 0, 0.00000000000000000000e+000) (0, 0, 0.00000000000000000000e+000) (0, 0, 0.00000000000000000000e+000) (0, 0, 0.00000000000000000000e+000) (0, 0, 0.00000000000000000000e+000) (0, 0, 0.00000000000000000000e+000) (0, 0, 0.00000000000000000000e+000) (0, 0, 0.00000000000000000000e+000) (0, 0, 0.00000000000000000000e+000) (0, 0, 0.00000000000000000000e+000) (0, 0, 0.00000000000000000000e+000) (0, 0, 0.00000000000000000000e+000) (0, 0, 0.00000000000000000000e+000) (0, 0, 0.00000000000000000000e+000) (0, 0, 0.00000000000000000000e+000) (0, 0, 0.00000000000000000000e+000) (0, 0, 0.00000000000000000000e+000) (0, 0, 0.00000000000000000000e+000) (0, 0, 0.00000000000000000000e+000) (0, 0, 0.00000000000000000000e+000) (0, 0, 0.00000000000000000000e+000) (0, 0, 0.00000000000000000000e+000) (0, 0, 0.00000000000000000000e+000) (0, 0, 0.00000000000000000000e+000) (0, 0, 0.00000000000000000000e+000) (32, 5, 5.00000000000000000000e-001) (32, 5, 5.00000000000000000000e-001) (32, 5, 5.00000000000000000000e-001) (32, 5, 5.00000000000000000000e-001) (32, 5, 5.00000000000000000000e-001) (32, 5, 5.00000000000000000000e-001) (32, 5, 5.00000000000000000000e-001) (32, 5, 5.00000000000000000000e-001) (32, 5, 5.00000000000000000000e-001) (32, 5, 5.00000000000000000000e-001) (32, 5, 5.00000000000000000000e-001) (32, 5, 5.00000000000000000000e-001) (32, 5, 5.00000000000000000000e-001) (32, 5, 5.00000000000000000000e-001) (32, 5, 5.00000000000000000000e-001) (32, 5, 5.00000000000000000000e-001) (32, 5, 5.00000000000000000000e-001) (32, 5, 5.00000000000000000000e-001) (32, 5, 5.00000000000000000000e-001) (32, 5, 5.00000000000000000000e-001) (32, 5, 5.00000000000000000000e-001) (32, 5, 5.00000000000000000000e-001) (32, 5, 5.00000000000000000000e-001) (32, 5, 5.00000000000000000000e-001) (32, 5, 5.00000000000000000000e-001) (32, 5, 5.00000000000000000000e-001) (32, 5, 5.00000000000000000000e-001) (32, 5, 5.00000000000000000000e-001) (32, 5, 5.00000000000000000000e-001) (32, 5, 5.00000000000000000000e-001) (32, 5, 5.00000000000000000000e-001) (0, 5, 0.00000000000000000000e+000) (32, 5, 5.00000000000000000000e-001) (32, 5, 5.00000000000000000000e-001) (32, 5, 5.00000000000000000000e-001) (0, 5, 0.00000000000000000000e+000) 
connections (connected_to_neuron, weight)=(0, 9.59677312139840980000e-001) (1, 6.61471907381682490000e-001) (2, 6.25598844639272840000e+000) (3, 2.92574227465499830000e-001) (4, 9.48014696208229200000e-001) (5, 8.39510942066142300000e-002) (6, -1.43903674452392250000e+000) (7, -1.71401353295503990000e-001) (8, 9.13532634535428320000e-001) (9, -3.38656658373862550000e-001) (10, 4.31610484044429140000e-001) (11, 1.24288850067917820000e-001) (12, 2.81583602094185930000e+001) (13, 1.12136024043253990000e-002) (14, -3.32237493739144880000e+000) (15, -4.11883245365219090000e-001) (16, 1.14302837782210460000e+000) (17, 5.04797679116800390000e-002) (18, 4.36773127239300010000e-001) (19, 8.01471314631804210000e-002) (20, 4.14242294950234120000e-001) (21, -4.09184601538782220000e-001) (22, -4.37423730490521740000e-001) (23, -6.16759810930500360000e-001) (24, 1.85495359746888080000e-001) (25, 2.81005482297025600000e-001) (26, -3.16535077532696980000e+000) (27, -2.01622263290868270000e-001) (28, -2.32361855229739780000e+000) (29, 5.74594833713059860000e-001) (30, 9.01200016423276120000e+000) (31, 4.41904540362284480000e-002) (0, 6.27657943085964330000e+001) (1, 4.30263029231828840000e+000) (2, 9.54424802065854010000e-001) (3, 5.35015040756727570000e-001) (4, 1.16652027579847210000e+001) (5, 3.63202051785567080000e-001) (6, 4.98479632098834880000e+001) (7, 2.42085833974546000000e-001) (8, 1.40514687639403490000e+000) (9, 1.75544343322347300000e+000) (10, -1.95895021771451860000e+000) (11, -9.66479234415209000000e-001) (12, 6.36691773379437610000e-001) (13, 5.60520978118862030000e-001) (14, -1.57744011163191540000e+000) (15, 4.70137946846082290000e-001) (16, 8.25339035175881860000e-002) (17, 6.77785542216046810000e-001) (18, -8.96480452753690750000e+000) (19, 2.46258746415767950000e+000) (20, 9.79368713573272040000e-002) (21, 5.71952256018978480000e+000) (22, -6.85947281409134390000e+000) (23, 3.88711285569200980000e-002) (24, -4.08083623940668490000e-001) (25, 5.77833447665643820000e-001) (26, -6.92265610199047860000e-001) (27, 1.94711065342822260000e-001) (28, 5.55470577728696680000e-001) (29, 4.20144261542789450000e+000) (30, -6.31332985730772300000e+000) (31, 1.10615987419005370000e-001) (0, 2.82425472845167260000e+000) (1, -1.94151095142331700000e-001) (2, -1.47522361746526260000e+001) (3, 5.62502984135422320000e-001) (4, 1.68784542156533950000e+001) (5, -1.65129919404943200000e-001) (6, -2.39495310243578870000e-001) (7, 6.38394158413363890000e-001) (8, 2.11495836333637260000e+001) (9, 1.17508603171232350000e+000) (10, 1.16894727454551610000e+001) (11, -5.98829815391239110000e-003) (12, -3.09426052321340960000e-001) (13, 3.47617647429580730000e-001) (14, 3.26575475900940400000e+001) (15, 3.13632134569594400000e+000) (16, 1.61716269927595600000e+000) (17, 8.35523804076404140000e-001) (18, 1.77491857749331880000e+001) (19, 5.08677582401023450000e-001) (20, -6.86585164108144320000e+000) (21, 4.50391284276003330000e-001) (22, 3.28108012501782340000e-001) (23, 9.37399762271627020000e-001) (24, -9.33990393376989640000e-001) (25, 1.01210751088053200000e+000) (26, 7.83448404610734170000e-001) (27, 5.08702686290209650000e-001) (28, -1.13948816023046040000e+001) (29, -3.26339426153626320000e-001) (30, -1.67313566286065020000e+000) (31, 4.18793546425702880000e-001) (0, -4.24546734149833950000e+000) (1, 3.02421492624900530000e-001) (2, -6.98094897004660190000e+000) (3, -4.55430833114593540000e-001) (4, -1.33826743307449010000e+000) (5, 2.38307503094778720000e-001) (6, -5.69363916768338370000e+000) (7, -6.50372426539861050000e-001) (8, 1.12329354375212680000e+000) (9, -3.25205432136823490000e+000) (10, 1.10244955552532800000e+000) (11, 6.00677381125270580000e-001) (12, 9.65032116887508450000e+000) (13, -4.98707027685590320000e-002) (14, -1.72473223069840780000e+001) (15, -2.13690532678189850000e-001) (16, -3.13722564095853920000e-001) (17, 8.67323056071309000000e-001) (18, 5.00743758824093540000e+000) (19, -9.24817414755419790000e-001) (20, 1.01172500392017350000e+000) (21, -2.19021243922867430000e-001) (22, -2.09640023312662320000e-001) (23, -7.80305691251274250000e-001) (24, -1.32932577122077760000e+001) (25, 4.20151575836834320000e-002) (26, -8.65212034814025420000e-001) (27, -7.97193258066636430000e-001) (28, 2.14563308019026910000e+001) (29, -1.62759278194873010000e+000) (30, -6.91963810528361380000e+000) (31, -1.22877674413233470000e-002) (0, -3.64082071094386220000e+000) (1, -1.24025990503723120000e-001) (2, 1.04540064101877710000e+000) (3, -3.41666518827388970000e-001) (4, -1.36889577076978490000e+001) (5, 2.64584045872471200000e-001) (6, -5.58647563587485420000e+000) (7, 1.01231507154058420000e+000) (8, -2.90975884599444610000e+000) (9, 4.80039030745160360000e-001) (10, -4.58252018541741800000e+000) (11, -1.33884473209577860000e-001) (12, 2.62512959870838230000e+000) (13, 1.00537457035517060000e+000) (14, 1.42324305572805570000e+001) (15, 3.25701446638466230000e-001) (16, 3.10055284575601540000e+000) (17, 1.92561681298229900000e-001) (18, -8.60599823944953600000e-001) (19, -2.66647015454151530000e-002) (20, 5.12620865632610290000e+000) (21, 1.37470832132001400000e-001) (22, 1.43934087958764100000e+000) (23, 3.82942041730259310000e-001) (24, -4.24961468792180150000e+000) (25, 1.91617204392301260000e-001) (26, -1.26816274991456260000e-001) (27, -5.16707005986017030000e-002) (28, 9.20269412576702090000e+000) (29, 1.27725760078984310000e+000) (30, 5.23658645992199560000e+000) (31, 4.31802189947861680000e-001) (0, 1.64478685700278750000e+000) (1, -9.28862336318103000000e-001) (2, 1.92907910060316960000e-001) (3, 2.69105410996711540000e-001) (4, 6.97789477650389500000e+000) (5, -7.37068905283296690000e-002) (6, -4.70542137870071710000e-001) (7, -6.07162254227893580000e-003) (8, 1.35431305852703000000e+000) (9, 6.05018206417889530000e-002) (10, 3.53733353796397100000e+000) (11, -3.21123759421815420000e-001) (12, 4.02028788178897310000e+000) (13, 3.45483573095433370000e-001) (14, -5.72452952763679160000e+000) (15, 1.89232227739033730000e-001) (16, -1.51809980051297110000e+001) (17, -5.35782132279889240000e-001) (18, 1.29637555939921520000e+000) (19, 1.95385931670426220000e+000) (20, 6.56879018881622810000e-001) (21, -4.98489055962081820000e-001) (22, 7.01561569170901650000e-002) (23, -2.46369155569202580000e-001) (24, -9.56044062312906460000e+000) (25, 2.41028585327044550000e-001) (26, 6.93024783541012930000e-001) (27, 2.24923558962635160000e-001) (28, 1.72561291320326230000e+000) (29, 1.26736899860249110000e-001) (30, 5.52608763183204220000e+000) (31, 2.54994695345314330000e-001) (0, 2.73441296397131380000e-001) (1, -1.38108123944170460000e-001) (2, 4.56776683350740450000e-001) (3, -3.72628130468797210000e-002) (4, 3.35722837223251640000e-001) (5, -6.91451141504177690000e-002) (6, 3.89965930543550020000e+000) (7, 1.26533852252189470000e-001) (8, -2.35754360811649330000e+000) (9, -4.41417137142005660000e-002) (10, 2.29396612631446130000e+000) (11, 5.27792580272962090000e-002) (12, 1.54619028581754290000e+000) (13, 3.86351528583285530000e-001) (14, 2.12202378173726970000e-001) (15, -3.60647759053193240000e-001) (16, -1.70328439974959080000e-001) (17, 2.44338836569076840000e-001) (18, 5.96203121948809760000e-001) (19, -8.43372477960731140000e-002) (20, 1.55321608946258730000e+000) (21, -2.37295556063054940000e-001) (22, 1.14730707514500520000e+000) (23, -6.50787045866218080000e-002) (24, 5.41786517503012320000e-001) (25, -3.46495854203711430000e-001) (26, -1.15053698506574120000e+000) (27, -6.37842773514220720000e-002) (28, -3.82659451913604750000e+000) (29, -1.07655093018515360000e-001) (30, 4.44867883703043440000e+000) (31, -1.28982542974039780000e-002) (0, 4.22434976538164920000e-001) (1, -1.06667521649934430000e+000) (2, -3.17990790015825750000e-001) (3, 3.03715575244365880000e-001) (4, -1.72916622732436240000e+001) (5, 1.67979941456427830000e+000) (6, -1.46716932404047200000e+001) (7, 4.10936829510846260000e-001) (8, 2.30224040128339120000e+000) (9, 1.04258150327239730000e+000) (10, -1.50555891789064840000e+001) (11, 1.77924060005307140000e-001) (12, 3.92877667361398730000e+000) (13, 1.24023029507199010000e+000) (14, -6.79132786323485770000e+000) (15, 2.93696832774898150000e+000) (16, 9.82544523568504440000e-002) (17, 5.01004752303291450000e-001) (18, 1.06368622038682600000e+001) (19, -1.91521214482692830000e-001) (20, 4.10695785395476210000e+001) (21, -3.49521973769531150000e-001) (22, 7.92987733368766790000e-003) (23, 3.35414221302085250000e+000) (24, 2.07123229789532640000e+001) (25, 4.47020823412336450000e-001) (26, -1.60754097505190610000e+001) (27, 1.95995553013360550000e-001) (28, 5.84339110348217620000e-001) (29, 5.38987582712191320000e+000) (30, -2.09424656566320920000e+000) (31, 3.70739725813078010000e-001) (0, -3.63865108424566930000e-001) (1, -5.45894217348245410000e-002) (2, 9.33439396010616320000e-002) (3, -1.36582916856718170000e-001) (4, -4.65216222858871110000e-002) (5, 6.98218519734367100000e-002) (6, -9.04363797465397080000e-001) (7, 1.66227560322888860000e-002) (8, -3.51325302598838260000e-001) (9, -3.45789944092674410000e-002) (10, 6.38927704897221280000e-001) (11, -1.78528847738943400000e-002) (12, 5.96007863523598760000e+000) (13, 7.18695728278127050000e-003) (14, -1.55475370586511400000e-001) (15, -1.86084039514851890000e-001) (16, 6.38328543325651920000e-001) (17, 4.26683908319473170000e-002) (18, -1.22683272879067750000e+000) (19, -1.01406321365878310000e-001) (20, 9.10212584852292730000e-001) (21, 1.17188438578052830000e-001) (22, 5.28642443808687750000e-001) (23, -5.51306317101992600000e-002) (24, 9.54245459053138070000e-001) (25, -1.36274581854252760000e-001) (26, 2.65688861496000350000e-001) (27, -1.38626463320251010000e-002) (28, 3.20789466310503040000e-001) (29, -2.29636797707430030000e-001) (30, 3.99855722076128070000e-001) (31, 1.40256507978790110000e-001) (0, -1.58898133790727970000e+000) (1, 4.10369655096785860000e-001) (2, -7.04937286634149540000e+000) (3, 1.85610288226408170000e+000) (4, -6.67319171102952610000e-002) (5, 8.08035363925842960000e-001) (6, 4.08322364816237460000e-001) (7, 5.37561459663160820000e-001) (8, -5.72686405371828910000e-001) (9, 3.16817248567380360000e-001) (10, 3.09081878571512810000e-001) (11, 6.34473414033058460000e-001) (12, -1.24435445262507980000e+000) (13, 1.99937586957511210000e-001) (14, 1.88517839705377850000e+000) (15, 2.31168451589084580000e-001) (16, 5.96248287524545440000e+000) (17, 1.19146855452819220000e+000) (18, -2.62912815651777710000e-001) (19, 1.90967493391972300000e-001) (20, -3.68991126533218990000e+000) (21, -6.62007864086006090000e-002) (22, 9.73000650341923180000e-001) (23, 1.40783575199210500000e+000) (24, 7.60562916189488460000e-001) (25, 8.57090544195090230000e-001) (26, -1.37462334738002310000e+000) (27, 1.62341909267258580000e-001) (28, 2.63350015593945550000e-001) (29, 1.75454889244447810000e+000) (30, 3.49627892156199980000e+000) (31, 6.22349122385972730000e-001) (0, -1.22736806261256000000e+001) (1, 4.00708948971345460000e-001) (2, 9.80216396732392780000e+000) (3, 1.92435938426726060000e+000) (4, 2.47673412623887650000e+001) (5, -5.85336891110375790000e-001) (6, 2.73345687458988350000e+000) (7, -2.60122934249648010000e+000) (8, 1.59341491422963480000e+000) (9, -7.82128493246600280000e-001) (10, 9.71766985840215480000e-001) (11, 4.23208547788624100000e-001) (12, 2.50464722970874740000e+000) (13, 1.18958375005831090000e-001) (14, 1.87663974264057280000e+001) (15, -2.94912072755009360000e-001) (16, -2.14196612711371720000e-001) (17, 1.03005247769884390000e-001) (18, -5.73690795706256740000e+000) (19, 1.12596471895007240000e-001) (20, 5.67275490664804480000e-002) (21, 1.50253244134355120000e-001) (22, -8.89407899941715210000e-001) (23, -7.84838490308521150000e-001) (24, 3.27733678966920240000e-002) (25, -4.23235861033192610000e-001) (26, 1.46893202672306060000e+000) (27, -5.50263532096128550000e-002) (28, 1.29915452036367300000e+000) (29, -1.90749620524505860000e-001) (30, 4.60572620480510240000e+000) (31, -4.38684695719488260000e-001) (0, -9.08433410679577950000e-001) (1, 3.55810197143456010000e+000) (2, -2.11972493116356380000e+001) (3, 7.56216494368967430000e-001) (4, 2.56400494284315260000e+000) (5, 3.53782681130944620000e+000) (6, -2.38246180379472550000e-002) (7, -6.44430853641120400000e-001) (8, 1.94084919106403310000e+000) (9, 3.66078028616393940000e-001) (10, -2.02737728757566660000e+001) (11, 9.05736233244741060000e-002) (12, -8.17581769089417240000e+000) (13, 4.62896919989525310000e-001) (14, -6.87674963912502690000e+000) (15, 1.79555091365480870000e+000) (16, -1.93997063743724830000e+000) (17, 3.90294620467627250000e-001) (18, 3.33307344743268290000e-001) (19, 8.13711405962946220000e-001) (20, 1.12731608968340440000e+001) (21, 9.29085131245158570000e-001) (22, 1.42032219687368230000e+000) (23, -1.13392001369566780000e+000) (24, 1.58300288258094280000e-001) (25, 8.54167835229160620000e-001) (26, 1.25227907058399570000e+000) (27, 2.86936728666909110000e+000) (28, 4.20391456032605860000e+001) (29, 9.29047246120072830000e-001) (30, 4.60587648522525440000e+001) (31, 5.76244899553573390000e-001) (0, 2.61901423350362870000e-001) (1, -3.36582214375981510000e-001) (2, -1.04144453074965450000e+000) (3, 1.58286702692259110000e-001) (4, 2.37732680969366820000e+000) (5, 2.94789700206719850000e-001) (6, -2.70688303596684890000e-001) (7, 7.58951394998735870000e-001) (8, 6.01490102809270840000e-001) (9, 1.33047276871386910000e+000) (10, 5.75389896712870200000e+000) (11, -3.12545314225044560000e-001) (12, 3.02830920188923380000e-001) (13, 6.97538704233152670000e-001) (14, 5.44523665841762260000e-001) (15, -6.03571967750111350000e-001) (16, 1.60916803750639260000e+000) (17, 2.89659991258001630000e-001) (18, -1.81388106875947340000e-001) (19, 5.49802395761233460000e-001) (20, -1.48924021145724090000e+000) (21, 7.73392952152897610000e-001) (22, 6.79419209087386200000e+000) (23, -1.52348522399867820000e-001) (24, -1.69129802379750090000e-001) (25, -2.55052843615536210000e-001) (26, 3.72390295815366980000e-001) (27, 9.26571621946480460000e-001) (28, -7.67316868624075000000e-001) (29, 1.99186706650357090000e-001) (30, 2.32101835040785830000e+000) (31, 3.75356644573658140000e-001) (0, -2.72406844033518160000e+000) (1, -4.69665191943370590000e-001) (2, 4.08996066297878440000e+000) (3, -6.63318089944318510000e-001) (4, 2.23344417684059950000e+001) (5, 5.20191046296584750000e-001) (6, -2.17060543436797180000e+001) (7, -1.82184545736364810000e-001) (8, 4.59913915642519470000e+000) (9, -3.03909724954065830000e-003) (10, -2.92988983236738920000e+001) (11, 6.76835578398528700000e-001) (12, 1.12282561224034730000e+000) (13, 1.32596220548544810000e+000) (14, -8.99993259833435640000e-002) (15, 8.55806413541945420000e-001) (16, 1.01046417257561100000e+001) (17, -2.47831588766884770000e-001) (18, 9.45513632437978660000e+000) (19, -1.80361192824046760000e-002) (20, -3.29759373889444870000e-001) (21, -4.09097888917713200000e-001) (22, -1.26421772113658020000e-001) (23, 7.55682553482145520000e-001) (24, 1.73138400179047690000e+000) (25, 2.13995526227681310000e-001) (26, 3.04272490886086320000e+000) (27, -2.56536246229869420000e-001) (28, 6.40228089997104190000e+000) (29, -2.46726247751457600000e-001) (30, 2.93443031608194790000e+001) (31, -9.30781775049030760000e-002) (0, 4.79104848226817290000e+000) (1, 1.33710089316329530000e+000) (2, -1.06923463014786680000e+001) (3, -6.62912775605221240000e-002) (4, -5.05809023987631170000e-002) (5, -6.34883042862937510000e-001) (6, -3.74985721295599110000e+000) (7, 5.26437616379996980000e-001) (8, -1.16730811669612440000e-002) (9, -3.69214467749180210000e-001) (10, -7.62093049548889210000e+000) (11, -3.14930692181971340000e-001) (12, 6.31859647663569390000e+000) (13, 2.45687826565104210000e-001) (14, -2.32313204454680730000e+000) (15, 5.70728211604155880000e-001) (16, 7.93617700846207000000e+000) (17, -1.63606756666167610000e-001) (18, -7.30199282623817500000e+000) (19, 1.08484053054813880000e+000) (20, -4.22233510259810220000e-002) (21, -1.07558924440810280000e-001) (22, 2.54227666056280330000e+000) (23, -8.81458316911050140000e-002) (24, 1.04467779520498930000e+000) (25, -2.16648215128350360000e-001) (26, 8.24468826387077080000e-001) (27, 9.60213706002068900000e-001) (28, -1.50116112129841240000e+000) (29, -8.69647500295721580000e-001) (30, -1.19377114452700780000e+000) (31, 3.51030884204690030000e-001) (0, -1.88683829617191970000e+000) (1, 1.35222820107707590000e+000) (2, 9.45361179454150320000e+000) (3, 8.07673658718297270000e-002) (4, 6.12344571993368890000e+000) (5, 4.19950861794652070000e-001) (6, -3.05055106561153360000e+000) (7, -9.72202084191602480000e-001) (8, 3.38897407742812910000e-001) (9, 8.36724687772777090000e-001) (10, 6.13929963354958020000e+000) (11, 1.40473134667535860000e-001) (12, 5.26137917746724030000e-001) (13, 5.82836674423797720000e-001) (14, 2.76816946410353040000e-001) (15, -1.14730263298983660000e+000) (16, 9.60773812716175350000e-001) (17, 2.82371600849648410000e+000) (18, -1.24476946669745950000e+001) (19, -2.76240612196936300000e-002) (20, -2.52514661602718560000e+000) (21, 3.51743457777985770000e-001) (22, -5.66619220704259160000e+000) (23, -2.80277389793638980000e-001) (24, 4.04905707732703850000e+000) (25, -3.25798091530713100000e-001) (26, -6.39098657362079270000e-001) (27, 6.80665580484123710000e-002) (28, 2.09127952327573220000e+000) (29, -4.08160613139098900000e-001) (30, 2.17219452038214060000e+001) (31, 1.13821895751010650000e-001) (0, 9.33493196264050700000e+000) (1, 3.79460588671914010000e+000) (2, 2.04742588327014730000e+000) (3, 6.32129095874453870000e-001) (4, 2.53173837204295890000e+000) (5, 3.24205943001592440000e-001) (6, 1.42049052973021080000e+001) (7, -6.69354229705692170000e-002) (8, -3.62217998578023880000e+000) (9, 3.06385927205227390000e-001) (10, -4.03230466128939650000e+000) (11, 3.32846455882499780000e-001) (12, -9.01404768317914380000e-001) (13, 1.60167089985700280000e-001) (14, 3.89727664397983180000e-001) (15, 5.93137627187916180000e-001) (16, -4.67107688348927840000e+000) (17, 2.38846214687439470000e-001) (18, -7.65279173389415870000e-001) (19, 2.89724625090612390000e+000) (20, 4.74844963455289190000e+000) (21, 6.44139428448593620000e-001) (22, -1.68813273324638070000e+000) (23, -4.40941392055818130000e-002) (24, 1.78287818889184660000e+000) (25, 3.88272854516252930000e-001) (26, -7.78487874984463150000e-002) (27, 2.45272232887687250000e+000) (28, 3.31158118428462790000e+000) (29, 3.58767498628548060000e-001) (30, 6.01256407826073680000e+000) (31, 3.39125977413732520000e-001) (0, 7.35975879417129640000e-002) (1, -1.01246311848409670000e-002) (2, -1.86080825504929460000e-001) (3, -2.68762842846344660000e-002) (4, -1.58924068887396820000e-001) (5, -7.65853586453143910000e-002) (6, -2.12962349163170960000e+000) (7, -6.05271036045916880000e-003) (8, -7.96323720582863490000e-001) (9, 4.20927437385614640000e-002) (10, 1.68765834696084880000e+000) (11, -1.44956727985426220000e-002) (12, 7.40966604238657680000e-001) (13, -1.44741034402087220000e-001) (14, 1.18149610335414400000e+000) (15, 1.53217736071745800000e-001) (16, 6.38557616067770170000e-001) (17, 7.48689160794781950000e-003) (18, -1.03357208236928980000e-001) (19, -2.18318876815075390000e-001) (20, 4.84475396677965240000e-001) (21, 5.05603797543386840000e-002) (22, 2.23249974973217520000e-001) (23, -3.98675368637620710000e-002) (24, 4.01827989411776720000e-001) (25, -1.28100252244759740000e-001) (26, -1.61158737542620810000e-001) (27, -8.92250208845580120000e-002) (28, 3.16947872375966840000e+000) (29, -7.71676285340866660000e-002) (30, 1.75675178360811920000e+000) (31, 8.08641669188665670000e-002) (0, 5.66076427824053140000e+000) (1, 1.11462197103192880000e-001) (2, -3.85583246900360170000e-001) (3, -2.36078822795884630000e-001) (4, 4.13800621766873800000e+000) (5, 2.05562262439757500000e-001) (6, -4.58123115219989390000e-001) (7, -1.02067947973637130000e-002) (8, 8.54932449275023990000e-001) (9, -6.24588100003260590000e-001) (10, -7.31175715993186980000e-001) (11, 3.04974877159985890000e-001) (12, 1.59962815014011240000e-001) (13, -4.21972549145849470000e-001) (14, 2.26516791181321110000e+000) (15, 1.54273196992396280000e-001) (16, -1.22305050017549990000e-001) (17, 7.69924539625659100000e-001) (18, -5.59926306602821280000e+000) (19, 1.74575721539969690000e-002) (20, 1.07623994912208150000e+000) (21, 3.12458310515434660000e-001) (22, 2.36618946204858770000e+000) (23, -3.07451322614735790000e-001) (24, 1.46630476835534620000e-001) (25, 4.26995045268796780000e-001) (26, -2.58031646303934880000e-001) (27, -5.71737328227934220000e-001) (28, -2.85110967926697390000e+000) (29, -1.81812360882826760000e-001) (30, -1.99233633320822940000e-001) (31, -1.24671425193042670000e-001) (0, -8.47678232426367500000e-002) (1, -5.24454863186116890000e-001) (2, -1.06096358309377340000e+001) (3, 7.21010684067974310000e-001) (4, -1.60317843383009320000e+000) (5, 4.80043509251805110000e-001) (6, -1.07421611244829830000e+001) (7, 3.18622746790489460000e-001) (8, -4.73732498529044400000e+000) (9, 3.10562209040012190000e+000) (10, -4.91620495015738720000e-002) (11, 6.10179191874905990000e-001) (12, -3.40122804282479980000e+001) (13, -2.10444003803878950000e-001) (14, -1.24087229058175660000e+001) (15, 1.75111114253073690000e+000) (16, -1.96845516538000980000e+000) (17, 1.57324376401064910000e+000) (18, 3.27632686837824920000e+001) (19, 8.71993369008144610000e-001) (20, 1.40758077239125170000e+001) (21, 2.90666478294971610000e-001) (22, 3.08348808291086130000e+000) (23, 9.26672477604807750000e-001) (24, 1.81534803805282590000e-001) (25, -3.80016628696462290000e-002) (26, 1.59029686948676790000e+000) (27, 3.79608808447331750000e-001) (28, 2.21789216363434470000e+000) (29, 5.68909309754543720000e+000) (30, -3.09784661194490210000e+001) (31, 6.00750739725984250000e-001) (0, -9.37956410387159700000e-003) (1, 2.42534032985077220000e-001) (2, -2.17232338588158850000e+000) (3, 1.63186220500410570000e-001) (4, -2.75051059124902080000e-001) (5, 2.75357866571797840000e-001) (6, 8.21647616762012410000e+000) (7, -9.33155023065315860000e-002) (8, -3.33062971593474270000e+000) (9, 1.08842573462039810000e-001) (10, -2.80822158323152720000e+000) (11, 1.32929355832595660000e+000) (12, -1.07830299187364890000e+000) (13, -7.57022935521527660000e-001) (14, 1.52288261261371960000e-001) (15, 3.80923242359247240000e-001) (16, -6.85065835294480510000e-001) (17, -1.10426066580847500000e-001) (18, 8.49347080892146720000e-001) (19, 5.14383186115765060000e-001) (20, 1.31078027007406050000e+001) (21, 9.19316427257641730000e-001) (22, 8.01486512023588450000e-001) (23, -1.07186705396192780000e-001) (24, 7.53866410082950810000e+000) (25, 5.77754529142450620000e-001) (26, 8.48878339665746040000e+000) (27, 3.37029134360717350000e-001) (28, 5.62149546082410720000e+000) (29, -5.40485170354526590000e-001) (30, -8.71712307514738430000e+000) (31, 4.90007269238599270000e-001) (0, -4.17044478123936300000e-001) (1, 1.22532244661960490000e+000) (2, 8.58005408167072820000e-001) (3, -4.01308145124058710000e-001) (4, -2.28298526331606990000e+000) (5, 2.96719734939051260000e-002) (6, -5.24135529667268950000e+000) (7, 5.19353398463129220000e-001) (8, 2.18151831394530480000e-001) (9, -2.46733582288345440000e-001) (10, 1.19659003781618210000e-001) (11, 1.21749358161960730000e+000) (12, 4.01533213607125990000e+000) (13, 2.55317142062727210000e-001) (14, -2.84871403063275470000e+000) (15, 7.63762686724983040000e-001) (16, -6.14409548176765870000e+000) (17, 4.19482517772300360000e-002) (18, -6.50224709123548190000e+000) (19, 8.63276713080615820000e-001) (20, 1.26523100220500510000e+000) (21, -2.88433488657019950000e-001) (22, 6.11875861217250280000e-002) (23, 3.07794667255946230000e-001) (24, 3.19849647396037050000e-001) (25, 8.01705536112865210000e-001) (26, 3.87744991706468480000e-001) (27, -2.15632225458220860000e-001) (28, -1.92678348268850640000e+000) (29, 6.01677824360544620000e-001) (30, -1.59528713685620950000e+001) (31, 4.09813673175351780000e-001) (0, -4.50536134047368990000e+000) (1, 1.47060218366604520000e+000) (2, 1.17188590435697090000e+000) (3, 9.21159643137848480000e-001) (4, -3.25206127190769520000e-001) (5, 3.07760883677644980000e-001) (6, -5.33822228893435650000e+000) (7, 5.19274533473120800000e-001) (8, -1.42160450528728670000e-001) (9, 6.21330464327415340000e-001) (10, 5.98222646211200270000e+000) (11, 2.42595613859930250000e-001) (12, 1.52099469069952090000e+000) (13, 3.20505477443760180000e-001) (14, -6.30707142252425520000e+000) (15, 4.86176273728799350000e-001) (16, -1.47399671942083730000e-001) (17, 1.15035236964817590000e+000) (18, -9.51352727520317520000e-001) (19, 4.90647305777006490000e-001) (20, -4.07035153147268570000e-001) (21, 5.16214107439332480000e-002) (22, -5.98220230819463960000e-002) (23, -5.08326157738000290000e-002) (24, -4.76180737231817470000e-001) (25, 1.46290560447332680000e+000) (26, -1.54018802090827320000e+001) (27, 2.34996476296536670000e-001) (28, -4.86275900257497170000e-001) (29, 2.14140483110812130000e-001) (30, 4.27496688441354240000e+000) (31, 6.28563765832667380000e-001) (0, -2.59898688400998430000e-002) (1, -2.44719956582923140000e-001) (2, -3.75493530269993270000e-001) (3, 6.59688184922138380000e-002) (4, -1.90817001865669160000e-001) (5, -8.17557546662608380000e-002) (6, -2.15268780422384380000e+000) (7, 1.10038494286446950000e-003) (8, -4.97468785471415150000e-001) (9, -3.63581046555896820000e-002) (10, 1.13074740614984330000e+000) (11, -1.26344275481935050000e-001) (12, 4.46809217786187670000e+000) (13, 2.10636891419864030000e-001) (14, -4.51087591220311700000e+000) (15, -2.19488071845914070000e-001) (16, 1.83977329617717490000e+000) (17, 6.94548797826084340000e-002) (18, -6.82460400959245650000e-001) (19, -7.77587238652602610000e-003) (20, 1.21950202267426900000e+000) (21, -1.91326691907535320000e-001) (22, 5.88367986754308570000e-001) (23, 6.12020416110144670000e-002) (24, 1.01889819023531560000e+000) (25, -1.73489222428165890000e-002) (26, -3.11655744091235480000e-001) (27, 2.79134000128773640000e-002) (28, 1.23662208809578350000e-002) (29, -1.25969884637830070000e-001) (30, 1.03092199257310350000e+000) (31, 5.10787289598588140000e-002) (0, 1.07940933946281140000e-001) (1, 1.18714264392020890000e-001) (2, 7.58106231838661220000e-001) (3, -8.27056698831894620000e-002) (4, 3.07299224548986730000e-001) (5, 8.14200966785759980000e-002) (6, 1.01695733632347700000e-001) (7, 7.61751469070397620000e-002) (8, -3.09528908779613720000e+000) (9, -6.30262086629380660000e-002) (10, 1.46948541586945460000e+000) (11, 1.72745478979917740000e-001) (12, 1.44064495639987610000e-001) (13, -1.01919470215051220000e-002) (14, 1.23449063139128200000e+000) (15, 8.37570280500126300000e-002) (16, 5.84361693742135980000e-001) (17, 7.03750905752334540000e-003) (18, 1.44677224302258490000e-001) (19, -7.92382531445200290000e-002) (20, 3.48721606647100450000e-001) (21, 8.88961996204445420000e-003) (22, 1.01946978539016490000e+000) (23, 2.79584981254535420000e-002) (24, 8.71725716702096000000e-002) (25, -7.58863255117594450000e-002) (26, 2.27200197439157230000e-001) (27, -1.47410463991023780000e-001) (28, 3.23590824276454800000e-001) (29, -1.10388743039460810000e-001) (30, 2.68372774977263710000e+000) (31, 2.79344133003924110000e-002) (0, -1.66752215311391790000e+001) (1, 7.16959778274470660000e-001) (2, 2.93797180645654790000e+000) (3, -1.56543641300874590000e+000) (4, -2.10357452887603640000e+000) (5, 6.04173003580013580000e-002) (6, -6.19645906233543720000e+000) (7, -2.98837205899441680000e-001) (8, -5.99663933177918730000e+000) (9, -1.81294375184408690000e-001) (10, -8.39051382595425820000e+000) (11, 5.52219443756599700000e-001) (12, -8.36198349432128450000e-001) (13, -1.55995321619139650000e-001) (14, 7.33320579712457340000e-001) (15, -4.41190293406183080000e-002) (16, 2.68607859145117230000e+001) (17, -8.42969136735302630000e+000) (18, -8.45531048300959150000e-001) (19, -6.86958522456544870000e-001) (20, 1.92560904410849830000e+000) (21, -1.84908195577813930000e-002) (22, -1.17018587180490260000e+001) (23, 1.29252304593071020000e+000) (24, 1.78799338467201960000e+001) (25, -8.69635935827906440000e-001) (26, 1.53158930191993830000e+000) (27, -2.35651693581138180000e+000) (28, 5.84481365708181500000e+000) (29, -2.99964167923693430000e+000) (30, 8.77650266432941750000e-001) (31, -3.77031084291377990000e-001) (0, 3.87801635927404400000e-002) (1, -4.49418040258273700000e-002) (2, 2.50299113663742200000e+000) (3, -4.10892718320028380000e-002) (4, 2.17451099339124760000e-001) (5, 2.84262783344000350000e-001) (6, -1.04334806558598790000e+000) (7, 1.27585028745853260000e-002) (8, 3.21872470385187350000e-001) (9, -2.72310782869269450000e-003) (10, 7.37748075402836350000e-002) (11, 2.22650500573118470000e-001) (12, 8.17302831780769350000e-001) (13, 2.20112793950941270000e-001) (14, -8.78975803841396620000e-001) (15, -3.66673255711247250000e-002) (16, 7.21662679553809800000e-001) (17, -4.97229554426677140000e-002) (18, -5.72105468277814830000e-001) (19, 7.48340757412027400000e-003) (20, 1.02626932696527010000e+000) (21, -1.26033807007919390000e-001) (22, 1.21706198758738140000e+000) (23, 3.05413595778315230000e-001) (24, 2.15387438285633420000e-001) (25, -9.58150584560856920000e-002) (26, -8.05207948595439320000e-001) (27, -6.63923445463256850000e-002) (28, 1.60436227630997300000e-001) (29, 9.67169156055897730000e-002) (30, 5.52912379978583450000e-001) (31, 1.11272608157179540000e-001) (0, 1.72463997880740650000e+001) (1, 3.20566126810721270000e-002) (2, -3.11097714303868640000e+001) (3, -3.09752246454724770000e-001) (4, 3.60681919427189750000e+000) (5, -4.16209800140463880000e-001) (6, -6.28761756000136060000e-001) (7, 3.90508023744670810000e-001) (8, 7.49852880492465460000e-001) (9, 1.36250658746642050000e-001) (10, 3.39155786114887680000e+000) (11, -2.63666684397241840000e-001) (12, 3.19309588419041820000e+000) (13, 4.48841723137246850000e-002) (14, -2.41911688121442390000e+000) (15, 1.44865718416197930000e+000) (16, 1.22479417815832560000e+000) (17, -1.71599245689633030000e-001) (18, -7.77771313858987060000e+000) (19, 4.21383528653098920000e-001) (20, 7.98400758345297560000e-001) (21, -2.57701983196800820000e-001) (22, -3.61569411959224010000e+000) (23, 1.54860400544015970000e+000) (24, 1.94082101398693950000e+000) (25, 2.29825569457360250000e-002) (26, -3.02038291513481870000e+000) (27, -5.15945915609129390000e-001) (28, -1.81080156803833240000e-001) (29, 4.76884376176386000000e-002) (30, 3.37503673104832250000e+000) (31, -1.27961154092783090000e-002) (0, 7.92146133872414170000e-001) (1, 1.06489267185377830000e+000) (2, -1.76353038346109270000e+000) (3, 1.70181513981665230000e+000) (4, 7.41176507662023700000e-001) (5, 8.13359485244635530000e-001) (6, -4.41944498920175450000e-001) (7, 7.83321841320010760000e-002) (8, 4.75043063912252350000e+000) (9, 2.19752587955790140000e+000) (10, -2.50799615754149170000e+000) (11, 2.16659066950513510000e+000) (12, -2.60932162316127040000e-001) (13, 4.71859925849062500000e-001) (14, -3.29474799740971450000e+000) (15, 6.87153233383584450000e+000) (16, -1.47282468057573920000e+001) (17, -3.27537587419579390000e-001) (18, 1.52902488601070930000e+001) (19, -5.89826212016480830000e-003) (20, -8.41496700324255010000e+000) (21, 2.22421765352301030000e+000) (22, -1.61940404265021980000e+001) (23, 6.55069858568200320000e-001) (24, 2.68973688267188130000e+000) (25, -2.00879840803042560000e-002) (26, 6.74758432758992830000e-001) (27, 3.33984086724468150000e+000) (28, 4.34819717641550340000e+000) (29, -7.87747826272072180000e-002) (30, 6.44964580769968170000e+001) (31, 9.66075755282912780000e-001) (0, 8.09718792239313420000e+000) (1, -1.61696951439466940000e+000) (2, -8.99611156306999730000e-001) (3, 2.96675093900319600000e-001) (4, 5.46981988218710690000e-001) (5, -1.55783600071326260000e+000) (6, -3.88504202737801930000e+000) (7, -2.09696318740914240000e-001) (8, 1.91152830173682590000e+000) (9, -5.88055489653171780000e-001) (10, 1.31160510160805100000e+001) (11, 2.17020082015484510000e-001) (12, 2.85997033866576710000e+000) (13, 3.41809913525709890000e-001) (14, -1.29301158799275510000e+000) (15, -4.91736780608773180000e-001) (16, 2.56375011072234750000e+000) (17, -6.02017426636451750000e-001) (18, 3.59072123868068220000e+000) (19, -2.11418113217401140000e-001) (20, -1.64575622860593170000e+000) (21, 3.94778957660652350000e-001) (22, -8.30834898122211450000e-001) (23, -5.39912556120598280000e-002) (24, 1.67299973698494710000e+001) (25, -1.04506741477867430000e-001) (26, 1.48723428502626900000e+000) (27, 3.74795271549454800000e-001) (28, -1.03600259274327260000e+000) (29, 2.25560658421677440000e-001) (30, 2.86212727185902650000e+000) (31, 7.57219672354388780000e-002) (0, -1.08462794985073480000e+001) (1, 1.16208086125330780000e+000) (2, 1.45827333619822100000e+000) (3, 1.55118785377575440000e+000) (4, 1.33243055406224660000e-001) (5, 2.97077360725566120000e-001) (6, -1.61625385176190480000e+001) (7, -2.87236333075757410000e-001) (8, 2.41659432805546940000e+000) (9, 1.67110861017137010000e+000) (10, 1.42780397794430150000e+001) (11, 9.79788506861169030000e-001) (12, 1.52894297780956450000e+000) (13, 3.47431437386376500000e-001) (14, 2.04719672978563590000e+001) (15, -1.43154492777401050000e-001) (16, 2.06027033377885900000e+001) (17, 1.04480820823177780000e+000) (18, 1.71900565402316170000e+000) (19, -1.40799665455576960000e-001) (20, -7.70123656050363170000e+000) (21, 2.04944050597244940000e+000) (22, 3.17940983328972180000e+000) (23, -6.42771831473474280000e-002) (24, -2.43975531287570940000e-002) (25, 7.40122119883525050000e-001) (26, -4.43351515581131840000e-002) (27, 9.35376783324201930000e-001) (28, 5.87859442300061820000e-001) (29, -9.44412818380438560000e-001) (30, -2.22333109269713770000e+001) (31, 3.68795037102641220000e-001) (32, -5.20719996250099570000e-001) (33, 3.00141190086476330000e-001) (34, 2.08579025598307990000e+000) (35, -2.30945579038426500000e-001) (36, 8.87034836856872900000e-001) (37, -2.04370480504775880000e-001) (38, 1.70054992967794390000e-001) (39, -1.12463974071063680000e-001) (40, 3.81138941881527800000e-001) (41, 5.25967974376203680000e-001) (42, -9.95085072770484970000e-001) (43, 1.17231453047942180000e+000) (44, -7.94908987176640160000e-001) (45, 1.20573656976139860000e+000) (46, -5.49511681849516930000e-001) (47, 8.15202889925620950000e-001) (48, 9.35158140421253450000e-001) (49, 4.48103348893464930000e-001) (50, -1.55691797588944230000e+000) (51, 1.98579977969455840000e-001) (52, 1.75529942345197590000e+000) (53, -8.12972114554311180000e-001) (54, 3.87200609224086110000e-001) (55, 3.62311321924770450000e-001) (56, 1.92177986319893750000e-002) (57, 9.96385496176384330000e-002) (58, 1.82234300534657140000e-001) (59, -1.58002173608714780000e+000) (60, -2.01868515206499840000e+000) (61, 6.90366833329932320000e-001) (62, -2.11901150779721800000e+000) (63, 4.42660617213044010000e-001) (32, 1.73734966572632430000e+000) (33, -1.19202673091865590000e+000) (34, -2.06640001501511680000e-001) (35, 1.34856788559849310000e+000) (36, 3.81180480307151790000e-001) (37, 1.56321705256056800000e+000) (38, 5.84379866902482780000e-001) (39, 8.23339127522945270000e-002) (40, 4.61904131521571000000e-001) (41, 5.50695186926808520000e-001) (42, -6.93898368441273730000e-001) (43, -1.40295856613613150000e+000) (44, 4.87357418740636540000e-001) (45, -1.80115595518756750000e+000) (46, 1.11420115008391460000e+000) (47, 2.39206330696842580000e-001) (48, -4.54224751267723550000e-001) (49, 3.57951259143119870000e-001) (50, 5.50755798849220660000e-001) (51, 2.04468222786580120000e+000) (52, -2.55562057131923930000e-001) (53, 5.57168683603474930000e-001) (54, 5.61673800610510750000e-001) (55, 7.33278698541404260000e-001) (56, 3.76708706908661370000e-001) (57, 1.54344764198284020000e+000) (58, 3.39564875138520630000e-001) (59, 9.58909733692791870000e-001) (60, 1.92661512104356600000e+000) (61, 1.33625229746321010000e+000) (62, 1.72872636353234350000e+000) (63, 5.43126032107036250000e-001) (32, -7.84848450789935040000e-001) (33, 8.50512012815392570000e-001) (34, -1.29663596322111800000e+000) (35, -5.51790723511831670000e-001) (36, 4.43422536653344970000e-001) (37, -4.38254999671100540000e-001) (38, 4.60129086800653180000e-001) (39, -9.21552132932126230000e-001) (40, 4.15212719888885360000e-001) (41, 5.08834162410979670000e-001) (42, 1.68078323428368300000e+000) (43, 2.65101997315769890000e-001) (44, 5.54973179167574380000e-001) (45, 4.89099748654491520000e-001) (46, -7.47015199954836340000e-001) (47, -1.30094359090522230000e+000) (48, -2.75500767782892230000e-001) (49, 4.82374221700003660000e-001) (50, 6.17024041400575210000e-001) (51, -1.51012286212926620000e+000) (52, -3.13010406520299770000e-001) (53, 5.31106470579193140000e-001) (54, 6.06180149248143900000e-001) (55, 3.73602020766741930000e-001) (56, 5.35779847421559260000e-001) (57, -1.00986684129493190000e+000) (58, 5.65850906341752720000e-001) (59, 3.70402860355383450000e-001) (60, 5.21868702226138010000e-001) (61, -2.10364188500881080000e+000) (62, 6.47359310887356540000e-001) (63, 4.06851110940829490000e-001) 
