FANN_FLO_2.1
num_layers=3
learning_rate=0.700000
connection_rate=1.000000
network_type=0
learning_momentum=0.000000
training_algorithm=2
train_error_function=1
train_stop_function=0
cascade_output_change_fraction=0.010000
quickprop_decay=-0.000100
quickprop_mu=1.750000
rprop_increase_factor=1.200000
rprop_decrease_factor=0.500000
rprop_delta_min=0.000000
rprop_delta_max=50.000000
rprop_delta_zero=0.100000
cascade_output_stagnation_epochs=12
cascade_candidate_change_fraction=0.010000
cascade_candidate_stagnation_epochs=12
cascade_max_out_epochs=150
cascade_max_cand_epochs=150
cascade_num_candidate_groups=2
bit_fail_limit=3.49999999999999980000e-001
cascade_candidate_limit=1.00000000000000000000e+003
cascade_weight_multiplier=4.00000000000000020000e-001
cascade_activation_functions_count=10
cascade_activation_functions=3 5 7 8 10 11 14 15 16 17 
cascade_activation_steepnesses_count=4
cascade_activation_steepnesses=2.50000000000000000000e-001 5.00000000000000000000e-001 7.50000000000000000000e-001 1.00000000000000000000e+000 
layer_sizes=32 35 4 
scale_included=0
neurons (num_inputs, activation_function, activation_steepness)=(0, 0, 0.00000000000000000000e+000) (0, 0, 0.00000000000000000000e+000) (0, 0, 0.00000000000000000000e+000) (0, 0, 0.00000000000000000000e+000) (0, 0, 0.00000000000000000000e+000) (0, 0, 0.00000000000000000000e+000) (0, 0, 0.00000000000000000000e+000) (0, 0, 0.00000000000000000000e+000) (0, 0, 0.00000000000000000000e+000) (0, 0, 0.00000000000000000000e+000) (0, 0, 0.00000000000000000000e+000) (0, 0, 0.00000000000000000000e+000) (0, 0, 0.00000000000000000000e+000) (0, 0, 0.00000000000000000000e+000) (0, 0, 0.00000000000000000000e+000) (0, 0, 0.00000000000000000000e+000) (0, 0, 0.00000000000000000000e+000) (0, 0, 0.00000000000000000000e+000) (0, 0, 0.00000000000000000000e+000) (0, 0, 0.00000000000000000000e+000) (0, 0, 0.00000000000000000000e+000) (0, 0, 0.00000000000000000000e+000) (0, 0, 0.00000000000000000000e+000) (0, 0, 0.00000000000000000000e+000) (0, 0, 0.00000000000000000000e+000) (0, 0, 0.00000000000000000000e+000) (0, 0, 0.00000000000000000000e+000) (0, 0, 0.00000000000000000000e+000) (0, 0, 0.00000000000000000000e+000) (0, 0, 0.00000000000000000000e+000) (0, 0, 0.00000000000000000000e+000) (0, 0, 0.00000000000000000000e+000) (32, 5, 5.00000000000000000000e-001) (32, 5, 5.00000000000000000000e-001) (32, 5, 5.00000000000000000000e-001) (32, 5, 5.00000000000000000000e-001) (32, 5, 5.00000000000000000000e-001) (32, 5, 5.00000000000000000000e-001) (32, 5, 5.00000000000000000000e-001) (32, 5, 5.00000000000000000000e-001) (32, 5, 5.00000000000000000000e-001) (32, 5, 5.00000000000000000000e-001) (32, 5, 5.00000000000000000000e-001) (32, 5, 5.00000000000000000000e-001) (32, 5, 5.00000000000000000000e-001) (32, 5, 5.00000000000000000000e-001) (32, 5, 5.00000000000000000000e-001) (32, 5, 5.00000000000000000000e-001) (32, 5, 5.00000000000000000000e-001) (32, 5, 5.00000000000000000000e-001) (32, 5, 5.00000000000000000000e-001) (32, 5, 5.00000000000000000000e-001) (32, 5, 5.00000000000000000000e-001) (32, 5, 5.00000000000000000000e-001) (32, 5, 5.00000000000000000000e-001) (32, 5, 5.00000000000000000000e-001) (32, 5, 5.00000000000000000000e-001) (32, 5, 5.00000000000000000000e-001) (32, 5, 5.00000000000000000000e-001) (32, 5, 5.00000000000000000000e-001) (32, 5, 5.00000000000000000000e-001) (32, 5, 5.00000000000000000000e-001) (32, 5, 5.00000000000000000000e-001) (32, 5, 5.00000000000000000000e-001) (32, 5, 5.00000000000000000000e-001) (32, 5, 5.00000000000000000000e-001) (0, 5, 0.00000000000000000000e+000) (35, 5, 5.00000000000000000000e-001) (35, 5, 5.00000000000000000000e-001) (35, 5, 5.00000000000000000000e-001) (0, 5, 0.00000000000000000000e+000) 
connections (connected_to_neuron, weight)=(0, 2.52954956292974930000e-001) (1, 5.88661436415599980000e-001) (2, 1.20763204114308850000e+000) (3, -4.68827724260858230000e-002) (4, 4.43945413444102820000e-001) (5, 2.51753743560989510000e-001) (6, -2.13579056925061570000e-001) (7, -4.39268169219581010000e-003) (8, -1.55037704766576300000e-002) (9, -4.46514713545985150000e-002) (10, 1.39977498880135490000e+000) (11, 5.04870428955653150000e-001) (12, -2.32405170349862800000e-001) (13, 4.99225046640385250000e-002) (14, 2.78625543480438150000e+000) (15, -1.98793181983553340000e-001) (16, -9.38213956701540840000e-001) (17, -2.44404754928843730000e-001) (18, 2.57076855034454880000e-004) (19, -2.40215882346893060000e-002) (20, -8.64334608312702590000e-001) (21, 6.41461007162886230000e-001) (22, 4.02453845791502060000e-001) (23, -4.24523682625945200000e-002) (24, 7.06729028718042630000e-002) (25, 5.72839454969997220000e-001) (26, 4.40701913656521730000e-001) (27, -2.52050764011131910000e-001) (28, 4.23877055950662000000e-001) (29, -2.53320066793562560000e-002) (30, -3.75622187288797870000e-001) (31, 5.10638621029210760000e-002) (0, 7.76825829446708550000e-002) (1, 5.54186233504449620000e-001) (2, -1.52124583088514950000e-001) (3, 3.51259708832199650000e-001) (4, -2.19412722995985040000e-003) (5, -2.55639246874201860000e-001) (6, -1.84236299322786620000e-001) (7, 3.00367337514152680000e-001) (8, -2.14937893925631840000e-001) (9, 3.27987003407284320000e-001) (10, 1.57222731606106230000e-001) (11, -4.02777767232312750000e-002) (12, 9.51762805129332950000e-002) (13, 2.68264102126718750000e-001) (14, -1.84132539555615480000e-001) (15, 1.82320497330434260000e-001) (16, -2.12824375868631180000e-001) (17, 2.85482889774960450000e-001) (18, 6.77504201951986350000e-001) (19, 2.71523379519035770000e-001) (20, 1.18140759765046390000e-001) (21, -2.44744471321232060000e-001) (22, -2.82588889417525470000e-002) (23, 3.11237699004258680000e-001) (24, -3.75195971763498500000e-001) (25, 2.73767449609390870000e-001) (26, 5.24855402336947270000e-001) (27, 2.89996697898100510000e-001) (28, -1.68134223940940740000e-001) (29, 3.67175654126281560000e-001) (30, 3.78627372814229920000e-001) (31, 2.20825554289245140000e-001) (0, 3.36307888884364160000e-002) (1, -4.32247579912059880000e-003) (2, 1.22065903403804700000e+000) (3, 3.09458506884858970000e-002) (4, 6.25253436974055440000e-001) (5, 3.09415910615013430000e-002) (6, 1.87559090828017760000e+000) (7, 1.26974646070993320000e-001) (8, -1.04449075623949780000e-001) (9, -5.22345488135423030000e-001) (10, 3.14780642954287780000e+000) (11, -8.00868176974442740000e-002) (12, -9.43477571140534100000e-002) (13, 2.38607976986170480000e-001) (14, 8.12070704669507930000e-001) (15, -8.02383575926485900000e-001) (16, 3.00968248184403650000e-002) (17, -8.99731118410395100000e-002) (18, 5.81455851617098230000e-001) (19, -2.48497734484459940000e-001) (20, -1.07801498417536350000e+000) (21, -4.69629566920668760000e-001) (22, 1.88521353003239740000e-001) (23, -1.39289518825911260000e-001) (24, -2.60188986739990910000e-002) (25, -3.30100867776706500000e-001) (26, 1.27834092919994240000e+000) (27, 5.55329244114902280000e-002) (28, -1.24740342397056600000e+000) (29, -1.34173936287628100000e+000) (30, 8.58211504348722480000e-002) (31, -7.03930334242736100000e-002) (0, -6.73001082338868680000e-001) (1, 5.78771949349170530000e-001) (2, 9.40694025058272820000e-001) (3, -7.66819277579423860000e-002) (4, 6.34065703199233610000e-001) (5, 3.62658901888722960000e-001) (6, -1.29084458911145060000e+000) (7, -2.25339156535607710000e-001) (8, -1.74070606122949110000e-001) (9, -2.99442321495413670000e-002) (10, 8.14619804429620560000e-001) (11, 4.00612236423079910000e-001) (12, 2.06672968659965150000e-001) (13, 5.52307105204813630000e-001) (14, 8.88710381705531180000e-001) (15, 2.60999245603670100000e-001) (16, 2.83147027922813520000e+000) (17, -3.40324408986325650000e-001) (18, 5.30203147524477500000e-001) (19, -5.57198484225570830000e-001) (20, -7.05807479312096970000e-001) (21, 5.47167944971984180000e-001) (22, -3.71552694636302190000e-001) (23, 4.33406810518639150000e-002) (24, -7.45584091232939670000e-001) (25, 2.38662025299080950000e-001) (26, -1.62684411761652440000e-001) (27, -5.83469665472301780000e-002) (28, 4.90848622107591670000e-002) (29, 3.72859934616420400000e-002) (30, -1.42687186865300220000e+000) (31, 3.08496804905188880000e-001) (0, 3.81481124335482040000e-001) (1, -9.65156996231629340000e-002) (2, -1.84250288735835850000e-001) (3, 9.44068757582867260000e-003) (4, 1.09976266892372050000e-001) (5, -7.67585097611915290000e-002) (6, 3.08326175084671220000e+000) (7, -3.55347835495277430000e-002) (8, 3.20485102827203490000e-001) (9, -3.49632637093023450000e-001) (10, -3.44842129062803370000e-001) (11, -4.04120736727124340000e-002) (12, -6.89734874435454450000e-001) (13, -3.68721960984447730000e-003) (14, 2.36093278117838200000e-002) (15, -3.21999949980963370000e-002) (16, -1.39234605546769030000e+000) (17, 6.99067941401519850000e-003) (18, 2.59265496268294930000e-001) (19, -1.22460529839940590000e-001) (20, 3.17176272872797950000e+000) (21, 9.03861065791016980000e-003) (22, 8.13007527982870350000e-001) (23, -1.52546944411778920000e-003) (24, 1.21247148673991620000e+000) (25, 8.86759001455349330000e-002) (26, 2.52453972729295320000e-001) (27, -5.38649774299992250000e-002) (28, 6.88202781251122250000e-002) (29, -1.76502868841035830000e-001) (30, 1.11947572319291890000e+000) (31, -4.27165597232729570000e-001) (0, -8.29415879591505640000e-001) (1, 5.83636451374782260000e-001) (2, 2.00747599343634150000e+000) (3, 4.65920620248273460000e-001) (4, 1.08372817386518080000e-001) (5, 3.62115688990003460000e-001) (6, 2.72441423346955810000e-001) (7, 3.07472959984078590000e-001) (8, -1.81912465221237360000e-001) (9, 1.51109812418492500000e-001) (10, 2.68637521925836680000e-001) (11, 1.96382971934698970000e-001) (12, -1.66533236781622710000e-001) (13, 4.46449662943204540000e-001) (14, 2.27751178723558740000e+000) (15, 2.39368385906345180000e-001) (16, 2.13517243029736830000e+000) (17, 8.21895585838823130000e-002) (18, 1.87624938439448770000e-001) (19, -6.06727866874703920000e-003) (20, -7.84219345714899820000e-001) (21, 5.45598824243950900000e-001) (22, -8.77978423126433590000e-001) (23, 8.85738360227654590000e-002) (24, -7.47000106879039950000e-001) (25, 1.94338750680908700000e-001) (26, -2.14539881284359140000e-001) (27, 2.14240211703781210000e-001) (28, 1.83048019476588970000e-001) (29, 1.97689033568670610000e-002) (30, -2.15382823104295260000e+000) (31, 2.26306862274213320000e-001) (0, -6.09565342588450630000e-002) (1, 2.31162674228574050000e-002) (2, -3.98672841690241420000e-001) (3, 1.42006160481837700000e-001) (4, 1.09251572158168790000e+000) (5, 2.31699329934829810000e-001) (6, -3.18529422307023950000e+000) (7, 3.62398037939518470000e-001) (8, 2.58943104233655570000e-001) (9, -9.06776795853045240000e-002) (10, 8.26409612879958070000e-001) (11, 8.51770956294865430000e-001) (12, 1.44829675133926280000e+000) (13, 2.15266688090840540000e-001) (14, 6.20249253965683980000e-001) (15, 4.33728839039816020000e-001) (16, -1.45782004707443290000e+000) (17, -2.10308936634543070000e-002) (18, 7.47950901160294950000e-001) (19, 3.38790099122615320000e-001) (20, -1.41941833607122940000e+000) (21, -3.44817556783993230000e-001) (22, -2.04321022616805570000e-001) (23, 2.77346856937946740000e+000) (24, -1.65373835681757650000e+000) (25, 1.35134115571537010000e+000) (26, 3.38139915775789610000e-001) (27, 2.76735194866167660000e-001) (28, 1.14773567581403220000e-002) (29, 6.19481216524427110000e-001) (30, -9.14764249320862980000e-001) (31, 5.43336545098910720000e-001) (0, 6.11773658825309100000e-001) (1, -3.01305779931397120000e-001) (2, -9.45533360508320210000e-002) (3, 3.24449972791221590000e-002) (4, 1.69776099713089320000e-001) (5, 2.26919656480425280000e-001) (6, -3.09081790330305760000e+000) (7, -1.67337269691550050000e-001) (8, 1.32813208537299360000e-001) (9, 3.58995871743495590000e-002) (10, 9.77715741878255380000e-001) (11, 2.33211611370020940000e-001) (12, 1.13157548944072190000e+000) (13, -3.41057977789376020000e-001) (14, -1.43742905366576860000e-001) (15, 8.09557401894885620000e-002) (16, -9.84606779658472760000e-001) (17, -9.16936675244872240000e-002) (18, 8.42756636185075790000e-001) (19, -4.96289785532503520000e-002) (20, -1.54204520188756580000e-001) (21, -3.21917352504158480000e-001) (22, 1.92801138237806310000e-001) (23, 1.97270523789322110000e-001) (24, 6.52134006161775300000e-003) (25, 2.64376162615658940000e-001) (26, 2.81190419018291340000e-001) (27, 6.68199977913495890000e-002) (28, 3.18323827858330850000e-001) (29, -3.76525507614758390000e-001) (30, -4.53789785776581020000e-002) (31, 3.63329367901819720000e-002) (0, 2.71232131105425160000e-001) (1, 1.39245492492401280000e-001) (2, 1.34693258032820330000e+000) (3, -2.07148894998688160000e-001) (4, 4.15407995773499570000e-001) (5, 1.81626158836808800000e-001) (6, -1.23027940266208400000e+000) (7, 1.14139838736950910000e-002) (8, -4.32987523109775060000e-001) (9, -1.04353485098379070000e-002) (10, 1.61801156366740550000e+000) (11, 3.73161533934259160000e-001) (12, 1.44264520464381820000e-001) (13, 8.97520835517670170000e-002) (14, 1.64215958440401040000e+000) (15, -1.61284536094724870000e-002) (16, -5.85499692008361830000e-001) (17, -2.05800018025463330000e-001) (18, -1.17353741710861880000e-001) (19, -4.36689915831827700000e-002) (20, -3.03098513873960500000e+000) (21, 5.43534708149657070000e-002) (22, 1.10460678621498380000e+000) (23, -1.23961994706064160000e-001) (24, -6.99031766716757820000e-002) (25, 6.65093972119843670000e-001) (26, 5.52833711789086360000e-001) (27, -3.74169677969362070000e-002) (28, 5.46134339581823220000e-001) (29, 1.80761970924763620000e-002) (30, -1.37422471730703630000e+000) (31, -2.47437677637290800000e-002) (0, 3.39049483078201320000e-001) (1, -7.52692519264998580000e-002) (2, -5.17014293639596720000e-001) (3, -1.09913562249563210000e-001) (4, 8.92426240052917040000e-002) (5, -1.12549525919519240000e-001) (6, 3.70202997921392500000e-001) (7, -1.45568440340525300000e-001) (8, 3.93129146878434090000e-001) (9, -7.34627207640217860000e-002) (10, 6.58581771919046540000e-001) (11, -1.52845046165660580000e-001) (12, 3.00126350755189730000e-001) (13, -1.36359502268421140000e-002) (14, -3.73817379291806810000e-001) (15, -3.51576518910780150000e-002) (16, -1.32173448214987090000e+000) (17, -5.31521732067061100000e-001) (18, 3.72082880761904930000e-001) (19, -1.53272888026132150000e-001) (20, 1.60210167196121440000e-001) (21, -2.64228156517562480000e-002) (22, 3.02489383005508740000e+000) (23, -4.52839917636492850000e-003) (24, 9.97385763229523690000e-002) (25, 5.17609516990334560000e-002) (26, 9.10173200386070750000e-001) (27, 9.45899812297652100000e-003) (28, -8.98166935786656460000e-002) (29, -1.32478209981892300000e-001) (30, 2.11064777107724490000e+000) (31, -8.68232071767922050000e-002) (0, -2.07461087173593740000e-001) (1, 3.10558271716149190000e-001) (2, 1.86397645828688510000e-001) (3, 3.59447461071365770000e-001) (4, -2.06755728178548430000e-002) (5, 2.85568338994983740000e-001) (6, -1.33166783762931050000e+000) (7, 2.74317532438480340000e-001) (8, -2.30556790642746530000e-001) (9, 4.70903761560319050000e-001) (10, 5.29780811078861550000e-001) (11, 1.95089822021748740000e-001) (12, 1.67293293083680790000e-001) (13, 3.67733097749547270000e-001) (14, 1.22332799863851970000e+000) (15, 2.23353176210302320000e-001) (16, -7.83293822707135380000e-002) (17, 1.93075661835485410000e-001) (18, 8.75504503655739900000e-002) (19, 2.86489200054543870000e-001) (20, -6.33866215903294620000e-001) (21, 3.75494746047120690000e-001) (22, 3.76972182280080780000e-001) (23, 3.20118314370965160000e-001) (24, -9.32516995773685740000e-001) (25, 2.80898379658734150000e-001) (26, 4.67122247179781180000e-001) (27, 5.47594436531224190000e-001) (28, -6.47394441719993720000e-001) (29, 3.14038446303225470000e-001) (30, 1.16457945899634800000e-001) (31, 3.86407832147238340000e-001) (0, -2.09503881934107600000e-001) (1, 6.73767067952207870000e-001) (2, 5.92980933935900900000e-001) (3, 5.83772511102150340000e-001) (4, -1.64385583405041340000e-001) (5, 3.62153983896882300000e-001) (6, -2.19506462306242350000e-001) (7, 4.89796888498800490000e-001) (8, -7.58297233916519260000e-001) (9, 5.60668921735664410000e-001) (10, 5.95924212622945480000e-001) (11, 5.54987813796698590000e-001) (12, 2.20516894830300260000e-001) (13, 5.40999072964776670000e-001) (14, 6.08172835621020090000e-001) (15, 1.20773718362005900000e+000) (16, -9.63194295357549860000e-001) (17, -5.37360484806301280000e-002) (18, 9.65123152376763830000e-001) (19, -2.03383157327527010000e-002) (20, -8.51597614007129740000e-001) (21, 7.96583539793918050000e-001) (22, 4.83747697279510220000e-001) (23, 5.84328139907425600000e-001) (24, -2.60206759439209730000e-001) (25, 5.30621313866045160000e-001) (26, 9.59715437452432600000e-001) (27, 5.25294855468495750000e-001) (28, -1.25538788682500570000e-001) (29, 5.33009570892598820000e-001) (30, -2.07470300843928650000e-001) (31, 5.13789599903073930000e-001) (0, 3.40508223334313240000e-001) (1, -1.18598219483468120000e-001) (2, 1.97474598141160970000e-001) (3, -1.24195789024884970000e-001) (4, 2.00759959651404500000e-001) (5, 6.27982155430100750000e-003) (6, 1.53065194322502070000e+000) (7, -1.60645684156489330000e-002) (8, 2.41395746179930260000e-001) (9, -1.10810023940473640000e-001) (10, -3.17296991107184730000e-001) (11, -8.00788223106680410000e-002) (12, 1.19760953728536010000e-002) (13, -8.58771622408200370000e-002) (14, -5.45490965834317550000e-001) (15, 1.75386292973056000000e-003) (16, -1.36724229532799010000e+000) (17, -2.42593210516460770000e-002) (18, 3.45825556151890310000e-001) (19, -3.96180355634979390000e-002) (20, 3.19612796346604980000e+000) (21, 5.39481177548833440000e-003) (22, 7.40577106981698100000e-001) (23, -1.09112140969159100000e-001) (24, 1.23485918238601890000e+000) (25, -1.43489559633276230000e-002) (26, 2.22381950796812250000e-001) (27, 2.12326799390430490000e-002) (28, 1.38764296501351050000e-002) (29, -9.76759633695484380000e-002) (30, 1.02416245989714310000e+000) (31, -1.46888610587249000000e-001) (0, 1.30890601086775280000e-001) (1, -3.96850214948870130000e-001) (2, -7.04098494911631120000e-001) (3, 1.30760428431636210000e-001) (4, 1.78168433822519840000e-001) (5, -1.87431026077852500000e-001) (6, 6.01343634331056980000e-001) (7, -6.16651115451027080000e-002) (8, 5.46419889025931080000e-001) (9, 1.22160574787863420000e-001) (10, 3.25241416292094630000e-001) (11, -2.43030493761818040000e-001) (12, 4.84666508268695560000e-001) (13, 1.02434011993914730000e-001) (14, -1.63082051699234840000e-002) (15, 1.11046072669119440000e-001) (16, 5.05337918893293820000e-002) (17, -3.91362936944463430000e-002) (18, 8.67634291241754950000e-001) (19, -6.60596428605863260000e-002) (20, 1.05437822266539310000e+000) (21, -4.98364980875926340000e-002) (22, 2.87802360356559820000e-001) (23, 2.47362569298779780000e-002) (24, 4.72695522692977380000e-001) (25, -3.11639032038499570000e-001) (26, 8.03083509029873350000e-001) (27, 1.11577078536407040000e-001) (28, 4.90235187538076100000e-001) (29, 1.13023611761087060000e-001) (30, 4.68908924906759890000e-001) (31, -4.21882162658630470000e-003) (0, 3.44267989015338120000e-001) (1, -7.31330214259175440000e-002) (2, -1.30770933957914200000e-001) (3, -4.88661980586366090000e-002) (4, 6.05133755303175480000e-002) (5, 7.60246956404556080000e-002) (6, 2.60568122382524860000e-001) (7, -1.33452961644365600000e-001) (8, 3.76466548973892030000e-001) (9, -6.69319589479558520000e-002) (10, 7.22485581465037500000e-001) (11, -2.54389237131911920000e-001) (12, 3.87470264958173550000e-001) (13, -1.07715541472487260000e-001) (14, -1.69885984108947870000e-001) (15, -1.03545734636213180000e-001) (16, -3.18097903745906320000e+000) (17, 4.29902898328148910000e-003) (18, 2.15381218270618210000e-001) (19, -1.90955994056404180000e-001) (20, 7.47304295942491090000e-002) (21, -8.79586226409418380000e-003) (22, 3.19157474074195150000e+000) (23, -7.26680486292248100000e-002) (24, -1.26921611775008460000e-001) (25, 5.98481100226665040000e-002) (26, 8.83647321084554350000e-001) (27, -1.63581775939906910000e-001) (28, -2.60865939136532280000e-001) (29, -3.99489117280983490000e-002) (30, 2.26286945303302470000e+000) (31, -4.23407846389524670000e-002) (0, -8.61601929342767080000e-002) (1, -1.71319177258359930000e-001) (2, -2.79247674133955790000e-001) (3, 3.55135441311827560000e-001) (4, 4.34479632939102840000e-002) (5, -2.20623377211799750000e-001) (6, -4.05560023428266410000e-001) (7, 3.42464542685516460000e-001) (8, -4.50835321659367740000e-002) (9, 3.37421015011027890000e-001) (10, 6.24177785141735830000e-001) (11, -7.25854801998524810000e-001) (12, 5.01862446443184920000e-002) (13, 2.78188418680852590000e-001) (14, -4.51464354916615460000e-001) (15, 4.87080188389957200000e-001) (16, -3.64404955977699840000e-001) (17, 7.18842253091314110000e-002) (18, 5.15352099926357000000e-001) (19, 1.89534852906686540000e-001) (20, -5.99455929342737340000e-002) (21, -2.46758659977956730000e-001) (22, 3.31630802289706150000e-001) (23, 2.33362941984459450000e-001) (24, -2.90308218245150570000e-001) (25, -3.46056757160738640000e-001) (26, 3.91426445270575960000e-001) (27, -2.39251307176877540000e-001) (28, -2.93759969923020390000e-001) (29, -3.79540644378437430000e-001) (30, 4.39442803407950330000e-001) (31, 2.94783877912519200000e-001) (0, 5.87219215100044600000e-001) (1, -3.45666132154917870000e-001) (2, -6.56454451232929670000e-001) (3, -3.14160876568571400000e-002) (4, 1.69293921971529320000e-001) (5, -2.15238643679718290000e-001) (6, 4.69898319872369190000e-001) (7, 1.11625906662134640000e-001) (8, 1.08147783244420870000e+000) (9, 1.31016776091706090000e-001) (10, 3.82590049959155850000e-001) (11, -1.82477514343883350000e-001) (12, 7.98878837398186880000e-001) (13, 1.12614676208118450000e-001) (14, -6.84463484853421790000e-001) (15, 1.26774832669121210000e-001) (16, -6.91265761938894220000e-001) (17, -1.43060855789917980000e-001) (18, 7.55421154804024160000e-001) (19, 1.26933524077735890000e-001) (20, 1.15325517726377450000e+000) (21, -2.70721062678774380000e-001) (22, 2.44442984710454750000e-001) (23, 5.62242945084613090000e-002) (24, 4.70864467978192540000e-001) (25, -2.45679430235618350000e-002) (26, 7.69666760485050230000e-001) (27, -3.62073474938774740000e-002) (28, -1.93837399052334270000e-002) (29, -3.83430013648148810000e-003) (30, 1.54097427137719120000e+000) (31, 6.39576883309473520000e-004) (0, -2.23070915484356840000e-001) (1, 5.66650367137294890000e-001) (2, 2.20139343004449980000e-001) (3, 6.22784401176881940000e-001) (4, -2.91289910641524100000e-001) (5, 4.33747577615078370000e-001) (6, 1.37236777141992410000e+000) (7, -1.09915076100752060000e-001) (8, 2.76125430368861670000e-001) (9, 1.24878576268974490000e+000) (10, -2.39703768680505970000e-001) (11, 4.42810161701537250000e-001) (12, -6.63229353677633580000e-001) (13, 5.69008315460392660000e-001) (14, 1.16148271644887440000e+000) (15, -2.35031539492535470000e-001) (16, 2.71217706455990280000e+000) (17, 8.23644694660542910000e-001) (18, 4.14274264953111360000e-002) (19, 5.31469702550562140000e-001) (20, 5.07893176981344840000e-001) (21, 5.34661969710860770000e-001) (22, -8.19614148661940820000e-001) (23, -2.46428580332219980000e-002) (24, 5.77430531533157150000e-001) (25, 6.95381399484002350000e-001) (26, -1.81949263310922900000e-001) (27, 5.70324683598296470000e-001) (28, 4.98353381917315870000e-001) (29, 5.57165503714709410000e-001) (30, -5.80861814656306930000e-001) (31, 5.45428442992938580000e-001) (0, 4.79747727362268510000e-001) (1, -1.84906814221543150000e-001) (2, -6.95774354645772030000e-002) (3, -1.77484939110948590000e-001) (4, 2.33223818401452840000e-001) (5, -1.20484096350253550000e-001) (6, 1.53708504878963150000e+000) (7, -9.68779665314839920000e-002) (8, 4.49596359725478120000e-001) (9, -2.34803055199430070000e-001) (10, 8.35498983396144150000e-001) (11, -2.19379470985225760000e-001) (12, 3.72487056727092980000e-001) (13, -3.01947883642130210000e-002) (14, 7.26281545579308130000e-002) (15, -9.40242501193320060000e-002) (16, 5.87555630041241010000e-002) (17, -5.34585402367483420000e-002) (18, 3.89524950262382820000e-001) (19, -1.14300129327716150000e-001) (20, 3.52399808992621910000e-001) (21, 2.71355347557003450000e-002) (22, 3.20458743624835570000e+000) (23, 3.83487987281801030000e-002) (24, 7.11538155636167070000e-001) (25, -2.42606082716593020000e-003) (26, 9.06321881969306630000e-001) (27, -1.14789625676715650000e-001) (28, -2.23970186633617670000e-001) (29, -1.06330204945949740000e-002) (30, 2.14045123831822610000e+000) (31, -2.46405890626990030000e-002) (0, -2.81035514441653480000e-002) (1, 3.83409835301722070000e-001) (2, -6.91293318939569250000e-001) (3, 1.16079782608321520000e-001) (4, -1.80449575442806210000e-002) (5, 2.44135404104808760000e-002) (6, -3.09787967098641110000e+000) (7, 2.05239198843824520000e-001) (8, -4.48398862678340000000e-002) (9, 3.53572941288544500000e-001) (10, 1.97911642201850540000e-001) (11, 2.12763333324828480000e-002) (12, 1.16165024409624750000e+000) (13, 3.82134200517088630000e-001) (14, 4.67593390104746880000e-001) (15, 1.07358782044138130000e+000) (16, 6.88263816408281740000e-002) (17, 1.97464089635253080000e-001) (18, -9.40057218447757580000e-001) (19, 2.10915468459657530000e-001) (20, -1.50643963553665050000e-001) (21, -1.80785730133797560000e-001) (22, 1.08902048126364950000e-001) (23, 1.15358049741461510000e+000) (24, -2.28997935611863750000e+000) (25, -8.60724942635397380000e-003) (26, 6.62220998599248880000e-001) (27, 4.60631544610376090000e-001) (28, -1.08411322660375220000e-001) (29, -3.45501337230587240000e-001) (30, -1.56465482563755280000e-002) (31, 2.69086053055257620000e-001) (0, 2.51079298916395240000e-001) (1, 1.99007509297840110000e-001) (2, -7.12026961826649480000e-001) (3, 2.01340256077289480000e-001) (4, 7.36417824440924320000e-002) (5, 1.86995203294562540000e-001) (6, -4.50751026212605210000e-001) (7, 2.18051682107559150000e-001) (8, 3.53752640290097180000e-001) (9, 3.95124620613462600000e-001) (10, -7.53170970236988420000e-001) (11, 3.51045406016962490000e-001) (12, 3.86577347810473430000e-001) (13, 3.61843205083656030000e-001) (14, -6.96401961593818950000e-001) (15, 4.79377551556428970000e-001) (16, 1.53898284510707030000e-002) (17, -4.84677488100358490000e-002) (18, -3.36252067130451580000e-001) (19, 4.49238390951070490000e-001) (20, 1.18652544143141500000e+000) (21, 2.94936465805417940000e-001) (22, 7.72639172638717620000e-001) (23, 5.81513783547127350000e-001) (24, 3.62413529091029470000e-001) (25, 1.74465272604007290000e-001) (26, 4.44026543710628390000e-001) (27, 5.50196644408590620000e-001) (28, 3.46077696887458990000e-001) (29, 2.33126162149997650000e-001) (30, 1.39797399733469780000e+000) (31, 3.07930850764674360000e-001) (0, 8.14618147032608180000e-002) (1, 4.83913018914358170000e-001) (2, -5.37088756829354530000e-001) (3, 3.67360282802587200000e-001) (4, -1.42175971601007640000e-001) (5, 3.94827598969634540000e-001) (6, -1.30858634809645880000e+000) (7, 3.73860735915197250000e-001) (8, -1.30242977509006510000e-001) (9, 4.79327496230062820000e-001) (10, 1.87061558802450180000e-001) (11, 4.64924335892148270000e-001) (12, 3.92102179728713920000e-001) (13, 5.36506885397837860000e-001) (14, -2.09130313407999680000e+000) (15, 4.04483699732414770000e-001) (16, -3.30083737873528350000e-001) (17, 3.66604547203250810000e-001) (18, 4.85100413885535260000e-002) (19, 4.48770809767344010000e-001) (20, 4.11505256189717340000e-001) (21, 3.88557792884079710000e-001) (22, 3.98953421797835940000e-001) (23, 4.75685560163525310000e-001) (24, 9.40456623456302990000e-001) (25, 6.99298074192024500000e-001) (26, 5.08851457419210450000e-001) (27, 3.17685731176754300000e-001) (28, -1.15036420516968860000e-001) (29, 5.29742407602948440000e-001) (30, 1.59290421257629820000e+000) (31, 4.56123711859640240000e-001) (0, 5.19415387452419000000e-001) (1, -3.86054134170611200000e-002) (2, 8.30616743426052300000e-001) (3, -1.13745823866576390000e-001) (4, 6.70532204622754650000e-001) (5, 3.05969598526740270000e-001) (6, 5.85963673244176200000e-001) (7, -1.41185499301397480000e-001) (8, 5.13757428383733840000e-001) (9, -1.92852380704229660000e-001) (10, -1.08241425143499780000e-001) (11, -2.11798760480253830000e-002) (12, 2.01461892429200040000e-001) (13, -3.23241786944058200000e-001) (14, 5.17964404652783370000e-001) (15, -3.59319696811496840000e-001) (16, 5.85536028874399480000e-001) (17, -2.97779881596386520000e-001) (18, 1.92742065135574240000e-002) (19, -1.89305617205943110000e-001) (20, 4.98945451412224410000e-001) (21, 5.46605666985240380000e-001) (22, 4.47421238877144020000e-001) (23, -1.39873243422468350000e-001) (24, 5.49391008804546720000e-001) (25, -1.96027319233291170000e-001) (26, -4.81654793279206290000e-001) (27, -1.76787927339850660000e-001) (28, 1.02310044816256780000e+000) (29, -1.59502770832281760000e-001) (30, -4.52779060427049350000e-001) (31, -2.85473231693762870000e-001) (0, 4.11470599756877890000e-001) (1, -2.42937830669311020000e-001) (2, 1.65808365690692260000e+000) (3, -2.33878780676227970000e-001) (4, 9.84215986115741570000e-001) (5, 2.13893984129040870000e-001) (6, 6.43538136992727550000e-001) (7, 2.90893002558543920000e-002) (8, 6.08996041985518040000e-001) (9, -9.60822209141572870000e-002) (10, -2.50188927363056650000e-001) (11, 2.48746288653049930000e-001) (12, -4.26723989446041510000e-001) (13, -1.71947839377102730000e-001) (14, 9.41286066082719920000e-001) (15, -7.56232873918242510000e-002) (16, 1.54070397927873760000e+000) (17, -8.55175869295220910000e-002) (18, -2.28718721860626360000e-001) (19, -1.87584425774045350000e-001) (20, 1.11918840362381730000e+000) (21, 5.15801223166843400000e-001) (22, -1.31635118128840340000e+000) (23, -1.21361280255993600000e-001) (24, 5.69418729355976040000e-001) (25, 3.37159330249896080000e-001) (26, -1.75394091421891770000e+000) (27, -4.87302477969690890000e-001) (28, 6.05610492064157290000e-001) (29, 3.93081552091503750000e-001) (30, -1.87584033009786060000e+000) (31, 1.83270481374795120000e-002) (0, -3.08957888961271990000e+000) (1, 4.08412226682131620000e-001) (2, 1.18768784214048790000e+000) (3, 4.40583858020901280000e-001) (4, -1.15859528028778540000e-001) (5, -2.26908162286225850000e-001) (6, 1.05784164879937890000e+000) (7, 3.02653645092928970000e-001) (8, -1.76236195605404350000e-001) (9, 2.33058896375222560000e-001) (10, 2.87217920258735550000e-001) (11, -2.52964762094516400000e-001) (12, -9.60668791020518940000e-001) (13, -2.29342267835543760000e-002) (14, 7.27780993849281850000e-001) (15, 7.13230695556846960000e-002) (16, 3.65268995387420590000e-003) (17, 6.83311783881826670000e-001) (18, 5.30028322888008270000e-001) (19, 4.53096065238597690000e-001) (20, 5.26624404882518050000e-002) (21, 9.31072529056549550000e-002) (22, 1.29141051557377820000e-001) (23, 3.41288899574889120000e-001) (24, 2.22772982036261170000e-002) (25, 4.27344778859388540000e-001) (26, 1.79646601069740900000e-001) (27, 9.34354038567382080000e-002) (28, -3.62323771014915960000e-002) (29, 4.31703242654194800000e-001) (30, -7.21832168644369170000e-001) (31, 2.51570399569307990000e-001) (0, 5.61554830145170740000e-002) (1, 3.95471552985423300000e-001) (2, 4.65632434164110760000e-001) (3, -1.26300727223823070000e-001) (4, 5.59008765460926150000e-001) (5, 2.92092227481785480000e-001) (6, 3.04839846907720880000e+000) (7, -2.21019484866016550000e-001) (8, 6.02038551258369910000e-001) (9, -2.09728601658829950000e-001) (10, -5.11026998122900760000e-001) (11, 3.45248299425607750000e-001) (12, 3.91542412069179000000e-001) (13, -3.17486171623917850000e-001) (14, 8.53624127277798910000e-001) (15, -1.70295365187093370000e-002) (16, 6.86151101339869340000e-001) (17, -3.64875446211562480000e-002) (18, -4.60578855194028520000e-001) (19, -1.92371336006505720000e-001) (20, 5.68493628883511630000e-001) (21, 3.59796503625698650000e-001) (22, -2.98333367777729730000e-001) (23, -8.78669399180188880000e-002) (24, 1.77780943935760630000e-001) (25, 3.64955998098790260000e-001) (26, -1.08248212799139990000e+000) (27, 4.36901075506764550000e-001) (28, -3.74064609759985340000e-001) (29, 3.60452157074037880000e-001) (30, -2.19019331735126670000e-001) (31, 3.93298701390545290000e-001) (0, 5.17983609305322500000e-001) (1, 1.95821593675875930000e-001) (2, -3.02043216006672830000e+000) (3, 5.83267606515465390000e-001) (4, -2.98816318389476590000e-001) (5, -1.63936067950194440000e-001) (6, -4.24459585115424250000e-001) (7, 7.55203644233761850000e-001) (8, 1.78170592595443040000e-001) (9, 5.55636128999533960000e-001) (10, -7.35348878554403230000e-002) (11, -7.76104562207256540000e-002) (12, 9.98330159474935860000e-001) (13, -1.71558679314236460000e-001) (14, -3.06434695564298480000e+000) (15, 1.42973596004706050000e+000) (16, -2.62244052219507360000e-001) (17, 6.31665380456464250000e-003) (18, 5.57759792001645940000e-001) (19, 6.60739531498011900000e-001) (20, 4.68081264811719580000e-001) (21, -7.49400255307563490000e-002) (22, 7.33424964121521470000e-001) (23, 6.82046904862391500000e-001) (24, -8.96374787322465060000e-002) (25, -6.09966864419111900000e-002) (26, 3.19262454544509480000e+000) (27, 5.03509316480535100000e-001) (28, -2.69406899841693750000e-001) (29, -2.00745691467906830000e-001) (30, 3.14925906628327380000e+000) (31, -1.84528650210629090000e-001) (0, 1.52175719161214250000e-001) (1, 3.05353143439429380000e-001) (2, 1.96964340384624680000e-002) (3, 1.24692305716396080000e-001) (4, -8.34751407497941470000e-002) (5, 3.04683129109071640000e-001) (6, 1.54690515124614230000e+000) (7, 2.55136643597668130000e-001) (8, 1.19153642783420950000e+000) (9, -5.22929812501390810000e-001) (10, 5.95089698108825500000e-001) (11, 3.71697217113276360000e-001) (12, 8.87174662624876240000e-002) (13, 7.84427728044761190000e-002) (14, 5.32083854936436710000e-002) (15, -1.87329819991141410000e-002) (16, -1.05403427092739800000e+000) (17, 1.24569772969207240000e-001) (18, 3.70690719968092000000e-002) (19, 4.99397083104743230000e-001) (20, 6.28790260641376220000e-001) (21, 1.96401308087129690000e-001) (22, 3.14002919507235690000e-001) (23, 8.13341581638774290000e-002) (24, 4.79602863160892120000e-001) (25, 3.91395748415104440000e-001) (26, 4.49188465628527160000e-001) (27, 5.41950794676342880000e-001) (28, 5.04810383067763490000e-001) (29, 1.99392030787944930000e-001) (30, 9.40996677006680880000e-001) (31, 3.56295109297857960000e-001) (0, 5.59894612244650420000e-001) (1, 3.74434257517372640000e-001) (2, -1.82762255594185970000e+000) (3, 4.33596735701512140000e-001) (4, 6.53369955434416670000e-001) (5, -7.39515977816528470000e-002) (6, 4.57580016761123950000e-002) (7, -3.76139805103408160000e-001) (8, 7.07263999206250380000e-001) (9, 4.83129986521099340000e-001) (10, 1.06784128172930480000e-001) (11, -2.21260223333963340000e-001) (12, 9.27371194048756010000e-001) (13, 3.48250175095949410000e-001) (14, -3.20102298307024120000e+000) (15, 3.09439881444506570000e-001) (16, 8.85811847251407380000e-001) (17, 3.70772974689374260000e-001) (18, 1.81246278564427150000e-001) (19, 3.34726618614828280000e-001) (20, 1.00246223961463370000e+000) (21, 2.66976856460107660000e-001) (22, 2.42498763357345220000e-001) (23, 3.82451084853934250000e-001) (24, 1.00893806978925600000e+000) (25, 9.08794842413753970000e-001) (26, 4.04011339495885020000e-001) (27, 2.23746520792576120000e-001) (28, -1.69516401797533830000e-001) (29, 5.68214858417319220000e-001) (30, 2.28268756856271260000e+000) (31, 2.79904968895027080000e-001) (0, 3.43404484105772680000e-001) (1, -6.10076046688489420000e-002) (2, 1.12342729595992940000e+000) (3, 2.31110489283666560000e-002) (4, 3.55074406154668070000e-001) (5, 9.03266890992998840000e-001) (6, -7.67733389139446530000e-002) (7, -8.68254761473152000000e-002) (8, -5.02071314563068420000e-002) (9, -1.55608266478891870000e-002) (10, 6.17926253735107340000e-001) (11, 3.43172050020279450000e-001) (12, -9.34505403038088380000e-002) (13, 5.22248188934456150000e-002) (14, 1.12685747179229300000e+000) (15, -2.36838180144456510000e-001) (16, 4.92313465879419540000e-002) (17, 1.37674517636871000000e-002) (18, -1.81457116862552000000e-001) (19, 8.19001123043919530000e-002) (20, -2.89923387097336670000e-001) (21, 5.39074683132635180000e-001) (22, 2.83063712524711740000e-001) (23, -8.38347534464999600000e-002) (24, 2.31994588637807700000e-001) (25, -9.36736207806105200000e-002) (26, -2.12470147209008270000e-002) (27, -9.75493532602384330000e-002) (28, 4.85994317773496940000e-001) (29, 2.74262345395429250000e-002) (30, -4.00571494952136120000e-001) (31, -3.03923698376463990000e-002) (0, -5.35918330739703350000e-002) (1, 2.97292422871774430000e-001) (2, 3.52909166927133640000e-002) (3, 3.38623407607069940000e-001) (4, 4.67232795048330360000e-003) (5, 1.41769508727214170000e-001) (6, -6.40719796686335390000e-001) (7, 1.98665712417746940000e-001) (8, -1.84286038000133630000e-001) (9, 3.33252313777034400000e-001) (10, -1.82124482885068110000e-001) (11, 3.57960717793594560000e-001) (12, -1.58574406150025630000e-001) (13, 2.91909122010307000000e-001) (14, -5.15935148218330530000e-002) (15, 3.13405704361881030000e-001) (16, 1.90660725285068470000e-001) (17, 9.21601329879768870000e-002) (18, -6.43317517635184080000e-002) (19, 2.36275576259427580000e-001) (20, -2.57245799388380460000e-002) (21, 2.95837762438264150000e-001) (22, 4.98664189441639040000e-001) (23, 4.03809721868064300000e-001) (24, -9.15756741617688500000e-001) (25, 2.89601993069678100000e-001) (26, 4.76509454350911470000e-001) (27, 3.75389844121425790000e-001) (28, -2.78045253067452370000e-001) (29, 3.32680606992849460000e-001) (30, 4.72340753116917980000e-001) (31, 3.96673945581465350000e-001) (0, 1.94772155342825600000e-001) (1, 5.73884417372651940000e-001) (2, -3.18301481697449760000e-001) (3, -1.64889759889454310000e-001) (4, 4.66555385882732210000e-001) (5, 3.43995873835502180000e-001) (6, 1.98940490206726110000e-001) (7, -3.07376334278294640000e-001) (8, 2.38933997609833140000e-003) (9, -1.01331090369510120000e-001) (10, -1.01414169220795230000e+000) (11, 4.39141065774518000000e-001) (12, 6.44454558455511250000e-001) (13, 5.15107532557597110000e-001) (14, 6.15848623970236820000e-002) (15, 1.77213058452141280000e-001) (16, -7.34406108380008250000e-002) (17, 8.94925349829875650000e-002) (18, -7.23060212661962020000e-002) (19, 5.97582301079960520000e-002) (20, 2.13377882338975340000e-001) (21, -2.75982264755461450000e-001) (22, -1.47412054350125780000e-001) (23, 1.25894698312438130000e-001) (24, 6.27592139225545270000e-002) (25, 7.28053982666905690000e-001) (26, 2.35137363194065360000e-001) (27, 1.42995953749000590000e-001) (28, 2.61260817695279420000e-001) (29, 8.63939726923995400000e-002) (30, 4.10967465373926200000e-001) (31, 3.89820665456302510000e-001) (0, -4.34100133293493780000e-002) (1, 5.33974054816575890000e-001) (2, -5.79414804501569010000e-001) (3, 4.03902031393976680000e-001) (4, -1.72956001356540820000e-001) (5, 2.32388232897821980000e-001) (6, -1.32587150460402770000e+000) (7, 3.75099749605534990000e-001) (8, 2.93377904890523570000e-002) (9, 4.82556256043800090000e-001) (10, 3.45591151237367030000e-002) (11, 3.72133232092459690000e-001) (12, 4.64538704245602290000e-001) (13, 5.28273242697022030000e-001) (14, -2.04696109240362390000e+000) (15, 5.61507094645490760000e-001) (16, -3.14337824508204920000e-002) (17, 3.85000543571122510000e-001) (18, -4.83556032617800780000e-001) (19, 3.54605769301675700000e-001) (20, 2.77241849549628330000e-001) (21, 3.41096854676856630000e-001) (22, 3.61654837257668730000e-001) (23, 4.85994398207763970000e-001) (24, 9.36153644876558610000e-001) (25, 6.66632058080262930000e-001) (26, 6.40406635160785220000e-001) (27, 3.31748231386301880000e-001) (28, -1.37611542768648620000e-001) (29, 5.40107959670248050000e-001) (30, 1.58880265001518020000e+000) (31, 4.11665703384664410000e-001) (0, -1.59829250526324100000e-001) (1, 4.45537521774371730000e-001) (2, 7.39339383225696260000e-001) (3, 4.16472608405481670000e-001) (4, -1.59941762637215990000e-002) (5, 2.66140848471116580000e-001) (6, -3.15796267969421770000e+000) (7, 2.93152981937900400000e-001) (8, -2.13497464216667760000e-001) (9, 4.70946486170330690000e-001) (10, 5.60426563488643730000e-001) (11, 2.57748514361686050000e-001) (12, 1.74892170150037880000e-001) (13, 2.06525016966775530000e-001) (14, 1.05361528320089940000e+000) (15, 5.59556558807864370000e-001) (16, -1.32125392691629460000e-001) (17, 1.53085886836973860000e-001) (18, 5.73250050007853560000e-001) (19, 2.83205508599363050000e-001) (20, -2.28972911197428350000e+000) (21, 2.94110467490650450000e-001) (22, 1.38846947809040110000e-001) (23, 3.09077054440812570000e-001) (24, -5.24414579963129900000e-001) (25, 3.88141230610567990000e-001) (26, 7.15813361992443940000e-002) (27, 4.83629591828073690000e-001) (28, -5.79645417272954600000e-001) (29, 2.78664492906696650000e-001) (30, -4.97938973209359480000e-001) (31, 5.54576858510270390000e-001) (32, 6.95542185209975240000e-002) (33, 2.70809268180269680000e-001) (34, 9.21422903958879490000e-003) (35, -2.61841529198374330000e-001) (36, 2.94953263672497950000e-002) (37, -3.27264032271330220000e-001) (38, -3.28863153388908980000e-001) (39, -2.51444882186180260000e-002) (40, -2.79413297061226470000e-001) (41, -2.63213248551081020000e-002) (42, 2.34743593814724260000e-001) (43, -3.93542109430825520000e-001) (44, 4.31733050866925580000e-002) (45, 4.12520195584897330000e-001) (46, -3.77837273696612070000e-002) (47, 3.08628504670030610000e-001) (48, 5.10249043598789090000e-001) (49, -2.58825310548388860000e-001) (50, -4.58708856932942550000e-002) (51, 3.43615012139302930000e-002) (52, 3.45259952883421320000e-001) (53, -2.45983513482031150000e-001) (54, 6.38958717824148040000e-001) (55, 1.79642755682867250000e-001) (56, 2.44600771695982660000e-001) (57, 2.75691493678740300000e-001) (58, 8.96776641475803550000e-002) (59, 3.56472111253620490000e-001) (60, 7.81481229601518060000e-002) (61, -1.59382752535206280000e-001) (62, 3.26119327598203780000e-001) (63, 1.81606385991668170000e-001) (64, -2.23174675251527980000e-001) (65, 1.96926210438701340000e-001) (66, 3.25118351020788070000e-001) (32, 1.40956208870888420000e-001) (33, 2.92751407179108030000e-001) (34, -4.60539911647727400000e-002) (35, -5.07453061760846230000e-002) (36, -8.23027710017966430000e-002) (37, -2.98040399023364160000e-001) (38, 3.30483341335107650000e-001) (39, 4.76440533296418720000e-001) (40, 2.52809602581702490000e-001) (41, -2.13835806409049810000e-002) (42, 3.63027287132550220000e-001) (43, -2.33727653924404620000e-001) (44, -9.20134645058722640000e-002) (45, 5.14863818669081040000e-001) (46, -4.61760614790917290000e-002) (47, 2.85123216310127880000e-001) (48, 5.29756397015997750000e-001) (49, -3.79973993994269840000e-001) (50, -8.59038452742068300000e-002) (51, 5.43476673605330250000e-001) (52, 2.78676699938128550000e-001) (53, -2.21606071712528970000e-001) (54, 5.61596656124488720000e-001) (55, 1.17635543367438630000e-001) (56, -2.38036736019864940000e-001) (57, -3.81563949791323550000e-002) (58, 5.06334741126515940000e-002) (59, 2.03316591393300440000e-001) (60, -2.42107781002403240000e-001) (61, -1.38459900660931500000e-001) (62, 3.67177677819395860000e-001) (63, 1.01207205335008890000e-001) (64, -2.32976921491342830000e-001) (65, 3.67458439542329540000e-001) (66, 2.45681093977705710000e-001) (32, 3.54792308601039050000e-002) (33, 3.18013731625523320000e-001) (34, 4.11043841688691070000e-001) (35, 6.37112823200642890000e-002) (36, -1.39095612359398190000e-001) (37, 3.79140441520757270000e-001) (38, 3.13436094838561220000e-001) (39, 1.18662941297653720000e-002) (40, -1.99852273028075750000e-002) (41, -1.30086823162656770000e-001) (42, 3.40023009297237110000e-001) (43, -3.11666058294090160000e-001) (44, -1.19912262464168990000e-001) (45, -7.79741241363007680000e-002) (46, -1.53786774687688560000e-001) (47, 2.55110898656948030000e-001) (48, -1.24744249497535780000e-001) (49, 1.84074511108555220000e-001) (50, -1.52810212173136640000e-001) (51, 2.77358213441583900000e-001) (52, -3.38704632915746320000e-001) (53, -3.52547406559519720000e-001) (54, 6.96573272266351240000e-001) (55, 7.34329620485214660000e-001) (56, 3.03078428668594970000e-001) (57, 5.06978804495800350000e-001) (58, -4.31508589376758010000e-001) (59, -2.78615520692223780000e-001) (60, -3.80373334708533350000e-001) (61, -1.76783742220153540000e-002) (62, 3.57595031043455640000e-001) (63, 1.92118268609857480000e-001) (64, -3.77327680366274560000e-001) (65, 3.89168517842062240000e-001) (66, 3.93886535490491190000e-001) 
