FANN_FLO_2.1
num_layers=3
learning_rate=0.700000
connection_rate=1.000000
network_type=0
learning_momentum=0.000000
training_algorithm=2
train_error_function=1
train_stop_function=0
cascade_output_change_fraction=0.010000
quickprop_decay=-0.000100
quickprop_mu=1.750000
rprop_increase_factor=1.200000
rprop_decrease_factor=0.500000
rprop_delta_min=0.000000
rprop_delta_max=50.000000
rprop_delta_zero=0.100000
cascade_output_stagnation_epochs=12
cascade_candidate_change_fraction=0.010000
cascade_candidate_stagnation_epochs=12
cascade_max_out_epochs=150
cascade_max_cand_epochs=150
cascade_num_candidate_groups=2
bit_fail_limit=3.49999999999999980000e-001
cascade_candidate_limit=1.00000000000000000000e+003
cascade_weight_multiplier=4.00000000000000020000e-001
cascade_activation_functions_count=10
cascade_activation_functions=3 5 7 8 10 11 14 15 16 17 
cascade_activation_steepnesses_count=4
cascade_activation_steepnesses=2.50000000000000000000e-001 5.00000000000000000000e-001 7.50000000000000000000e-001 1.00000000000000000000e+000 
layer_sizes=34 10 4 
scale_included=0
neurons (num_inputs, activation_function, activation_steepness)=(0, 0, 0.00000000000000000000e+000) (0, 0, 0.00000000000000000000e+000) (0, 0, 0.00000000000000000000e+000) (0, 0, 0.00000000000000000000e+000) (0, 0, 0.00000000000000000000e+000) (0, 0, 0.00000000000000000000e+000) (0, 0, 0.00000000000000000000e+000) (0, 0, 0.00000000000000000000e+000) (0, 0, 0.00000000000000000000e+000) (0, 0, 0.00000000000000000000e+000) (0, 0, 0.00000000000000000000e+000) (0, 0, 0.00000000000000000000e+000) (0, 0, 0.00000000000000000000e+000) (0, 0, 0.00000000000000000000e+000) (0, 0, 0.00000000000000000000e+000) (0, 0, 0.00000000000000000000e+000) (0, 0, 0.00000000000000000000e+000) (0, 0, 0.00000000000000000000e+000) (0, 0, 0.00000000000000000000e+000) (0, 0, 0.00000000000000000000e+000) (0, 0, 0.00000000000000000000e+000) (0, 0, 0.00000000000000000000e+000) (0, 0, 0.00000000000000000000e+000) (0, 0, 0.00000000000000000000e+000) (0, 0, 0.00000000000000000000e+000) (0, 0, 0.00000000000000000000e+000) (0, 0, 0.00000000000000000000e+000) (0, 0, 0.00000000000000000000e+000) (0, 0, 0.00000000000000000000e+000) (0, 0, 0.00000000000000000000e+000) (0, 0, 0.00000000000000000000e+000) (0, 0, 0.00000000000000000000e+000) (0, 0, 0.00000000000000000000e+000) (0, 0, 0.00000000000000000000e+000) (34, 5, 5.00000000000000000000e-001) (34, 5, 5.00000000000000000000e-001) (34, 5, 5.00000000000000000000e-001) (34, 5, 5.00000000000000000000e-001) (34, 5, 5.00000000000000000000e-001) (34, 5, 5.00000000000000000000e-001) (34, 5, 5.00000000000000000000e-001) (34, 5, 5.00000000000000000000e-001) (34, 5, 5.00000000000000000000e-001) (0, 5, 0.00000000000000000000e+000) (10, 5, 5.00000000000000000000e-001) (10, 5, 5.00000000000000000000e-001) (10, 5, 5.00000000000000000000e-001) (0, 5, 0.00000000000000000000e+000) 
connections (connected_to_neuron, weight)=(0, 3.51251927977685340000e+000) (1, 6.83003750756169810000e-002) (2, 1.86307847803296230000e+001) (3, 3.32527611412558470000e+000) (4, 1.49427047516493650000e+000) (5, 1.52930892521418500000e-001) (6, 5.36955281758654920000e+000) (7, 6.17266972246301000000e-001) (8, -1.36286658388941780000e+000) (9, -1.24866707771939980000e+000) (10, 2.83857649103479880000e+000) (11, 2.78270708653739000000e-002) (12, 9.74486003923937670000e-002) (13, -1.22569399064343720000e+000) (14, 4.00536343268965390000e+000) (15, -1.49961195787696800000e+000) (16, -3.32989739481014510000e-001) (17, -2.28312796869898260000e-002) (18, 6.36162384537885560000e+000) (19, 7.00763536085472700000e-001) (20, 6.29181440054098210000e-002) (21, -1.08956408649577520000e+000) (22, -6.57293318305981700000e-001) (23, -5.34551896285056620000e-001) (24, -1.93740291343559400000e+001) (25, -2.21035850378088080000e+000) (26, -1.96086315997269980000e+000) (27, -2.66303599576367070000e-001) (28, -1.07269131907383570000e-001) (29, 1.67238108270389510000e-001) (30, -1.37689439378244370000e+001) (31, 1.09081271160641270000e-001) (32, 9.23091872094468970000e+000) (33, -6.21626519545405040000e-001) (0, 4.58487845756691300000e+000) (1, 2.00075349879144410000e-001) (2, -9.76612676540803550000e+000) (3, -5.37382930956042610000e-001) (4, 1.06985634053273190000e+000) (5, 2.20753258529335420000e-001) (6, 6.57127625425863670000e-001) (7, 1.99786736028184250000e-001) (8, -2.44669475414516710000e+000) (9, 8.22584178910259030000e-001) (10, 7.02242208042958450000e+000) (11, 4.29766057785356260000e-001) (12, 1.26749748372392430000e+000) (13, 7.63248599907758280000e-001) (14, 1.59451091242888960000e+000) (15, 4.40333987247952700000e-001) (16, 8.45340478220103010000e+000) (17, -5.07514736313781190000e-001) (18, 3.42533354880775010000e+000) (19, -4.17716924376740790000e-001) (20, -6.72775264011238150000e+000) (21, -2.59033036270735370000e-001) (22, -6.03604599066697210000e+000) (23, -4.08322000593172140000e-001) (24, 4.57069159073475980000e+000) (25, -3.95374367191228700000e-001) (26, 4.90987856300851270000e+000) (27, -1.14651835979412440000e-002) (28, -7.07246920277396330000e-001) (29, -1.15568715513030070000e+000) (30, -1.69427230927424470000e+000) (31, -1.95572843516158490000e-002) (32, -5.61224555823020040000e+000) (33, -2.53514401711487650000e-001) (0, 7.62054948180796550000e+000) (1, -3.87154370533578510000e-002) (2, 6.63486115274312890000e-001) (3, -2.72219563383351240000e-001) (4, -3.80775837001060010000e+000) (5, 7.70186218930150320000e-002) (6, 1.79511484093803350000e+000) (7, -3.50159580194213340000e-001) (8, 4.88417914284006650000e+000) (9, -6.93877754303501290000e-001) (10, 1.12939439748364290000e+001) (11, 8.33059466428773930000e-001) (12, -3.96783220719560740000e+000) (13, -1.95159258825589990000e-001) (14, -1.73106304692938620000e+000) (15, -1.19281129867914080000e+000) (16, -1.46641181700930260000e+000) (17, -1.67059957758249190000e-001) (18, -1.03883166544792630000e+001) (19, -1.18578888102380260000e-001) (20, -1.43213851375769070000e+000) (21, -4.13443099253401240000e+000) (22, 8.74216705647265970000e+000) (23, 7.11041543541838790000e-002) (24, 1.31156273042209580000e+001) (25, 6.92674599837380780000e-001) (26, 1.64753154622519130000e-001) (27, -1.23710828449566430000e-001) (28, -1.74907762381777570000e+000) (29, -1.81772529004667950000e-001) (30, 1.30299460585335150000e+001) (31, 7.41266378064985990000e-002) (32, 7.37215736969133580000e+000) (33, -1.75744416108577580000e-001) (0, -1.27811014813675250000e+001) (1, -3.56809306858656750000e-001) (2, 2.36422121170311520000e+000) (3, -1.23118430912384660000e+000) (4, 7.35680051627370980000e+000) (5, -1.06243921005759460000e+000) (6, -7.91513726078139630000e-001) (7, 2.00818604265596970000e-001) (8, -7.92943362973469320000e+000) (9, 9.01062652058903900000e-001) (10, 1.48029955780559460000e+000) (11, 1.85908213344931020000e-001) (12, 4.95218008781849490000e+000) (13, 2.25649217486561110000e-002) (14, 9.35244022152757460000e+000) (15, 2.73511663958450830000e-001) (16, -1.56044760305726240000e+001) (17, 6.20074567430290320000e-001) (18, -2.62653187517775420000e+001) (19, 7.51616962294260200000e-002) (20, 1.17907668418201030000e+001) (21, -2.89768382628676270000e-001) (22, 1.47846234245313250000e+000) (23, -1.44020434702068520000e-001) (24, 1.90084978876724190000e+001) (25, 6.03907092982287290000e-001) (26, 1.86453064235760780000e+000) (27, -3.05505275952764390000e-001) (28, -1.70587429367328340000e+000) (29, -4.74378322483116400000e-001) (30, 6.38828144038826730000e+000) (31, -4.63721286072030730000e-001) (32, -2.24146493446027220000e+001) (33, -3.18932926648672950000e-001) (0, 1.31144477546457480000e+000) (1, 5.11850509242454230000e-001) (2, -4.45471745960904550000e-001) (3, -1.56569676845295050000e-001) (4, -4.75578983411809290000e+000) (5, 4.63496614546073990000e-001) (6, -6.14119454331068670000e+000) (7, 2.08952998690930030000e+000) (8, 1.84011956942567780000e-001) (9, -4.14455066788054220000e-001) (10, 2.77705158096506110000e+000) (11, 9.75726947502377650000e-001) (12, 2.22307680163212850000e+000) (13, 1.22535245661769520000e+000) (14, 1.54251443004201240000e-001) (15, 6.96328683506836410000e-001) (16, 9.52678794618754130000e+000) (17, 4.80054686863485010000e-001) (18, 3.99760215285181520000e-001) (19, 2.12617701676360580000e+000) (20, 2.05028898267091450000e+000) (21, 1.57716148536288550000e+000) (22, 2.18898539446609170000e+001) (23, 9.13812785915721240000e-001) (24, 8.34404520057790400000e+000) (25, 4.02932577539690470000e-001) (26, -2.17323930194858730000e+001) (27, 6.90700551858952630000e-001) (28, -7.26018335064600870000e+000) (29, 6.56898927238470320000e-001) (30, -3.39344257291833150000e-001) (31, 2.64774760934382950000e+000) (32, -1.15528446392868520000e+000) (33, 6.61730284111107010000e-001) (0, 1.94690078773806420000e+000) (1, -1.11727008833613440000e-001) (2, 2.43037009687913170000e+000) (3, -1.45573383007642620000e+000) (4, -1.00767264820762330000e+000) (5, -8.15950126314637920000e-001) (6, 1.93093214509916610000e+001) (7, -6.65808055263929060000e-001) (8, 8.65202487285436560000e+000) (9, 5.05991030407920590000e-001) (10, 1.18681172030163160000e+001) (11, 1.79526653465923760000e-002) (12, -9.48793510299728030000e-002) (13, -1.51325161690816510000e+000) (14, 3.50721916146267350000e-001) (15, -1.29976753125121940000e-001) (16, 2.68704939606549220000e-002) (17, 5.78818753078574440000e-001) (18, 1.23310425246224990000e-002) (19, 2.56950604643193910000e-001) (20, -1.19471970187606650000e+001) (21, -1.15970961843953600000e-001) (22, 4.76633280232572680000e-001) (23, -8.33192629899501710000e-001) (24, -6.40872734541645880000e+000) (25, 2.83737107133869900000e-001) (26, 9.78138409604063620000e-001) (27, -1.62935610762256680000e-001) (28, 2.10824008377850540000e+000) (29, -9.09516145283926660000e-001) (30, -6.79349975340717020000e+000) (31, -3.16199711238073280000e-001) (32, -5.88572235779138440000e+000) (33, 2.31477313140050630000e-001) (0, 7.06620767954708210000e+000) (1, 2.42146106080615740000e-001) (2, 5.46851859023509680000e+000) (3, -2.46941793678282820000e+000) (4, -1.20795965466464420000e+001) (5, -1.11046769995212140000e-001) (6, -1.49327542877446740000e+000) (7, -1.20038705467589210000e+000) (8, 1.46714657836223620000e-001) (9, 7.79276499346190640000e-002) (10, 4.68823762159430580000e+000) (11, 1.48064673367613330000e+000) (12, 3.50487668759194330000e+000) (13, -5.83047433289121340000e-001) (14, -8.53282142388029460000e+000) (15, 8.16373089735794260000e-001) (16, 8.42307721575894770000e+000) (17, -3.09995770809069900000e-002) (18, 1.56260557341593920000e+001) (19, 4.62867775175596850000e-001) (20, -4.49655802051962010000e+000) (21, 6.99530694738995980000e-001) (22, -7.60874579735701940000e-001) (23, -5.75364691937048090000e-001) (24, -1.07825005013109530000e+001) (25, -6.50081824487787400000e-001) (26, 2.70102146477082170000e+000) (27, 1.56640793181301020000e+000) (28, 1.68925963993708830000e+000) (29, -2.38372259647352790000e-001) (30, 4.52571710046835560000e+000) (31, 3.36521840765459550000e-001) (32, 9.87016531088463010000e+000) (33, -2.06364448325857750000e-002) (0, 1.11589849179531180000e+001) (1, 3.24791605345347620000e-001) (2, -2.78028763904089720000e+001) (3, 2.24074917896330770000e-001) (4, 6.81972301909110290000e-001) (5, 1.30013773588653910000e+000) (6, -1.12392294169688610000e+000) (7, -3.73292566858931170000e+000) (8, 9.36411377983226070000e+000) (9, 7.83056496148658130000e-001) (10, 8.87263396805596650000e+000) (11, 6.06849077212318480000e-002) (12, 8.40348571981385570000e-001) (13, 3.80444152115625210000e-001) (14, 3.01564035557099570000e+001) (15, -1.01315851800677770000e+000) (16, -7.75057972817821380000e+000) (17, -1.20364527518382960000e+000) (18, 8.22233022875032480000e+000) (19, -9.40380185370761960000e-001) (20, -7.00942036056302880000e+000) (21, -4.20443239401707520000e-001) (22, -7.48437536356070070000e+000) (23, -4.28313429292439930000e-001) (24, -7.60568273499206700000e+000) (25, 1.39252892394055250000e+000) (26, 1.10408212924490720000e+001) (27, -2.69483162687989050000e-001) (28, 4.87046911835636290000e+000) (29, -3.99363450593295610000e+000) (30, -8.20727303470464160000e+000) (31, -4.47234123298567100000e-001) (32, -5.35623116246205110000e+000) (33, -1.48292688850522340000e+000) (0, -5.39270803200412100000e+000) (1, 3.56974517094186080000e+000) (2, 1.67142581590414250000e+001) (3, 1.40881382335833280000e-001) (4, -1.09449955197379070000e+001) (5, 3.10587132369032480000e+000) (6, -2.51372903945567710000e+000) (7, -1.29897369518673300000e+000) (8, 3.32476407156865330000e+000) (9, -1.38645837687632320000e+000) (10, -5.97006972397937650000e-001) (11, 1.78191009660688840000e+000) (12, -1.80999432834914820000e+000) (13, 4.90831666278168030000e-002) (14, -5.33208557785426950000e+000) (15, 3.61088827417342990000e-001) (16, 3.74079744220213730000e+000) (17, 1.41020689520684440000e-001) (18, -5.21184327447068000000e+000) (19, -1.04359605571489210000e-001) (20, 1.71605036833360810000e+001) (21, 8.56043497769908070000e-001) (22, 1.57649640343449680000e+000) (23, 1.37126758960065610000e+000) (24, 6.21755370349185600000e-001) (25, 1.13968591328813610000e+000) (26, 6.35417201660642390000e+000) (27, 7.00005015055264910000e-001) (28, -5.97478888353166400000e+000) (29, 2.41529375995947060000e+000) (30, -1.14195443665871930000e+000) (31, 1.96716196296901070000e-002) (32, 9.46850321129596400000e+000) (33, -5.14839261873942590000e-002) (34, -1.74572625012765540000e+000) (35, -1.72238005883315330000e+000) (36, 7.91753537586925680000e-001) (37, -8.21350816049422390000e-001) (38, -1.05596538486231850000e+000) (39, -4.04927115354367430000e-001) (40, 1.30651566384622500000e+000) (41, -5.43987685524192970000e-001) (42, -1.36420229520511600000e+000) (43, 1.45926887181829070000e+000) (34, 1.21122467088447800000e+000) (35, 1.85999386591460150000e-001) (36, -9.06820586066726550000e-001) (37, 1.45533619444293220000e+000) (38, 1.09347735067934030000e+000) (39, -7.12702944367194720000e-001) (40, 1.53067996998266400000e-002) (41, 1.36657478742196490000e+000) (42, 7.44045977442327140000e-001) (43, 5.45369495879953980000e-001) (34, 4.04875143700865250000e-001) (35, 1.39977319438163690000e+000) (36, 1.10364768356804640000e-001) (37, -6.68443231654772260000e-001) (38, 9.09227366323876460000e-002) (39, 1.04825942346701750000e+000) (40, -1.12409919728711590000e+000) (41, -7.32894392845322100000e-001) (42, 4.27876279720223910000e-001) (43, 4.98744850924124290000e-001) 
