FANN_FLO_2.1
num_layers=3
learning_rate=0.700000
connection_rate=1.000000
network_type=0
learning_momentum=0.000000
training_algorithm=2
train_error_function=1
train_stop_function=0
cascade_output_change_fraction=0.010000
quickprop_decay=-0.000100
quickprop_mu=1.750000
rprop_increase_factor=1.200000
rprop_decrease_factor=0.500000
rprop_delta_min=0.000000
rprop_delta_max=50.000000
rprop_delta_zero=0.100000
cascade_output_stagnation_epochs=12
cascade_candidate_change_fraction=0.010000
cascade_candidate_stagnation_epochs=12
cascade_max_out_epochs=150
cascade_max_cand_epochs=150
cascade_num_candidate_groups=2
bit_fail_limit=3.49999999999999980000e-001
cascade_candidate_limit=1.00000000000000000000e+003
cascade_weight_multiplier=4.00000000000000020000e-001
cascade_activation_functions_count=10
cascade_activation_functions=3 5 7 8 10 11 14 15 16 17 
cascade_activation_steepnesses_count=4
cascade_activation_steepnesses=2.50000000000000000000e-001 5.00000000000000000000e-001 7.50000000000000000000e-001 1.00000000000000000000e+000 
layer_sizes=34 32 4 
scale_included=0
neurons (num_inputs, activation_function, activation_steepness)=(0, 0, 0.00000000000000000000e+000) (0, 0, 0.00000000000000000000e+000) (0, 0, 0.00000000000000000000e+000) (0, 0, 0.00000000000000000000e+000) (0, 0, 0.00000000000000000000e+000) (0, 0, 0.00000000000000000000e+000) (0, 0, 0.00000000000000000000e+000) (0, 0, 0.00000000000000000000e+000) (0, 0, 0.00000000000000000000e+000) (0, 0, 0.00000000000000000000e+000) (0, 0, 0.00000000000000000000e+000) (0, 0, 0.00000000000000000000e+000) (0, 0, 0.00000000000000000000e+000) (0, 0, 0.00000000000000000000e+000) (0, 0, 0.00000000000000000000e+000) (0, 0, 0.00000000000000000000e+000) (0, 0, 0.00000000000000000000e+000) (0, 0, 0.00000000000000000000e+000) (0, 0, 0.00000000000000000000e+000) (0, 0, 0.00000000000000000000e+000) (0, 0, 0.00000000000000000000e+000) (0, 0, 0.00000000000000000000e+000) (0, 0, 0.00000000000000000000e+000) (0, 0, 0.00000000000000000000e+000) (0, 0, 0.00000000000000000000e+000) (0, 0, 0.00000000000000000000e+000) (0, 0, 0.00000000000000000000e+000) (0, 0, 0.00000000000000000000e+000) (0, 0, 0.00000000000000000000e+000) (0, 0, 0.00000000000000000000e+000) (0, 0, 0.00000000000000000000e+000) (0, 0, 0.00000000000000000000e+000) (0, 0, 0.00000000000000000000e+000) (0, 0, 0.00000000000000000000e+000) (34, 5, 5.00000000000000000000e-001) (34, 5, 5.00000000000000000000e-001) (34, 5, 5.00000000000000000000e-001) (34, 5, 5.00000000000000000000e-001) (34, 5, 5.00000000000000000000e-001) (34, 5, 5.00000000000000000000e-001) (34, 5, 5.00000000000000000000e-001) (34, 5, 5.00000000000000000000e-001) (34, 5, 5.00000000000000000000e-001) (34, 5, 5.00000000000000000000e-001) (34, 5, 5.00000000000000000000e-001) (34, 5, 5.00000000000000000000e-001) (34, 5, 5.00000000000000000000e-001) (34, 5, 5.00000000000000000000e-001) (34, 5, 5.00000000000000000000e-001) (34, 5, 5.00000000000000000000e-001) (34, 5, 5.00000000000000000000e-001) (34, 5, 5.00000000000000000000e-001) (34, 5, 5.00000000000000000000e-001) (34, 5, 5.00000000000000000000e-001) (34, 5, 5.00000000000000000000e-001) (34, 5, 5.00000000000000000000e-001) (34, 5, 5.00000000000000000000e-001) (34, 5, 5.00000000000000000000e-001) (34, 5, 5.00000000000000000000e-001) (34, 5, 5.00000000000000000000e-001) (34, 5, 5.00000000000000000000e-001) (34, 5, 5.00000000000000000000e-001) (34, 5, 5.00000000000000000000e-001) (34, 5, 5.00000000000000000000e-001) (34, 5, 5.00000000000000000000e-001) (0, 5, 0.00000000000000000000e+000) (32, 5, 5.00000000000000000000e-001) (32, 5, 5.00000000000000000000e-001) (32, 5, 5.00000000000000000000e-001) (0, 5, 0.00000000000000000000e+000) 
connections (connected_to_neuron, weight)=(0, 9.04341620960997080000e+000) (1, 4.13565844490904890000e-001) (2, 2.52300041187431350000e+001) (3, 2.33676924704369690000e+000) (4, -1.88307985013203360000e+000) (5, 1.08590900700338140000e+000) (6, -1.74555623357536580000e+001) (7, 7.26693862111167820000e-001) (8, 2.90567128836016800000e+001) (9, -5.15819530156915450000e-002) (10, -9.43681790982387360000e-001) (11, -9.17578041595399240000e-001) (12, -1.18885842774832040000e+001) (13, -8.12602854495107050000e-001) (14, 1.24416509705933100000e+001) (15, 3.67200457340044920000e+000) (16, -4.15162929553976380000e+001) (17, 1.10131432509855800000e+000) (18, -3.11643036300081780000e-001) (19, -1.55495403925873470000e+000) (20, -6.77266006393756030000e+000) (21, 2.74717591474154310000e-001) (22, -1.12121399172086830000e+001) (23, 1.85802519808824520000e+000) (24, 2.83281902909923570000e+000) (25, -5.23428172821168710000e-001) (26, -6.08858874091966570000e+000) (27, 8.17198580326395250000e-001) (28, -1.49932712431541070000e+000) (29, 1.04810113710925880000e-001) (30, 2.70091413958504520000e+001) (31, 2.71820183175571330000e+000) (32, 2.45533298737213420000e+001) (33, -2.49011901909787170000e-001) (0, 1.01056980953592410000e+000) (1, -1.76349528053780150000e-001) (2, 1.10635444366786810000e+000) (3, -8.96877197146030980000e-002) (4, -4.08896879191878610000e-001) (5, -5.07718048948569840000e-002) (6, 2.68027712950409450000e-001) (7, -7.67880251010225470000e-002) (8, 5.52174855766942250000e-001) (9, -2.06116158862183520000e-002) (10, 2.11000898739150710000e-001) (11, -5.12791814602601630000e-002) (12, -2.38971777651054150000e-001) (13, 5.81662425306508500000e-002) (14, 3.34021634487036590000e-001) (15, -6.43521436880304180000e-003) (16, -1.92400959538624710000e+000) (17, 2.33232346016898630000e-002) (18, 2.48700110321278940000e-003) (19, 1.73233093737511020000e-002) (20, -1.70122422670008480000e+000) (21, -3.37055896401891940000e-002) (22, 1.01600883624182380000e+000) (23, -6.15398446018302000000e-002) (24, -6.61315107614323550000e-001) (25, -1.97512435948566680000e-001) (26, 1.00407442374148710000e+000) (27, -7.59436390731126480000e-002) (28, -3.98880243061696670000e+000) (29, -6.83502375976583270000e-003) (30, -4.66961697324070780000e-001) (31, -6.32538248936346250000e-002) (32, 1.35511425673706130000e-002) (33, -4.98960338205004170000e-002) (0, -2.73972442203195410000e+000) (1, 3.51991189689643490000e-001) (2, 1.49186946147751540000e+000) (3, 9.12496105847779070000e-001) (4, 7.75770430622217330000e+000) (5, 6.49446350987687440000e-001) (6, -5.93277318091080460000e+000) (7, 2.09993085405689770000e+000) (8, 1.46552399912867900000e+000) (9, -1.58404319035283650000e-001) (10, 8.17705737779144900000e-001) (11, 1.98205047631681760000e+000) (12, 1.44421362128083360000e+000) (13, 2.11593180250821940000e-001) (14, 1.24994589133274060000e+000) (15, 4.10432814779667370000e-001) (16, 7.23068663485751100000e+000) (17, -1.91040413525233820000e-001) (18, 1.34698768549478980000e+001) (19, 7.25391747250912930000e-001) (20, 1.63807715575203860000e+001) (21, -1.96544888517153600000e-001) (22, -1.80973675686952280000e+000) (23, 1.45586721446118370000e+000) (24, -7.04249175902021960000e-001) (25, 8.59203725775573250000e-001) (26, -1.73805501489048700000e+001) (27, -1.38969264786080820000e-001) (28, 1.45767053171568880000e-001) (29, 2.92308199005175820000e+000) (30, -3.45273899550377550000e+001) (31, 2.02895231199479970000e-001) (32, -2.21230277706207770000e+001) (33, 4.08904214219472930000e-001) (0, -6.66412667156525030000e-001) (1, -3.44714579063310430000e-001) (2, -3.19324168941320520000e+000) (3, -1.41612202486792380000e-001) (4, -3.99142171666675740000e+000) (5, 6.98807875648548990000e-002) (6, 1.98010527880302980000e+000) (7, 1.34172715564787020000e-001) (8, -1.78381611552028760000e+000) (9, -1.03189509144897340000e-001) (10, 4.10704554352249010000e-001) (11, 1.02700433295854530000e-001) (12, 4.44361330501510670000e-001) (13, -1.59694424227474680000e-001) (14, 4.31954416351129120000e+000) (15, 2.07163971470624900000e-001) (16, -1.29525833325155380000e-001) (17, 2.66282837413140740000e-001) (18, 8.25410762806091110000e+000) (19, 3.53320968061505030000e-003) (20, -5.61692806364847730000e+000) (21, -1.32850486909979550000e-001) (22, -9.83994786049871780000e-001) (23, 1.58668373998393950000e-001) (24, -4.08055767639169230000e-001) (25, 2.74081033631102950000e-002) (26, 8.74986231875137350000e-001) (27, -1.91140605813421850000e-001) (28, 1.70523961621707600000e-001) (29, -2.51783688710328910000e-001) (30, -7.03030787124764860000e-001) (31, -1.54286097427054130000e+000) (32, 1.29622979141613350000e+001) (33, 7.73141260382092380000e-002) (0, -3.58942989287160690000e+000) (1, -3.15442471488968300000e-002) (2, -5.49029572061958240000e-001) (3, -3.32429812170151740000e-002) (4, -1.43807865250296700000e+000) (5, -1.11086551094336410000e-001) (6, 4.08505068372847890000e-001) (7, -1.10490905146135990000e-001) (8, -7.68086127596782740000e+000) (9, 3.59659357486257840000e-002) (10, -1.06868164512464000000e-001) (11, -1.28157685905318810000e-001) (12, 2.27695429757005520000e-001) (13, 1.33589235501720470000e-001) (14, 1.13281405455072730000e-001) (15, -1.60049273138522800000e-001) (16, 1.72007400682917780000e-001) (17, 6.47648124142335830000e-002) (18, -9.28736674462268490000e-001) (19, -2.12338948509345620000e-001) (20, 1.24053840280565390000e+000) (21, 9.49793118995098250000e-002) (22, 3.48488637849848510000e-001) (23, -6.14367681632413610000e-002) (24, 8.16168013196726490000e-001) (25, -4.45350791562421420000e-002) (26, 7.34587780617830250000e-001) (27, -1.50696075209655470000e-001) (28, 3.06853072840550860000e-001) (29, 3.11977134154198710000e-002) (30, 2.82093377786585890000e-001) (31, 6.21037075534971170000e-002) (32, 4.24217367650385760000e+000) (33, -1.05168719312500190000e-002) (0, -2.32585148715770740000e+001) (1, -4.26620089291550820000e-001) (2, 4.73946765749234270000e+000) (3, 1.28006759797596210000e+000) (4, 2.73077982104332270000e+000) (5, 1.58662803802283590000e+000) (6, 2.46107044884935280000e+001) (7, -1.03929260053729040000e+000) (8, 6.13694751181419740000e+000) (9, 2.13624354084997800000e-001) (10, 3.35549964247487780000e+000) (11, 1.00956377308223510000e+000) (12, -1.03113011113753770000e+001) (13, -1.98755901634870640000e-001) (14, -1.04228016466634030000e+001) (15, 1.46447203679537700000e+000) (16, -1.87431386698789420000e+001) (17, 6.00049598828433340000e-001) (18, 3.77468511136207850000e+001) (19, 5.54280587832835930000e-002) (20, -3.39412339945752070000e+001) (21, -1.62191321786378460000e-001) (22, 2.17929666389861050000e+001) (23, 4.82405042224522130000e-001) (24, -9.54558392868993020000e-001) (25, -9.83278936612910880000e-001) (26, -1.72664730876105780000e+001) (27, -2.01176959350827520000e-001) (28, -1.74298499331285070000e+000) (29, 6.02941065025873080000e-001) (30, 6.27405576438385900000e+000) (31, 1.35843463621993980000e+000) (32, -4.02041761364195690000e+001) (33, 4.91506300469557120000e-001) (0, -1.67377316499150130000e+000) (1, 2.96666940136741870000e-002) (2, 2.36908551147274430000e+000) (3, 1.19729238884791900000e+000) (4, 6.80761162299839130000e-002) (5, 2.52879399912820210000e-001) (6, 4.04863538958971650000e-001) (7, 5.35830144547950970000e-001) (8, -9.18149514371013890000e+000) (9, 1.07073746634184590000e-001) (10, 1.89083872853789720000e-001) (11, 8.44802944729971530000e-001) (12, 3.14387237866594000000e-001) (13, 8.19348182808252830000e-001) (14, 7.49772248885464250000e+000) (15, 6.36480993745343500000e-001) (16, 3.78638826017386920000e+000) (17, 2.29397793623859040000e-001) (18, -4.28688501789001090000e-001) (19, 6.09729922224650120000e-003) (20, 2.66696684988569290000e+000) (21, 1.65646149160936740000e+000) (22, -9.67654447523361410000e+000) (23, 3.62514401640406550000e-001) (24, -8.03912387850602350000e+000) (25, 2.07834806788054910000e-001) (26, -6.81513942211589360000e+000) (27, -3.66788907177821730000e-002) (28, 4.32542403261695070000e-001) (29, 1.51082977501354710000e+000) (30, 5.37774083528593840000e+000) (31, 7.67132260557317980000e-001) (32, -1.27266701384463160000e+001) (33, 7.86509709209621040000e-001) (0, -4.37279492121435960000e-001) (1, -1.89763755914979070000e-001) (2, 3.44264246961313210000e+000) (3, 1.34423060947527070000e+000) (4, 9.32127462807153420000e-001) (5, 6.10153823797439520000e-002) (6, 5.85360493066558000000e+000) (7, 5.47209669894682450000e-001) (8, 1.16372772878185770000e+001) (9, 3.84354667303660690000e-001) (10, -3.84810703117918740000e+000) (11, -1.29952506700279620000e+000) (12, 4.25962264275520490000e+000) (13, 1.32839458103970750000e+000) (14, 1.11649867312048980000e+001) (15, -8.21456071975840470000e-001) (16, 9.50139566551855450000e+000) (17, -1.38945710344810800000e+000) (18, 2.08627712528264770000e+000) (19, -1.18383774987128950000e+000) (20, -3.64695938078115770000e+001) (21, -6.96566393956121970000e-001) (22, -6.80839278311107150000e+000) (23, -1.17604387865364120000e-001) (24, 3.63648251190368610000e+000) (25, -1.23511194740909210000e+000) (26, 1.59907682198594610000e+000) (27, -5.36693828864528770000e-001) (28, -1.40702003263467360000e+000) (29, -5.01745517426710590000e-001) (30, 2.39736485962215000000e+000) (31, 3.43422923485494750000e-001) (32, 9.69706707347079980000e-001) (33, -4.68779894575097610000e-002) (0, 1.16497968886438590000e+001) (1, -5.92881044926157200000e-002) (2, -2.09134474875428720000e-001) (3, -2.30284218763987410000e-001) (4, 1.55740177687863950000e+000) (5, 2.71591434597638490000e-002) (6, -8.40397962942124720000e+000) (7, -1.66674925112682250000e-001) (8, 1.95256352479852930000e+000) (9, -2.78827976311389560000e-001) (10, -5.17805059418949030000e+000) (11, 4.65707513147675610000e-001) (12, 6.86414475270919680000e+000) (13, 8.31725075443375400000e-002) (14, -2.16107020738986750000e+000) (15, 1.54484494923515760000e-001) (16, 2.47894799517731460000e+000) (17, 1.18410997808702620000e-001) (18, 1.88406957523343130000e+000) (19, 4.90142218059568870000e-001) (20, 1.05950734195551830000e+001) (21, -2.50788947686325540000e-001) (22, -3.01935929579731210000e+000) (23, -2.68674647409187170000e-001) (24, 1.41951634253728630000e+001) (25, 2.88291230518315730000e-001) (26, -1.92873935220092330000e+000) (27, 8.98609984399990180000e-001) (28, 4.30236401366712330000e+000) (29, 2.73815278710117270000e-002) (30, -5.97822533534616340000e+000) (31, -8.66752445292178210000e-002) (32, -3.00051401721792320000e+001) (33, 1.30049533541087860000e-001) (0, -2.42931136376338720000e+000) (1, 6.48198323247125780000e-001) (2, 1.08397931643640200000e+000) (3, -2.56905411210178180000e-001) (4, 5.76849229435454910000e-001) (5, 5.64110533978019470000e-001) (6, -3.85076954114931650000e-001) (7, 2.64295262428076370000e-002) (8, -4.82984977957743840000e+000) (9, 5.74117574200173400000e-001) (10, 2.43948338266449040000e+000) (11, 9.56632697646938970000e-003) (12, 1.89099478938598620000e+001) (13, -5.89692259629108900000e-002) (14, 2.03454606897270150000e+000) (15, -6.30943701482394980000e-001) (16, -3.45843081876365900000e+000) (17, -5.74372585170631120000e+000) (18, -1.65019159934122510000e+001) (19, 2.33822012065413530000e+000) (20, 5.55346960701718630000e-001) (21, 7.42831402931330010000e-002) (22, 6.76930643844061650000e-001) (23, 1.44123272116136420000e+000) (24, 1.66838117126908190000e+001) (25, 7.49069961653818090000e-002) (26, -3.41501726954598530000e+000) (27, -5.15710644757313100000e-001) (28, 4.16180403793110540000e+000) (29, 1.03320189285649190000e+000) (30, 1.67918674456345090000e+001) (31, 5.67989209363439680000e+000) (32, 1.24836438584751760000e+001) (33, 1.55852067604973390000e-001) (0, -6.51024451680923910000e+000) (1, -3.67059748320390790000e-001) (2, 6.46680111939521840000e+000) (3, 3.89384630723660990000e-002) (4, 1.47942181281837540000e+001) (5, 8.31209128540886910000e-001) (6, 4.04791643990277630000e+000) (7, -1.03526243605208880000e+000) (8, 1.97885122523195240000e+001) (9, 6.90562584431137780000e+000) (10, 1.47682183116963710000e-001) (11, 1.79414148653698270000e-002) (12, -8.64553966096506880000e+000) (13, 2.78160989782956620000e+000) (14, 7.62366576048348140000e+000) (15, -8.19679037709739600000e-001) (16, 8.98931289397069570000e-001) (17, 2.04552314047501350000e-001) (18, -2.05453793519993190000e+001) (19, -9.48836106359822180000e-001) (20, 1.02821045554430360000e+001) (21, -1.59365957753274060000e-001) (22, -1.86329798586574710000e+001) (23, 6.28214153114681430000e-001) (24, -2.01767560128612330000e+001) (25, -5.65955675928626280000e-001) (26, -2.07137118747347770000e+001) (27, 4.96674306905889390000e-002) (28, -2.69122196246634190000e-001) (29, 2.15164377220953760000e+000) (30, 8.57761580661799710000e+000) (31, 3.00913976889070020000e+000) (32, -9.40189156705769880000e+001) (33, 3.47136573042311580000e+000) (0, -4.35011662478311580000e+000) (1, -3.21565307651705600000e-001) (2, 1.61339787412055990000e+001) (3, 4.39991304846529820000e-001) (4, 8.19355693614326340000e+000) (5, 6.00676711316838860000e-001) (6, -3.25952426894456340000e+001) (7, -1.28349475159652400000e+000) (8, -2.28765365709180290000e+000) (9, -5.13014496010013140000e-001) (10, -2.91861097745890060000e+000) (11, 1.12287573265663300000e+000) (12, 8.33332355238885290000e+000) (13, 5.27409823214531670000e-001) (14, 5.40624391234928230000e+000) (15, 7.75048858429327140000e-001) (16, -3.58614421487271430000e+000) (17, -8.65506146242746720000e-002) (18, 1.24001723249057250000e+001) (19, 1.67748101507271620000e-001) (20, 7.81893508858027710000e+000) (21, 3.29536954261905460000e+000) (22, -6.25193033816639420000e+000) (23, -4.80901114030687030000e-001) (24, -1.04029432476514540000e+001) (25, 7.50741957978726890000e-001) (26, -5.52496391519275680000e+000) (27, 2.35162297333535470000e-001) (28, 4.06231335061802930000e+000) (29, 3.45883730532590190000e-001) (30, -8.00890069661148370000e+000) (31, -6.33431560899131160000e-002) (32, -5.40831132993258130000e-001) (33, -7.90960307665051180000e-003) (0, 4.77347731419849670000e+001) (1, 1.31126299074212830000e-001) (2, 2.59278377238872650000e+001) (3, 2.80594213547382140000e+000) (4, -1.01019408059913760000e+001) (5, 6.90233911509843150000e-001) (6, 3.77322381700262040000e+000) (7, 1.28061081869845150000e+000) (8, 7.23496497846783360000e+000) (9, -5.30205025650657300000e-001) (10, 3.06976549162943830000e+000) (11, 7.28288786704186200000e+000) (12, -6.30338620399112770000e+001) (13, 4.78766194984224620000e-001) (14, 1.40048223861000200000e+001) (15, 2.61458200801513340000e+000) (16, 1.44426985157399890000e+000) (17, 2.98089677070786730000e+000) (18, 3.44003607275561940000e+000) (19, 9.50768472244419850000e-002) (20, -1.39460239633020120000e+000) (21, -1.87929396501567950000e-001) (22, 3.59888283394418270000e+000) (23, 4.00102660140279640000e+000) (24, -2.07314128521223970000e+000) (25, 8.82882850296364710000e-001) (26, 4.63529180797658120000e+000) (27, 1.00006942144194230000e+000) (28, -2.66742519422234640000e+000) (29, 2.13816483848176020000e+000) (30, 7.81629897502926680000e+000) (31, 2.79494506795104550000e+000) (32, 6.80395657136496650000e+001) (33, 3.82477451453356820000e-001) (0, 9.28075237025292840000e+000) (1, 7.69050095821131260000e-001) (2, 3.72396668914209620000e+000) (3, 1.33829888472682490000e+000) (4, -1.41780186412489100000e-001) (5, 5.89269501754478560000e-001) (6, 1.29600603360184860000e-001) (7, 6.97648675546995060000e-001) (8, 2.00868938556487600000e+000) (9, 1.20420755458447060000e-001) (10, -1.49660963066991350000e+000) (11, 6.67470474015887660000e-001) (12, -2.01519282447367980000e+001) (13, 4.15295764734910030000e-001) (14, 8.83065860831869110000e+000) (15, 3.15393496358930130000e-002) (16, -1.88344268894889950000e+001) (17, 1.34124883138179360000e+000) (18, 2.48630512159706160000e-001) (19, 1.20766094908095560000e+000) (20, -1.60862195655532100000e+000) (21, 2.74475813184664020000e-001) (22, -7.91391218054263850000e+000) (23, -2.07735176511947420000e-001) (24, -5.58300936186154280000e-001) (25, 3.96551511803009180000e-001) (26, 4.46386748691497810000e+000) (27, 2.83297922862123130000e-001) (28, 6.02127536566027820000e+000) (29, 6.67540202515328970000e-001) (30, 7.35612252044369530000e+000) (31, 1.09277424828305690000e+000) (32, 3.09321336516335200000e-001) (33, 6.19863314664740650000e-001) (0, -5.80381315309058010000e-001) (1, -9.70171350728073060000e-002) (2, 3.19697770517117290000e-001) (3, -3.11521858885109970000e-001) (4, -4.82092825404836830000e-001) (5, 6.07094734356660500000e-001) (6, 1.10601909507411760000e-001) (7, -2.28861509565371800000e-001) (8, 8.76309320285578060000e-001) (9, 2.25956083967648390000e-002) (10, -7.61597927612640890000e-001) (11, -1.16338790235671060000e-001) (12, 4.85206196211985730000e-002) (13, 3.21752551659327530000e-002) (14, -3.26515614403523780000e-001) (15, 7.96108962178628950000e-002) (16, -6.07507078378580640000e-001) (17, -4.09388173722010780000e-002) (18, -2.34962605316121290000e-001) (19, 1.96643408185011530000e-001) (20, 1.01048001768205080000e-002) (21, 1.12683548053838210000e-001) (22, -2.33833929652402130000e-001) (23, -8.58040221076499660000e-002) (24, -5.01910446098305110000e-003) (25, -9.33103368627306860000e-002) (26, 8.39011576649052900000e-001) (27, -1.33250480560227840000e-001) (28, -2.21471039307465170000e+000) (29, 9.72232267864356350000e-002) (30, 6.41366266211040760000e-001) (31, 4.81990674159996220000e-002) (32, -5.13274282296311670000e+000) (33, -6.49249620949468590000e-002) (0, -7.02244032466573940000e-002) (1, 5.02390799317718740000e-002) (2, -6.72966615327565300000e-001) (3, -3.62783733102431600000e-002) (4, -9.88045997557559650000e-002) (5, -1.99402556399033840000e-002) (6, 1.31565231787548640000e+000) (7, -1.30983353348299750000e-002) (8, 1.85804080509775080000e+000) (9, -1.62436341734645080000e-001) (10, 8.07604218997236440000e-001) (11, -4.55730873728986270000e-002) (12, 6.18706772118717550000e-002) (13, 4.97417210257901630000e-003) (14, 2.82780767899337570000e-002) (15, -7.25675566062335130000e-003) (16, 8.29999357038642140000e-001) (17, -9.40511947291466090000e-002) (18, 1.17842172027448560000e+000) (19, -1.98032280756564650000e-001) (20, -8.45575212303818490000e-002) (21, -1.52421192246775330000e-001) (22, 3.28306581640491150000e-001) (23, 4.02134272114868310000e-002) (24, -1.41984223007339320000e-001) (25, -8.24285535176094430000e-002) (26, 1.14536576593050700000e+000) (27, -2.94431030297274830000e-002) (28, -8.74844933373529060000e-002) (29, -1.41652323399250210000e-001) (30, 2.60888412563447520000e-001) (31, 7.88434606266327600000e-003) (32, 4.26079439483220550000e-002) (33, -1.27373679137706250000e-002) (0, -7.09060510898884020000e+000) (1, 5.74383861523970920000e-001) (2, 2.31814983233719030000e+000) (3, -3.68573277889707380000e-002) (4, -4.03345720833472040000e+000) (5, 1.44185707426637340000e+000) (6, -4.33661831603976820000e+000) (7, -1.35858035241225530000e+000) (8, -9.00467493484496550000e+000) (9, 2.42640044153923860000e+000) (10, 2.95942348384669710000e+001) (11, 2.36122282839919610000e-003) (12, -2.43406617427651110000e+000) (13, 4.95000422217842070000e-001) (14, 3.84371450754565020000e+000) (15, 1.09768117694701920000e+000) (16, -1.11688915081832680000e+001) (17, 1.67432814320893340000e+000) (18, 1.52164466255682380000e+001) (19, -1.03552411822635040000e+000) (20, 3.35228260066019070000e+000) (21, 6.35834273834390060000e-001) (22, 1.44081078390751320000e+001) (23, 3.29630021007487170000e-001) (24, 7.48859987580976630000e-002) (25, 4.63679646114669660000e-001) (26, 3.66553484001204840000e+000) (27, 2.58750619525537850000e-001) (28, -4.05924765239496390000e-001) (29, 5.76137606923243230000e-001) (30, 1.07261037718191420000e+000) (31, -5.62716551068447520000e-002) (32, 9.51514864710434230000e-001) (33, -3.38914271254550480000e-001) (0, -1.08084315480277300000e+001) (1, 4.25775127336173120000e-001) (2, 9.97394369991378580000e+000) (3, -1.78406989526651100000e-001) (4, 2.21930630403929330000e+000) (5, 3.28434496185057690000e+000) (6, -3.62434728820140070000e+000) (7, 4.54313636931126030000e-001) (8, 8.65524786125161680000e+000) (9, 1.56919142450757000000e+000) (10, -1.80435989837377320000e+000) (11, 1.42598221542342580000e+000) (12, -6.19375414761157470000e+000) (13, -5.93868399065390800000e-001) (14, 3.89378827676763040000e+000) (15, -2.54199226715304950000e-002) (16, -1.29543910563465390000e+001) (17, 3.48843527431283220000e-001) (18, -1.11620345916050740000e+001) (19, -1.24022531172330180000e-001) (20, -2.22926847941270800000e+000) (21, 1.78586430179221380000e+000) (22, -1.22984312719739290000e+000) (23, -4.47032846133343490000e-001) (24, 1.19392497128723910000e+000) (25, -3.49157060659691880000e-001) (26, 7.41188853400163070000e+000) (27, 2.33016966459443060000e-001) (28, -1.84726748119741500000e+000) (29, 2.05383603121368440000e-001) (30, -8.52071822405176980000e-001) (31, -8.41620558904995870000e-001) (32, 1.99254699741514650000e+001) (33, 1.26070694337689850000e+000) (0, -2.21918094775253820000e+001) (1, 3.63033892822148980000e-001) (2, 8.67445839932590500000e-001) (3, -3.37257496469942740000e-001) (4, 7.02669285859741240000e+000) (5, 1.37136622311619970000e-001) (6, 1.36328476462508380000e+001) (7, -3.76018030909466780000e-001) (8, -2.09074027880759560000e+001) (9, 1.48816822711106020000e-001) (10, 1.78936001270992090000e+001) (11, 1.21839471170650300000e-001) (12, -1.13636665685317820000e+001) (13, -3.19900808140671620000e-003) (14, -1.47565470901556300000e+001) (15, 7.60463270191123470000e-001) (16, 2.89047337626899650000e+000) (17, 7.80400245286262810000e-002) (18, -3.17026289649613160000e-001) (19, 6.43066942757457240000e-001) (20, -5.38990075705061590000e+000) (21, 3.65717620058316870000e-001) (22, 1.70713023113840980000e+000) (23, -2.15532920121287080000e-001) (24, 2.98796310985908200000e+000) (25, -5.02151381594329930000e-001) (26, 4.68225327006723460000e+000) (27, -2.76999550691426620000e-001) (28, -2.16439117365920410000e+000) (29, -1.21223623421446100000e-001) (30, -9.36083182371999170000e-001) (31, -1.09640532856495580000e-001) (32, 4.99395372304381130000e+001) (33, -3.75251869576011880000e-002) (0, 1.81964119990837920000e+000) (1, 1.54487862695782490000e-002) (2, -3.77149201498297510000e+000) (3, 1.75016916860303740000e-001) (4, 5.18277321912259390000e+000) (5, 3.61902441406412590000e-002) (6, -2.05512224900856120000e+000) (7, -3.35311753051472820000e-001) (8, -2.38639009095753710000e+001) (9, 1.00512145191387900000e-001) (10, -2.18090575180508450000e-001) (11, -2.90872069513607380000e-002) (12, 9.83924303504256240000e+000) (13, -2.04443738005445840000e+000) (14, 1.34818921444475120000e+001) (15, 4.35868324312274460000e-001) (16, 1.55205983302153270000e+000) (17, 2.39891958532801770000e-002) (18, -3.86494134599832120000e-001) (19, 2.89970523281868400000e-001) (20, 2.56334721501308270000e+000) (21, -2.99795296804904690000e-001) (22, -7.64712149520378580000e+000) (23, -1.03423026024703260000e+000) (24, -5.68087851417246450000e+000) (25, 2.61146445874007820000e-001) (26, 1.30037383974153320000e+000) (27, -1.22059413369283560000e-002) (28, 9.90325110730029160000e-001) (29, -1.02457241420571980000e+000) (30, -1.48088343082570280000e+001) (31, -3.44474899130654270000e-002) (32, -2.80464633658359340000e+000) (33, 6.66349454271703560000e-001) (0, 1.11395594005474450000e+000) (1, -2.19689122494243690000e-001) (2, 1.75299195446055690000e+001) (3, 1.78173859656011960000e-001) (4, 2.01238204235961900000e+000) (5, 7.85108008464993620000e-002) (6, 5.20238341625432630000e+000) (7, 1.24799631571221560000e-001) (8, 2.00940471663107400000e+000) (9, 4.49439951023416360000e-002) (10, -5.59762438264827300000e-001) (11, 3.79037782401201310000e-002) (12, -1.85533342003210360000e+001) (13, -1.26081853374634980000e-001) (14, 7.94884565148859630000e-001) (15, 2.64612209632533460000e-002) (16, 7.09203407951833590000e+000) (17, -9.88154703058298220000e-002) (18, 5.10690483935811910000e+000) (19, -1.02268838242220130000e+000) (20, 1.15434496538643110000e+001) (21, -2.54645904426938300000e-001) (22, -1.23427532176734630000e+000) (23, -4.94290868812699910000e-005) (24, 1.31273264532045060000e+000) (25, -2.71947577106793400000e-001) (26, 9.56468126385689570000e-001) (27, 1.62336685634669020000e-001) (28, 2.65770973956177730000e+000) (29, 2.08115102178126930000e-001) (30, -2.94604591989289540000e+000) (31, -1.42646034683656500000e-001) (32, 9.92902178242762060000e-001) (33, -1.53752258126316900000e-001) (0, -4.17077469343276070000e+000) (1, 9.43564267631056550000e-002) (2, 8.02566355399280780000e-001) (3, -3.43070579010883930000e-002) (4, -1.66063800063299620000e+000) (5, -6.05635334310549860000e-002) (6, 1.00635476907614900000e+000) (7, -6.54183112312239390000e-004) (8, 3.75650451007756160000e+000) (9, 8.02290712361344340000e-003) (10, -2.81469489945853750000e-001) (11, -1.30854581927993740000e-001) (12, -8.68729560468343850000e-002) (13, 1.16752294264921950000e-001) (14, -1.19204823320724820000e-001) (15, -1.74395769404559090000e-001) (16, -1.35457503684827510000e-001) (17, -1.84056212838256290000e-001) (18, -1.82251271342538420000e+000) (19, -9.29301410035055370000e-002) (20, 1.10533935095545030000e-001) (21, -3.28356564695368860000e-002) (22, 3.76914271109994370000e-001) (23, -5.55416457645985790000e-002) (24, -3.17258615505515000000e+000) (25, -4.69644893220575400000e-001) (26, 1.35657048519013280000e+000) (27, -1.80491832549078900000e-002) (28, -9.69463314273958490000e-001) (29, -1.80418806103565390000e-001) (30, -2.31612271713590270000e+000) (31, -3.05429061398752520000e-002) (32, 3.97016218184753740000e-001) (33, -4.09196557733892060000e-002) (0, 3.08475004952056860000e+000) (1, 3.05739250221740070000e+000) (2, 1.59553081144072670000e+000) (3, -2.64129510501580340000e-001) (4, -2.41262916562503000000e+000) (5, 1.79650182928648540000e+000) (6, -3.60557507131867090000e+000) (7, 2.70936513173363650000e+000) (8, 6.19707264492501650000e+001) (9, -4.30200149166525670000e+000) (10, 3.57922830758939760000e+000) (11, 1.14161358759206340000e+000) (12, 1.02851158834252400000e+001) (13, 1.25930189635290370000e+000) (14, -2.40060865759082500000e+000) (15, 1.69358735943774440000e+000) (16, 2.68119274665345910000e+001) (17, 1.14095828213409560000e-001) (18, -1.66252278549799850000e-002) (19, 2.11087807614606900000e+000) (20, 7.64006927762577610000e+000) (21, 1.22109746894418980000e+000) (22, -2.83550483632578440000e+000) (23, 4.31436681178303430000e+000) (24, 2.58706773447953790000e+000) (25, 1.83842713448395640000e+000) (26, 2.77197939611411350000e+000) (27, 5.50784553925832810000e-001) (28, -7.43249565598076690000e+000) (29, 6.82770791902056250000e-001) (30, 1.52031619120121380000e+001) (31, 6.08157577389030200000e-001) (32, 4.33849030781367090000e+001) (33, 8.76380157934379820000e-002) (0, 1.54352871180404550000e+000) (1, 1.55680534548621690000e-001) (2, 2.14497493747884740000e+000) (3, 2.34325647073378610000e-002) (4, -1.10514951849391640000e+000) (5, 4.83676828978276240000e-001) (6, -4.68406113594168510000e-001) (7, -7.17938983402090720000e-001) (8, -2.26170516511181280000e+001) (9, 2.15413113331734960000e+000) (10, -4.42886361795542620000e+000) (11, 6.80213037940453070000e-001) (12, -2.83313783954893060000e+000) (13, 3.80888297919245890000e-001) (14, 2.13291223125906800000e+001) (15, 1.00602779235342670000e+000) (16, -6.81424059086155780000e-001) (17, 5.86821426775259840000e-001) (18, -9.61789908544071900000e-002) (19, -6.10264667028481630000e-002) (20, -1.12314194142386260000e+000) (21, 5.94055578021682960000e-001) (22, 1.04406382245916500000e+000) (23, 2.16632708936092630000e-001) (24, 7.89881605652731980000e+000) (25, 6.16560799998682390000e-002) (26, -2.42696676221880430000e+000) (27, 1.19848909404439260000e+000) (28, 1.16477252269638630000e+000) (29, 1.52802430874611260000e-001) (30, -4.79167146753820110000e+000) (31, 2.09474057088590460000e+000) (32, -2.91581824089749060000e+001) (33, 4.55217657734192590000e-001) (0, 6.66695602109894870000e-001) (1, 4.83505314152985620000e-002) (2, 2.25359565983070870000e-002) (3, 1.16067605926434020000e-001) (4, 2.01788854838783120000e-001) (5, -6.75761500830387020000e-002) (6, 1.58679669167223230000e+000) (7, 3.17975127459409150000e-001) (8, -7.06660513379388070000e-001) (9, 1.30581408836291070000e-001) (10, -1.25456121115658400000e-001) (11, -3.80095289623649860000e-001) (12, -5.15976430118184060000e-003) (13, -2.09336603722046900000e-001) (14, 5.68870537886827290000e-001) (15, -4.77891021085964440000e-002) (16, 3.26636248663916720000e-001) (17, -8.56177625898331130000e-002) (18, 1.48148814340182010000e+000) (19, -2.58747370135223980000e-001) (20, -5.28578681030684280000e-001) (21, -5.81244738965818880000e-002) (22, -7.80106154540476270000e-001) (23, -2.05319085343748720000e-002) (24, -2.13808865022524440000e-001) (25, -2.11172783626301240000e-002) (26, 1.25403552435890080000e+001) (27, -9.94205188026160700000e-003) (28, -8.90777828031563910000e-001) (29, -6.01961654367416550000e-001) (30, -6.24119545869202950000e+000) (31, 6.27072696402431600000e-002) (32, -1.29149386831626310000e+000) (33, -7.42942616119526280000e-002) (0, 3.23844024651168070000e+001) (1, 6.72956716051941850000e-001) (2, 1.34253681715380310000e+001) (3, 3.65353898944956800000e-002) (4, -2.08353267304885350000e+000) (5, 8.04874851791679390000e-001) (6, -1.87365134006313600000e+001) (7, 1.23599351745910350000e+000) (8, -3.75753233475792640000e+001) (9, 2.81488914555012610000e+000) (10, 1.01544586451454870000e+001) (11, 4.92599624720124420000e-001) (12, -1.11924478538636620000e+001) (13, -3.71168503326106780000e+000) (14, 3.72124370554869800000e+001) (15, -2.93283349748376080000e-002) (16, -5.06195127459866330000e+001) (17, 9.79632556641280900000e-001) (18, -7.18269667424023760000e-001) (19, 1.18018802210825750000e+001) (20, -1.57181112130669720000e+001) (21, 1.38024259078836820000e+000) (22, 1.09339788938402100000e+000) (23, 7.57319105660542500000e-001) (24, -1.10171974998886610000e+001) (25, 4.14132049837428910000e-001) (26, 5.47493357519949630000e+001) (27, 6.16534655462189000000e-001) (28, 4.06032016010734510000e+000) (29, 1.76745934827843460000e+000) (30, -1.31668442016568270000e+001) (31, 4.04976983381567560000e+000) (32, -3.25572489111632560000e+001) (33, 2.02235688934323560000e-001) (0, 1.33025589223556210000e+000) (1, 2.83338775924418180000e+000) (2, -1.83349792624098810000e+001) (3, 1.92913777626185090000e+000) (4, -6.60311799218525940000e+000) (5, 4.63992937149088820000e+000) (6, -5.62748389545750100000e+001) (7, 5.81294335560874290000e-001) (8, -1.22215321431427440000e+001) (9, 3.29033572998543590000e+000) (10, 1.31728645736127410000e+000) (11, 8.30876584290309310000e-001) (12, 1.09588187738981780000e+001) (13, 7.69370198492153360000e+000) (14, -2.34309113498534240000e+001) (15, 2.98388875119046880000e-001) (16, 6.51800347659906270000e+000) (17, -5.30613111916213740000e-001) (18, 5.56806984708453140000e+001) (19, 1.25540039812623410000e-001) (20, 3.87061208923914880000e-001) (21, 2.32369821211490190000e+000) (22, -1.74843051307377020000e+001) (23, 1.28475696318212230000e+000) (24, 2.35050915936678320000e+001) (25, 3.93279406127286450000e+000) (26, -1.08371621293947720000e+001) (27, 1.99846176676496620000e-001) (28, 3.83031562503804770000e+000) (29, 4.25195312155591090000e-001) (30, -8.86996400295163310000e+000) (31, -4.86803275644523580000e-001) (32, -1.34189103795244160000e+002) (33, 1.41916718651342280000e+000) (0, 3.83579648190300160000e+001) (1, 1.21847303803594250000e-001) (2, -1.53752776426440000000e-001) (3, 6.78560894745013690000e-001) (4, 1.20538695662963490000e+000) (5, 2.23162367258825050000e-001) (6, -1.90512374633952210000e+001) (7, 1.40973300542495600000e-001) (8, 2.78842148104317790000e+001) (9, 6.75522344518795230000e+000) (10, -4.62516389307769560000e-001) (11, 8.36520114529987540000e-001) (12, -4.96440994516463450000e-001) (13, 2.65785991926496160000e-001) (14, -1.16233800661839500000e+001) (15, -1.28602820150267530000e-001) (16, 4.38233266274012760000e+000) (17, 2.13884267799603030000e+000) (18, 2.54878105717425330000e+000) (19, 7.90452686073774720000e-001) (20, 9.07327987228791820000e-001) (21, 5.36892200682019260000e-001) (22, -3.39249094464440470000e+001) (23, 8.89828867516887170000e-001) (24, 1.58904081117663180000e+001) (25, 1.27941414456116200000e+000) (26, -1.61519471407981510000e+000) (27, 1.82107322321640260000e+000) (28, 1.05932557675740390000e+000) (29, 1.59919852475925390000e+000) (30, 1.83043613953620440000e+001) (31, -6.32155839465750880000e-002) (32, -1.31032613647765680000e+001) (33, 5.41484144040878080000e-001) (0, 2.26730951902067270000e+001) (1, 5.66497827461151310000e-002) (2, -2.76093688076763090000e+000) (3, -8.71965288216391690000e-002) (4, -7.92154088910644870000e-001) (5, 9.52009563618486100000e-002) (6, -2.35836683547810380000e+000) (7, 8.24052234491581410000e-002) (8, 2.85537092475104040000e+000) (9, 1.09098543465613470000e-002) (10, -1.23463510128832970000e+000) (11, -3.54295945358984710000e-003) (12, 1.75242104624773770000e-001) (13, 7.46534313489707890000e-002) (14, 1.53047016199612250000e+000) (15, -1.07701438085240440000e-001) (16, 2.54863423888064930000e+000) (17, 7.20458915501231420000e-002) (18, -8.72019461926944790000e-001) (19, -5.44494840089205790000e-001) (20, 3.96623687985099950000e+000) (21, -1.45647050565201830000e-002) (22, -2.66040462854587180000e-002) (23, -1.09067475988170100000e-001) (24, 5.76274252108514020000e-001) (25, 7.69074461705326900000e-002) (26, 3.98965486845449080000e-001) (27, -3.71064512073394860000e-001) (28, 4.63120238068607750000e-001) (29, -6.73373783065220750000e-002) (30, -3.44059799028330240000e+000) (31, -6.56285825317843570000e-002) (32, 1.29317483640893140000e+001) (33, -4.44613629984180610000e-002) (0, -7.86757204768459850000e+000) (1, 8.19782657372523790000e-002) (2, 2.24025952725259220000e+001) (3, 1.09596840737561220000e+000) (4, 2.91362077823404860000e+000) (5, -8.30286143452523500000e-001) (6, 1.09259380198638710000e+001) (7, -1.24473661971633730000e-001) (8, 7.97455227499473060000e-001) (9, -1.06840048058402630000e-002) (10, 1.16671360524986660000e+001) (11, -8.32099099559020620000e-001) (12, -1.59216424782290170000e+000) (13, -3.26206897254503640000e-001) (14, 9.34356018080465760000e-001) (15, -8.32220553340067700000e-002) (16, -2.17117184712489400000e+000) (17, -5.34406008475729500000e-001) (18, 1.03967819439153430000e+001) (19, 1.65792945397428120000e-001) (20, -1.21493912952665380000e+001) (21, -2.24474341359748890000e-001) (22, 3.77086782922901560000e+000) (23, 1.22355054703356280000e-001) (24, -3.68935619611095020000e+000) (25, -9.41638106226828860000e-001) (26, -1.18722759613675990000e+001) (27, -1.06508195513947410000e-001) (28, -5.69893886848662310000e+000) (29, -2.18123856085765540000e-001) (30, -8.40733036475291230000e+000) (31, -7.80865895272284530000e-002) (32, -5.64292608488883560000e+000) (33, -1.28313967414753840000e-001) (0, -1.08971375330467040000e+001) (1, 1.86209539132030840000e-001) (2, -9.48607141792444960000e+000) (3, 3.33004050577916770000e-001) (4, 2.62129200002118870000e-001) (5, 2.07566529847065150000e-002) (6, 1.34960416461727520000e-001) (7, 2.35561164468742050000e+000) (8, -9.60581802644220590000e+000) (9, -5.50654408979281080000e-001) (10, 2.38484599105654520000e+001) (11, -3.24869857149568950000e-001) (12, 1.24495291793095220000e+000) (13, 1.52404528047888040000e+000) (14, 2.25633060676189780000e+000) (15, 7.51036882356129090000e-001) (16, 2.84141022382931840000e+000) (17, -3.44082641622927230000e-001) (18, 2.26204078751012760000e+000) (19, 1.47812968346647030000e+000) (20, -2.33007832593609960000e-001) (21, 8.13534312191823570000e-002) (22, 4.07026937561017320000e-001) (23, 1.05663249654888510000e+000) (24, -1.27678558020337100000e+000) (25, 1.99251703126805540000e-001) (26, -2.03197329519804800000e+001) (27, 9.45154737300369590000e-001) (28, 4.97902520416463630000e+000) (29, -2.75987198538236830000e-001) (30, 3.09625062635389400000e+000) (31, 3.94324639136289680000e-001) (32, 2.02404694517196080000e+001) (33, 3.80892890182545520000e-001) (34, 1.07435253131025710000e+000) (35, 4.55253678654237490000e-001) (36, -1.70371546962523030000e+000) (37, 1.02331831315946720000e+000) (38, 5.41067603374744240000e-001) (39, -7.79375936302238670000e-001) (40, 4.98586250156439930000e-001) (41, -2.92586370108147610000e+000) (42, -4.32388248095062070000e-002) (43, 1.56526049878505600000e+000) (44, -1.07574925660180760000e+000) (45, 1.60543040862872390000e+000) (46, 1.76971858288088080000e+000) (47, 7.88266138749649680000e-001) (48, 3.77943832207776440000e-001) (49, 3.23360962233268320000e-001) (50, -2.44086317214260220000e-001) (51, -8.60874366912213640000e-001) (52, 3.41053007265433580000e-001) (53, -3.01410076717431520000e+000) (54, -9.31218429908726610000e-001) (55, 3.93529085061683440000e-001) (56, -2.35471696646826520000e+000) (57, 2.96428833467532070000e-001) (58, 1.36249430285196450000e-001) (59, -1.24742853563303970000e-001) (60, 3.72863836217663450000e-001) (61, 1.45913548641384590000e+000) (62, 3.19023118074223180000e-001) (63, 5.70252727617756140000e-001) (64, 1.47055815024905670000e-001) (65, 4.08797822977992610000e-001) (34, -1.61923910071848030000e+000) (35, 3.60936918750880910000e-001) (36, 1.32329582497381580000e+000) (37, 2.88805753823799080000e-001) (38, 1.97168143360353020000e-001) (39, -1.32848054451150620000e+000) (40, 6.33828745686341730000e-001) (41, 7.67167909936485650000e-001) (42, -8.29854419736409830000e-001) (43, -1.01339827038618750000e+000) (44, -9.90247823955043430000e-002) (45, 3.15941858090607320000e-001) (46, -1.48426824780487920000e+000) (47, 5.08736866934314970000e-001) (48, 6.39468747638839870000e-001) (49, 3.54164915331904860000e-001) (50, 2.42572923810223310000e+000) (51, 1.04078563961744930000e+000) (52, -3.05283768482135230000e+000) (53, 1.50970338339000550000e+000) (54, -8.68542802892570410000e-003) (55, 3.46459691485828890000e-001) (56, 2.37202200504768390000e+000) (57, 1.33364876543519560000e+000) (58, 7.40810319527496540000e-001) (59, 1.24173908682711190000e+000) (60, -1.71583144468344930000e+000) (61, -5.41129727494406160000e-002) (62, 4.40595101068604560000e-001) (63, 9.19538428063636390000e-001) (64, 1.13855727808176250000e+000) (65, 4.44416710597021040000e-001) (34, 5.36283514882409110000e-001) (35, 2.75591285880065930000e-001) (36, 8.08141521892232650000e-001) (37, 3.81641384173220130000e-001) (38, 1.55133622405738720000e-001) (39, 1.34283363495851080000e+000) (40, 5.61200253067541510000e-001) (41, 1.39815168656461370000e+000) (42, 1.93689415879235070000e+000) (43, 1.34651995966488190000e-001) (44, 1.39775705511630320000e+000) (45, -1.22601440581038990000e+000) (46, -2.59330134480859230000e-001) (47, 7.63647312446952160000e-001) (48, -1.01800228931521790000e+000) (49, 4.69645914557221040000e-001) (50, -2.13903662753631840000e+000) (51, 7.46505825985577130000e-001) (52, 2.08557954948641780000e+000) (53, 1.27808317432021480000e+000) (54, -2.75750581228506530000e-002) (55, 4.42580083681182730000e-001) (56, 6.34989630915001740000e-002) (57, -1.85309209504597920000e-001) (58, 4.63295778568343700000e-001) (59, -1.48090948566072390000e+000) (60, 1.37979770016712400000e+000) (61, -8.26806726127233050000e-001) (62, 3.65550718603645690000e-001) (63, 3.73281550473150760000e-001) (64, -1.11150969262889430000e+000) (65, 6.21125438564203660000e-001) 
