FANN_FLO_2.1
num_layers=3
learning_rate=0.700000
connection_rate=1.000000
network_type=0
learning_momentum=0.000000
training_algorithm=2
train_error_function=1
train_stop_function=0
cascade_output_change_fraction=0.010000
quickprop_decay=-0.000100
quickprop_mu=1.750000
rprop_increase_factor=1.200000
rprop_decrease_factor=0.500000
rprop_delta_min=0.000000
rprop_delta_max=50.000000
rprop_delta_zero=0.100000
cascade_output_stagnation_epochs=12
cascade_candidate_change_fraction=0.010000
cascade_candidate_stagnation_epochs=12
cascade_max_out_epochs=150
cascade_max_cand_epochs=150
cascade_num_candidate_groups=2
bit_fail_limit=3.49999999999999980000e-001
cascade_candidate_limit=1.00000000000000000000e+003
cascade_weight_multiplier=4.00000000000000020000e-001
cascade_activation_functions_count=10
cascade_activation_functions=3 5 7 8 10 11 14 15 16 17 
cascade_activation_steepnesses_count=4
cascade_activation_steepnesses=2.50000000000000000000e-001 5.00000000000000000000e-001 7.50000000000000000000e-001 1.00000000000000000000e+000 
layer_sizes=34 15 4 
scale_included=0
neurons (num_inputs, activation_function, activation_steepness)=(0, 0, 0.00000000000000000000e+000) (0, 0, 0.00000000000000000000e+000) (0, 0, 0.00000000000000000000e+000) (0, 0, 0.00000000000000000000e+000) (0, 0, 0.00000000000000000000e+000) (0, 0, 0.00000000000000000000e+000) (0, 0, 0.00000000000000000000e+000) (0, 0, 0.00000000000000000000e+000) (0, 0, 0.00000000000000000000e+000) (0, 0, 0.00000000000000000000e+000) (0, 0, 0.00000000000000000000e+000) (0, 0, 0.00000000000000000000e+000) (0, 0, 0.00000000000000000000e+000) (0, 0, 0.00000000000000000000e+000) (0, 0, 0.00000000000000000000e+000) (0, 0, 0.00000000000000000000e+000) (0, 0, 0.00000000000000000000e+000) (0, 0, 0.00000000000000000000e+000) (0, 0, 0.00000000000000000000e+000) (0, 0, 0.00000000000000000000e+000) (0, 0, 0.00000000000000000000e+000) (0, 0, 0.00000000000000000000e+000) (0, 0, 0.00000000000000000000e+000) (0, 0, 0.00000000000000000000e+000) (0, 0, 0.00000000000000000000e+000) (0, 0, 0.00000000000000000000e+000) (0, 0, 0.00000000000000000000e+000) (0, 0, 0.00000000000000000000e+000) (0, 0, 0.00000000000000000000e+000) (0, 0, 0.00000000000000000000e+000) (0, 0, 0.00000000000000000000e+000) (0, 0, 0.00000000000000000000e+000) (0, 0, 0.00000000000000000000e+000) (0, 0, 0.00000000000000000000e+000) (34, 5, 5.00000000000000000000e-001) (34, 5, 5.00000000000000000000e-001) (34, 5, 5.00000000000000000000e-001) (34, 5, 5.00000000000000000000e-001) (34, 5, 5.00000000000000000000e-001) (34, 5, 5.00000000000000000000e-001) (34, 5, 5.00000000000000000000e-001) (34, 5, 5.00000000000000000000e-001) (34, 5, 5.00000000000000000000e-001) (34, 5, 5.00000000000000000000e-001) (34, 5, 5.00000000000000000000e-001) (34, 5, 5.00000000000000000000e-001) (34, 5, 5.00000000000000000000e-001) (34, 5, 5.00000000000000000000e-001) (0, 5, 0.00000000000000000000e+000) (15, 5, 5.00000000000000000000e-001) (15, 5, 5.00000000000000000000e-001) (15, 5, 5.00000000000000000000e-001) (0, 5, 0.00000000000000000000e+000) 
connections (connected_to_neuron, weight)=(0, -8.80769088417707910000e+000) (1, -6.34310656574995300000e-001) (2, -1.39306728452646360000e+000) (3, -4.73631407748345360000e+000) (4, 9.81372323749232640000e-002) (5, 3.38916893242646800000e-002) (6, 4.68454741809801790000e-001) (7, -5.31458939070478480000e-001) (8, -4.04881512802160510000e+000) (9, -4.36383843362395730000e-002) (10, 6.20560045569035660000e-001) (11, -1.20085923418802580000e+000) (12, 7.66619482638084100000e-001) (13, -2.21684519517866500000e-001) (14, 1.01100510122305960000e+000) (15, 5.75897935515884630000e-002) (16, 6.16178655978051260000e-002) (17, 2.76141712004390420000e-001) (18, -1.21982048039200050000e+000) (19, 5.33552132976502500000e-001) (20, 9.23916953859562890000e+000) (21, -8.77741669409087160000e-001) (22, 7.55340426859551830000e-001) (23, 5.04058960302488530000e-001) (24, 1.87201364994935780000e+000) (25, -6.34447554649774430000e-001) (26, -5.14206447229193040000e+000) (27, -4.48316431046540230000e-001) (28, 4.70936815228619080000e-001) (29, -1.99859049036584220000e-001) (30, 6.19956490340657920000e-001) (31, -1.53803570581824790000e+000) (32, 6.67549348575204180000e-002) (33, -2.05294253895746740000e-001) (0, 2.82974252221450980000e+000) (1, -2.05182847886731830000e-001) (2, 6.52100137711038590000e-001) (3, 1.37795420807572370000e-001) (4, -3.37703316818557440000e+001) (5, 1.37048258425646650000e+000) (6, -7.25063076169344180000e+000) (7, -2.05903966980937090000e+000) (8, -1.52802221333138300000e+000) (9, 1.45069898528292610000e-001) (10, -8.17202433199776120000e+000) (11, 1.86133407808645360000e+000) (12, 5.66326284742066480000e+000) (13, 4.79232172234218490000e-001) (14, -3.49670597076377290000e+000) (15, 5.52804430980990270000e-002) (16, -1.22860270943422730000e+001) (17, 3.66706436651632960000e+000) (18, 5.31718234182354090000e-001) (19, -7.20844680172163850000e-001) (20, 4.69539802951074610000e-001) (21, -5.48169930941419530000e-001) (22, -4.75880066640764720000e+000) (23, 4.97313992297124810000e-001) (24, 8.38903755676781590000e+000) (25, 7.32569277468437470000e-001) (26, 7.19052701559533070000e+000) (27, -2.81232532816436450000e-001) (28, 8.28367118564016790000e-001) (29, 1.73056092982335220000e+000) (30, 8.17150846758009660000e+000) (31, -7.71354442239736930000e-001) (32, 2.13734493426659130000e+000) (33, 3.27179793282529610000e-001) (0, 7.19164342401398930000e+000) (1, 1.10137879472633680000e-001) (2, 1.32795643546947900000e+001) (3, -5.50288788638504280000e-001) (4, -1.72739770080394340000e-001) (5, -5.15694930176350190000e-002) (6, -4.75515521365519510000e+000) (7, -2.31532942873287270000e-001) (8, 3.50458652024996240000e+000) (9, 2.31166384891739270000e-001) (10, 8.81571148069410620000e-001) (11, 1.20187295148430650000e+000) (12, -9.41150843224296980000e-001) (13, -2.58282880773388450000e-002) (14, 5.56444469061365800000e-001) (15, 1.68442716493172370000e+000) (16, -3.26757107590551940000e+000) (17, 1.41049130519165970000e+000) (18, 1.24117199612671380000e+000) (19, 2.83075043104277890000e-001) (20, -3.09139847586703540000e-001) (21, 4.64188281078003920000e-001) (22, 1.51540585235106690000e+001) (23, 1.02714681045235160000e-001) (24, -1.06272463128119770000e+001) (25, 4.73705527405944400000e-001) (26, 7.86487369943629490000e+000) (27, -1.52016459517123670000e-001) (28, -9.05911291733625750000e+000) (29, 7.68013655027589000000e-001) (30, 6.44966583540268610000e+000) (31, 3.86036868886354080000e-001) (32, 2.30348733047474390000e+001) (33, -1.37250450411821890000e+000) (0, -2.31116339018327150000e+000) (1, -1.99010543497473440000e-002) (2, -8.98570565096038500000e-002) (3, 1.25311793647210660000e+000) (4, 6.94153289343512500000e-001) (5, 2.63465492155640080000e-001) (6, 3.56897877697827160000e-001) (7, 1.99437890540874620000e+000) (8, 1.92009751208904530000e+000) (9, 9.30186214917198270000e-002) (10, 2.44991413362396380000e-001) (11, -4.05463454260771740000e-001) (12, -8.95177184642374790000e+000) (13, 9.17591767478253550000e-001) (14, -2.21502003412263000000e-001) (15, 2.03494502271678150000e-001) (16, -3.60961137882424900000e-001) (17, 3.13452671840089400000e-001) (18, -1.28340990033888750000e+001) (19, 4.39625597280650090000e-001) (20, -4.91811342239885370000e-001) (21, 3.86883141631753860000e-001) (22, 8.33131422452108030000e-001) (23, 1.74824871247329730000e+000) (24, -2.05230261467414230000e+000) (25, -6.02898210719157720000e-002) (26, 6.66041485929822040000e+000) (27, -2.92193344897631670000e-002) (28, -8.41429784051946570000e-001) (29, 1.63329591691545340000e-001) (30, 4.67741436571598170000e+000) (31, 7.63183953585793160000e-002) (32, 4.45641583310391280000e+000) (33, 4.97912108785793890000e-001) (0, -7.70067022764367340000e+000) (1, -3.48075370852015450000e-001) (2, 3.11243041157625470000e+000) (3, 1.72589666204305410000e-001) (4, 4.36697055478577350000e-001) (5, -3.51261005523493870000e-001) (6, 1.38310058981433630000e+001) (7, 8.55171106732231510000e-001) (8, -2.10712890343469430000e-001) (9, -1.24060236446008760000e+000) (10, 3.55694479206750060000e+000) (11, -7.64403224381756120000e-001) (12, -1.07408052952464570000e-001) (13, 9.40531410393017800000e-001) (14, 3.27489214038095790000e+000) (15, -1.76367782078457010000e-002) (16, 4.88135320899780200000e+000) (17, -4.21981063312337920000e-001) (18, -3.75046147586880260000e+000) (19, -4.88740889238855340000e-001) (20, -2.50542847361007140000e+000) (21, -9.52526993449797080000e-001) (22, 9.92447261831288510000e-001) (23, 8.09769122647964860000e-001) (24, 1.91702197398975730000e-001) (25, -3.98147366421193580000e-001) (26, -3.40272673142352790000e+000) (27, 7.89607359218326480000e-001) (28, 2.48237402278201280000e+000) (29, -4.70274828797128840000e-001) (30, -4.62475674422614260000e+000) (31, 2.52284554084060250000e-001) (32, 1.72572066438953300000e+001) (33, -7.88811039476238350000e-002) (0, 2.82090030342493140000e+000) (1, -3.36145090481181690000e-001) (2, -9.98748617781534160000e+000) (3, 4.44295740528212750000e-001) (4, 6.40187444351261800000e+000) (5, -8.86474041479387350000e-001) (6, 2.87040947749102720000e+000) (7, 1.72193913264931180000e-002) (8, -8.51984624226260090000e-001) (9, -3.80233939857635480000e-001) (10, 2.07216358482617750000e+000) (11, -1.25924997640338980000e+000) (12, 2.23307405169094110000e-001) (13, 1.17260641401445890000e-001) (14, 1.26735879213469340000e+000) (15, -1.51195262970253850000e+000) (16, -1.22685823344936810000e+000) (17, 8.27716160974742850000e-002) (18, -2.53149668382410200000e+000) (19, -7.38617538355114570000e-001) (20, -9.90222709075735060000e-001) (21, 1.78412454424548390000e-002) (22, 3.10622585180023680000e+000) (23, -1.87873729762528500000e+000) (24, 9.91882641146355160000e-001) (25, 2.89670153648820150000e-001) (26, 7.15790798560295020000e+000) (27, -2.11505333698125350000e-001) (28, 1.07572504550009330000e+000) (29, -1.79039543602592710000e+000) (30, -3.77782852344435490000e+000) (31, -2.21951807244472780000e-001) (32, 5.03442044778643090000e+000) (33, -4.14516010080300260000e-001) (0, 7.41259865928721770000e+000) (1, -1.37917324812463750000e+000) (2, 3.69663515330397810000e+000) (3, -2.42449647336231420000e+000) (4, 6.86016332665560720000e-001) (5, -6.44768379890795500000e-001) (6, 8.80190168404054420000e+000) (7, 4.66481122371420640000e-001) (8, -4.18984893646352590000e+000) (9, 9.18838391203275710000e-001) (10, 3.33262306151612540000e+000) (11, 4.06395860782503280000e-001) (12, -7.29460687360890250000e+000) (13, -1.26448187641213840000e+000) (14, 3.95210329157473120000e+000) (15, 4.11775719885558440000e-003) (16, -1.16399326927311580000e+001) (17, -7.99276083541571650000e-001) (18, 4.56192492509638380000e+000) (19, 3.63506710142650740000e-001) (20, -2.09430081981849090000e+001) (21, 2.42634411328186760000e-002) (22, -3.45485197164189950000e+000) (23, -2.11565185954734950000e+000) (24, 1.21725664553386830000e+000) (25, -3.50287912471292140000e+000) (26, 5.42339453054766100000e+000) (27, -1.21569607071402850000e+000) (28, 2.18314876546413750000e+000) (29, -1.68785838480944140000e-001) (30, 1.25396162015222300000e+000) (31, -1.35094715091451350000e+000) (32, 6.63638570231649180000e-001) (33, -6.73333466472711530000e-001) (0, 2.61747901485167310000e+000) (1, 2.75454254897873560000e-001) (2, 1.20745663563387510000e+001) (3, 1.23558620246616240000e+000) (4, -6.59322397439760710000e+000) (5, -1.28004005059169590000e-001) (6, 1.59747245937564720000e+001) (7, -6.40417663375311920000e-001) (8, -2.61704436253025640000e+001) (9, -9.88034215902690650000e-003) (10, -1.41346809580851770000e-001) (11, 1.05416915954126380000e-001) (12, 5.18142175950334050000e+000) (13, 5.51306390851091790000e-001) (14, 8.14980453356512370000e-001) (15, 7.15991454950980930000e-001) (16, 2.33382070422242060000e+000) (17, 5.85326272946628310000e-001) (18, 9.33293970445901700000e+000) (19, 8.07687320619503320000e-001) (20, -7.43493038551741870000e-002) (21, 7.41733840089066200000e-002) (22, -1.14595823399642510000e-001) (23, 1.13555078801824440000e-001) (24, -2.14525165309712000000e-001) (25, 5.14041195016092530000e+000) (26, -3.13593848076136770000e-001) (27, 3.37061453563388460000e-001) (28, -4.60971221833686830000e-001) (29, 2.40115601620652100000e-001) (30, -2.17294239928006620000e-001) (31, 5.46910962921446920000e-002) (32, -3.69516932347591760000e+001) (33, 1.67646926214739980000e-001) (0, -1.27115870287481240000e+000) (1, -4.82635119967306240000e-001) (2, 3.59915474576687600000e-001) (3, 6.45985644945793360000e-001) (4, -2.41135015835705420000e+000) (5, 2.04306499477239060000e-001) (6, -1.25323646960929780000e+001) (7, -9.66949237729212710000e-001) (8, -1.77751577371845040000e+001) (9, 8.57670321824017370000e-001) (10, -1.30281213126139350000e+001) (11, 3.98770531742373290000e-002) (12, 1.88446768603280890000e+001) (13, 1.66488802329320730000e-001) (14, 4.06859606370915030000e+000) (15, 1.12428829734964240000e+000) (16, -1.09953246523591530000e+000) (17, -1.55406436589777690000e+000) (18, 1.09301620051749210000e+001) (19, 2.66163347753622980000e+000) (20, -8.94132911614146320000e-001) (21, 8.98502446342692270000e-001) (22, -2.16868105024756870000e-001) (23, -3.76798363291658060000e-001) (24, 4.28446023135198310000e-001) (25, 6.01977330578721600000e-001) (26, 7.29520578507669440000e-002) (27, 9.25440217384668750000e-001) (28, -1.69748479221371530000e+000) (29, 3.97539896428458610000e-001) (30, 1.50586009388822360000e+000) (31, -4.09807584506294060000e-001) (32, 7.00010809924127700000e-002) (33, 4.87703450446262120000e-001) (0, -1.32947552084650460000e+000) (1, -1.71209168733542220000e-002) (2, 1.94012981358680450000e-001) (3, -7.38596767625755020000e-002) (4, 1.90478061045536020000e-001) (5, -1.02496735205660800000e-001) (6, 5.61639451882812950000e-001) (7, -1.35016796722946780000e-001) (8, 8.60160956094937480000e-001) (9, -1.27766581311182930000e-001) (10, 2.93279863401752490000e-001) (11, -1.11730421390948910000e-001) (12, 3.12831359105595170000e-001) (13, 9.70598672773908540000e-002) (14, 1.81522045805544150000e-002) (15, -2.56509432521310720000e-002) (16, 5.06214961924637550000e-002) (17, 2.69394060434975210000e-001) (18, 1.04977005605105810000e+000) (19, -1.08668044859820860000e-001) (20, 7.68775481743981940000e-002) (21, -1.12770677479205980000e-001) (22, 2.58359124765229930000e-001) (23, -3.76929363570527200000e-001) (24, -1.19600657329892070000e-001) (25, 1.92896889141918190000e-001) (26, 1.44193524113653870000e+000) (27, 1.91824915658514280000e-001) (28, 5.28523223818899820000e-001) (29, -1.85073363755289240000e-001) (30, -1.76853797580557300000e+000) (31, -3.05727474692219360000e-002) (32, -2.94546092044922380000e-001) (33, 2.21608587314319410000e-002) (0, 1.86019550033565750000e-002) (1, 1.01465437563957580000e-001) (2, 5.43623495878520550000e-001) (3, -4.85200342586681490000e-001) (4, 5.93718561108947610000e-001) (5, 7.70098738694582200000e-002) (6, 3.46399727928767660000e-001) (7, -6.22635239393566080000e-002) (8, 1.47898714235104430000e+000) (9, 3.90790115874527500000e-002) (10, 3.81884853776522930000e-001) (11, 8.04034748268959850000e-002) (12, -7.23207109340592070000e-003) (13, 4.59119136853787690000e-001) (14, -7.80234910066460510000e-001) (15, -8.94375478209888520000e-002) (16, 1.17654285034416590000e+000) (17, 1.23459309287363690000e-001) (18, 1.25126594396026800000e-001) (19, 5.73047947284636370000e-001) (20, 4.82658574816464350000e-001) (21, 7.25602471420216940000e-002) (22, 5.24971365096737030000e-001) (23, -6.84735562213901330000e-002) (24, -2.92310270445263480000e-001) (25, -5.98376787676606000000e-002) (26, 4.04665082834584580000e-001) (27, 1.48152601912066060000e-001) (28, -1.20979352232771990000e+000) (29, 2.94240166018878370000e-001) (30, 3.45912024429610500000e-001) (31, -5.17500044886435580000e-002) (32, -1.61795483011082260000e-001) (33, -1.33993296763852630000e-001) (0, -9.33365747140578520000e-001) (1, 5.08168923035657510000e-002) (2, 2.63350071270692210000e-001) (3, -1.49140513054784650000e-001) (4, -2.12184242754317330000e+000) (5, -1.08634964091334910000e-001) (6, -6.05786998288690630000e+000) (7, 4.26483610631783820000e-002) (8, -1.45362866619205630000e+000) (9, 7.22444202006467250000e-002) (10, 1.71778704130003400000e-002) (11, 4.16066498273342940000e-002) (12, -4.98471919904713000000e+000) (13, 2.17019187480922730000e-002) (14, -2.06207846263475720000e+000) (15, 1.93722468958909540000e-001) (16, 2.92289961622182040000e-002) (17, 4.13868534776521140000e-001) (18, 2.04381544192354630000e-001) (19, 5.47971799408831780000e-001) (20, 3.48879625452581830000e-001) (21, 1.54617689184334830000e-001) (22, -1.58980258566010700000e-001) (23, -2.06202734877722390000e-001) (24, 2.64275123360092310000e+000) (25, -1.77251888308905260000e-001) (26, 6.60021928970381920000e-001) (27, -6.82076635435556970000e-001) (28, 9.15184610139513580000e-001) (29, -6.55265155085775900000e-002) (30, -2.39792781718580670000e+000) (31, -6.15366068467091410000e-001) (32, -1.99816959443964740000e+001) (33, -1.88590055671155580000e-002) (0, 3.05688414103624410000e-001) (1, 1.04037458685065800000e+000) (2, 9.86480598759413850000e-001) (3, -1.90832214116118770000e+000) (4, 2.38680735389202140000e+001) (5, -3.18248974562210800000e-001) (6, -4.19079590166786180000e+000) (7, -2.98037242104856770000e-001) (8, -3.38334005621987940000e+000) (9, 1.36182265694656220000e-001) (10, -6.66849579025829970000e+000) (11, 5.87586255660255130000e-001) (12, 4.03904748220950620000e+000) (13, 3.79570078325753790000e-001) (14, 7.72291590844598200000e+000) (15, -4.36717767875841270000e-001) (16, -2.04473557836959240000e+000) (17, 1.28645128245001470000e+000) (18, -4.46221374482896230000e-001) (19, -3.89158392334359340000e-001) (20, -3.83460698805795450000e+000) (21, 1.72580811110134640000e+000) (22, 2.50292994439670210000e+000) (23, -7.72249766997138990000e-001) (24, -2.40709860521131750000e+000) (25, 4.47769853793554720000e-001) (26, 2.09334029738692080000e+000) (27, 5.40223387911058060000e-001) (28, 1.50512025765765700000e+000) (29, -9.36079852356279440000e-001) (30, 1.98106514883215400000e+000) (31, 5.95279592476289370000e-001) (32, 2.90937224390953640000e+000) (33, 1.28777146379937480000e-001) (0, 3.49910416529475080000e+000) (1, -5.05366880106630990000e-002) (2, -9.14459579388011610000e+000) (3, 1.98784063111838880000e-001) (4, 2.01009412571193120000e-001) (5, 2.45079806647823750000e-001) (6, 3.67711657908284080000e-001) (7, 2.54103896551989670000e-001) (8, 1.18815998723530320000e+001) (9, 3.90122545267851670000e-002) (10, 1.17340247586969680000e+000) (11, 2.65569373182304720000e-001) (12, 7.59821350707446990000e+000) (13, -9.07748718291491590000e-002) (14, 1.75924437668579930000e-001) (15, -8.77741089729608130000e-002) (16, -2.55397008210490550000e-001) (17, -3.50478666372999810000e-002) (18, 5.63156671976913330000e-001) (19, -1.04917801278705990000e-001) (20, -9.73034346009048430000e+000) (21, -3.14553399496696400000e-002) (22, -5.69980148600533720000e+000) (23, -1.37565526965596120000e-001) (24, 4.47646355892010070000e-001) (25, 4.10646546139654960000e-001) (26, 3.22661637578702630000e+000) (27, 8.78109456350824320000e-002) (28, 3.85780645421798460000e-001) (29, -2.32423527001948900000e-001) (30, 1.04141649399292560000e+000) (31, -2.18071145399780400000e-002) (32, 1.14614674875029900000e+000) (33, -7.67788648399773350000e-003) (34, -6.61368160454900660000e-001) (35, 4.55001996874383030000e-001) (36, 3.30762775619054760000e-001) (37, 1.91660215382882200000e+000) (38, -1.71471671204458210000e+000) (39, 3.65643148708156230000e-001) (40, 1.56473224359330730000e+000) (41, -3.62346514334620730000e-001) (42, -5.43773029262915930000e-001) (43, 3.40746569956662140000e-001) (44, 1.28182075460397550000e+000) (45, -1.36386643627217110000e+000) (46, -2.75138984588358730000e-001) (47, 6.10545401220507040000e-001) (48, 3.77930134781346350000e-001) (34, 1.16360461469306030000e+000) (35, 1.36297592283973710000e+000) (36, -1.35198536773586900000e-001) (37, -1.81723837060647380000e-001) (38, 1.81188877517219100000e+000) (39, -7.43422889036372410000e-002) (40, -2.63170240777279020000e-001) (41, 9.47350772743977390000e-001) (42, 1.74578691420581380000e+000) (43, -1.56577792371587110000e+000) (44, -1.62896756659297330000e+000) (45, 9.66708434081509530000e-001) (46, 2.15829116741216830000e+000) (47, 7.80710605766564920000e-001) (48, 4.24718858648295170000e-001) (34, -8.94115384981166940000e-001) (35, -1.00244173457903150000e+000) (36, -8.69388107906003520000e-001) (37, -1.44793103783606210000e-001) (38, 1.55103066675129270000e-001) (39, -1.40095545805954450000e+000) (40, -6.18820076361739190000e-001) (41, -1.09974118157307200000e-001) (42, -7.54965219039925860000e-001) (43, 1.31802005500419870000e+000) (44, 8.76355918662452220000e-001) (45, 6.90354366473775680000e-001) (46, -8.12582643115378760000e-001) (47, 1.30324450494155450000e-001) (48, 4.27528124060893080000e-001) 
