FANN_FLO_2.1
num_layers=3
learning_rate=0.700000
connection_rate=1.000000
network_type=0
learning_momentum=0.000000
training_algorithm=2
train_error_function=1
train_stop_function=0
cascade_output_change_fraction=0.010000
quickprop_decay=-0.000100
quickprop_mu=1.750000
rprop_increase_factor=1.200000
rprop_decrease_factor=0.500000
rprop_delta_min=0.000000
rprop_delta_max=50.000000
rprop_delta_zero=0.100000
cascade_output_stagnation_epochs=12
cascade_candidate_change_fraction=0.010000
cascade_candidate_stagnation_epochs=12
cascade_max_out_epochs=150
cascade_max_cand_epochs=150
cascade_num_candidate_groups=2
bit_fail_limit=3.49999999999999980000e-001
cascade_candidate_limit=1.00000000000000000000e+003
cascade_weight_multiplier=4.00000000000000020000e-001
cascade_activation_functions_count=10
cascade_activation_functions=3 5 7 8 10 11 14 15 16 17 
cascade_activation_steepnesses_count=4
cascade_activation_steepnesses=2.50000000000000000000e-001 5.00000000000000000000e-001 7.50000000000000000000e-001 1.00000000000000000000e+000 
layer_sizes=34 27 4 
scale_included=0
neurons (num_inputs, activation_function, activation_steepness)=(0, 0, 0.00000000000000000000e+000) (0, 0, 0.00000000000000000000e+000) (0, 0, 0.00000000000000000000e+000) (0, 0, 0.00000000000000000000e+000) (0, 0, 0.00000000000000000000e+000) (0, 0, 0.00000000000000000000e+000) (0, 0, 0.00000000000000000000e+000) (0, 0, 0.00000000000000000000e+000) (0, 0, 0.00000000000000000000e+000) (0, 0, 0.00000000000000000000e+000) (0, 0, 0.00000000000000000000e+000) (0, 0, 0.00000000000000000000e+000) (0, 0, 0.00000000000000000000e+000) (0, 0, 0.00000000000000000000e+000) (0, 0, 0.00000000000000000000e+000) (0, 0, 0.00000000000000000000e+000) (0, 0, 0.00000000000000000000e+000) (0, 0, 0.00000000000000000000e+000) (0, 0, 0.00000000000000000000e+000) (0, 0, 0.00000000000000000000e+000) (0, 0, 0.00000000000000000000e+000) (0, 0, 0.00000000000000000000e+000) (0, 0, 0.00000000000000000000e+000) (0, 0, 0.00000000000000000000e+000) (0, 0, 0.00000000000000000000e+000) (0, 0, 0.00000000000000000000e+000) (0, 0, 0.00000000000000000000e+000) (0, 0, 0.00000000000000000000e+000) (0, 0, 0.00000000000000000000e+000) (0, 0, 0.00000000000000000000e+000) (0, 0, 0.00000000000000000000e+000) (0, 0, 0.00000000000000000000e+000) (0, 0, 0.00000000000000000000e+000) (0, 0, 0.00000000000000000000e+000) (34, 5, 5.00000000000000000000e-001) (34, 5, 5.00000000000000000000e-001) (34, 5, 5.00000000000000000000e-001) (34, 5, 5.00000000000000000000e-001) (34, 5, 5.00000000000000000000e-001) (34, 5, 5.00000000000000000000e-001) (34, 5, 5.00000000000000000000e-001) (34, 5, 5.00000000000000000000e-001) (34, 5, 5.00000000000000000000e-001) (34, 5, 5.00000000000000000000e-001) (34, 5, 5.00000000000000000000e-001) (34, 5, 5.00000000000000000000e-001) (34, 5, 5.00000000000000000000e-001) (34, 5, 5.00000000000000000000e-001) (34, 5, 5.00000000000000000000e-001) (34, 5, 5.00000000000000000000e-001) (34, 5, 5.00000000000000000000e-001) (34, 5, 5.00000000000000000000e-001) (34, 5, 5.00000000000000000000e-001) (34, 5, 5.00000000000000000000e-001) (34, 5, 5.00000000000000000000e-001) (34, 5, 5.00000000000000000000e-001) (34, 5, 5.00000000000000000000e-001) (34, 5, 5.00000000000000000000e-001) (34, 5, 5.00000000000000000000e-001) (34, 5, 5.00000000000000000000e-001) (0, 5, 0.00000000000000000000e+000) (27, 5, 5.00000000000000000000e-001) (27, 5, 5.00000000000000000000e-001) (27, 5, 5.00000000000000000000e-001) (0, 5, 0.00000000000000000000e+000) 
connections (connected_to_neuron, weight)=(0, 3.33082193294854000000e-001) (1, 7.90813537910600990000e-002) (2, 5.52728291198365420000e-001) (3, -3.60791697531395120000e-001) (4, 1.15543251137982060000e-002) (5, 3.75488699970974450000e-002) (6, 3.25520446457872180000e-002) (7, -7.49074798035241350000e-002) (8, 3.81798602731739270000e-001) (9, -1.02675688562043370000e-001) (10, 2.53131597216729820000e-003) (11, 1.16720362671303870000e-002) (12, 6.86646144933452440000e-001) (13, -9.59948641880327410000e-002) (14, 2.33581934980898080000e-001) (15, -4.45828114294970840000e-002) (16, -8.33133687323434290000e-001) (17, -1.12730113437263410000e-001) (18, 1.53674094672605260000e-001) (19, 1.41987231048332530000e-002) (20, -2.87904062850737620000e+000) (21, 2.53582024978501880000e-002) (22, 4.63079463368551270000e-001) (23, -3.23256500647017280000e-002) (24, -2.17931587386275240000e-001) (25, -5.56236440315680670000e-002) (26, 3.37035426578205620000e-001) (27, -1.44745092101929100000e-001) (28, 2.56208904544113550000e-001) (29, -1.53656856706593600000e-001) (30, 3.24819655181879050000e-001) (31, -4.74442256998679060000e-002) (32, 6.91857432713765990000e-001) (33, -7.73068791359386720000e-002) (0, -6.68948962182238200000e-001) (1, 1.40970482101651360000e-001) (2, 1.29622793443744590000e+000) (3, 9.62597893780326870000e-002) (4, 5.26954247018502490000e-002) (5, 1.03813444918515560000e-001) (6, 3.78287095294821410000e-001) (7, 8.49305113205257870000e-002) (8, -1.00345432355487690000e-001) (9, 4.46834523909717010000e-001) (10, 1.99696095435986600000e-001) (11, 7.08476982038489740000e-001) (12, 3.43952770203136140000e-001) (13, 6.27468841119952490000e-002) (14, -1.38035444708913350000e-001) (15, 8.04731442538560990000e-001) (16, 1.31062845849880110000e+000) (17, 4.20469918310113490000e-002) (18, -1.02551724399062750000e+000) (19, 9.80498492508283110000e-002) (20, 1.14931508860662520000e+000) (21, 1.06855493421326500000e+000) (22, -1.54524408143952230000e+000) (23, -4.39015193144237040000e-003) (24, 9.09868785423069700000e-001) (25, 1.11285276522505080000e+000) (26, -4.85973225340990920000e+000) (27, 4.05724015538396990000e-001) (28, 1.01655087301852440000e+000) (29, 2.77617830785181260000e-001) (30, -5.99961598110929420000e-001) (31, 6.54536681125989390000e-001) (32, -2.67056945016243890000e+000) (33, 4.51032591937062240000e-001) (0, 7.48855493731016900000e-001) (1, -4.32320946452205010000e-002) (2, -7.67277805961459000000e-001) (3, 4.28706002714568520000e-002) (4, 2.50354499013256630000e-001) (5, -6.95525266548742970000e-002) (6, -2.63965528484256980000e+000) (7, 1.87214173447196420000e-002) (8, 1.13052673722474050000e+000) (9, 1.00432884246326570000e-003) (10, 2.07710173276922120000e+000) (11, -7.34695532798023960000e-002) (12, 9.48736917977945350000e-001) (13, -3.17541075718872630000e-002) (14, -4.24541814681694550000e-001) (15, -2.29743065295199500000e-001) (16, 1.64007728159394430000e-001) (17, -7.48032554159223230000e-002) (18, 2.34491985691027550000e-001) (19, 1.73744508176176050000e-002) (20, 3.97015455247385910000e-001) (21, -2.05559449310145120000e-002) (22, 1.14540594515441850000e+000) (23, -3.39633266471859040000e-002) (24, 9.75829190997599020000e-001) (25, 5.11121286368862860000e-002) (26, 4.42366750953856640000e-001) (27, -2.56945380582658120000e-002) (28, 3.84309088239667920000e-001) (29, -3.83780907672604320000e-002) (30, 4.16299498229145580000e-001) (31, -1.35899099086066540000e-001) (32, 5.23478113408199390000e-001) (33, -1.02332234461325400000e-001) (0, 9.13220404147803260000e-001) (1, -8.11446392580105760000e-002) (2, 1.25035741051587120000e+000) (3, 6.29471469048236920000e-001) (4, 2.81639214630275350000e+001) (5, 9.36127543213933630000e-002) (6, 9.28815422473677540000e+000) (7, -1.91278599733875570000e-001) (8, 4.36143884330731530000e-001) (9, -1.62807217988339150000e+000) (10, -4.34008826135903480000e+001) (11, -3.44995844747445320000e-001) (12, 6.03391904260414960000e+000) (13, 7.29118917282281290000e-001) (14, 3.44378990373185980000e-001) (15, -1.01292079048960760000e+000) (16, 9.24069146443036950000e-001) (17, 1.12382340110005070000e-001) (18, -1.39458850785489740000e+000) (19, -2.11636273206283800000e+000) (20, 9.03792076405762870000e-001) (21, 4.52604554913429770000e-001) (22, -1.05760929981940210000e+001) (23, 4.98291009541754320000e-001) (24, 4.51480997271610280000e+000) (25, -3.31956163340498990000e-003) (26, -3.14303001395750680000e-001) (27, -6.43239437910235750000e-001) (28, 1.49953552149883490000e+001) (29, 2.41439226950908440000e-002) (30, 2.54494152534396400000e+000) (31, -2.63717779719138350000e-001) (32, -1.55147605724110650000e+001) (33, 2.06988004163038810000e-001) (0, -1.93750258126967930000e+000) (1, 2.51190809205375450000e-001) (2, 9.19826334095504090000e+000) (3, 2.88828391223516830000e-001) (4, 3.73587114740784050000e+000) (5, 9.35256033386125400000e-001) (6, -2.94952623886529120000e+000) (7, 1.67904378792292140000e+000) (8, -2.97322417649048560000e+001) (9, 3.07373658468486570000e+000) (10, -1.74504081951783110000e+000) (11, 7.13592269938727600000e-001) (12, -9.65044442289784140000e-001) (13, -5.54612186733864920000e-002) (14, 8.69772895866444020000e-001) (15, 9.80169408506959440000e-001) (16, -2.43585511772081100000e+000) (17, 1.50577520905981030000e-001) (18, 2.07249134187322350000e+001) (19, 1.51149465645398330000e-001) (20, 3.12279287710126230000e+000) (21, -4.96482731589654520000e-002) (22, 9.73494616256531840000e+000) (23, 4.37501513541218520000e-001) (24, -8.94732304203873950000e+000) (25, 9.63951013748293060000e-001) (26, 5.07914846257414960000e+000) (27, -3.86603001944934090000e-002) (28, 1.93886059761905760000e-001) (29, 5.29404343721750600000e-001) (30, -6.18616146280410020000e+000) (31, 1.99087457436411470000e+000) (32, 1.00762389757251590000e+001) (33, 1.74847918633495410000e-001) (0, -3.75656382399254210000e+000) (1, -5.15165512591325490000e-002) (2, -1.31523060357805570000e+001) (3, -3.60391777940616500000e-001) (4, -1.07497440679638620000e+001) (5, -2.38664576491340260000e-001) (6, 1.00326460142162470000e+000) (7, -6.43608257032907920000e-001) (8, 1.17187283171631180000e+000) (9, 8.40278996678066940000e-001) (10, 1.98813208622566510000e+001) (11, -1.57807900994673120000e-001) (12, 4.91581338572089740000e-001) (13, 5.92501884618002810000e-002) (14, -3.19579930008219690000e+000) (15, 1.05917092388508510000e-001) (16, -2.26914634080802950000e+000) (17, 3.53300536757482990000e+000) (18, 4.23110130675675820000e-001) (19, -9.14664369104345010000e-001) (20, 1.35207384010527050000e+001) (21, -2.84927067652238240000e-001) (22, 6.66048387354698510000e+000) (23, 9.64770693190935560000e-001) (24, 9.97096452946622410000e+000) (25, 9.72347597363591550000e-001) (26, 7.11660080517556170000e-002) (27, 1.90946129265051480000e+000) (28, 9.56924376000618530000e-001) (29, -1.53521667184226970000e+000) (30, 6.48461003033979470000e+000) (31, -4.64500079677853560000e-001) (32, 8.66963765373689730000e+000) (33, 7.49348378133831710000e-002) (0, -1.63922520426740730000e+001) (1, 6.09148087879258230000e-001) (2, 2.26179117243969650000e+001) (3, 4.86703560122421080000e-002) (4, -6.56543237645903590000e+000) (5, 1.69486420674602670000e+000) (6, -1.37641474931430250000e+001) (7, -2.24938291095542610000e-001) (8, -7.13398760402072510000e-001) (9, 2.64140465325390170000e+000) (10, -1.01644273694527230000e+001) (11, 3.18906718909428840000e-001) (12, 1.03529101893109470000e+000) (13, -2.21315693635817880000e-001) (14, 8.71223621373543590000e-001) (15, -1.06664179027188320000e-001) (16, -6.15359623972977500000e+000) (17, 1.63789761411874200000e+000) (18, 1.94319378015501980000e+001) (19, -1.50188395483070320000e+000) (20, 7.83268444785314170000e+000) (21, 1.34958049536427380000e+000) (22, 1.75310635562902530000e+001) (23, -5.09517895606719890000e-001) (24, 1.33554694967043130000e+000) (25, 1.09864492717512110000e+000) (26, -3.19219586241778860000e+000) (27, 6.48112134309332570000e-001) (28, 3.45691746155044610000e+000) (29, 2.00441768826661580000e+000) (30, -7.52945136604397770000e-001) (31, 8.75040999133178990000e-003) (32, -1.99105653617766270000e+000) (33, 7.24890149994616760000e-001) (0, -5.36569838186149230000e-001) (1, -1.91462248386979170000e-002) (2, 3.36471768873961410000e-001) (3, 5.77049680821600570000e-001) (4, 7.06013583609960800000e-001) (5, -3.12521264185393390000e-001) (6, 3.19350683089179520000e-001) (7, -8.88536749315538550000e-002) (8, -6.31473365740842340000e-001) (9, 6.43264429215131380000e-001) (10, 4.51155923309488560000e-001) (11, 1.31883751950824140000e+000) (12, 6.22331042828236150000e-001) (13, 3.55290680424285230000e-002) (14, 3.49513083241103880000e+000) (15, 5.38314997366938000000e-001) (16, 2.50772118170686060000e-002) (17, 1.09888294887094080000e+000) (18, 6.51745364016052960000e+000) (19, -9.92447832745247810000e-002) (20, -1.42208628637758010000e+000) (21, -9.42989675180948840000e-002) (22, 2.51638804034832960000e-001) (23, 8.01001642057246330000e-002) (24, 1.61297423378250700000e+000) (25, -3.92097877550973420000e-001) (26, -3.77228862145351920000e-002) (27, 1.32340250937992290000e-001) (28, 3.30249669978185330000e-001) (29, 1.45233858429212380000e-001) (30, -1.56197877716313390000e+000) (31, 2.32961674737390660000e-001) (32, -4.44674649077110230000e-002) (33, 1.23318777770940750000e-001) (0, -5.36565441303756430000e+000) (1, 4.68724760642444060000e-001) (2, 5.46892811747936940000e+000) (3, 1.17892364773660750000e-001) (4, -8.51808919080142070000e+000) (5, 2.93563227703297510000e-001) (6, 4.96713999715903620000e-002) (7, 4.22948860162350450000e-001) (8, 8.51430299888083500000e-001) (9, 4.64962897066313330000e-001) (10, 5.50741898069928130000e-001) (11, 3.34753331927567570000e-001) (12, -2.87690156664810570000e-001) (13, 6.67412079661618750000e-001) (14, 2.25918425471625770000e+000) (15, 2.50112121554892210000e-001) (16, -3.46322618407818130000e+000) (17, 5.67386411645629200000e-001) (18, -1.27483653857163940000e+000) (19, 2.01909815987002220000e+000) (20, 3.55384216128547760000e-001) (21, 6.14855223486898250000e-001) (22, 6.38934134802699670000e-001) (23, 3.82793095309880980000e-001) (24, -4.20349349306106480000e+000) (25, 1.33495676874878710000e+000) (26, 5.77078276884627210000e-001) (27, 2.24412399945798010000e-001) (28, -3.05443188651411230000e-001) (29, 4.99228788272564890000e-001) (30, -6.07769029851817700000e-002) (31, 2.66856734757932260000e-001) (32, 1.99949839414094800000e+001) (33, 7.60926850954622870000e-001) (0, -1.31814079428084000000e+001) (1, 5.37936242781659860000e+000) (2, -8.52587802986563560000e-002) (3, 1.00233724133367200000e-001) (4, -1.48727941997159570000e+000) (5, -3.51854684727194500000e-001) (6, 1.19541085894103670000e+001) (7, -1.03056835181094890000e-001) (8, -1.00705637329534570000e+000) (9, -3.88069830339440260000e-001) (10, -4.41701416013993430000e-001) (11, -7.89575367520646390000e-001) (12, 2.30413116984238410000e+000) (13, 1.26357652113867120000e-001) (14, 1.14663763189146780000e+001) (15, -2.04643792019688770000e-001) (16, -2.34576776243510170000e-001) (17, -2.43351264422201700000e-001) (18, 2.03831246390534600000e+000) (19, 1.14576018176855520000e+000) (20, -1.49318885021345760000e+000) (21, 9.10041865610498270000e-001) (22, -7.73786933828628070000e+000) (23, 1.32067887106859680000e+000) (24, 7.78934757092684920000e+000) (25, 9.14618963073209000000e-001) (26, 1.60025021699913220000e+000) (27, 4.77242086166434540000e-001) (28, -7.91488586350050480000e+000) (29, -6.40349344962941320000e-002) (30, 1.05510058712643980000e+000) (31, 5.48821452923813790000e-001) (32, 1.97846739359465550000e+000) (33, 5.42013347555861060000e-001) (0, -1.60902322814797730000e+000) (1, 5.25992666228591380000e-002) (2, 1.92752844453169590000e-001) (3, 3.75034685358652480000e-001) (4, 1.04834635476700360000e+000) (5, -4.56016703573480440000e-002) (6, -6.68400339655681020000e-001) (7, -9.39128518352042310000e-002) (8, -1.74116619366394470000e+001) (9, 1.33277005234985510000e+000) (10, -2.97533837406621370000e-001) (11, -1.40476054961079620000e-001) (12, 3.13675931519565940000e+000) (13, 3.81032001258071410000e-001) (14, 2.64388886011674980000e-001) (15, 3.48231013542723290000e-001) (16, -4.18728371189927630000e+000) (17, 6.15867339807333440000e-001) (18, 2.66238623265487860000e-001) (19, 3.50367920554702840000e-001) (20, 1.64462358537957960000e-001) (21, 2.27110645623020410000e-002) (22, 2.94850115659820560000e-001) (23, -1.27588750573248890000e-001) (24, 2.84371236271908080000e-001) (25, 4.08754219576667470000e-002) (26, 2.50052830947496030000e-001) (27, 2.26380763763908680000e+000) (28, -1.81824067098050080000e+001) (29, -2.47493210031045770000e-001) (30, 6.07805092318296940000e-001) (31, 1.75804559345846720000e-002) (32, 2.28414995381006940000e+000) (33, -1.35725033903282390000e-001) (0, -1.86209342160705920000e-001) (1, 9.41725342793261810000e-001) (2, -6.35771004771634730000e+000) (3, -1.08966700249870150000e-002) (4, -1.95670494339771180000e+001) (5, 9.33130182215412770000e-001) (6, 1.98938619548312550000e-001) (7, 7.45082580289498590000e-001) (8, 1.34586397263729630000e+000) (9, 4.76089515930379180000e-001) (10, 2.92119887441217140000e-001) (11, 2.81886443101805060000e+000) (12, 5.40644017712594940000e+000) (13, 3.22810201136591480000e-001) (14, 1.45994021805587670000e+000) (15, 7.34970581277121450000e-001) (16, 8.83171112371151600000e+000) (17, 4.13981098905675390000e-003) (18, -7.54854379221813240000e+000) (19, 3.13598109050918650000e+000) (20, 2.47536603943122780000e+000) (21, 4.21967968849888130000e-001) (22, -4.51810135399918660000e+001) (23, 2.50630794015677470000e+000) (24, -6.07360067967758970000e-002) (25, -6.55607495683721120000e-001) (26, -4.22645734378759920000e+000) (27, 5.92621557079158870000e-001) (28, 4.36577038024153260000e-001) (29, 1.32388128067738430000e+000) (30, 2.75418429524176970000e+000) (31, -2.98193105347361980000e-002) (32, 1.66455495663818380000e+001) (33, -4.34080134549654490000e-002) (0, -8.26778432475496900000e-002) (1, 3.91279583669007430000e-002) (2, 9.72285472032633270000e-001) (3, -2.57346069442236750000e-002) (4, -2.16001562762472200000e+000) (5, 2.84651065042918930000e-002) (6, 8.63890405596215330000e-001) (7, -1.41119106409267710000e-003) (8, -5.60212647491505120000e-001) (9, -5.00787895644418880000e-002) (10, 2.05257859125314090000e-002) (11, -1.21557451190566910000e-001) (12, 4.82475253384837540000e-001) (13, -1.41556871482840460000e-001) (14, 6.48009711532657180000e-001) (15, 6.82414138676005860000e-003) (16, -2.19747183439345490000e+000) (17, -5.69437824086588070000e-002) (18, 4.87450822273364560000e-001) (19, -3.36973443444177070000e-002) (20, -4.62376775104495320000e-001) (21, -9.40974188245576330000e-002) (22, 5.21413091878474840000e-001) (23, -3.13696471858000910000e-002) (24, 4.99450212419578700000e-002) (25, -3.11863592344638900000e-001) (26, 5.12923943101574850000e-001) (27, -1.65670523216797890000e-003) (28, 2.39692869235652080000e-001) (29, -5.85392005181116640000e-002) (30, -2.58954551509498920000e-001) (31, -2.47768124500873310000e-002) (32, 3.59813474331183490000e-001) (33, -8.68857332756803740000e-002) (0, -2.90128831257830640000e+000) (1, 1.80723709526375980000e-001) (2, 1.08761722408075000000e+000) (3, 6.97340345500497420000e-002) (4, -7.46899786482573380000e-001) (5, 3.53146600731670760000e-001) (6, 4.48410181952444030000e-001) (7, 2.72667154111294270000e-001) (8, -2.32088992272907820000e+000) (9, 7.49046562124525140000e-002) (10, 1.42999739253037480000e+000) (11, 6.70625468239358540000e-001) (12, -3.28019150909935940000e-001) (13, 1.41898298374061450000e-001) (14, 2.63223025644455300000e+000) (15, 6.76691208393091270000e-001) (16, 4.77274827026180230000e+000) (17, 2.36294967313135210000e-001) (18, 1.77871858641691590000e+000) (19, 1.74237318676689060000e+000) (20, 1.03041908626164160000e+001) (21, 8.44003267014015620000e-001) (22, -1.96367860490695270000e-001) (23, 3.11997575397284120000e-001) (24, -1.21810582596349010000e-001) (25, 2.43997861362146270000e-001) (26, -5.64288313162840340000e-001) (27, 6.26251957857321910000e-001) (28, -4.97980224927789930000e-001) (29, 9.56645044407465120000e-001) (30, 7.40040207187478250000e-003) (31, 1.21716805221964060000e+000) (32, 4.19256240082600850000e+000) (33, 1.50894613521551000000e+000) (0, 7.89447187999241180000e+001) (1, 1.08445417888135010000e-001) (2, -1.74715655917016290000e-001) (3, 9.33335752899281720000e-001) (4, 5.10053552654856520000e-001) (5, -2.80842615200417480000e-001) (6, -7.26535541760996770000e-001) (7, 1.19701133108863180000e-001) (8, -3.63679590124035680000e+000) (9, 1.71040511178607050000e-001) (10, 1.72613912384041640000e-001) (11, -8.75524934452044100000e-002) (12, 4.71313939449978010000e-001) (13, -4.84295477651798420000e-001) (14, -9.11936784890744340000e-002) (15, 5.78008970470975770000e-001) (16, 1.04696285414595970000e-001) (17, -1.21634135459454310000e-001) (18, 1.89054876436765020000e-001) (19, -2.12508801344931860000e-001) (20, 1.25191613977378570000e+000) (21, 1.43621298206177470000e-001) (22, 2.06651009488533390000e+000) (23, 7.74531842788690470000e-002) (24, 3.40240070107000610000e+000) (25, 5.20569064919617070000e-001) (26, 2.55499860248937030000e+000) (27, -2.19715282500788590000e-001) (28, -3.92270935163770140000e+000) (29, -2.84598757387801100000e-001) (30, 3.85651394867396140000e-001) (31, -6.15931379086889660000e-001) (32, 2.13031454930439510000e+000) (33, -1.36972246840992570000e-001) (0, -1.01699787691815980000e+000) (1, 8.41378109907765740000e-001) (2, 2.36594065186598250000e+001) (3, -6.86060038864881320000e-001) (4, -5.96048343175138220000e-001) (5, 4.93254549249652170000e-001) (6, 7.31656262693560350000e-002) (7, -1.80764083369904040000e-001) (8, -2.22450299724356420000e+001) (9, 8.70865087124823250000e-001) (10, 9.84785209500005250000e-001) (11, 7.82482156050759100000e-001) (12, 1.95310242653363590000e+000) (13, -1.76470383475896770000e-001) (14, -6.33162669999777220000e-001) (15, 3.42195748758069220000e+000) (16, -4.06621683256305210000e+000) (17, 1.52761135725136300000e+000) (18, 2.58197168246137530000e+001) (19, 3.67888990454671050000e-001) (20, 8.33622975150413730000e-001) (21, 6.31241032176497300000e-001) (22, 3.47758816133543110000e+000) (23, -4.85293666320466550000e-004) (24, 5.24740794331732370000e+000) (25, 2.88807542421090880000e+000) (26, 4.16655866895253080000e-001) (27, 7.96699592341829080000e-001) (28, 2.16769561251142000000e+000) (29, 3.61437977649469830000e-001) (30, -8.32544365350072340000e-002) (31, 1.79066733836229090000e+000) (32, -1.42556744774133510000e+001) (33, 6.26848705237231350000e-001) (0, -7.77252008022069170000e-001) (1, 5.46352909603293520000e-001) (2, -4.54948403859098870000e+000) (3, 1.00885721868556780000e+000) (4, 1.31244734016408750000e+001) (5, -2.32105854414543400000e-001) (6, -1.19659580140822580000e+001) (7, 1.30901627171222330000e+000) (8, 1.49890014279185310000e+000) (9, 7.64502699027364420000e-002) (10, -1.58591246254072400000e+001) (11, 1.19550059242884200000e+000) (12, -2.15754988086823780000e+000) (13, 4.21365430607767790000e+000) (14, 1.23226679936388270000e+000) (15, 8.28514111747180180000e-002) (16, 1.25652157920715960000e-001) (17, -3.69459962251127540000e-001) (18, -1.29125698961287490000e+001) (19, 5.52747592257768040000e-001) (20, 1.51517963745987710000e+001) (21, 1.03225574886444420000e-001) (22, 3.49791627326268320000e+000) (23, 4.32683501591284080000e+000) (24, -3.08252751299199450000e+000) (25, -3.73669200410553510000e-001) (26, -9.58175852155826040000e+000) (27, -6.34673462812113680000e-002) (28, -1.27299275739687730000e+000) (29, 1.35360781853551780000e+000) (30, 7.67856108459465840000e-001) (31, -2.51216639128829360000e-001) (32, 4.99899459201611760000e+001) (33, 3.83551174326958010000e-001) (0, 2.06004397422716870000e-001) (1, 7.97420533777321310000e-002) (2, 6.90178484151106050000e-001) (3, -1.13522635819497820000e+000) (4, 3.38646989450037020000e-001) (5, -8.30659762731051080000e-002) (6, 6.90204830300725320000e-001) (7, -1.62262809603330000000e-001) (8, 2.42136240714757670000e-001) (9, 5.25112022030474400000e-002) (10, 4.42605845157342860000e-001) (11, 7.29901410173224990000e-002) (12, 4.17578228158525520000e-001) (13, -2.32379455357092840000e-001) (14, 8.67936092101958880000e-001) (15, -3.64325645589352940000e-002) (16, 6.57095388687224950000e-001) (17, -2.09188517213284020000e-002) (18, 1.48093559192805690000e+000) (19, 1.50179662331480720000e-001) (20, -6.61454246552434930000e-002) (21, -5.77399827513954410000e-002) (22, 4.13432776999767490000e-001) (23, -1.62018104724365400000e-001) (24, -4.75996967477172320000e-002) (25, 5.27144351268532680000e-002) (26, 1.27809129348835730000e-001) (27, -2.91171153153835180000e-001) (28, 1.13548719022603980000e-001) (29, 1.47147729051729820000e-001) (30, 3.94515763358094520000e-001) (31, -1.17435412786184810000e-001) (32, -7.33136389140898460000e-002) (33, -1.64790533186266530000e-002) (0, -6.29638975540759430000e-002) (1, -1.50450730083157960000e-001) (2, 5.60467681313254860000e-001) (3, -1.18633694675911940000e+000) (4, 8.62603404784845650000e-001) (5, 8.33624249652810400000e-003) (6, 1.95181109363459290000e+000) (7, -1.02481988813086830000e+000) (8, -3.69692184318082710000e-001) (9, 2.21279561242206680000e-001) (10, -3.56908096487985070000e+000) (11, 4.87401607136328870000e-002) (12, 3.04025549297682220000e+001) (13, -1.25044386772810550000e-001) (14, 1.06954204216157980000e+000) (15, -2.02030960085300000000e-001) (16, 1.05528582041650790000e-001) (17, -2.93461817318602990000e-001) (18, -4.52991325413038660000e+000) (19, 1.44614675734346300000e+000) (20, 5.52435795423471900000e+000) (21, 5.26891676425585210000e-001) (22, 3.02229820736627900000e+000) (23, -1.06553479254971060000e-001) (24, -4.45001877163642700000e-001) (25, 3.53454873109869390000e-001) (26, 1.26122967341882650000e+001) (27, 1.94493655221483650000e-001) (28, 5.93910705176419460000e+000) (29, -8.88591727795892960000e-002) (30, 4.72799635230527040000e+000) (31, 4.07419664545307980000e-001) (32, -1.28034748001353700000e-001) (33, 2.14194533275673700000e-001) (0, -1.39804520429794880000e+001) (1, 3.50809844731357120000e-001) (2, 2.47777863407367560000e+000) (3, -1.78492660139172500000e-001) (4, 1.32528147227318650000e+000) (5, -1.36162623608966800000e+000) (6, -1.37203435234022450000e+000) (7, 1.46929104320558150000e+000) (8, 1.08277261264954270000e+000) (9, -1.61223050525569780000e+000) (10, 1.07432583173553590000e-002) (11, 3.85150955730048820000e-001) (12, 6.18628370596439670000e+000) (13, 2.44290835763165290000e-001) (14, -1.81751704057915580000e+001) (15, 6.69676123612777400000e-001) (16, 7.49378739259686810000e+000) (17, -3.41960744193403740000e+000) (18, -7.63847134707330700000e+000) (19, 5.37738392891129680000e-001) (20, 9.95936790518590850000e-001) (21, 7.12737128890327920000e-001) (22, -3.85993954481197710000e+000) (23, 8.73853664906254050000e-001) (24, -9.41646592617244950000e+000) (25, -1.47313184741066720000e+000) (26, -3.58567523235008070000e+000) (27, 1.51681885826574330000e-001) (28, 3.34913230882979730000e+000) (29, 1.36630729391703330000e+000) (30, 2.38087652434143950000e+001) (31, 7.01889793504962940000e-001) (32, 2.65729355339646670000e+001) (33, -4.86221363320068210000e-001) (0, -1.00316693754868170000e-001) (1, 3.53509438871090210000e-002) (2, 1.58999765363936870000e-001) (3, 3.99805317736631030000e-001) (4, 4.09317988353764820000e-001) (5, 2.75247375556149310000e-001) (6, 6.94377944932639930000e-001) (7, -1.33736209474133390000e-001) (8, -2.63449431595823120000e-001) (9, -1.30848149386005530000e-001) (10, 4.70667597717209900000e-001) (11, -4.68588268542984540000e-003) (12, 4.09451423773887210000e-001) (13, -8.90972058761665820000e-002) (14, 3.99238981097307160000e-001) (15, -2.91024017270782210000e-002) (16, -3.33296652312793210000e-001) (17, 1.11082564670321360000e-002) (18, 2.19519239939010100000e-001) (19, -1.32322919389223190000e-001) (20, -1.05541333587500590000e-002) (21, -9.77903659067298060000e-002) (22, 5.77023413617168340000e-002) (23, -7.34345905276885540000e-002) (24, 1.83271638619981610000e-001) (25, -6.68005411168080400000e-002) (26, 4.14523448523002380000e-001) (27, -1.63726292004125810000e-001) (28, 3.64643589535971920000e-001) (29, -7.10155550602249020000e-002) (30, 5.68655717778135730000e-001) (31, -9.23288407619618500000e-002) (32, -6.11283147449580840000e-002) (33, -3.26096449292318370000e-002) (0, 3.87630503560494330000e-001) (1, -1.27354061797148590000e-001) (2, -4.21041442612973690000e+000) (3, 1.22172243773913700000e-001) (4, 2.16272016158972310000e+001) (5, -2.58718296465405560000e-002) (6, -1.11363607644277320000e+001) (7, 2.88854211951092510000e-001) (8, 1.79910782594948190000e+000) (9, 5.45274064103797640000e-001) (10, 2.41797146228440290000e+000) (11, 8.81821951660560210000e-002) (12, 2.67582904441755250000e-001) (13, 6.31645528497492450000e-001) (14, -7.48484319786723580000e-001) (15, -2.80760061410357860000e-001) (16, 2.54957224755577010000e+000) (17, 1.28087488916849120000e-001) (18, 7.76058918402596900000e-003) (19, -1.26505328895348510000e+000) (20, 1.21875945656583150000e+000) (21, -3.20551079154935970000e-001) (22, 3.60583436480694800000e-001) (23, -3.02245713462064470000e-001) (24, -3.79509385181815430000e+000) (25, 1.40067271918519890000e-001) (26, -1.47957920134389680000e+001) (27, 4.64738826962841690000e-001) (28, 3.46561343524228520000e+000) (29, 4.38116376098822220000e-002) (30, 1.27609537833356710000e+000) (31, 2.81111256998125610000e-001) (32, -6.66050603840781010000e+000) (33, 1.27345434368040160000e-001) (0, -1.67958609545557880000e+001) (1, 4.79638964920191040000e-001) (2, 2.20622728233258010000e-001) (3, 1.43242218008779990000e+000) (4, 2.15220065004557120000e-001) (5, 1.69195680301725000000e+000) (6, -1.13735882170648600000e+001) (7, 2.26736063444649580000e-001) (8, -4.81003054697503440000e+000) (9, -4.94440494570041190000e-001) (10, 1.14925769274222250000e-002) (11, -4.69272383290798180000e-001) (12, 1.46186328163919850000e+001) (13, 9.22970551988204320000e-001) (14, 1.39744952587717640000e+001) (15, 4.25896357807092620000e-001) (16, 1.02982178194385020000e+001) (17, -4.64189100144042410000e-001) (18, 2.53437404542131260000e+000) (19, -1.53947770544925570000e+000) (20, -2.60194522917319060000e+001) (21, -4.27895947287178780000e-001) (22, -5.69069584567063470000e-001) (23, -3.23693798649947410000e-001) (24, -1.38783467645183300000e+000) (25, 2.34539656705249370000e-001) (26, -1.97212557103887880000e-001) (27, -1.21731688299125190000e-002) (28, 9.33628837494856810000e-001) (29, -8.14530644200590850000e-001) (30, 4.19493617666216010000e-001) (31, 2.25125760561319670000e-002) (32, -1.02716579883990190000e+001) (33, -3.04840221854689620000e-001) (0, -7.04592789862749050000e+000) (1, -2.26712848010238530000e-001) (2, 2.71927711198732910000e+000) (3, -1.12486002364420330000e-001) (4, 7.06262317120878280000e-001) (5, -7.41544737450270940000e-001) (6, 2.32524136465270860000e+000) (7, 7.67406643054341810000e-001) (8, 1.56780101874743650000e+001) (9, -4.13821762476766000000e-001) (10, 2.67550572022113320000e+000) (11, -1.09441159885514770000e-001) (12, 1.01529334891885050000e+000) (13, 4.66519180511232760000e-001) (14, 1.52254098497060700000e+001) (15, -1.76949149006735220000e-001) (16, -3.10093787446470480000e-001) (17, -3.14612740005974170000e-001) (18, -4.68817336109998270000e+000) (19, -5.75238300554830270000e-001) (20, 1.06207180644000700000e+000) (21, 3.56730506998488570000e-001) (22, -1.14065691006631170000e-002) (23, 2.04392741921601230000e-001) (24, 3.31515857478978850000e+000) (25, -9.28903753884104730000e-001) (26, 8.19089662880588930000e-001) (27, -1.18385732508711090000e-001) (28, 1.25481636563223640000e+000) (29, 9.25041501436525420000e-002) (30, -9.10887186530238920000e-001) (31, 5.43542262301814790000e-001) (32, -1.10532789717125470000e+001) (33, -1.53015319711736870000e-001) (0, -1.62356271224885660000e+001) (1, 6.11137886269717820000e-002) (2, 1.26225366521564040000e+001) (3, 2.10231240520062100000e+000) (4, -3.41590183838540270000e+000) (5, 3.87520559120415110000e-001) (6, -7.16260198358350090000e-001) (7, 2.27669735588235560000e+000) (8, 1.31375168229423650000e+001) (9, -1.89140735858078950000e-003) (10, 6.76572110188756340000e+000) (11, -3.90322549555304930000e-001) (12, -1.34944058223994450000e+001) (13, 1.87048199781994740000e+000) (14, -5.52867786937804690000e-001) (15, 1.34298791496431870000e+000) (16, -9.01276894927504560000e+000) (17, 7.56933900428680690000e-001) (18, -1.92716202236595000000e+000) (19, -3.95937962503350230000e-001) (20, 2.04612878742702220000e+000) (21, 1.03767057116605410000e+000) (22, 8.94197059220992330000e+000) (23, 1.36718430239433950000e+000) (24, -1.92656796977014460000e+000) (25, -4.94836481387265270000e-001) (26, 1.05742710575269110000e+001) (27, -1.51665440942254700000e-002) (28, 3.21734079284297620000e+000) (29, 1.16591663611552550000e+000) (30, 1.42150774542848350000e+001) (31, 6.25731995397416640000e-001) (32, 1.06392569371999150000e+001) (33, 1.18051914165231150000e+000) (0, 1.28415398879902540000e+000) (1, -5.73198828140282360000e-002) (2, 4.69060673932037260000e-001) (3, 4.77117807404777660000e-001) (4, -8.35396254366693820000e+000) (5, -3.06273271497163160000e-001) (6, -5.40739136500272940000e-001) (7, -2.47053833515053150000e-002) (8, 6.63551195163089800000e-001) (9, 3.22762664291310840000e-001) (10, 1.95278679168489980000e-001) (11, 7.29798687500995300000e-001) (12, 1.04345356465828720000e+000) (13, 2.02637623828427840000e-001) (14, 6.28274436811522170000e-001) (15, 4.53977444993531820000e-001) (16, 3.62228527629045620000e-001) (17, -1.98682442733000840000e-001) (18, 6.82205320119002370000e-001) (19, 3.20675595614179010000e-002) (20, -2.80693216749817450000e-001) (21, 6.06186210780085140000e-002) (22, 2.16286793295349220000e-001) (23, 2.27147231297061170000e-003) (24, -4.93560084681866300000e-001) (25, 1.59196339535786280000e-002) (26, 4.15246601632658940000e+000) (27, 4.46381913768395050000e-002) (28, -3.31479641758431860000e-001) (29, -5.64618128934202960000e-003) (30, 8.91466401590983340000e-001) (31, 1.90421547325017140000e-002) (32, -2.50338715133151090000e+000) (33, -3.66740825463525220000e-002) (34, 4.17576954093369810000e-001) (35, 4.37374418064916060000e-001) (36, 5.19568198251876500000e-001) (37, 2.95159729400652770000e-001) (38, 1.07081199933432170000e+000) (39, 1.16163376231073270000e+000) (40, 2.05457348024860710000e-001) (41, -6.29073778127176690000e-001) (42, 4.30180698994606540000e-001) (43, -9.59568304984401600000e-001) (44, -3.14221368354803410000e-002) (45, -1.27844027637817770000e+000) (46, 3.37241253457942810000e-001) (47, 4.26500929907086990000e-001) (48, 2.04976417342349890000e-002) (49, 3.35383453555938630000e-001) (50, 2.71954353469749500000e-001) (51, -7.01601564354169400000e-002) (52, 9.26655143388718680000e-001) (53, 1.42218906629486930000e+000) (54, 4.65558105643070430000e-001) (55, 1.55021034317114210000e-003) (56, -1.12376489907859960000e+000) (57, -1.23272783078779990000e-001) (58, 1.15483210934526670000e+000) (59, -3.24251141201048750000e-001) (60, 3.25235652425533710000e-001) (34, 4.81461459603616250000e-001) (35, 3.89023313803409150000e-001) (36, 3.72855768947845560000e-001) (37, -5.72873302762049730000e-001) (38, -5.17050141440626000000e-001) (39, -1.40768332054626360000e-001) (40, 5.56047017957680630000e-001) (41, 4.39911696796415670000e-001) (42, 3.34922813332554910000e-001) (43, 3.00746352881418540000e-001) (44, 4.75365323745560290000e-001) (45, 8.05036175921083790000e-001) (46, 5.15469966352657290000e-001) (47, 4.48480595174461870000e-001) (48, 9.76378209321200230000e-001) (49, 1.41659205572342290000e-001) (50, 7.54372553550551880000e-001) (51, 3.75118557251124580000e-001) (52, 2.04567814667151630000e-001) (53, -1.40396677529606830000e+000) (54, 4.48867724781248980000e-001) (55, -5.26829807375915450000e-001) (56, 9.18282440263124220000e-001) (57, 1.48305446812318300000e+000) (58, -1.18512993685029520000e+000) (59, -2.26711754004076120000e-002) (60, 3.97697864104607670000e-001) (34, 2.49351335076652500000e-001) (35, 3.49919502991624780000e-001) (36, 3.18640586114908250000e-001) (37, 6.09470938415026750000e-001) (38, 8.92031462740125810000e-003) (39, -7.23820916554910100000e-001) (40, -1.01930438833614860000e+000) (41, 1.57425369447794670000e-001) (42, 4.72579485733540970000e-001) (43, 5.36772189745736710000e-001) (44, 3.63372832972977840000e-001) (45, 8.67756088761173490000e-002) (46, 2.33412248288486140000e-001) (47, 5.44503379221356940000e-001) (48, -6.58384875895614450000e-001) (49, -8.52909346511220750000e-001) (50, -6.35567335960117500000e-001) (51, 2.52297767918337750000e-001) (52, -8.95632890361031550000e-001) (53, 5.14992436663869870000e-002) (54, 4.62770527209917450000e-002) (55, 8.96693600351874510000e-001) (56, -4.46572189823169280000e-002) (57, -8.00690895166636050000e-001) (58, 1.07262106518306440000e-001) (59, 6.20737288170556840000e-001) (60, 3.90389839723687740000e-001) 
