FANN_FLO_2.1
num_layers=3
learning_rate=0.700000
connection_rate=1.000000
network_type=0
learning_momentum=0.000000
training_algorithm=2
train_error_function=1
train_stop_function=0
cascade_output_change_fraction=0.010000
quickprop_decay=-0.000100
quickprop_mu=1.750000
rprop_increase_factor=1.200000
rprop_decrease_factor=0.500000
rprop_delta_min=0.000000
rprop_delta_max=50.000000
rprop_delta_zero=0.100000
cascade_output_stagnation_epochs=12
cascade_candidate_change_fraction=0.010000
cascade_candidate_stagnation_epochs=12
cascade_max_out_epochs=150
cascade_max_cand_epochs=150
cascade_num_candidate_groups=2
bit_fail_limit=3.49999999999999980000e-001
cascade_candidate_limit=1.00000000000000000000e+003
cascade_weight_multiplier=4.00000000000000020000e-001
cascade_activation_functions_count=10
cascade_activation_functions=3 5 7 8 10 11 14 15 16 17 
cascade_activation_steepnesses_count=4
cascade_activation_steepnesses=2.50000000000000000000e-001 5.00000000000000000000e-001 7.50000000000000000000e-001 1.00000000000000000000e+000 
layer_sizes=34 34 4 
scale_included=0
neurons (num_inputs, activation_function, activation_steepness)=(0, 0, 0.00000000000000000000e+000) (0, 0, 0.00000000000000000000e+000) (0, 0, 0.00000000000000000000e+000) (0, 0, 0.00000000000000000000e+000) (0, 0, 0.00000000000000000000e+000) (0, 0, 0.00000000000000000000e+000) (0, 0, 0.00000000000000000000e+000) (0, 0, 0.00000000000000000000e+000) (0, 0, 0.00000000000000000000e+000) (0, 0, 0.00000000000000000000e+000) (0, 0, 0.00000000000000000000e+000) (0, 0, 0.00000000000000000000e+000) (0, 0, 0.00000000000000000000e+000) (0, 0, 0.00000000000000000000e+000) (0, 0, 0.00000000000000000000e+000) (0, 0, 0.00000000000000000000e+000) (0, 0, 0.00000000000000000000e+000) (0, 0, 0.00000000000000000000e+000) (0, 0, 0.00000000000000000000e+000) (0, 0, 0.00000000000000000000e+000) (0, 0, 0.00000000000000000000e+000) (0, 0, 0.00000000000000000000e+000) (0, 0, 0.00000000000000000000e+000) (0, 0, 0.00000000000000000000e+000) (0, 0, 0.00000000000000000000e+000) (0, 0, 0.00000000000000000000e+000) (0, 0, 0.00000000000000000000e+000) (0, 0, 0.00000000000000000000e+000) (0, 0, 0.00000000000000000000e+000) (0, 0, 0.00000000000000000000e+000) (0, 0, 0.00000000000000000000e+000) (0, 0, 0.00000000000000000000e+000) (0, 0, 0.00000000000000000000e+000) (0, 0, 0.00000000000000000000e+000) (34, 5, 5.00000000000000000000e-001) (34, 5, 5.00000000000000000000e-001) (34, 5, 5.00000000000000000000e-001) (34, 5, 5.00000000000000000000e-001) (34, 5, 5.00000000000000000000e-001) (34, 5, 5.00000000000000000000e-001) (34, 5, 5.00000000000000000000e-001) (34, 5, 5.00000000000000000000e-001) (34, 5, 5.00000000000000000000e-001) (34, 5, 5.00000000000000000000e-001) (34, 5, 5.00000000000000000000e-001) (34, 5, 5.00000000000000000000e-001) (34, 5, 5.00000000000000000000e-001) (34, 5, 5.00000000000000000000e-001) (34, 5, 5.00000000000000000000e-001) (34, 5, 5.00000000000000000000e-001) (34, 5, 5.00000000000000000000e-001) (34, 5, 5.00000000000000000000e-001) (34, 5, 5.00000000000000000000e-001) (34, 5, 5.00000000000000000000e-001) (34, 5, 5.00000000000000000000e-001) (34, 5, 5.00000000000000000000e-001) (34, 5, 5.00000000000000000000e-001) (34, 5, 5.00000000000000000000e-001) (34, 5, 5.00000000000000000000e-001) (34, 5, 5.00000000000000000000e-001) (34, 5, 5.00000000000000000000e-001) (34, 5, 5.00000000000000000000e-001) (34, 5, 5.00000000000000000000e-001) (34, 5, 5.00000000000000000000e-001) (34, 5, 5.00000000000000000000e-001) (34, 5, 5.00000000000000000000e-001) (34, 5, 5.00000000000000000000e-001) (0, 5, 0.00000000000000000000e+000) (34, 5, 5.00000000000000000000e-001) (34, 5, 5.00000000000000000000e-001) (34, 5, 5.00000000000000000000e-001) (0, 5, 0.00000000000000000000e+000) 
connections (connected_to_neuron, weight)=(0, -1.12870894704363330000e+000) (1, -3.07440402832204810000e-001) (2, 8.48543639068709440000e-001) (3, -2.15997143635037330000e-001) (4, -2.27495246164344360000e-001) (5, -1.88433377845767000000e-001) (6, -3.47650392992900140000e-002) (7, -3.50059810292280230000e-001) (8, -8.39861240415814780000e-001) (9, -3.49985346589577580000e-001) (10, -8.22392931474127120000e-002) (11, 3.32793007567354860000e-001) (12, -2.72170965636844110000e-002) (13, -3.66888290457845820000e-001) (14, 1.01703006129826860000e-001) (15, -1.77608619579726870000e-001) (16, -3.08580844357452260000e-001) (17, 5.46561287360641580000e-001) (18, 1.92158238622455110000e+000) (19, 3.82591110186229270000e-001) (20, 1.76955410353351890000e+000) (21, 2.81857893981493690000e-001) (22, 2.66176258179695260000e-001) (23, -3.80371758940973410000e-001) (24, 5.79864818527155550000e-001) (25, -2.51890273349072320000e-001) (26, -3.63844373184052110000e-001) (27, -1.59986641302832940000e-001) (28, 3.44163435650732260000e-001) (29, -1.29896445360879940000e-001) (30, -2.27129292874239050000e-001) (31, 7.16078503935874470000e-001) (32, 5.61700476648862910000e-001) (33, -2.20668207275544310000e-001) (0, -7.73265399468734740000e-001) (1, -2.87844845389319540000e-001) (2, 1.97165862119684250000e+000) (3, -1.45073487855286200000e-001) (4, -3.01085937813707960000e-001) (5, -1.34915405767983000000e-001) (6, 8.61001510094685950000e-001) (7, -3.41733538806383850000e-001) (8, -5.19658243251958970000e-001) (9, -2.86527649127288560000e-001) (10, 5.16763665624682120000e-001) (11, -1.31878260952477420000e-002) (12, -2.41998626584112250000e-001) (13, -3.96591463873804060000e-001) (14, 4.56274617846980590000e-001) (15, -4.77891412608836770000e-001) (16, -2.07463833726121120000e+000) (17, 4.85994171704083930000e-001) (18, 1.67577952962778200000e+000) (19, 6.29521512931998430000e-001) (20, 4.60131522489328670000e+000) (21, 3.25935761193722810000e-001) (22, 5.25244778895013310000e-001) (23, -3.35141759567948510000e-001) (24, 4.93071170565957950000e-001) (25, -2.65157819936209630000e-001) (26, -1.68318536515232260000e-001) (27, -2.63400166499847490000e-001) (28, 4.99296724635069690000e-001) (29, 4.02712760116116300000e-002) (30, -1.86748331370578310000e-001) (31, 7.80000644664058050000e-001) (32, 5.07069175339043500000e-001) (33, -5.01184157906895860000e-001) (0, -2.01073344299288800000e-004) (1, -7.36849035878330700000e-002) (2, 4.85580661714217930000e-001) (3, -2.16885878979521000000e-002) (4, 1.55035103815555240000e-001) (5, -2.73207047996741730000e-001) (6, 3.42782825060235830000e-001) (7, -7.51003881636414930000e-002) (8, 9.57247180089225710000e-002) (9, 2.42457883230186970000e-001) (10, 6.97764772296463330000e-002) (11, -1.60422412624948500000e-001) (12, -5.30099063442973920000e-002) (13, -5.13048105423293130000e-002) (14, -4.04109240827559450000e-001) (15, 1.17480393559566260000e-001) (16, -1.50468736547589690000e-001) (17, 2.54180907919655700000e-001) (18, 4.39715366419998920000e-001) (19, 6.52546046099482520000e-001) (20, 4.11594264507752720000e-001) (21, 1.50188007710554960000e-001) (22, 7.31847149068029280000e-001) (23, 5.44195638571982330000e-002) (24, 2.37932886527113700000e-001) (25, -1.36443901205207630000e-001) (26, 5.64192169703621630000e-001) (27, 8.00728232785725830000e-002) (28, 3.37451233393735170000e-001) (29, 8.36208361538264420000e-002) (30, 6.11177312914010510000e-002) (31, 4.72545232159900630000e-001) (32, 9.60817690685233370000e-001) (33, 1.78477752112557670000e-001) (0, 9.03181532683230010000e-002) (1, -3.99810958554269740000e-002) (2, 7.82066731832484430000e-001) (3, 2.14401064437729050000e-001) (4, 2.49185577764641590000e-001) (5, 1.51784801783262290000e-001) (6, 2.17902389584034570000e-001) (7, -9.00207594863137870000e-002) (8, -2.16740924459304860000e-002) (9, -1.68720916775715680000e-001) (10, -6.59803365947197600000e-002) (11, 3.50908868862467300000e-001) (12, 3.12329265385273890000e-001) (13, -3.62527054714650370000e-002) (14, 2.13101761564137820000e-001) (15, -5.25739299118674130000e-002) (16, 1.82577047135517170000e-001) (17, 2.95063322701120350000e-001) (18, 3.99032053766700310000e-001) (19, 7.10836147629899800000e-002) (20, 8.58527001255412620000e-002) (21, 7.76630246134456530000e-001) (22, -1.17855044489558270000e-001) (23, -4.41271569276227290000e-001) (24, 9.08466475667733860000e-001) (25, -2.95389722925998130000e-001) (26, -1.34360154026677970000e-001) (27, -3.48076970298198120000e-001) (28, 1.73144422307972290000e+000) (29, -5.45536850806728200000e-001) (30, -2.12753940430144060000e-001) (31, 5.93958923245680670000e-001) (32, 6.83706318459918470000e-001) (33, 5.60826614867177900000e-002) (0, 8.16521526192430930000e-002) (1, 1.73983989709633050000e-001) (2, 3.36442656724431740000e-001) (3, 8.31054941965323260000e-001) (4, 5.13174991212149050000e-001) (5, 1.64952191722184750000e-001) (6, 4.09049726445321780000e-001) (7, 6.58050463049507230000e-002) (8, 4.46087959035854630000e-002) (9, 3.37304693762397020000e-001) (10, 5.75732186609873020000e-001) (11, 6.81704464945364070000e-001) (12, 2.59603813570404350000e-001) (13, 1.81697529174223330000e-002) (14, 4.03135796400089010000e-001) (15, 1.98245300834345520000e-001) (16, -8.36298662467415910000e-001) (17, 2.32268569390350290000e-001) (18, 3.27866282398600380000e-001) (19, 5.33934845587848870000e-001) (20, 8.64180144798427920000e-002) (21, 1.66456492950701450000e-001) (22, -4.68163368490339240000e-001) (23, 5.56815083900709110000e-002) (24, 1.20621411146737950000e-001) (25, 3.25236104726138870000e-002) (26, 5.71805144287702790000e-001) (27, 6.98795399337165720000e-001) (28, 4.19111673272806350000e-001) (29, -4.50371443640046610000e-002) (30, 8.37839670727554410000e-002) (31, 5.91998872365660510000e-002) (32, 2.29380412778656920000e-001) (33, 2.20962664248221470000e-001) (0, -8.95518215015581820000e-001) (1, -1.66955626139452200000e-001) (2, 5.64266001130723340000e-001) (3, 1.47653928627737930000e-001) (4, -1.36403267616511610000e-001) (5, -9.07951585856612980000e-002) (6, -6.30083885463668230000e-001) (7, -2.51167819656837930000e-001) (8, -9.77779871767829880000e-002) (9, 2.58866147643933120000e-001) (10, 6.68058843659437570000e-001) (11, 9.26217089979189500000e-001) (12, 3.55975305312605080000e+000) (13, 3.86484063187169380000e-001) (14, 7.73901156456331170000e-001) (15, 1.20194733305485150000e-001) (16, 1.49773936408328230000e-001) (17, 2.82501528056193940000e-001) (18, 7.82377535670595310000e-001) (19, 1.38691272357794260000e+000) (20, 1.45328102670512380000e-001) (21, 4.60658571686719640000e-001) (22, 1.99157448103524650000e-002) (23, -7.31398243013104130000e-002) (24, 8.71532016723867150000e-001) (25, 4.19355608383529030000e-001) (26, 7.37912877040917460000e-001) (27, -3.46009950828879030000e-001) (28, 5.62760296281428430000e-001) (29, -1.68832342444304870000e-001) (30, -9.12300973878234780000e-002) (31, 1.03379390895534320000e+000) (32, 1.71882741849037800000e+000) (33, -1.52817773252020120000e-001) (0, 7.31919064910154460000e-001) (1, 4.13984739486194520000e-001) (2, 5.86762702796050220000e-002) (3, 2.49913674863627140000e-001) (4, 2.74517066883944280000e-001) (5, 5.95824261919624010000e-001) (6, -1.28806671164221400000e-001) (7, 2.31930676794326550000e-001) (8, 5.90472932215393990000e-001) (9, 6.36068464989418050000e-001) (10, 1.36363990521961450000e-002) (11, 2.05050276519198380000e-001) (12, 4.17085699452067300000e-001) (13, 8.35260170864759120000e-001) (14, 3.96931972796755350000e-001) (15, 8.82246323554018220000e-001) (16, 5.28038288567981070000e-001) (17, -5.95643270833589480000e-001) (18, 9.88354342805565150000e-003) (19, -2.08788335862478640000e-001) (20, 3.16215219338179840000e+000) (21, 3.33325175303201490000e-001) (22, -4.23622145670387100000e-002) (23, 7.09311333939256050000e-001) (24, -2.95028474893634260000e-001) (25, 1.44968179491669000000e+000) (26, 7.07457006695886150000e-002) (27, 8.85257504464786460000e-001) (28, -3.53259967646758040000e-001) (29, 7.81479931376780850000e-001) (30, 8.13362682079804890000e-001) (31, -2.18650135890983560000e-001) (32, -8.38915645379469980000e-003) (33, 5.25012989062375370000e-001) (0, -1.64029577032709930000e-002) (1, 8.10595565532994390000e-002) (2, 8.26036635947102080000e-001) (3, -2.47609917128653130000e-001) (4, -8.42035678512961680000e-001) (5, 1.75583663092270640000e-001) (6, 6.95043693136018210000e-001) (7, 3.45203472655105150000e-001) (8, 2.33374048831467340000e-001) (9, 2.46584516034528800000e-001) (10, 3.21057471794937770000e-001) (11, 7.43850240782109260000e-001) (12, 1.64354922753961960000e-001) (13, 2.05328092257366950000e-001) (14, 7.32700347790740110000e-001) (15, 3.18485595151776350000e-002) (16, -6.69550391882105970000e-001) (17, 2.95025432190480160000e-001) (18, 1.69159474263430640000e-001) (19, 4.60172341981061940000e-001) (20, 3.16365806015861730000e-001) (21, 1.79203946921374450000e-001) (22, 4.47448931617475840000e-001) (23, 1.39228974833363380000e-001) (24, 1.59126234559053530000e-001) (25, 3.15326795274492150000e-003) (26, 4.86597301933567040000e-001) (27, 1.77682867803991760000e-001) (28, 3.11549417612473400000e-001) (29, -4.72791841701862490000e-002) (30, 1.53879568558752760000e-002) (31, 2.61898564598684440000e-001) (32, 4.05826696378617070000e-001) (33, 2.72280800962814600000e-001) (0, 6.35809362806776800000e-001) (1, -2.14679682041933190000e-001) (2, 2.52066450907386000000e-001) (3, 2.40735614760695410000e-001) (4, 2.23371772290529260000e-003) (5, 7.28021409386698350000e-001) (6, 1.74152461146869080000e-001) (7, 1.28664903390740020000e-001) (8, 7.79150194534255600000e-001) (9, 1.45489391253617120000e-001) (10, 3.61165439814733900000e-002) (11, 3.58764581714085210000e-001) (12, 3.65253230735628140000e-002) (13, -2.89239665253965270000e-002) (14, -3.00771873122582250000e-001) (15, 2.89175996119944270000e-001) (16, 8.82508688357999670000e-001) (17, 1.14152697476005860000e-001) (18, 1.62184436967945600000e-001) (19, 2.59825153995459470000e-001) (20, 1.68681434833620610000e-001) (21, -1.56342243815165700000e-002) (22, 2.32990284340164360000e-001) (23, 1.18647848960710970000e-001) (24, 1.83912924099683380000e-001) (25, 8.23798541032532000000e-002) (26, 4.92139490562122570000e-002) (27, 6.04694001064496470000e-002) (28, 1.08020696598053470000e+000) (29, 1.72603891341190920000e-001) (30, -8.24962127174380390000e-002) (31, 3.43460347566358020000e-001) (32, 1.40368022439492760000e+000) (33, 1.72189437033271610000e-001) (0, 5.43174297832562210000e-001) (1, 4.62646228199339090000e-001) (2, 4.17618607265528850000e-001) (3, -2.03218896962081670000e-001) (4, 6.06255890121720760000e-001) (5, -8.06437245800075560000e-003) (6, 1.39070084078499380000e-001) (7, 2.59351658265842560000e-001) (8, -1.17690245937191430000e-001) (9, -2.81200649347780050000e-001) (10, -3.12290525448594650000e-001) (11, -2.69316321216580950000e-001) (12, -8.38948458634775850000e-001) (13, -2.96756809678652760000e-001) (14, -2.21270961130904410000e-001) (15, -1.78131984978015500000e-001) (16, 6.28535363259707710000e-001) (17, 3.34868398255715180000e-001) (18, 9.92262113242462160000e-001) (19, -1.44439829165741410000e-001) (20, 7.14545615259744580000e-001) (21, -8.78445871681500460000e-001) (22, 8.97074154806018710000e-001) (23, 1.07419447371043350000e-001) (24, 7.88136580507017180000e-001) (25, 1.98300741720218220000e-001) (26, -1.02354590997974210000e-001) (27, -4.11840305869835110000e-001) (28, -2.28343924393252070000e-001) (29, 6.12687568733421780000e-001) (30, 5.21652710565875700000e-001) (31, 9.92748249153365680000e-002) (32, -1.47725631793361760000e+000) (33, 1.61823602735035460000e-001) (0, 5.81843138533661760000e-001) (1, -1.70902762388403350000e-001) (2, 2.35805275279373560000e-001) (3, 7.12677161065981140000e-002) (4, 3.11205958454361610000e-001) (5, -4.75424571083576720000e-001) (6, 5.68603593677464490000e-001) (7, -2.83856288049725430000e-002) (8, 7.73608904353266900000e-001) (9, 3.69986309342008530000e-003) (10, 6.18906497025334960000e-001) (11, -2.91296308018451580000e-001) (12, -2.91078428973238550000e-001) (13, 2.07459010524322610000e-001) (14, 2.30295340170861980000e-001) (15, 7.49594339272414590000e-001) (16, 3.96417871291878170000e-001) (17, 2.41583242785243070000e-001) (18, 1.91451175040868280000e-001) (19, 9.24826211227102400000e-001) (20, -3.80128889982614520000e+000) (21, 2.19394410340924720000e-001) (22, 7.42559141469650740000e-001) (23, 3.44909658176965170000e-001) (24, 2.45093049647766760000e-001) (25, -1.28419181220920410000e-001) (26, 1.84783017857726330000e+000) (27, 2.98500217921916170000e-001) (28, -4.73598155197443640000e-001) (29, 2.78040430821115400000e-001) (30, 2.09436824042433830000e-001) (31, 1.17314398434793830000e+000) (32, 3.12669258012275740000e-001) (33, 4.51138660902846040000e-001) (0, -1.20061778372747700000e-001) (1, -5.29896791999884820000e-002) (2, -2.37336448676057470000e-001) (3, 5.91532602343036510000e-001) (4, 4.96780785704730330000e-001) (5, -6.86496289767321230000e-003) (6, -6.03489966607864910000e-001) (7, 4.56063608698570250000e-002) (8, 2.84893582344072140000e-001) (9, 5.40827197070919530000e-001) (10, 5.75905611514664910000e-001) (11, 3.36722499410166410000e-001) (12, 3.63134357888113600000e-001) (13, 8.52610584646342760000e-001) (14, -6.78841040487958240000e-001) (15, 9.16575463948960670000e-002) (16, 3.64190253129873300000e-001) (17, -2.54015456359333590000e-001) (18, 3.69105381515951350000e-001) (19, -9.51118152325315600000e-001) (20, -1.15915492764347370000e+001) (21, 4.05696454115849760000e-001) (22, -1.63625856502042560000e-001) (23, 1.58569479390396650000e+000) (24, -2.81130134258894990000e-001) (25, -6.30821175915795700000e-002) (26, 8.29617800804756890000e-001) (27, 1.25795505931242650000e+000) (28, 5.41800878682458190000e-001) (29, -6.65302742601923240000e-001) (30, -3.05486358706091310000e-001) (31, 4.51345609151254270000e-001) (32, -3.19729529151086210000e-001) (33, 6.93311269142771970000e-001) (0, 3.97548984686006520000e-001) (1, -2.47582563694164260000e-001) (2, 1.12919149300385450000e+000) (3, -2.77377596299357430000e-001) (4, -1.44720848437338480000e-001) (5, 3.73911630742583990000e-001) (6, 1.15809450321618560000e-001) (7, -4.50685806323205820000e-001) (8, 3.89814794860896540000e-001) (9, -3.23489353334580790000e-001) (10, -8.19864236179660980000e-001) (11, 2.37958666575117900000e-003) (12, 4.45413286482990670000e-001) (13, -3.44861148215467760000e-001) (14, 3.94314028670488740000e-002) (15, -4.70692632147832020000e-001) (16, 4.02779895964066740000e-002) (17, 7.28531748093126490000e-001) (18, -1.51797940148952320000e+000) (19, 5.66231778066949780000e-002) (20, 1.81840004744379020000e+000) (21, 1.56372341343312150000e-001) (22, 5.10784710914345630000e-001) (23, -7.97862446892050440000e-001) (24, 5.90467471057120050000e-001) (25, 4.92939652219663680000e-001) (26, -7.91888327539405300000e-001) (27, -3.44245034734673050000e-001) (28, 3.33015996821605150000e-001) (29, 3.93408183307838330000e-001) (30, -3.09961513812902100000e-001) (31, 4.19949863413048300000e-002) (32, 6.71226776555842400000e-001) (33, -2.68972419013847720000e-001) (0, -3.38142687642908950000e-001) (1, -1.48400541891702100000e-001) (2, 5.68314882047091910000e-001) (3, -2.07519224333679230000e-001) (4, -3.26494866129433400000e-001) (5, -1.75660621730042040000e-001) (6, 5.65766294327058050000e-001) (7, -1.29901000708002620000e-001) (8, -7.95417289778614140000e-001) (9, 1.88448085135917330000e-002) (10, 3.62264256272887110000e-001) (11, 1.22669868576280290000e-001) (12, 3.83844525787667090000e-001) (13, 1.98122300515077450000e-001) (14, 4.69151089934956020000e-001) (15, 1.51477543088153060000e-001) (16, -2.47569431441259670000e-001) (17, 1.94788424923777790000e-001) (18, 1.87232447644418690000e+000) (19, 5.43409831349858650000e-001) (20, 2.56571295445926990000e-001) (21, -6.92431492630197430000e-001) (22, 3.41007835247251150000e-001) (23, -9.93890725560344220000e-002) (24, 1.07874318985445040000e+000) (25, 5.04115898595054460000e-001) (26, -1.55556052324556330000e-001) (27, 1.13041199620515870000e-001) (28, 3.22911525462183210000e-001) (29, -1.11811160825315170000e-001) (30, -2.22840091613107530000e-001) (31, 1.96843293190041730000e-001) (32, -1.46853676981181490000e-001) (33, -2.33584722202772570000e-001) (0, 6.82483922323506300000e-002) (1, 5.63275493037951210000e-001) (2, -2.16324805175942380000e-001) (3, 6.90050925677322850000e-001) (4, 8.72826807598243600000e-001) (5, -1.03834254190947380000e-001) (6, -8.41841899681023850000e-001) (7, 1.53534913235119360000e-001) (8, 5.80759899473874130000e-002) (9, 1.01146948147611690000e+000) (10, 4.11711715987716220000e-001) (11, 3.46494049925256120000e-001) (12, 8.00263829287188870000e-001) (13, 8.68259159891617950000e-001) (14, -6.41638685018202430000e-001) (15, 2.86426004525871300000e-001) (16, 4.12640515331675780000e-001) (17, -4.70978774200765600000e-002) (18, 3.63006476671797030000e-001) (19, -3.39270608477360290000e-001) (20, -1.31125907975526260000e+000) (21, 6.73121346882939590000e-002) (22, -4.93431010333928300000e-002) (23, 1.15241469654714690000e+000) (24, -4.97869316147276590000e-001) (25, -1.57603701495621470000e-001) (26, 8.07751030593013340000e-001) (27, 1.14751016781498930000e+000) (28, -6.46592696855239350000e-002) (29, 2.73949065965634400000e-001) (30, 1.05108770676518860000e-001) (31, -3.38724005121297690000e-001) (32, -1.94562545143367040000e-001) (33, 5.59189630615680610000e-001) (0, -4.08543153040473620000e-001) (1, -5.30169829846579120000e-001) (2, 1.30432013863497310000e-001) (3, 3.94615463326446540000e-001) (4, -1.99722616546562750000e-002) (5, 1.76617940624382820000e-001) (6, 9.68270578964550150000e-001) (7, -4.19728765446733760000e-001) (8, -2.99761577227200200000e-001) (9, -2.51732331043151130000e-001) (10, 2.48092293073117610000e-001) (11, 1.22232925283976200000e+000) (12, 3.71920135561025210000e-001) (13, -6.55197841724607380000e-001) (14, 6.32657616371411270000e-001) (15, -2.31746087361949740000e-001) (16, -7.64306756145057340000e-003) (17, 9.47544008074145270000e-002) (18, 9.00029652919241420000e-001) (19, 1.65356778202835790000e-001) (20, 7.82502918896508470000e-001) (21, 7.29883339066010220000e-001) (22, -2.35161934185299510000e-001) (23, -3.14330011440237700000e-001) (24, 1.18955004329007920000e+000) (25, 1.26177066875393540000e-001) (26, 2.71887798500886570000e-001) (27, -3.31126690225477420000e-001) (28, 7.12539864677904420000e-001) (29, -9.68930385217174890000e-001) (30, -7.82366803575369700000e-001) (31, 1.14940307714965370000e-001) (32, 1.17208541472130250000e+001) (33, -6.34501770089398120000e-001) (0, 1.79971413395896900000e-001) (1, 1.43807672619645610000e-001) (2, 2.20138299533892630000e-001) (3, 1.24336335400770840000e-001) (4, 9.85650651825484700000e-002) (5, 2.87232798815790880000e-002) (6, 4.16945764873036470000e-001) (7, 2.52183345976466520000e-001) (8, 2.16338875358574050000e-001) (9, 2.80203820533751810000e-001) (10, 3.55516149149702310000e-001) (11, 3.18509187924329250000e-001) (12, -1.48751016274693070000e-002) (13, 4.44266676956643510000e-001) (14, 2.43191741071259400000e-001) (15, 4.06683920407110040000e-001) (16, 1.55734659737950780000e-001) (17, -4.32178843577151970000e-001) (18, 2.25839357471923990000e-001) (19, 1.37253369122141090000e-001) (20, 4.29289463235914050000e-001) (21, -1.44566304533851030000e-001) (22, 5.85377316468181590000e-001) (23, 8.90853199891622700000e-001) (24, -5.85397943452958370000e-001) (25, 1.92114079466920830000e-001) (26, 8.63589523498992320000e-001) (27, 3.12455730938203840000e-001) (28, -1.04613712683080520000e-001) (29, 6.31340325090130490000e-001) (30, 8.71976171281597100000e-001) (31, 3.94140673084554190000e-001) (32, 1.27384678494725570000e-001) (33, 1.98854120167047040000e-001) (0, 1.01771746806080160000e-001) (1, 2.12853166874899520000e-001) (2, 1.33883218825691820000e-001) (3, -7.83415486150030040000e-002) (4, 6.94310111594496740000e-001) (5, 1.15241747078419720000e+000) (6, -3.48589602084118490000e-001) (7, 2.31017071991635930000e-001) (8, 2.17662126196767000000e-001) (9, -3.98028510574647660000e-001) (10, -2.23383873428781490000e-001) (11, 3.45747871059326250000e+000) (12, 1.39735546461749060000e+000) (13, 2.26233321214679540000e-001) (14, -2.13554331105436870000e-001) (15, 2.16542435443013910000e-001) (16, 1.82036343700640090000e-001) (17, 1.09149147556036620000e+000) (18, 9.45843577607021060000e-002) (19, -2.73698256950102580000e-001) (20, 7.64187118070397300000e-001) (21, 1.73155979500215820000e+000) (22, -9.07944075981665160000e-001) (23, -3.84049686388047850000e-002) (24, 1.33110224080090600000e-001) (25, 1.80622049558409960000e-001) (26, 3.41346209902595400000e-001) (27, -7.52516094765161240000e-001) (28, 1.17164103317632980000e+000) (29, 2.26326507395717660000e-001) (30, 2.19832259846266130000e-003) (31, 4.66780167944794090000e-002) (32, 6.70402629147099290000e+000) (33, 1.28667946530651750000e-001) (0, 2.87351265264038960000e-002) (1, 3.69163259513081930000e-001) (2, 1.26522187620182050000e-001) (3, 1.73801697322860940000e-001) (4, 3.56993603002551510000e-001) (5, 3.96001435201255080000e-001) (6, -3.14545770225957140000e-001) (7, 2.17774697233621780000e-001) (8, 2.76019948668715990000e-001) (9, 1.51942267412551010000e-001) (10, -2.32092901433692930000e-001) (11, 1.63027332327889820000e+000) (12, 5.60005293981482910000e-001) (13, 1.38914946742058290000e-001) (14, 2.50667658731694580000e-002) (15, 7.50949740052886950000e-002) (16, 6.09552362858960080000e-001) (17, 2.38050819339259840000e-001) (18, 1.57499815346068990000e-001) (19, -1.75607131950079260000e-001) (20, 1.43786276741547290000e-001) (21, 2.51625379852327640000e-001) (22, -8.89499237771418370000e-003) (23, 8.62986111128549170000e-002) (24, 1.27159296302912610000e-002) (25, -4.01632304759160950000e-001) (26, 1.97612064988466130000e+000) (27, 6.84928045520854510000e-002) (28, -1.51064777383472570000e-001) (29, 2.20347284807298930000e-002) (30, 5.81152389971085410000e-002) (31, 2.82563795797819540000e-001) (32, 6.08300110179878510000e-001) (33, 5.24349370340827170000e-002) (0, 1.13824084177579230000e+000) (1, 6.60175197735688450000e-002) (2, -4.93818523879817130000e-002) (3, 3.20025821236203100000e-001) (4, 1.78102107134368530000e-001) (5, -1.31867391954110850000e-001) (6, -5.28303395208685630000e-001) (7, 4.43586561145734690000e-001) (8, 3.03519776798945870000e-002) (9, 1.95598599787524670000e-001) (10, 4.02861855393754190000e-001) (11, -5.03106671501884150000e-001) (12, 9.40717926624652810000e-001) (13, 2.32260336785527570000e-001) (14, 5.25859632138669380000e-001) (15, 1.03132715190885070000e+000) (16, 3.40097291640449330000e-001) (17, -6.66552748449252690000e-002) (18, 3.16978965599265360000e-001) (19, 7.44225577174202350000e-001) (20, -5.21020169714907290000e-002) (21, 1.60556678624302340000e-001) (22, 4.72946449117957400000e-002) (23, 8.22889300873570710000e-001) (24, -4.34972220044737640000e-002) (25, 1.59154566821459810000e-001) (26, 9.39748344068945920000e-001) (27, 2.08199415756372350000e-001) (28, -1.65641351671847240000e-001) (29, 6.63023636573437880000e-001) (30, 7.20017663471829490000e-001) (31, 1.96354991665389580000e-001) (32, 2.60694811199140020000e+000) (33, 1.72887365050553600000e-001) (0, 2.44355793212591850000e-001) (1, -1.77089779944068920000e-003) (2, 5.56296853149687800000e-001) (3, -2.05469185493094370000e-001) (4, -2.37533612400673670000e-001) (5, -1.18620809042514960000e-001) (6, 6.78595124188364650000e-001) (7, 7.86938191732303030000e-002) (8, -1.23971428883255380000e-002) (9, -4.54942658609720770000e-001) (10, -4.20276110248314130000e-001) (11, -7.39500355933224440000e-002) (12, -3.70479197392541700000e-002) (13, 1.54237979214434970000e-001) (14, -2.08062233755607370000e-001) (15, 2.66559242438608730000e-001) (16, -1.87366404192663430000e-001) (17, 4.82846307293934800000e-001) (18, 1.87243075730248450000e-001) (19, 1.77960744021973400000e-001) (20, 2.65548809659958360000e-001) (21, 1.32833080741707020000e-001) (22, 3.68974828200235420000e-001) (23, 1.98236754386646790000e-001) (24, 8.68228327505396610000e-002) (25, 1.45148038588245380000e-001) (26, -3.00632897407444200000e-001) (27, -2.98071179533047290000e-001) (28, 4.77976935671091230000e-001) (29, 1.17246153378402610000e-001) (30, 3.05576428820534480000e-001) (31, 2.04666244494671330000e-001) (32, 1.45894847788905740000e-001) (33, 2.68687618962899610000e-001) (0, 6.93147261689915690000e-001) (1, 8.53002594123194460000e-001) (2, -2.64581842032565740000e-001) (3, 4.58355103069049350000e-002) (4, 3.01200509381193420000e-001) (5, 4.99655514592766900000e-002) (6, 3.39630509152026470000e-001) (7, 9.00035444875547870000e-001) (8, 8.08977145629455770000e-001) (9, 2.85039270703791590000e-001) (10, 3.55997015184755130000e-001) (11, -7.78566461273402230000e-002) (12, -5.38314554383831840000e-002) (13, 6.29150059703394330000e-001) (14, 4.53808444276639800000e-001) (15, 8.77006728395444250000e-001) (16, 8.31206711130785260000e-002) (17, -3.90958880881235370000e-001) (18, -2.36064659002307050000e-001) (19, 2.14219723903766200000e-001) (20, -4.25247790392483780000e-001) (21, -9.90086380359801870000e-002) (22, -8.54962372133416940000e-002) (23, 9.01554792909897150000e-001) (24, -4.88534119388067900000e-001) (25, 8.86475153968664280000e-001) (26, 6.24498993237046940000e-001) (27, 4.12209213227547720000e-001) (28, -2.80571095555828880000e-001) (29, 1.00337893693291780000e+000) (30, 1.42676355265501580000e+000) (31, -8.68875048967468060000e-002) (32, -2.52091944691908380000e-001) (33, 7.62791733390540850000e-001) (0, -1.62500273255279280000e-002) (1, -6.58357857781302880000e-003) (2, 3.20965957997630220000e-001) (3, 4.35589170576674840000e-002) (4, -4.34976747343134780000e-002) (5, -7.27242788832274110000e-002) (6, 2.20071915899691990000e-001) (7, 3.94920532543585940000e-001) (8, -1.84871192245174560000e-001) (9, -2.12511467592211120000e-001) (10, 6.56550304992730930000e-001) (11, 1.77499800266786880000e-001) (12, 2.29415059322197770000e-001) (13, 5.01864293412839780000e-001) (14, 3.18294037079606850000e-001) (15, 1.35304713819991470000e+000) (16, 6.12019939082119980000e-003) (17, -7.49409542225376170000e-002) (18, 1.66428450530695940000e-001) (19, 4.32306728550563290000e-001) (20, -5.24394023790503040000e-001) (21, -3.28991255447765970000e-001) (22, 1.16244239824145330000e-001) (23, 1.44849251927494090000e+000) (24, -8.62570079600962100000e-001) (25, -1.92499306480556910000e-002) (26, 8.86026902851888680000e-001) (27, 6.35192013600111240000e-001) (28, -5.47751620281349900000e-002) (29, 5.33896477204904850000e-001) (30, 9.98459654526507760000e-001) (31, 8.24560687413210120000e-002) (32, 9.66877050262021120000e-003) (33, 1.11226264700362520000e-001) (0, -4.56100591178465260000e-002) (1, 1.95035131841748280000e-001) (2, 1.62225482592322450000e-001) (3, 7.11792888945854820000e-002) (4, 2.85498136626099910000e-001) (5, 3.41926436266362430000e-001) (6, -1.84867928378322610000e-001) (7, 2.97229889690321600000e-001) (8, 1.99053097952322090000e-001) (9, 2.04799511151212450000e-001) (10, -1.13930478668102120000e-001) (11, 9.35289570866679520000e-001) (12, 4.38157453761809700000e-001) (13, 1.40816500187740170000e-001) (14, -3.05364549754355900000e-001) (15, 2.02623639269517370000e-001) (16, 5.28931153312121260000e-001) (17, 1.19828614045861540000e-001) (18, 1.18113313507889200000e-001) (19, -5.73069037078966300000e-002) (20, 1.57005444823760970000e-001) (21, 1.52388121579279140000e-001) (22, -8.33686120929358900000e-002) (23, 1.89264421324476880000e-001) (24, 1.12696240387961080000e-001) (25, 2.74050523286325020000e-002) (26, -6.43841124716756500000e-002) (27, 2.31943195161177280000e-001) (28, 5.10681763248967080000e-001) (29, 9.63343291385110320000e-003) (30, 1.41703198384127680000e-001) (31, 5.29083516174357000000e-001) (32, 2.86120057157148610000e-001) (33, 1.46982099364983690000e-001) (0, -1.18969746717458320000e-001) (1, 4.36986373753749210000e-001) (2, -6.68215754786174590000e-002) (3, 8.56142512370598050000e-002) (4, 5.20744391366076310000e-001) (5, -5.41682446707981710000e-001) (6, 4.54367358625244910000e-001) (7, 4.07463894339934410000e-001) (8, 5.07247204883266580000e-001) (9, 5.37152309678682660000e-001) (10, 1.17480707715981030000e+000) (11, -1.06326373377375640000e-002) (12, -7.61751866170957830000e-002) (13, 5.88517542552483900000e-001) (14, 4.60191840701465790000e-001) (15, 6.38372950654852560000e-001) (16, -1.60786872003349930000e-001) (17, -5.10267164871730070000e-001) (18, -1.26671001532072720000e-001) (19, 5.29157691856307680000e-001) (20, -6.21048255886883390000e-001) (21, -2.81795351743026830000e-001) (22, 1.22890974396832870000e-001) (23, 9.90831713422693490000e-001) (24, -2.12774154962776130000e-001) (25, -2.14526956123354620000e-001) (26, 1.01304638683722150000e+000) (27, 9.78913653274704250000e-001) (28, -3.38694837737438750000e-001) (29, 5.45024748257787460000e-001) (30, 4.23885801113179250000e-001) (31, 3.39327348933039400000e-001) (32, -1.39697536305513100000e-001) (33, 5.40635385759905440000e-001) (0, 2.06086187970975440000e-001) (1, -1.97303134516911230000e-001) (2, 5.59180815087293670000e-001) (3, -2.34564429537372940000e-001) (4, -1.02798398777635860000e-001) (5, 3.97307284017583530000e-001) (6, 1.29948932112515540000e-001) (7, -4.67203491865615490000e-001) (8, 1.81094247194871910000e-001) (9, 6.64776274494362740000e-003) (10, -5.15770906944062800000e-001) (11, 1.24569122577270710000e-001) (12, 2.23734049950942730000e-001) (13, -1.74631576451408430000e+001) (14, -1.04438587629464670000e-001) (15, -3.24394185612589760000e-001) (16, 6.04572547028573990000e-001) (17, 8.06168636554525640000e-001) (18, 5.42553604257258960000e-001) (19, -6.85889651622502010000e-002) (20, 7.66952807777391610000e-001) (21, 3.71760566836676740000e-001) (22, 5.46628553385474890000e-001) (23, -3.24670462866281760000e+000) (24, 7.74267752695790980000e+000) (25, 4.95056242908061050000e-001) (26, -6.47631218467992760000e-001) (27, 2.25726936486960910000e-001) (28, 1.98996955788003440000e-001) (29, -5.46015001654062480000e-002) (30, -1.14776099425939280000e-001) (31, 5.70681407561695720000e-001) (32, 5.61868116634780090000e-001) (33, -8.88314684251441390000e-002) (0, 1.63937917367230480000e-001) (1, 3.75044459157759800000e-001) (2, 1.60724169354850870000e-001) (3, 3.78094972445490510000e-001) (4, 1.32170723752853350000e-001) (5, -1.25458087561995580000e-002) (6, 4.56178934908329170000e-001) (7, 4.16924176219710120000e-001) (8, 2.62869173282717030000e-001) (9, 2.37175696124078570000e-001) (10, 3.44124343988515600000e-001) (11, -1.31640930465515980000e-001) (12, -2.45570487792007890000e-002) (13, 3.50486179665555060000e-001) (14, 6.89639346045125330000e-001) (15, 2.49607371141541880000e-001) (16, -4.80997303887459980000e-001) (17, -1.10174620073522830000e-001) (18, 2.07259042437356160000e-001) (19, 5.09651336164379410000e-001) (20, 6.44034558226349140000e-001) (21, 1.92811270027479110000e-001) (22, 2.64722709145082630000e-002) (23, 3.32717854182718710000e-001) (24, -3.18292666465920090000e-003) (25, 7.90146895261679140000e-001) (26, 5.95014641626862680000e-001) (27, 2.11471865612718800000e-001) (28, 8.91904487755028340000e-002) (29, 3.10330112254235460000e-001) (30, 3.09793577720932690000e-001) (31, 4.87717748497830740000e-002) (32, 5.79408111932657110000e-002) (33, 5.22683821631861220000e-001) (0, -1.32053424242709740000e-001) (1, 5.28581701410146710000e-001) (2, -1.89380480815914620000e-002) (3, -3.90610457070254490000e-001) (4, 8.60389526830949600000e-001) (5, -1.14368222623528150000e-001) (6, 2.87503386064104420000e-001) (7, 3.26771648637411540000e-001) (8, 4.51339607099290050000e-002) (9, 5.77514370797921340000e-001) (10, 5.30197016890577970000e-001) (11, -4.03414326134357240000e-001) (12, 1.33395012297746950000e-001) (13, 1.05443335497522020000e-001) (14, 6.43990333799628330000e-001) (15, 1.13168928830020570000e+000) (16, 1.29717557965455540000e+000) (17, -2.20440894854266430000e-001) (18, 4.93939675799630330000e-001) (19, 4.95947088824376940000e-001) (20, 1.22676715565202820000e-001) (21, -1.81070904052771710000e-001) (22, 5.70456719318593760000e-001) (23, 2.34742172986909500000e-001) (24, 1.91425981090195600000e-001) (25, 2.83954419821772270000e-001) (26, 8.84355422229334050000e-001) (27, 2.46613577768251520000e-001) (28, -2.57608614822381070000e-001) (29, -3.26248516723218750000e-001) (30, -1.03919393252904520000e-002) (31, 1.26748493492842870000e+000) (32, -2.64336745977589330000e-001) (33, -2.53731998194030810000e-001) (0, 1.80373439029895140000e-001) (1, 5.50745594612026100000e-001) (2, -3.51648235259018890000e-001) (3, 1.58825187713187220000e-002) (4, 6.70190620539892760000e-001) (5, 4.24637374059419700000e-001) (6, -1.34736573550304690000e-001) (7, 1.38486043297900510000e-001) (8, 4.95300665227600860000e-001) (9, 9.31027084376470190000e-001) (10, -2.02805662630712900000e-001) (11, 1.75388326924700380000e-001) (12, 3.37241007110142270000e-001) (13, 1.55608887936843600000e-001) (14, -4.76624681908486000000e-001) (15, 1.00213063594161960000e-001) (16, 9.83796480025316280000e-001) (17, 6.67335950248749480000e-001) (18, -2.68132753515807010000e-001) (19, -1.04720606107843450000e-001) (20, 4.19707798932507040000e-001) (21, 8.87673979161031080000e-001) (22, -1.20068231080920120000e-001) (23, -1.40453028721076350000e-001) (24, 6.12937117350371600000e-001) (25, 4.55221490697660820000e-001) (26, -1.31062823630788000000e-001) (27, 7.54010348014691690000e-001) (28, 5.45764275699205270000e-001) (29, 1.52309069689231800000e-001) (30, 1.04443316470563710000e-001) (31, 4.74140312161140610000e-001) (32, 4.28310966232770150000e-001) (33, 7.27098029987165770000e-001) (0, -1.00482277430901020000e-001) (1, -5.69039569861031010000e-002) (2, 2.88725992872874650000e-001) (3, 1.16469896654682950000e-002) (4, -9.15245021111709410000e-002) (5, 2.28519697980778920000e-001) (6, 1.96253552447263140000e-001) (7, -8.01889613861543890000e-002) (8, 1.67666788330655290000e-001) (9, 1.85156558843597940000e-001) (10, 2.14152729810732190000e-001) (11, 2.79155676615602750000e-001) (12, 3.28188066832739430000e-001) (13, -1.51507484198913690000e-001) (14, 2.81212129284339030000e-001) (15, -2.73325178655895780000e-001) (16, -9.79777540603625070000e-002) (17, 5.03656333209881240000e-001) (18, 2.77056936133086910000e-001) (19, 2.96030818693220340000e-001) (20, 2.95893672077888970000e-001) (21, -1.98502835062219670000e-002) (22, 3.03601810779114360000e-001) (23, -8.99866566278996470000e-002) (24, 4.84996744757660360000e-001) (25, -1.61104057950386130000e-001) (26, -1.71587035355417940000e-001) (27, 8.13655017243448270000e-002) (28, 4.76528675574343090000e-001) (29, -3.01239238965125330000e-001) (30, -2.42551143709735410000e-001) (31, 3.05545972792838070000e-001) (32, 4.62984246514900610000e-001) (33, -2.82960648527475280000e-002) (0, 1.24524481266327260000e-001) (1, 9.14250123427479830000e-002) (2, 4.44397394992726070000e-001) (3, 3.97374176748262860000e-001) (4, -2.47965330891002170000e-001) (5, -4.59187889650514920000e-002) (6, 6.83248487937046070000e-001) (7, 4.62578073968380130000e-001) (8, 3.54211517441573420000e-001) (9, 1.59741537065375030000e-001) (10, 4.06674971518592610000e-001) (11, -2.30818254849214750000e-001) (12, -3.05732863198033500000e-001) (13, 1.82894622842041750000e-001) (14, 1.49341374286354260000e+000) (15, 3.34623295215680290000e-001) (16, -3.07956208142575130000e-001) (17, -8.82777981753147810000e-002) (18, -1.78824013097795500000e-001) (19, 1.42661544922565710000e+000) (20, 1.97674427704384900000e+000) (21, 3.32138936997964480000e-001) (22, 3.86554882271835310000e-002) (23, 1.98962461665007450000e-001) (24, 9.31381436229417330000e-002) (25, 1.07915095829115420000e-001) (26, 3.36986599778644810000e-001) (27, 1.03093115203598070000e-001) (28, 2.12308464829215410000e-002) (29, 1.04814516182717620000e+000) (30, 3.82544837541185120000e-001) (31, -5.35053176464315050000e-001) (32, -5.01283124472406880000e-003) (33, 4.53080989240668970000e-001) (0, 1.22678735583189360000e-001) (1, 8.68592753225569110000e-002) (2, 2.59738942515665540000e-001) (3, 7.51096892242619000000e-001) (4, 6.49819681769743580000e-001) (5, 1.70205754648226290000e-001) (6, 2.74486604280870460000e-001) (7, 1.80862263586282430000e-001) (8, 6.14945587628293180000e-002) (9, 3.47405255744946180000e-001) (10, 4.18124778260126670000e-001) (11, 8.92656326803766390000e-001) (12, 2.36953971701672400000e-001) (13, -6.31451577017557490000e-003) (14, 4.19815199909831350000e-001) (15, 2.98606943327165530000e-001) (16, -7.52176670699313040000e-001) (17, 1.14971073083382600000e-001) (18, 2.57643903823010610000e-001) (19, 3.60956985540420490000e-001) (20, 1.67877508929289100000e-001) (21, 1.94401021213903290000e-001) (22, -6.86473766086919900000e-001) (23, -1.10610131172807530000e-002) (24, 1.73667802500440170000e-001) (25, -2.04328930860407900000e-002) (26, 1.30193868706572920000e+000) (27, 6.45834817372786700000e-001) (28, 3.46576927191203980000e-001) (29, 3.50726270185454870000e-002) (30, -8.16983102460130390000e-002) (31, 1.76325604407519400000e-001) (32, 3.67574506786629840000e-001) (33, 1.87373407075391710000e-001) (0, -8.32531646860083520000e-002) (1, 5.18256103465006390000e-001) (2, -4.66953989063223360000e-002) (3, 5.91608115024772170000e-001) (4, -3.81337827794412110000e-001) (5, 6.89012620018119360000e-001) (6, -2.57981827407181940000e-002) (7, 1.07901633244676290000e-001) (8, -2.90476357742359620000e-002) (9, -6.78286364990757780000e-002) (10, 1.67829095129004120000e-001) (11, 1.09256595132346270000e+000) (12, 5.08159074360724380000e-001) (13, 6.65089784713099040000e-002) (14, -1.54929124337815060000e-001) (15, 5.44149836983958070000e-002) (16, 4.73870342721638030000e-001) (17, 1.31068515483143050000e-001) (18, 8.51417039889587390000e-001) (19, -2.50126964971390530000e-001) (20, 2.36966675294248950000e-001) (21, 8.85386057651410650000e-001) (22, -1.12987889245360630000e-001) (23, 1.41751877377916140000e-001) (24, 1.71612963034189690000e-001) (25, 5.43607242217217100000e-002) (26, -2.07009742323944620000e-001) (27, 6.55900596992934490000e-003) (28, 7.01076520552888600000e-001) (29, 1.59478922873076740000e-001) (30, 9.43765894854433910000e-002) (31, -2.00846890590700320000e-001) (32, 2.60282061823545300000e+000) (33, 4.51011595848476220000e-001) (34, 5.00960561094087040000e-001) (35, 5.77885472318012900000e-001) (36, -1.48888512760018220000e-001) (37, -1.83534435478822450000e-001) (38, -1.48381778063180560000e-001) (39, -1.58929500841090180000e-002) (40, 5.18329909219936820000e-001) (41, -1.75364524967623450000e-001) (42, -1.14453274242997590000e-001) (43, 2.14221374486251590000e-001) (44, -1.93021993924526510000e-001) (45, -2.66580616773115790000e-001) (46, 7.02898677727830550000e-001) (47, 6.31631342532497200000e-001) (48, -3.01601056375771610000e-001) (49, -9.02955147644474290000e-002) (50, 3.39778182250962620000e-001) (51, -1.16756935677566910000e-001) (52, -2.01757664541386630000e-001) (53, -1.61655168482217090000e-001) (54, 5.08586668392800200000e-001) (55, 4.63372328237825930000e-001) (56, 3.19460570551134530000e-001) (57, -1.59454086590321980000e-001) (58, -3.01318648230715410000e-001) (59, -1.13932825212549240000e-002) (60, 4.57468127082756080000e-001) (61, 5.76097041801977570000e-002) (62, -4.76689188330087640000e-002) (63, -1.48024936553786760000e-001) (64, 4.19889190084987040000e-001) (65, -1.83722154000222490000e-001) (66, 2.36071054870233970000e-001) (67, 4.11689559103394280000e-001) (34, 2.23746527302742220000e-001) (35, 1.60345669755750260000e-001) (36, 2.96692978850160440000e-001) (37, 9.17412264668886340000e-002) (38, 2.74963538169556880000e-001) (39, 1.56210900737211310000e-001) (40, 1.64214436783645170000e-001) (41, 2.49602891430979860000e-001) (42, 1.75060181098656680000e-001) (43, -1.63099722041321980000e-001) (44, -6.26733916006205070000e-002) (45, 1.01079977786903770000e-001) (46, 2.15363052705986410000e-001) (47, -4.07472061528748390000e-002) (48, 1.25943180203435920000e-001) (49, 7.51697741871602100000e-001) (50, -2.49157998303098230000e-001) (51, 3.45576280745682200000e-001) (52, 9.30594101274800490000e-002) (53, -2.16655323473254950000e-001) (54, 5.24691999444977380000e-002) (55, -2.30136244584296570000e-001) (56, 2.22688146579496590000e-001) (57, 1.35325488583676660000e-001) (58, -2.64059597430377270000e-001) (59, 2.46330031460186940000e-002) (60, 5.85400281766199070000e-001) (61, -1.18512330800795610000e-001) (62, 2.51848694630874840000e-002) (63, 4.13560228741661870000e-001) (64, 2.85859370950819200000e-001) (65, 2.87795555579982320000e-001) (66, 4.11332952454057100000e-001) (67, 6.10308729402988860000e-001) (34, -1.39688386591234450000e-001) (35, -2.13139055483267730000e-001) (36, 3.45562022202052070000e-001) (37, -1.36372990413194920000e-001) (38, -7.30174789555827210000e-002) (39, 5.83936566255979920000e-002) (40, 5.36578634544024990000e-001) (41, -7.25372245411513850000e-002) (42, 1.22153628018591270000e-001) (43, -2.30854595576507450000e-001) (44, 4.20638673070743600000e-001) (45, 8.03473257534127350000e-001) (46, -1.35306051410254670000e-001) (47, 5.42685033447424660000e-002) (48, 8.27753043052174340000e-001) (49, -4.99357836414204500000e-001) (50, 5.19840375388035400000e-001) (51, -1.15980117874139060000e-001) (52, -1.08986385945841760000e-001) (53, 3.11162483173598080000e-002) (54, -1.22150574404289280000e-001) (55, 5.48091559266285610000e-001) (56, 1.04750599851050420000e+000) (57, -9.28622818500200730000e-002) (58, 5.44120308632729870000e-001) (59, -1.43673389695036400000e-001) (60, -4.88083305455572420000e-002) (61, -8.10285974053610580000e-002) (62, -1.27380969137787130000e-001) (63, 3.48813476034780520000e-001) (64, 3.21192660974917250000e-003) (65, -6.39342121543852590000e-002) (66, 1.05690572603528750000e-001) (67, 5.65028794870075730000e-001) 
