FANN_FLO_2.1
num_layers=3
learning_rate=0.700000
connection_rate=1.000000
network_type=0
learning_momentum=0.000000
training_algorithm=2
train_error_function=1
train_stop_function=0
cascade_output_change_fraction=0.010000
quickprop_decay=-0.000100
quickprop_mu=1.750000
rprop_increase_factor=1.200000
rprop_decrease_factor=0.500000
rprop_delta_min=0.000000
rprop_delta_max=50.000000
rprop_delta_zero=0.100000
cascade_output_stagnation_epochs=12
cascade_candidate_change_fraction=0.010000
cascade_candidate_stagnation_epochs=12
cascade_max_out_epochs=150
cascade_max_cand_epochs=150
cascade_num_candidate_groups=2
bit_fail_limit=3.49999999999999980000e-001
cascade_candidate_limit=1.00000000000000000000e+003
cascade_weight_multiplier=4.00000000000000020000e-001
cascade_activation_functions_count=10
cascade_activation_functions=3 5 7 8 10 11 14 15 16 17 
cascade_activation_steepnesses_count=4
cascade_activation_steepnesses=2.50000000000000000000e-001 5.00000000000000000000e-001 7.50000000000000000000e-001 1.00000000000000000000e+000 
layer_sizes=34 14 4 
scale_included=0
neurons (num_inputs, activation_function, activation_steepness)=(0, 0, 0.00000000000000000000e+000) (0, 0, 0.00000000000000000000e+000) (0, 0, 0.00000000000000000000e+000) (0, 0, 0.00000000000000000000e+000) (0, 0, 0.00000000000000000000e+000) (0, 0, 0.00000000000000000000e+000) (0, 0, 0.00000000000000000000e+000) (0, 0, 0.00000000000000000000e+000) (0, 0, 0.00000000000000000000e+000) (0, 0, 0.00000000000000000000e+000) (0, 0, 0.00000000000000000000e+000) (0, 0, 0.00000000000000000000e+000) (0, 0, 0.00000000000000000000e+000) (0, 0, 0.00000000000000000000e+000) (0, 0, 0.00000000000000000000e+000) (0, 0, 0.00000000000000000000e+000) (0, 0, 0.00000000000000000000e+000) (0, 0, 0.00000000000000000000e+000) (0, 0, 0.00000000000000000000e+000) (0, 0, 0.00000000000000000000e+000) (0, 0, 0.00000000000000000000e+000) (0, 0, 0.00000000000000000000e+000) (0, 0, 0.00000000000000000000e+000) (0, 0, 0.00000000000000000000e+000) (0, 0, 0.00000000000000000000e+000) (0, 0, 0.00000000000000000000e+000) (0, 0, 0.00000000000000000000e+000) (0, 0, 0.00000000000000000000e+000) (0, 0, 0.00000000000000000000e+000) (0, 0, 0.00000000000000000000e+000) (0, 0, 0.00000000000000000000e+000) (0, 0, 0.00000000000000000000e+000) (0, 0, 0.00000000000000000000e+000) (0, 0, 0.00000000000000000000e+000) (34, 5, 5.00000000000000000000e-001) (34, 5, 5.00000000000000000000e-001) (34, 5, 5.00000000000000000000e-001) (34, 5, 5.00000000000000000000e-001) (34, 5, 5.00000000000000000000e-001) (34, 5, 5.00000000000000000000e-001) (34, 5, 5.00000000000000000000e-001) (34, 5, 5.00000000000000000000e-001) (34, 5, 5.00000000000000000000e-001) (34, 5, 5.00000000000000000000e-001) (34, 5, 5.00000000000000000000e-001) (34, 5, 5.00000000000000000000e-001) (34, 5, 5.00000000000000000000e-001) (0, 5, 0.00000000000000000000e+000) (14, 5, 5.00000000000000000000e-001) (14, 5, 5.00000000000000000000e-001) (14, 5, 5.00000000000000000000e-001) (0, 5, 0.00000000000000000000e+000) 
connections (connected_to_neuron, weight)=(0, -2.70949031174703260000e-001) (1, -7.61334828490567330000e-001) (2, -3.86704906152792400000e-001) (3, -2.72909660503475980000e-001) (4, 4.45232073137679930000e-002) (5, -2.43544971454280250000e-001) (6, -1.24429573700578630000e+000) (7, -4.77991839204355230000e-001) (8, -2.43572807059167060000e-001) (9, 6.32381857954394830000e-001) (10, -7.28153570865376020000e-001) (11, 7.13207485949078010000e-001) (12, 2.08281350409774650000e+000) (13, -8.55856237154136060000e-001) (14, -3.59662863869496640000e-001) (15, 5.69472114242044580000e-001) (16, -2.67766509428783990000e-002) (17, -2.97961000397779340000e-001) (18, 5.36894480850450440000e-001) (19, 8.93044960951388300000e-001) (20, 5.71084531187911890000e+001) (21, 3.56000650541565270000e-001) (22, 2.01724046501929430000e+000) (23, -1.13517567300214700000e-001) (24, 5.44214670104940510000e-001) (25, 6.33778125135041840000e-001) (26, 1.53128565004069220000e+000) (27, -8.94924042698781590000e-002) (28, 5.80442284560536930000e-001) (29, 8.57355391536133050000e-001) (30, -2.86948413817717630000e+000) (31, -5.65869115544286760000e+000) (32, -1.56031350007723440000e+001) (33, -1.67022435276750040000e-001) (0, -8.03013154862759370000e-001) (1, 8.58787591348022240000e-002) (2, 9.18822240197485040000e-001) (3, 1.81130484903517130000e+000) (4, 4.70328219861680720000e+000) (5, 4.00673600021032970000e-001) (6, -5.81624109004728500000e-001) (7, 1.12106952214582310000e+000) (8, 1.62895102370465520000e+000) (9, 1.68433088956664450000e-001) (10, 7.84864489956740190000e-001) (11, -2.10877874725400650000e-001) (12, -2.06872327881931330000e+000) (13, 8.02415717976189600000e-001) (14, 2.43401813952048020000e-001) (15, 4.27572333304845340000e-001) (16, 5.19796555131731260000e+000) (17, 9.48172947532764930000e-001) (18, 1.50659614950496580000e+000) (19, -1.67475563016954480000e+000) (20, 1.63862289700464560000e-002) (21, -1.54969404264339180000e+000) (22, -6.73677709605768000000e+000) (23, 4.37940992758080410000e-001) (24, -1.39623539593675040000e+000) (25, -3.30482675833971400000e-001) (26, -3.88986256845938180000e-001) (27, -2.18245229259388130000e-001) (28, 4.45879049993712510000e+000) (29, -1.95143639881321190000e-001) (30, -8.04376680358142170000e-002) (31, -2.86139751297356690000e+000) (32, -5.03917340564063920000e+000) (33, 4.83092196372818690000e-001) (0, -2.61981451024443280000e+000) (1, -8.81809261652212460000e-002) (2, 5.10689549594965800000e+000) (3, 1.26275505945116880000e-001) (4, 4.23043869877536240000e+000) (5, 8.81701235386706670000e-002) (6, 1.38181197634167890000e+001) (7, 7.67347580742946180000e-001) (8, 1.00059872727948380000e+000) (9, -2.31134836497147220000e-001) (10, 1.36101695910697510000e-001) (11, 2.94636221729141360000e-002) (12, 4.28504080947579690000e-001) (13, -1.16955056838268860000e-001) (14, 4.77026557361551970000e-001) (15, 1.88399147691072110000e-001) (16, 2.80523995254534510000e+000) (17, -5.57711656078242140000e-001) (18, -5.90645495112545940000e-001) (19, 8.22613828975135570000e-001) (20, 5.46579223717811090000e-001) (21, -2.02077532973998280000e-001) (22, -4.75197264482603820000e+000) (23, 3.38236933494707740000e-001) (24, -9.06320278950429440000e-001) (25, -2.74840412234264480000e-001) (26, -4.21327743991670010000e+000) (27, 6.37761634405903500000e-001) (28, -2.57514532461236860000e+000) (29, -1.24523299108671700000e+000) (30, 4.51296602992272080000e+000) (31, 4.81071164718308240000e-001) (32, -3.23395730227772970000e+000) (33, -2.84309282307645410000e-001) (0, -6.79075919544250620000e-001) (1, 3.14222840268136570000e-001) (2, -2.24079531113231840000e+000) (3, -2.93936850010400990000e-001) (4, -8.49397124642711000000e-001) (5, -1.12822649838687380000e-001) (6, 1.80694739942418000000e+000) (7, -5.27902862180203510000e-002) (8, 1.46859612653663190000e+000) (9, 6.44812099939809590000e-001) (10, 8.09864592387440130000e-001) (11, 6.92207957688302570000e-001) (12, -9.13489192015271350000e-001) (13, -9.54933890084238950000e-003) (14, 1.01166733145018150000e-001) (15, 1.43877964317133400000e-001) (16, -1.79389534959840640000e-001) (17, 6.60584659187150480000e-001) (18, 5.29240621894810830000e+000) (19, 6.04187431213726870000e-001) (20, 3.27320432828630380000e-001) (21, 2.50136654440682670000e-001) (22, 2.79751627034076740000e+000) (23, 2.68604566163010180000e-002) (24, 2.88108955287003890000e+000) (25, -3.78809674280739180000e-002) (26, -5.96698727232118030000e-001) (27, 2.73118766912754720000e-001) (28, 5.13310533237904210000e-001) (29, -8.28021076481573330000e-002) (30, 3.63107789661322730000e-001) (31, 9.01455693582935490000e-003) (32, -5.54187179399416150000e+000) (33, 1.10606390211097330000e+000) (0, -1.76790951081822500000e+000) (1, 8.52807876721125710000e-002) (2, 1.38492822013319810000e+001) (3, -7.99818446249939030000e-001) (4, -2.76142932464252870000e-001) (5, -6.05850525131884420000e-001) (6, 1.57393441003878730000e+000) (7, 5.54291449454388570000e-001) (8, 2.16153077822992310000e-001) (9, -4.19604674551773970000e-002) (10, 6.08223954753226920000e-002) (11, 7.36498532280388530000e-002) (12, -1.46282872141200200000e-001) (13, 1.43920782134367360000e-002) (14, -1.85712698540804270000e-001) (15, -6.41131940351675310000e-001) (16, -2.23718742181627130000e-001) (17, 5.10330783950740390000e-001) (18, 3.64687966309337030000e-001) (19, 7.61112822849382420000e-002) (20, 1.62185455872118080000e+000) (21, 8.27250688235539880000e-002) (22, 4.48011777179762260000e-001) (23, 2.35885016349769410000e-001) (24, 1.05881296358424890000e-001) (25, -1.91585120687919440000e-001) (26, 4.12870727279242010000e-001) (27, -1.47125138108458730000e-001) (28, 8.32269207259880070000e-001) (29, -8.13062025349953420000e-001) (30, 1.73196250026410210000e+000) (31, 1.04123720522291620000e+000) (32, 4.85250646113403320000e+000) (33, -1.86001855156553100000e-001) (0, 5.56850157002211970000e-001) (1, -8.19166883270252000000e-001) (2, 7.78420594834298370000e-001) (3, 3.10006805115258640000e+000) (4, 3.14071277543079570000e+000) (5, 8.73791380299098750000e-001) (6, 5.34642107738761660000e+000) (7, 5.50276552352200080000e-001) (8, 3.45359607538025100000e+000) (9, 6.40211507679408380000e-001) (10, 4.06822599880903460000e+000) (11, 6.48676661301423980000e-001) (12, 6.86139473749222130000e-001) (13, -7.14670565714708660000e-001) (14, -8.75331434772257500000e-001) (15, -8.37724458130336690000e-002) (16, 2.60145648760149070000e-002) (17, 1.20655971744892290000e+000) (18, 3.66288068922691500000e-001) (19, -3.93752947401833800000e+000) (20, 8.42993208871902210000e-001) (21, -5.01232427337253840000e-002) (22, -6.72032071425574080000e+000) (23, 6.01674628561831070000e-001) (24, -9.86964667578678400000e-001) (25, -2.99387857292462530000e-002) (26, 7.57032440351277920000e-001) (27, 2.20703019794008840000e+000) (28, 2.31469500348112160000e+000) (29, 4.39608623598386410000e-002) (30, -7.94995081181003460000e+000) (31, -2.48239629894866120000e-002) (32, -4.36013357629553790000e+001) (33, 5.90905070564748170000e-001) (0, 2.27227172413840290000e+000) (1, 6.97399366216036150000e-001) (2, 5.41009850788810540000e+000) (3, 1.34556000509272860000e+000) (4, 7.56411575282321550000e+000) (5, -1.03636136172356030000e+000) (6, 2.43220050473921970000e+000) (7, 5.56906149218996620000e-001) (8, 3.27098357361080230000e-001) (9, 1.81317779159092500000e-001) (10, 2.60677317542850010000e-001) (11, -7.21497518437709600000e-001) (12, -3.22251939396789440000e+000) (13, 9.32666149174458780000e-001) (14, 4.14629083112069590000e-001) (15, 3.17842071120344350000e-001) (16, 6.90802908699701490000e+000) (17, 7.13846134485755400000e-001) (18, 8.90018900563634000000e-002) (19, -4.83357114365471740000e-001) (20, 2.45747845309152810000e-001) (21, -6.28636158083718090000e-001) (22, -9.15319645260404440000e+000) (23, 8.29010652547323840000e-002) (24, -1.01690676698201690000e+000) (25, -4.25049028397174290000e-001) (26, -2.78541775525456170000e-001) (27, -3.55434634987868430000e-001) (28, 8.18712413178123600000e-001) (29, -5.37999686059609240000e-001) (30, -1.07815990841743510000e+000) (31, 2.06520902771842710000e-001) (32, -2.30868128630839530000e+001) (33, 1.36531078946503540000e-001) (0, 4.39275639771394070000e+001) (1, 2.52052417638339910000e-001) (2, 7.39470653450906790000e-001) (3, -1.98301833001407250000e-001) (4, -1.16232073173232650000e+001) (5, -1.45712412895997410000e+000) (6, -2.31879443133808440000e+000) (7, -5.93343683904867470000e-001) (8, 2.49986504783863550000e+000) (9, -5.05621405463613890000e-001) (10, -9.34984228123673540000e-001) (11, -1.19666477403955820000e+000) (12, 5.37136890898086470000e-001) (13, 6.49638123718913160000e-001) (14, -8.07245922441244820000e-002) (15, -6.26682085633387230000e-001) (16, 5.73283010040255720000e-001) (17, 7.13621588965390850000e-001) (18, -1.24504513685447550000e+001) (19, 5.25005889216603070000e-001) (20, -6.98029404546616480000e+000) (21, 3.54943166115375240000e-001) (22, 1.27636439189644550000e+001) (23, -1.47592131711831440000e-001) (24, -3.44063201307345960000e+000) (25, 4.38471117479336040000e-001) (26, 4.12851066310418700000e+000) (27, -6.92892014768302760000e-001) (28, 4.09698126919658550000e+000) (29, 3.00163463038567720000e-001) (30, -6.39175305854458920000e-001) (31, -1.26644560616693650000e+000) (32, -9.15232126843845430000e+000) (33, -1.44325196822955660000e-001) (0, -2.46479449148755100000e+000) (1, 1.71031800788242720000e+000) (2, -1.17172115530307310000e-001) (3, 5.21431878988948940000e+000) (4, 4.28830243375962810000e+000) (5, -7.01525628546657450000e-001) (6, 2.86112779460969740000e+000) (7, 1.04420172715515820000e+000) (8, 1.34803171258892930000e-001) (9, -1.55883055228054180000e-001) (10, 3.88453444549124670000e-001) (11, 2.63721097474409750000e-001) (12, -6.18677593050919960000e-001) (13, -6.75533256399899470000e-001) (14, 1.52946859968377290000e-001) (15, 2.76837126681621250000e-001) (16, -1.09733887784054880000e+001) (17, -1.00699671974658660000e+000) (18, 7.17368365876793580000e+000) (19, 5.10579501016311220000e-001) (20, 1.34589297927240500000e+000) (21, -4.92523390290130700000e-001) (22, 5.51289995908202360000e+000) (23, 5.29001095759118910000e-001) (24, 5.03254090359211560000e-002) (25, 4.52471149325060940000e-001) (26, 3.85698534964785540000e+000) (27, 1.86982474098811440000e+000) (28, -4.56366427804241500000e+000) (29, 1.35111378697551630000e+000) (30, 1.08706409107760750000e+000) (31, 4.05089009695005680000e+000) (32, 1.93388494074775540000e+001) (33, 1.88634500489324340000e-001) (0, -1.12793250327013430000e-001) (1, 3.87952618811146570000e-001) (2, 6.80728020388880750000e-002) (3, 7.44950396655378320000e-001) (4, 3.19823360765150000000e-001) (5, 2.56453400402533390000e+000) (6, 1.79446293972760550000e-001) (7, 6.58545082473481090000e-001) (8, 8.85241689181476610000e-001) (9, 8.49930569372198690000e-001) (10, 8.54574350382649950000e-001) (11, 7.29591960345727930000e-001) (12, 2.12415171841107970000e-001) (13, 3.06397274632921550000e+000) (14, 2.43594850289494900000e+000) (15, 4.54066421151977480000e-001) (16, -3.51365698579809080000e-002) (17, 1.09844767346152980000e+000) (18, 3.48944295773617210000e+000) (19, 1.40556880956636790000e+000) (20, -1.76174280273059240000e+000) (21, 4.18297066904583070000e-001) (22, 2.35312380397445780000e+000) (23, 5.06383540828198590000e-001) (24, 2.13073559424441230000e-001) (25, 9.32766008482420640000e-001) (26, -1.68852994713316330000e-001) (27, 1.86553619131160690000e+000) (28, -6.78178785513125940000e-001) (29, 6.44397010987215800000e-001) (30, 4.60854558312869410000e+000) (31, 5.61211989331246720000e-001) (32, 1.31335481813060400000e+001) (33, 1.48352760127294280000e+000) (0, 2.18560021803688230000e+000) (1, 7.83802059492495930000e-001) (2, -2.24891366240733510000e+000) (3, 9.04658992882084290000e-001) (4, 1.46671969397410500000e+000) (5, -1.24962735183647890000e+000) (6, -8.60683491779829880000e+000) (7, 1.00580883843894540000e+000) (8, 6.99088873581304120000e-001) (9, -7.66020254328776680000e-002) (10, -1.23944545452719910000e+000) (11, -4.31708537809793740000e-001) (12, 5.94788184759961540000e-001) (13, 2.11836717677992420000e-001) (14, 5.18964249864620860000e-001) (15, 9.89837886054763310000e-001) (16, -1.92233794034056200000e+000) (17, -6.69597403126239280000e-001) (18, 1.22404728689280870000e+000) (19, 2.75971092578333970000e-001) (20, 3.18172619987828360000e-001) (21, 2.24048820380931720000e-002) (22, 2.45975692859217300000e+000) (23, 1.64854317780372850000e+000) (24, 1.58944499734959500000e+000) (25, 4.09919046735616630000e-001) (26, 8.45447105115904370000e-001) (27, -3.79172687001480210000e-001) (28, 1.27671834404566840000e-001) (29, 1.24128882962814320000e+000) (30, 1.32259687984510200000e+000) (31, 1.94009819821455020000e+000) (32, 6.32439584360196430000e+000) (33, 2.50857443039900430000e-001) (0, 3.03094308155861960000e+000) (1, -1.09564329254971730000e-001) (2, 4.89155157267781140000e-001) (3, 2.52083974604721930000e-001) (4, -4.35126238022540510000e+000) (5, -7.78799160153778370000e-001) (6, -2.38358555120687180000e+000) (7, -9.62787031346617890000e-002) (8, -1.02064610044064200000e+000) (9, 3.26928615294550420000e-001) (10, 9.47956709819624130000e-002) (11, -8.28735678977042390000e-002) (12, 8.23500303894070920000e-001) (13, -1.13233714953657750000e-001) (14, 1.44827105511939170000e-001) (15, -3.99136100047163060000e-002) (16, -1.12519519861512010000e+000) (17, 1.32147870467380790000e+000) (18, 4.76488647028133450000e+000) (19, 8.76061761585052720000e-002) (20, 4.06856149035151880000e-001) (21, -1.96394770620111150000e-001) (22, 9.01376274116444880000e+000) (23, -6.62711352170237910000e-001) (24, 6.99882791270174610000e-001) (25, 1.50655429991843170000e-001) (26, 1.18194041263648320000e+001) (27, 1.39599915698004230000e-001) (28, -1.21417590372352160000e+000) (29, -8.90366926707041650000e-001) (30, -2.67291928318209360000e-001) (31, -8.33164551503150160000e-001) (32, 1.51545779914379430000e+000) (33, -1.72470553228062430000e-001) (0, 1.46593000678182880000e+000) (1, 7.59933582469761500000e-001) (2, 8.12152799104206350000e-001) (3, 1.18405267005991470000e-001) (4, -6.95165355901100400000e-001) (5, 1.12023291493069530000e+000) (6, 4.10759231674911570000e-001) (7, -9.11837171610843660000e-001) (8, 6.48489942020956670000e-001) (9, 5.99123104068866930000e-001) (10, 1.59491038679073790000e+001) (11, 1.22366460470313900000e-001) (12, 3.17505896678488810000e+000) (13, 1.13741818001708660000e+000) (14, -9.22488748982980170000e-001) (15, -1.64200353314055110000e-001) (16, 9.47065257337326650000e+000) (17, 2.83348358822317900000e-001) (18, -1.57486278787611840000e+001) (19, 8.42784772800985740000e-001) (20, -3.41940081566463980000e+000) (21, -1.40926299868043890000e-001) (22, -3.32686907764376800000e+001) (23, -1.83209279635436720000e+000) (24, -6.55499598033721130000e+000) (25, -1.14205587215966390000e-001) (26, 1.16163820617709510000e+001) (27, 7.37644400340525670000e-002) (28, 3.25300829981405690000e-001) (29, 1.19477720957532020000e+000) (30, -5.78547602217673870000e-001) (31, -5.09753941168583840000e-002) (32, 4.77688743907855160000e+000) (33, 3.17009245053795130000e-001) (34, 3.12260252541556430000e-001) (35, -3.64093770611737530000e-001) (36, -2.39184696093424100000e-001) (37, 7.50458513747611970000e-001) (38, -9.22965759502390790000e-001) (39, -1.11425045547125600000e+000) (40, -1.61394046239731440000e+000) (41, -3.59225324713849100000e-001) (42, 6.36931390060870290000e-001) (43, 5.84883612722769790000e-001) (44, 1.30523724374910440000e+000) (45, 6.34174855743498860000e-001) (46, -1.93726875065780320000e+000) (47, 5.02647293033230750000e-001) (34, -1.97452129729421920000e+000) (35, -9.78312204760638290000e-001) (36, -1.24851993755312480000e+000) (37, 8.69732800006382980000e-001) (38, -4.54625182855216030000e-001) (39, 7.92128515952451370000e-001) (40, -2.43798544406086530000e-001) (41, 1.97085128019498200000e+000) (42, -1.46718957279976860000e+000) (43, 1.04167689717121230000e+000) (44, 1.37675091496809980000e-001) (45, 5.77648314105124070000e-001) (46, 1.80318282725390970000e+000) (47, 1.07546363056809930000e+000) (34, 1.91986461085057460000e+000) (35, 1.61234382525541480000e+000) (36, 2.62784046034456780000e+000) (37, 1.98678687636686340000e-001) (38, 1.50918802532949050000e+000) (39, 7.13467411957486970000e-001) (40, 1.41164882587555820000e+000) (41, -7.31268062434344060000e-001) (42, 1.30294012102811970000e+000) (43, 4.57072645337038170000e-001) (44, -1.36903302705453260000e+000) (45, -1.60058873848633180000e+000) (46, 4.26834464118297730000e-001) (47, 7.01219315441734100000e-001) 
