FANN_FLO_2.1
num_layers=3
learning_rate=0.700000
connection_rate=1.000000
network_type=0
learning_momentum=0.000000
training_algorithm=2
train_error_function=1
train_stop_function=0
cascade_output_change_fraction=0.010000
quickprop_decay=-0.000100
quickprop_mu=1.750000
rprop_increase_factor=1.200000
rprop_decrease_factor=0.500000
rprop_delta_min=0.000000
rprop_delta_max=50.000000
rprop_delta_zero=0.100000
cascade_output_stagnation_epochs=12
cascade_candidate_change_fraction=0.010000
cascade_candidate_stagnation_epochs=12
cascade_max_out_epochs=150
cascade_max_cand_epochs=150
cascade_num_candidate_groups=2
bit_fail_limit=3.49999999999999980000e-001
cascade_candidate_limit=1.00000000000000000000e+003
cascade_weight_multiplier=4.00000000000000020000e-001
cascade_activation_functions_count=10
cascade_activation_functions=3 5 7 8 10 11 14 15 16 17 
cascade_activation_steepnesses_count=4
cascade_activation_steepnesses=2.50000000000000000000e-001 5.00000000000000000000e-001 7.50000000000000000000e-001 1.00000000000000000000e+000 
layer_sizes=34 20 4 
scale_included=0
neurons (num_inputs, activation_function, activation_steepness)=(0, 0, 0.00000000000000000000e+000) (0, 0, 0.00000000000000000000e+000) (0, 0, 0.00000000000000000000e+000) (0, 0, 0.00000000000000000000e+000) (0, 0, 0.00000000000000000000e+000) (0, 0, 0.00000000000000000000e+000) (0, 0, 0.00000000000000000000e+000) (0, 0, 0.00000000000000000000e+000) (0, 0, 0.00000000000000000000e+000) (0, 0, 0.00000000000000000000e+000) (0, 0, 0.00000000000000000000e+000) (0, 0, 0.00000000000000000000e+000) (0, 0, 0.00000000000000000000e+000) (0, 0, 0.00000000000000000000e+000) (0, 0, 0.00000000000000000000e+000) (0, 0, 0.00000000000000000000e+000) (0, 0, 0.00000000000000000000e+000) (0, 0, 0.00000000000000000000e+000) (0, 0, 0.00000000000000000000e+000) (0, 0, 0.00000000000000000000e+000) (0, 0, 0.00000000000000000000e+000) (0, 0, 0.00000000000000000000e+000) (0, 0, 0.00000000000000000000e+000) (0, 0, 0.00000000000000000000e+000) (0, 0, 0.00000000000000000000e+000) (0, 0, 0.00000000000000000000e+000) (0, 0, 0.00000000000000000000e+000) (0, 0, 0.00000000000000000000e+000) (0, 0, 0.00000000000000000000e+000) (0, 0, 0.00000000000000000000e+000) (0, 0, 0.00000000000000000000e+000) (0, 0, 0.00000000000000000000e+000) (0, 0, 0.00000000000000000000e+000) (0, 0, 0.00000000000000000000e+000) (34, 5, 5.00000000000000000000e-001) (34, 5, 5.00000000000000000000e-001) (34, 5, 5.00000000000000000000e-001) (34, 5, 5.00000000000000000000e-001) (34, 5, 5.00000000000000000000e-001) (34, 5, 5.00000000000000000000e-001) (34, 5, 5.00000000000000000000e-001) (34, 5, 5.00000000000000000000e-001) (34, 5, 5.00000000000000000000e-001) (34, 5, 5.00000000000000000000e-001) (34, 5, 5.00000000000000000000e-001) (34, 5, 5.00000000000000000000e-001) (34, 5, 5.00000000000000000000e-001) (34, 5, 5.00000000000000000000e-001) (34, 5, 5.00000000000000000000e-001) (34, 5, 5.00000000000000000000e-001) (34, 5, 5.00000000000000000000e-001) (34, 5, 5.00000000000000000000e-001) (34, 5, 5.00000000000000000000e-001) (0, 5, 0.00000000000000000000e+000) (20, 5, 5.00000000000000000000e-001) (20, 5, 5.00000000000000000000e-001) (20, 5, 5.00000000000000000000e-001) (0, 5, 0.00000000000000000000e+000) 
connections (connected_to_neuron, weight)=(0, -1.72455823179809520000e+000) (1, -1.07185746282309450000e-001) (2, 7.66437272767500400000e-001) (3, 5.17174113993828400000e-001) (4, 5.18145171522563670000e-001) (5, 1.15464434643872390000e-001) (6, 2.84732024953362690000e-001) (7, -3.38467206502812480000e-001) (8, 1.52612008277236890000e+000) (9, 1.67065292451159700000e-001) (10, -1.21276693426887580000e+000) (11, 9.99909082872073920000e-001) (12, 5.15894538228726240000e+000) (13, 5.89545474785238760000e-002) (14, 5.49535988252493170000e-001) (15, -3.36147275861862220000e-001) (16, -2.49948609081098460000e+000) (17, -2.16972830493991600000e-001) (18, 1.20887121434677210000e+000) (19, 2.36010830176409970000e-001) (20, -1.29090965158476290000e+000) (21, 8.64424331525952270000e-002) (22, -7.54864587664958340000e-001) (23, 6.70940089606089640000e-002) (24, 6.78462724695542920000e-001) (25, 2.21325656065190000000e-001) (26, 1.69819013296261790000e+000) (27, -2.35458193728426050000e-001) (28, -2.62286927341054520000e-001) (29, -1.39468254001553830000e-001) (30, 5.66925465025541890000e+000) (31, -1.30635945766416880000e-001) (32, 1.10814340430526460000e+001) (33, 2.37284824291279060000e-001) (0, -2.54289122538751930000e+000) (1, 4.65907322268613870000e-001) (2, 9.85935964961897620000e-001) (3, -2.96389167541935890000e-001) (4, 5.18308824839823550000e-001) (5, -2.56863773838576890000e-001) (6, 6.40223000336010760000e-001) (7, -1.34818374637875570000e-003) (8, 2.55949710936890270000e+000) (9, 9.82634473476130980000e-003) (10, 1.14735733047767940000e+000) (11, -3.43415384127097930000e-001) (12, 6.99393493962018640000e+000) (13, 4.16358360216067470000e-002) (14, 6.94763116003063890000e+000) (15, -2.20706818710514810000e-001) (16, 8.96891745433316730000e-001) (17, -1.78365930678448080000e-001) (18, -1.25178325171955610000e+001) (19, 2.86589890388300070000e-001) (20, -5.96897358044939440000e+000) (21, -1.27473545201240770000e+000) (22, -3.76172497438064380000e+000) (23, -4.57324561064627430000e-001) (24, -2.73740083416719960000e-001) (25, 9.16296801818178960000e-001) (26, -2.13985662672789180000e+000) (27, 4.05517359147305860000e-001) (28, 7.37059158299201390000e+000) (29, 2.37918179930687200000e-001) (30, 7.09796821954965030000e+000) (31, -9.29672107061629620000e-001) (32, -2.75972372166264460000e+001) (33, 6.16248845736406590000e-001) (0, 2.97227354222809880000e+000) (1, -9.63270702421686330000e-002) (2, 2.81029794548201710000e-001) (3, 4.29817416450138660000e-001) (4, -1.40509180288778610000e+001) (5, 8.04930990611999460000e-001) (6, 6.36284518903571850000e-001) (7, 1.10963191673112330000e-001) (8, 1.38424009095451070000e+000) (9, 7.91557657067326390000e-001) (10, -2.53974704913966560000e-001) (11, 1.60732148969248560000e-001) (12, 9.82277224626372350000e-001) (13, -6.28558292519421520000e-001) (14, 1.34699968251417190000e+000) (15, 8.45522051018872210000e+000) (16, 1.41096750313685050000e+000) (17, -8.83121101976011570000e-001) (18, -2.06739594487038310000e+000) (19, 1.34012610981049050000e-001) (20, 1.09913109995197430000e+000) (21, 5.96813904479225550000e-001) (22, 1.29820645413958590000e+001) (23, 9.71813656529527670000e-001) (24, 6.74820128206103930000e-001) (25, 3.29995833570803640000e-002) (26, 2.62029843128678360000e+000) (27, -4.99770271236864900000e-001) (28, -2.12495516911400010000e-001) (29, 9.80338060777994460000e-001) (30, 2.68230706562782300000e+000) (31, -3.41011831876039510000e-001) (32, 8.25802736540428020000e-001) (33, 5.80095852096384920000e-001) (0, 8.48037326209580170000e-001) (1, 3.15166432471847610000e-001) (2, 3.69339244082125540000e-001) (3, 8.43551368345791700000e-001) (4, 1.97058114113524320000e+000) (5, 8.42569114036616500000e-001) (6, 2.18728926663681290000e-001) (7, 1.16060127012964130000e+000) (8, -6.94771802062943530000e-001) (9, 1.36640206338352140000e+000) (10, -4.55534180442244980000e+000) (11, 6.04828097090266530000e-001) (12, 6.43692839560158210000e-001) (13, 1.98315084858112440000e+000) (14, 2.85103271904866950000e+000) (15, 2.51548658964756590000e-001) (16, -9.50162257224800520000e-001) (17, 7.51248911150789320000e-002) (18, 7.09122813189830950000e-001) (19, 1.13457984805386110000e+000) (20, 1.51842504122122380000e-002) (21, 7.46602035817818700000e-001) (22, -3.46060022068055020000e+000) (23, 6.31618352872531870000e-001) (24, -1.22401419949644210000e-001) (25, 4.70077506706927490000e-001) (26, 7.45150957631243750000e+000) (27, 9.84602879590855460000e-001) (28, 9.16741548900976260000e-001) (29, 1.36191180901027640000e+000) (30, 3.37086604633484220000e-001) (31, 2.98313257711514900000e-001) (32, 8.26725829680832010000e+000) (33, 3.65553855559236420000e-001) (0, -2.63769857981722420000e+001) (1, -1.00293778681410890000e-002) (2, 4.83654214685478480000e-001) (3, 1.15705338146308700000e+000) (4, 5.05601902535677890000e+000) (5, -3.24574383708545800000e-001) (6, 2.29929369676403270000e+000) (7, 5.36830630877595860000e-001) (8, -7.41694894617797810000e-001) (9, -9.06663778795084200000e-001) (10, 3.67095098125304280000e-001) (11, 1.65964776615432320000e+000) (12, -1.67487511596438530000e+000) (13, 1.16688892808513490000e+000) (14, 1.96729348448182150000e+001) (15, 6.05897490792721700000e-001) (16, 1.30502295828661400000e+000) (17, 2.13882805407015740000e+000) (18, -1.10833759334261030000e-001) (19, -1.72464815586623900000e+000) (20, 8.60393293500515520000e-001) (21, -3.46306269542888840000e-001) (22, -2.36019038950963240000e+001) (23, 3.80395335314970000000e-002) (24, -3.62164405446420990000e+000) (25, -1.97190905793175500000e-001) (26, -5.43926927992931740000e-001) (27, 6.93450555902394020000e-001) (28, 6.36531220454550620000e+000) (29, 4.78357178919697760000e-001) (30, -6.16789302473647800000e+000) (31, -1.21960753178408380000e+000) (32, -1.40021478606101630000e+001) (33, 4.68708428118016380000e-001) (0, 3.37975206659065240000e+000) (1, 5.50064215861810530000e-001) (2, -6.42477277851023350000e-002) (3, 1.88586180809780890000e+000) (4, 3.25493146912827950000e+001) (5, 1.69598415820020050000e-002) (6, 4.26679132439928210000e+000) (7, 5.96616105313098720000e-001) (8, 1.49560746616081100000e+000) (9, 5.76776860999384410000e-001) (10, 7.13249306299071790000e-001) (11, -5.72100664512250540000e-002) (12, 1.24386162639920310000e+000) (13, 6.31496889569630740000e-002) (14, 4.16503728025538200000e-001) (15, 4.96210660634159860000e-001) (16, 2.06940273826615420000e+000) (17, 4.66245827793769720000e-001) (18, 5.31843169027595410000e+000) (19, -5.47590071225791730000e-001) (20, -1.14095678717674880000e-001) (21, -8.44978847253608640000e-002) (22, -8.21593536798851250000e+000) (23, -4.41273209773202610000e-001) (24, -1.94013382786045960000e-001) (25, -4.60610596658221290000e-001) (26, -1.42519320260227960000e+000) (27, -1.41246576570623480000e-001) (28, 7.55786606565190140000e+000) (29, -9.95432342801186860000e-001) (30, 3.28290026740736260000e-001) (31, -2.82305896275818340000e-002) (32, -1.60839588440600100000e+001) (33, 5.73434400914624940000e-001) (0, 9.45637339466246950000e-001) (1, 2.55449957279568900000e+000) (2, 1.18820191588436130000e+000) (3, -3.87331041728867120000e-001) (4, 4.96399891421655750000e-001) (5, 3.96130386784915700000e+000) (6, 7.64726503020014550000e-001) (7, 7.35326310605964430000e-001) (8, 3.96180663103303350000e+000) (9, 1.63142015029392540000e+000) (10, 1.84895728151692280000e-001) (11, -3.54202656802828140000e-001) (12, 2.00925571541821180000e+000) (13, 6.63371571920209350000e-001) (14, -1.29660235439199580000e+000) (15, 6.02224778181010830000e-001) (16, 3.76770889218594150000e+001) (17, 7.89805262445982590000e-001) (18, 6.68397663779374800000e+000) (19, -6.47643301161211720000e-001) (20, 5.64334296819980370000e-001) (21, 2.66924998525069790000e-001) (22, -1.08883935275141840000e+000) (23, 3.37921697742510660000e+000) (24, 1.04057346231759440000e+000) (25, 3.68403300152499450000e-001) (26, -1.50793233091473200000e+001) (27, -3.85794205752748170000e-002) (28, -3.03558168088498670000e+000) (29, 4.41658209577938280000e-001) (30, -2.17285367377486650000e+000) (31, 1.04286772068668960000e+000) (32, 3.90266947421095360000e-001) (33, 4.45041496636510380000e-001) (0, -1.90905585820452470000e+001) (1, -4.38037411807883080000e-001) (2, -1.05542348360324460000e+001) (3, 1.84849842588185110000e+000) (4, 1.01449007962907900000e+000) (5, 4.71780954790740060000e-001) (6, 1.36103042327492770000e+001) (7, 8.45108798236987590000e-001) (8, 1.46436357065748940000e+001) (9, 1.01263034872400310000e-001) (10, 1.28130560674491320000e+001) (11, -1.38757959910696620000e+000) (12, 3.16619782755376320000e+000) (13, -1.92469359160552220000e-001) (14, -4.58887735812778170000e+000) (15, -1.78922903950016420000e-001) (16, -1.76274088214746330000e+000) (17, -2.20945105360597080000e+000) (18, 1.11569924259968990000e+001) (19, 4.20280576409743030000e-001) (20, 5.07511182028392940000e+000) (21, -5.27909570516460700000e-001) (22, 1.60969697395631250000e+001) (23, 7.76835281968910160000e-001) (24, -3.02048123337203740000e+000) (25, -4.91740036681803170000e-002) (26, 7.74288703341915910000e-001) (27, 5.81709337424204610000e-001) (28, 5.19998311301092200000e+000) (29, 8.99952755145431940000e-001) (30, 2.36089320509087260000e+000) (31, -3.09001388544337170000e-001) (32, 2.67644234921323370000e+001) (33, -1.04466144907312000000e-001) (0, -1.47274209946306000000e+000) (1, -2.28606495449386440000e-001) (2, 9.90353597591355770000e-001) (3, -8.50964919048096460000e-001) (4, -9.25344684748911850000e-001) (5, 2.51167949442807460000e-001) (6, 9.79601683621685910000e+000) (7, -1.03372936433867620000e-001) (8, 3.44157060551273420000e+000) (9, -3.51575491050313200000e-002) (10, 3.55556755282403850000e+000) (11, -1.40727640589242230000e-001) (12, -4.27997143714415000000e+000) (13, -5.83821272449866760000e-002) (14, 2.01594847353601030000e+000) (15, -1.79830695275042700000e+000) (16, 4.17980005838232230000e+000) (17, 5.36881137597587040000e-001) (18, -2.85821351905951430000e-001) (19, 4.21332604184629310000e-001) (20, 8.63876549477412760000e-003) (21, -3.59829233722998410000e-001) (22, 1.46236028582811750000e+000) (23, -1.58905718582655650000e-001) (24, -1.11420372156192630000e+000) (25, -2.66450011016344190000e-001) (26, 1.82014348495030430000e-001) (27, -3.38260363808269400000e-001) (28, 1.69114694451370730000e-001) (29, 1.37721239319166400000e-002) (30, 7.34257038938347370000e-002) (31, -1.22683061143909030000e+000) (32, 7.98525929525781650000e+000) (33, 2.76867829878130190000e-001) (0, 1.44421236885237230000e+000) (1, 1.70354976667792530000e-002) (2, 1.33883757027707570000e+001) (3, 6.50854066024774580000e-001) (4, -5.44689529206124410000e+000) (5, -2.87117572114716060000e-001) (6, 1.31149195912021450000e+000) (7, 9.01777093614986450000e-002) (8, -2.28946361211946840000e-001) (9, 3.07178407074828350000e-001) (10, 7.87274097575874190000e-001) (11, 2.12890485475449480000e-001) (12, 1.18169333712665030000e+000) (13, -5.27855862379652100000e-001) (14, -9.09227900710375510000e-001) (15, -4.29849778458364810000e-001) (16, -9.50651167485206170000e-001) (17, -1.76665608936114760000e+000) (18, -1.55617168755889530000e+000) (19, 4.63457941310540300000e-001) (20, -1.02705872452738390000e+000) (21, -1.14934459969689850000e+000) (22, 4.33167931935079130000e-001) (23, -3.04293180131107790000e-001) (24, 1.78018498421140100000e+000) (25, 1.44344392633902590000e-001) (26, 1.24024030874071770000e+000) (27, -2.61476626365208460000e-001) (28, 1.02199303040989940000e+000) (29, -2.38318837528367110000e-001) (30, 4.86980305473586130000e-002) (31, 1.44827631944260050000e+000) (32, -1.59087761365934100000e+001) (33, -1.66531357718945510000e-001) (0, 2.21292905425019390000e-001) (1, -4.09150223934854560000e-001) (2, 1.11106004176839940000e+001) (3, -3.80957104728514780000e-002) (4, 2.29452469324449120000e+000) (5, -1.12628217099574020000e+000) (6, 1.04678367164271320000e+000) (7, -7.38508995914255730000e-002) (8, 2.53661234787949360000e+001) (9, 8.30013444890585150000e-001) (10, 4.45881445576755910000e+000) (11, -9.35892300757468990000e-001) (12, 3.94981961684848170000e-001) (13, 1.04604625058225690000e-001) (14, -6.46239264695920970000e-001) (15, 7.10819389864072120000e-001) (16, 3.27405832133287470000e+000) (17, -1.06127033708390770000e-001) (18, -8.14887991771133890000e+000) (19, 1.07550502383399320000e+000) (20, 1.79998530302428390000e+001) (21, -1.85847524974812990000e-001) (22, 6.80248918107777100000e+000) (23, 5.23921270300697570000e-001) (24, -5.31264022190652390000e-001) (25, -9.67673701096083640000e-001) (26, -2.16627952556028710000e+000) (27, 8.56342309555345070000e-001) (28, -2.85046869611423950000e-001) (29, 7.50759493054044880000e-001) (30, 3.51440640546659110000e+001) (31, 4.72029275421181980000e+000) (32, -1.73670601117915920000e+000) (33, 3.70995952786149150000e-002) (0, -1.12706353909448790000e+000) (1, -4.65077699226798760000e-001) (2, 1.05349214450307360000e+000) (3, -1.27581688826741860000e+000) (4, -2.02596403763732770000e+001) (5, 8.58856855678163060000e-001) (6, 1.01564877822113310000e-001) (7, 2.17621488941072360000e+000) (8, 2.03087885941009460000e+001) (9, 1.45882222695541900000e+000) (10, 5.38728718446182420000e-001) (11, 4.03807681156407750000e-001) (12, -3.45534626625825770000e+000) (13, 2.99601654049952430000e+000) (14, 4.16881126633841430000e+000) (15, 3.90580408513711510000e-001) (16, 4.24892622811113950000e-001) (17, 1.08703349795038070000e-001) (18, -1.41821196086165150000e+000) (19, 9.08117707267040330000e-001) (20, 7.22541035321324350000e-002) (21, 2.51397076539139010000e-001) (22, 7.05570630314449330000e-001) (23, 4.45441012151296110000e-001) (24, 6.59181277353362020000e-002) (25, 3.36467678322282150000e+000) (26, 6.31494313823372950000e-001) (27, 2.94847297311847710000e+000) (28, -5.55386701438555440000e+000) (29, -1.92017453667233220000e-001) (30, 6.39164541123694190000e+000) (31, 1.12277271942804440000e+001) (32, -8.61081100986113230000e+000) (33, 5.05341803989865610000e-001) (0, 5.76765418469178280000e-001) (1, -4.52624531353031160000e-001) (2, 2.38485357344954800000e+000) (3, -7.54916758690481470000e-001) (4, 5.26387845378542090000e+000) (5, -4.59542181326430430000e-001) (6, 5.84957089661723160000e+001) (7, 8.56981649400009980000e-001) (8, 8.81023162058634140000e+000) (9, 6.78649694104269230000e-001) (10, -8.12101174329816770000e-002) (11, -6.31847080707814840000e-002) (12, 4.58797059138804590000e-001) (13, 2.51656147190889190000e-001) (14, 2.92312984867511280000e-001) (15, -1.74194466336088700000e-001) (16, 2.51621576586682670000e+000) (17, -6.13931408786200090000e-002) (18, 2.04196558853000850000e+000) (19, 2.82440001439060280000e-001) (20, 2.37501464797228560000e-001) (21, -1.11242325044377280000e-001) (22, 1.04994989334866840000e-001) (23, -1.38422138187976400000e+000) (24, -4.09280441835034470000e+000) (25, -3.52799920625090360000e-001) (26, 1.17707350960882870000e+000) (27, 7.75312266192278000000e-001) (28, 7.89316614226271420000e-001) (29, -1.23214421768486520000e+000) (30, -1.80502698664724750000e+000) (31, -6.18410708241453060000e-001) (32, -3.92546416617536590000e+001) (33, 2.20140587182815040000e-001) (0, 3.15879068176715940000e+000) (1, 3.64884352865831930000e-001) (2, 8.55596974080044870000e-001) (3, 1.64378096684913370000e+000) (4, 1.47279386206942680000e+001) (5, -7.19412235769326560000e-001) (6, 1.95881577488677920000e+000) (7, 6.29094271973387850000e-001) (8, 2.63940015271139250000e-001) (9, -1.54672431685157470000e-002) (10, 1.25703023299517660000e+000) (11, 3.85870994094655310000e-002) (12, -1.50138140109729030000e-001) (13, -1.88919968667751810000e-002) (14, 1.06341395038751010000e+001) (15, 2.51565036671429430000e-001) (16, -8.63007534026631660000e-001) (17, 2.04847853526278520000e-002) (18, 1.29566300503055110000e+001) (19, -1.91595109283899360000e+000) (20, -2.01869950712153350000e+001) (21, -8.72275414478866920000e-001) (22, -2.38803719876677330000e+001) (23, 9.59566263530312740000e-002) (24, -3.70085914084139620000e+000) (25, -2.24336439192491880000e-001) (26, 2.56780061497257240000e-001) (27, 2.10168036776964660000e-001) (28, -3.04488509225409350000e+000) (29, 3.07624007915388740000e-001) (30, -3.32319850808822450000e+000) (31, 2.32003447891495660000e-001) (32, -4.79291777342146470000e+000) (33, 6.74187122637940670000e-001) (0, 1.97934132577287380000e+000) (1, -2.13298224104826350000e-001) (2, 7.00216561281104320000e-001) (3, -4.67132380199567650000e-001) (4, 1.50335100750343810000e-001) (5, 3.19890227256501130000e-001) (6, 7.24952957338598770000e-001) (7, 1.17290221122943000000e-001) (8, -2.03797976594045670000e-002) (9, 6.79526097272829200000e-001) (10, 6.24033932017071140000e-001) (11, -1.24391188333519790000e-001) (12, 5.32528349838268240000e-001) (13, -3.20677223908624230000e+000) (14, -3.57155386172029930000e+000) (15, 1.20932605098139350000e+000) (16, -2.11684794753608710000e-001) (17, 4.50834878815225550000e-001) (18, 9.48395065147681040000e+000) (19, 7.12907558758128780000e-002) (20, 3.61100312571465740000e+001) (21, 3.03843135686217950000e-002) (22, 9.88778618564255400000e+000) (23, 1.49257861483650420000e-001) (24, 1.49741180713766190000e+000) (25, 5.23690162340693650000e-001) (26, 2.51971714319535870000e+000) (27, 7.43625859169810500000e-001) (28, 1.48707681048443500000e+000) (29, -2.26185967063984810000e-001) (30, -3.31192482348590690000e+000) (31, -8.19469961030974580000e-001) (32, -2.96102020764609040000e+001) (33, 2.64354538995923760000e-001) (0, -1.11082084067849340000e+000) (1, 8.75522328434136130000e-001) (2, 6.82536546303945000000e-001) (3, -5.92342053470750750000e-001) (4, -5.53771299431241370000e-001) (5, 2.16725934047086350000e+000) (6, 9.85954029010610530000e+000) (7, -1.66381335268871780000e-001) (8, 1.22763520133660190000e+001) (9, 4.01780265605308720000e-001) (10, 1.05271917976224680000e+000) (11, 4.64977369918014360000e-001) (12, 3.35129505384981320000e-001) (13, 9.41328676759947360000e-001) (14, 1.53753418473499880000e+000) (15, 1.75797512518010480000e+000) (16, 5.69939869489233340000e+000) (17, 3.76722055470946270000e-002) (18, 1.50177956210023810000e+000) (19, -3.48767218275575830000e-001) (20, -1.17528655494687810000e+001) (21, -4.78835681327862810000e-001) (22, -3.55103918867294640000e+000) (23, -2.34819494552830630000e-001) (24, -7.00418693432957440000e+000) (25, -2.62793172073743700000e-001) (26, -3.42683647592996630000e+000) (27, 2.91943137636526790000e-001) (28, -6.34986491340954970000e-001) (29, -1.00993106941116140000e+000) (30, 5.62669603149519220000e+000) (31, 1.76342704226449310000e+000) (32, 1.85386673850317400000e+001) (33, 5.46753493420641720000e-001) (0, -1.08452660784730640000e+000) (1, 1.44849485184137360000e+000) (2, -1.68372616358186850000e+001) (3, 1.52250712521102760000e+000) (4, 1.61747282526578150000e+000) (5, -1.10517290768298750000e+000) (6, 1.93062136419730090000e+000) (7, 6.61890442541531290000e-001) (8, 8.27070522537895240000e+000) (9, -6.53044786294543990000e-001) (10, 8.32007030511164380000e+000) (11, -1.15258177665278970000e-001) (12, 3.58760004519297350000e-001) (13, 6.89693655088340460000e-001) (14, -7.98222283220624360000e+000) (15, -8.13643428216494160000e-001) (16, 9.61136952358897510000e-001) (17, -3.39997766360997820000e-001) (18, 1.68674335764330600000e+000) (19, -1.00732229208325940000e+000) (20, -4.22726615289780240000e-002) (21, -4.11186952687151130000e+000) (22, 1.48746850693182810000e+000) (23, 1.04105444733857680000e+000) (24, -3.32577360336188650000e+000) (25, 1.52448315562602400000e-002) (26, 1.43647543656026570000e+000) (27, 2.78174897630621980000e-002) (28, 4.05153324217833900000e-001) (29, -8.62798641445625570000e-001) (30, 1.04388425195447590000e+001) (31, 8.43366844178949910000e-001) (32, 5.29545116486879070000e-001) (33, -7.00133620437119350000e-001) (0, 2.30803212141073020000e+000) (1, 1.02098449480202880000e+000) (2, 2.96384986880398580000e+000) (3, 5.54915077747535230000e-001) (4, 5.94197889146394510000e+000) (5, -3.48499716791361230000e-002) (6, 1.86193517259509970000e+000) (7, 5.59249668693118430000e-001) (8, 8.29507118321198260000e+000) (9, 8.70345783942680920000e-001) (10, 1.78532332961926500000e+000) (11, 2.92909544919954250000e-002) (12, -8.02098631781327500000e+000) (13, 2.61432321687156400000e+000) (14, 3.56616462724009710000e-001) (15, 7.56607684476347080000e-001) (16, 5.10856864204127770000e+001) (17, 7.46339060467756330000e-001) (18, -3.02160159756924840000e-001) (19, 5.94296107003113860000e+000) (20, -1.26559487295383750000e+000) (21, 4.69726349342255320000e-001) (22, 3.11253579512001990000e+000) (23, 2.51294885833739930000e-001) (24, 1.88980810277598540000e+000) (25, 2.45310615405923780000e+000) (26, 1.40999649209165210000e+000) (27, 1.30260144943042370000e+000) (28, -9.87153578321069980000e-002) (29, -1.31419162189595360000e-002) (30, 1.25330447926021700000e+000) (31, 1.07605115106938040000e+000) (32, 5.57656617389015990000e+001) (33, 7.78184324270341450000e-001) (0, -3.14694840444095280000e+000) (1, 3.46396976409877160000e-001) (2, 7.45296511771369570000e-001) (3, 2.88876596380952090000e-001) (4, -2.58095089949189930000e+000) (5, 7.63375242213250700000e-001) (6, 5.44161866876576420000e-001) (7, 7.95657418381776060000e-001) (8, -8.09005953801290720000e+000) (9, 8.49117768206006480000e-001) (10, 4.96336225980774810000e-001) (11, 6.82441525605091530000e-001) (12, 3.02579376118548520000e-001) (13, 1.56084455809118670000e+000) (14, 3.53655199741765050000e+000) (15, 4.81619316124812850000e-001) (16, -8.00852722064540500000e+000) (17, 8.37233663701738350000e-001) (18, 5.96899234121275240000e+000) (19, 1.65836702349867690000e+000) (20, -1.16778633259500090000e+001) (21, 8.53830272557780880000e-001) (22, -3.63985941015194790000e+000) (23, 1.91095757133354230000e+000) (24, -6.37714565387943020000e-001) (25, 1.49574827308138180000e+000) (26, 7.90680067709913100000e+000) (27, 9.03468016684757070000e-001) (28, 3.85883830593575580000e+000) (29, 1.57466735556278590000e+000) (30, 5.91286235737455890000e+000) (31, 2.70385170913687410000e-001) (32, 1.26276679979434410000e+001) (33, 4.91719924069286720000e-001) (34, 1.78440175765468200000e-001) (35, -1.65009004310023720000e+000) (36, -1.20331928972934240000e-001) (37, 1.37725945848316970000e+000) (38, -1.77954866988989830000e+000) (39, -1.48814547203655150000e+000) (40, -4.21465049812535960000e-001) (41, 5.45984579831955590000e-001) (42, -1.23247319582253300000e+000) (43, -1.02290039759910180000e+000) (44, -2.42788891244081680000e-001) (45, -7.66346035448832870000e-002) (46, -8.74011659043011920000e-002) (47, -1.23600371375260170000e+000) (48, 1.39702125041914440000e+000) (49, -7.37599478935533460000e-001) (50, 1.72735448685797330000e+000) (51, -6.31930177706403810000e-001) (52, 1.19391685528542360000e+000) (53, 6.79630856547948530000e-001) (34, 7.35020984371377530000e-001) (35, 2.42470878359272790000e+000) (36, 6.77576950403947220000e-002) (37, 8.54060828295873260000e-001) (38, 1.65365441367709940000e+000) (39, 1.11194375575325650000e+000) (40, -4.20766520813039220000e-001) (41, -2.01108813863109240000e+000) (42, 8.81438207210686890000e-002) (43, 1.37333036563201090000e-001) (44, -1.21566967524042700000e+000) (45, 2.98338425259832360000e+000) (46, -1.34924826601303270000e+000) (47, 2.58537866770336910000e-001) (48, -1.29363376911429450000e+000) (49, -1.06078384774793880000e+000) (50, -3.12003536106856360000e+000) (51, -2.76966541124251680000e-001) (52, 7.47295027873926880000e-001) (53, 6.06618346429350090000e-001) (34, 1.32561303123508800000e+000) (35, 3.93353846116064940000e-001) (36, -8.22880375266206170000e-001) (37, 4.30371067100740860000e-001) (38, 1.02285582064526870000e+000) (39, 1.72983133151170270000e+000) (40, 1.47363026168702340000e+000) (41, 1.72876403296424570000e+000) (42, 1.56912739299439190000e-001) (43, -5.43414902937544570000e-001) (44, 2.08571664488133600000e+000) (45, -2.41052199342239120000e+000) (46, 2.47726054153296090000e+000) (47, 5.97666939525510530000e-001) (48, -8.26732716425063050000e-002) (49, 1.86172781183921580000e+000) (50, 9.81505970743079770000e-001) (51, 5.07971567911791880000e-001) (52, 5.50128272503385810000e-001) (53, 3.61014605713012190000e-001) 
