FANN_FLO_2.1
num_layers=3
learning_rate=0.700000
connection_rate=1.000000
network_type=0
learning_momentum=0.000000
training_algorithm=2
train_error_function=1
train_stop_function=0
cascade_output_change_fraction=0.010000
quickprop_decay=-0.000100
quickprop_mu=1.750000
rprop_increase_factor=1.200000
rprop_decrease_factor=0.500000
rprop_delta_min=0.000000
rprop_delta_max=50.000000
rprop_delta_zero=0.100000
cascade_output_stagnation_epochs=12
cascade_candidate_change_fraction=0.010000
cascade_candidate_stagnation_epochs=12
cascade_max_out_epochs=150
cascade_max_cand_epochs=150
cascade_num_candidate_groups=2
bit_fail_limit=3.49999999999999980000e-001
cascade_candidate_limit=1.00000000000000000000e+003
cascade_weight_multiplier=4.00000000000000020000e-001
cascade_activation_functions_count=10
cascade_activation_functions=3 5 7 8 10 11 14 15 16 17 
cascade_activation_steepnesses_count=4
cascade_activation_steepnesses=2.50000000000000000000e-001 5.00000000000000000000e-001 7.50000000000000000000e-001 1.00000000000000000000e+000 
layer_sizes=36 37 4 
scale_included=0
neurons (num_inputs, activation_function, activation_steepness)=(0, 0, 0.00000000000000000000e+000) (0, 0, 0.00000000000000000000e+000) (0, 0, 0.00000000000000000000e+000) (0, 0, 0.00000000000000000000e+000) (0, 0, 0.00000000000000000000e+000) (0, 0, 0.00000000000000000000e+000) (0, 0, 0.00000000000000000000e+000) (0, 0, 0.00000000000000000000e+000) (0, 0, 0.00000000000000000000e+000) (0, 0, 0.00000000000000000000e+000) (0, 0, 0.00000000000000000000e+000) (0, 0, 0.00000000000000000000e+000) (0, 0, 0.00000000000000000000e+000) (0, 0, 0.00000000000000000000e+000) (0, 0, 0.00000000000000000000e+000) (0, 0, 0.00000000000000000000e+000) (0, 0, 0.00000000000000000000e+000) (0, 0, 0.00000000000000000000e+000) (0, 0, 0.00000000000000000000e+000) (0, 0, 0.00000000000000000000e+000) (0, 0, 0.00000000000000000000e+000) (0, 0, 0.00000000000000000000e+000) (0, 0, 0.00000000000000000000e+000) (0, 0, 0.00000000000000000000e+000) (0, 0, 0.00000000000000000000e+000) (0, 0, 0.00000000000000000000e+000) (0, 0, 0.00000000000000000000e+000) (0, 0, 0.00000000000000000000e+000) (0, 0, 0.00000000000000000000e+000) (0, 0, 0.00000000000000000000e+000) (0, 0, 0.00000000000000000000e+000) (0, 0, 0.00000000000000000000e+000) (0, 0, 0.00000000000000000000e+000) (0, 0, 0.00000000000000000000e+000) (0, 0, 0.00000000000000000000e+000) (0, 0, 0.00000000000000000000e+000) (36, 5, 5.00000000000000000000e-001) (36, 5, 5.00000000000000000000e-001) (36, 5, 5.00000000000000000000e-001) (36, 5, 5.00000000000000000000e-001) (36, 5, 5.00000000000000000000e-001) (36, 5, 5.00000000000000000000e-001) (36, 5, 5.00000000000000000000e-001) (36, 5, 5.00000000000000000000e-001) (36, 5, 5.00000000000000000000e-001) (36, 5, 5.00000000000000000000e-001) (36, 5, 5.00000000000000000000e-001) (36, 5, 5.00000000000000000000e-001) (36, 5, 5.00000000000000000000e-001) (36, 5, 5.00000000000000000000e-001) (36, 5, 5.00000000000000000000e-001) (36, 5, 5.00000000000000000000e-001) (36, 5, 5.00000000000000000000e-001) (36, 5, 5.00000000000000000000e-001) (36, 5, 5.00000000000000000000e-001) (36, 5, 5.00000000000000000000e-001) (36, 5, 5.00000000000000000000e-001) (36, 5, 5.00000000000000000000e-001) (36, 5, 5.00000000000000000000e-001) (36, 5, 5.00000000000000000000e-001) (36, 5, 5.00000000000000000000e-001) (36, 5, 5.00000000000000000000e-001) (36, 5, 5.00000000000000000000e-001) (36, 5, 5.00000000000000000000e-001) (36, 5, 5.00000000000000000000e-001) (36, 5, 5.00000000000000000000e-001) (36, 5, 5.00000000000000000000e-001) (36, 5, 5.00000000000000000000e-001) (36, 5, 5.00000000000000000000e-001) (36, 5, 5.00000000000000000000e-001) (36, 5, 5.00000000000000000000e-001) (36, 5, 5.00000000000000000000e-001) (0, 5, 0.00000000000000000000e+000) (37, 5, 5.00000000000000000000e-001) (37, 5, 5.00000000000000000000e-001) (37, 5, 5.00000000000000000000e-001) (0, 5, 0.00000000000000000000e+000) 
connections (connected_to_neuron, weight)=(0, 9.50611526529824280000e-002) (1, -5.80867495838215260000e-002) (2, -7.47565007400157080000e-001) (3, 9.18429291366147260000e-001) (4, 3.33103820216584800000e-001) (5, 5.83827651618717750000e-001) (6, -1.00052741605994090000e-001) (7, 6.19630874808477340000e-001) (8, 6.43678740451854030000e-001) (9, 3.84499781534544620000e-001) (10, -5.89776919111431370000e-001) (11, 2.50321467673562110000e-001) (12, -4.98612698837537060000e-001) (13, 5.01700498056057760000e-001) (14, -1.28996778416646390000e-001) (15, 6.25390696813860720000e-001) (16, 2.40782393020309430000e-001) (17, 4.82913876682365350000e-001) (18, 3.17840945734264850000e+000) (19, 9.96642744113414690000e-001) (20, 6.44647445539534130000e-001) (21, 4.60757135360078620000e-001) (22, 9.90462727717077000000e-001) (23, 1.67801935193925280000e-001) (24, -2.00847232229884650000e+000) (25, 2.94333680047531630000e-001) (26, -9.40808951143803920000e-002) (27, 5.82863296135597730000e-001) (28, -6.70121156205717990000e-001) (29, 5.48524916717666230000e-001) (30, -2.10480467135727820000e-001) (31, 4.82657529022295470000e-001) (32, 1.21738204109876540000e-001) (33, 3.48608689839905950000e-001) (34, -3.42735226224707700000e-001) (35, 4.83603573958267640000e-001) (0, 5.50041400502511820000e-001) (1, 7.92656267933061540000e-001) (2, -1.29853867863879070000e+000) (3, -5.08560663414669570000e-002) (4, 4.78522670774805760000e-001) (5, 5.57573133007128190000e-001) (6, 6.67618758370501500000e-002) (7, 2.88870800969701800000e-001) (8, 5.89970600316253260000e-001) (9, 1.73583516304246510000e-001) (10, 1.39885827404007210000e+000) (11, -4.51507862161382940000e-001) (12, 1.83005868103919460000e+000) (13, 1.63704158852038070000e-001) (14, -1.18313340348161810000e+000) (15, 1.41997822474208000000e-001) (16, 2.53381857848259230000e-001) (17, 3.44991973284245410000e-001) (18, 5.76568668788380640000e-001) (19, -4.56330937820067230000e-001) (20, 2.77747092586329510000e-001) (21, 1.47763132689815250000e-001) (22, -3.11246707354753040000e+000) (23, 2.08402049770623900000e-001) (24, 1.13885384692631220000e-001) (25, 1.94028270259562900000e-001) (26, -2.33141206374009420000e-001) (27, 9.91180680625157880000e-002) (28, 8.26986883546524250000e-002) (29, 2.22126098411714180000e-001) (30, -5.14524230059018150000e-001) (31, 2.92899121342228450000e-001) (32, 1.72287484155140590000e+000) (33, 3.54874843249779640000e-001) (34, -2.93755220949103610000e-001) (35, 2.85497580471896050000e-001) (0, 2.63717536491954780000e-001) (1, 1.14921017724117660000e-001) (2, -9.73935307890868020000e-002) (3, -1.07550277443383700000e-001) (4, 5.10435926622852750000e-001) (5, -2.89651316686431180000e-002) (6, -3.69339634218077360000e-001) (7, -1.56899849864530270000e-002) (8, 2.59551290070470060000e-001) (9, -1.42129341831932540000e-002) (10, -5.32639197198305440000e-001) (11, -1.25146076754958370000e-001) (12, -5.56404051934435210000e-001) (13, -2.24831979783047880000e-002) (14, 1.56173498841905480000e-001) (15, 2.95065488901527990000e-002) (16, 6.11250890035360930000e-001) (17, -1.77929395408771510000e-001) (18, -1.15508765434024830000e-001) (19, 1.01448688634049200000e-001) (20, 4.77175337254819140000e-001) (21, -1.25418274549692180000e-001) (22, 4.17704049971223900000e-001) (23, 5.45187562941137210000e-002) (24, 3.81698040910221690000e-001) (25, -1.19264098456861710000e-001) (26, 2.52243842427549710000e-001) (27, 4.88819301787612510000e-001) (28, 4.04941982667713140000e-001) (29, 8.41391180636165000000e-002) (30, 1.13778478678920480000e-001) (31, -2.41433542530430370000e-002) (32, -5.93898414014864260000e-002) (33, -1.87678038432012450000e-002) (34, 2.98862495465971770000e-001) (35, 1.29469929285973230000e-001) (0, 2.63147947539983000000e-001) (1, -1.03559255355410610000e-001) (2, 3.12505862646953410000e+000) (3, -2.00044804029176790000e-001) (4, 9.50983934087655800000e-002) (5, -6.96301578901897480000e-001) (6, 4.29499514703611080000e-001) (7, 2.02848360238870820000e-001) (8, -1.39305092432105340000e-001) (9, -5.95956316534265800000e-002) (10, 3.09831912411795950000e+000) (11, -7.50714322249074750000e-002) (12, 2.35081486671167180000e-001) (13, -6.24420474315160570000e-001) (14, 2.12561243402093670000e-001) (15, -7.15063566319329440000e-003) (16, -1.38680406319760820000e+000) (17, -1.14494040234225100000e-001) (18, 2.91626185986503030000e-001) (19, 3.82220264945465900000e-002) (20, -1.45370627748188300000e+000) (21, 1.60031887403591640000e-002) (22, 5.89843209668868610000e-001) (23, 1.01600703246604680000e-001) (24, -1.24418617600904590000e-001) (25, -2.52619116951574680000e-001) (26, 2.99882408932287570000e-001) (27, -2.43965703121149240000e-001) (28, -1.69303872175997020000e-001) (29, 1.31124541352103270000e-001) (30, 5.13399103338110120000e-001) (31, -1.04169606927005550000e-001) (32, 3.47432153183581730000e-001) (33, 3.82281726350289060000e-001) (34, 5.42046578097268310000e-001) (35, 2.38128897072570730000e-001) (0, -1.36047592674755080000e-002) (1, -2.90950499330615430000e-002) (2, -1.38893419018247450000e+000) (3, 1.02736306422962450000e+000) (4, 5.58029314878587980000e-001) (5, 6.95483376869556080000e-001) (6, -3.77451335045431270000e-001) (7, -6.12788883032630990000e-002) (8, 6.41443099788660650000e-001) (9, -1.51374968386341900000e-001) (10, -5.25906082464911330000e-001) (11, -1.35284016359150440000e-001) (12, -2.08803906127929460000e-001) (13, 2.62517701056402430000e-001) (14, 3.14876309852544560000e-001) (15, 5.17488539302063180000e-001) (16, 3.27663616276921030000e-001) (17, 2.59356079915540600000e-001) (18, 4.60880136613450670000e-001) (19, 5.52351821071566550000e-001) (20, 3.47648280642095460000e-001) (21, -1.36173433543882560000e-001) (22, 4.82312246288425230000e-001) (23, -1.21459553262524870000e-001) (24, -1.00667918188452690000e-001) (25, -1.11834474322781640000e-003) (26, -2.57652217144372090000e-001) (27, 5.05147230524413350000e-001) (28, 3.41984218057694360000e-001) (29, 1.85650024129734910000e-001) (30, 6.88139664813142700000e-001) (31, 2.66583500066085510000e-003) (32, -7.33424783281469150000e-002) (33, -2.46447472229179650000e-001) (34, -3.77366574397004990000e-001) (35, -3.81544781076092050000e-002) (0, 1.06559311375863470000e+000) (1, 3.86737255404247460000e-002) (2, -4.30655031345280210000e-001) (3, 8.36065964632127120000e-001) (4, 3.36710666921074540000e-001) (5, 1.11891404096408740000e+000) (6, 2.24331612040054580000e-001) (7, 3.81105249388474950000e-001) (8, 4.92071767048788130000e-001) (9, 4.13372903222911920000e-001) (10, 1.25041367557836960000e-001) (11, -1.28117348124769960000e-001) (12, 2.44838387374903470000e-002) (13, 2.77789215169935990000e-002) (14, -3.89395826929707370000e-002) (15, 2.38632642675472540000e-001) (16, 7.85380672408670930000e-002) (17, 2.97877680615326660000e-001) (18, 5.66299675459861710000e-001) (19, 2.61903587455981860000e-001) (20, 1.69322188712217940000e-001) (21, 2.08098535930194730000e-001) (22, -4.05679242463737990000e-001) (23, 1.86419869606785850000e-002) (24, -1.61188303926699920000e-001) (25, 3.46905617076222250000e-001) (26, -4.56046878108191280000e-001) (27, 1.23976461186534560000e-001) (28, -6.78102353844446390000e-001) (29, 1.33452987082141900000e-001) (30, -1.92422528629339170000e-001) (31, 1.43205572930897470000e-001) (32, 2.67535642479178160000e-001) (33, 2.68029745424773370000e-001) (34, 5.20831495683657250000e-002) (35, 2.91527108344185490000e-001) (0, 6.02630843350937970000e-001) (1, 3.58219432217770220000e-002) (2, 1.88089061025093400000e-001) (3, 1.16049104064777500000e-001) (4, 1.86431171793395360000e-001) (5, -1.39810005859871740000e-002) (6, 1.59707587639581590000e-001) (7, -2.06532233358026120000e-001) (8, 3.22481731434079930000e-001) (9, 3.90127223024650030000e-001) (10, 1.81856014591271790000e-001) (11, -2.77619880901689600000e-001) (12, 2.78776209303321750000e-001) (13, -2.89519973243475730000e-001) (14, -3.51529713927472290000e-001) (15, 7.43072806478993760000e-001) (16, 4.09658246404986100000e-001) (17, -4.46938916686449030000e-002) (18, 3.10933374479612610000e-001) (19, -2.70074181565620020000e-001) (20, 5.51428667704235710000e-001) (21, 4.17741612723554090000e-001) (22, 5.06089072763515820000e-002) (23, 2.57849631352334240000e-001) (24, 2.75132410420899920000e-001) (25, -1.06886168584916190000e-001) (26, -1.23054425389558690000e-001) (27, -3.45556360424767170000e-001) (28, 2.92478602085628310000e-001) (29, 1.78898140483174790000e-002) (30, -2.37563282067767560000e-002) (31, -2.07716653485851140000e-002) (32, 5.59460245048643670000e-001) (33, 2.74151901621038360000e-001) (34, -1.42842023340666900000e-001) (35, -1.39112731565129380000e-001) (0, -5.36293126252200160000e-001) (1, -1.93481153453010760000e-001) (2, 6.93779313334680010000e-001) (3, 1.71178238817584600000e+000) (4, -9.91900480939032490000e-001) (5, 5.43573072484364800000e-002) (6, 8.61062091023232280000e-001) (7, 3.35806206900569780000e-001) (8, -3.09317996388513010000e+000) (9, 5.17413523473914670000e-002) (10, 5.33241426340888560000e-001) (11, 5.84382345484711240000e-001) (12, 5.70086864102558600000e-002) (13, 7.36734680678829520000e-001) (14, 1.99126211871476610000e-001) (15, 1.03186286175045890000e-002) (16, 3.18559708072713110000e-001) (17, 4.09292536120601350000e-001) (18, -7.00626699175088460000e-001) (19, 5.32081319314740230000e-001) (20, -7.60784737760223370000e-002) (21, 7.19379143219296000000e-002) (22, 3.80206398822442500000e-001) (23, 2.42935974203521250000e-001) (24, 1.43525498434627590000e-001) (25, -1.22689185864466250000e-001) (26, 1.47065062136967600000e-001) (27, 4.95858699519912740000e-001) (28, 5.22425720886562140000e-001) (29, 7.99640374884031530000e-002) (30, 2.18756957736510080000e-001) (31, 2.92116756977383800000e-003) (32, 6.30745789834087080000e-002) (33, -1.69127785064759370000e-001) (34, 2.35712524395417710000e-001) (35, -1.74905221226581210000e-002) (0, -1.65840300633142150000e-001) (1, 1.70952901030672290000e-001) (2, 3.15309071870448880000e-001) (3, 4.84633116090618270000e-001) (4, 4.21108730016145210000e-002) (5, 1.66751658524984720000e-001) (6, 5.19658338869652400000e-001) (7, 2.10113057864204090000e-001) (8, -1.87133284867667370000e-001) (9, 5.97325114058159690000e-001) (10, -3.04283426927971190000e-002) (11, 3.55634672322075130000e-001) (12, -4.26725705991888360000e-001) (13, 2.18356883903337490000e-001) (14, -1.18221312751014290000e-001) (15, 2.30197583956030430000e-001) (16, -4.04997190043108250000e-001) (17, 2.48392284741524860000e-001) (18, -1.93644967267706640000e-001) (19, 2.47147167535471170000e-001) (20, -3.43077023104800870000e-001) (21, 4.79515053708903070000e-001) (22, -1.25014525742866030000e-001) (23, 5.99403837448356570000e-001) (24, -2.51050070675127580000e-002) (25, 1.80301463414392540000e-001) (26, -1.31612426231807410000e-001) (27, 3.41189461474501350000e-001) (28, -9.81640901874279160000e-002) (29, 2.65724490959115710000e-001) (30, -3.56738265571097170000e-001) (31, 3.23465528047703400000e-001) (32, 6.95829444929860350000e-002) (33, 3.74984173622677270000e-001) (34, 6.10046183302432880000e-001) (35, 1.46445261738020830000e-001) (0, -4.02192020581565450000e-001) (1, 4.26857434435929550000e-001) (2, 7.11870133916754360000e-001) (3, 2.38280532014551850000e-001) (4, -3.40801798531560730000e-001) (5, 9.67059526267912140000e-002) (6, 3.45705415268488970000e-001) (7, 4.57546931370897860000e-001) (8, -6.72113850239467350000e-001) (9, -1.14194040921899660000e-001) (10, 5.06803872474913100000e-001) (11, 9.35780780987262250000e-001) (12, 6.63977310156483170000e-002) (13, 4.54581356728927910000e-001) (14, 3.31947636477167460000e-001) (15, -1.98208934751944090000e-001) (16, -6.16558661392337320000e-002) (17, 6.91792003465250940000e-001) (18, -4.81841066856810880000e-001) (19, 4.58881855333358290000e-001) (20, 6.92326491563585030000e-003) (21, 2.15024472573473010000e-001) (22, 2.74494263254560610000e-001) (23, 1.16980974570332470000e+000) (24, -6.30071880307069010000e-002) (25, 4.87829846594181470000e-002) (26, 2.49646850774930350000e-001) (27, 8.95835104444268060000e-001) (28, -1.49906710693104790000e-001) (29, 8.80084712020245550000e-002) (30, 2.36037793109980350000e-001) (31, 5.17730783100228020000e-001) (32, -6.52752509587917750000e-002) (33, 1.61096608455363420000e-001) (34, 1.89081664325563750000e-001) (35, 6.38922191156120700000e-001) (0, -1.32914708563862340000e+000) (1, 1.59252461403197150000e-001) (2, 3.16517567982206870000e-001) (3, 5.39717345427062290000e-001) (4, -1.59956444929352130000e-001) (5, 1.59061228722888390000e-001) (6, 2.03805679980465500000e-002) (7, 3.89332182589832150000e-001) (8, 9.17844070897540220000e-003) (9, 5.29533365001108920000e-001) (10, -1.16173072562408520000e-002) (11, 6.15334013466984690000e-001) (12, 1.93041732817355730000e-002) (13, 3.30867314195444410000e-001) (14, 2.52340355737090740000e-001) (15, 1.96437380551657330000e-001) (16, -3.26475460357418310000e-001) (17, 3.43832283779507470000e-001) (18, -1.76076960841246640000e+000) (19, 7.06604233572136970000e-001) (20, -3.64488156236351610000e-001) (21, 5.38182046770609320000e-001) (22, 3.16006128170159660000e-001) (23, 5.35731961499571700000e-001) (24, -9.50442089754591210000e-003) (25, 2.27553103671567720000e-001) (26, 3.09231225725455750000e-001) (27, 6.54413070685053280000e-001) (28, -3.36804466484217640000e-002) (29, 2.42317508188449490000e-001) (30, 2.43313255993201470000e-001) (31, 2.57144726278196400000e-001) (32, -3.10327549029757290000e-001) (33, 4.80324751364249070000e-001) (34, 4.10006373711497450000e-001) (35, 3.54574471439578540000e-001) (0, 7.04999008938842260000e-001) (1, -9.91450998050136120000e-002) (2, 1.80069041374335800000e-001) (3, -1.94373062250634940000e-001) (4, 4.23734780943204330000e-001) (5, 7.84567449320675430000e-002) (6, 2.37077902551098290000e-001) (7, -8.64254977554268640000e-002) (8, 3.42409710246654950000e-001) (9, -1.15688453338272210000e-001) (10, 4.01749459889731990000e-001) (11, -2.21687262880728650000e-001) (12, 6.24976032081426820000e-001) (13, -4.03837348470548720000e-003) (14, 4.94718370956768600000e-002) (15, -1.88681346719346970000e-001) (16, 1.12322180150130670000e+000) (17, 9.71884346643164670000e-002) (18, 2.17665615044617340000e-001) (19, -8.39787692106609420000e-002) (20, 6.80933064165251340000e-001) (21, -1.28674268858468000000e-001) (22, -7.27492488587031530000e-002) (23, -2.71032433533024090000e-001) (24, 7.25291662477616010000e-001) (25, 1.20564899856402940000e-001) (26, 5.35661294779922190000e-001) (27, -2.48410241814967380000e-002) (28, 6.37897174852091630000e-001) (29, -1.03295650495524620000e-002) (30, 3.82893682158197690000e-001) (31, 3.73800841637276160000e-002) (32, 6.22045695199989530000e-001) (33, -1.88227354846447900000e-002) (34, -5.87783013848948150000e-002) (35, 5.90658755024960760000e-002) (0, -5.15754354709833380000e-002) (1, 3.91696834307500630000e-001) (2, -4.80545690562676710000e-001) (3, 4.76284724618862790000e-001) (4, -2.72929886030166770000e-001) (5, 7.97757630806892330000e-001) (6, 3.08648972447584770000e-001) (7, 5.93263686915575630000e-001) (8, 1.04893939703916690000e-002) (9, 4.90606759258548630000e-001) (10, -3.92025465235559640000e-001) (11, 5.73964370221743620000e-001) (12, -2.40475049177991260000e-001) (13, 6.50388243845292480000e-001) (14, 1.20677608112822350000e-001) (15, 6.82501293367999920000e-001) (16, 3.55088180843595890000e-001) (17, 3.69321345692829870000e-001) (18, 9.10830158171084260000e-001) (19, 9.94976484322960490000e-001) (20, -1.50285151354561910000e-001) (21, 5.03264074935438120000e-001) (22, -1.91400545304481830000e-001) (23, 2.47396072793543700000e-001) (24, -1.07400096023144960000e-001) (25, 8.15366273647406550000e-001) (26, -2.38251131940109990000e-001) (27, 7.50148425840869050000e-001) (28, -7.22072244049803140000e-002) (29, 5.77600168757976370000e-001) (30, -2.83412205601041470000e-001) (31, 7.75382142192221570000e-001) (32, -2.29702993277121710000e-001) (33, 5.26585454205836580000e-001) (34, 3.63633015953255190000e-002) (35, 4.16025447951275110000e-001) (0, 4.46942371845057750000e-001) (1, 1.04246746454519850000e-001) (2, -3.06452395759874730000e+000) (3, 1.59914230374834920000e+000) (4, 4.63481065617385670000e-001) (5, 3.43691780250192150000e-001) (6, -1.00775741476906910000e+000) (7, 3.60474635094086730000e-001) (8, 5.41968008026675110000e-001) (9, 5.94628038788045930000e-002) (10, -3.12588260109118730000e+000) (11, -2.17784097507783660000e-001) (12, 6.72145522648525950000e-002) (13, -1.19583714306721600000e-003) (14, 9.61806721430694230000e-001) (15, 3.86393112950700720000e-001) (16, 1.04436232557400330000e+000) (17, 3.81028896998527600000e-002) (18, 4.31814810174631080000e-001) (19, 2.68632977986707820000e-001) (20, 5.23045275489336550000e-001) (21, 2.56388755940431650000e-001) (22, 3.34114926038942830000e-002) (23, 1.04008217335823060000e-001) (24, -6.31685938930727330000e-001) (25, 3.29733039807815710000e-001) (26, -3.28127971776884020000e-001) (27, 5.48958068221009790000e-001) (28, -4.86696923098347780000e-001) (29, 1.00932537420759290000e-001) (30, 6.02280465070267330000e-002) (31, 9.43163263846700660000e-002) (32, -7.88579804342575130000e-002) (33, 2.32420848786371370000e-001) (34, -2.64398648399990780000e-001) (35, 3.43685676734476200000e-001) (0, 5.41572993722992610000e-001) (1, -2.32539018224166280000e-001) (2, -2.90368964135139310000e-003) (3, 8.15501005323609250000e-001) (4, 4.30607966131987870000e-001) (5, 1.56743702853848560000e-001) (6, -3.85157210179266740000e-001) (7, -2.92167326320339540000e-001) (8, 2.84066912104174290000e-001) (9, -1.43839329941685750000e-001) (10, -6.98377441611290780000e-001) (11, -3.14533648352231520000e-001) (12, 2.75686785026175660000e-001) (13, -1.12688096671293560000e-002) (14, -8.87950651225884180000e-002) (15, -4.36254316536413690000e-002) (16, 7.56701495447184460000e-001) (17, 9.00096602553883410000e-003) (18, 7.18673901686514290000e-002) (19, 6.80586594471670250000e-001) (20, 3.32168719461572060000e-001) (21, 1.52513966462695580000e-001) (22, 1.22524611682786690000e-001) (23, -2.77265581390644000000e-001) (24, -3.91109483823627590000e-004) (25, 2.04290090281094930000e-001) (26, -3.60156831670772890000e-001) (27, 3.18385918221794910000e-001) (28, 1.43637374663540870000e+000) (29, 3.71517399383086200000e-001) (30, 5.30663137765926480000e-002) (31, -6.97540998838427130000e-001) (32, 1.01460674056893300000e-001) (33, -6.11676435419931110000e-001) (34, 2.09397872903142180000e-001) (35, 2.51153157696024980000e-001) (0, 4.22572024366008440000e-001) (1, 1.62882501526870000000e-001) (2, -4.43362783762423440000e-001) (3, -8.99453195803817660000e-002) (4, -1.08930594337079130000e-002) (5, 1.54888269033810990000e+000) (6, 5.84138161995166990000e-001) (7, 1.20243340735247020000e-001) (8, 1.97844723239255280000e-001) (9, 1.24217964516990560000e+000) (10, 2.34260000859979750000e-001) (11, 1.61222345252131750000e-001) (12, -1.08657420260630550000e-001) (13, 1.61189743073603370000e-001) (14, -1.07557697334749030000e+000) (15, 9.40878862869266590000e-002) (16, 3.96738903145463370000e-002) (17, 2.27120193585159560000e-001) (18, -8.76764962762707490000e-002) (19, 2.73020442621178190000e-001) (20, -6.40040992827442260000e-002) (21, 5.65618692406036680000e-001) (22, -3.39317257423776000000e-001) (23, 1.12972242665472550000e-001) (24, -3.53376398760855410000e-002) (25, 8.32600544123605070000e-002) (26, -3.37292747741493590000e-002) (27, 7.14683357970161550000e-002) (28, -7.28053689451433620000e-002) (29, -1.79667537366614560000e-002) (30, -3.46006710648456620000e-001) (31, 1.75411208439635650000e-001) (32, 3.26316493214852070000e-001) (33, 2.44702566732439230000e-001) (34, -7.79553496519192200000e-002) (35, 8.91074962161101240000e-002) (0, -4.58408589135700370000e-001) (1, 2.80043887458501230000e-001) (2, 3.19251943022952230000e-001) (3, 2.88773024281997470000e-001) (4, -1.52296532705835540000e-001) (5, 2.88307499108128750000e-001) (6, 5.83383322355363050000e-002) (7, 5.65309598659062830000e-001) (8, -3.10636148502932420000e-001) (9, -3.10613735824488310000e-001) (10, -1.45583373705615750000e-001) (11, 8.62258636232264180000e-001) (12, -3.91557248436587510000e-001) (13, 2.02150271261786030000e-001) (14, 3.95229762163183780000e-001) (15, -5.52632651027652690000e-001) (16, -3.71635373139728440000e-001) (17, 1.92545115940587180000e-001) (18, -8.69036859109521220000e-001) (19, 4.50908820508432450000e-001) (20, -4.23887571183971860000e-001) (21, 5.17002847236264660000e-001) (22, 5.60296426701728740000e-001) (23, 3.48201946661091000000e-001) (24, -3.28547181156126220000e-002) (25, 1.20659931531248640000e-001) (26, 6.82251423559896430000e-001) (27, 7.45722370730243500000e-001) (28, -9.34992502692865430000e-002) (29, 4.25950599785730520000e-001) (30, 3.36263696831395950000e-001) (31, 2.33034060784490350000e-001) (32, -3.56828244012835030000e-001) (33, 5.37014910268573950000e-001) (34, 4.60538635181347860000e-001) (35, 3.92086462222856650000e-001) (0, 1.73790893093645090000e-001) (1, -1.53514601047615410000e-001) (2, 3.10726077464182550000e+000) (3, 1.07629192610669830000e-002) (4, 1.84164375113391120000e-001) (5, -3.33843622213123750000e-001) (6, 1.46391868946853850000e-001) (7, -1.10356641420136710000e-001) (8, 1.31593795366964360000e-001) (9, -2.01355210835414410000e-002) (10, 7.95396643991011620000e-001) (11, -3.00609329801997670000e-001) (12, 3.47630373414198060000e-001) (13, -1.16455307226557280000e-002) (14, 4.27152804567586810000e-001) (15, 4.10241501807444560000e-002) (16, -2.11209877490115550000e-001) (17, -8.49426509554929150000e-002) (18, -7.76070867375172500000e-001) (19, -1.48357130267638110000e-001) (20, 1.36183705738973090000e-001) (21, -2.01845474069437810000e-001) (22, 8.64318248390099300000e-001) (23, 2.34508325338016380000e-001) (24, 2.32527701315235420000e-001) (25, -2.05620314714676040000e-001) (26, 3.09128992958738470000e-001) (27, -3.93068685769559780000e-003) (28, 4.83226078559731490000e-001) (29, -4.03686756819139350000e-002) (30, 4.40622863400204790000e-001) (31, -4.15417109756788420000e-001) (32, 3.86436526336204790000e-001) (33, 1.30739727689485720000e-001) (34, 8.33818980357500020000e-001) (35, -7.98469202672612840000e-002) (0, 1.21754598770604170000e+000) (1, 5.37864542373787220000e-001) (2, 4.60667217723245540000e-001) (3, -4.21572100627010810000e-002) (4, -1.54512045274975470000e-001) (5, 1.63141377987946310000e-001) (6, 3.29287390385742560000e-001) (7, 1.10370381107847190000e-001) (8, -3.90105320041081950000e-001) (9, 4.39289101140004410000e-001) (10, 2.83208063079973020000e+000) (11, 3.67887942075434350000e-001) (12, 3.27709327311531180000e-001) (13, 1.45691426556046780000e-001) (14, 1.74168622496436910000e-001) (15, 1.16603548318796310000e-001) (16, 9.48568992482581860000e-002) (17, 1.08136494355809690000e-001) (18, -3.23224192294905010000e-001) (19, -7.81769211392010940000e-001) (20, -6.12119446357050180000e-001) (21, 3.51343847881617490000e-001) (22, -1.38880237158860280000e-001) (23, -6.83954901295863870000e-002) (24, -1.60659982900936420000e-002) (25, 2.61279807184697840000e-001) (26, 6.95011853947754830000e-002) (27, -1.43365195869519460000e-001) (28, 1.71249201732395700000e-002) (29, 1.08042988625774880000e-001) (30, 2.41488409586618350000e-001) (31, 2.06708273168393630000e-001) (32, 8.89030712252731610000e-002) (33, 2.46732570420039460000e-002) (34, 4.00343967495743910000e-001) (35, 1.13318379198650790000e-001) (0, -1.23323210155838140000e-001) (1, 1.36691355181082890000e-001) (2, 2.57905506561944160000e-001) (3, -6.85501299315431490000e-002) (4, -6.55390447745220340000e-002) (5, 2.75149421427928140000e-001) (6, 6.92207922491714700000e-001) (7, 2.04296407386904240000e-001) (8, 6.29604826872978970000e-002) (9, 4.36827064791552480000e-001) (10, 4.07143597930014920000e-001) (11, 2.30231838422177370000e-001) (12, -7.08813749371337840000e-002) (13, 1.91061961621611460000e-001) (14, -9.77578173136395280000e-002) (15, 1.60214793193202840000e-001) (16, -1.00731916392686670000e-001) (17, 2.60147656010443600000e-001) (18, -4.09589971375736770000e-001) (19, 3.17764844369006590000e-001) (20, 1.23095442712574800000e-002) (21, 5.52197501236046720000e-001) (22, -1.84898659523999550000e-002) (23, 3.20218457686818280000e-001) (24, 6.22951994742594050000e-002) (25, 4.57876258125075990000e-001) (26, -1.10634642716089100000e-001) (27, 1.92093455777606920000e-001) (28, 9.15942134214410980000e-002) (29, 1.93654177385184370000e-001) (30, -8.81945262432476530000e-002) (31, 1.99863231284010600000e-001) (32, 6.58195534551383020000e-001) (33, 4.92373091387533320000e-001) (34, -4.69078351258606920000e-002) (35, 2.13272655311951580000e-001) (0, -3.83221155907891350000e-001) (1, 4.29220198993344850000e-001) (2, 1.05303818193092670000e+000) (3, 3.32958978520780490000e-001) (4, -5.44205546848698370000e-002) (5, 1.06049002858176910000e-001) (6, 4.55685563353547320000e-001) (7, 3.08930570063629780000e-001) (8, -1.99439948096092810000e-001) (9, 2.23613072165868430000e-001) (10, 3.24694270728980440000e-001) (11, 5.57442166901203960000e-001) (12, -8.61385078143252910000e-002) (13, 7.85136736571011800000e-001) (14, -7.70927529111610920000e-002) (15, 3.25392460598237730000e-001) (16, -2.88575188568030440000e-001) (17, 3.05609124597610910000e-001) (18, -8.32256686721238310000e-001) (19, 6.56961130920010520000e-001) (20, -1.09125151645313580000e-001) (21, 3.21482060488851920000e-001) (22, 1.02596960860327030000e-001) (23, 1.76299383908493760000e-001) (24, 3.05153410302607730000e-001) (25, 1.59624530768945280000e-001) (26, 2.05740272944157140000e-001) (27, 3.02120857376708800000e-001) (28, 3.65767424877702030000e-001) (29, 5.15217124980652310000e-001) (30, -2.35233951474165180000e-001) (31, 2.16051533562898160000e-001) (32, 7.65665674681144100000e-001) (33, 2.70971016178585990000e-001) (34, 2.18270790709001410000e-001) (35, 1.14141131653689850000e-001) (0, -5.82008458964661690000e-001) (1, 3.65000675561612030000e-001) (2, 3.12272708346604140000e+000) (3, -2.09761996762777570000e-002) (4, 9.14538866192089460000e-001) (5, 1.61724252207703590000e-001) (6, -5.11476890658979500000e-003) (7, 4.69338923734112290000e-001) (8, -4.11912355966160600000e-001) (9, -7.48795990151460420000e-002) (10, 3.10796267894915970000e+000) (11, 8.05905903885468570000e-001) (12, -2.15919822119893750000e-001) (13, -1.04980175571743450000e-001) (14, 2.66579785752591500000e-001) (15, 1.65049825412742930000e-001) (16, -2.55305809034915680000e-001) (17, -2.76800246491436970000e-001) (18, -1.98363711685064810000e+000) (19, 2.06512692351115360000e-001) (20, -6.67530109936789300000e-001) (21, -4.35275074921753560000e-002) (22, 3.18823341267138740000e-001) (23, 2.87035178686144700000e-001) (24, 3.84911055891261120000e-001) (25, 1.51875659653719800000e-001) (26, 2.99323365187043110000e-001) (27, 1.00296065871336230000e-003) (28, 4.63574174197543470000e-002) (29, 1.05141039816694720000e-001) (30, 1.48165477347455830000e-001) (31, 5.07977364986140770000e-001) (32, -1.26420353747669860000e-001) (33, 2.16785085847686350000e-001) (34, 3.84265236773548900000e-001) (35, -1.88287061578737760000e-001) (0, -1.99127927904061780000e-001) (1, 6.79382302410881380000e-001) (2, -2.78771341386075620000e-001) (3, 3.73241745273496520000e-001) (4, 1.12803367904661350000e-001) (5, 6.39926817908155090000e-001) (6, 3.40428734169270660000e-001) (7, 7.15572009310015520000e-001) (8, -1.05851556942449770000e-001) (9, 6.48785472553095040000e-001) (10, 2.09029140306548840000e-001) (11, 5.98366226054109380000e-001) (12, -2.10580029201270750000e-001) (13, 6.42789366778935390000e-001) (14, -7.18215144698788330000e-002) (15, 2.84107704734022860000e-001) (16, 4.45379884122387300000e-002) (17, 3.91043758125894040000e-001) (18, -3.69550418532667680000e-001) (19, 9.68877851121560550000e-001) (20, -1.37337840609877110000e-001) (21, 4.86550592775681190000e-001) (22, -3.28369997997156600000e-001) (23, 2.03133376821478140000e-001) (24, -3.63628268865293150000e-001) (25, 4.83267146597908980000e-001) (26, -2.69281405839997100000e-001) (27, 7.63455872483256300000e-001) (28, -1.10012400749571330000e-001) (29, 4.90930245591493950000e-001) (30, -3.51429080372013700000e-001) (31, 7.11789611947744040000e-001) (32, -7.23476052664471510000e-002) (33, 3.28296189537226110000e-001) (34, 2.92737294630070870000e-001) (35, 6.44547179305128840000e-001) (0, -5.72156601900456060000e-002) (1, 2.04419743866208650000e-001) (2, -8.50774564883979980000e-002) (3, -1.95337481356344290000e-001) (4, 9.33969094537697390000e-001) (5, 7.43997920594202390000e-002) (6, -1.07866806035697000000e+000) (7, 4.45329188443363390000e-001) (8, -1.12982630518716320000e-001) (9, -1.43572629435850110000e-002) (10, 1.22734580700191690000e-001) (11, 1.52068008162165920000e+000) (12, -2.36340786653771060000e-001) (13, 4.43201060701805590000e-001) (14, -1.71568700796321750000e-001) (15, 1.51227179644509230000e-002) (16, -6.20094937503381520000e-001) (17, 2.55491539130187070000e-001) (18, -3.05879275634147070000e+000) (19, 1.42570480116392910000e+000) (20, 3.26185696342067290000e-001) (21, -5.45006878391363770000e-004) (22, 3.11934939443574090000e-001) (23, 6.17086932946115050000e-001) (24, 2.65254671126523460000e-001) (25, 8.85968401530506520000e-002) (26, -8.03189297489414480000e-002) (27, 8.26868612173791600000e-001) (28, 1.17056137704153370000e+000) (29, 5.49107160447353190000e-001) (30, -5.83218591086595570000e-002) (31, 3.08686707686643300000e-001) (32, -2.68075605928532860000e-001) (33, -9.99883588417816160000e-002) (34, 1.02672813857001820000e+000) (35, 1.72286568063179020000e-001) (0, -1.53192868625826070000e-001) (1, 5.99011207463258980000e-001) (2, -4.76895788164538930000e-001) (3, 9.89480596600171710000e-002) (4, 5.43499978930132720000e-002) (5, 8.20377260050201060000e-001) (6, 3.18944358849128530000e-001) (7, 8.14992176807116220000e-001) (8, 7.63054147875534550000e-002) (9, 6.25280833530973630000e-001) (10, 4.35406786836423370000e-001) (11, 5.50294936275291580000e-001) (12, -1.18264353997535020000e-001) (13, 4.13088922895921920000e-001) (14, -9.47951476247126390000e-002) (15, 3.13013955164759550000e-001) (16, 1.19251124291176190000e-001) (17, 3.58377742014132470000e-001) (18, -1.52432311233818870000e-001) (19, 9.67297040551129640000e-001) (20, -1.50858881831861160000e-001) (21, 4.57644342344944390000e-001) (22, -2.93805331986682070000e-001) (23, 3.11077607544506580000e-001) (24, -3.89537693079498650000e-001) (25, 6.90842346010605570000e-001) (26, 1.83614928614069970000e-001) (27, 7.02530578606648690000e-001) (28, -2.08974804567976040000e-001) (29, 4.96307442937245440000e-001) (30, -4.82880498346417440000e-001) (31, 8.21646791319118550000e-001) (32, -2.99639038569740220000e-001) (33, 3.73462205835252190000e-001) (34, 4.24427635113835690000e-001) (35, 6.87308410411070820000e-001) (0, 1.08205445522501710000e+000) (1, 2.10286371661347200000e-001) (2, 5.43201908976033820000e-001) (3, 2.06455152784214670000e-001) (4, -2.71378943073556640000e-001) (5, -6.06014187205687820000e-002) (6, 1.52366341773025860000e+000) (7, -4.71621239279952590000e-001) (8, 3.75993773154167880000e-001) (9, 7.15430546593827990000e-001) (10, 9.11358004690030250000e-001) (11, -1.82100443782570310000e-002) (12, 3.63304563980708930000e-001) (13, 2.15575592841080020000e-001) (14, -5.26801456661727400000e-002) (15, 4.40094690343901810000e-002) (16, 1.12361442308621380000e-001) (17, 2.39418330476034030000e-001) (18, -2.46257359063354750000e-001) (19, 3.45302285827016550000e-001) (20, 1.35638334145472830000e-002) (21, 4.32833954483140100000e-001) (22, 2.69993576931088500000e-001) (23, 1.32718896846103360000e-002) (24, 8.19044037664017340000e-002) (25, -2.49751974865717320000e-002) (26, 9.98927754080460440000e-002) (27, 1.60684888430309590000e-001) (28, 2.55717892455667670000e-001) (29, 9.49733166160178640000e-002) (30, 1.38133223403716140000e-001) (31, -1.39131308956946110000e-001) (32, 3.83941102336007480000e-001) (33, 1.97596044669571310000e-001) (34, 1.48258955976476310000e-001) (35, 3.68631704063309900000e-002) (0, -2.05475584248649260000e-001) (1, 1.36962482166326450000e-001) (2, -4.64029577035317440000e-001) (3, 5.73370655512734810000e-001) (4, -5.33264724566113040000e-002) (5, 4.01804256333112950000e-001) (6, -3.43914164622404370000e-001) (7, 5.92372573621047000000e-001) (8, -3.00835159883487800000e-001) (9, 5.85107493088594220000e-001) (10, -4.03927320881661110000e-001) (11, 5.44099867823602870000e-001) (12, -2.01864208758894910000e-001) (13, 6.30435850969853660000e-001) (14, 1.00542662467049080000e+000) (15, 3.70885958045095440000e-001) (16, 3.66306442729511020000e-001) (17, 4.24002742992021060000e-001) (18, 3.39772797992586080000e-001) (19, 9.50054608653572390000e-001) (20, -1.89619072101931130000e-002) (21, 5.37578040290506150000e-001) (22, 3.77002432604469250000e-001) (23, 1.50386794004242820000e-001) (24, -4.78014285368363490000e-001) (25, 5.73809885498371750000e-001) (26, 1.05038267286936510000e-001) (27, 7.42500720648784360000e-001) (28, -1.80947460400336070000e-001) (29, 7.29941467686977760000e-001) (30, -8.67307609861952540000e-001) (31, 7.98038392529826000000e-001) (32, -5.49839171991501790000e-001) (33, 4.13611132214767810000e-001) (34, 5.26780679413215710000e-001) (35, 7.50272278536805450000e-001) (0, 8.96593209562984720000e-001) (1, -2.99745667155711800000e-003) (2, 5.81380284121504330000e-001) (3, -1.06414429156039730000e-001) (4, 3.89219454392960850000e-001) (5, -2.54211052667131070000e-001) (6, 1.37926327725391150000e-001) (7, -1.58183005728991410000e-001) (8, 1.07778365486180250000e-001) (9, 7.84755863158617950000e-002) (10, 2.37690662510719520000e-001) (11, -1.28357162872658750000e-002) (12, 3.25651956045980680000e-001) (13, -6.01001284513062450000e-001) (14, 2.82839728562175980000e-001) (15, 2.06530049159077830000e-002) (16, -1.03455495588239470000e-001) (17, -1.43025760210776840000e-001) (18, 3.16813679418767980000e-001) (19, -4.65061959673185030000e-001) (20, -1.38372535305971540000e-001) (21, -1.20783149016604770000e-001) (22, 8.37798747605829730000e-001) (23, 3.24868170005864380000e-001) (24, 4.90277912148087750000e-001) (25, -2.45478003563913780000e-001) (26, 6.09655221682840590000e-001) (27, -9.77010525041360910000e-002) (28, 6.91861359172709630000e-002) (29, 2.32143834941166550000e-002) (30, 5.20515674222050250000e-001) (31, -7.22650456247651340000e-001) (32, 7.57166387059490460000e-001) (33, 2.99648443067561170000e-001) (34, 5.68718941775967490000e-001) (35, -2.10890751456419000000e-001) (0, 3.23202400659598270000e-001) (1, -6.89708781029283250000e-003) (2, 6.46393521542993900000e-002) (3, -5.19655598182318800000e-002) (4, 2.68485755192313600000e-001) (5, 8.03061101940002330000e-002) (6, -7.12946600946623850000e-002) (7, -2.49757013609351600000e-002) (8, -7.33230792214156350000e-002) (9, -4.09725465003397290000e-001) (10, 2.45699062727973260000e-001) (11, -4.76070130995362860000e-002) (12, 1.59181310807956970000e-001) (13, 1.14266071637543080000e-001) (14, 1.60616858283116700000e-001) (15, -5.05734464399396760000e-002) (16, -9.93635197363954840000e-002) (17, 5.35971254210053510000e-002) (18, 2.82497158979432620000e-001) (19, 7.09860416957453920000e-002) (20, 7.11542195480737940000e-001) (21, -1.42187452653580130000e-001) (22, 4.53058341940915600000e-001) (23, 6.97104069111119520000e-002) (24, 6.34782128523306700000e-002) (25, 7.34213444664092300000e-002) (26, 3.89178946457788440000e-001) (27, 9.16159248156546010000e-002) (28, 3.88065761713112860000e-001) (29, 4.02807872671005350000e-002) (30, 4.51428703244757090000e-001) (31, -5.42703078269696220000e-002) (32, 2.43112717637247680000e-001) (33, -1.28692121887451190000e-001) (34, 4.22705558285498880000e-001) (35, 5.65207094489451470000e-002) (0, 3.45608191410191450000e-001) (1, -1.04158040618392360000e-001) (2, -4.85007710625808160000e-001) (3, 1.09564316935706740000e+000) (4, 1.99961837606284280000e-001) (5, 2.08914745090763660000e-001) (6, -2.23304191501666800000e-001) (7, 6.48398216169151500000e-001) (8, -1.28573815554055340000e-001) (9, 3.39422706808468200000e-001) (10, -1.37227317079968510000e+000) (11, 1.28386236772572160000e-001) (12, -1.27934524398858610000e-001) (13, 5.87077311171080530000e-001) (14, 6.64621972003600510000e-001) (15, 2.97440016598645660000e-001) (16, 3.39795132269612830000e-001) (17, 3.88932993775444270000e-001) (18, 7.53550195984984410000e-001) (19, 5.96170432187771880000e-001) (20, 9.39845722454084600000e-001) (21, 9.25496855793844640000e-002) (22, 6.84222892695427050000e-002) (23, 8.46085842609477360000e-002) (24, -1.99386660919057950000e+000) (25, 3.39906620970765570000e-001) (26, 2.76385687851070090000e-002) (27, 1.16630865503653470000e-001) (28, -4.06884604756591880000e-001) (29, 1.94165892916949660000e-001) (30, -2.84344300973207730000e-002) (31, 3.29921269259472240000e-001) (32, -4.78355959383003740000e-001) (33, 3.74137538849316160000e-001) (34, 5.85467723706751260000e-002) (35, 4.83244518618295480000e-001) (0, 2.63723640007670730000e-001) (1, -9.53792306082727890000e-002) (2, 2.96859073255942020000e-001) (3, -4.22365557670084240000e-002) (4, 6.21302675484943560000e-001) (5, 1.07131061765598150000e-001) (6, -3.09569681688756700000e-001) (7, -6.30593704579368590000e-002) (8, -1.51734945624218460000e-001) (9, -3.68715942907932800000e-001) (10, 7.06391581785634880000e-001) (11, 1.17346078103574570000e-001) (12, 7.91788081958130770000e-003) (13, -1.13259712495491550000e-002) (14, 1.10665685663786250000e-001) (15, -1.26000693657643210000e-001) (16, -8.08088319599090940000e-002) (17, 7.19015690531378120000e-002) (18, 2.53358974951489850000e-001) (19, -6.19119095033383580000e-002) (20, -5.04847654681810030000e-001) (21, -1.63720656099449860000e-001) (22, 4.46130851603312950000e-001) (23, 4.80105394040761450000e-002) (24, 1.37880069429754670000e-001) (25, 5.12121839143660360000e-002) (26, 3.80170157261047030000e-001) (27, 9.70674390761271450000e-003) (28, 4.14536709373185710000e-001) (29, 5.69372816559266390000e-002) (30, 2.68335815897167600000e-001) (31, 5.84311098680373310000e-002) (32, -1.11475670606429880000e-001) (33, -4.60383120620634770000e-002) (34, 3.18744375095731560000e-001) (35, 4.34835998796770790000e-002) (0, 5.09495739712594210000e-001) (1, 7.28448465251399170000e-001) (2, 6.21071737017650500000e-002) (3, -8.91725916226598500000e-002) (4, -1.90487815989424410000e-001) (5, -5.61688055105951590000e-002) (6, 6.81935471444895080000e-001) (7, 1.30776148139361060000e-001) (8, -2.94368309616992290000e-001) (9, 7.67777724402517900000e-001) (10, 1.68748739050376930000e+000) (11, -9.06333942947764590000e-001) (12, 3.83095245447030270000e-001) (13, -5.10842726232439980000e-002) (14, -8.29463330611507230000e-001) (15, 2.90039573238251750000e-001) (16, -2.70083764441121420000e-001) (17, -1.66589063208537390000e-001) (18, 3.24752997379135630000e-002) (19, 1.68296411138496300000e-001) (20, -3.88743410308416410000e-001) (21, 6.45980769615183580000e-001) (22, -5.26799563620494740000e-001) (23, -2.14551324316794720000e-002) (24, 4.67830354131556710000e-001) (25, 5.26416085964024120000e-001) (26, 3.98059293294066470000e-001) (27, -2.60073074782987900000e-002) (28, -2.89965876093577910000e-002) (29, 5.48419383310937980000e-002) (30, -3.16193484143837410000e-001) (31, 6.87503722913981210000e-001) (32, 4.99587498121315250000e-001) (33, 2.98357710954512470000e-001) (34, 5.41084899101156980000e-001) (35, -1.33202832242293790000e-001) (0, 1.05228284771046180000e+000) (1, -3.55080629098284420000e-002) (2, 7.33909082411059010000e-001) (3, -2.05534737285119230000e-001) (4, -2.72000451614919760000e-001) (5, 5.96611575833301040000e-001) (6, 3.20824344216220950000e+000) (7, 1.55711496741817330000e-001) (8, 6.15407384237922520000e-001) (9, 5.84736128694611780000e-002) (10, 3.21456058092821720000e+000) (11, -1.76140205597106580000e-001) (12, 5.78914463772260750000e-001) (13, -3.34390178901448180000e-001) (14, -1.30657334911145240000e+000) (15, 1.55882395181863920000e-001) (16, -1.64751080856803860000e+000) (17, -1.06045232145691060000e-001) (18, -9.06927044063905730000e-002) (19, -8.37367290767386180000e-003) (20, 2.03692534378309420000e-002) (21, 1.45965807057365330000e+000) (22, -1.33458848624766050000e+000) (23, 2.13639964401893760000e-001) (24, 6.91847815064473680000e-001) (25, 5.48777618232818790000e-001) (26, 1.07235304814333270000e-001) (27, -3.13060402123462370000e-001) (28, -1.39747945984844360000e-001) (29, 7.60456346156797030000e-002) (30, 1.29897658667653650000e-001) (31, 1.14084532786026170000e+000) (32, 5.59470496519140830000e-001) (33, 8.71162155167918950000e-001) (34, 1.34495528037010260000e-001) (35, 4.01567484520960190000e-001) (0, -7.80280725839083420000e-002) (1, 5.36275160675755650000e-001) (2, -4.00150181552190290000e-001) (3, 6.19891652299701560000e-001) (4, -4.47527867868582620000e-002) (5, 6.43619444916304520000e-001) (6, 5.82960183461988750000e-001) (7, 8.32875477854848170000e-001) (8, 2.80229567711859080000e-002) (9, 5.66027902960536180000e-001) (10, 4.29181200806154910000e-001) (11, 5.49452651106490550000e-001) (12, -1.42715037955628590000e-001) (13, 4.24002008996039570000e-001) (14, -2.20290298563037060000e-001) (15, 2.16853065059975650000e-001) (16, 1.05396143615970900000e-001) (17, 4.94846249907046450000e-001) (18, -3.31061648427890320000e-001) (19, 9.14100631388809150000e-001) (20, -5.04787084562002140000e-002) (21, 5.04301672607149530000e-001) (22, -3.71582889266078850000e-001) (23, 1.95406325925086110000e-001) (24, -3.78722263230836190000e-001) (25, 5.78198313298139420000e-001) (26, -2.34021261827628560000e-002) (27, 6.34464171342380310000e-001) (28, -1.49801219701845930000e-001) (29, 5.35485910317925030000e-001) (30, -3.95441532199725330000e-001) (31, 7.79135804357530490000e-001) (32, -2.11441274255000890000e-001) (33, 2.86218552191470470000e-001) (34, 5.65391519832312060000e-001) (35, 8.24112611668362140000e-001) (0, 7.22528306075049140000e-001) (1, -6.68208805733452180000e-002) (2, -1.51183814793749480000e-001) (3, 3.08122576675405320000e-002) (4, 1.14940692212479230000e-001) (5, 6.51266666084339000000e-002) (6, 3.56731224646571700000e-001) (7, 5.57982256239401150000e-002) (8, 3.78811077976577590000e-001) (9, 4.77942151134343320000e-002) (10, -9.13459913894403840000e-001) (11, -2.27497809842312550000e-001) (12, 3.16788905182254940000e-001) (13, 2.26278866782777430000e-002) (14, 2.47690619703451410000e-001) (15, -1.19967017855152790000e-001) (16, 6.95929402279339190000e-001) (17, -6.26005320531109430000e-003) (18, 7.16188947765249880000e-001) (19, -5.85000442181226040000e-002) (20, 7.28729695736851650000e-001) (21, -1.65112257682686340000e-001) (22, -1.26863019196311160000e-001) (23, -2.90704064685529230000e-001) (24, 4.27443891201262860000e-001) (25, 1.16200886119499070000e-001) (26, -2.41699618319621450000e-001) (27, -4.75625440551411540000e-002) (28, 2.47013513517520710000e-001) (29, 2.90625253811854080000e-002) (30, -4.39423466448857210000e-001) (31, 5.16623109390493690000e-002) (32, 4.95965371055621500000e-001) (33, -3.76536221339744680000e-003) (34, -1.67523591823687510000e-001) (35, 1.09145221951861480000e-001) (0, -5.69114157191591860000e-001) (1, -1.14763559394700070000e-001) (2, 1.09702621969577450000e+000) (3, 2.22064201477694570000e-001) (4, -5.87967754532056070000e-002) (5, 2.11120597798997170000e-001) (6, 5.55905291409437560000e-001) (7, 2.88904934999599570000e-001) (8, -2.50945763311834380000e-001) (9, 3.15629675099522670000e-001) (10, 7.23445948494398580000e-001) (11, 6.84145049648599010000e-001) (12, -1.89216559271877440000e-001) (13, 4.53782631450460110000e-001) (14, -6.95184317456416620000e-001) (15, 3.27724003601730430000e-001) (16, -3.81495111827645170000e-001) (17, 3.19897454888648620000e-001) (18, -9.14886082483762130000e-001) (19, 3.18551521684044770000e-001) (20, -3.58781194717897770000e-001) (21, 2.35951410161303330000e-001) (22, 2.31460488171168210000e-001) (23, 4.40288703162680480000e-001) (24, 2.34992422745893690000e-001) (25, 7.79613054848077520000e-001) (26, 6.81182005809284760000e-002) (27, 4.39242441451229590000e-001) (28, 3.70284026507504640000e-001) (29, 5.83795793951165760000e-001) (30, -4.74047307135573580000e-002) (31, 3.74238188224289110000e-001) (32, 1.46783276926931130000e-001) (33, 5.03822318685214430000e-001) (34, 1.65170203980241010000e-001) (35, 3.26266365549004900000e-001) (36, -2.06503307940126900000e-002) (37, -4.41164386075208610000e-002) (38, 3.78826061251024140000e-002) (39, 2.22425413398169960000e-001) (40, -3.97848525635142720000e-002) (41, -5.24220515613928350000e-001) (42, 1.37225248231619690000e-002) (43, 5.73207442480971220000e-001) (44, -7.10390464305739740000e-002) (45, 6.40047043086333870000e-001) (46, -6.34157553013530720000e-002) (47, 3.87032013083817680000e-001) (48, 5.76699828730509040000e-002) (49, -5.68965389327553920000e-001) (50, 8.17103769652596790000e-002) (51, 2.27528114047171270000e-001) (52, 6.17717095691539130000e-002) (53, 1.71912717332972090000e-001) (54, 9.60734688527165310000e-002) (55, -4.28347003071714720000e-002) (56, 7.81594851314932750000e-002) (57, 6.85152024227200450000e-001) (58, 1.01633606575034940000e-001) (59, 1.35294495748496280000e-001) (60, 9.85330205913326070000e-002) (61, 1.88134186182171230000e-001) (62, 4.20083615459245640000e-002) (63, 1.96308469649622120000e-001) (64, 3.99710580800514750000e-001) (65, -6.28108456615104280000e-001) (66, 5.00599913203542140000e-001) (67, 7.52247864634477680000e-001) (68, 7.45401003119352400000e-002) (69, 1.19815979892848410000e-001) (70, 2.31999676659579100000e-001) (71, 4.80752561675783370000e-002) (72, -5.64178564849294320000e-003) (36, 3.44111512902014030000e-001) (37, -2.92225298410436210000e-001) (38, 5.08331436281853070000e-001) (39, -5.08358317435343150000e-002) (40, 7.87580471431253150000e-002) (41, -1.93226273497735750000e-001) (42, 5.09231290665380530000e-001) (43, 1.15696449931866300000e-001) (44, -1.36223729374405020000e-001) (45, 2.85847351877560380000e-001) (46, -1.39226659106652160000e-001) (47, 4.21746962335393880000e-001) (48, 3.04933045521334380000e-001) (49, 2.99549744659866950000e-001) (50, -1.40477201699650140000e-002) (51, -2.12134965185747200000e-001) (52, -1.67628128585043670000e-001) (53, -1.78036046888157790000e-002) (54, 1.81218209156971340000e-001) (55, -2.17839941528081280000e-001) (56, -1.16985447837732280000e-001) (57, -4.96178752663768010000e-004) (58, 2.59974548757650640000e-001) (59, 2.79383728734369900000e-001) (60, 2.62824890596999040000e-001) (61, -1.56762059758574990000e-001) (62, 2.98573182145315030000e-001) (63, 2.57693940073474780000e-002) (64, 4.20068495513507780000e-001) (65, -1.29442723413985160000e-001) (66, 4.21588270926779200000e-001) (67, -7.82445727945067640000e-002) (68, -3.04914507583895160000e-001) (69, 2.70332214927616830000e-001) (70, 3.20164895417342110000e-001) (71, -1.34960301621203480000e-001) (72, 2.54402038908988830000e-001) (36, 5.32663633283069430000e-001) (37, -4.56683112273927050000e-003) (38, 3.04478380017735310000e-001) (39, 8.23476785393960770000e-002) (40, 2.33098755305525980000e-001) (41, 1.75814040476888310000e-001) (42, 6.56300810952437530000e-001) (43, 6.95213142836282740000e-002) (44, -2.99902062869465140000e-001) (45, 9.17930431311278910000e-002) (46, -3.91741663847356810000e-001) (47, 6.07985380544981520000e-001) (48, 1.97597488067111970000e-001) (49, 1.91396316099707310000e-001) (50, 3.22973887106386280000e-002) (51, 2.99431764106464830000e-001) (52, -4.20562465058070210000e-001) (53, -2.04669920174143900000e-001) (54, 2.74689414441671160000e-002) (55, -2.62652306455025460000e-001) (56, -2.51983360983545790000e-001) (57, -1.39341656585478400000e-001) (58, 1.64852126251043060000e-001) (59, -3.45733362380529710000e-001) (60, 1.64376052025199000000e-001) (61, 3.11987558817677230000e-002) (62, 1.41085036053135830000e-001) (63, 6.27128852881339850000e-002) (64, 7.05365924816385600000e-001) (65, -4.44838239050488050000e-002) (66, 7.24451618460159600000e-001) (67, 9.01020955299398630000e-002) (68, 2.18976077481679650000e-003) (69, 1.97560866972816270000e-001) (70, 6.43556670137535040000e-001) (71, -3.09869104033610620000e-001) (72, 4.53562069604364350000e-001) 
