FANN_FLO_2.1
num_layers=3
learning_rate=0.700000
connection_rate=1.000000
network_type=0
learning_momentum=0.000000
training_algorithm=2
train_error_function=1
train_stop_function=0
cascade_output_change_fraction=0.010000
quickprop_decay=-0.000100
quickprop_mu=1.750000
rprop_increase_factor=1.200000
rprop_decrease_factor=0.500000
rprop_delta_min=0.000000
rprop_delta_max=50.000000
rprop_delta_zero=0.100000
cascade_output_stagnation_epochs=12
cascade_candidate_change_fraction=0.010000
cascade_candidate_stagnation_epochs=12
cascade_max_out_epochs=150
cascade_max_cand_epochs=150
cascade_num_candidate_groups=2
bit_fail_limit=3.49999999999999980000e-001
cascade_candidate_limit=1.00000000000000000000e+003
cascade_weight_multiplier=4.00000000000000020000e-001
cascade_activation_functions_count=10
cascade_activation_functions=3 5 7 8 10 11 14 15 16 17 
cascade_activation_steepnesses_count=4
cascade_activation_steepnesses=2.50000000000000000000e-001 5.00000000000000000000e-001 7.50000000000000000000e-001 1.00000000000000000000e+000 
layer_sizes=36 27 4 
scale_included=0
neurons (num_inputs, activation_function, activation_steepness)=(0, 0, 0.00000000000000000000e+000) (0, 0, 0.00000000000000000000e+000) (0, 0, 0.00000000000000000000e+000) (0, 0, 0.00000000000000000000e+000) (0, 0, 0.00000000000000000000e+000) (0, 0, 0.00000000000000000000e+000) (0, 0, 0.00000000000000000000e+000) (0, 0, 0.00000000000000000000e+000) (0, 0, 0.00000000000000000000e+000) (0, 0, 0.00000000000000000000e+000) (0, 0, 0.00000000000000000000e+000) (0, 0, 0.00000000000000000000e+000) (0, 0, 0.00000000000000000000e+000) (0, 0, 0.00000000000000000000e+000) (0, 0, 0.00000000000000000000e+000) (0, 0, 0.00000000000000000000e+000) (0, 0, 0.00000000000000000000e+000) (0, 0, 0.00000000000000000000e+000) (0, 0, 0.00000000000000000000e+000) (0, 0, 0.00000000000000000000e+000) (0, 0, 0.00000000000000000000e+000) (0, 0, 0.00000000000000000000e+000) (0, 0, 0.00000000000000000000e+000) (0, 0, 0.00000000000000000000e+000) (0, 0, 0.00000000000000000000e+000) (0, 0, 0.00000000000000000000e+000) (0, 0, 0.00000000000000000000e+000) (0, 0, 0.00000000000000000000e+000) (0, 0, 0.00000000000000000000e+000) (0, 0, 0.00000000000000000000e+000) (0, 0, 0.00000000000000000000e+000) (0, 0, 0.00000000000000000000e+000) (0, 0, 0.00000000000000000000e+000) (0, 0, 0.00000000000000000000e+000) (0, 0, 0.00000000000000000000e+000) (0, 0, 0.00000000000000000000e+000) (36, 5, 5.00000000000000000000e-001) (36, 5, 5.00000000000000000000e-001) (36, 5, 5.00000000000000000000e-001) (36, 5, 5.00000000000000000000e-001) (36, 5, 5.00000000000000000000e-001) (36, 5, 5.00000000000000000000e-001) (36, 5, 5.00000000000000000000e-001) (36, 5, 5.00000000000000000000e-001) (36, 5, 5.00000000000000000000e-001) (36, 5, 5.00000000000000000000e-001) (36, 5, 5.00000000000000000000e-001) (36, 5, 5.00000000000000000000e-001) (36, 5, 5.00000000000000000000e-001) (36, 5, 5.00000000000000000000e-001) (36, 5, 5.00000000000000000000e-001) (36, 5, 5.00000000000000000000e-001) (36, 5, 5.00000000000000000000e-001) (36, 5, 5.00000000000000000000e-001) (36, 5, 5.00000000000000000000e-001) (36, 5, 5.00000000000000000000e-001) (36, 5, 5.00000000000000000000e-001) (36, 5, 5.00000000000000000000e-001) (36, 5, 5.00000000000000000000e-001) (36, 5, 5.00000000000000000000e-001) (36, 5, 5.00000000000000000000e-001) (36, 5, 5.00000000000000000000e-001) (0, 5, 0.00000000000000000000e+000) (27, 5, 5.00000000000000000000e-001) (27, 5, 5.00000000000000000000e-001) (27, 5, 5.00000000000000000000e-001) (0, 5, 0.00000000000000000000e+000) 
connections (connected_to_neuron, weight)=(0, 1.52252256935476080000e+000) (1, 5.81360520013146980000e-001) (2, -1.38170792493534000000e+001) (3, -5.74231978144971400000e-001) (4, 8.35070810103203390000e-001) (5, -2.88973820001306430000e+000) (6, -7.35229977123174510000e-001) (7, -1.52759401912690270000e-001) (8, 2.22933378442451440000e+001) (9, 6.02445059096349490000e-001) (10, -3.26432020258606670000e+000) (11, 7.50279031224177910000e-002) (12, 4.00093199161792250000e+000) (13, 1.34814533716912990000e-001) (14, -7.26662098183902660000e+000) (15, 1.12934235679154130000e+000) (16, 2.38164923966864710000e+000) (17, -5.67446354849896360000e-001) (18, 4.09756771968701730000e+000) (19, 1.01440226503126900000e+000) (20, 3.73547804079271330000e+000) (21, 1.78594197899182770000e-001) (22, -4.89053055275639190000e-001) (23, -2.77513147292298980000e-001) (24, 2.94433876250917490000e-001) (25, 2.00834420751911850000e-001) (26, 6.76751673732841760000e-002) (27, -4.76624385161463270000e-001) (28, 1.44638883665393040000e+000) (29, 5.63426512287970250000e-001) (30, -3.99894354899969990000e-001) (31, -5.46852981528889170000e-001) (32, -4.17964064303821830000e-001) (33, -1.73198964159415350000e-001) (34, -1.38598063496181750000e+001) (35, 7.54056574032513030000e-001) (0, -1.30537629988685800000e+001) (1, 2.92531008631768900000e-001) (2, 2.41598321309312650000e+000) (3, 1.66480720681015080000e-001) (4, -1.90764670933021280000e+001) (5, 1.02231814711198780000e+000) (6, 1.34263289642321840000e+001) (7, 1.64638554483748840000e-001) (8, 6.40142360569154520000e+000) (9, 7.66310783430684930000e-001) (10, 7.58698887734946650000e-001) (11, -4.86241184194760090000e-001) (12, 1.59625065091706600000e+000) (13, -1.42417299485938230000e-001) (14, 2.12642230596776560000e+000) (15, 2.16619170506803680000e+000) (16, -3.23101840349709290000e-001) (17, 1.35014178330869550000e+000) (18, -1.02527294381060730000e+001) (19, -1.48222543274031000000e-001) (20, -5.45284911046831500000e+000) (21, 1.16822748624131980000e+000) (22, 2.43939700534543700000e+000) (23, 5.67907784898997510000e-001) (24, -8.40234728949285300000e-001) (25, 1.28639568976345340000e+000) (26, 6.76466174970892280000e+000) (27, 6.58212813467319300000e-002) (28, 3.25360147583943070000e+000) (29, -3.76143936948054520000e-002) (30, -2.05952890074090610000e+000) (31, 4.56319070705196840000e-001) (32, 4.74584595337790120000e+000) (33, -9.94923611222946700000e-001) (34, -5.55470742522414800000e+000) (35, 1.82492650323536380000e-002) (0, -2.28904319305310580000e+001) (1, -2.10206293377763700000e-001) (2, 9.30832999273408680000e-001) (3, 1.35825512856098480000e-002) (4, 9.03435140320002540000e+000) (5, -1.51399995207919650000e+000) (6, -4.54402289656009590000e-001) (7, 4.58467543013557350000e-001) (8, -3.32799125324288750000e+000) (9, -8.57911309920935780000e-001) (10, -3.75753878859489900000e+000) (11, 1.16657013223540450000e+000) (12, 1.24767301551621570000e+000) (13, 1.93885429131177320000e+000) (14, 4.82201664039585420000e-001) (15, 4.12859583629715700000e-001) (16, 1.10554905039959390000e+000) (17, -6.13923804118787890000e-001) (18, -6.56645875782484370000e+000) (19, -6.36844427251894720000e-001) (20, 1.00525456648926090000e+000) (21, -5.97385656359070820000e-001) (22, 9.61469566716960930000e-001) (23, -1.43654407924173220000e-001) (24, 1.31353366486093150000e+000) (25, 1.83905260930372850000e-001) (26, -3.14079931521382250000e+000) (27, -1.03085791775112510000e-001) (28, -8.20513031914252570000e-002) (29, -6.29731808674413140000e-001) (30, -3.79022603246155050000e-001) (31, -5.06972638639647370000e-001) (32, 3.41133594734306290000e+000) (33, -2.27099627989114160000e+000) (34, 1.27393233026091670000e+001) (35, 8.21888796720596890000e-001) (0, 3.44835773649268030000e+000) (1, 6.30012674812242990000e-001) (2, 6.40105605045784460000e+000) (3, 1.16404210367802370000e-001) (4, -2.89501338048567720000e+000) (5, 1.12341454305115600000e+000) (6, 1.37498672864548120000e-001) (7, 1.22274512453897730000e-002) (8, 1.05802760464925920000e+000) (9, 2.33167610050228010000e+000) (10, -2.35671538176834080000e+000) (11, 2.98558281620017130000e-001) (12, 3.53212650368529110000e+000) (13, 1.16425212222453390000e+000) (14, -4.73968015350982670000e-002) (15, 4.17764479152980210000e-001) (16, 2.13385404251864050000e+000) (17, 5.40564862762979330000e-001) (18, 6.86674376986987490000e-002) (19, -1.90753622672796410000e-001) (20, 1.78459840017680240000e+001) (21, 1.42673027383089200000e+000) (22, -1.15306487878929000000e-001) (23, -1.74758886897841310000e+000) (24, 7.76949199676915450000e-001) (25, 4.65970439285046170000e-001) (26, -2.28322727942482780000e+000) (27, 8.87152978667913650000e-001) (28, 2.21159724784668920000e+000) (29, 4.20929837968513270000e+000) (30, -1.23025192843833860000e+000) (31, -6.92803296807960490000e-001) (32, 2.71061937126135090000e+000) (33, 5.47222323660951910000e+000) (34, -2.55297543117635910000e+000) (35, -5.42954510570886410000e-002) (0, -1.92381921470423180000e-001) (1, -5.67702758340275160000e-002) (2, -2.47164802979822000000e+000) (3, 1.15859340323594910000e+000) (4, -1.09082315324840580000e+000) (5, 4.63371613829892500000e-001) (6, 6.67457608074521240000e+000) (7, 8.06771052173627880000e-001) (8, 5.77193055929741660000e+000) (9, 8.13438328959150690000e-001) (10, -2.55826273758393750000e+000) (11, 5.68109557017216220000e-001) (12, 6.39758470098584820000e+000) (13, 7.98328957182236340000e-002) (14, 3.52222226578071630000e+000) (15, 6.64151408869643410000e-001) (16, 9.82558711916598830000e-001) (17, 1.30453757493453630000e+000) (18, 1.09529611328733020000e+000) (19, 2.79667351188023110000e-001) (20, 1.59661149429702130000e+000) (21, -3.29598372819499390000e-001) (22, 2.45548002773366660000e+000) (23, 7.75264413681074210000e-002) (24, 2.43244252538067180000e+000) (25, 6.29862271137380030000e-001) (26, -2.93707234013254400000e+000) (27, 9.46768920524842290000e-001) (28, 1.15542700176458130000e+001) (29, 9.74870263146312980000e-001) (30, 1.78641439555608090000e+000) (31, 9.31178890831707570000e-001) (32, 6.16344638280209910000e-001) (33, -2.51129710265125850000e+000) (34, 5.87491327922426710000e+000) (35, -3.92721227182433020000e-001) (0, 6.78031025249955020000e+000) (1, 1.02415142333365950000e+000) (2, 2.35681468920569870000e+000) (3, -1.66676037488088870000e-001) (4, -2.56953052499769590000e+000) (5, 1.45435764806744870000e+000) (6, 2.89288175533117450000e+000) (7, 9.09789398759402680000e-001) (8, 4.95342023596741670000e+000) (9, 2.75276234217153350000e+000) (10, -1.54612389523499230000e+001) (11, 2.07899851157514120000e-002) (12, 5.98092304444417850000e-001) (13, 4.72290469636049370000e-001) (14, 5.79232017252698390000e+000) (15, 4.34000890589661130000e-001) (16, -2.35410552781050300000e+000) (17, 1.95218502298694090000e-001) (18, 4.54985832037950380000e+000) (19, 6.17908138116189280000e-001) (20, -1.14873313951913160000e+000) (21, 4.31531474139835560000e-001) (22, 4.84873978302935170000e+000) (23, -7.82832153259394930000e-001) (24, 2.89715104261669640000e+000) (25, 3.89681934652204860000e+000) (26, -6.05313929039504540000e-001) (27, 7.80957923022405740000e-001) (28, 2.94091517611148760000e+000) (29, 5.80530401184280560000e-001) (30, 2.60696728342197390000e+000) (31, 3.99731022882999170000e-001) (32, -2.57242961746148380000e+000) (33, 1.92717665112643120000e+000) (34, -3.30114087145633170000e-002) (35, -4.36567845948434120000e-001) (0, 7.31274976426815120000e+000) (1, 6.37991481611143720000e-001) (2, 6.73954227651047330000e+000) (3, -1.41256703550082260000e+000) (4, -6.35860951709874330000e-001) (5, -2.61404650581095080000e-001) (6, 1.41041199501795500000e+000) (7, -5.23709354369064410000e-001) (8, 9.87725901579898040000e+000) (9, 2.78398433790263080000e-001) (10, 2.82180687142848230000e+000) (11, -3.63472857543155390000e-001) (12, 6.29471464293056560000e+000) (13, -7.06802874251018950000e-001) (14, 3.86394940229422930000e+000) (15, -4.13049674950164590000e-001) (16, -7.03920600274475560000e+000) (17, 9.86670505365899510000e-001) (18, 3.94908589979151630000e-001) (19, 1.99142776927673880000e-001) (20, -4.95181688358044880000e+000) (21, -1.30605660745304110000e+000) (22, 4.74378245095909360000e+000) (23, -1.13669301917606850000e+000) (24, 5.41890443510551380000e-001) (25, -7.13768607482657140000e-001) (26, -1.34459784649139990000e-001) (27, -1.01618931725003650000e+000) (28, 1.22061204798232410000e+000) (29, 1.41996921663438250000e-001) (30, 1.15914026341037250000e+001) (31, 5.58924475310031530000e-001) (32, -2.84295385958039310000e+000) (33, 1.38146374721026910000e+000) (34, 6.47106930258849690000e-001) (35, -6.86485787969660530000e-001) (0, 5.90370653901579720000e-001) (1, 3.50951800963325790000e-001) (2, 1.53286328270987690000e+000) (3, 6.71022905182369960000e-001) (4, -5.00195164287174370000e-001) (5, 1.67449860846611620000e-001) (6, 1.35185504231893940000e+001) (7, -2.85269197310872300000e-001) (8, 1.57918977905317610000e+000) (9, 4.41699408869900780000e-001) (10, 4.63043993922012030000e+000) (11, 2.25412824984174630000e-002) (12, 2.98691648498846260000e+000) (13, -6.95917029546505250000e-001) (14, -2.77835453082633510000e+000) (15, -2.15523056556300860000e-001) (16, -1.43389313185906770000e+000) (17, -4.24391929875441660000e-001) (18, 3.72538375859063020000e+000) (19, -1.37260995961014220000e+000) (20, 1.87602590383233100000e-001) (21, 3.67704501022775630000e-001) (22, -2.97781941912790390000e-001) (23, -1.58565454633889070000e+000) (24, -3.87648524760200340000e-001) (25, 1.01270277857008040000e+000) (26, 8.65790632572446130000e+000) (27, 3.87293493317567290000e-001) (28, -5.63017070716043340000e-001) (29, 1.06869701329580830000e-001) (30, -1.05881020768149270000e+000) (31, -5.57462426114795460000e-001) (32, 3.56376638721242590000e+000) (33, 4.54290611782361190000e-001) (34, 8.71242492568294050000e+000) (35, -4.49220369481235560000e-001) (0, 2.23643813045702910000e+001) (1, -2.86851106994549310000e-002) (2, 2.39761285460924720000e+001) (3, 4.94990351056047380000e-001) (4, 4.32586468452724220000e+000) (5, -2.65113265888603510000e-001) (6, 1.56186489365714750000e+001) (7, -5.28818469179864410000e-001) (8, 1.02992517576259930000e+000) (9, 4.92009626859421180000e-001) (10, 1.48480476292492990000e+001) (11, -1.35104083898545710000e+000) (12, 4.37647895246037870000e+000) (13, -2.58888088825099890000e-001) (14, -2.09023051087720330000e+001) (15, 8.54122378735404750000e-001) (16, -9.42621921011254040000e+000) (17, 1.26032073938270230000e+000) (18, 3.56681630273988250000e-001) (19, -1.05383635680271990000e-001) (20, -1.34246979420978320000e+000) (21, -3.03309205184646100000e-001) (22, 6.32722714562227840000e+000) (23, -3.32585791320028970000e-001) (24, 4.00559852266944680000e-001) (25, 3.42081107802887230000e+000) (26, -1.61772994742701960000e+001) (27, -1.54046569804831490000e+000) (28, 5.41812681523293630000e+000) (29, -5.91594679084644030000e-001) (30, 3.98450116261932150000e-002) (31, 3.87770340688473050000e-001) (32, 9.55141301377522180000e-001) (33, 1.28836041763628880000e+000) (34, 5.42923042026876600000e+000) (35, -3.15471639644004430000e-001) (0, 1.78100076531893920000e+000) (1, 2.22658455381497240000e+000) (2, -4.42189640447462510000e+001) (3, 4.53944935820162210000e-002) (4, 4.28509656556216590000e-001) (5, -1.47389544599695300000e-001) (6, 4.71492908487679330000e+000) (7, 2.40433745949853920000e-001) (8, 2.12678511949376150000e+000) (9, 1.43574497597683410000e+000) (10, 4.74803728739708400000e+000) (11, -1.10995357857913060000e+000) (12, 1.12603182461202080000e+001) (13, 7.44066061783881520000e-002) (14, -1.56112851976849720000e+000) (15, -5.39626313210956820000e-003) (16, 7.55199986150889120000e-001) (17, -5.98703042269976500000e-001) (18, 1.41524926565566660000e+000) (19, 1.65449563992414710000e+000) (20, -8.21502061703111020000e-001) (21, 2.30833677351112710000e-001) (22, -4.74028059571550030000e+000) (23, -5.76504025550009460000e-001) (24, 2.03250299377787870000e+000) (25, 2.20523840001252470000e-001) (26, 4.89223333251234040000e+000) (27, -1.53520819744633190000e-002) (28, 3.98849387201899040000e+000) (29, 1.66060897305966980000e+000) (30, 1.02013110201465550000e+000) (31, 2.19587788252385210000e+000) (32, -3.94688283809498160000e-001) (33, 1.34519929323257290000e+000) (34, 2.57001681103172790000e+001) (35, -1.93958262584188130000e-001) (0, -1.65631912712406300000e+001) (1, -6.79256767475010400000e-001) (2, 2.50372952184876320000e+001) (3, 9.06954996447190690000e-001) (4, 1.66106518584619280000e+001) (5, -6.56109316633177180000e-002) (6, 3.78587412138165600000e+000) (7, 9.04034092680566090000e-002) (8, 1.50277919089784140000e+000) (9, -7.11562380477286930000e-001) (10, 8.69819153176785260000e-001) (11, 2.62958993225248290000e+000) (12, -1.22800635411981430000e+000) (13, 1.32153239576303940000e+000) (14, 3.59975556520991340000e-001) (15, -9.88681482233717990000e-001) (16, -1.53671735201241740000e+001) (17, 1.02176717814679670000e+000) (18, -1.02338221752739720000e+000) (19, 4.43418145968125230000e-001) (20, 1.87764824808270840000e+000) (21, 2.63497502214194770000e-001) (22, 1.35974437470181050000e+000) (23, 8.66898518811328400000e-001) (24, 4.25893489913063310000e+000) (25, 2.58918703696161600000e-001) (26, 5.19308399138930010000e+000) (27, 3.28512071299567670000e-001) (28, 7.51514300185733570000e+000) (29, -1.10724120085235800000e+000) (30, 2.82285705035172500000e-002) (31, -2.23804293465686810000e-001) (32, 9.56397712014902800000e+000) (33, 1.06405336633766210000e+000) (34, 2.06942513816620570000e-001) (35, -1.52034630610355020000e-001) (0, -1.09223539827027660000e+001) (1, 8.68322968107326450000e-001) (2, 9.16081845529237880000e+000) (3, -1.78463848240117600000e-001) (4, 4.81272687187349750000e+000) (5, 1.68810930269193580000e+000) (6, -5.88240572251960800000e-001) (7, 1.85948383999653170000e-002) (8, 5.24793858862458440000e-001) (9, 2.01092141968796770000e+000) (10, -5.54607760692086060000e+000) (11, 2.94826920067406240000e-001) (12, 1.06125459578915820000e+000) (13, 2.09612514999653320000e+000) (14, -4.25746870970553990000e+000) (15, 2.59984270218296130000e+000) (16, 3.59681844298460930000e+000) (17, 2.31929268511508080000e-001) (18, -6.52996439270545630000e+000) (19, 3.18023793127232560000e-001) (20, 1.69996765971853060000e-001) (21, 1.24558688911688860000e+000) (22, -3.06492318153217180000e+000) (23, 3.95471027994629080000e-001) (24, 2.05706598553250910000e+000) (25, 1.10371424764683930000e+000) (26, 8.22019642347690290000e+000) (27, 1.01106976144521980000e+000) (28, 1.01245140101130370000e+000) (29, 2.63632717579256240000e+000) (30, -2.03671858135127420000e-001) (31, 4.09681487100665710000e-001) (32, 6.86500550426838800000e+000) (33, 2.80836151640536970000e+000) (34, -1.37631409169989580000e+001) (35, 6.25755701338432280000e-001) (0, -1.87274378540904540000e+000) (1, 7.84246031543343460000e-002) (2, -2.51478590642688630000e-001) (3, 9.38181545266718040000e-002) (4, -1.53405455800778650000e+000) (5, 7.78535518465503510000e-001) (6, 5.32265900105311120000e+000) (7, 2.64765745150328300000e-001) (8, -5.86066565824761020000e+000) (9, 2.57519534649422840000e-002) (10, -6.62382699749552770000e-001) (11, 3.33066204362350130000e-001) (12, -4.09401497945395710000e-001) (13, 8.85123972722532290000e-001) (14, 4.36256259812952060000e+000) (15, -4.99123938785927870000e-001) (16, -2.05273844964553030000e+000) (17, 1.19289358813655940000e+000) (18, 2.30778609034008570000e+001) (19, 2.90727378646088720000e-001) (20, 1.50691024262532610000e+001) (21, 2.49492924601757090000e-001) (22, -2.16799673820150700000e-001) (23, -2.77117444348379930000e-001) (24, -3.10750719167160630000e-001) (25, 6.05935019425938080000e-001) (26, 4.25805551660958630000e-001) (27, -7.96525557712869510000e-002) (28, 3.03599911205209950000e+000) (29, -3.03426673149874250000e-002) (30, 2.43644234964649040000e+000) (31, 7.04007700896340350000e-001) (32, 2.31952223858372660000e-001) (33, 1.06310650800693000000e+000) (34, -6.58485489492968030000e-001) (35, 8.35573659297207730000e-001) (0, 1.43067646155132430000e+001) (1, 2.61212000199454670000e-001) (2, 6.89000381694016180000e+000) (3, -2.67292374311493610000e-001) (4, 1.92778350592403270000e+000) (5, -6.83882310770241420000e-001) (6, 4.04440492491118020000e-001) (7, -1.10096229714717200000e+000) (8, 1.85784010671914060000e+000) (9, 4.42859986790137440000e-001) (10, 2.98896931016296060000e+000) (11, 1.91716272932974660000e-002) (12, 3.10305596704405320000e+000) (13, -2.76086269962138210000e+000) (14, -1.21939407164200940000e+001) (15, 3.26447885745862750000e-001) (16, 1.33038367949327240000e+000) (17, -3.84003792262519020000e-001) (18, 6.90254597341708020000e-001) (19, 2.00992190707282940000e-001) (20, -1.40964145321434530000e+000) (21, 8.81311217235803300000e-001) (22, 4.07646813562327370000e+000) (23, -2.68392501844934290000e-001) (24, 1.06431419064405390000e+001) (25, -9.33353991221339000000e-001) (26, 2.85880794897825090000e-001) (27, 3.05387923682583990000e-001) (28, -5.29090448195004900000e+000) (29, -1.12807864862569790000e-001) (30, 1.03768698704886430000e+000) (31, -3.71388389003209200000e-001) (32, -1.31116381593811620000e-001) (33, 6.60279114795578660000e-001) (34, 5.94607181005582320000e+000) (35, -2.21194192090556070000e-001) (0, 1.83940053247297940000e+000) (1, -1.61095624248471650000e-001) (2, 2.35506956822060110000e+000) (3, -2.91327628448006410000e-001) (4, 2.88142297113092520000e+000) (5, -4.82572776613537590000e-001) (6, 2.10396415699687940000e+000) (7, -5.97496994387362480000e-004) (8, -3.48811412420269520000e+000) (9, -1.06348751723684760000e-001) (10, 4.13930290089098830000e+000) (11, 1.01959890117309030000e-001) (12, -1.28755518836382630000e+000) (13, -8.26098130075770600000e-001) (14, 2.27132765473355080000e+000) (15, 1.78948073753160770000e-001) (16, -4.26681694028711260000e+000) (17, 2.35032903530775020000e-001) (18, 6.49371910836796680000e-001) (19, -5.31967519284324060000e-001) (20, 7.16168319237537040000e-002) (21, -1.40823309952106750000e+000) (22, 5.69192794478770250000e-001) (23, -2.71156165516031330000e-001) (24, 3.19857183438610140000e-001) (25, 2.97219820118572700000e-002) (26, 2.86262675045245270000e+000) (27, 8.71614072562283680000e-003) (28, -1.70404386984311850000e-001) (29, 5.13212859643556010000e-001) (30, 1.30609461060839700000e-001) (31, 6.44780659587547290000e-002) (32, 4.27765596583341430000e+000) (33, -2.82403631976634650000e-001) (34, -1.21507624719516300000e-001) (35, 1.38325673420378050000e+000) (0, -1.42827168232395480000e+001) (1, 1.29620024414253930000e+000) (2, 7.66036114045307050000e+000) (3, 1.30719680796272960000e+000) (4, -6.23192942318889910000e+000) (5, 2.55282981648592260000e-001) (6, 1.99696056327519590000e+000) (7, -6.28290191906420160000e-002) (8, -2.18469178213878370000e+001) (9, 1.12223905068671100000e+000) (10, -3.45115054970683580000e+000) (11, 3.47227438501878320000e+000) (12, -2.61921066492866220000e+000) (13, 2.65095448609767640000e+000) (14, -4.04547501367516740000e+000) (15, 9.18470572004313480000e-001) (16, 3.61549583061192030000e+000) (17, 2.08737456943634210000e+000) (18, -8.82677224100622300000e+000) (19, 4.78515979323327000000e-002) (20, -5.11252195789873460000e-001) (21, 6.46296931932844540000e-001) (22, 2.62257958930564120000e+000) (23, 3.08064673048716210000e-001) (24, 2.45902040055143980000e+001) (25, 5.43922400656215440000e-001) (26, 2.36368538233182380000e+000) (27, 1.14912954610272180000e+000) (28, 7.00063630452821490000e-001) (29, 1.88538794789279880000e+000) (30, 7.44075580243446750000e+000) (31, 9.99862649673221800000e-001) (32, -7.16469130789516300000e-002) (33, 9.03471579718788750000e+000) (34, -6.59288002758071980000e-001) (35, 6.70115460229381070000e-001) (0, -3.85229924332233460000e+000) (1, 9.26822004584627270000e-001) (2, -6.45584800148823670000e+000) (3, -4.77345182036983950000e-002) (4, 1.04989543235301790000e+000) (5, 2.74386968542379590000e-001) (6, -5.31264851181538100000e-001) (7, 3.01669123816705030000e+000) (8, 7.24632050981924620000e-001) (9, 4.48881503683222330000e-001) (10, -1.01976076325016510000e+000) (11, 3.59737832318240580000e-001) (12, 1.34784477074837810000e+000) (13, 1.72881289937921560000e+000) (14, -4.33661816838038280000e-001) (15, 6.28077258205377630000e-001) (16, 4.80592321426688950000e+000) (17, 3.55749522668325380000e-001) (18, -4.47104934235022710000e+000) (19, 1.31044573455965190000e+000) (20, 9.62661345502825670000e-001) (21, -3.07697388706886510000e-001) (22, -1.92253784672196490000e+001) (23, 1.45197602937038980000e-001) (24, 2.88731784508619520000e+000) (25, 8.20418041445312050000e-001) (26, -3.53936111225003150000e+000) (27, 2.22752924181284940000e+000) (28, 2.20159762779718320000e+000) (29, -3.31437238671082770000e-001) (30, -3.65503700664898410000e+000) (31, 6.10416553074264390000e-002) (32, 1.90379268765628440000e-001) (33, 2.69166527252825190000e+000) (34, -3.39880403093623770000e+000) (35, 9.84615576919638190000e-001) (0, 1.40540859780559320000e+000) (1, 4.40062633694832620000e-001) (2, 5.17358148058137510000e+000) (3, -3.08778992751684740000e-001) (4, 2.48516415007928380000e+000) (5, -5.90146430356143340000e-001) (6, -6.53758914718252650000e-001) (7, -3.29835450259104300000e-002) (8, 6.15772238896156950000e-001) (9, -3.46965016661742070000e-001) (10, 7.01368594132513400000e+000) (11, 7.35180183918075820000e-001) (12, -6.65254545315074550000e-001) (13, -3.80595948772160410000e-001) (14, 1.57261727529819310000e+000) (15, -8.62695928984954950000e-001) (16, -6.83973029002519530000e+000) (17, 3.12342365499189180000e-002) (18, -9.69346634644870520000e+000) (19, -3.71900498370579150000e-001) (20, -6.84273618699434390000e+000) (21, -3.22536522478953650000e-001) (22, 4.95116359959098140000e-001) (23, 4.00206523591026650000e-001) (24, 1.50752088316614060000e+000) (25, 5.77347142910601270000e-002) (26, 4.71306649114352270000e-001) (27, -1.01510675452973430000e+000) (28, 9.56986794974984180000e+000) (29, -1.79722028781024830000e-001) (30, 2.79095322342399130000e+000) (31, -2.66643431768587190000e-002) (32, 5.13440402626231320000e+000) (33, 6.51655742703659340000e-001) (34, 2.91189724033684390000e+000) (35, -5.99131604604104530000e-001) (0, -1.01808424981217720000e+001) (1, -5.88440756585467910000e-001) (2, -1.81756322132467600000e+000) (3, 2.18321530997295050000e+000) (4, 2.02173052914433050000e-001) (5, -8.32553453789646510000e-001) (6, 2.49692364246224190000e+000) (7, 5.58875600678650610000e-001) (8, -5.15238937267259780000e-001) (9, 3.81103590918016160000e-001) (10, 1.66196135712148620000e+000) (11, -3.30489047262727380000e-001) (12, -1.10396979449555620000e+000) (13, 4.07834486480728950000e-001) (14, 1.06859781664982860000e+001) (15, 1.84296859514432730000e+000) (16, -9.96551765327155500000e-001) (17, 1.49997748355528260000e+000) (18, 2.33473775777872350000e+001) (19, 1.42942523702076770000e-001) (20, 4.04807886316915870000e+000) (21, 1.93822755152023930000e-001) (22, 2.07886187550273460000e+000) (23, 5.57948446260445260000e-001) (24, 4.09691943380966710000e+000) (25, 1.09892806731750370000e+000) (26, -1.29046332749426960000e+000) (27, 1.12302350228465020000e+000) (28, -2.27024749253478400000e+000) (29, 3.44225403920316090000e+000) (30, -1.13299539067948260000e+001) (31, 5.64329985985076110000e-001) (32, -1.62154704003728000000e+000) (33, 7.48043964752853170000e+000) (34, 8.55857367055450350000e-001) (35, 1.54915076588432950000e-001) (0, -3.61829658781850270000e+000) (1, 8.54598178260749020000e-001) (2, -9.05651728979696810000e+000) (3, 2.83974838479204350000e-001) (4, -1.15835274556019210000e+000) (5, 3.75409358055169970000e+000) (6, 2.28342321522354300000e+000) (7, 1.29475727537021500000e+000) (8, 1.45426278356093050000e+000) (9, 3.09207405863552600000e+000) (10, 3.27034553019271400000e+000) (11, -2.22348740294517070000e-001) (12, 9.53046128430604210000e-001) (13, 5.51546565912966690000e-001) (14, -1.12439432923159720000e+000) (15, -8.87954386435319650000e-001) (16, 6.52459750382199060000e-001) (17, 1.41174905410953920000e+000) (18, -1.72248610136266640000e+000) (19, -1.66935731510744130000e-002) (20, 1.84823630295598560000e+000) (21, 1.23237932887120850000e-002) (22, 3.46023979486800190000e-001) (23, -1.55031405486235260000e-001) (24, -7.04929837922265820000e-001) (25, -9.03021449383990760000e-001) (26, 5.82284126215675890000e+000) (27, 1.54946316088362710000e-001) (28, 5.32681851760860140000e-001) (29, 8.18134043726901680000e-001) (30, 1.91884917157441510000e+000) (31, 8.47560895025895600000e-001) (32, 5.24362629367229970000e+000) (33, 1.49065446158720360000e-001) (34, -3.14978198605491480000e-001) (35, -1.37006225524092780000e-001) (0, 3.81155396260258120000e+000) (1, 4.80142750757295680000e-001) (2, -2.85947450882044980000e+000) (3, 8.35739857312032490000e-001) (4, 2.42300023557607600000e+000) (5, 4.86074870244105170000e-001) (6, 4.20824170809989570000e-001) (7, -1.07519266138111200000e+000) (8, -7.90217075806343370000e-001) (9, 3.43631931832844850000e-001) (10, -7.04148942581580120000e-001) (11, -2.97417336203667570000e-002) (12, -1.57233287361283280000e+000) (13, 1.19040707609060980000e-001) (14, 4.73219550787982260000e+000) (15, 2.06438477877676330000e-001) (16, -2.22586192043090550000e-001) (17, 6.21665322402516150000e-001) (18, 6.77961560442851050000e+000) (19, 2.85816891488549450000e+000) (20, 1.72384362277295540000e+000) (21, 1.79824364456788200000e-001) (22, 1.49519123341002010000e+000) (23, 1.26640914037408710000e-001) (24, -1.04062543497115590000e+000) (25, -3.97516249631437950000e-001) (26, -1.16422695004647570000e+000) (27, 2.61332269812398370000e+000) (28, -7.74345087564837440000e+000) (29, 9.01932701767626850000e-001) (30, 4.11226003495970770000e-001) (31, -6.02627536379162330000e-001) (32, -1.47682840044898240000e+000) (33, 1.36983744551532030000e-001) (34, 3.26639540049758310000e-001) (35, 7.09828975911269920000e-001) (0, 1.23835911756094100000e+000) (1, 8.19114402282047900000e-002) (2, -1.97184711642323810000e+000) (3, 2.09980442346079870000e+000) (4, 6.15956375589483240000e+000) (5, -1.00121345828302110000e-001) (6, -1.90484680943120990000e+001) (7, -1.02436817510367300000e-001) (8, 4.30518556251241580000e-001) (9, -5.52840152261534930000e-001) (10, -2.07225451609224190000e+000) (11, 2.15602883174321920000e+000) (12, 1.08482166934733340000e+000) (13, 1.75233563356933700000e+000) (14, 1.60704920052105000000e+001) (15, -5.64654332134059410000e-002) (16, 2.67590557403386280000e-001) (17, -5.93576993837978020000e-004) (18, -2.75073877539546000000e+000) (19, 3.02057429019960690000e+000) (20, 6.71678065773904810000e+000) (21, -7.74291515886504130000e-001) (22, 1.72320913566870870000e+000) (23, 4.86556208582952180000e-001) (24, -2.45831609021524590000e+000) (25, 8.30330054581692070000e-001) (26, -1.45600684792076000000e-001) (27, 8.84441826145333840000e-001) (28, -3.76714994622430020000e-001) (29, 3.22824217870115340000e-001) (30, 6.68189337776977640000e-001) (31, 1.35583308225624120000e+000) (32, -1.17698457655809910000e+000) (33, -8.91183954597217320000e-003) (34, 1.77710058145524100000e+000) (35, 7.52874126484690210000e-001) (0, 1.87936723806840110000e+001) (1, 1.15106684146874140000e-001) (2, -6.43728238428729770000e+000) (3, 2.53387887063094230000e-001) (4, 6.81803761869030470000e+000) (5, 1.64282996008143780000e+000) (6, -7.67909681516452650000e+000) (7, 5.94182404857732800000e-002) (8, 1.24739140179144800000e+000) (9, 1.55965562929008410000e+000) (10, 1.21300326623791030000e+001) (11, 6.45869301753965870000e-002) (12, 1.15380115638999610000e+000) (13, -3.95161553995773630000e-001) (14, -1.15079451116556310000e+000) (15, -5.09874985055649100000e-001) (16, 1.05241430405319460000e+000) (17, 5.61590666676904490000e-001) (18, -5.92050971104942760000e-001) (19, 2.03200053949318170000e-001) (20, 1.10472641784651130000e+000) (21, 3.18203412369346610000e-002) (22, -1.98718951014486710000e+000) (23, -2.34805699654390850000e-001) (24, -7.27740058142423600000e-001) (25, 3.93103335634062470000e-001) (26, 4.25833594120294470000e+000) (27, -1.14517992305481390000e+000) (28, -5.31077499313968100000e+000) (29, 4.87996852574491990000e-001) (30, 1.15467312477574650000e+000) (31, 2.13620431580117080000e+000) (32, -5.29392057971916020000e-001) (33, 1.58496087491115700000e+000) (34, -2.73577951359876880000e+000) (35, 7.60733363267600440000e-001) (0, -1.98013580481515670000e+000) (1, 1.35717699143251310000e+000) (2, 4.42703115440675270000e+000) (3, 2.21170115378233420000e-001) (4, -3.33288962429355180000e-001) (5, 2.49974768442649560000e+000) (6, 5.00790325547361540000e+000) (7, 1.07590189888689760000e+000) (8, 3.28094227389283290000e-001) (9, -1.47976166754616420000e-001) (10, 2.14059544561446520000e+001) (11, 3.02162272580989540000e-001) (12, -5.50487584038272390000e-002) (13, 1.03647672602348680000e+000) (14, 1.22016046026040130000e+000) (15, -1.21752756790520620000e+000) (16, -1.39518128719572210000e+001) (17, -1.85594959649805940000e-001) (18, -1.25048560403793800000e+000) (19, 2.36393040847451580000e-001) (20, 3.76058171981788370000e+000) (21, -8.03818187883267750000e-001) (22, -6.20522570975329740000e-002) (23, 9.32261957525324920000e-001) (24, -2.03782813536720080000e+000) (25, -1.43921444959322150000e+000) (26, 4.32370305203322140000e+000) (27, 7.69137981065450280000e-001) (28, 7.02508408172711100000e-001) (29, 1.07851998369880150000e+000) (30, -3.22818372709248800000e+000) (31, 5.99744698717486480000e-001) (32, 6.95738195326114810000e-001) (33, -3.82732628394870820000e-001) (34, 4.89723485777885940000e+001) (35, 6.25596512786633750000e-001) (0, 1.00936509946807410000e+000) (1, -2.00464429751847280000e-001) (2, 9.53613385494440520000e-001) (3, 8.95262517844619300000e-001) (4, 8.67684870295854500000e-001) (5, -1.32897270051418100000e-001) (6, 7.76315396384688670000e+000) (7, 7.63991702286399010000e-001) (8, -1.16060363904156660000e+000) (9, 9.06817127154341930000e-001) (10, 5.14116683939049320000e+000) (11, 1.08529717125918190000e+000) (12, -6.82762658635834190000e-001) (13, 4.50188061685653670000e-001) (14, 4.39187823388657750000e-001) (15, 1.93704000419685520000e-001) (16, -2.88582252693766870000e+000) (17, -2.79748620273883090000e-001) (18, 6.24310257584634430000e+000) (19, -3.08064719447575690000e-001) (20, -4.27169764038484000000e-001) (21, 4.51841870192082000000e-001) (22, 4.14594109459939350000e-001) (23, -2.59980736944271370000e-001) (24, 1.86170222131601310000e-001) (25, -2.92156009626266200000e-001) (26, 2.25447484518372000000e+000) (27, -2.61823131111738990000e-001) (28, -8.65602757339871020000e-001) (29, 1.15230001904542670000e+000) (30, 1.05513950196541710000e+000) (31, -7.34767227123579000000e-001) (32, -5.00516766874504970000e+000) (33, 1.06338582861634360000e-002) (34, -1.32646280789036390000e+001) (35, -2.36614507347140480000e-001) (0, 1.35800048832355160000e+001) (1, 1.84834420654805490000e-001) (2, 2.75992537214300750000e+000) (3, 6.06670511339857940000e-001) (4, -6.50421191743309150000e-001) (5, 5.36091791185992060000e+000) (6, 1.67880301696673300000e+001) (7, -2.25762456150913840000e-001) (8, 3.43919932835107630000e-001) (9, 3.43542264971455120000e-001) (10, 8.30114247134448570000e+000) (11, 8.50229021846288240000e-001) (12, 1.49418871356419470000e+000) (13, 5.34216337252729460000e+000) (14, 6.46142793633358630000e+000) (15, 1.15931281998485320000e+000) (16, -2.41087846929333370000e+001) (17, -5.55755797491772170000e-001) (18, 1.99342464661606520000e+000) (19, 2.08997270447679320000e-001) (20, 3.69031476258544930000e-001) (21, 2.58552015339291060000e+000) (22, 3.90751454902659520000e+000) (23, 2.77109332310721210000e-001) (24, 2.09850417974546540000e-001) (25, -9.14082437858837580000e-001) (26, 6.95806131387219650000e+000) (27, 7.80693587145910750000e-001) (28, 2.52302107296466270000e+000) (29, 1.33702052856427070000e-002) (30, 1.50428480733245830000e+001) (31, 5.61595869981078990000e-002) (32, 3.69838502933552830000e+000) (33, -1.01911880071470760000e+000) (34, 6.69198841946961660000e+001) (35, 4.40664464338868630000e-001) (36, -4.94963051911639080000e-001) (37, 8.23202799050473330000e-001) (38, 5.97740953007897200000e-001) (39, 2.56414002996169620000e-001) (40, 2.32369676537705180000e-001) (41, -1.75065565893254320000e-002) (42, -2.57450614529724290000e-001) (43, -7.58212516789798290000e-001) (44, 1.10378666119233640000e+000) (45, 2.67414897606990910000e+000) (46, 1.77667321532758820000e+000) (47, 6.75028936725481370000e-001) (48, -4.63410320729583160000e-001) (49, 1.85132108138467390000e+000) (50, 3.82428171209405530000e-001) (51, 1.06044223557092130000e+000) (52, 4.18815389946472660000e-001) (53, 1.84428784345707000000e+000) (54, -1.31101356039563770000e+000) (55, 3.80543512086930050000e-001) (56, -9.30514582921973530000e-001) (57, -2.06119143435403660000e-001) (58, -3.90722506611913210000e-001) (59, 1.86327921258384690000e+000) (60, 3.43813385673453210000e-002) (61, 3.83067574527530320000e-001) (62, 3.37159450917425610000e-001) (36, -2.35603901252346290000e-001) (37, 1.51121812056395590000e+000) (38, 1.88812062342513400000e+000) (39, 2.02794249293511620000e+000) (40, -1.76498901210681350000e-001) (41, -2.80471714237067350000e-001) (42, -8.59440756331090180000e-002) (43, -1.72044953237331290000e+000) (44, -1.63881316529555440000e+000) (45, -2.18008621298622170000e+000) (46, -1.93216533306110970000e+000) (47, 1.48802162620882610000e-001) (48, 1.74447341420160430000e+000) (49, -4.42564556918890630000e-001) (50, -2.11274845446289970000e-001) (51, 4.85320270010509650000e-001) (52, 2.56725714167048090000e-001) (53, 4.47102361802453440000e-001) (54, 1.79481040050220050000e+000) (55, -8.04191661548125940000e-001) (56, 1.31099899232544440000e+000) (57, 1.90207033469010600000e+000) (58, -4.53696158986515110000e-001) (59, -1.04409873897788840000e+000) (60, -1.03413748393087150000e+000) (61, -1.16189837700008610000e+000) (62, 1.39514020552591380000e-001) (36, 2.47989879580312160000e+000) (37, -5.03532720207750970000e-001) (38, -4.14174294951578370000e-001) (39, -1.45616839732489160000e+000) (40, -1.14572381955348670000e+000) (41, -1.03348569108306340000e+000) (42, -8.37431496887595990000e-001) (43, 2.29346979601540020000e+000) (44, 4.26718963654999620000e-001) (45, -8.12956296979379380000e-002) (46, -1.20091084499053470000e-001) (47, -2.38080579439022580000e-001) (48, 1.45624563010844370000e+000) (49, -8.62177942737960450000e-001) (50, 1.71193565912079930000e+000) (51, -9.53301379147936780000e-001) (52, -1.87096531501355610000e-001) (53, -1.91482830184174400000e+000) (54, -6.91298943116257610000e-001) (55, 1.98840337486199910000e+000) (56, 9.47641132113094860000e-001) (57, -9.85297320620766690000e-001) (58, 2.19523199150430860000e+000) (59, -2.01160716564127510000e-001) (60, 1.52639286034980910000e+000) (61, 1.77937739218775960000e+000) (62, 1.35053000495396990000e+000) 
