FANN_FLO_2.1
num_layers=3
learning_rate=0.700000
connection_rate=1.000000
network_type=0
learning_momentum=0.000000
training_algorithm=2
train_error_function=1
train_stop_function=0
cascade_output_change_fraction=0.010000
quickprop_decay=-0.000100
quickprop_mu=1.750000
rprop_increase_factor=1.200000
rprop_decrease_factor=0.500000
rprop_delta_min=0.000000
rprop_delta_max=50.000000
rprop_delta_zero=0.100000
cascade_output_stagnation_epochs=12
cascade_candidate_change_fraction=0.010000
cascade_candidate_stagnation_epochs=12
cascade_max_out_epochs=150
cascade_max_cand_epochs=150
cascade_num_candidate_groups=2
bit_fail_limit=3.49999999999999980000e-001
cascade_candidate_limit=1.00000000000000000000e+003
cascade_weight_multiplier=4.00000000000000020000e-001
cascade_activation_functions_count=10
cascade_activation_functions=3 5 7 8 10 11 14 15 16 17 
cascade_activation_steepnesses_count=4
cascade_activation_steepnesses=2.50000000000000000000e-001 5.00000000000000000000e-001 7.50000000000000000000e-001 1.00000000000000000000e+000 
layer_sizes=36 14 4 
scale_included=0
neurons (num_inputs, activation_function, activation_steepness)=(0, 0, 0.00000000000000000000e+000) (0, 0, 0.00000000000000000000e+000) (0, 0, 0.00000000000000000000e+000) (0, 0, 0.00000000000000000000e+000) (0, 0, 0.00000000000000000000e+000) (0, 0, 0.00000000000000000000e+000) (0, 0, 0.00000000000000000000e+000) (0, 0, 0.00000000000000000000e+000) (0, 0, 0.00000000000000000000e+000) (0, 0, 0.00000000000000000000e+000) (0, 0, 0.00000000000000000000e+000) (0, 0, 0.00000000000000000000e+000) (0, 0, 0.00000000000000000000e+000) (0, 0, 0.00000000000000000000e+000) (0, 0, 0.00000000000000000000e+000) (0, 0, 0.00000000000000000000e+000) (0, 0, 0.00000000000000000000e+000) (0, 0, 0.00000000000000000000e+000) (0, 0, 0.00000000000000000000e+000) (0, 0, 0.00000000000000000000e+000) (0, 0, 0.00000000000000000000e+000) (0, 0, 0.00000000000000000000e+000) (0, 0, 0.00000000000000000000e+000) (0, 0, 0.00000000000000000000e+000) (0, 0, 0.00000000000000000000e+000) (0, 0, 0.00000000000000000000e+000) (0, 0, 0.00000000000000000000e+000) (0, 0, 0.00000000000000000000e+000) (0, 0, 0.00000000000000000000e+000) (0, 0, 0.00000000000000000000e+000) (0, 0, 0.00000000000000000000e+000) (0, 0, 0.00000000000000000000e+000) (0, 0, 0.00000000000000000000e+000) (0, 0, 0.00000000000000000000e+000) (0, 0, 0.00000000000000000000e+000) (0, 0, 0.00000000000000000000e+000) (36, 5, 5.00000000000000000000e-001) (36, 5, 5.00000000000000000000e-001) (36, 5, 5.00000000000000000000e-001) (36, 5, 5.00000000000000000000e-001) (36, 5, 5.00000000000000000000e-001) (36, 5, 5.00000000000000000000e-001) (36, 5, 5.00000000000000000000e-001) (36, 5, 5.00000000000000000000e-001) (36, 5, 5.00000000000000000000e-001) (36, 5, 5.00000000000000000000e-001) (36, 5, 5.00000000000000000000e-001) (36, 5, 5.00000000000000000000e-001) (36, 5, 5.00000000000000000000e-001) (0, 5, 0.00000000000000000000e+000) (14, 5, 5.00000000000000000000e-001) (14, 5, 5.00000000000000000000e-001) (14, 5, 5.00000000000000000000e-001) (0, 5, 0.00000000000000000000e+000) 
connections (connected_to_neuron, weight)=(0, -8.38401359431215850000e-001) (1, 7.27949680159128530000e-001) (2, -6.06354348659388360000e-002) (3, 4.70821628552045400000e-001) (4, -2.19045973188657150000e-001) (5, 4.26075222009111630000e-001) (6, -1.86932972564114420000e-001) (7, 3.09364828403836560000e-001) (8, -3.16410040730808420000e-001) (9, -9.86151412018285850000e-003) (10, 2.04471110577987970000e-001) (11, 4.93462865684041410000e-001) (12, -4.03319822949206040000e-001) (13, 6.29531794760699760000e-001) (14, 3.31144697031151620000e-001) (15, 4.92910251928066530000e-001) (16, -9.62140544694359700000e-002) (17, 4.54063213718588210000e-001) (18, -3.99478794823435850000e-001) (19, 6.09499038720001220000e-001) (20, 4.35801575653150590000e-001) (21, 3.79909761962978040000e-001) (22, 2.38550713445579600000e-001) (23, 5.56674127659410930000e-001) (24, -9.58496664496312490000e-002) (25, 4.49782809879167580000e-001) (26, 3.58940107601585510000e-001) (27, 3.25014114258673990000e-001) (28, 7.91010072150973020000e-003) (29, 3.30221040519433410000e-001) (30, 3.69413740570154800000e-001) (31, 4.80373630647506320000e-001) (32, 4.01536438423810260000e-001) (33, 4.62678911231914130000e-001) (34, 4.31187423131279390000e-001) (35, 4.61625469690649600000e-001) (0, 2.72996662229130490000e-001) (1, -2.11329949831038420000e-001) (2, -1.29838853453636420000e+000) (3, -9.43357044582316260000e-002) (4, 2.80516193591180240000e-001) (5, 4.20433517358087040000e-001) (6, -3.80369942238544980000e-001) (7, 4.14777819405463060000e-002) (8, 8.55544069277572650000e-001) (9, 4.31414163571223340000e-002) (10, -1.34504380866908190000e+000) (11, -3.87997041418497310000e-002) (12, 4.03901274603803540000e-001) (13, -2.32216180611017510000e-001) (14, 5.42439879590097760000e-001) (15, 3.57133955867975080000e-001) (16, 6.59233414382406010000e-001) (17, -8.17807726305235650000e-002) (18, 1.16438188641395040000e+000) (19, 8.70059617953007350000e-002) (20, 7.95100953142525050000e-001) (21, -2.54494041444694400000e-001) (22, -7.49830179325187280000e-002) (23, -1.28960949114812980000e-001) (24, 3.13908528073139790000e-001) (25, -1.43757927339761840000e-001) (26, -9.37200636767920870000e-003) (27, 1.00122417068876160000e-001) (28, 2.11039874196527480000e-001) (29, -6.59162024554628000000e-002) (30, -1.26394713189578430000e-001) (31, -8.67327800056459240000e-002) (32, 2.32566974126681260000e-001) (33, -8.58477702268332500000e-002) (34, -7.48728278161747700000e-001) (35, -1.55206066693395710000e-001) (0, 1.46792223085304880000e+000) (1, 2.76960434539324020000e-002) (2, -1.41215774596764650000e-001) (3, 3.57221666204059550000e-002) (4, 3.08827726908681150000e-002) (5, 4.92990218499693770000e-001) (6, 1.52611047320190240000e+000) (7, 2.76492714576921440000e-002) (8, 1.26639097850155170000e+000) (9, 6.43784462619266810000e-001) (10, 3.11898943309930620000e-002) (11, -8.88017894868564640000e-002) (12, 1.27359312704637210000e+000) (13, -1.96327536671695950000e-001) (14, -3.66395223856324890000e-001) (15, 3.12187666135723190000e-001) (16, 2.59776008357047780000e-001) (17, -2.01967185193233260000e-001) (18, 3.06712405529374180000e+000) (19, 2.68961240955318480000e-001) (20, 1.90542881458211830000e+000) (21, 2.96040161938238790000e-001) (22, -1.21906724429188480000e+000) (23, -2.08766501700800970000e-001) (24, 2.82505939714579770000e-001) (25, -1.22108785565750390000e-001) (26, -2.53882772362218350000e-002) (27, -6.53093290257056170000e-002) (28, -4.97067625003735910000e-002) (29, -2.23249216826130190000e-002) (30, -8.25104351919017380000e-002) (31, -1.50799328346480190000e-001) (32, 1.02493666028905480000e+000) (33, 2.11789609244019790000e-001) (34, -1.07934982286805910000e+000) (35, -2.04011834487615010000e-001) (0, -6.13298103334147030000e-001) (1, 4.17781674607545840000e-001) (2, 2.99446034524696200000e-001) (3, 2.01518389679646300000e-001) (4, 7.13962634268372250000e-001) (5, 2.88735687455117460000e-001) (6, -4.26237496204030450000e-001) (7, 2.39378497665680870000e-001) (8, -5.69413825336470340000e-001) (9, 1.63432420953419990000e-002) (10, 4.17381165222415080000e-001) (11, 1.72148272054497450000e-001) (12, 1.21930278721963620000e-001) (13, 2.74562538679162190000e-001) (14, 1.83214247071533640000e-001) (15, -1.95549102569054470000e-002) (16, 7.74119824323673410000e-002) (17, 2.25798175197693300000e-001) (18, -3.21100833478153460000e+000) (19, 3.31592335137492090000e-001) (20, 1.26795545050262750000e-001) (21, -1.00817118499056680000e-001) (22, 3.15273807024136500000e+000) (23, 3.63864999154465520000e-001) (24, 8.36131713599202330000e-002) (25, 3.10429524115048590000e-001) (26, -2.19124167870767220000e-001) (27, 4.77002493554272270000e-001) (28, 1.70777479299394600000e-001) (29, 5.44148863990563610000e-001) (30, 3.39934220109968150000e-001) (31, 3.88239064497219120000e-001) (32, -8.31080579768392610000e-002) (33, 2.41038653940419120000e-001) (34, 2.40499468823875920000e+000) (35, 2.94946826778931470000e-001) (0, 3.14473427945755780000e-001) (1, 9.96707569058958990000e-002) (2, 5.50386657052263970000e-001) (3, -1.83619988480627830000e-001) (4, 2.01072833032381990000e-001) (5, -9.20733562571017100000e-002) (6, 1.44230795800898900000e+000) (7, 8.44058641003062600000e-002) (8, 1.56486650727371110000e-001) (9, 4.89275492558424170000e-002) (10, 1.81927987228482780000e+000) (11, 3.53132310674373410000e-002) (12, 2.17759844999787840000e-001) (13, 6.21870107647628650000e-002) (14, -1.49525255371409590000e-001) (15, -1.08510124080153630000e-001) (16, -3.01751217920090910000e-001) (17, -9.44598309020379530000e-002) (18, 4.60317721261888910000e-001) (19, -1.29391080533718260000e-002) (20, 5.61900038419056030000e-002) (21, 7.96771722497535280000e-002) (22, -4.75034215871174340000e-001) (23, -4.73040684806123600000e-002) (24, 2.71232746187221100000e-001) (25, 1.20737250976527930000e-001) (26, 2.61900520108828920000e-001) (27, 4.13679186576592150000e-002) (28, 3.11168049516678480000e-001) (29, -9.58889746637062170000e-005) (30, -2.58818948510636800000e-001) (31, 6.57140567972434590000e-002) (32, 2.51618557490864260000e-001) (33, -5.54073704049482390000e-002) (34, -6.58478372873596840000e-002) (35, -1.55165398212871400000e-001) (0, 1.40796471948826870000e+000) (1, 1.43902828136905690000e-001) (2, 7.70229163888696780000e-001) (3, -4.87480259262917660000e-002) (4, 1.96343302403005020000e+000) (5, -3.57044637779490300000e-001) (6, 4.08912816344475520000e-004) (7, -4.37418343315222610000e-001) (8, 3.78887131157027660000e-001) (9, -7.14308637963155520000e-003) (10, 3.20802371559643530000e+000) (11, -2.62870880915977120000e-002) (12, 1.89566568903586320000e+000) (13, -3.28677322478541530000e-001) (14, -4.53906543837751090000e-001) (15, -4.21684359844982370000e-002) (16, -3.17388675219712990000e+000) (17, -1.38439189372169200000e-001) (18, -1.04661849933251940000e+000) (19, -1.53141501747617150000e-001) (20, -1.01666356890642570000e-002) (21, 2.61253954063916870000e-002) (22, 1.89385654878467810000e+000) (23, 2.24471962676406070000e-001) (24, 9.45854502023604660000e-001) (25, 1.21788619954471540000e-002) (26, 2.78967130241338070000e-001) (27, -3.39884162174350080000e-001) (28, 3.19282007527143810000e-001) (29, -5.34095178881458520000e-002) (30, 4.70026557099579410000e-001) (31, 2.81501685789556090000e-002) (32, 3.88941432393275060000e-001) (33, 2.99815354719217610000e-001) (34, 3.03542239466510020000e+000) (35, -1.10710234117356830000e-002) (0, 3.35150684799890630000e-001) (1, 9.26698682098019840000e-003) (2, -3.02311770698174610000e+000) (3, 2.59524940886581910000e-002) (4, -4.24973274770401640000e-001) (5, 5.39920150839629190000e-001) (6, 6.36642447510703540000e-001) (7, 6.45175162481600890000e-001) (8, 6.63851894271135330000e-001) (9, 1.97972548072699460000e-001) (10, -1.08681015032204660000e+000) (11, -3.71574163658527860000e-001) (12, 6.71951259626200280000e-001) (13, 1.71689510990231780000e-001) (14, -4.08862972456975390000e-001) (15, 4.05919356985559200000e-001) (16, 1.72137691838887940000e-001) (17, 6.57980338453662880000e-001) (18, 3.16319949617850240000e+000) (19, -3.94466768077403750000e-002) (20, 9.23674899404816290000e-001) (21, 3.87242598894753820000e-001) (22, -1.47038105744313260000e+000) (23, 8.14593707092305250000e-002) (24, 4.65027395719579410000e-001) (25, 5.31086974204709740000e-001) (26, -3.02921818885528220000e-001) (27, -1.52479851297853630000e-001) (28, -4.20719124316384860000e-001) (29, 6.98488098208394750000e-001) (30, -8.10121782418258270000e-001) (31, 4.32532741636586170000e-001) (32, 7.87136808217598680000e-001) (33, 2.88470652377460990000e-002) (34, -4.53794680809005870000e-001) (35, 4.58039333813539010000e-001) (0, 1.07220964315815450000e+000) (1, -9.69667539137270000000e-003) (2, 3.75368717799850320000e-001) (3, -5.12859133725266150000e-001) (4, 8.15841668930979980000e-001) (5, -4.63791784712494150000e-003) (6, 5.72051844872353720000e-001) (7, -2.25750935520260820000e-002) (8, 6.38723746369842300000e-001) (9, -9.01136333923574650000e-002) (10, -7.98098455594034030000e-001) (11, -3.34317755841404160000e-001) (12, 3.55051454389796960000e-001) (13, -3.52530646737797380000e-001) (14, 5.92100325150501260000e-001) (15, 3.52702443305013060000e-002) (16, 1.37494782265049960000e-001) (17, -1.36644755751680060000e-001) (18, 4.29533265012870480000e-001) (19, -1.48034725820999220000e-001) (20, -1.71057728186929850000e-001) (21, -1.54530138258488160000e-001) (22, 7.47255530733862970000e-001) (23, -1.73359576252671700000e-002) (24, 8.99043015344925810000e-002) (25, -1.39777940773038290000e-001) (26, 5.40058777789940160000e-001) (27, -9.78558563925468470000e-002) (28, -1.34953582094073380000e-002) (29, -1.05012315254990120000e-001) (30, 4.88424167876843670000e-001) (31, -8.31818219206561790000e-002) (32, 1.75304693432057620000e-001) (33, 1.35394089392469330000e-002) (34, 4.86916599495004150000e-001) (35, -8.68916227242273330000e-002) (0, 1.01739396851321230000e+000) (1, 2.80717609609806570000e-001) (2, 3.85360173026859600000e-001) (3, -2.85716651716008800000e-001) (4, 4.96437513597753510000e-001) (5, 1.61018285556713480000e-002) (6, 4.17577038520397460000e-001) (7, 1.89147724671032690000e-002) (8, 1.40889120946416570000e+000) (9, -4.59091040775704010000e-004) (10, 1.50084767207747690000e-001) (11, -1.66135632544758940000e-001) (12, 2.78746604343885320000e-001) (13, -3.99332405247697920000e-001) (14, 2.73187812436087580000e-003) (15, 5.69804497321335780000e-002) (16, -1.21217149480835960000e-001) (17, -9.42768767405261910000e-002) (18, 7.64345374738521490000e-001) (19, -3.16782355189481330000e-001) (20, -4.12508162059662810000e-002) (21, -9.39344342305418330000e-002) (22, -3.58380770072638040000e-002) (23, -1.52178203248771460000e-001) (24, 4.85725843516262190000e-001) (25, -1.59992784824262930000e-001) (26, 5.06075535327369600000e-001) (27, -2.03758742421311450000e-001) (28, 1.94017944176301640000e-001) (29, -4.43433690384523880000e-002) (30, 5.02567853113238710000e-001) (31, -1.12149107508552360000e-001) (32, -1.20830454016353840000e-001) (33, 1.85307451938084510000e-001) (34, 2.82128245861296760000e-001) (35, -9.96330364501624850000e-002) (0, 3.19502775750804930000e-001) (1, 2.32514056240340490000e-002) (2, 2.82112245304113110000e-001) (3, -4.08152317661576670000e-001) (4, 3.06087248207148000000e-001) (5, 1.42308416415756980000e-001) (6, -1.31717643245248340000e-001) (7, -1.63421008253301640000e-002) (8, 4.95576997124515360000e-001) (9, 1.02615172255861410000e-001) (10, 3.91276428505299200000e-001) (11, -1.31168326830812890000e-001) (12, 3.06465666181536870000e-001) (13, 3.23761616193785070000e-002) (14, 5.20671490111821870000e-002) (15, 1.21578149955425220000e-001) (16, -4.52547225156291340000e-002) (17, 1.81877508802257390000e-001) (18, 3.05720644093405660000e-001) (19, 5.96546427513983120000e-003) (20, 1.01355946145180050000e-001) (21, 8.23569579647339260000e-002) (22, 2.92335634128328470000e-001) (23, -9.82154454804017030000e-002) (24, 4.80293793771777890000e-001) (25, 2.19344264693503820000e-001) (26, 9.63639230501615870000e-002) (27, -1.16892203571207080000e-001) (28, 3.27577727043006190000e-001) (29, -1.21248196882726840000e-002) (30, 2.77510194454287210000e-001) (31, 1.97392645752200950000e-001) (32, 2.14295400953109030000e-001) (33, 2.12250384063388250000e-002) (34, -3.98070799433489500000e-001) (35, -2.90679310930848090000e-002) (0, 4.76120494048486050000e-001) (1, 2.68841794842391350000e-001) (2, 1.45118371427290690000e+000) (3, -2.25372447276589760000e+000) (4, 6.27636217353972900000e-001) (5, -2.37910114519872600000e-001) (6, 3.01347227946499710000e-001) (7, -8.15219225632405120000e-001) (8, 2.13451063928347280000e-001) (9, 8.76933271126041640000e-004) (10, 1.13231064404967840000e+000) (11, -2.65052206122405880000e-002) (12, 2.63497872389302330000e-001) (13, -5.44841556076841370000e-001) (14, -1.06083969095068160000e+000) (15, -5.47733191563848480000e-001) (16, -7.21169501740933640000e-002) (17, 1.28197311456218490000e-002) (18, -1.01677841099724240000e+000) (19, -1.58903220583473450000e-001) (20, -1.44908119859346960000e-001) (21, -1.03648320048813340000e-001) (22, 2.38072646326487450000e-001) (23, 9.14995144312261140000e-002) (24, 3.09165408495614270000e+000) (25, -5.54177392853885010000e-001) (26, 3.83023175845432270000e-001) (27, -3.01413702616720570000e-001) (28, 6.21365347673682010000e-001) (29, -3.33289754613014970000e-001) (30, 5.98964512899154760000e-001) (31, 5.25126762280585590000e-002) (32, 7.55526726625967320000e-001) (33, -4.08225132844391440000e-001) (34, 6.31624658063654750000e-001) (35, 1.50215062739482920000e-002) (0, 3.92063241762152070000e-001) (1, -1.19270622287372550000e-001) (2, -9.77414311848959220000e-002) (3, 1.13806499304034870000e-001) (4, 3.13652180413069910000e-001) (5, -1.70418083987029120000e-001) (6, 1.40970908057010290000e+000) (7, 5.72019612252956670000e-004) (8, 4.26450449305811390000e-001) (9, -1.01627872909483150000e-001) (10, -5.14867068240621560000e-001) (11, 3.40762735065869360000e-002) (12, 2.11802813661021160000e-001) (13, -1.03468620098779370000e-001) (14, 4.07454070950885930000e-001) (15, -8.05438150696731610000e-002) (16, 6.18248306349805320000e-001) (17, -7.64666665714189150000e-002) (18, 1.98182291688220590000e+000) (19, -5.57979954107690050000e-002) (20, 2.90772022029222030000e-001) (21, -8.43768229392894280000e-002) (22, -1.22254747152547370000e-001) (23, -1.79280388806587750000e-001) (24, 2.87284992520168200000e-001) (25, -9.68890301569858420000e-002) (26, 1.85515780327895900000e-002) (27, 1.02148784286571380000e-001) (28, 1.73332354103391650000e-001) (29, -1.35252140988648740000e-001) (30, -1.39004576658730030000e-001) (31, -8.31622233118154840000e-002) (32, 2.12883135942744220000e-001) (33, 5.76398915563805100000e-002) (34, -7.03598882958017310000e-001) (35, 6.10586019078315080000e-004) (0, 1.38621504660992100000e-001) (1, 3.21978953658023580000e-002) (2, 5.91730999046870540000e-002) (3, 1.11474438510163450000e-001) (4, -1.70490428381765450000e-001) (5, 1.00248665367749750000e+000) (6, 2.53287412596760240000e-001) (7, -1.02771448725932860000e-001) (8, 8.57588153915243980000e-002) (9, 1.05829404203579780000e+000) (10, 1.38400107237452370000e+000) (11, 6.13747566175281560000e-002) (12, 1.21110378418303730000e-001) (13, -6.30066437006215230000e-001) (14, 9.90397271380385610000e-002) (15, 2.43481276414718590000e-001) (16, -3.73682988418806040000e-001) (17, -3.30223146918900980000e-003) (18, 6.66684960315591430000e-001) (19, -2.05669009645484730000e+000) (20, 1.04725165809946740000e-001) (21, 2.66546462305291660000e-001) (22, -1.04685043292972550000e+000) (23, 5.26202589513692780000e-002) (24, 1.14788240306973770000e-001) (25, 1.89516144607306420000e-001) (26, 3.51691964615470530000e-001) (27, -6.72553303371015710000e-001) (28, 1.81597323333756580000e-001) (29, -3.99827337907657950000e-001) (30, 2.68072951788027090000e-001) (31, -2.53355099325822730000e-001) (32, 2.02297890080361640000e-001) (33, -3.27488469642224830000e-001) (34, -2.85035138374831580000e-001) (35, 1.56237565830014190000e-001) (36, 3.93801567956112930000e-001) (37, -2.26975992176003560000e-001) (38, 1.58709908256375250000e-002) (39, 2.49870285615603090000e-001) (40, 5.44059732405068660000e-001) (41, 4.95719887934748920000e-001) (42, -1.10383900327991060000e-002) (43, -2.55021387586738260000e-001) (44, -1.77067256392170300000e-001) (45, -3.32962864306011460000e-002) (46, 4.78642250961522300000e-001) (47, -3.50323587158423920000e-002) (48, -1.94816280094151360000e-001) (49, 4.51791070773348850000e-001) (36, 3.80109645152296170000e-001) (37, 3.80396046802224050000e-001) (38, -3.18878799903800190000e-001) (39, -2.35532327003656200000e-002) (40, -1.03843024865598710000e-001) (41, -1.25457011444344680000e-001) (42, 2.46812909302188470000e-001) (43, -8.51127725619186950000e-002) (44, -1.21404277008954250000e-001) (45, -9.67958475918153230000e-002) (46, -6.90605262289715890000e-002) (47, 3.10254444194532740000e-001) (48, -1.42670152150365660000e-001) (49, 2.92829370414218800000e-001) (36, 3.14214033353418410000e-001) (37, 4.68259531960065260000e-001) (38, 2.59885084084227610000e-001) (39, -2.14979852229176200000e-001) (40, 4.73392588677178760000e-001) (41, -3.80696005123475210000e-002) (42, 4.15184493842370490000e-001) (43, -2.30976764611234700000e-002) (44, 1.47507781128908970000e-003) (45, -9.58131815615474590000e-002) (46, -1.97529498487831610000e-002) (47, 5.08896739596856880000e-001) (48, 4.20072275382644190000e-001) (49, 2.99565595635139680000e-001) 
