FANN_FLO_2.1
num_layers=3
learning_rate=0.700000
connection_rate=1.000000
network_type=0
learning_momentum=0.000000
training_algorithm=2
train_error_function=1
train_stop_function=0
cascade_output_change_fraction=0.010000
quickprop_decay=-0.000100
quickprop_mu=1.750000
rprop_increase_factor=1.200000
rprop_decrease_factor=0.500000
rprop_delta_min=0.000000
rprop_delta_max=50.000000
rprop_delta_zero=0.100000
cascade_output_stagnation_epochs=12
cascade_candidate_change_fraction=0.010000
cascade_candidate_stagnation_epochs=12
cascade_max_out_epochs=150
cascade_max_cand_epochs=150
cascade_num_candidate_groups=2
bit_fail_limit=3.49999999999999980000e-001
cascade_candidate_limit=1.00000000000000000000e+003
cascade_weight_multiplier=4.00000000000000020000e-001
cascade_activation_functions_count=10
cascade_activation_functions=3 5 7 8 10 11 14 15 16 17 
cascade_activation_steepnesses_count=4
cascade_activation_steepnesses=2.50000000000000000000e-001 5.00000000000000000000e-001 7.50000000000000000000e-001 1.00000000000000000000e+000 
layer_sizes=36 18 4 
scale_included=0
neurons (num_inputs, activation_function, activation_steepness)=(0, 0, 0.00000000000000000000e+000) (0, 0, 0.00000000000000000000e+000) (0, 0, 0.00000000000000000000e+000) (0, 0, 0.00000000000000000000e+000) (0, 0, 0.00000000000000000000e+000) (0, 0, 0.00000000000000000000e+000) (0, 0, 0.00000000000000000000e+000) (0, 0, 0.00000000000000000000e+000) (0, 0, 0.00000000000000000000e+000) (0, 0, 0.00000000000000000000e+000) (0, 0, 0.00000000000000000000e+000) (0, 0, 0.00000000000000000000e+000) (0, 0, 0.00000000000000000000e+000) (0, 0, 0.00000000000000000000e+000) (0, 0, 0.00000000000000000000e+000) (0, 0, 0.00000000000000000000e+000) (0, 0, 0.00000000000000000000e+000) (0, 0, 0.00000000000000000000e+000) (0, 0, 0.00000000000000000000e+000) (0, 0, 0.00000000000000000000e+000) (0, 0, 0.00000000000000000000e+000) (0, 0, 0.00000000000000000000e+000) (0, 0, 0.00000000000000000000e+000) (0, 0, 0.00000000000000000000e+000) (0, 0, 0.00000000000000000000e+000) (0, 0, 0.00000000000000000000e+000) (0, 0, 0.00000000000000000000e+000) (0, 0, 0.00000000000000000000e+000) (0, 0, 0.00000000000000000000e+000) (0, 0, 0.00000000000000000000e+000) (0, 0, 0.00000000000000000000e+000) (0, 0, 0.00000000000000000000e+000) (0, 0, 0.00000000000000000000e+000) (0, 0, 0.00000000000000000000e+000) (0, 0, 0.00000000000000000000e+000) (0, 0, 0.00000000000000000000e+000) (36, 5, 5.00000000000000000000e-001) (36, 5, 5.00000000000000000000e-001) (36, 5, 5.00000000000000000000e-001) (36, 5, 5.00000000000000000000e-001) (36, 5, 5.00000000000000000000e-001) (36, 5, 5.00000000000000000000e-001) (36, 5, 5.00000000000000000000e-001) (36, 5, 5.00000000000000000000e-001) (36, 5, 5.00000000000000000000e-001) (36, 5, 5.00000000000000000000e-001) (36, 5, 5.00000000000000000000e-001) (36, 5, 5.00000000000000000000e-001) (36, 5, 5.00000000000000000000e-001) (36, 5, 5.00000000000000000000e-001) (36, 5, 5.00000000000000000000e-001) (36, 5, 5.00000000000000000000e-001) (36, 5, 5.00000000000000000000e-001) (0, 5, 0.00000000000000000000e+000) (18, 5, 5.00000000000000000000e-001) (18, 5, 5.00000000000000000000e-001) (18, 5, 5.00000000000000000000e-001) (0, 5, 0.00000000000000000000e+000) 
connections (connected_to_neuron, weight)=(0, 3.42009114429371150000e-001) (1, -8.34794953120871900000e-002) (2, 3.73108121047265040000e-001) (3, -4.76375306781160330000e-002) (4, 3.26329182555096960000e-001) (5, -6.43276030016969380000e-003) (6, 1.16805401309973080000e-001) (7, 9.62466845892482330000e-002) (8, 1.90721270378131690000e-001) (9, 1.85123084309157870000e-002) (10, 3.13619143913542600000e+000) (11, -2.82833465632688070000e-002) (12, 3.00950764208179070000e-001) (13, -3.03340636233992850000e-002) (14, -1.10821146031401030000e-001) (15, 6.17536611489304530000e-002) (16, 6.74653321938262770000e-002) (17, -2.96077452532012980000e-002) (18, -9.34008634373251660000e-001) (19, -1.83122580128947040000e-002) (20, 1.93419024324581360000e-001) (21, 4.88152225787528570000e-002) (22, 1.98456169190290330000e-001) (23, 4.21390177673561790000e-002) (24, 2.32960975559250600000e-001) (25, -6.05160130591979460000e-002) (26, 3.38339350281819050000e-001) (27, 7.60605472645247000000e-002) (28, 2.76778114884051850000e-001) (29, -3.15087969706753100000e-003) (30, 2.58762037192492910000e-001) (31, 4.53525744139150060000e-003) (32, 4.07523931259051060000e-001) (33, 2.55130409571098300000e-002) (34, 2.55543977622447850000e-001) (35, 4.84073284076362850000e-002) (0, 2.99994434276021680000e-001) (1, -1.60143810907598830000e-001) (2, -4.14841438681925520000e-001) (3, 2.72020674486468440000e-001) (4, 4.18317189945418110000e-001) (5, 3.77527858004449550000e-001) (6, 4.24265364917355490000e-002) (7, -1.37937110705624170000e-002) (8, 2.95020068967522860000e-001) (9, 2.49894941984221990000e-001) (10, -2.33198985479151770000e+000) (11, -1.31467384046717730000e-002) (12, 3.34662403542614670000e-001) (13, 1.36326825057550250000e-001) (14, 7.85950567175908170000e-001) (15, 3.24852432775857010000e-001) (16, 1.58490664442715710000e+000) (17, 3.84453537489973570000e-001) (18, 3.11634280602715830000e+000) (19, 3.67241377893587410000e-001) (20, 8.02341450707354080000e-001) (21, 1.67228716252278480000e-001) (22, -4.87705814126821180000e-001) (23, -4.99021100461194830000e-002) (24, -1.48729716869260010000e-001) (25, 1.31181561309004880000e-001) (26, -5.30808842112856280000e-001) (27, 3.23975611112708950000e-001) (28, 3.88681894055516060000e-001) (29, 2.77587080819414360000e-001) (30, 5.60239412898398400000e-002) (31, -4.43702147801188290000e-003) (32, 9.81479636970471030000e-001) (33, -9.35300403837262960000e-002) (34, -1.38516989950748640000e+000) (35, 4.37043239750672830000e-001) (0, 1.61323461342510950000e-002) (1, 5.62539606262438370000e-001) (2, -2.11662552990253440000e-001) (3, 4.13225510574959380000e-001) (4, -2.30863198095472840000e-001) (5, 4.35096218237284950000e-001) (6, -1.76237747774882710000e-001) (7, 2.85661544079685910000e-001) (8, -5.47477818750700950000e-002) (9, -1.70544201687576720000e-001) (10, -2.62523149451260370000e-001) (11, 3.33964981739769570000e-001) (12, -2.51097860649915790000e-001) (13, 1.93254316140210910000e-001) (14, 4.33400907938432170000e-001) (15, -2.78724998837013790000e-001) (16, -2.46188012663520610000e-002) (17, 2.15642011786313560000e-001) (18, -4.88024762368427160000e-003) (19, 5.80795221768843240000e-001) (20, 8.61746417856857130000e-001) (21, -1.63627105006439540000e-001) (22, 3.45253933968689920000e-001) (23, 1.21440350226349510000e-001) (24, -9.85304735751312000000e-003) (25, -2.44809670891899390000e-002) (26, 3.18999555828444910000e-001) (27, 3.62775660518999680000e-001) (28, -3.16519119172370190000e-001) (29, 2.89329971309031100000e-001) (30, 4.80861726338830950000e-001) (31, 2.87474776279252500000e-001) (32, 9.39609181863432920000e-003) (33, 4.59052517422386620000e-001) (34, 6.44055242059633940000e-001) (35, 3.94477321147641220000e-001) (0, 4.98108040683324260000e-001) (1, 1.54119261941139950000e-001) (2, -4.34180546448856620000e-001) (3, -5.10891689374090160000e-002) (4, 1.04456650211718880000e+000) (5, 5.38834439500499450000e-002) (6, -9.25512540496649990000e-001) (7, -2.38625065571830000000e-002) (8, 5.10351693209518900000e-001) (9, -5.44537457239936060000e-002) (10, -2.23385752911048210000e+000) (11, 1.05584914215142020000e+000) (12, 3.60217413628593890000e-001) (13, 5.70509780326516220000e-001) (14, -2.60730485114437580000e-001) (15, 1.02313138336388720000e-002) (16, 9.13193040230999900000e-001) (17, 9.09654962566138060000e-002) (18, -3.19001834423438440000e+000) (19, 9.40650681594003670000e-001) (20, 8.95571368881210580000e-001) (21, -1.44735410567221750000e-001) (22, 2.74150287940597430000e-001) (23, -6.15822336817507530000e-002) (24, 1.19905869191930180000e+000) (25, 8.99257389117115790000e-003) (26, -4.51315664740305600000e-001) (27, 8.66906414055192750000e-001) (28, 1.17411362318821630000e+000) (29, 2.87850110738428200000e-001) (30, 9.37242598614151660000e-002) (31, 5.87303380374124110000e-001) (32, 6.36931400652863130000e-001) (33, 5.90865515029796730000e-003) (34, 4.45573350506789920000e-001) (35, 2.05046308503425280000e-001) (0, -1.11687479989162690000e-001) (1, -2.24952996909037640000e-001) (2, -1.97311353724161090000e-001) (3, 7.81701948900412340000e-004) (4, 5.59652779860628110000e-001) (5, -1.42687755959983340000e-001) (6, -2.03569291150904440000e-001) (7, 4.04035426758818090000e-001) (8, -1.30986796682994900000e-001) (9, -8.11643175432126690000e-002) (10, -1.43095657437277090000e-001) (11, 3.04344619970266790000e-001) (12, -1.87239460787825970000e-001) (13, 1.10814129364881480000e-001) (14, 5.20785591781461890000e-001) (15, -1.47975485169944240000e-001) (16, 4.03173020190790600000e-001) (17, 3.74872828668011530000e-001) (18, -7.08958736073937310000e-002) (19, 2.74828046438396480000e-001) (20, 9.11675387507259630000e-001) (21, -1.16225419574758640000e-001) (22, 4.11190242718553370000e-001) (23, 4.61158230344389190000e-001) (24, -3.25276082422654020000e-002) (25, 1.30028329498060520000e-003) (26, 5.02956453230568030000e-001) (27, 4.06023116752730340000e-001) (28, 4.03883829668699570000e-001) (29, 3.00884200307193480000e-001) (30, 4.55117097048956090000e-001) (31, 3.02873946430593010000e-001) (32, -1.34297232702631440000e-001) (33, -1.28045421757420560000e-001) (34, 5.19875998933091000000e-001) (35, 4.69373562498057170000e-001) (0, 3.55090870643897550000e-001) (1, 1.29417977926465570000e-003) (2, 2.33726642112711660000e-001) (3, -2.63120218039747810000e-002) (4, 4.04450002238780910000e-001) (5, -3.09424802050299940000e-003) (6, -3.48959617009954480000e-001) (7, -1.29693371000726920000e-001) (8, 7.55209317507467000000e-001) (9, -1.13543468416324610000e-001) (10, -1.92085375850298790000e+000) (11, -1.86266858171862560000e-001) (12, 1.68065391922548410000e-001) (13, -1.64886242618891570000e-001) (14, 1.39011734106185840000e+000) (15, -2.61506981002320340000e-001) (16, 3.14465701543344790000e+000) (17, -5.84183253219476420000e-002) (18, 1.10192123929996600000e+000) (19, -1.30159294324626420000e-001) (20, 9.26163474036820980000e-001) (21, -2.83773029493287590000e-001) (22, 7.35670315681738800000e-001) (23, -1.31091076099679350000e-001) (24, 3.29950489409901680000e-001) (25, -1.06414562060095630000e-001) (26, 3.68567490042545280000e-002) (27, -6.32932235269126200000e-002) (28, 2.95760048760654700000e-001) (29, -1.13899556927798360000e-001) (30, 3.32738569705047170000e-001) (31, -1.12682872700375730000e-001) (32, -2.98501217990648550000e-001) (33, -1.57659680011207390000e-001) (34, -1.06590560899491970000e+000) (35, -8.61386828517114870000e-002) (0, 2.51418658439709470000e+000) (1, -1.42229992281287130000e-001) (2, -9.93621672370930240000e-001) (3, 9.47441599239164520000e-002) (4, 1.64026786553836540000e-001) (5, -8.01238245887133170000e-003) (6, 3.03959109589909370000e+000) (7, -2.40480369360874410000e-001) (8, 1.03611037232603960000e+000) (9, 2.36480092884483660000e-001) (10, -9.10455167225402650000e-001) (11, -1.77943747335256140000e-001) (12, 1.68374087441552690000e+000) (13, -2.65018029635873560000e-001) (14, 4.19341411964644360000e-002) (15, 3.25920548026148170000e-001) (16, 8.67403094421480340000e-001) (17, 1.12054997535021570000e-003) (18, 3.21062991680714570000e+000) (19, -2.43330682729761490000e-001) (20, 8.76997821126952900000e-001) (21, 3.20244533695050180000e-001) (22, -5.82364889810918160000e-001) (23, -6.49317219040396080000e-001) (24, 5.26957042600351370000e-001) (25, 2.31932973676101300000e-001) (26, -4.45860110378271560000e-001) (27, -2.85822923454804030000e-001) (28, 3.20433026949660300000e-001) (29, 1.25297102100682590000e-001) (30, -4.31631391287955140000e-001) (31, -5.10711309613522290000e-001) (32, 2.96834207960467940000e-001) (33, -1.21771007601424490000e-001) (34, -3.04664676006673130000e+000) (35, -4.35727642486798820000e-002) (0, 4.70759060565577700000e-001) (1, 8.44801984787071220000e-003) (2, 1.40774374850956720000e+000) (3, 2.69969162868224700000e-001) (4, 2.85663842963694130000e-001) (5, -1.38695537032239080000e-001) (6, -4.15738560690725230000e-001) (7, -1.50550251291193820000e-002) (8, 3.16899551797974850000e-001) (9, -3.35563753092935350000e-002) (10, 4.73391239047682600000e-001) (11, 4.80797414366619310000e-002) (12, 1.68327772240332880000e-001) (13, 1.25984248075437790000e-001) (14, -3.45725986290831950000e-001) (15, 1.42446730394418800000e-003) (16, 8.92047036823090940000e-002) (17, -4.94128278084376630000e-003) (18, -8.65096747608011360000e-001) (19, 2.11589159952261310000e-002) (20, 3.27385391797976040000e-001) (21, 8.83449996990134520000e-002) (22, 8.97057242513342180000e-002) (23, -7.33985318578803670000e-002) (24, 2.74413007369711910000e-001) (25, 7.23109156359286740000e-002) (26, -2.67011059409831830000e-001) (27, 6.30107232594916550000e-002) (28, 5.78451471733918640000e-001) (29, 6.05736381072104970000e-002) (30, 8.55083392566560460000e-002) (31, -1.70874958625305550000e-002) (32, 4.67956099699378180000e-001) (33, -2.56019002862800660000e-002) (34, -1.18079547682342630000e-002) (35, -9.12956339821755090000e-002) (0, 3.28376686488048020000e-002) (1, -1.45751720849389980000e-001) (2, -3.33756232395536810000e-001) (3, 4.16388942567899820000e-001) (4, -1.08099867605689180000e-001) (5, 3.68720484826334460000e-001) (6, 7.06618323097071400000e-001) (7, 2.91889428993962590000e-001) (8, 3.55951466359846420000e-001) (9, 2.46330488806107500000e-001) (10, -6.74687394189538160000e-003) (11, -8.75058703720841690000e-002) (12, 1.97682705721241300000e-002) (13, 2.66227950040102800000e-001) (14, 6.22809652244657670000e-001) (15, 3.66612715774844610000e-001) (16, 8.62778463326685730000e-001) (17, 4.26866868200106440000e-001) (18, 3.18365237734264910000e+000) (19, 5.52230768218199720000e-001) (20, 8.27335347564167160000e-001) (21, 1.02439491852699880000e-001) (22, 5.12703795887624330000e-002) (23, -3.95017192661415860000e-002) (24, -4.32706429182509620000e-001) (25, 1.16972576722274500000e-001) (26, -5.69236577060474150000e-001) (27, 3.68000269971852420000e-001) (28, -2.64260817612410830000e-001) (29, 3.00762129992874490000e-001) (30, 5.64124348635803410000e-001) (31, 4.32270290460800340000e-001) (32, 2.64619911577880510000e-001) (33, 3.88825465594672020000e-001) (34, -4.15690432194333330000e-001) (35, 3.22230005617947400000e-001) (0, -1.04971298180050580000e+000) (1, -4.14618778579238570000e-001) (2, 1.41963731802417260000e+000) (3, -3.33682606346811460000e-001) (4, 2.14851789027802500000e-001) (5, -2.31876353623505520000e+000) (6, 1.07055438291512320000e-002) (7, -2.14708551372780910000e-001) (8, -2.56489006449284070000e-001) (9, -1.44591819142833140000e+000) (10, -1.54153584365967130000e+000) (11, 1.44768333766411290000e-001) (12, -9.77508390880823530000e-001) (13, 9.12991061564512870000e-002) (14, 3.07899539336126350000e+000) (15, -3.62355296499062840000e-002) (16, 7.84598911873633400000e-001) (17, 2.32855340647092850000e-001) (18, -2.04484818508296860000e-001) (19, -2.83627673960309860000e-001) (20, 5.97720270849171120000e-001) (21, -3.93040228431522140000e-001) (22, 1.60473086347256100000e+000) (23, -1.43205318028990640000e-002) (24, 1.19197519197903790000e-001) (25, -2.88175899239835390000e-001) (26, -2.98184157961657980000e-001) (27, 1.36540066148224000000e-001) (28, 1.52800866658956270000e+000) (29, -3.12472889233887050000e-001) (30, -4.22484254364010380000e-001) (31, -9.51240676176131060000e-001) (32, 1.48362390030317810000e+000) (33, -1.68637036890630480000e-001) (34, 6.74143742383476320000e-002) (35, -2.31114801617253090000e-001) (0, -2.02492736199547660000e-002) (1, -1.51073986553697910000e-001) (2, -2.09533130939973220000e-001) (3, 3.97828151275697480000e-001) (4, -1.32709242972397450000e-001) (5, 3.56153345967194560000e-001) (6, 5.85573399418361620000e-001) (7, -8.28061632708030760000e-002) (8, 1.82659193295104300000e-001) (9, 1.57353379758073450000e-001) (10, -1.94180972364924640000e+000) (11, -9.66428333988605250000e-002) (12, 2.86840103050645830000e-001) (13, -2.47981804459835920000e-001) (14, 9.43856281710086840000e-001) (15, 3.27110733590758320000e-001) (16, 1.37922866902460450000e+000) (17, 2.78937768644717810000e-001) (18, 1.23125036203782210000e+000) (19, -1.60237448243286730000e-001) (20, 8.11721769521443150000e-001) (21, 6.00529430664857030000e-002) (22, 7.16371925827018920000e-001) (23, -7.23447373336656850000e-002) (24, 4.27991262355198020000e-001) (25, 1.48185956093640080000e-001) (26, -6.13599445070659780000e-001) (27, -4.93973290937743250000e-002) (28, 4.91774595632001270000e-001) (29, 3.83161403010270910000e-001) (30, -3.95950238412514530000e-001) (31, -2.18587272771823270000e-001) (32, 2.98498744935498720000e-001) (33, -6.86011721724382250000e-003) (34, -7.22762565418261450000e-001) (35, 4.17377712113883640000e-001) (0, -1.38803086985651400000e+000) (1, 1.59661254211222070000e-001) (2, 4.06789831582578920000e-001) (3, -2.57910756824890790000e-001) (4, 8.88976966357121090000e-001) (5, -1.07964680014560600000e-001) (6, -4.39651757033247660000e-001) (7, 2.98811906671882680000e-001) (8, -1.77088109966699960000e-001) (9, -5.64540677281221220000e-003) (10, 2.25561515982933610000e-001) (11, 4.29506360256651620000e-001) (12, -3.48002346003512490000e-001) (13, 6.17744888452248950000e-001) (14, 7.79019132315385890000e-001) (15, -2.92864077406331870000e-002) (16, 1.85161822115169680000e-001) (17, -5.31456050021032470000e-001) (18, -1.29913316345371000000e+000) (19, 5.09303724726974940000e-001) (20, 7.30544337272047820000e-001) (21, -3.61525249527777790000e-002) (22, 1.41092422613753010000e+000) (23, 2.13231123078513520000e-001) (24, -8.19092365544026590000e-002) (25, -1.64161560063386000000e-001) (26, 3.61232818306221340000e-001) (27, 4.52085018801104580000e-001) (28, 8.46933185214247760000e-001) (29, 3.67895438907992270000e-003) (30, 4.81044831810309440000e-001) (31, 6.09120620745612350000e-001) (32, 1.86081167434545950000e-001) (33, -7.82954901193302220000e-002) (34, 6.03972415786736110000e-001) (35, -4.43172181286395210000e-002) (0, 3.46848962366518690000e-001) (1, 3.12335398826823420000e-002) (2, 1.65233724349561630000e+000) (3, 1.00502071164042280000e-001) (4, -1.03971060800542050000e-001) (5, 4.86684174726376980000e-001) (6, 3.14214236695847670000e+000) (7, 1.89672681862908060000e-001) (8, 3.31161716507875790000e-001) (9, 3.53088478496479060000e-001) (10, 3.14234378297710300000e+000) (11, -2.05414272521055100000e-001) (12, 3.88287564379994790000e-001) (13, -2.80308467481976520000e-001) (14, -3.06558147236718590000e-001) (15, -2.88431140828762090000e-001) (16, -4.55636131619880920000e-001) (17, 4.10182708742666320000e-001) (18, 6.28460191975626080000e-001) (19, -8.71230181766344370000e-001) (20, -1.24487863926695750000e-001) (21, 6.38221895618955370000e-001) (22, -7.08142903510716960000e-001) (23, 9.99122576014893630000e-003) (24, 2.92108363728063040000e-001) (25, 2.86261954759869260000e-001) (26, 2.00484141502918820000e-001) (27, -6.67823078691154870000e-001) (28, -4.54751121841068250000e-001) (29, 5.93000604119909850000e-002) (30, 1.72066583780484390000e-002) (31, 2.26824782025892490000e-001) (32, 6.21940093572749930000e-001) (33, 3.24228706781457770000e-001) (34, -3.98747072566857600000e-001) (35, 1.35156079488047390000e-001) (0, 2.89374780518991400000e-001) (1, -1.53068633186046150000e-002) (2, 1.42883749882388860000e+000) (3, 1.49193405519084670000e-002) (4, 4.16956569529483120000e-001) (5, -1.11534892096263950000e-001) (6, -3.88969515607493210000e-002) (7, 5.77627400941616020000e-003) (8, 2.93339981134409900000e-001) (9, -4.93443596143761510000e-002) (10, 3.15639407615521870000e+000) (11, -4.80750451524060150000e-002) (12, 2.85138940612122470000e-001) (13, -1.24180895328818670000e-002) (14, -1.32259873759106350000e+000) (15, -3.86390098555481340000e-002) (16, -1.50451804581716230000e+000) (17, 1.18677995008810750000e-002) (18, -6.87417301601006450000e-001) (19, 1.55375780208366690000e-002) (20, -1.39683371804066580000e+000) (21, 6.31635335969920610000e-001) (22, 1.59421914576804130000e-001) (23, -3.80546663919482940000e-002) (24, 3.64417506246590080000e-001) (25, -9.25938719775940970000e-002) (26, 5.63704616308980720000e-001) (27, 7.54374812571647620000e-002) (28, 6.06057673317158100000e-001) (29, -3.64295371663744260000e-002) (30, 3.51902673379324850000e-001) (31, -7.28858365377406110000e-002) (32, 1.19281352901241550000e-001) (33, 9.94652402492405140000e-002) (34, 3.08138797152191570000e+000) (35, -3.61424551207774470000e-002) (0, 4.47254421543456290000e-001) (1, -2.74191237682260610000e-001) (2, 5.59622093275353950000e-001) (3, 2.01500140373650880000e-001) (4, 2.89393091066139250000e-001) (5, -1.06023417404761580000e-001) (6, -2.08484390585910120000e-001) (7, -4.34913048497279630000e-002) (8, 4.33092454230374900000e-001) (9, -9.97471923966868760000e-002) (10, 3.68770876160592790000e-001) (11, -1.95533162117741410000e-002) (12, 3.12873316025396860000e-001) (13, 1.22840937481723820000e-001) (14, -2.53086824754151010000e-001) (15, 9.06090389453978460000e-002) (16, -2.80420891571521950000e-001) (17, 5.94202904438433860000e-002) (18, -8.71980217756201940000e-002) (19, -1.73680374689899890000e-001) (20, 1.79558241157679900000e-001) (21, 3.18325476850373070000e-002) (22, 1.61790078674592520000e-001) (23, -5.44242955421247730000e-002) (24, 2.23247235122907560000e-001) (25, -1.19766723945001140000e-001) (26, -1.04301429782368470000e+000) (27, -1.01280985693468840000e-001) (28, 6.92562801559309940000e-001) (29, 5.50804739628559730000e-002) (30, 2.60898234249851840000e-003) (31, -7.57481686015735590000e-002) (32, 1.85066660804430460000e-001) (33, -1.17532837192963630000e-001) (34, 2.71718597759749490000e-001) (35, -6.98234656934652730000e-002) (0, 1.20282329478657260000e-001) (1, 2.86977089645403420000e-001) (2, -2.13051169733397490000e-001) (3, 2.88794371754086340000e-001) (4, 2.40481971852819570000e-002) (5, 1.83525225349027270000e-001) (6, -4.33573033612729590000e-001) (7, 2.94420002392113130000e-001) (8, -2.37118132920226400000e-002) (9, 1.94798418876385940000e-001) (10, -5.01869809180212070000e-002) (11, 2.25792071681977350000e-001) (12, -4.74695386393234890000e-002) (13, 3.90027983381450390000e-001) (14, 7.91352196850668430000e-002) (15, 2.95312709731773090000e-001) (16, -6.60333895037806600000e-001) (17, 2.64140460925287810000e-001) (18, 3.62330779262871490000e-001) (19, 2.54738319633758310000e-001) (20, -1.57467145201389760000e+000) (21, 2.23181511355601630000e-001) (22, 6.66601540501683190000e-001) (23, 2.00047442392102480000e-001) (24, -7.63262857099520770000e-002) (25, 2.16020343020742240000e-001) (26, 6.90846487307051890000e-001) (27, 4.18768522118283030000e-001) (28, -2.11494744755369060000e-001) (29, 3.05475280205776250000e-001) (30, 6.94639807754811490000e-001) (31, 2.28839536876314750000e-001) (32, -4.57712633778767860000e-001) (33, 2.84471271775115500000e-001) (34, 3.07468551227758240000e-001) (35, 1.47386308794890450000e-001) (0, 2.42405841460791800000e-001) (1, 3.82617654201015120000e-001) (2, 1.66545474133054230000e+000) (3, -3.19331307304488280000e-001) (4, 3.32280110378147700000e-001) (5, -1.53877203276530010000e-001) (6, 7.79609089985194850000e-001) (7, 1.28052104985060920000e-001) (8, -8.12609469631596970000e-001) (9, -3.40084443048293970000e-002) (10, 3.18625857855335950000e+000) (11, -2.47677215108818990000e-002) (12, 5.13131934063193240000e-001) (13, 1.19388862252667450000e-002) (14, -6.41915876797538030000e-001) (15, -9.15959114500293770000e-002) (16, -1.57653912782297810000e+000) (17, -2.99629158573403390000e-001) (18, -1.09619125397746100000e+000) (19, -9.89872689820441850000e-002) (20, -8.12932955964542290000e-001) (21, -6.58454236610738760000e-002) (22, 3.48529413614055930000e-001) (23, 6.00020278813131690000e-001) (24, 7.48507407714611440000e-001) (25, 4.92376105971741030000e-005) (26, 1.56017716130737720000e+000) (27, 4.02950165968454090000e-002) (28, 1.54478286518394370000e+000) (29, -2.03459034295245810000e-001) (30, 4.86475968804539640000e-001) (31, 5.82339887103149320000e-002) (32, -8.81794645402926710000e-002) (33, -3.65902314526760230000e-002) (34, 1.02929022496879070000e+000) (35, 1.05920756999028160000e-001) (36, 2.68252679315571340000e-001) (37, 1.10532647231171410000e-001) (38, 2.02414972819074720000e-001) (39, 2.14750178081008600000e-001) (40, 1.80893976404636890000e-001) (41, 6.60374905012477840000e-002) (42, -1.56186901927761300000e-001) (43, 1.91685933184718090000e-002) (44, 1.49515802108940670000e-001) (45, -1.26856552030684650000e-002) (46, 8.12522714896831560000e-002) (47, 2.61499991500262260000e-001) (48, 3.12268947929998760000e-001) (49, 1.44060542750308550000e-001) (50, 7.04701110659616830000e-003) (51, -1.56257574405750300000e-001) (52, 6.30421283449491890000e-001) (53, 2.43461116008834910000e-001) (36, -6.15883855640805280000e-002) (37, 3.82103683939333030000e-001) (38, 2.32786787432415630000e-001) (39, 4.29285671275701050000e-001) (40, 2.52812422496445870000e-001) (41, 3.85291066406415530000e-001) (42, 3.14099192865717690000e-001) (43, -5.32585240403784240000e-002) (44, 3.55846359329318410000e-001) (45, 4.81581941193312990000e-001) (46, 2.54735244231029500000e-001) (47, 1.66788576547691470000e-001) (48, 6.95958930140069820000e-003) (49, -1.39781962829678090000e-001) (50, -7.36686805945134390000e-002) (51, -8.71091418505474530000e-002) (52, 1.75425909445256790000e-001) (53, 3.95032741077792630000e-001) (36, 1.09666574180694530000e-001) (37, 3.91718532044032060000e-001) (38, 2.79442304319654280000e-001) (39, -1.27986471200209730000e-001) (40, 2.65709393958768030000e-001) (41, 3.23554004939586640000e-001) (42, 1.01326491300124080000e+000) (43, -3.41328328755601120000e-002) (44, 4.43372585548112430000e-001) (45, -1.48863994215010900000e-001) (46, -2.61711092460787610000e-001) (47, -7.12705639206007850000e-003) (48, 2.29858816511250120000e-001) (49, -4.85981651223603570000e-002) (50, -1.65913287079213350000e-002) (51, -1.16698986041470480000e-001) (52, 3.64555793689903930000e-001) (53, 3.57673121380465970000e-001) 
