FANN_FLO_2.1
num_layers=3
learning_rate=0.700000
connection_rate=1.000000
network_type=0
learning_momentum=0.000000
training_algorithm=2
train_error_function=1
train_stop_function=0
cascade_output_change_fraction=0.010000
quickprop_decay=-0.000100
quickprop_mu=1.750000
rprop_increase_factor=1.200000
rprop_decrease_factor=0.500000
rprop_delta_min=0.000000
rprop_delta_max=50.000000
rprop_delta_zero=0.100000
cascade_output_stagnation_epochs=12
cascade_candidate_change_fraction=0.010000
cascade_candidate_stagnation_epochs=12
cascade_max_out_epochs=150
cascade_max_cand_epochs=150
cascade_num_candidate_groups=2
bit_fail_limit=3.49999999999999980000e-001
cascade_candidate_limit=1.00000000000000000000e+003
cascade_weight_multiplier=4.00000000000000020000e-001
cascade_activation_functions_count=10
cascade_activation_functions=3 5 7 8 10 11 14 15 16 17 
cascade_activation_steepnesses_count=4
cascade_activation_steepnesses=2.50000000000000000000e-001 5.00000000000000000000e-001 7.50000000000000000000e-001 1.00000000000000000000e+000 
layer_sizes=38 19 4 
scale_included=0
neurons (num_inputs, activation_function, activation_steepness)=(0, 0, 0.00000000000000000000e+000) (0, 0, 0.00000000000000000000e+000) (0, 0, 0.00000000000000000000e+000) (0, 0, 0.00000000000000000000e+000) (0, 0, 0.00000000000000000000e+000) (0, 0, 0.00000000000000000000e+000) (0, 0, 0.00000000000000000000e+000) (0, 0, 0.00000000000000000000e+000) (0, 0, 0.00000000000000000000e+000) (0, 0, 0.00000000000000000000e+000) (0, 0, 0.00000000000000000000e+000) (0, 0, 0.00000000000000000000e+000) (0, 0, 0.00000000000000000000e+000) (0, 0, 0.00000000000000000000e+000) (0, 0, 0.00000000000000000000e+000) (0, 0, 0.00000000000000000000e+000) (0, 0, 0.00000000000000000000e+000) (0, 0, 0.00000000000000000000e+000) (0, 0, 0.00000000000000000000e+000) (0, 0, 0.00000000000000000000e+000) (0, 0, 0.00000000000000000000e+000) (0, 0, 0.00000000000000000000e+000) (0, 0, 0.00000000000000000000e+000) (0, 0, 0.00000000000000000000e+000) (0, 0, 0.00000000000000000000e+000) (0, 0, 0.00000000000000000000e+000) (0, 0, 0.00000000000000000000e+000) (0, 0, 0.00000000000000000000e+000) (0, 0, 0.00000000000000000000e+000) (0, 0, 0.00000000000000000000e+000) (0, 0, 0.00000000000000000000e+000) (0, 0, 0.00000000000000000000e+000) (0, 0, 0.00000000000000000000e+000) (0, 0, 0.00000000000000000000e+000) (0, 0, 0.00000000000000000000e+000) (0, 0, 0.00000000000000000000e+000) (0, 0, 0.00000000000000000000e+000) (0, 0, 0.00000000000000000000e+000) (38, 5, 5.00000000000000000000e-001) (38, 5, 5.00000000000000000000e-001) (38, 5, 5.00000000000000000000e-001) (38, 5, 5.00000000000000000000e-001) (38, 5, 5.00000000000000000000e-001) (38, 5, 5.00000000000000000000e-001) (38, 5, 5.00000000000000000000e-001) (38, 5, 5.00000000000000000000e-001) (38, 5, 5.00000000000000000000e-001) (38, 5, 5.00000000000000000000e-001) (38, 5, 5.00000000000000000000e-001) (38, 5, 5.00000000000000000000e-001) (38, 5, 5.00000000000000000000e-001) (38, 5, 5.00000000000000000000e-001) (38, 5, 5.00000000000000000000e-001) (38, 5, 5.00000000000000000000e-001) (38, 5, 5.00000000000000000000e-001) (38, 5, 5.00000000000000000000e-001) (0, 5, 0.00000000000000000000e+000) (19, 5, 5.00000000000000000000e-001) (19, 5, 5.00000000000000000000e-001) (19, 5, 5.00000000000000000000e-001) (0, 5, 0.00000000000000000000e+000) 
connections (connected_to_neuron, weight)=(0, 6.30364284628882050000e-001) (1, 3.06967866484555320000e-001) (2, 7.63100869857603840000e+000) (3, 1.94492911503515890000e-001) (4, 2.73531807020976240000e-001) (5, 3.13476215717519880000e-001) (6, 1.81542332531509420000e+001) (7, 2.80128620690537840000e-001) (8, -7.46151082603221830000e+000) (9, 8.83192990757933670000e-001) (10, 1.92603500385176500000e+001) (11, -1.29932837430221060000e+000) (12, -2.92749092122072430000e+000) (13, 1.77790712367291340000e+000) (14, 3.83543874253284220000e+000) (15, 5.41673793131000720000e-001) (16, 4.19853837837789360000e+000) (17, 2.83288305136682460000e-001) (18, -4.62714303591506670000e+000) (19, 4.75513590864521940000e-001) (20, -7.81862284459892810000e+000) (21, 4.50831241386868520000e+000) (22, -1.00466945232185910000e-001) (23, -1.14208455455428900000e+000) (24, 2.90090507175642000000e-001) (25, 2.03830458407951440000e-002) (26, 8.95230227037412800000e+000) (27, 3.60322205921998650000e-001) (28, 3.43452058742006790000e-001) (29, 1.36098129462227860000e+000) (30, 4.44635099533664760000e+000) (31, 4.68966648536748300000e-001) (32, 1.62150767807361550000e+000) (33, 4.61561713636406470000e-001) (34, 1.25492866634554880000e+000) (35, -4.29719188535297280000e-001) (36, 4.99224238506130740000e+000) (37, 4.17559992444460740000e-001) (0, -4.47497671660389430000e+000) (1, 6.05664347762629900000e-001) (2, -2.03472656125509330000e-001) (3, 1.02869501097403430000e+000) (4, -2.78052346300360840000e+000) (5, 4.61479303795999940000e-001) (6, -2.55752266556078030000e+000) (7, 1.52224340356369470000e+000) (8, 3.65964512984317090000e-001) (9, 4.53371198499775360000e-001) (10, 3.97510012812873240000e-001) (11, 5.11293511640753650000e-001) (12, 1.17018539675873610000e+001) (13, 3.94378057935754530000e-001) (14, 1.02938290407719250000e+000) (15, 1.85298786144268730000e+000) (16, 1.29467989139824850000e-001) (17, 4.54047934167608860000e-001) (18, 3.66136192938354310000e-001) (19, -1.82700840107375450000e-002) (20, -2.15297964927340180000e+001) (21, 5.56207717420334590000e-001) (22, 3.00793406341741850000e+000) (23, 6.07926842181948370000e-001) (24, -7.82352038078156740000e+000) (25, 7.77392937640961070000e-001) (26, 1.88606240129487620000e-001) (27, 1.63536717182507060000e-001) (28, 2.17756187244347330000e+000) (29, 2.60370321017083630000e-001) (30, -5.37214433560852970000e-001) (31, 1.17303950680880310000e+000) (32, -4.61584847872459480000e+000) (33, 4.05320946326688690000e-001) (34, -3.98371111135303390000e+000) (35, 1.91021557380851550000e-001) (36, 3.78853107551519130000e-001) (37, 4.98434303090792510000e-001) (0, 4.99292453341977690000e-001) (1, 6.31216252751394700000e-001) (2, -8.96593789755124600000e-001) (3, 1.10942504815083930000e-001) (4, -1.62479598700500140000e+001) (5, 6.97254202092716380000e-001) (6, -8.60587774374801720000e-001) (7, 7.63607257822473410000e-001) (8, 3.63667971238846950000e+000) (9, -3.02915317854165530000e-001) (10, -3.24345452964758830000e+000) (11, -7.94467445849617730000e-002) (12, 5.25110387715558070000e+000) (13, 6.20421294761206110000e-001) (14, -6.17423291844969400000e+000) (15, 2.52551139659516480000e-001) (16, 3.63312212863838970000e-001) (17, 6.64256039124757950000e-001) (18, -1.93518056475921260000e+000) (19, -9.04000730707554680000e-002) (20, 5.95968695418361530000e+000) (21, -2.18949178986697110000e-002) (22, 2.35487003217796640000e-001) (23, -1.75032584230648670000e+000) (24, -4.41329621432447450000e+000) (25, 2.86279417767308330000e-002) (26, -1.41841208416192740000e+000) (27, -4.82614920675140740000e-002) (28, -5.55159756659714290000e-001) (29, 1.26913010985853190000e+000) (30, 3.19756602524886910000e-001) (31, 2.87442168032628450000e-001) (32, -4.55671638107578140000e+000) (33, -4.20229901425056510000e-001) (34, -5.71069010673187180000e+000) (35, 5.04996316173931150000e-001) (36, -1.96261073128289600000e+001) (37, 8.78206289744553060000e-002) (0, -3.65961463202201460000e+000) (1, -2.93943620320395120000e-001) (2, -8.05642184106682200000e-001) (3, 1.32550768764135230000e+000) (4, -3.57746745847871570000e+001) (5, -4.12920256339600330000e-001) (6, 6.84888695682086810000e+000) (7, 4.72083326329776790000e-001) (8, -8.72480380396662870000e-001) (9, 1.29339291337674460000e+000) (10, 2.45184764362032060000e-002) (11, 5.09030933760168480000e+000) (12, -2.53950779966149550000e+001) (13, -8.87422783753806930000e-002) (14, 7.53012551741085830000e-001) (15, 9.50398897174259290000e-001) (16, 2.69441866323861030000e+001) (17, 9.63422769580161820000e-001) (18, -3.90848954902881460000e-001) (19, 1.13910988751724650000e+000) (20, -2.40805062662716910000e+001) (21, 1.12129085782250710000e+000) (22, 1.49664719681099910000e+000) (23, 3.26688665353173590000e-001) (24, -1.70433182895706260000e+000) (25, -3.12466530201989500000e-001) (26, 6.28520756702091530000e+000) (27, 1.24956747357983720000e+000) (28, -9.73973302825049990000e+000) (29, -3.03013688955801500000e-001) (30, 3.66240599685216660000e-001) (31, 4.94364813110002350000e-001) (32, 4.24606574213325760000e-001) (33, 3.73993186536306140000e-001) (34, 2.08095994011869620000e+000) (35, 1.23297198901680540000e+000) (36, 1.67285111121919100000e+001) (37, 4.24446964093540600000e-001) (0, 3.69913982305389520000e-001) (1, 4.94976204313508750000e-001) (2, 5.49290977322170180000e+000) (3, 3.23040348621916440000e-001) (4, -4.88921577920134890000e+000) (5, 8.13912242992925350000e+000) (6, 1.92504005741419770000e+001) (7, 2.76458027754036990000e-001) (8, -8.61530927828238720000e+000) (9, 1.91543121270956780000e+000) (10, -3.53860141783136720000e+000) (11, -6.30214615536314330000e-002) (12, -4.61761214535519050000e-001) (13, 8.87055318376860690000e-001) (14, 5.77849492627287690000e-001) (15, 1.52684647531453680000e+000) (16, 4.32035109699605850000e-001) (17, 3.20048317780418700000e-001) (18, 5.00764154184197800000e+000) (19, 7.72625406697913800000e-001) (20, 4.30216114824264470000e+000) (21, 4.36294847225018050000e-001) (22, -7.17247511385289460000e+000) (23, 1.99383140846941640000e-001) (24, 5.65392274195820300000e+000) (25, 1.76336307853035530000e-001) (26, -5.01883572131928450000e+000) (27, 1.28232192973385350000e+000) (28, 1.33689991245955860000e+001) (29, 1.98370168327653830000e-001) (30, -1.00698489921675630000e+000) (31, 3.41626324764160660000e-001) (32, 4.05135507779516180000e-001) (33, 7.71228957340092890000e-001) (34, -1.04332634194783820000e+000) (35, 1.40234597365422790000e+000) (36, 6.54512115064810460000e+000) (37, 4.39211477176172700000e-001) (0, -8.14138404348621590000e+000) (1, -3.85108897668925480000e-001) (2, 2.57789702285921020000e+000) (3, 1.12867451978783830000e-001) (4, -1.30042839225028860000e+001) (5, 2.85036502965955730000e-001) (6, 6.86878803380446000000e+000) (7, 2.53308427693053890000e-001) (8, 2.77339978483692960000e+000) (9, 5.72342880664353020000e-001) (10, 1.60732147958724990000e+001) (11, 5.72954230864251010000e-001) (12, -3.63069242376750050000e+000) (13, 1.85463362289330390000e-001) (14, 2.01941603654467140000e+000) (15, -1.21997568262058210000e+000) (16, -8.19278770924733380000e+000) (17, 1.75710744180706950000e-001) (18, -2.53773425097083060000e-001) (19, 4.10776631647502830000e-001) (20, 6.50047049309738250000e+000) (21, 2.79374878788389070000e-001) (22, -2.03207939102295260000e-001) (23, 1.15752301877248430000e+000) (24, -1.50749109602306920000e+000) (25, -5.55109561468545180000e-001) (26, -4.92650175458400060000e-001) (27, 5.78368292618222310000e-001) (28, -1.94941826367874660000e-001) (29, -2.04383085112463170000e-001) (30, -4.93018850055348780000e+000) (31, -2.48244404923851000000e-001) (32, -7.61140111769096170000e+000) (33, -5.70371396463582920000e-001) (34, -5.19741402511651800000e+000) (35, 9.65091634579162690000e-002) (36, -1.16124254226597910000e+000) (37, -2.38059325311329280000e-001) (0, 5.13785828604832950000e+000) (1, 1.99136197442239290000e-002) (2, -3.52554102671165290000e+000) (3, 2.98130034443617410000e-001) (4, 1.21932220723088340000e+000) (5, -7.57873467472521680000e-002) (6, -5.19640878314043690000e+000) (7, -1.40483542949632970000e+000) (8, -2.50874496611858430000e-002) (9, -7.46332347165395430000e-002) (10, 1.38446614664195630000e+000) (11, 3.09503031678032320000e-002) (12, -1.92912732843481540000e+000) (13, -1.02915956453150090000e-002) (14, 2.51040046706998330000e+000) (15, -7.53544277854360270000e-003) (16, 4.10712289506318830000e-001) (17, -8.01493345771711330000e-002) (18, 3.28078900630426720000e-001) (19, -5.12285415392339930000e-002) (20, -3.11016950821888480000e-002) (21, -1.20110800354960650000e-001) (22, 2.22261284713905030000e+000) (23, -9.94723772408173250000e-002) (24, 2.93966213459479730000e+000) (25, 7.14486242477615500000e-002) (26, -1.87176551940000540000e+000) (27, -2.85190262511150870000e-001) (28, 3.22274462094425950000e-002) (29, 9.35269368919177250000e-002) (30, -1.02811991021222850000e+000) (31, -1.87696115587649540000e-001) (32, 3.15901844039381260000e-001) (33, -2.11573621327068810000e-001) (34, 9.95592260805000960000e+000) (35, -9.36380311482310490000e-002) (36, 1.70853498855103860000e+000) (37, 1.39866084727490240000e-001) (0, -1.17103447669397780000e+000) (1, -4.83054813215128550000e-001) (2, 2.90555773817066490000e-001) (3, 1.99868027809901510000e-001) (4, 9.45042480917267060000e-001) (5, -1.12339926905848850000e-001) (6, -3.56635392465957810000e+000) (7, -3.46324228060105880000e-001) (8, 1.35654878617765330000e+000) (9, -2.50576433099251480000e-001) (10, 3.50974782455200310000e-001) (11, -3.18701733000546220000e-002) (12, 1.38558717116013890000e+000) (13, 1.27435534057326440000e-001) (14, 2.68209661959979460000e+000) (15, 3.11839845615626720000e-001) (16, -9.77657172678277620000e-002) (17, -3.00055703442671410000e-001) (18, -9.20840197432243320000e-001) (19, -1.18503228289756690000e-001) (20, -3.14751628769588180000e-001) (21, -1.66631407272323170000e-001) (22, 1.97177167630813520000e+000) (23, 5.06919126954817780000e-001) (24, -1.60866929256337080000e+000) (25, -3.57292398411017680000e-002) (26, 7.95635681422337000000e+000) (27, -1.99007325007681420000e-001) (28, -2.30628130068152790000e+000) (29, 9.09266033924708700000e-002) (30, 4.07782612828622380000e-001) (31, -1.83611581751988410000e-001) (32, -2.02441544287815580000e+000) (33, -9.63280623203462280000e-002) (34, -4.56268488037192200000e+000) (35, -1.10145417476785350000e+000) (36, -4.58339907717891460000e-001) (37, 4.03114494060839770000e-001) (0, -3.70877356341074730000e+000) (1, 3.23701650163815830000e-002) (2, 1.31008519384156850000e+001) (3, -1.38694776164220990000e-001) (4, -1.74399133490294100000e+001) (5, -1.10093093294186070000e-001) (6, 2.11608929762383190000e+000) (7, 1.21380517846777070000e-002) (8, -4.19994075818638850000e-001) (9, -2.31696279426093420000e-001) (10, -2.32629109563572860000e-001) (11, -5.47251109813977620000e-001) (12, -3.04463912782128250000e+000) (13, 1.46853549564199050000e-001) (14, -1.67576829712351350000e+000) (15, 1.97435780624013010000e+000) (16, -1.44360255278437880000e-001) (17, -1.01693009013913560000e+000) (18, 5.58746657828660840000e-001) (19, 4.58198787550126720000e-002) (20, 6.26305299733293070000e-001) (21, -1.88720646129165640000e-001) (22, -1.12487145577934860000e+001) (23, 4.51198954636303440000e-001) (24, -1.24646868894136990000e-001) (25, -1.20224446430078970000e+000) (26, -8.56630446279431720000e+000) (27, -1.25709052212547620000e+000) (28, -1.86966778556167630000e+000) (29, 1.43469934441186020000e-002) (30, -4.35623878722370430000e+000) (31, -1.07119146902299230000e-002) (32, 8.40472981308197590000e-001) (33, 6.46471654140226120000e-001) (34, 4.57675405539445580000e-001) (35, -1.00663575833018020000e+000) (36, 4.59029033347926160000e-001) (37, -1.24020609443161830000e-001) (0, 1.00053220874392320000e+001) (1, -2.28824973529547290000e+000) (2, -7.61594620856924550000e+000) (3, -1.41842168060820310000e-001) (4, 1.61996222213279760000e+000) (5, 6.90857569052719440000e-001) (6, -5.46024775594908100000e+000) (7, -8.40553054575772230000e-002) (8, 3.94113194262822940000e-002) (9, -1.29189186288346500000e+000) (10, -3.82872506152029450000e-001) (11, -1.96262084366279980000e-001) (12, -1.18923088574039420000e+001) (13, -2.47047262348731060000e-001) (14, -1.52360643003440250000e+000) (15, 8.89087775703591100000e-001) (16, 1.00502910465845410000e+000) (17, -3.91699127180385460000e-001) (18, 6.92682376815230330000e+000) (19, 4.00690131932176950000e-001) (20, 4.42593024754575020000e-001) (21, 1.46014623058086190000e+000) (22, 2.47800640516531260000e+000) (23, -3.25386596847819170000e+000) (24, 6.81028749485144050000e+000) (25, 2.20873596344356440000e-001) (26, -1.79998307498131030000e+001) (27, 3.85193056692521350000e-001) (28, 1.01190768114400110000e+000) (29, 2.69545421029596610000e-001) (30, 1.87828885824444460000e+000) (31, -1.89902952694529530000e-001) (32, 2.38194305303559070000e+000) (33, -1.13259498707910370000e+000) (34, 1.17740622989013220000e+000) (35, 5.50508393184107740000e-002) (36, -1.39221191764487810000e+001) (37, -9.88814190703567740000e-002) (0, -1.00347746637004440000e+001) (1, -3.59771825741781950000e+000) (2, -6.71557432868066460000e-001) (3, 9.66417809624431580000e-001) (4, -6.08348313560541510000e+000) (5, 4.47951679494414560000e-001) (6, -2.09611320181198090000e+001) (7, -5.76213760100834010000e-002) (8, 2.37659319681053340000e+000) (9, 6.82580118975243730000e-001) (10, 1.43418057097583200000e+001) (11, 9.56534591564949100000e-002) (12, 3.95610969285649890000e+000) (13, -4.57987585198040890000e-001) (14, 1.53237540347233670000e+000) (15, -2.92803780981940210000e-001) (16, 1.12198090295399690000e+000) (17, 5.16403123645430280000e-001) (18, -8.27521892623765790000e+000) (19, -3.08434493443050920000e+000) (20, 8.23396124327066840000e+000) (21, -1.10319710774438500000e+000) (22, -4.16929728086440490000e-002) (23, 3.70932700708834990000e-001) (24, 1.40061233422365980000e-001) (25, -3.95269859170039430000e-001) (26, 8.22635839875096590000e-003) (27, -9.54278989691479840000e-001) (28, -3.06296606321250180000e+000) (29, -1.31654493946748660000e-001) (30, 6.71838300938452360000e+000) (31, 9.58103062362842040000e-001) (32, 5.76479418521089640000e-001) (33, -3.17120251016595400000e-002) (34, -4.49054617946807260000e+000) (35, -2.00731027163889570000e+000) (36, -6.87463481723008570000e+000) (37, -4.07700694110373520000e-001) (0, -3.68105039459814960000e+000) (1, 3.82907211576144710000e-001) (2, 3.34039100773159630000e+001) (3, 3.38797630287957440000e+000) (4, -4.61162635638854110000e+000) (5, 1.00580247987326050000e+000) (6, -2.15911195356257830000e+001) (7, -1.14705291231499270000e-001) (8, 1.34536158863437820000e+000) (9, 1.76658613048470590000e+000) (10, 1.85676186620979980000e+000) (11, 9.96163167078408240000e-001) (12, 1.11525684562321600000e+001) (13, 2.04663850919019900000e-001) (14, -9.46257478827161340000e+000) (15, -3.59698317037709330000e-001) (16, -2.12335056906752620000e+001) (17, -6.71936469228017340000e-002) (18, 1.20996603023165770000e+000) (19, 3.28185398614933230000e+000) (20, -1.22903214402640870000e+000) (21, 9.55960822818156860000e-001) (22, 1.24626136624037040000e+001) (23, 3.40691599684150300000e-001) (24, -1.91868069845078150000e+001) (25, -4.57568365590436120000e-001) (26, 2.52980504083198050000e+000) (27, 6.51272689896498450000e-001) (28, -1.33964708182524990000e+001) (29, 2.27586434801925360000e-001) (30, -2.35393983491993760000e+000) (31, 4.24744066870887320000e-002) (32, -5.55621472003679170000e+000) (33, 1.13897855317546840000e+000) (34, 9.43772795048235660000e+000) (35, 6.14302389722757520000e+000) (36, 4.83339988494763610000e+000) (37, 3.10775222514834530000e-001) (0, -4.06846788006471950000e-001) (1, -2.81959354338474630000e-001) (2, 3.81123522569270490000e+000) (3, 1.04716897905935550000e-001) (4, 1.00856538582806190000e+001) (5, 2.88118519208717050000e-002) (6, 3.39323479712836940000e-001) (7, 9.17327955481299200000e-001) (8, 1.12387035203853620000e+000) (9, -2.22001371369498050000e-001) (10, 6.57496445143489370000e-001) (11, -9.65482492059269690000e-003) (12, 4.09655560058917840000e-001) (13, 4.74480482434492090000e-001) (14, 2.40339046107606920000e+000) (15, -6.83617550718310650000e-002) (16, -2.13144320070639330000e+000) (17, 2.64444546978234220000e-001) (18, -3.02844994826816550000e-002) (19, -5.28588958457086310000e-001) (20, 1.29308889265279410000e+000) (21, 4.12611568566277790000e-001) (22, 4.23229361139863880000e-002) (23, -1.13675473987247040000e+000) (24, 7.99843492203785370000e+000) (25, 5.95507964830120850000e-002) (26, -2.42495218451494980000e+000) (27, 9.94309908427910450000e-001) (28, 2.21577275070741120000e+000) (29, 1.43321859192601240000e-001) (30, -5.45761566134767010000e-001) (31, 1.54988609555053390000e-001) (32, 1.25405514840366850000e+001) (33, -9.99296037631774300000e-002) (34, -1.68682220006278550000e-001) (35, 8.16071947959669770000e-004) (36, 2.34062981495590040000e+000) (37, 5.44892241557835210000e-002) (0, 2.75304534569200000000e+001) (1, -5.76475798777447480000e-001) (2, 3.90532451173073850000e+000) (3, 2.57806764890849480000e+000) (4, 1.17086720534610420000e+001) (5, 5.26282663569784040000e-001) (6, 5.72428312172043820000e-001) (7, -7.08595843253507880000e-003) (8, 1.22429297045204790000e+001) (9, -3.25550354794177380000e-001) (10, 1.43470920800527420000e-001) (11, -5.92638350000688320000e-001) (12, 1.62404990696465850000e+001) (13, -4.29273548513626150000e-001) (14, 1.10180557375728490000e+000) (15, 3.24934718724056550000e-001) (16, -1.08086571526031340000e+000) (17, -1.86671299097486840000e-001) (18, -1.86391435950517920000e+001) (19, -1.16349556060266120000e-001) (20, 1.64788389909276800000e+000) (21, 8.54200017322115480000e-001) (22, -7.26122733202202310000e+000) (23, -5.95957497210445220000e-001) (24, -2.11407920685502140000e+000) (25, 8.12054686903807420000e-002) (26, 3.22137531229172460000e+000) (27, 5.94503491264551170000e-002) (28, 1.43250142341114300000e+001) (29, 4.77177829905957470000e-001) (30, 1.78979667327094390000e-001) (31, 7.56443630973482440000e-001) (32, -5.61548119208637560000e-001) (33, 8.18307174791366390000e-001) (34, 4.98933319947850400000e-001) (35, 4.19246053563084920000e-001) (36, -1.53265958928284270000e+001) (37, 3.83172773101014500000e-004) (0, 3.97285946967118110000e-001) (1, 7.40846413147750180000e-002) (2, -6.55723302334870310000e-001) (3, -7.19908916019970090000e-002) (4, 4.58306243221348940000e-001) (5, 5.22953254501237270000e-002) (6, 4.36580201810444380000e-001) (7, 1.41712057173117740000e-001) (8, 1.10931224180222790000e+000) (9, -3.21792212338167380000e-002) (10, 7.15505942216719260000e-001) (11, -1.59706395787212210000e-001) (12, -7.05360555045866700000e-001) (13, -1.00228136971885820000e-001) (14, 3.84854237739621570000e-001) (15, -2.78472073115575980000e-001) (16, 3.53814307849054600000e-001) (17, 4.67196632612282670000e-001) (18, 1.92203586588368840000e-001) (19, 1.53838536506417270000e-001) (20, -4.89804823915387820000e-001) (21, -2.28833298312748120000e-001) (22, 1.00646789034567250000e+000) (23, -1.51033262911051930000e-001) (24, 4.90054902581045280000e-001) (25, 1.64868070408630720000e-002) (26, 8.55248946699776910000e-001) (27, -1.19793752922867200000e-001) (28, 7.73419547400782560000e-001) (29, -1.58272889265490880000e-001) (30, 2.12302830943932570000e-001) (31, -1.70504924474610330000e-001) (32, 2.70035051769775490000e-001) (33, -1.10628457761782840000e-001) (34, 1.86191751112265600000e-001) (35, -2.16968923106247470000e-002) (36, 6.61458975956634050000e-001) (37, 1.24629232376928480000e-001) (0, 1.06570127837167990000e+000) (1, 2.09430466382316050000e-001) (2, -4.76470683185188040000e-001) (3, 3.28414009799850130000e-003) (4, 2.78250901827100260000e+000) (5, 7.70405903204078310000e-001) (6, -1.40787832925351990000e+001) (7, 9.31364346806846540000e-001) (8, 9.26035275054709950000e-001) (9, 1.10736628804450320000e+000) (10, -1.40693813269010410000e+001) (11, 4.11274302176160290000e-001) (12, -4.35997580109737220000e-001) (13, -1.88758838349364360000e-001) (14, -1.32552356338294810000e+000) (15, 1.02433651599021400000e+000) (16, 1.72749460796145190000e+000) (17, 3.58666688977200500000e-001) (18, 3.82930550876229180000e-001) (19, 1.43927091528506080000e-001) (20, 7.14957667345078370000e+000) (21, 1.46254406867822230000e-002) (22, 1.06087229491198820000e+001) (23, 1.05897000616470490000e+000) (24, -1.39529491748183900000e+000) (25, -2.53224833517779650000e-003) (26, 1.87684208576095000000e+000) (27, 1.38552272493850490000e+000) (28, -1.92276977662966970000e-001) (29, -4.29284562116470200000e-001) (30, -6.26194841645989760000e-002) (31, 3.42083647793334390000e-001) (32, -1.73425891193464030000e+000) (33, 1.40778947280305400000e+000) (34, -2.45573567032922460000e-001) (35, -1.65532393761943700000e-001) (36, 6.56974146763895290000e+000) (37, 3.50042598650731780000e-001) (0, -9.92539267278461870000e-001) (1, 1.59421684915082420000e+000) (2, 5.37882806720060810000e+000) (3, 2.43597967492012010000e-001) (4, -2.89509769886397660000e+001) (5, 2.31918251171424390000e-001) (6, 1.12079357496661310000e+001) (7, 1.97138578680286840000e+000) (8, 4.84432661428876090000e+000) (9, -8.97363050190311370000e-001) (10, -1.60057046864686580000e+001) (11, 6.42533490388143000000e-002) (12, 1.13848361436148230000e+001) (13, 1.81096075664352480000e+000) (14, -2.34854747785428830000e+001) (15, 6.31869405770060790000e-001) (16, 1.30759144483280740000e+000) (17, 5.42430280013356030000e-001) (18, 3.59285413073752570000e+000) (19, 6.07391860263879480000e-001) (20, 2.40193922100251990000e+001) (21, -9.88347552865914690000e-001) (22, 3.71557352015140680000e+000) (23, 1.47787528819374740000e+000) (24, 1.20948392027866780000e+001) (25, -9.76042498024684850000e-002) (26, 5.01653072700968660000e+000) (27, 4.68187912596368990000e-001) (28, -1.36169768089265460000e+000) (29, 1.06712627273782590000e+000) (30, -5.18667930468563390000e+000) (31, 1.14656710757675740000e+000) (32, 5.85662542016655950000e+000) (33, 4.06413077567956190000e-001) (34, 1.25937738975220940000e+000) (35, 2.38966885785213100000e+000) (36, 9.56224775954970600000e+000) (37, 1.99705314304677470000e-001) (0, -3.35578367795605900000e-001) (1, -3.26248020183838470000e-001) (2, 6.21926111736199430000e+000) (3, -1.05924056352080330000e-001) (4, -3.51634593334710300000e-002) (5, 4.86573013490886720000e-001) (6, 7.35078392835573750000e-001) (7, -3.66204216751007080000e-003) (8, 8.43218093201051790000e-001) (9, -6.46547542614994000000e-002) (10, 4.57257965285819970000e-001) (11, -2.73962006257840280000e-001) (12, 1.67350457200290400000e-002) (13, -1.14779371701879450000e-001) (14, 3.23865415319946460000e+000) (15, 2.85890618775194840000e-001) (16, 4.25728508209272050000e-001) (17, 8.25133514839112290000e-002) (18, 1.72848109803253300000e-001) (19, -2.21177699059344550000e-002) (20, 1.13581915280567670000e+000) (21, -2.29640088063384040000e-001) (22, 2.53484964975509810000e+000) (23, -1.12760433369165150000e-002) (24, -9.20675220286786280000e-001) (25, 3.24322406952849700000e-003) (26, 2.00386549748458290000e-001) (27, 1.58339248236715550000e-001) (28, 1.03683856177939960000e+000) (29, 3.15346928126629290000e-001) (30, 5.46724929727530400000e-001) (31, 2.35047671197219670000e-001) (32, 2.78061608849080930000e-001) (33, -2.44162134556477960000e-002) (34, -1.36817577186716080000e+000) (35, -1.76264601887072130000e-001) (36, 7.46515172372855760000e+000) (37, -6.89478421817923680000e-002) (38, 3.95485176337419810000e-001) (39, 4.91000737450672740000e-001) (40, -1.14306211695165550000e+000) (41, 8.42115729757186850000e-001) (42, -9.73857994656351370000e-001) (43, -1.18830682359317660000e+000) (44, 1.79251914035881170000e-001) (45, 4.04022611323340720000e-001) (46, -1.22395225160644210000e+000) (47, -7.84781588149263580000e-001) (48, -7.93673990463301450000e-001) (49, 7.03983530671078550000e-001) (50, 5.73938653011151210000e-001) (51, 9.46114053251352780000e-001) (52, -3.01135537954310970000e-001) (53, -7.16169815444927860000e-001) (54, 5.29886510297741030000e-001) (55, 9.46775584680281780000e-001) (56, 3.31934587457076660000e-001) (38, 1.30758496882147910000e+000) (39, 3.80137918406691030000e-001) (40, 2.60712203786794380000e-001) (41, -7.59158422614908960000e-001) (42, 6.81474488101601940000e-001) (43, 4.21710238114474890000e-001) (44, 4.27827872639540090000e-001) (45, 3.42109115484882930000e-001) (46, 2.45021069441061360000e-001) (47, 1.54456493000878650000e+000) (48, 8.72876453468137690000e-001) (49, -5.63803547167919470000e-001) (50, -1.03918581766432850000e+000) (51, -1.06705516803575410000e+000) (52, 5.10014785158907410000e-001) (53, 9.19609030893475120000e-001) (54, 8.90524025242814600000e-001) (55, -1.65020355797307430000e+000) (56, 4.69815462835283080000e-001) (38, -1.13299628091637960000e+000) (39, 5.45350870932102440000e-001) (40, 8.24206426893323130000e-001) (41, -5.46928722027595520000e-003) (42, 5.72054832190339370000e-001) (43, 9.11930163522174820000e-001) (44, 4.25661170560605650000e-001) (45, 3.67540901590415030000e-001) (46, 6.50712015380532580000e-001) (47, -7.82201973348792160000e-001) (48, -4.39798784940248160000e-001) (49, -8.16558735243368280000e-002) (50, 8.07426548866602030000e-001) (51, 4.79583678268225570000e-001) (52, 9.22715586124250860000e-001) (53, 1.79338105102497790000e-001) (54, -8.37255286147040370000e-001) (55, 3.96394270581377080000e-002) (56, 3.58477729209188910000e-001) 
