FANN_FLO_2.1
num_layers=3
learning_rate=0.700000
connection_rate=1.000000
network_type=0
learning_momentum=0.000000
training_algorithm=2
train_error_function=1
train_stop_function=0
cascade_output_change_fraction=0.010000
quickprop_decay=-0.000100
quickprop_mu=1.750000
rprop_increase_factor=1.200000
rprop_decrease_factor=0.500000
rprop_delta_min=0.000000
rprop_delta_max=50.000000
rprop_delta_zero=0.100000
cascade_output_stagnation_epochs=12
cascade_candidate_change_fraction=0.010000
cascade_candidate_stagnation_epochs=12
cascade_max_out_epochs=150
cascade_max_cand_epochs=150
cascade_num_candidate_groups=2
bit_fail_limit=3.49999999999999980000e-001
cascade_candidate_limit=1.00000000000000000000e+003
cascade_weight_multiplier=4.00000000000000020000e-001
cascade_activation_functions_count=10
cascade_activation_functions=3 5 7 8 10 11 14 15 16 17 
cascade_activation_steepnesses_count=4
cascade_activation_steepnesses=2.50000000000000000000e-001 5.00000000000000000000e-001 7.50000000000000000000e-001 1.00000000000000000000e+000 
layer_sizes=38 15 4 
scale_included=0
neurons (num_inputs, activation_function, activation_steepness)=(0, 0, 0.00000000000000000000e+000) (0, 0, 0.00000000000000000000e+000) (0, 0, 0.00000000000000000000e+000) (0, 0, 0.00000000000000000000e+000) (0, 0, 0.00000000000000000000e+000) (0, 0, 0.00000000000000000000e+000) (0, 0, 0.00000000000000000000e+000) (0, 0, 0.00000000000000000000e+000) (0, 0, 0.00000000000000000000e+000) (0, 0, 0.00000000000000000000e+000) (0, 0, 0.00000000000000000000e+000) (0, 0, 0.00000000000000000000e+000) (0, 0, 0.00000000000000000000e+000) (0, 0, 0.00000000000000000000e+000) (0, 0, 0.00000000000000000000e+000) (0, 0, 0.00000000000000000000e+000) (0, 0, 0.00000000000000000000e+000) (0, 0, 0.00000000000000000000e+000) (0, 0, 0.00000000000000000000e+000) (0, 0, 0.00000000000000000000e+000) (0, 0, 0.00000000000000000000e+000) (0, 0, 0.00000000000000000000e+000) (0, 0, 0.00000000000000000000e+000) (0, 0, 0.00000000000000000000e+000) (0, 0, 0.00000000000000000000e+000) (0, 0, 0.00000000000000000000e+000) (0, 0, 0.00000000000000000000e+000) (0, 0, 0.00000000000000000000e+000) (0, 0, 0.00000000000000000000e+000) (0, 0, 0.00000000000000000000e+000) (0, 0, 0.00000000000000000000e+000) (0, 0, 0.00000000000000000000e+000) (0, 0, 0.00000000000000000000e+000) (0, 0, 0.00000000000000000000e+000) (0, 0, 0.00000000000000000000e+000) (0, 0, 0.00000000000000000000e+000) (0, 0, 0.00000000000000000000e+000) (0, 0, 0.00000000000000000000e+000) (38, 5, 5.00000000000000000000e-001) (38, 5, 5.00000000000000000000e-001) (38, 5, 5.00000000000000000000e-001) (38, 5, 5.00000000000000000000e-001) (38, 5, 5.00000000000000000000e-001) (38, 5, 5.00000000000000000000e-001) (38, 5, 5.00000000000000000000e-001) (38, 5, 5.00000000000000000000e-001) (38, 5, 5.00000000000000000000e-001) (38, 5, 5.00000000000000000000e-001) (38, 5, 5.00000000000000000000e-001) (38, 5, 5.00000000000000000000e-001) (38, 5, 5.00000000000000000000e-001) (38, 5, 5.00000000000000000000e-001) (0, 5, 0.00000000000000000000e+000) (15, 5, 5.00000000000000000000e-001) (15, 5, 5.00000000000000000000e-001) (15, 5, 5.00000000000000000000e-001) (0, 5, 0.00000000000000000000e+000) 
connections (connected_to_neuron, weight)=(0, -3.67029662843413050000e+000) (1, 8.34151939959153380000e-001) (2, -6.75990162796885930000e+000) (3, 2.20837283545131240000e-002) (4, -4.07154026660538960000e-001) (5, -3.71800627903806360000e-002) (6, -9.74880974460136680000e+000) (7, 1.65684239975239430000e-003) (8, 1.64756004638941280000e+001) (9, -7.55184922351221030000e-001) (10, -5.03203936268513270000e+000) (11, 5.15245503877798110000e-001) (12, -5.98174905082153980000e-001) (13, -2.59776052852006200000e+000) (14, -1.10046631324925280000e+001) (15, -9.49206407944157560000e-001) (16, 1.83018709333765580000e+000) (17, -3.72546269537892220000e-001) (18, 7.07551730021230260000e+000) (19, -1.65737186242038150000e-001) (20, 1.76038383888346170000e+001) (21, -3.85551887973719420000e+000) (22, -5.70912254903101690000e+000) (23, 1.45368426565174060000e+000) (24, 7.18408706959412150000e+000) (25, 4.02534232894704140000e-001) (26, 1.86508556117854550000e+000) (27, 5.14654420360768580000e-001) (28, -1.13244215563989380000e+000) (29, -9.64672062685420380000e-001) (30, -3.33135332315306790000e+000) (31, -4.60922344812990600000e-001) (32, 1.50580703726640760000e+000) (33, -6.96417465682325760000e-001) (34, -6.69950489496352830000e-001) (35, 2.44143632585988730000e-001) (36, 5.33205260234470920000e+000) (37, 2.03291748544847720000e-001) (0, -2.55642849279751300000e+001) (1, 9.22861317277867910000e-001) (2, -1.18567675775580740000e+001) (3, 8.75171408875991760000e-001) (4, -2.61189466812438700000e+001) (5, 1.08634586973833680000e+000) (6, -2.53523523094558630000e+001) (7, 6.06811767858715600000e-001) (8, 3.09110867707430120000e+001) (9, -3.70476836067415330000e-001) (10, -2.12992727190840650000e+001) (11, 1.32582981626488270000e-001) (12, -9.28166140142456350000e-001) (13, 1.40483411174719010000e+000) (14, 2.13782496795509140000e+000) (15, -1.19120182756774470000e-001) (16, 4.80550586595198940000e+000) (17, 2.17388685159633430000e+000) (18, 1.15463391577222510000e+001) (19, 1.58517897492379790000e+000) (20, -4.38175218121461450000e+000) (21, 7.74855345020458050000e-001) (22, -3.15781229851440730000e+000) (23, 3.32406196854057430000e+000) (24, -4.08684140183940200000e+001) (25, 2.85804723718930550000e+000) (26, -1.55013883428921840000e+001) (27, 1.10856765431820500000e+000) (28, -6.78922019673208070000e+000) (29, -3.79022748509166730000e-001) (30, -1.78113007219881010000e+001) (31, -5.98762271246921380000e-001) (32, 4.81016821249614600000e+000) (33, 4.23214102734725710000e-001) (34, -3.52055269691590310000e+000) (35, -6.30214403828490030000e-001) (36, -2.49243818075690870000e+001) (37, 8.57023701214601250000e-001) (0, 5.46475001547796340000e+000) (1, -9.09502676203939870000e-002) (2, -8.50818187277474360000e+000) (3, 8.90173304448128370000e-001) (4, 2.71838163262457260000e+001) (5, 2.60457428557068160000e-001) (6, 2.76983236239459750000e+000) (7, 7.87454787354286530000e-001) (8, -3.58455034381776330000e+000) (9, 3.97300919795661340000e-001) (10, 5.00120107574611450000e-001) (11, 2.59471831713941110000e-001) (12, 7.25446146660621860000e+000) (13, -2.99272230380696390000e-001) (14, 6.47574186055401580000e+000) (15, -1.50197438321585740000e+000) (16, -1.45923480935045800000e+001) (17, 7.30307319520351990000e-001) (18, -2.05136969447063500000e+000) (19, -5.17186623852391450000e-001) (20, 1.06794462793193270000e+000) (21, 2.40095359198758240000e-001) (22, 1.42794920803815510000e+001) (23, -5.90781695623724400000e-001) (24, -1.89057561800856070000e+000) (25, -1.14271743376085300000e+000) (26, 1.51921637181773490000e+001) (27, -3.01172781747923060000e+000) (28, -6.01599026466719170000e+000) (29, 8.82351851646971660000e-002) (30, 1.46752713298169370000e+000) (31, -8.76022906568772460000e-001) (32, 1.98955984567513310000e+000) (33, -2.52124987802596090000e+000) (34, -8.78586956750035510000e-001) (35, -1.40840322989742970000e-001) (36, -1.24092386092091420000e+001) (37, -1.01046334069416170000e+000) (0, -1.56727608921726610000e+001) (1, 2.81937680617363570000e-001) (2, 2.25556918364827150000e+001) (3, 1.63542700636903380000e-001) (4, 1.98382042594341960000e+000) (5, -5.10631271933903230000e-001) (6, 3.65014791129911000000e+000) (7, -6.74523087975829490000e-001) (8, -6.19889638189217430000e+000) (9, -3.95779560406295510000e-003) (10, -1.72974116808419150000e+001) (11, -3.54332342425617510000e-001) (12, -2.15924811990313760000e+001) (13, 6.17455680371706730000e-001) (14, 2.69404229241456820000e+000) (15, 2.31513689619390310000e-001) (16, 3.70639951786482700000e+001) (17, -2.61598838905643230000e-001) (18, 2.22351736646373120000e+001) (19, -6.59294198393939550000e-001) (20, 1.19856599070897230000e+000) (21, -1.24365441920895000000e+000) (22, 1.72467523554939390000e+001) (23, 2.78351554674230890000e-001) (24, 3.51957270821572000000e+000) (25, -1.30403052291054890000e+000) (26, -8.85782429538015310000e+000) (27, 3.30350921724914430000e-001) (28, -8.48402462049114270000e+000) (29, 3.42021681554821240000e+000) (30, -3.10792394266832970000e-001) (31, -1.88318736146935670000e-001) (32, 2.54847000277458910000e+001) (33, 5.06279714639238380000e-001) (34, -1.46253474568092980000e+001) (35, -6.06967156360094790000e-001) (36, -5.26899949217970020000e+001) (37, -9.09828344210060130000e-003) (0, 1.12293753916714780000e+001) (1, 8.34017970373144850000e-002) (2, 2.89131616898085840000e+000) (3, 1.70431959794570350000e+000) (4, -5.10726656552013300000e+000) (5, 3.91646058584875020000e+000) (6, 8.92205495118945710000e+000) (7, 2.91599169226508250000e-001) (8, 4.49393595354541260000e-001) (9, 3.67600873600335110000e+000) (10, -8.91641741753130470000e+000) (11, -1.12687670762822330000e+000) (12, 5.01312497215800960000e+000) (13, -1.05431846640200330000e+000) (14, 1.11089118951380360000e+000) (15, -5.03368438132674070000e-001) (16, -2.48069972019553700000e+000) (17, 1.07690108402657540000e+000) (18, 5.67850793248255230000e+000) (19, 1.39593692364868320000e+000) (20, -5.98038651035327900000e+000) (21, 1.52346306469549410000e-001) (22, 7.68057958506145330000e+000) (23, 8.26271679280477400000e-001) (24, 2.12281318134771230000e+001) (25, 1.27531428998233710000e+000) (26, 4.54496769076470120000e+000) (27, 6.99328682879661320000e-001) (28, 6.41670570906297580000e+000) (29, 3.18812130794504920000e+000) (30, 4.75888767428256370000e+000) (31, -1.80770752745689730000e-002) (32, 1.35571142242839190000e+000) (33, 1.36298855288069910000e+000) (34, -4.66243659842835800000e+000) (35, 5.89999135561826700000e-001) (36, 3.90311052561267500000e+001) (37, 1.63391703098069720000e+000) (0, -1.27009729402552620000e+001) (1, 4.50780015083276970000e-001) (2, -2.29077784543785080000e-001) (3, 8.85848152714910020000e-001) (4, 6.89952967064956810000e+000) (5, 8.05986762285673010000e-001) (6, 2.34484268993796350000e+000) (7, 7.96819532059798720000e-001) (8, -4.49712850242180990000e+000) (9, 3.02115521310391160000e-001) (10, 8.67916059688303140000e+000) (11, 2.13785260588839760000e-001) (12, 2.29765587903021100000e-001) (13, -5.74345507680925960000e-001) (14, -3.56535235229946320000e+000) (15, -9.05017003590093960000e-001) (16, 5.06180062685261940000e+000) (17, 7.46134932598496840000e-001) (18, 4.20716576719417430000e+001) (19, -2.32320299605417170000e-001) (20, -2.17994939019561330000e+001) (21, -3.08494661610094480000e-001) (22, -5.69100476283130700000e+000) (23, 1.81988759503642520000e-001) (24, 2.15218142367390970000e+001) (25, 1.56531496710392880000e+000) (26, 1.57035126931011780000e+000) (27, 2.43953017049864050000e-001) (28, 1.83180317189116980000e+001) (29, -2.74356990487530980000e-001) (30, 4.97593976630890910000e+000) (31, 1.27736316870900810000e+000) (32, 1.83155435319233980000e-001) (33, -4.71216856939221720000e-001) (34, 1.14154778526252960000e+001) (35, 5.54242701078206410000e+000) (36, 7.83368357290920960000e+000) (37, -5.95016782575544020000e-001) (0, 1.43108212686971990000e+001) (1, 4.31738257678551730000e-001) (2, -9.80844484883285790000e+000) (3, -2.05262693734933530000e-001) (4, 1.58123533752314400000e+001) (5, -1.42298094177005760000e+000) (6, -3.34440267596678130000e+000) (7, 1.51950904073200090000e+000) (8, 5.57642850361714350000e+000) (9, -8.26406513167455060000e-001) (10, 1.27208315526044780000e+001) (11, 4.04033431113381880000e+000) (12, -5.36570257323821130000e-001) (13, -1.03848766384963960000e+000) (14, -2.22703644386645120000e+000) (15, -3.06626050754592320000e-001) (16, -7.75285788582474740000e-002) (17, 3.87119909181059260000e-001) (18, 3.82528705714260080000e+001) (19, -9.34995485402965730000e-001) (20, -2.77789347198171480000e+000) (21, 1.32922998621092030000e+000) (22, 1.20593630499541970000e+001) (23, 3.04165256490888490000e-001) (24, -1.98643634141450850000e+001) (25, 1.71785377143773650000e-001) (26, 2.30344003959633130000e+000) (27, 5.18121510158961020000e-001) (28, -4.07219768476115450000e+000) (29, -3.06084972113711460000e+000) (30, 2.94741010500544080000e+001) (31, -7.36237655228469840000e-001) (32, -4.86193970958362700000e+000) (33, -3.91012706242754580000e-001) (34, -1.03077968838037140000e+001) (35, 9.57080113908020060000e-001) (36, 4.39431295443139900000e+001) (37, -4.78832763398514160000e-001) (0, -9.63958127689088860000e+000) (1, 5.51797037892367670000e-001) (2, 2.37343758163385130000e+001) (3, 6.99094276399894080000e-001) (4, 2.75119622722730170000e+001) (5, -3.22415922329336690000e-001) (6, -9.32580258147416610000e+000) (7, -1.05663050953713870000e+000) (8, -6.64667407182155840000e+000) (9, 1.32053895173943350000e+000) (10, 4.12140247774595370000e+000) (11, 2.28195521816905190000e-001) (12, 1.60914217461141680000e+001) (13, 9.45414837887227240000e-001) (14, 2.59920018295445350000e+001) (15, 1.94619114043581740000e+000) (16, 5.50841908497118380000e+000) (17, -2.38863900354834290000e+000) (18, -4.06246829872693380000e+000) (19, -5.62672346165869920000e-001) (20, 1.91714984193057030000e+001) (21, 6.84494503648155560000e-001) (22, 4.15798307014438390000e+001) (23, 2.61791739654087080000e-002) (24, 2.32935066274961890000e+001) (25, 3.58430964559029450000e-001) (26, -4.35045755820750820000e+000) (27, 3.53232134757918430000e-001) (28, -5.79318470760099390000e+000) (29, 2.01585368014979150000e+000) (30, -1.74110381500064550000e+000) (31, 2.54822817903732850000e+000) (32, 1.04708666554646750000e+001) (33, 2.32984878330922870000e+000) (34, 1.16669633561426230000e+000) (35, 8.99629389215592320000e-001) (36, 7.52401417567360370000e+001) (37, 2.74780670183594810000e-001) (0, 1.33730890470516520000e+001) (1, -4.19050370362467120000e-001) (2, 6.25514758386433910000e+000) (3, -2.44046975342110030000e-001) (4, 8.06178853461262260000e+000) (5, -5.98269326031221960000e-001) (6, 2.02660130172417000000e+000) (7, -1.80884771624254010000e-001) (8, -1.66451749218415280000e+000) (9, -6.65882681843425690000e-001) (10, 9.10153925029139900000e+000) (11, -2.20956635032501100000e-001) (12, 8.16570803917625550000e+000) (13, -5.49257660475942700000e-002) (14, 1.41683527881904440000e+000) (15, 4.93196271003487560000e-001) (16, -3.62030040855082240000e+000) (17, -4.97109211211251220000e-002) (18, -7.67556561913910150000e+000) (19, -8.45535698575871080000e-002) (20, -8.37235639401884590000e+000) (21, -4.94104823046817510000e-002) (22, 1.71026048990963820000e-001) (23, -1.45557547249828570000e+000) (24, -1.41892692055948460000e+001) (25, 4.72872277143399840000e-002) (26, 4.17507741005656460000e+000) (27, 9.06657786077709890000e-002) (28, 3.29165353428218980000e+000) (29, -5.72724837617687440000e-002) (30, 8.29788889050793290000e-001) (31, 3.49816884396856540000e-001) (32, -7.72621515455006240000e+000) (33, -6.16410736612559850000e-001) (34, -1.04370040661224990000e+000) (35, 1.04362872285188990000e+000) (36, -2.71414836537727090000e+000) (37, 4.14289091999988090000e-001) (0, 9.06220756659816650000e+000) (1, 5.89095743334372090000e-001) (2, 1.17491463084283300000e+001) (3, -1.14131817483928640000e+000) (4, 1.00431292130189110000e+001) (5, 1.05568370160914800000e+000) (6, -1.41260324630718500000e+001) (7, 1.90757955997295660000e+000) (8, 2.16292713299618460000e+001) (9, 1.96273295833945860000e+000) (10, -2.19209406347523660000e+000) (11, 1.24587103501596010000e-001) (12, -1.18765713793727880000e+001) (13, 8.85758205111044530000e-001) (14, -1.62905440067644960000e+000) (15, 2.20885422515356280000e-001) (16, -1.29178427143747640000e+001) (17, -9.78391416187073700000e-001) (18, 8.89134469189607480000e+000) (19, 2.64311824210987030000e-001) (20, -3.35555423814468570000e-001) (21, 3.99083632713923330000e-001) (22, 8.58100456487631820000e+000) (23, -6.85357028231483920000e-001) (24, 1.83846982151697870000e-001) (25, -1.19575659156775240000e+000) (26, 1.17492451040421900000e+000) (27, -1.40930143130394490000e+000) (28, 1.06669102584681870000e+001) (29, 2.78210937056044110000e-001) (30, -6.91773381048047040000e+000) (31, 5.73616521156299130000e-001) (32, 4.60548618697630910000e+000) (33, -1.35788046712150480000e+000) (34, -2.06102838298811190000e+001) (35, -5.61723473029947960000e-001) (36, -1.17175451928898670000e+001) (37, -6.13921551298263650000e-001) (0, -9.46340132695114460000e+000) (1, -3.71284156307726320000e-001) (2, -7.73325849933499400000e-001) (3, 1.53605615708823830000e+000) (4, 5.59734758922064390000e+000) (5, -3.10714636388354820000e-002) (6, -2.83157219857112130000e+000) (7, 1.35898466963200780000e+000) (8, 1.46643769081568550000e+001) (9, 6.08119283904541620000e-001) (10, -4.23100538004158190000e+000) (11, 1.76254251504302140000e+000) (12, -2.15744756416876400000e+000) (13, -3.88562901807951670000e-001) (14, 2.36965771665220080000e+001) (15, -2.05197792393847190000e+000) (16, -2.35431907406939370000e+001) (17, 2.18974854695067340000e+000) (18, -9.01514990443905440000e+000) (19, -5.07381984073236760000e-001) (20, 1.86433049332695750000e+000) (21, 1.35031950132506350000e+000) (22, 6.90369686995871310000e+000) (23, 1.71292243353615610000e+000) (24, -1.21966409399900080000e+001) (25, -9.55733882504634420000e-001) (26, 2.64211228519655570000e+000) (27, -1.38238777170116660000e+000) (28, 1.96094480326405360000e+001) (29, 2.92274162371109030000e-002) (30, -1.10752309969739380000e+001) (31, -5.45857256978219300000e-001) (32, -5.75408033299836320000e+000) (33, -1.44424985249126530000e-001) (34, -7.79858741302260940000e+000) (35, -2.49402435651493860000e-001) (36, -3.55302953678548550000e+001) (37, 9.15695161182994710000e-002) (0, -4.38585124862768300000e+001) (1, 5.97972177986752130000e+000) (2, -7.52382648075977300000e+000) (3, 1.60716477876803810000e+000) (4, -1.42966153206608530000e+001) (5, -3.77686836573310590000e-001) (6, 1.17928088678190850000e+001) (7, 1.11244538526536730000e+000) (8, -3.30017473758680070000e+001) (9, 1.52458610585753010000e+000) (10, 3.17004583195249930000e+000) (11, 1.52165749164264040000e+000) (12, 4.74674692525693940000e+000) (13, 1.73150140722466570000e-001) (14, 6.54835168388304580000e-001) (15, 5.28684709937027280000e+000) (16, -7.04280853895127730000e+000) (17, 3.49532396350377760000e-002) (18, -2.07929038264113370000e+000) (19, 1.90558329975191490000e+000) (20, -5.83564811219585740000e+001) (21, -4.91654169608311320000e-001) (22, -4.58652648962266480000e-001) (23, -4.99724464111068690000e-001) (24, -1.33662438796159360000e+001) (25, 5.80392851447750550000e-001) (26, 4.81981448330709480000e+000) (27, 2.65200884098832250000e-001) (28, 1.05933447381231220000e+001) (29, 9.52252986165329500000e-001) (30, -1.56835554448413660000e+001) (31, 9.54433869063511020000e-001) (32, 8.91224529625946180000e+000) (33, -1.15305639823241050000e-001) (34, -1.01795120231018870000e+001) (35, 3.19668839677969710000e+000) (36, 3.21629559791030740000e+001) (37, 3.46577354314660910000e-001) (0, -7.21900600488701230000e+001) (1, 3.45243832508368960000e+000) (2, 3.54289947813238650000e+001) (3, -1.06210872947114600000e+000) (4, 3.15722250331989150000e+000) (5, 3.58359296469910160000e-001) (6, 4.92199741949838340000e+001) (7, 2.77549566815896260000e+000) (8, 9.88768870978199210000e+000) (9, 2.51279099835259640000e+000) (10, 1.96491395153676790000e+001) (11, 1.69289274934471370000e+000) (12, 2.03261127650756550000e+000) (13, 2.63491741586237490000e+000) (14, -1.26017924501119530000e-002) (15, 4.73492419202297120000e-001) (16, -7.11023300454269160000e+000) (17, 1.69449764742456100000e-001) (18, 1.84417410536445060000e+001) (19, 3.20180454580637490000e+000) (20, -4.52324217877294000000e+001) (21, -1.36117150959515150000e-001) (22, 1.67053210432244900000e+000) (23, 7.99959739544701450000e-001) (24, -8.82191657153805830000e+001) (25, 1.50241332319804970000e+000) (26, -1.89504329228583490000e+000) (27, 1.10540530371488210000e+000) (28, 2.04052420529229930000e+001) (29, -6.60059659827995220000e-002) (30, 6.82098796742203310000e-001) (31, 6.95052286209044130000e-002) (32, 6.77936143695696190000e+000) (33, 3.26081746659399400000e+000) (34, 2.46352782894841130000e+001) (35, 8.81762240129196860000e+000) (36, -2.73918410158128510000e+001) (37, 3.36778218789880180000e-001) (0, 1.83845753578041230000e+000) (1, 7.86145736072025200000e-001) (2, 3.68144631466568130000e+001) (3, -2.95197275786479000000e-002) (4, 3.17063811958610450000e+001) (5, 5.27788416713165790000e-001) (6, 9.62029646659905600000e+000) (7, 2.22010712974444640000e+000) (8, 9.92348585449968820000e+000) (9, 1.50447897847696210000e+000) (10, 4.64168084567057270000e+000) (11, 5.26080190212413920000e-001) (12, -4.52607043085505440000e+001) (13, -1.78554978807886460000e-001) (14, 2.56411146608268490000e+000) (15, 3.32940761964571050000e+000) (16, 1.14105397245938600000e+001) (17, 5.71850995761203910000e-001) (18, 4.07899563135472660000e+000) (19, 4.77600869067825620000e-001) (20, -8.89252260227108950000e+000) (21, 1.57167998469661700000e+000) (22, 2.85919552112536660000e+001) (23, 4.42423837155995690000e+000) (24, -7.26442024179518600000e+000) (25, 4.54723872011163770000e-002) (26, -5.52792513183752020000e+000) (27, -6.50393544038765480000e-001) (28, -2.20897343948549260000e+001) (29, 3.71524193521852950000e+000) (30, -1.04347816130365700000e+001) (31, 6.28602270159890230000e-001) (32, 1.51445398390304860000e+001) (33, -2.18971468390282530000e-001) (34, -2.36158683316557050000e+001) (35, 3.54097775432087360000e+000) (36, -3.83826211858755780000e+001) (37, 5.08742789996903260000e-001) (38, 1.10646097857019350000e+000) (39, 1.60855011772367450000e+000) (40, 3.84586844551600390000e+000) (41, -4.59281736580745290000e+000) (42, -9.05230567783779190000e-001) (43, -3.23952793154437120000e+000) (44, -2.58444101818669480000e+000) (45, 3.98339119807971230000e+000) (46, 1.47626092912318740000e+000) (47, -5.04552724431714860000e+000) (48, -1.74327402216554870000e+000) (49, 3.85085207224738320000e-001) (50, 2.21063789235006820000e+000) (51, 3.01537293930696880000e+000) (52, 1.44574083787133900000e+000) (38, -4.26562816460915780000e+000) (39, 2.72602221535372010000e+000) (40, -7.14200103480115090000e-001) (41, 1.75171889903809250000e+000) (42, 2.33045175575314280000e+000) (43, 4.30488697496007420000e+000) (44, 2.90327731979040850000e+000) (45, -1.96301303240917750000e+000) (46, -2.15536518020506040000e+000) (47, 2.41852203839786250000e+000) (48, -2.93624636788721330000e+000) (49, -2.01819156485496180000e+000) (50, -3.23604124524035970000e+000) (51, 9.06101703887204460000e-001) (52, 6.83759351560678020000e-001) (38, 2.16579542194017400000e+000) (39, 9.44634470478216690000e-001) (40, -3.09765419256315640000e+000) (41, 1.34196355725500220000e+000) (42, 1.18298802928121630000e+000) (43, -1.02432346460094230000e+000) (44, -1.70583579419469640000e-001) (45, -1.44353556212618080000e-001) (46, 3.39902810091387990000e+000) (47, 2.04021941342282620000e+000) (48, 4.24082533890021370000e+000) (49, 1.66791501036076760000e+000) (50, 5.60574315728299630000e-001) (51, -3.30761610261625760000e+000) (52, -2.58925125495112100000e-001) 
