FANN_FLO_2.1
num_layers=3
learning_rate=0.700000
connection_rate=1.000000
network_type=0
learning_momentum=0.000000
training_algorithm=2
train_error_function=1
train_stop_function=0
cascade_output_change_fraction=0.010000
quickprop_decay=-0.000100
quickprop_mu=1.750000
rprop_increase_factor=1.200000
rprop_decrease_factor=0.500000
rprop_delta_min=0.000000
rprop_delta_max=50.000000
rprop_delta_zero=0.100000
cascade_output_stagnation_epochs=12
cascade_candidate_change_fraction=0.010000
cascade_candidate_stagnation_epochs=12
cascade_max_out_epochs=150
cascade_max_cand_epochs=150
cascade_num_candidate_groups=2
bit_fail_limit=3.49999999999999980000e-001
cascade_candidate_limit=1.00000000000000000000e+003
cascade_weight_multiplier=4.00000000000000020000e-001
cascade_activation_functions_count=10
cascade_activation_functions=3 5 7 8 10 11 14 15 16 17 
cascade_activation_steepnesses_count=4
cascade_activation_steepnesses=2.50000000000000000000e-001 5.00000000000000000000e-001 7.50000000000000000000e-001 1.00000000000000000000e+000 
layer_sizes=38 28 4 
scale_included=0
neurons (num_inputs, activation_function, activation_steepness)=(0, 0, 0.00000000000000000000e+000) (0, 0, 0.00000000000000000000e+000) (0, 0, 0.00000000000000000000e+000) (0, 0, 0.00000000000000000000e+000) (0, 0, 0.00000000000000000000e+000) (0, 0, 0.00000000000000000000e+000) (0, 0, 0.00000000000000000000e+000) (0, 0, 0.00000000000000000000e+000) (0, 0, 0.00000000000000000000e+000) (0, 0, 0.00000000000000000000e+000) (0, 0, 0.00000000000000000000e+000) (0, 0, 0.00000000000000000000e+000) (0, 0, 0.00000000000000000000e+000) (0, 0, 0.00000000000000000000e+000) (0, 0, 0.00000000000000000000e+000) (0, 0, 0.00000000000000000000e+000) (0, 0, 0.00000000000000000000e+000) (0, 0, 0.00000000000000000000e+000) (0, 0, 0.00000000000000000000e+000) (0, 0, 0.00000000000000000000e+000) (0, 0, 0.00000000000000000000e+000) (0, 0, 0.00000000000000000000e+000) (0, 0, 0.00000000000000000000e+000) (0, 0, 0.00000000000000000000e+000) (0, 0, 0.00000000000000000000e+000) (0, 0, 0.00000000000000000000e+000) (0, 0, 0.00000000000000000000e+000) (0, 0, 0.00000000000000000000e+000) (0, 0, 0.00000000000000000000e+000) (0, 0, 0.00000000000000000000e+000) (0, 0, 0.00000000000000000000e+000) (0, 0, 0.00000000000000000000e+000) (0, 0, 0.00000000000000000000e+000) (0, 0, 0.00000000000000000000e+000) (0, 0, 0.00000000000000000000e+000) (0, 0, 0.00000000000000000000e+000) (0, 0, 0.00000000000000000000e+000) (0, 0, 0.00000000000000000000e+000) (38, 5, 5.00000000000000000000e-001) (38, 5, 5.00000000000000000000e-001) (38, 5, 5.00000000000000000000e-001) (38, 5, 5.00000000000000000000e-001) (38, 5, 5.00000000000000000000e-001) (38, 5, 5.00000000000000000000e-001) (38, 5, 5.00000000000000000000e-001) (38, 5, 5.00000000000000000000e-001) (38, 5, 5.00000000000000000000e-001) (38, 5, 5.00000000000000000000e-001) (38, 5, 5.00000000000000000000e-001) (38, 5, 5.00000000000000000000e-001) (38, 5, 5.00000000000000000000e-001) (38, 5, 5.00000000000000000000e-001) (38, 5, 5.00000000000000000000e-001) (38, 5, 5.00000000000000000000e-001) (38, 5, 5.00000000000000000000e-001) (38, 5, 5.00000000000000000000e-001) (38, 5, 5.00000000000000000000e-001) (38, 5, 5.00000000000000000000e-001) (38, 5, 5.00000000000000000000e-001) (38, 5, 5.00000000000000000000e-001) (38, 5, 5.00000000000000000000e-001) (38, 5, 5.00000000000000000000e-001) (38, 5, 5.00000000000000000000e-001) (38, 5, 5.00000000000000000000e-001) (38, 5, 5.00000000000000000000e-001) (0, 5, 0.00000000000000000000e+000) (28, 5, 5.00000000000000000000e-001) (28, 5, 5.00000000000000000000e-001) (28, 5, 5.00000000000000000000e-001) (0, 5, 0.00000000000000000000e+000) 
connections (connected_to_neuron, weight)=(0, 1.57729462480757350000e+001) (1, 6.22657515574093100000e-001) (2, -2.19204817919741310000e+000) (3, -6.50572856404601940000e-001) (4, -6.62410122770140440000e-001) (5, 1.69613734145298060000e+000) (6, 4.12315257045419050000e-001) (7, 3.87279079775681160000e-001) (8, 1.15708945464295670000e+001) (9, 7.41759540118669070000e-001) (10, 9.08501490630488460000e-001) (11, 4.26718226743025340000e-001) (12, 7.38028213943223490000e-001) (13, 3.16694088490156180000e-001) (14, -2.42594085666972740000e+000) (15, 7.91130574810946060000e-001) (16, 1.05410136061093220000e+000) (17, -6.60976955695552480000e-002) (18, -1.87285998731397480000e-001) (19, 3.72133702983686480000e-001) (20, 5.77152636766063050000e+001) (21, 5.98264472467588470000e-002) (22, -1.54749647382867210000e+000) (23, 2.62191241377975000000e+000) (24, -6.96919915764962150000e-001) (25, 3.69470137673923340000e-001) (26, -3.93316049155063020000e-001) (27, 6.17223478640575250000e-001) (28, -7.03133198986931340000e+000) (29, 5.48241886052385440000e-001) (30, 1.57292639692982150000e+001) (31, 1.09698259064014180000e+000) (32, -2.44008280980285620000e+000) (33, 1.66598724307492810000e+000) (34, -2.93551892165558390000e+000) (35, 1.20105550774890750000e-001) (36, 1.26118625474363120000e+000) (37, 2.16407227619993560000e-001) (0, -1.14986706423272910000e-001) (1, 4.70722909279722320000e-001) (2, 1.35055825585582450000e+000) (3, 1.73158292250110650000e-001) (4, 9.09586691957940620000e-001) (5, -9.22410899194151950000e-002) (6, -1.82035694248719100000e-001) (7, 3.59884752110661450000e-001) (8, 3.49526203847407050000e+000) (9, 4.59178358060787840000e-002) (10, 1.52641194566675370000e+001) (11, -1.84724737860974820000e-001) (12, -5.46795589111420280000e+000) (13, 2.26950680217782220000e-001) (14, 4.47330949372121990000e+000) (15, 2.84917197049588950000e-001) (16, 2.00544501577482450000e+000) (17, -3.72868030622173550000e-001) (18, -4.35934882603978830000e+000) (19, -8.73415504417370260000e-001) (20, 7.48846134856897370000e+000) (21, 1.08320510493405050000e+000) (22, 1.17151730001528920000e+000) (23, 2.87159054199892240000e-001) (24, -3.58596801116837730000e-001) (25, -3.68145011921677950000e-002) (26, 4.71607443113516880000e-001) (27, -1.95491575161843790000e-001) (28, -1.64969836263997530000e+000) (29, 6.23192515900855120000e-001) (30, 5.33172607056394130000e-001) (31, 6.46303630929475400000e-001) (32, 7.09883911990810270000e-002) (33, 9.31540178769458550000e-002) (34, 2.81361392100950620000e-001) (35, -3.02851149666990910000e-002) (36, -2.93802868589925210000e+000) (37, 2.20318149632340280000e-001) (0, -2.22588817480334850000e-001) (1, 1.40275176738337340000e-001) (2, 1.43023400825080430000e+000) (3, 4.16707155598926180000e-001) (4, -3.75464139430188880000e+000) (5, 3.10350220824633370000e-001) (6, 4.88518578164312970000e+000) (7, -4.25164231541569180000e-001) (8, -7.37469285053062240000e+000) (9, 4.32983775921165270000e-001) (10, 1.85952956054995510000e+000) (11, -1.05347945904753050000e+000) (12, 6.46697519447845350000e+000) (13, 6.52768846642187590000e-001) (14, -1.17610589273609750000e-001) (15, 7.52379234785146460000e-001) (16, 1.06072058844828130000e+001) (17, 6.98073912670104100000e-001) (18, -4.28527865033832110000e-001) (19, -2.43668596678617930000e-001) (20, 3.04313036201089650000e+000) (21, 4.41117182919846040000e-002) (22, -3.90437828639204730000e-001) (23, 7.34360942118858520000e+000) (24, -1.35291365316977390000e+000) (25, 1.06461003043171230000e-001) (26, 2.81475482547076900000e-003) (27, 7.09518801345230930000e-001) (28, -1.25641088539423640000e+000) (29, 4.81204265834194730000e-001) (30, -7.22506802142183080000e+000) (31, -5.97938429957160180000e-001) (32, 1.25960906747786480000e+000) (33, 8.96350526279701350000e-001) (34, 1.26682661074434580000e+001) (35, -1.77269239598842360000e-001) (36, -1.89375550250388190000e+001) (37, 1.21985070770233570000e-001) (0, 4.53758775740106590000e-001) (1, 1.15829024004573370000e-001) (2, 5.31222851063353470000e+000) (3, 5.78171326365182690000e-002) (4, 5.30915209036915670000e+000) (5, 1.08923188881147870000e+000) (6, -2.31171956660064470000e+000) (7, 5.58436131092938800000e-002) (8, -2.25688673039840280000e+000) (9, 2.18785174214020110000e+000) (10, 2.15971918941181680000e+000) (11, 2.46705838115214820000e-001) (12, -1.26222382850632590000e-001) (13, 2.31066362369593740000e-001) (14, -2.52658009361998060000e-001) (15, 4.24409875242122650000e-001) (16, 7.60394353165895900000e-002) (17, 7.96411882977302920000e-001) (18, 5.48849674417879020000e-001) (19, 9.69719377794911130000e-001) (20, 5.71877559102184740000e+000) (21, 3.98011069816498250000e-001) (22, 4.21290380747847770000e+000) (23, 3.01696059876847530000e+000) (24, 5.07962361475345500000e+000) (25, 1.48019566536806450000e-001) (26, 5.27893327530287680000e+000) (27, 9.88961111576426080000e-001) (28, 5.20603548888726730000e-001) (29, 7.01374193604933140000e-001) (30, 9.42179606469776590000e+000) (31, 5.84657226253416210000e-001) (32, -6.88032505525610570000e-001) (33, 1.07847372201804830000e+000) (34, -9.55409549575628250000e+000) (35, 2.04512564765509830000e-001) (36, 6.18110698704633420000e-001) (37, 6.64279480946090130000e-001) (0, 1.62841752109578910000e-001) (1, 9.08093266311593710000e-002) (2, 2.06857841565560600000e+000) (3, -5.95271019939272010000e-001) (4, -6.64667676381915820000e-001) (5, -3.50357629807782620000e-002) (6, -4.08236834481108200000e-001) (7, 3.21625858457988300000e-001) (8, 5.04607113105358770000e-001) (9, 3.65232532648916560000e-002) (10, 2.22987148313694390000e+000) (11, -5.49663323924662660000e-001) (12, -1.69211344563175770000e+000) (13, -9.00668591804007630000e-002) (14, 5.66970176622388020000e-001) (15, -1.66607200775013980000e-001) (16, 1.06689712979132280000e+000) (17, 5.99381193721127550000e-003) (18, 9.27307816972161470000e-001) (19, 5.01854123370786140000e-002) (20, 6.09134048457741000000e-001) (21, -8.88111339330325680000e-002) (22, 6.89599854493991640000e-001) (23, -1.37911377097538150000e-001) (24, 1.63442653472953280000e-001) (25, 3.30241074887214560000e-002) (26, -1.54176062094968670000e-001) (27, -1.93468835843051500000e-001) (28, -5.26383855036342550000e-001) (29, -6.56874408136204350000e-002) (30, 3.34404552133435280000e-001) (31, -8.14525792271871830000e-002) (32, 6.42235137613207500000e-001) (33, -7.57888996549043180000e-002) (34, -7.28734217811133680000e-001) (35, 6.34654752821368470000e-003) (36, -1.15751583929640480000e-001) (37, -1.01497206760403110000e-001) (0, 7.97555315237166960000e+000) (1, -5.77248396523535970000e-003) (2, -6.63031878195501270000e+000) (3, -1.45872469705603250000e-001) (4, -3.27254389922011340000e-001) (5, -1.16129774328429230000e-001) (6, 4.18100957271792330000e+000) (7, 4.80864734307247410000e-001) (8, -5.85261911253672110000e-001) (9, -1.20382202917482460000e-001) (10, 1.52670266970166010000e+000) (11, 3.53873389346757380000e-001) (12, 7.03254962892110170000e-002) (13, -5.71184485505808540000e-002) (14, -7.66912361609973110000e+000) (15, -5.18298676531016910000e-001) (16, 8.72595103401471870000e-002) (17, 5.46508014713398720000e-001) (18, 1.22631904361721910000e+000) (19, -1.81657404877144930000e-002) (20, 5.25748588092246780000e-001) (21, -1.30245207941562860000e-001) (22, -5.02822260861490380000e+000) (23, -2.01222425690210620000e-001) (24, -5.45969214896750650000e-001) (25, -3.07392695926244840000e-002) (26, -7.58333387353632290000e-002) (27, -1.62397336764729530000e-001) (28, 2.42847829578280990000e-001) (29, -6.22800931294776980000e-001) (30, 5.14726325271208650000e-001) (31, -1.96423926492324650000e-001) (32, 2.34080199917783780000e-001) (33, -6.85682485423383110000e-002) (34, 8.16533085959896930000e-001) (35, -1.92716078126075330000e-001) (36, -4.47002229528908850000e+000) (37, -1.01532828473413040000e-001) (0, 2.58160939655930480000e+000) (1, -6.16932235688774020000e-002) (2, 1.45477984138181850000e+000) (3, -9.70218195483237570000e-002) (4, -8.82975623363780050000e-002) (5, 1.10713561759755750000e-001) (6, -4.59821078770374300000e+000) (7, -1.13014667316637910000e-001) (8, 4.36258368957756660000e-001) (9, -4.65636257223668930000e-003) (10, 1.10367484433714270000e+000) (11, -1.38177487573860860000e-001) (12, 1.09039467435822710000e+000) (13, -3.25856996982426190000e-003) (14, -2.95198672750932480000e-001) (15, -3.81847487645321000000e-003) (16, 1.06193801338110690000e+000) (17, -1.63959593102324910000e-001) (18, 4.10090190237791590000e+000) (19, 1.83314679465655020000e-001) (20, 3.14516175915818240000e+000) (21, -1.54895060687302080000e-001) (22, 5.16644415019631430000e-001) (23, 1.27084729025655380000e-002) (24, 5.72635257597696180000e-001) (25, -2.51847980476458950000e-002) (26, 5.53570270651064340000e-001) (27, -1.71678055866527260000e-001) (28, 3.96015794564266000000e-001) (29, 1.81640912405744390000e-002) (30, 5.94546169285781190000e-001) (31, 2.61986822000295530000e-002) (32, 5.80034251224877280000e-001) (33, -8.41877480601173620000e-002) (34, 4.34113344898514160000e-001) (35, -3.32549930660293660000e-002) (36, 9.46755274797495690000e-003) (37, -1.68135256480277730000e-002) (0, -8.02570099155238030000e-001) (1, -1.88351501708636320000e-001) (2, -2.94705297206392340000e+000) (3, 1.54723183211550490000e-001) (4, 9.58965364577340120000e+000) (5, 1.34883250930150580000e-001) (6, -1.27154905684249650000e+000) (7, 3.65239661867394260000e-001) (8, 3.93891595090358870000e-001) (9, 2.89715432815828900000e-001) (10, -3.04115195732315420000e+000) (11, 6.75339019913636790000e-002) (12, 2.01896077321125980000e+000) (13, 4.56093960151004800000e-002) (14, -7.96931434099267590000e-001) (15, 5.42492728776944430000e-001) (16, 1.60956038851459950000e+000) (17, -3.52428314800736390000e-001) (18, 1.57209175301055090000e+000) (19, -2.64618526039543720000e-001) (20, 1.72949057666506720000e+001) (21, 5.97939031429123750000e-001) (22, 1.43922406618929500000e+000) (23, -6.89090627260615760000e-001) (24, 9.20871654426953160000e+000) (25, 8.24011948782643610000e-001) (26, -5.46595257542240720000e+000) (27, -1.27399234205177960000e-001) (28, 9.52093357527060040000e-001) (29, 9.58438769699167860000e-001) (30, 8.62060914247915200000e+000) (31, 1.68974029897377330000e+000) (32, -3.73769118785663230000e+000) (33, 5.51817466836799660000e-001) (34, -2.29052942924326920000e+000) (35, -3.67358983715124970000e-002) (36, -1.03952979604562820000e+000) (37, -2.72695980968263140000e-001) (0, 3.13400911236274910000e+000) (1, -9.63752315242891730000e-002) (2, 1.91359101134061000000e+000) (3, -3.15654283120977760000e-001) (4, 1.45437965907702330000e+000) (5, 1.22696021577712870000e+000) (6, -8.60454607446356050000e-001) (7, 1.12420993860268830000e+000) (8, -1.92807654754927490000e+000) (9, 1.56429678458468420000e+000) (10, -5.52375346249090350000e+000) (11, 1.64605426164102840000e-001) (12, -2.00553097274424910000e+001) (13, 2.99082868283283620000e-001) (14, 1.28824349571868970000e+000) (15, 6.38186206614449030000e-001) (16, 1.18472605120796040000e-002) (17, 5.98847338165335240000e-002) (18, 5.78780934081354110000e+000) (19, 7.57901894423055560000e-001) (20, 1.38363373701017400000e+001) (21, -8.75780044183250700000e-002) (22, 4.99725927922412660000e-001) (23, 4.68146902192364660000e-001) (24, 9.80101767293989570000e+000) (25, 8.56452495284696690000e-001) (26, 2.37561543025751330000e-001) (27, 8.62220287179700340000e-001) (28, -5.36095426771810710000e-002) (29, 1.32928857092334850000e-001) (30, 3.39769602732177710000e-001) (31, 8.51150770532356330000e-001) (32, 6.54447632270645230000e-002) (33, 5.50555269667936330000e-001) (34, -6.18742755280243360000e-001) (35, 1.63706448161295850000e+000) (36, 6.49758265063595910000e-001) (37, 1.24767780283903780000e+000) (0, -4.21556620198520250000e-001) (1, 1.16467329433841430000e-001) (2, 2.36258480205585510000e-001) (3, -1.04100383781410790000e-001) (4, 3.88287349885088950000e-001) (5, -9.13552639304791030000e-002) (6, -2.58666779603131270000e+000) (7, 8.20998862012791850000e-002) (8, -6.55402484938451960000e-002) (9, -9.08059450821720700000e-003) (10, 6.20866913416779350000e-001) (11, 1.50004927467871580000e-001) (12, 2.24548567454454340000e-001) (13, -9.10820698772358690000e-002) (14, -2.98171885319727210000e-001) (15, 5.38190319169142080000e-002) (16, 9.12906321874785710000e-001) (17, -5.82756628201128860000e-002) (18, 6.17619155686689010000e-001) (19, 1.46016160763518780000e-001) (20, 5.06999741698343610000e-001) (21, -9.08917454361509030000e-002) (22, 2.02084763173898260000e-001) (23, 1.35628947121343910000e-001) (24, 5.49264821612184710000e-001) (25, -1.07001812348771160000e-004) (26, 4.49530091020206520000e-001) (27, -2.91567735928280300000e-002) (28, 5.74063252866022670000e-001) (29, -9.92094460265938450000e-002) (30, 2.42172045683783700000e+000) (31, -2.35853698736275040000e-001) (32, 7.73366928857134320000e-001) (33, -3.36161724885997580000e-002) (34, 7.82138965595874810000e-001) (35, -2.21966332398318320000e-002) (36, 1.47453805909458810000e-001) (37, -3.67114848618354180000e-002) (0, -4.61008235500427150000e+000) (1, -4.03852074810440110000e-001) (2, 3.39305503444271350000e+000) (3, -3.92630718046329370000e-001) (4, -6.43003502015022830000e+000) (5, -1.63500403616243540000e-001) (6, 4.48012046776888530000e+000) (7, 8.33820542472826780000e-002) (8, 1.56217687524320480000e+000) (9, 4.63539891106716340000e-001) (10, 1.13687044892565290000e+000) (11, 2.14021390731111040000e+000) (12, -6.32042783217032780000e+000) (13, 3.99145147203312230000e-001) (14, 1.80618412207222470000e+001) (15, 4.73500713453565290000e-002) (16, -6.38846911535707300000e+000) (17, 3.30338280590525560000e-001) (18, -1.13234438787734270000e+001) (19, 8.08590465876664500000e-001) (20, -1.55021552712593880000e+001) (21, 5.48359555684957200000e-001) (22, -4.83574708245463380000e+000) (23, -3.28106623648784460000e-001) (24, 6.34120697203957380000e+000) (25, 8.64402707767351480000e-002) (26, 1.31269686292826100000e+001) (27, 1.66921812646003880000e+000) (28, -1.65292585608312910000e+001) (29, 1.19168310138219200000e-001) (30, 1.52836058565378790000e+000) (31, 2.02589063056939010000e-002) (32, 1.40814493279273690000e+000) (33, 2.77129579484987680000e-001) (34, 1.08601177667970920000e+001) (35, 1.33023326345549360000e+000) (36, 1.28393504980605120000e+001) (37, 2.37597702511617630000e-001) (0, -1.14380464783413220000e+001) (1, 4.87502333486402320000e-001) (2, 5.01105418232093650000e-001) (3, 8.71360041734022150000e-001) (4, 1.94666781301169100000e-001) (5, 1.29426671708180310000e-001) (6, 7.76049246486554820000e-002) (7, 1.57575407368057840000e+000) (8, -6.38491170365733040000e+000) (9, 1.60944656384351760000e+000) (10, 5.06799176506754880000e-001) (11, 3.44577951709395420000e-001) (12, 3.20028662395357840000e+001) (13, 4.11545865996358400000e-001) (14, -2.50317639787398850000e-001) (15, 4.29815807064647450000e-001) (16, 1.41191710823481840000e-001) (17, -1.04963464077966930000e+000) (18, -8.39822727457841700000e-001) (19, 1.41158878784551710000e+000) (20, 8.95396834660801130000e+000) (21, 4.33427518330738950000e-001) (22, -2.13385466107113020000e+000) (23, -1.48071044607252650000e-001) (24, -8.31148838482433590000e-001) (25, 5.68229545120898070000e-001) (26, -9.68291813118593910000e-001) (27, 4.62570818644713010000e+000) (28, 6.34381886381237600000e+000) (29, -5.72120250057630220000e-002) (30, 1.12902537097189320000e+001) (31, 7.21717405426049560000e-001) (32, 6.66718908579400970000e+000) (33, 7.18076847118700460000e-002) (34, -1.82279292674221160000e-001) (35, 1.32949291260974770000e+000) (36, 4.14584470020509580000e-001) (37, 4.13805830321335000000e-001) (0, 1.50872889461884620000e+000) (1, 3.81489285109511970000e-001) (2, 6.37482981448575290000e-001) (3, 5.80499705980493830000e-001) (4, 4.25450788635953700000e-001) (5, 5.62597069829777530000e-001) (6, 1.18168142035487780000e+000) (7, 1.13080739254288210000e+000) (8, -7.49751214928651600000e+000) (9, 3.04427100151939470000e-001) (10, 2.66254815835278660000e-001) (11, 4.81862107027516750000e-001) (12, 7.84219707906719070000e+000) (13, 2.80888598160532520000e-001) (14, 4.76050905738773620000e+000) (15, 1.36398760845550470000e+000) (16, 1.04205958595270950000e-002) (17, 2.61268100515399170000e-001) (18, 5.30580451920742550000e-001) (19, 3.90644463230270580000e-001) (20, -2.18628627508751380000e+001) (21, 3.27708366742940680000e-001) (22, 4.60289909558740490000e-003) (23, 7.20904686268281860000e-001) (24, -1.42970308040848490000e+000) (25, 3.86180996980265420000e-001) (26, 5.69341829861049310000e-001) (27, -1.26207568617156960000e-001) (28, 4.21322157663140350000e-001) (29, 5.57670372627684600000e-001) (30, 2.31715970890437450000e+000) (31, 2.06980616150143650000e-001) (32, 1.04366092492769290000e-001) (33, 1.32352439733881440000e+000) (34, 5.48407150135007630000e+000) (35, -1.95003709533931700000e-001) (36, 8.27381252404433450000e+000) (37, 4.38777579459464050000e-001) (0, -1.65714506291183700000e+001) (1, -3.21365537516130340000e-001) (2, -7.40652396931346210000e-001) (3, 5.75849561889256730000e-002) (4, 7.19780028105991070000e-001) (5, -3.31796421616610380000e-001) (6, 7.18545137030826120000e-001) (7, 3.68167987556106250000e-001) (8, -1.13302364091309100000e+001) (9, -1.10251279067789850000e-001) (10, -7.52848815766318010000e-001) (11, 5.38166254409878860000e-001) (12, -2.50692281169777860000e+000) (13, 3.61896775822718400000e-001) (14, -1.54536273665003310000e+000) (15, -1.13835561563194760000e-001) (16, 1.53919736544679110000e+001) (17, -1.23923301751482580000e+000) (18, 1.65255764166212980000e+001) (19, -1.41151970168431170000e-001) (20, -1.18882719061655350000e+000) (21, -1.81264529163936530000e-002) (22, -1.78984785477814650000e+000) (23, -3.30595401547735810000e-001) (24, -1.37478225973655960000e-002) (25, -7.11463580075715530000e-001) (26, 1.29216575798063520000e+000) (27, -6.14142532870848970000e-001) (28, -1.83842932547201980000e+001) (29, 7.72499678420515150000e-001) (30, 1.28331631337089420000e+000) (31, 2.21497169869368540000e-001) (32, 8.25296754882417160000e-001) (33, -4.96685109480745280000e-002) (34, 4.77572561266784270000e-001) (35, -8.31563887895023920000e-003) (36, -2.03111436885999020000e+000) (37, -1.75503355224600560000e-001) (0, 1.29856839572825520000e+000) (1, 4.23607908981976640000e-001) (2, 8.64504567440564210000e+000) (3, 3.01602269191943880000e-001) (4, 3.29510302715428070000e+000) (5, 9.75150612871192760000e-001) (6, 2.58734002984550890000e+000) (7, 1.15238461559946240000e-001) (8, -3.30991279016507180000e-002) (9, 2.39984731949464790000e-001) (10, -8.94102858726226660000e+000) (11, 3.63306111636379490000e-001) (12, 1.54431134607929170000e+000) (13, 5.23766499182592880000e-001) (14, -3.11548410621837330000e-002) (15, 7.71417689337446810000e-001) (16, 2.65605418318692830000e-001) (17, 3.74008299078832400000e+000) (18, 8.04122350637891950000e-001) (19, -1.75266532750332300000e-001) (20, -3.28467468771524060000e+000) (21, 2.86981584332465180000e-001) (22, 1.51342170619710600000e+000) (23, 8.66322915933909200000e-001) (24, 5.91584483862982900000e-001) (25, 4.66015954327259060000e-001) (26, 2.49231219961029550000e+000) (27, 6.86477559580467630000e-001) (28, 3.09117632691677250000e-001) (29, 4.48977971418162150000e-001) (30, -9.26539970903782590000e-001) (31, 4.62347024373066350000e-001) (32, -3.17426113828335050000e-002) (33, 2.77082351025031870000e-001) (34, -1.72460063481774780000e-001) (35, 2.24970410426081260000e-001) (36, 7.29922195539216560000e-001) (37, 6.54654455071493450000e-001) (0, -2.51998500161542960000e-002) (1, 2.80897020061439180000e-001) (2, 1.44229231418408850000e+001) (3, 4.28002153362948890000e-001) (4, -4.29102870401349200000e-001) (5, 1.16019733103707860000e+000) (6, 1.52680429980541900000e+000) (7, 1.40121014893074300000e-001) (8, -3.90065718092409200000e+000) (9, 3.73904208622965670000e+000) (10, -1.39205514089294740000e+000) (11, 1.48358260583024990000e+000) (12, 1.19013628458154520000e+001) (13, 3.09584990697197250000e-001) (14, 1.20850099441910540000e+000) (15, 8.03818493356373900000e-001) (16, -2.50506939529002980000e+000) (17, 5.84262664119150290000e-001) (18, 3.43243093938256470000e-001) (19, 5.40857490621746150000e-001) (20, -8.84279402751448450000e+000) (21, -2.05188842443126770000e-001) (22, 1.33591744394104130000e+000) (23, 3.06306004711505950000e+000) (24, -3.26068769139511350000e+000) (25, 2.01707690515578300000e-001) (26, -1.89250965806220060000e-001) (27, 3.28681526732421330000e+000) (28, 2.84627627633039230000e-001) (29, 1.51593535362218920000e-001) (30, 1.57723670180521070000e+000) (31, 1.03391652456084980000e-001) (32, -1.80546488475370560000e+001) (33, 3.66953302174880310000e+000) (34, -2.02959593517658050000e-001) (35, 1.58964006429392460000e+000) (36, -5.62503308782818400000e-001) (37, 3.56614155685833430000e-001) (0, 2.20612446941202800000e+001) (1, -1.49366783662732150000e-001) (2, 3.71490222011253040000e+000) (3, 7.76447363500892830000e-001) (4, -1.69370721263433270000e+000) (5, 1.17336221157548420000e-001) (6, -4.01719904725178270000e+000) (7, -2.15100075203985500000e-003) (8, 5.16393741498020460000e+000) (9, 5.92285002063528410000e-001) (10, 4.22393368397282680000e-002) (11, 2.21276513975693400000e-001) (12, 8.28535788448218110000e+000) (13, 9.24492755148247250000e-001) (14, -9.49618871484986140000e-001) (15, 2.60461854302298730000e-001) (16, 4.59095099375806370000e+000) (17, 7.32508868123555200000e-001) (18, -1.02370410859282290000e+001) (19, 5.54778518540333220000e-001) (20, 3.19734830662071050000e+001) (21, 1.22415482034239910000e+000) (22, 7.28006242950772430000e-001) (23, -4.39566449173082940000e+000) (24, 1.11535285729075500000e+000) (25, -1.02810253546280770000e+000) (26, -1.55185655675593100000e+001) (27, -6.37283433677197090000e-001) (28, -2.97949194657812990000e-002) (29, -2.34120765848708780000e-001) (30, -2.45939405365435820000e-001) (31, 1.91150056523913300000e+000) (32, 1.99646338540137560000e+000) (33, 7.41305858285316000000e-003) (34, 3.49670803353144020000e+000) (35, 1.93540300678518430000e-001) (36, -6.99394240594972860000e+000) (37, 2.46656182236232950000e-001) (0, -7.85955001104986110000e+000) (1, -3.41525784419171920000e-001) (2, -5.16216410035485750000e+000) (3, 1.04448919349923490000e+000) (4, -2.74450505725781200000e+000) (5, -3.26137379116945850000e-001) (6, 2.99195981626920160000e+000) (7, -2.92345082991435890000e+000) (8, 2.16988374653041050000e-001) (9, 4.70079648509510510000e-001) (10, 6.30639469789759580000e+000) (11, -1.99433583064071400000e+000) (12, 7.92528180650491180000e+000) (13, 4.32920711024885160000e-001) (14, 1.53977953148189930000e-001) (15, 3.88980964473888470000e-001) (16, 1.90592235506118510000e+001) (17, 2.00360613256753560000e-001) (18, 5.25696007759971270000e+000) (19, -8.44221285108832510000e-002) (20, -1.31648746851310270000e+000) (21, -1.16757216717619350000e-001) (22, -2.57077294010397070000e+001) (23, -2.75639280025701090000e-001) (24, 1.16596330954484270000e+001) (25, 8.56551749778430520000e-001) (26, -7.74552501289962250000e+000) (27, 1.71218516025432500000e+000) (28, 2.26217505691078640000e+001) (29, 2.46654401237143910000e-001) (30, 1.20230376212057010000e+001) (31, 6.17800793349140510000e-001) (32, -7.28825135481721540000e+000) (33, 1.39991295969601780000e-001) (34, -4.98713537245260420000e+000) (35, 9.05124081901054310000e-001) (36, 1.09483965092621710000e+001) (37, -1.69426200400843750000e-001) (0, 1.49417367579884460000e+000) (1, 4.41629563470661620000e-001) (2, 1.53940502158858190000e+001) (3, -1.21204503960778840000e+000) (4, -7.15030672110011150000e-001) (5, 3.63893082359489470000e+000) (6, 1.46459316516138200000e+001) (7, 3.40595651632260740000e-001) (8, 3.70951354683506060000e+000) (9, 2.13280296426944060000e+000) (10, 6.16149820623938550000e+000) (11, 3.31821653354065170000e+000) (12, 2.04009184924993960000e+000) (13, -9.96973063235358610000e-001) (14, 4.80467156591403160000e-001) (15, 1.55366776249504060000e+000) (16, 5.61835084511526750000e-001) (17, 6.79573569241810670000e-001) (18, 5.36677507566518110000e-001) (19, 7.86602088903910590000e-001) (20, 2.85663853424365470000e+001) (21, -2.27326602637697050000e-001) (22, -6.42762792329310350000e+000) (23, 1.00216511656651530000e+000) (24, 2.64544984531500060000e+001) (25, -7.14668042117150710000e-002) (26, 2.56822161476840270000e+000) (27, 2.66087295753057340000e+000) (28, -6.93955880851519490000e-001) (29, 8.51599844469507430000e-001) (30, -1.94889358011258800000e+000) (31, -5.31419291654316590000e-002) (32, 2.83809176139236770000e+000) (33, 8.71242079727751920000e-001) (34, -8.94337158163136790000e+000) (35, 2.32280370823647160000e-001) (36, 1.27983963260949470000e+001) (37, 4.35172444610374410000e-001) (0, 4.87878852613226680000e+000) (1, 1.20566124396910140000e-001) (2, -5.44868730998128200000e+000) (3, 5.56063583328773350000e-003) (4, 1.79947065953246170000e-001) (5, 3.88285308821689320000e-001) (6, 1.48838592789435290000e+001) (7, 6.29114934269827120000e-002) (8, 1.85367219641396400000e+000) (9, -3.31339710361937490000e-001) (10, 1.33472351885684850000e+000) (11, -1.63698893407566160000e-002) (12, 1.10407427204235040000e+001) (13, 2.99215569095032550000e-001) (14, 5.02771086466980680000e+000) (15, -7.32450349585032410000e-001) (16, 3.66616374387205010000e-001) (17, -1.77382905857343330000e-002) (18, -2.59331717054744890000e+001) (19, -3.33661698345571910000e-001) (20, 5.24293852580751630000e+000) (21, 2.95614229458419880000e-002) (22, 1.77107627566520100000e-001) (23, 1.23642615149469730000e+000) (24, 6.39523281884471380000e-001) (25, 6.64984163010888580000e-001) (26, 1.28048462545054810000e-002) (27, 3.18900034139671720000e-001) (28, 2.82446775112059270000e+000) (29, 9.04391680769931820000e-001) (30, 7.48652959993238200000e+000) (31, 1.61410792617099480000e-001) (32, -1.28718567028205940000e+001) (33, -7.42757395127167240000e-002) (34, 1.20521837535315820000e+000) (35, -5.70567308802694350000e-001) (36, -9.60759927302720970000e-001) (37, -5.85352219731871060000e-002) (0, 1.81850924455022530000e+001) (1, 3.33966408337670050000e-001) (2, 1.54052638329953950000e+000) (3, 6.15876969697268130000e-001) (4, -1.31372705272387890000e-003) (5, 2.44130817745410060000e+000) (6, -3.35834817833485620000e-001) (7, -9.55115973309375590000e-001) (8, -1.20462703918578100000e+000) (9, 9.65033903883864450000e-001) (10, 4.18929057094606090000e-001) (11, 1.36872896744715300000e+000) (12, 1.98968511739250820000e+001) (13, 1.58378214135902540000e+000) (14, -2.68973117111028430000e+000) (15, 1.87233451010738930000e-001) (16, -4.16474194963330290000e+000) (17, 5.46175688612640540000e-001) (18, 1.57560915777625770000e+000) (19, -8.51201498252802950000e-002) (20, -2.90663812213126000000e+001) (21, 2.32721723984187490000e+000) (22, -3.23349729734788880000e+000) (23, 1.26879580685023980000e+000) (24, -2.50089597809532640000e+000) (25, 1.84328939846693770000e-001) (26, 1.70663230494158780000e+001) (27, 1.05561076734324290000e+000) (28, 3.31261472453671880000e-001) (29, 2.32327063423857320000e+000) (30, 1.59736184753467380000e+001) (31, 2.60037201871838160000e+000) (32, -1.21248610861565210000e+001) (33, 5.40293279703562000000e-001) (34, 3.97973243227193500000e+000) (35, 5.41197707862626660000e+000) (36, 1.05607510286353650000e-001) (37, 1.26285986876096420000e+000) (0, 1.14318968497157170000e+001) (1, 4.47276712209396190000e-001) (2, 1.92255363623841660000e+000) (3, 2.89336848399760650000e-001) (4, -3.31349462805829460000e+000) (5, -3.97763873955094550000e-002) (6, 1.29832756128274100000e+000) (7, 2.09319460371040070000e-001) (8, -1.66031946907044810000e-002) (9, -8.78082879553569170000e-002) (10, 1.88622506531692060000e+000) (11, 7.58646057489389290000e-001) (12, -2.57052321986702870000e+000) (13, 1.58042998347536550000e-001) (14, 1.98878669442737200000e+000) (15, 8.17070346567111080000e-001) (16, -1.21610896606782510000e-001) (17, 1.65058465663204590000e+000) (18, -2.81207359855208630000e+001) (19, 6.39100770251390560000e-001) (20, 1.20732223424757800000e+000) (21, 3.74355445602653710000e-001) (22, 3.64460684060827660000e-001) (23, 2.44607530900870120000e-001) (24, -6.46236766618929790000e+000) (25, -6.59871663783948900000e-001) (26, 8.22838560015292650000e-001) (27, 1.42560923929557390000e+000) (28, -9.68132994389725110000e-001) (29, 4.75926936678360000000e-001) (30, 3.21486513468873580000e+000) (31, 4.90701731567902260000e-001) (32, -2.20074717846308220000e-001) (33, 7.93139740559084760000e-001) (34, 9.84074148585065480000e-001) (35, 3.54248173767942490000e-001) (36, 1.13085523524981100000e+001) (37, -1.47917362109735470000e-001) (0, 6.96870625509119980000e+000) (1, -3.35999888160514740000e-002) (2, 5.42002990607629580000e-002) (3, 2.14425344638982080000e-001) (4, 6.40008369580896800000e-001) (5, 1.32429527573920850000e-001) (6, 1.90732778823801020000e-001) (7, -3.61588989326394940000e-001) (8, 1.71389981992061820000e-001) (9, -6.33831246813098210000e-001) (10, 8.10518563836329780000e-002) (11, 6.12018108824892940000e-001) (12, 5.06355077603730440000e-001) (13, -6.13642725785430930000e-002) (14, 1.84560293097792730000e-001) (15, -7.87734140233508630000e-002) (16, 5.35295725063069660000e-001) (17, -6.54941089023333700000e-002) (18, 3.79114391881996860000e-001) (19, -6.01503038021187000000e-002) (20, -7.40366881338991530000e-001) (21, -1.33545981438079440000e-001) (22, -2.21392922871098110000e+000) (23, -4.87314016850456720000e-001) (24, 5.82723128516641990000e-001) (25, 1.18636777739888080000e+000) (26, 6.77392667844727290000e-001) (27, -2.68616747194374780000e-001) (28, 1.71948168250753120000e+000) (29, 4.13845823951286110000e-001) (30, -1.49768041580298880000e-001) (31, 1.54840698851015250000e-002) (32, 5.63843558244336960000e-001) (33, 6.00447875690460830000e-002) (34, 2.51207719762172710000e-001) (35, -9.69049131490027360000e-002) (36, 1.08195449503046500000e+001) (37, -3.31347191096300060000e-002) (0, -1.27715701576074760000e-001) (1, 6.63278700445456420000e-002) (2, 2.47693088231789960000e+001) (3, 8.72111287946720660000e-001) (4, -1.04300357417802210000e+000) (5, 5.59471352396017090000e-001) (6, 5.60724288862415540000e-001) (7, 1.98856039126005390000e-001) (8, -5.35130834188158540000e-001) (9, 4.56533177589931950000e+000) (10, -1.05223632300024010000e+000) (11, 6.08238619095652130000e-001) (12, 2.31870035803057920000e+001) (13, 8.66489435030917470000e-001) (14, 2.92637248277288540000e+001) (15, 1.02442452502297640000e+000) (16, -9.31808758771674790000e-001) (17, 6.71634560349793070000e-001) (18, -2.31683390698389550000e+000) (19, -1.11777247840329150000e-002) (20, -6.08298950154010850000e+000) (21, -4.71073230831457080000e-001) (22, 3.53979129805301160000e-001) (23, 3.25306042288076380000e+000) (24, 5.46768307014965860000e+000) (25, 7.52794131853050890000e-001) (26, 3.75006916705289680000e-001) (27, 2.38163131103387290000e+000) (28, 9.70213997348218980000e+000) (29, 1.58649963207650680000e-001) (30, -3.80558444828371560000e+000) (31, 5.85290459030037290000e-001) (32, -3.04539916242730550000e+001) (33, 3.26132766994459900000e+000) (34, 2.67850399112721400000e-001) (35, 1.14582307266117670000e+000) (36, 1.55344624750866520000e+000) (37, 2.37935249143882060000e-001) (0, 1.89792938832861680000e+001) (1, -3.22704385230184960000e-001) (2, 1.73350182426841970000e+000) (3, 1.45920971361940250000e-002) (4, 4.84058384002901930000e+000) (5, -1.77496861008721700000e-001) (6, 1.28508755937439620000e+000) (7, -3.91185210463054210000e-001) (8, -1.18863908294643860000e+000) (9, -1.53264748561607280000e+000) (10, -2.24548440281039020000e+000) (11, 2.41698152705643880000e-001) (12, 1.03337128962430640000e+001) (13, -4.01605551145880690000e-002) (14, 5.33104481584558810000e-001) (15, -1.57027157206791970000e+000) (16, -8.76883417722003840000e-001) (17, 1.46487089077696950000e-001) (18, -9.25592497864395680000e-001) (19, 2.30760606561407040000e+000) (20, -3.79833254577080880000e+000) (21, 8.61722574515034640000e-001) (22, -1.96494703521121690000e-001) (23, -1.92595595028482640000e-001) (24, 2.33119558002973330000e+000) (25, 5.99312623406259460000e-001) (26, 7.13021349161488870000e+000) (27, 1.91152462067516820000e-001) (28, 1.63353604814747680000e+000) (29, 2.12871786298619160000e-001) (30, 1.88195403286649920000e+001) (31, -5.66924472275613930000e-001) (32, 2.97533790780630310000e+000) (33, 1.03552660938014120000e+000) (34, -3.72722234330738410000e+000) (35, -8.58140025867210610000e-002) (36, 1.01246936807567360000e+000) (37, 1.98671807885635560000e-002) (0, -3.49389414088863640000e+000) (1, 9.49096572185902600000e-001) (2, -2.36374751604885920000e+001) (3, 1.89817508588885490000e-001) (4, -1.11231656210713290000e+000) (5, 1.65884515053122290000e+000) (6, -4.91949542680537900000e+000) (7, 8.37112080750825990000e-001) (8, 6.57460230089892180000e-001) (9, 7.02694603991348310000e-001) (10, -3.98417052687031020000e+001) (11, 8.42390509236688350000e-001) (12, -1.88036660806714480000e+001) (13, 6.77485339027306400000e-002) (14, 1.77614088550977090000e+000) (15, 9.26604795935854650000e-001) (16, 2.61974578647328040000e-001) (17, 3.04160918382945510000e-001) (18, 5.57858034250386940000e+000) (19, 1.30179146911497210000e-001) (20, 6.72005408947158320000e+000) (21, -2.12647077698102700000e-001) (22, 1.51002760216147110000e+000) (23, 2.49377738565430680000e+000) (24, 6.81323710570202850000e+000) (25, -6.07234510842176380000e-002) (26, -2.10417475767928880000e-001) (27, 3.47416803469997730000e+000) (28, 1.17314481443883430000e+000) (29, 5.69070647717138110000e-001) (30, -4.97103952547351290000e+000) (31, -7.44339611603750400000e-002) (32, -6.84401320065807360000e+000) (33, -3.12108469380685400000e-002) (34, -7.92885544463816980000e-001) (35, -1.60566171044628820000e+000) (36, -2.10511531942249270000e+001) (37, 3.24916219310328440000e-001) (0, 5.75089502254491870000e+000) (1, -6.04739393920258880000e-001) (2, 5.47285428219865990000e+000) (3, 8.80186555642718970000e-001) (4, -4.42485962025272100000e+001) (5, 1.23020064467645180000e-003) (6, -7.80793541764767160000e+000) (7, 2.31537755325891360000e+000) (8, 2.30181054571601390000e+001) (9, 2.05991492230332470000e-001) (10, 2.61555194867926420000e+001) (11, 1.68483893665867960000e+000) (12, 3.49079052281460140000e+000) (13, 1.55180644390616710000e-001) (14, 2.04862318282346670000e+000) (15, -4.98709265879525410000e-001) (16, -6.67974846995685920000e+000) (17, 2.80589437876240850000e-001) (18, 3.82584334370723280000e+000) (19, -8.29823124744486050000e-001) (20, 2.71868303117308920000e-001) (21, 1.44247266792356600000e+000) (22, 2.74950564120082070000e+001) (23, 2.16741487646321980000e-001) (24, -1.80163852649673790000e+001) (25, 1.23264886450680180000e-001) (26, -3.00743769800508260000e-001) (27, 2.22245041481496040000e-001) (28, 1.44761561828884730000e+000) (29, -5.24863490430163120000e-001) (30, 3.76793589087509550000e+000) (31, -8.69315145473934400000e-001) (32, -4.25668266250715370000e+000) (33, 6.02530531318636320000e-002) (34, -3.04121386234976270000e+000) (35, -1.18880305419901760000e-001) (36, -3.90456075821694480000e+000) (37, 1.31020106000374970000e+000) (38, -3.44678050180148580000e-001) (39, 4.48565225171917770000e-001) (40, 7.47899249689030990000e-001) (41, 2.80534200246413570000e-001) (42, -5.12911520746029640000e-001) (43, -1.07334499271555760000e+000) (44, 1.38407243821698670000e-001) (45, 1.09671600372298910000e+000) (46, 2.61434901070984380000e-001) (47, 3.65012925447676330000e-001) (48, 1.50041106111894210000e+000) (49, -1.23079012709772770000e-001) (50, 3.93527148440727730000e-001) (51, -1.58716966861672630000e+000) (52, 2.86888539844569860000e-001) (53, -2.83549521424931840000e-001) (54, -4.00188070854374410000e-001) (55, 5.62907022933665100000e-002) (56, -6.59803392984071870000e-001) (57, 4.26789643491762090000e-002) (58, -3.56360732796760390000e-001) (59, -1.41007119517542270000e-001) (60, -4.41807892513543580000e-001) (61, -4.15194154702344890000e-001) (62, 1.03237255769756860000e+000) (63, -4.49716888236067590000e-001) (64, -6.57954705304852010000e-001) (65, 3.53517301640789870000e-001) (38, -1.16980867035187760000e-001) (39, 7.71613784200222860000e-001) (40, -8.99718389978674150000e-001) (41, 4.48169828006180600000e-001) (42, 7.52744620989882820000e-001) (43, 1.66233882971443390000e+000) (44, 4.19410134608542260000e-001) (45, -1.17986497821991330000e-001) (46, 3.94842482636692360000e-001) (47, 5.12962273753435620000e-001) (48, -5.37390508172010510000e-001) (49, -9.46644783456155330000e-001) (50, 3.19020333481693950000e-001) (51, 1.52295666649174510000e+000) (52, 4.09605794897351880000e-001) (53, 1.23564570462279950000e-002) (54, -6.73966690321801560000e-001) (55, 1.57486116907304720000e+000) (56, 2.19453845302738180000e-001) (57, -9.08426166081247160000e-001) (58, 6.73793739785404690000e-001) (59, -1.00809668896126640000e-001) (60, 4.19938446886868540000e-001) (61, 2.98163046007559880000e-001) (62, -2.83461310666412380000e-002) (63, 1.47719968860445890000e+000) (64, -2.25378368175728730000e-002) (65, 4.01236144865498020000e-001) (38, -3.53331246105272260000e-002) (39, -6.29715991897790040000e-001) (40, 1.30698911880918450000e-001) (41, 3.35695789583890510000e-001) (42, -3.05301145878220170000e-002) (43, 2.29258053341214780000e-002) (44, 4.77259654638814370000e-001) (45, -1.19536028342388520000e+000) (46, 4.01120542697202600000e-001) (47, 3.76633881254002270000e-001) (48, -3.60690568317648340000e-001) (49, 6.01921186526884750000e-001) (50, 3.83925077174746720000e-001) (51, 3.05304170914616440000e-002) (52, 3.45436958047541490000e-001) (53, -4.35404147542703960000e-002) (54, 1.52338258647051840000e+000) (55, -8.14298571944056190000e-001) (56, -5.62350296444553490000e-002) (57, 6.82374752817839770000e-001) (58, -6.42505797555844580000e-001) (59, -1.24447523016475700000e-001) (60, 2.51575625151686970000e-001) (61, -4.36232624803021410000e-002) (62, -1.02430263177245910000e+000) (63, -4.82703316679278790000e-001) (64, 1.00595439214325920000e+000) (65, 2.60659158052408470000e-001) 
