FANN_FLO_2.1
num_layers=3
learning_rate=0.700000
connection_rate=1.000000
network_type=0
learning_momentum=0.000000
training_algorithm=2
train_error_function=1
train_stop_function=0
cascade_output_change_fraction=0.010000
quickprop_decay=-0.000100
quickprop_mu=1.750000
rprop_increase_factor=1.200000
rprop_decrease_factor=0.500000
rprop_delta_min=0.000000
rprop_delta_max=50.000000
rprop_delta_zero=0.100000
cascade_output_stagnation_epochs=12
cascade_candidate_change_fraction=0.010000
cascade_candidate_stagnation_epochs=12
cascade_max_out_epochs=150
cascade_max_cand_epochs=150
cascade_num_candidate_groups=2
bit_fail_limit=3.49999999999999980000e-001
cascade_candidate_limit=1.00000000000000000000e+003
cascade_weight_multiplier=4.00000000000000020000e-001
cascade_activation_functions_count=10
cascade_activation_functions=3 5 7 8 10 11 14 15 16 17 
cascade_activation_steepnesses_count=4
cascade_activation_steepnesses=2.50000000000000000000e-001 5.00000000000000000000e-001 7.50000000000000000000e-001 1.00000000000000000000e+000 
layer_sizes=38 32 4 
scale_included=0
neurons (num_inputs, activation_function, activation_steepness)=(0, 0, 0.00000000000000000000e+000) (0, 0, 0.00000000000000000000e+000) (0, 0, 0.00000000000000000000e+000) (0, 0, 0.00000000000000000000e+000) (0, 0, 0.00000000000000000000e+000) (0, 0, 0.00000000000000000000e+000) (0, 0, 0.00000000000000000000e+000) (0, 0, 0.00000000000000000000e+000) (0, 0, 0.00000000000000000000e+000) (0, 0, 0.00000000000000000000e+000) (0, 0, 0.00000000000000000000e+000) (0, 0, 0.00000000000000000000e+000) (0, 0, 0.00000000000000000000e+000) (0, 0, 0.00000000000000000000e+000) (0, 0, 0.00000000000000000000e+000) (0, 0, 0.00000000000000000000e+000) (0, 0, 0.00000000000000000000e+000) (0, 0, 0.00000000000000000000e+000) (0, 0, 0.00000000000000000000e+000) (0, 0, 0.00000000000000000000e+000) (0, 0, 0.00000000000000000000e+000) (0, 0, 0.00000000000000000000e+000) (0, 0, 0.00000000000000000000e+000) (0, 0, 0.00000000000000000000e+000) (0, 0, 0.00000000000000000000e+000) (0, 0, 0.00000000000000000000e+000) (0, 0, 0.00000000000000000000e+000) (0, 0, 0.00000000000000000000e+000) (0, 0, 0.00000000000000000000e+000) (0, 0, 0.00000000000000000000e+000) (0, 0, 0.00000000000000000000e+000) (0, 0, 0.00000000000000000000e+000) (0, 0, 0.00000000000000000000e+000) (0, 0, 0.00000000000000000000e+000) (0, 0, 0.00000000000000000000e+000) (0, 0, 0.00000000000000000000e+000) (0, 0, 0.00000000000000000000e+000) (0, 0, 0.00000000000000000000e+000) (38, 5, 5.00000000000000000000e-001) (38, 5, 5.00000000000000000000e-001) (38, 5, 5.00000000000000000000e-001) (38, 5, 5.00000000000000000000e-001) (38, 5, 5.00000000000000000000e-001) (38, 5, 5.00000000000000000000e-001) (38, 5, 5.00000000000000000000e-001) (38, 5, 5.00000000000000000000e-001) (38, 5, 5.00000000000000000000e-001) (38, 5, 5.00000000000000000000e-001) (38, 5, 5.00000000000000000000e-001) (38, 5, 5.00000000000000000000e-001) (38, 5, 5.00000000000000000000e-001) (38, 5, 5.00000000000000000000e-001) (38, 5, 5.00000000000000000000e-001) (38, 5, 5.00000000000000000000e-001) (38, 5, 5.00000000000000000000e-001) (38, 5, 5.00000000000000000000e-001) (38, 5, 5.00000000000000000000e-001) (38, 5, 5.00000000000000000000e-001) (38, 5, 5.00000000000000000000e-001) (38, 5, 5.00000000000000000000e-001) (38, 5, 5.00000000000000000000e-001) (38, 5, 5.00000000000000000000e-001) (38, 5, 5.00000000000000000000e-001) (38, 5, 5.00000000000000000000e-001) (38, 5, 5.00000000000000000000e-001) (38, 5, 5.00000000000000000000e-001) (38, 5, 5.00000000000000000000e-001) (38, 5, 5.00000000000000000000e-001) (38, 5, 5.00000000000000000000e-001) (0, 5, 0.00000000000000000000e+000) (32, 5, 5.00000000000000000000e-001) (32, 5, 5.00000000000000000000e-001) (32, 5, 5.00000000000000000000e-001) (0, 5, 0.00000000000000000000e+000) 
connections (connected_to_neuron, weight)=(0, 3.14684584551471410000e-001) (1, 1.75659534401911200000e-001) (2, 3.36168042914134160000e-001) (3, 3.74276879452613010000e-001) (4, -1.89511953617949390000e+000) (5, -1.63172658933532670000e-001) (6, 2.01550595852544480000e-001) (7, 2.15666108953185910000e-001) (8, 1.55750610702604810000e+000) (9, 8.83412182959625090000e-001) (10, -1.09429895147624220000e+000) (11, 2.48588011973861270000e-001) (12, 5.25022519259690440000e-002) (13, 5.17868764022184180000e-001) (14, 8.13464943072690240000e-001) (15, 1.27210517845485470000e+000) (16, -1.24124680882155910000e+000) (17, -1.47252187869543530000e-001) (18, -8.84777186706172340000e-001) (19, 9.38700425564205630000e-002) (20, 1.15542798929733400000e+000) (21, 6.81435085589728760000e-001) (22, 4.65464133376624230000e-001) (23, 1.41992221662539190000e-001) (24, -1.36758531612333980000e-001) (25, 6.63668558652221300000e-001) (26, 4.16790639243426350000e-001) (27, 1.39898508150519800000e-001) (28, 5.07510908953945420000e-002) (29, -2.79189412436600780000e-001) (30, 1.62349628812163330000e-001) (31, -1.62781470136824420000e-001) (32, 6.54388968557963580000e-001) (33, -8.12515161647095140000e-001) (34, -5.81242570584354470000e-001) (35, 1.17293898753970290000e+000) (36, 3.79132075447695780000e-001) (37, 2.19501440436502270000e-002) (0, -3.55506331188049960000e+001) (1, 1.84827737576105020000e-001) (2, 2.09004063783841200000e+000) (3, 2.16370820586757270000e-001) (4, -1.14298639042745660000e+000) (5, -7.56518267220690210000e-002) (6, 1.30189394820292970000e+000) (7, 1.58975450420050820000e-001) (8, 3.15326958943241560000e-002) (9, 7.37184141299727540000e-001) (10, 7.06500600895318850000e-001) (11, -1.66214876864137130000e-001) (12, -1.55302999077771650000e-001) (13, -5.67782170433072890000e-001) (14, 8.41394188891072810000e-002) (15, 9.35051208212213210000e-001) (16, 6.41575153731050780000e-001) (17, 1.55207314105782900000e-001) (18, 1.29689307695978260000e+000) (19, -6.46352462847434330000e+000) (20, -4.18009029677992920000e-001) (21, 1.05810000644154380000e+000) (22, 1.62726437668505750000e+001) (23, -2.30944650267116330000e-001) (24, 2.13881643026584230000e+000) (25, 1.03773996734834670000e+000) (26, 4.68770396503893210000e-002) (27, -5.98693780824330890000e-001) (28, 1.28531441419034140000e+000) (29, 1.07645144151698100000e+000) (30, -9.77274716680465060000e-001) (31, 4.21392738255402080000e-001) (32, 8.58111095144455600000e-001) (33, 1.31110308983144410000e-001) (34, 3.52753220886842080000e-001) (35, 2.20271152496544470000e-001) (36, 7.35637064899956390000e-001) (37, 3.65619970201321090000e-001) (0, -2.77220341695117930000e-002) (1, -1.41212959563100570000e-001) (2, 9.02933478564108660000e-001) (3, 5.95476462188224480000e-001) (4, 3.64490796012901570000e-001) (5, 1.99726867360782680000e-002) (6, 1.87962109425167050000e+000) (7, -1.59444189606745310000e-001) (8, -4.90167917890220020000e-001) (9, 5.99735509928989720000e-001) (10, 5.06451778671117350000e-001) (11, -2.07579067761841290000e-001) (12, 4.54350162804261100000e-001) (13, -2.73895307604409720000e-001) (14, -1.42753603136296200000e-001) (15, -5.37457233038086680000e-001) (16, -5.45906264681056850000e-001) (17, -9.23522877539979940000e-002) (18, 7.15023369458771760000e-001) (19, -1.56764187877261570000e-001) (20, 1.40971843968585810000e-001) (21, 6.05315775993720220000e-001) (22, 6.35515445267570530000e-001) (23, 5.10577280631270280000e-001) (24, 5.24477337939408540000e-001) (25, -7.35542657915193690000e-001) (26, 3.74969425446894310000e+000) (27, -8.02712731198848280000e-002) (28, 5.55856327311182950000e-001) (29, 2.60656899442560600000e-001) (30, -2.75471013091607540000e-001) (31, -1.35691935800553550000e-001) (32, 4.84247656728387880000e-001) (33, -1.60916113818604070000e-001) (34, -1.61776749682520370000e-001) (35, 4.85118300486756530000e-001) (36, 4.44203986307817930000e-001) (37, -2.39759583887734130000e-001) (0, 8.27843775174265880000e-001) (1, 4.12451854301159600000e-001) (2, 5.61341695921800170000e-001) (3, -1.91581524022966600000e-001) (4, -4.73683852886074950000e+000) (5, 3.34166603131935340000e-002) (6, 2.54569638451068780000e-001) (7, 5.45368813197281920000e-001) (8, 6.11861938761219460000e+000) (9, 1.97779876722948100000e-002) (10, -2.89250850476086670000e+000) (11, 4.32972674434717650000e-001) (12, 3.86470486830141970000e-002) (13, 1.56684729955261480000e+000) (14, 2.74944963468800430000e-001) (15, 4.23797545826547580000e+000) (16, 6.99136018381478100000e-001) (17, 7.20145860692459010000e-001) (18, -2.62760745137393050000e+000) (19, 6.19542027701566410000e-001) (20, 6.57076497808234630000e-001) (21, -1.12580706714837870000e-001) (22, 2.46475839428845710000e-001) (23, 1.39635501234996240000e-001) (24, -5.38620183863078750000e-001) (25, 6.63328861934440630000e-001) (26, -2.77248419630653220000e-001) (27, 8.62246141545433660000e-001) (28, -2.60597351641285000000e-001) (29, -1.23229279319989390000e+000) (30, 2.90512181835391910000e+000) (31, 1.87108511981391890000e+000) (32, 3.22760435810312880000e+000) (33, 1.51648376923625480000e-002) (34, 2.66770295240274570000e-001) (35, 2.63344368643130360000e+000) (36, -7.74531819703814570000e-001) (37, 7.95501717139338870000e-002) (0, 5.92371932433187090000e-001) (1, 4.11277225788974830000e+000) (2, 1.06423028220507240000e-001) (3, -7.64004806771465320000e-001) (4, -1.95475801626557620000e-002) (5, 5.59287948920955400000e-002) (6, 2.45861522697264560000e-002) (7, 6.39650813189686420000e-001) (8, 2.16680197281183960000e-001) (9, -7.17612970671416940000e-001) (10, 2.11771223053385050000e-001) (11, 7.05851421856854680000e-001) (12, 5.52061067321736990000e-001) (13, 1.46237295488912890000e+000) (14, 2.32900454556957250000e+000) (15, -4.01040484682675340000e-001) (16, -3.42447309755818000000e-001) (17, 8.03452793424875630000e-001) (18, 2.45140459555467840000e-001) (19, 5.26428576740720280000e+000) (20, -8.10580100767315830000e-003) (21, -4.53125261374011380000e-001) (22, 8.84507889242329700000e-002) (23, 3.63299661529457200000e-001) (24, -2.35659042399914710000e+002) (25, -4.89067600118343270000e-001) (26, 1.88202527692818390000e-001) (27, 5.88263314961390640000e+000) (28, 2.47960954372713550000e-002) (29, -3.58155965983675270000e-001) (30, 1.29765252024181810000e+000) (31, 1.18324423601420090000e+001) (32, -4.75273042896459660000e-001) (33, 3.25679152770429530000e-001) (34, 9.63279173785007710000e-001) (35, 1.98023471026735560000e-001) (36, 1.08034464631342500000e+000) (37, 1.10726058316878760000e+000) (0, 1.59315446385313810000e-001) (1, 2.17385934906667410000e-001) (2, 1.97924416918944750000e-001) (3, -6.48591247258800960000e-002) (4, 3.68903438072466510000e-001) (5, 3.36242973754960650000e-001) (6, 6.87104948324926550000e-002) (7, 4.98433273654544760000e-001) (8, -3.09411205524044790000e-002) (9, 3.06698499543187840000e-001) (10, 6.87134317365890700000e-001) (11, 2.48483325820976350000e-001) (12, 3.15889587284153280000e-001) (13, 1.36432988367737480000e-001) (14, 3.53306459886279070000e-001) (15, 1.07521176657211680000e-001) (16, 3.23828971093915790000e-001) (17, 3.28224758377729300000e-001) (18, 3.82058153000024990000e-001) (19, 7.19757635566724120000e-001) (20, -4.29385896886574750000e-001) (21, -4.63168277005741800000e-002) (22, 1.45088336733407680000e-001) (23, 9.04125755457863000000e-001) (24, -2.23284707497944910000e-001) (25, -1.79719761955310390000e-001) (26, 1.39027650101090510000e+000) (27, 4.63105565224144920000e-001) (28, 1.68975639640223700000e-002) (29, 6.84212151592257790000e-001) (30, 1.82719694201609160000e-001) (31, 1.24025853816548100000e-001) (32, -4.45853639345834200000e-002) (33, 4.47950743591590540000e-001) (34, 4.46644931884633720000e-001) (35, 2.49845391170679080000e-001) (36, -3.35504479791601420000e-001) (37, 5.44496367592534280000e-001) (0, 2.76595945247058330000e-001) (1, 3.70861875896472680000e-001) (2, 4.52084551044128540000e-001) (3, -1.49008048384291380000e-001) (4, 6.19496540839124810000e-002) (5, 3.42187515460570180000e-002) (6, 3.95723872480639390000e-001) (7, 5.52724207291786170000e-001) (8, -4.57109857277249730000e-001) (9, -1.90707796047553720000e-001) (10, 2.19126883102026240000e-001) (11, 1.14995945145776820000e+000) (12, 4.15877449214313440000e-002) (13, 4.58625943780706590000e-001) (14, 9.47384644373202910000e-001) (15, -3.03840845827426930000e-001) (16, -9.73481355459099640000e-001) (17, 7.98940799269700960000e-001) (18, 1.89416358510237860000e-001) (19, 6.49293703361695690000e+001) (20, -1.60663486940751010000e-002) (21, 7.95898544435009600000e-002) (22, 3.46899948688206890000e-001) (23, 5.57017933276413800000e-001) (24, -2.03104707856257210000e+000) (25, -4.88378341937680760000e-001) (26, 1.26565727095578740000e+000) (27, 1.16813832113823390000e+000) (28, -4.92380761719364900000e-001) (29, -3.41162681343190610000e-001) (30, 9.88298346776952940000e-001) (31, 2.44065818681640190000e+000) (32, -2.60381676422930360000e-001) (33, 4.42000041778959070000e-001) (34, 1.03287821010256660000e+000) (35, 2.10962987345835180000e-001) (36, 8.93335753225707740000e-002) (37, 1.20222044867488780000e+000) (0, 1.39792068191278870000e-001) (1, -1.09316424083603920000e-002) (2, 3.61146790317178720000e-001) (3, 3.35026738823838600000e-001) (4, 5.26192274979140120000e-001) (5, -7.20846942785907250000e-002) (6, 4.85718945353508740000e-001) (7, -5.39152358188286770000e-001) (8, 1.02624497382419980000e-001) (9, 1.14272137249787800000e+000) (10, -7.95422074463751450000e-003) (11, -2.26209495091560600000e-001) (12, 4.47818848324893660000e-001) (13, 2.54179209063632560000e-001) (14, 8.11950717563139500000e-002) (15, -4.47843895789073260000e-002) (16, 7.91657745607246780000e-001) (17, -4.96728450299957010000e-002) (18, 6.34856314107064280000e-002) (19, 1.92671667034372770000e-001) (20, 5.25138291457213140000e-001) (21, 5.43949102766473120000e-001) (22, 4.13651585147028320000e-001) (23, -4.90901315598863300000e-001) (24, 6.59264422877588800000e-001) (25, 4.56165529961811490000e-002) (26, 6.71620356637060210000e-001) (27, 1.82414272645543380000e-002) (28, 4.04902665528978300000e-001) (29, 5.46719893104858250000e-001) (30, -4.81042075722956490000e-001) (31, -5.00461693828715640000e-001) (32, 9.23242343735591780000e-001) (33, -7.33811221657952460000e-002) (34, -1.80209008624356710000e-001) (35, 8.08998791838033580000e-001) (36, 3.48828489833408690000e-001) (37, -1.22369439206639940000e-001) (0, -1.00145592123504530000e+000) (1, -7.08740690966647600000e-001) (2, 1.15505446884691530000e+000) (3, 3.05785900782360140000e+000) (4, 1.14790811715667610000e+000) (5, -2.59781422774105490000e-001) (6, 2.06954776725723110000e+000) (7, -1.62932863860393520000e+000) (8, -1.85078568165850110000e+001) (9, 1.55173336578683710000e+000) (10, 1.97326340541639960000e+000) (11, -2.85032833720540110000e-001) (12, -2.67431206725244720000e-002) (13, -7.96568099670492910000e-001) (14, -1.73332176925038240000e-001) (15, -2.25660162461112530000e+000) (16, -3.31400649711207080000e-001) (17, -1.04181591275158030000e-001) (18, 1.17770950476010320000e+000) (19, -7.67758009614183610000e-001) (20, -2.20131446647344740000e-001) (21, 3.45484115594393630000e-001) (22, 2.03604799737032320000e+000) (23, 1.58258492491961560000e+000) (24, 1.02087853057512650000e+002) (25, -2.72862335697148450000e-002) (26, 3.79039747260212060000e+000) (27, -5.94521992816022030000e-001) (28, 9.33241064033231040000e-001) (29, 1.39942711062908010000e+000) (30, -4.38716823230982770000e-001) (31, -2.61717936827630780000e+000) (32, 6.53091362728029260000e-001) (33, 2.40635405754944210000e-001) (34, -5.75985679806191450000e-002) (35, -2.28870882833598840000e+000) (36, 3.37792117942684200000e+001) (37, -1.38701612768378650000e+000) (0, 1.68109798248098460000e-001) (1, 4.04185118413542270000e-001) (2, 2.29197206507461170000e-001) (3, 6.47243314547064350000e-002) (4, 4.65228995931017630000e-001) (5, 4.64492853698675710000e-001) (6, -2.41108259287849230000e-002) (7, 1.64782203423422120000e-001) (8, 3.74468249672050830000e-001) (9, 6.87512605711739220000e-001) (10, -2.72712823676395430000e-001) (11, 1.58611579342968790000e-001) (12, 3.38119444184288960000e-001) (13, 5.31217409979021670000e-001) (14, 3.19433695566946780000e-001) (15, 2.42594969271613450000e-001) (16, 4.37682196269217500000e-001) (17, 2.74640633574172120000e-001) (18, 6.18547313204719180000e+000) (19, 4.46628537414803570000e-001) (20, 5.37460841990148210000e-001) (21, -2.71987707495385390000e-002) (22, 2.64944260998137280000e-001) (23, -3.99399210643320850000e-001) (24, 7.95019472296529720000e+000) (25, 9.11856484218641070000e-001) (26, -5.47656768864722910000e-002) (27, 4.73703568935760320000e-001) (28, -4.77800027055224620000e-002) (29, 6.09673982424376980000e-001) (30, 3.37348201530725870000e-001) (31, 3.97805340875661880000e-001) (32, 5.38484068339231610000e-002) (33, 4.14381717258277380000e-001) (34, 5.52944370633396190000e-001) (35, 1.83457784231272210000e-002) (36, 2.88723497838292180000e-003) (37, 3.53328088553341750000e-001) (0, 4.96258495484900380000e-002) (1, 5.05629154715016570000e-001) (2, 2.45002874526905030000e-001) (3, -1.22227482182323920000e-001) (4, 1.54897140894553810000e-002) (5, 1.30716239405685860000e-001) (6, 4.41883853572550690000e-002) (7, 4.97152017977607000000e-001) (8, 8.52016860380771180000e-001) (9, -7.60521097877694120000e-002) (10, 9.05367191555797590000e-002) (11, 3.03322085962574760000e-001) (12, 3.66251398177417200000e-001) (13, 5.87585822599489990000e-001) (14, 1.29438959850181060000e+000) (15, 1.19804430770578960000e+000) (16, 2.19364028031971970000e-001) (17, 2.08107645521343090000e-001) (18, 2.17795551765369440000e-001) (19, 8.35563120320480970000e-001) (20, 6.29012583335082480000e-001) (21, -1.25205627405411520000e-002) (22, -4.15651397419807780000e-001) (23, 1.85379994880705140000e-001) (24, -4.09968688985969870000e-002) (25, 1.01350305299032930000e+000) (26, -3.36360679475313840000e-001) (27, 4.14861726645296030000e-001) (28, 3.16544468395634100000e-001) (29, -6.34158692998024460000e-002) (30, 5.14006571590425950000e-001) (31, 3.00675343206164900000e-001) (32, -4.52485484817699290000e-002) (33, -1.28918515309807550000e-002) (34, 2.19440622944799680000e-001) (35, 3.30393408565574090000e-001) (36, 5.11465707279209920000e-001) (37, 9.08645129094107080000e-002) (0, 1.42878821293076520000e-001) (1, 3.98014739960559640000e-002) (2, 3.22954153744399790000e-001) (3, 3.90970910997915590000e-001) (4, 3.56544316216657940000e-001) (5, 1.57274597435500710000e-001) (6, 4.66269900071014820000e-001) (7, 2.43915107317023730000e-001) (8, 1.51679994509239720000e+000) (9, 1.74143652912768480000e+000) (10, -1.04631040963324720000e+000) (11, 8.87487117881950030000e-002) (12, 2.13841044633598290000e-001) (13, -7.46606567595492490000e-002) (14, -4.21477778089255350000e-001) (15, 1.11181247072565430000e+000) (16, 2.23971918874343730000e+000) (17, 1.87305971186568610000e-001) (18, -1.20371210272237610000e+000) (19, -5.04916901673432280000e-001) (20, 9.01936138666777800000e-001) (21, 8.09773721911593250000e-001) (22, 2.70052892084364890000e-001) (23, -4.74290767395744110000e-001) (24, 5.17175037162522560000e-001) (25, 9.09245293333856730000e-001) (26, 2.93017221921233250000e-001) (27, 1.53316695763404230000e-001) (28, 3.29744027389000660000e-001) (29, 2.05928798781379210000e-001) (30, -1.09575327213201940000e-002) (31, -1.43341427449127030000e+000) (32, 8.31756822410884670000e-001) (33, 1.54043800924317080000e-001) (34, -1.01469779520673420000e-001) (35, 5.78314188324269950000e-001) (36, 1.84904893379717720000e-001) (37, 1.27590730638667910000e-001) (0, -1.56730416338969560000e-001) (1, -2.00197696789409020000e-001) (2, 4.86751728200640170000e-001) (3, 6.20486462592434780000e-001) (4, 8.58157731170670400000e-001) (5, -1.08307259219879460000e-001) (6, 4.03707671039586160000e-001) (7, -1.00296480607540820000e-001) (8, 6.02744699566959970000e-001) (9, -8.69954492797293870000e-001) (10, 4.85140155490402620000e-001) (11, -2.01719275591780320000e-001) (12, 1.89188362964014010000e-001) (13, 1.08521993015899070000e+000) (14, 7.24936841208902890000e-001) (15, 8.42084459224226170000e-002) (16, 5.37534083618182470000e-004) (17, -2.00754175083220490000e-001) (18, 4.69332887334565410000e-001) (19, 6.72837169183496560000e-001) (20, -3.60480496128261610000e-001) (21, 6.05889127271351870000e-002) (22, 2.77834224165469930000e-001) (23, 1.95961648045194360000e+000) (24, -1.53283923682081940000e-001) (25, 8.13983401383780860000e-002) (26, 6.09989250671607810000e-001) (27, 5.95984252210609130000e-001) (28, -1.18669341215947480000e-001) (29, 6.01176352643186810000e-002) (30, 5.11750062808459920000e-001) (31, 4.71338829261228330000e-001) (32, -1.01076632749183220000e-001) (33, -1.52285410100516880000e-001) (34, -2.79322552568258440000e-001) (35, 5.24260502087749880000e-001) (36, 3.91499175585345500000e+000) (37, -1.17832032434492680000e-001) (0, 1.60017534688552070000e-001) (1, 5.26607222913147850000e-002) (2, 4.31019358331529300000e-002) (3, 1.77499549998553550000e-001) (4, 4.28628586233205450000e-002) (5, 4.54861071003187070000e-001) (6, 8.51089881291563380000e-001) (7, 5.17576917557933780000e-001) (8, 3.34460568571739170000e-001) (9, -2.48152930192384190000e-003) (10, 5.18606405911491210000e-001) (11, 2.94829732796350330000e-001) (12, -1.20892106439600980000e-001) (13, 1.48853410593753540000e-001) (14, 9.16203743937841620000e-002) (15, -7.28985189402550640000e-002) (16, -9.00561100983541670000e-002) (17, 2.45260107707234050000e-001) (18, 1.62723007221484540000e+000) (19, -2.96780598369193390000e-002) (20, 2.04906731198656410000e-001) (21, -1.77212465587161690000e-001) (22, 9.38155776855156160000e-001) (23, 3.54173082458106910000e-001) (24, 2.57747957630964810000e-001) (25, -3.88799793617225980000e-002) (26, -1.19355783764231280000e-001) (27, 2.19159962205337590000e-001) (28, 6.49292408831113720000e-001) (29, 2.02361316767645160000e-001) (30, 3.31805583636453020000e-001) (31, 7.59987236396650890000e-001) (32, 2.41269623913435650000e-001) (33, 5.68970176982897090000e-001) (34, 6.60864622822682990000e-001) (35, -6.51307438678873500000e-002) (36, 3.62484146419524420000e-002) (37, 5.38514626974744730000e-001) (0, 1.07200464006354440000e-002) (1, -1.54457409142165050000e-001) (2, 3.78938915955643660000e-001) (3, 6.11028711480776090000e-001) (4, 2.23909192816785300000e-002) (5, -7.11722984967996520000e-002) (6, 3.61572423950569650000e-001) (7, -1.22823717531983830000e-001) (8, 8.11073345654180100000e-001) (9, 6.26677924949481050000e-001) (10, -1.37078733687022720000e-001) (11, 4.85749391493244390000e-002) (12, -4.89398468594896620000e-002) (13, 2.31415711873842440000e-001) (14, 3.13190159654827880000e-001) (15, 1.18251999126352360000e+000) (16, 5.46450964271405380000e-001) (17, -1.24892386624017030000e-001) (18, -1.31927521048942510000e-001) (19, -2.31447081028942960000e-001) (20, 7.92915333226317690000e-001) (21, 4.62862546144741370000e-001) (22, 2.57850366228843550000e-001) (23, -1.24563716917451120000e-002) (24, 1.06522972205567860000e+000) (25, 4.98550648779114040000e-001) (26, 1.73996559133337090000e-001) (27, -2.68430248228858410000e-001) (28, 3.46179593683498600000e-001) (29, 3.91702515301397270000e-002) (30, -4.48403290543564260000e-001) (31, -1.04704204803557130000e-001) (32, 1.57069927135849770000e+000) (33, -5.82815994480799860000e-002) (34, -1.41435554862546580000e-001) (35, 4.20230731762649470000e-001) (36, 1.08092112121472980000e+000) (37, -1.69725370598659500000e-001) (0, 5.12891433441740260000e-001) (1, 5.75879841680932540000e-001) (2, -7.11149250589692280000e-002) (3, 4.45656415588624320000e-002) (4, -1.74503929958879980000e-001) (5, 4.20495221301624200000e-001) (6, 1.10078186235408080000e-001) (7, 7.21141802458170610000e-001) (8, -5.91210000638951810000e-002) (9, -4.55314323642076520000e-001) (10, 4.98241068855646340000e-001) (11, 5.55465775098509250000e-001) (12, 4.55195104086483670000e-001) (13, 1.06141274601839060000e+000) (14, 2.44761633067417070000e+000) (15, 2.00342755115556630000e-001) (16, -2.42847800109078110000e-001) (17, 4.88614927696470140000e-001) (18, 5.02364791924739260000e-001) (19, 1.37096173134731170000e+000) (20, -4.52608152205192070000e-001) (21, -2.63693698051499450000e+000) (22, 3.02081294928100430000e-002) (23, 4.48159454149782640000e-001) (24, 4.55395054939218560000e-001) (25, -5.65829642099821450000e-001) (26, 3.89793013724744270000e-002) (27, 6.26728888159159840000e-001) (28, -1.98706383226427060000e-001) (29, -1.22497350480989730000e+000) (30, 8.05875100528762100000e-001) (31, 2.46241986681914500000e+000) (32, -3.90470182945310330000e-001) (33, 6.03199910886833220000e-001) (34, 6.97873000040551190000e-001) (35, -1.52284282178235130000e-002) (36, -2.98488940699847370000e-003) (37, 4.96170803746191880000e-001) (0, 9.66491721697068370000e-002) (1, 3.88052211524328730000e-001) (2, 1.26310316515761000000e-001) (3, -1.37518567394173840000e-001) (4, 5.49763655986854730000e-001) (5, 1.19120225278219390000e-001) (6, 1.71842702901620100000e-001) (7, 1.18976988779447730000e+000) (8, 1.04424261129549630000e+000) (9, -3.96023788888619830000e-001) (10, 2.63341497450579170000e-001) (11, 7.04851345814339610000e-002) (12, 4.55906405610748850000e-001) (13, 6.02033155398659650000e-001) (14, 5.80783244606094980000e-001) (15, 8.76190362181555330000e-001) (16, 3.78822801264863560000e-001) (17, 5.78519822611886640000e-002) (18, 4.83518807899368740000e-001) (19, 6.07322254327898100000e-001) (20, 1.89821597427030000000e-001) (21, -1.13177582009966800000e-001) (22, 1.92641352300812170000e-001) (23, 4.31652701079889900000e-001) (24, -4.66310791246840260000e-002) (25, 5.47526157988111990000e-001) (26, -3.31776164934755090000e-001) (27, 3.67984551028374520000e-001) (28, 3.19133346939355080000e-001) (29, -9.56991789108079110000e-002) (30, 4.72416702100234900000e-001) (31, 4.23633292207875710000e-001) (32, 5.33582913839784000000e-002) (33, 5.96858933522755670000e-002) (34, 1.05969266780524250000e-001) (35, 5.59998726658009900000e-002) (36, 2.52949412101495960000e-001) (37, 1.62597432614879660000e-001) (0, 3.04889145252244480000e-001) (1, 4.72122942439377580000e-001) (2, 3.78586433207405150000e-002) (3, -9.12116828501424730000e-002) (4, 2.35801427941086550000e-001) (5, 2.83358292844754830000e-001) (6, 8.00195257377471550000e-001) (7, 1.42231337459548330000e-001) (8, -2.25303827567599650000e-001) (9, -1.85116189428866870000e-001) (10, 9.27792013724889950000e-001) (11, 1.92536990360714980000e-001) (12, 1.84383692291640620000e-001) (13, 4.11676237603845420000e-001) (14, 5.55035907243414560000e-001) (15, -7.84879118991052000000e-002) (16, -2.42533934630740080000e-001) (17, 5.93389583635827060000e-001) (18, 1.14823422515717640000e+000) (19, 8.08628841560704690000e-001) (20, -3.31219391965005110000e-001) (21, 6.07225049143227250000e-002) (22, 1.50049759363813600000e-001) (23, 7.58396587568375690000e-001) (24, -4.52869453752202000000e-001) (25, -1.50403300003283450000e-001) (26, 9.39836258882164040000e-001) (27, 1.09159951580701820000e+000) (28, -4.53877491337261880000e-002) (29, -1.61241462112963170000e-001) (30, 8.43954828256236910000e-001) (31, 1.63678838293373400000e-001) (32, -2.22511539042984400000e-001) (33, 5.12820454172072230000e-001) (34, 4.80249881047616290000e-001) (35, 6.39762989374899060000e-002) (36, 5.62096613325812830000e-003) (37, 4.40415815531256140000e-001) (0, 1.83460573647490690000e-001) (1, -2.06140464802541890000e-001) (2, 1.20281920404107210000e+000) (3, 2.26082329064337280000e-001) (4, -1.03444476559402020000e-001) (5, 4.79528642391523900000e-002) (6, 1.22499399681555990000e+000) (7, 3.31764990784650770000e-001) (8, -2.47485132422237720000e-002) (9, -1.10067622125983270000e-001) (10, 4.14011664111267110000e-001) (11, 1.62168370470464780000e-001) (12, -9.63016473524052340000e-002) (13, -5.80796516611893520000e-004) (14, -1.02922599489856580000e-001) (15, 7.03557379413804580000e-001) (16, -1.33810538801699340000e-002) (17, 2.75091684791514910000e-001) (18, -1.52712011348757290000e+000) (19, 1.02721681340139050000e-001) (20, -8.45738161764997690000e-002) (21, 3.15256553152556240000e-001) (22, 3.46015131609846370000e-001) (23, 3.60733258237425410000e-001) (24, 4.66477525994124060000e-001) (25, 3.90337513247115460000e-001) (26, 2.55902595373860510000e-001) (27, 9.32954619550211280000e-002) (28, 3.35470421655195970000e-001) (29, 2.03068644775282300000e-002) (30, 4.45121496756501920000e-001) (31, 3.81557744891083060000e-002) (32, 6.11818798201036350000e-001) (33, 2.64810166390551590000e-002) (34, -2.32858580128636190000e-001) (35, -2.78957794781609720000e-002) (36, 5.66066171974802490000e+000) (37, 1.82594999110683970000e-001) (0, -1.24556381990487700000e-001) (1, -1.89972446739603400000e-001) (2, 9.85190429108257270000e-001) (3, 5.05148602860130860000e-001) (4, -6.35810836634763010000e-001) (5, -1.97027272048216770000e-001) (6, 7.84764965140161590000e-001) (7, -1.30342210850252350000e-001) (8, -2.09147290689950300000e-001) (9, 4.00020925467413360000e-001) (10, 6.86691507181834360000e-001) (11, -3.00694910299889210000e-001) (12, -1.11206161273256400000e-001) (13, -1.21636688631090330000e-001) (14, 4.46500167870457540000e-001) (15, 1.10340325395315520000e-001) (16, 3.38621651497414970000e-002) (17, -6.58816521669192270000e-002) (18, 4.45735934943272820000e-002) (19, -3.82624158098680140000e-002) (20, 1.32476606674675060000e-001) (21, 3.19597320291217960000e-001) (22, 6.47304173566820130000e-001) (23, 4.25481506968007410000e-001) (24, 1.06406952356632130000e+000) (25, 9.44110229657690180000e-002) (26, 9.75991925892631510000e-001) (27, -2.40695434662275830000e-001) (28, 6.35715346081363260000e-001) (29, -4.66779395880405900000e-001) (30, -3.37259585016892570000e-001) (31, -1.46132748253390450000e-001) (32, 6.44693487809696260000e-001) (33, 1.83558730491907020000e-002) (34, -4.65359918277797670000e-002) (35, 2.90233112949633440000e-001) (36, 1.81200843694169380000e+000) (37, -2.82453952991542300000e-001) (0, 5.54510079988080330000e-001) (1, 3.07752919318153520000e-001) (2, -1.36324375794165930000e-001) (3, 1.13325899957940460000e-001) (4, 4.11536762577290440000e-001) (5, 4.14987922226117250000e-001) (6, -1.86723143781057230000e-002) (7, 2.19789254000601380000e-003) (8, 5.45846201471681170000e-001) (9, -1.23661096634312780000e-001) (10, 5.29844352238694860000e-001) (11, -1.43374218250686810000e-002) (12, -3.18235362208558330000e-003) (13, 7.21698869016146110000e-001) (14, 1.42175152402280580000e+000) (15, -1.08646867406383600000e-001) (16, 5.39230302293002770000e-002) (17, 4.59167980456156260000e-001) (18, 5.10391125698726580000e-001) (19, 7.11127284006979190000e-002) (20, 5.82966161843900340000e-002) (21, -2.72008447710295810000e-001) (22, 1.95015707551220720000e-001) (23, 4.92692645372935000000e-001) (24, -8.57779185003647800000e-001) (25, -1.91845856874765490000e-001) (26, -6.15672884828687910000e-002) (27, -8.39372664446304400000e-002) (28, -2.26223941613067030000e-001) (29, 1.73691733787485090000e-001) (30, -1.16410091264864500000e-001) (31, 3.64216734683651210000e+000) (32, 2.31431925723682810000e-002) (33, -1.07988091202104160000e-001) (34, -1.02525051320517920000e+000) (35, -5.78029841158567370000e-001) (36, 4.88130837218751560000e-001) (37, 4.99670549410722920000e-001) (0, 1.43720180414074530000e-001) (1, 5.50851543479951800000e-001) (2, 4.41211636748245410000e-002) (3, -1.11865924678022770000e-001) (4, -9.23588539969362050000e-002) (5, 4.09589959811152570000e-002) (6, -4.38301515226546810000e-002) (7, 9.82011692712922990000e-001) (8, 1.41707247720656730000e+000) (9, -2.70745853332852840000e-001) (10, 1.69032595114958600000e-002) (11, -6.35347946128350880000e-001) (12, -5.22518037136103650000e-002) (13, 4.80368581607805380000e-001) (14, 4.83823013892603740000e-001) (15, 9.78142882641916730000e-001) (16, 2.29769217695719700000e-001) (17, 3.78133275634220670000e-001) (18, 2.60191216360973620000e-002) (19, 7.87798474183407090000e-002) (20, 5.80885719996326430000e-001) (21, 5.40224006314874650000e-002) (22, 3.20052232574233990000e-001) (23, -4.95625255707973710000e-002) (24, 8.56458868435021390000e-001) (25, 4.42090211673724590000e-001) (26, 1.76662732774650800000e-001) (27, 3.66578964667955090000e-001) (28, 1.05308103901934100000e+000) (29, 2.83128334946580390000e-003) (30, 1.04163468079218740000e-001) (31, 4.18505755264292570000e-001) (32, 4.40932994128605590000e-001) (33, -8.47557467225439480000e-002) (34, -5.28572935717974010000e-003) (35, -1.97060340637879830000e-001) (36, 7.20868386099382970000e-001) (37, 4.64805073405164580000e-001) (0, -1.74347653320955670000e-001) (1, 8.67308843575233800000e-002) (2, 6.90999548244451090000e-001) (3, 8.67520712112830440000e-001) (4, -5.90611901170832400000e-001) (5, -1.23885746168405790000e-001) (6, 8.38246591020663120000e-001) (7, 1.45959447882674150000e-001) (8, -3.51015529120988380000e-001) (9, -3.44023492695648800000e-001) (10, 5.79816958265752750000e-001) (11, -9.06785055884509400000e-003) (12, -1.10563071076196270000e-001) (13, 1.83465246225508440000e-001) (14, 1.28134322503006630000e-001) (15, -5.14117324958547120000e-001) (16, -1.31365705449177320000e+000) (17, -6.25459155430029970000e-002) (18, 1.18534954068035120000e-001) (19, -5.75838905351264360000e-001) (20, -6.25051800218767160000e-001) (21, 6.75603605039121870000e-001) (22, 1.05806593177115120000e+000) (23, 6.08918850112528440000e-001) (24, 8.38335918394786940000e-001) (25, -4.92316504723702470000e-001) (26, 1.06834847594579220000e+000) (27, -1.67218242630132290000e-002) (28, 5.80423989920003880000e-001) (29, -2.26606454906695680000e-002) (30, -6.02995933831132700000e-001) (31, 2.51260633217314120000e-001) (32, 4.14229092219113530000e-001) (33, -1.52912269161571250000e-001) (34, -2.57335519733969680000e-001) (35, 4.17181279394813310000e-001) (36, 8.57263315338141490000e-001) (37, -1.52920236570620090000e-001) (0, 1.46822647344878040000e-001) (1, -1.55920052673919090000e-001) (2, 2.66546657689326670000e-001) (3, 7.09954346936289890000e-001) (4, 1.17372754556182650000e-001) (5, -1.80490679719757520000e-002) (6, 2.78909612187539180000e-001) (7, -1.23162140237987710000e-002) (8, -2.52384968423218230000e-002) (9, 6.24157172958793920000e-001) (10, -2.99804197983943200000e-001) (11, 9.42816692876269490000e-002) (12, -4.60338063605105900000e-002) (13, 2.81878539174402090000e-001) (14, 1.50578818296656980000e-001) (15, 1.07957029691685370000e+000) (16, 5.88991418101330040000e-001) (17, -5.61249664816148440000e-002) (18, -2.35763104534266270000e-001) (19, -5.84572441650904610000e-001) (20, 9.23237166915935160000e-001) (21, 6.09345182350533030000e-001) (22, 4.12297531066342650000e-001) (23, -2.97625052414914330000e-001) (24, 9.07222516038091680000e-001) (25, 2.03089494598808710000e-001) (26, 1.05391158991640870000e+000) (27, -3.45965118872046510000e-001) (28, 1.04626456426979520000e+000) (29, 8.59902092371444960000e-002) (30, -2.40222788785349060000e-002) (31, -2.95452640278574430000e-001) (32, 1.28680817647077220000e+000) (33, 1.56760552825730760000e-001) (34, -1.37853181579915080000e-001) (35, 3.00125216968328330000e-001) (36, 5.03959188613154810000e-001) (37, -2.00351891916131200000e-001) (0, 5.02313669681877070000e-001) (1, 5.38884525199604950000e-001) (2, -9.38181944229241620000e-002) (3, -1.81636750615061040000e-001) (4, -2.15468588490009360000e-001) (5, 5.68181678487989060000e-001) (6, -7.22012264170047990000e-002) (7, 8.14913860906241630000e-001) (8, 1.02217639552472010000e+000) (9, 5.77886654569724320000e-001) (10, -3.26591760752547810000e-001) (11, 5.16330491183345170000e-001) (12, 4.70248177358391690000e-001) (13, 1.63087437257819730000e+000) (14, 8.47925959869666680000e-001) (15, 1.07468408889254260000e+000) (16, 5.12243542565304130000e-001) (17, 5.78597521413217740000e-001) (18, -7.47230971566861380000e-002) (19, 1.38170546931563360000e+000) (20, 6.61657563396500500000e-001) (21, -5.41672840929627240000e-002) (22, -1.00342483647558020000e-001) (23, -1.28506759103613870000e-001) (24, -1.93754297671079320000e-001) (25, 9.59562247637061550000e-001) (26, -2.10969600874672560000e-001) (27, 1.09769989788918880000e+000) (28, -4.83609439653880810000e-001) (29, -8.04864304490617580000e-002) (30, 4.75353326969219780000e-001) (31, 7.29834505409169500000e-001) (32, 7.55752462127728540000e-002) (33, 6.64770806345370420000e-002) (34, 4.93933452395004520000e-002) (35, 5.09470351743543470000e-003) (36, 1.90557487838190650000e-001) (37, 4.72309838261154970000e-001) (0, 1.28466949574556870000e-001) (1, 5.85127148629057890000e-002) (2, 2.50923442313741200000e-001) (3, 3.67949356851916600000e-001) (4, -4.05924769882959280000e-001) (5, 2.34438608674877260000e-001) (6, 1.03963780859598280000e+000) (7, 2.01812461437267670000e-001) (8, -3.75803070956809090000e-001) (9, -3.00975431802427750000e-001) (10, 1.57023663471372800000e+000) (11, 3.90963220661946830000e-001) (12, 2.75299141792776650000e-001) (13, 2.32367098717697280000e-001) (14, 8.39149471807373320000e-001) (15, -4.52277180929634540000e-001) (16, -6.20642182440972360000e-001) (17, 4.76943040062926370000e-001) (18, 2.20130973417885120000e+000) (19, 2.14477055104271090000e-001) (20, -5.53943433739438770000e-001) (21, -4.86199246113609430000e-001) (22, 1.07269495515182680000e+000) (23, 1.04471838328514430000e+000) (24, 1.10518392421410040000e-001) (25, -3.02733078987935830000e-001) (26, 7.30079559087385750000e-001) (27, 4.27043922781794040000e-001) (28, 1.83435368324675250000e-001) (29, -5.38542709149791850000e-002) (30, 7.50424132370357430000e-001) (31, 1.05569543283709030000e-001) (32, 1.81328735680880180000e-001) (33, 7.09431019481018280000e-001) (34, 7.50924768559907420000e-001) (35, -1.69672306164243060000e-001) (36, 5.24611382908152580000e-002) (37, 2.52966477015683610000e-002) (0, 6.67904643511136040000e-002) (1, -1.27585273054212050000e-001) (2, 3.79856255092629880000e-001) (3, 6.55066964823071580000e-001) (4, 2.09778593282336360000e-001) (5, -1.37763930126370840000e-001) (6, 3.68274856924141470000e-001) (7, -2.91592579743619800000e-001) (8, 5.54888948478795110000e-001) (9, 4.56775864483244750000e-001) (10, -1.53130944650711860000e-001) (11, 1.47100192379084510000e-002) (12, 4.69351291697913810000e-002) (13, -2.36298519614278390000e-001) (14, -1.43738283427039650000e-001) (15, 1.20427635633585380000e+000) (16, 1.06062608742929540000e+000) (17, -1.01868375541265200000e-001) (18, -3.62720693411558710000e-002) (19, -3.28618281680559070000e-001) (20, 8.75355949287926820000e-001) (21, 5.60668667655328410000e-001) (22, 3.63332309915212980000e-001) (23, 5.51632551614807810000e-002) (24, 5.03438033213075990000e+000) (25, 1.50411414464928890000e+000) (26, 1.17719424279849210000e+000) (27, -6.54867614617384020000e-002) (28, 3.14780631091798490000e-001) (29, 8.34523882145419170000e-001) (30, -2.85402766557359700000e-003) (31, -6.53059260544949090000e-002) (32, 1.14537463445320560000e+000) (33, 2.86900824651655580000e-002) (34, -4.43263395097293330000e+000) (35, -3.08419394042263940000e-002) (36, 4.68184858256977860000e+000) (37, -2.07643025044585760000e-001) (0, 7.81425843516281420000e-001) (1, 4.62265525081849150000e-001) (2, -4.87266803573528990000e-002) (3, 4.03601002772175990000e-002) (4, 1.24126045978601000000e-001) (5, 1.58113001747800440000e-001) (6, 1.90856066439951840000e-001) (7, 4.77658926054950360000e-001) (8, 2.72353427651264020000e-001) (9, 2.53156893327199980000e-001) (10, 3.78390630897825150000e-001) (11, 6.55028971292756170000e-001) (12, 4.39006189992189160000e-001) (13, 5.41219044408568270000e-001) (14, 1.83056166553970560000e-001) (15, 4.31273620439965310000e-001) (16, 4.43643294068150620000e-002) (17, 5.41600734564064320000e-001) (18, 7.57772524947649130000e-001) (19, 9.81942609518349330000e-001) (20, 2.10225185201567880000e-001) (21, -6.87195057585042040000e-002) (22, 1.90879148633867690000e-002) (23, 2.79978795374547170000e-001) (24, -9.96761143955128410000e-002) (25, 9.77515074135151820000e-002) (26, -5.18517172356290560000e-002) (27, 7.51800859617028580000e-001) (28, -1.67866390255210750000e-001) (29, 4.02599631315355140000e-001) (30, 1.20045164914978310000e-001) (31, 2.42541014887260130000e-001) (32, -1.69041927643735660000e-001) (33, 6.01741214751638890000e-001) (34, 6.23123191148098890000e-001) (35, -1.03695473570136520000e-001) (36, -5.21356355602950240000e-001) (37, 3.33944001598654510000e-001) (0, 5.24475824606643460000e-002) (1, 1.62298653126796980000e-001) (2, 7.73614137194322150000e-001) (3, -1.25249836375837030000e-001) (4, -9.70805566762128900000e-002) (5, 3.54045067049807930000e-001) (6, 9.52552016167069750000e-001) (7, 4.94233190781569690000e-001) (8, 7.93147177113842360000e-002) (9, 1.07260396010282740000e-001) (10, 2.73378592547574590000e+000) (11, 2.33295979707719590000e-001) (12, -3.70146214591754790000e-001) (13, 1.56023962552987640000e-001) (14, 8.09503702456588540000e-001) (15, 8.88380585930061830000e-002) (16, -3.22348591417136010000e-001) (17, 2.02577474102244330000e-001) (18, 1.37572207747720850000e+000) (19, 3.91438466473440160000e-001) (20, -1.29264968894529820000e-001) (21, -8.05456229480113330000e-002) (22, 3.69070571078840610000e-001) (23, 3.87797116944550930000e-001) (24, 4.92298839999273710000e-001) (25, 2.19265715544095620000e-002) (26, -1.71407554543548060000e-001) (27, 3.26050745831426130000e-001) (28, 1.05370680391161880000e-001) (29, 2.70431815376002300000e-001) (30, -2.06303347697845000000e-001) (31, 9.16912989178563230000e-001) (32, 2.97738556649414900000e-001) (33, 7.64606909540253230000e-001) (34, 5.11196163921144090000e-001) (35, -1.61856250181790590000e-001) (36, 4.56925653458621460000e-001) (37, 5.17985907407574660000e-001) (0, 1.90487845979678160000e-001) (1, -1.76634417842092630000e-001) (2, 4.15663619951030740000e-001) (3, 3.40725472648739590000e-001) (4, 2.95283129516064390000e-001) (5, -1.18764009502430380000e-001) (6, 4.58475821919763440000e-001) (7, 3.01274865523910250000e-001) (8, 7.21503588567604440000e-001) (9, 9.43007164361021720000e-001) (10, -1.04088293823974310000e+000) (11, 2.09558493462212810000e-001) (12, 6.23570181721576630000e-001) (13, -2.83629812859119810000e-001) (14, -1.03585023948435580000e+000) (15, 1.34787358017391810000e+000) (16, 6.98439787535821250000e-001) (17, 2.24490648484299000000e-001) (18, -4.23650275341866610000e-001) (19, -3.41079326671424390000e-002) (20, 8.94481580625718740000e+000) (21, 6.58399187389721810000e-001) (22, -2.31340030724657670000e-001) (23, -1.32360948675796230000e-001) (24, 2.66588293070788710000e-002) (25, 5.57028012753833960000e-001) (26, -1.86565565896347570000e-001) (27, 3.38084389739365780000e-001) (28, 2.86855850861645960000e-002) (29, -4.25491316221507880000e-001) (30, 4.08337942699482150000e-001) (31, 2.48283706448752500000e-001) (32, 5.48320107469737250000e-001) (33, -1.15952604226048390000e-001) (34, -7.76254687920111820000e-002) (35, 3.60249134614868400000e-001) (36, 7.00431017250317420000e-001) (37, 9.51940566813856830000e-002) (0, 4.23325029753411460000e-001) (1, 2.17355119785868520000e-001) (2, -1.15583578818757790000e-002) (3, -8.89369119347500040000e-003) (4, 2.55913766913676340000e-001) (5, 3.84289820062292290000e-001) (6, 2.14365589590374660000e-001) (7, 2.01391404258620430000e-002) (8, -6.01290298037486130000e-001) (9, 4.32224828006993190000e-001) (10, 1.28231821250237150000e+000) (11, 5.76226694688176560000e-001) (12, 2.68467401905150530000e-004) (13, -2.29514024983596220000e-001) (14, -1.33567718915721840000e-002) (15, -3.99747889282154660000e-001) (16, -3.45365479093105610000e-001) (17, 3.20281307075062300000e-001) (18, 6.14290409606954140000e+000) (19, 3.37807728974920560000e-001) (20, -1.06296117807745810000e-001) (21, 1.19067223082302080000e-001) (22, 4.06725233675024940000e-001) (23, 3.89119342291220470000e-001) (24, 1.48219776435268620000e-001) (25, -5.26236359355186530000e-001) (26, 6.12653509998625780000e-001) (27, 4.35869507634709110000e-001) (28, -3.79309917219185330000e-001) (29, 1.54880972828937040000e-001) (30, -1.00691092185581740000e-001) (31, -7.81944191849408830000e-002) (32, 2.14257481833158570000e-001) (33, 5.15651964060111820000e-001) (34, 4.89820853163859820000e-001) (35, 1.94528835821896120000e-001) (36, 1.24562887851152410000e-001) (37, 4.62531211771620270000e-001) (38, -1.97585233358893640000e-001) (39, 7.49876545627323620000e-002) (40, 4.66125432092488130000e-001) (41, -1.14648312631098300000e-001) (42, -2.78095504101445230000e-001) (43, -1.02435749423618830000e-001) (44, -2.59573637380406400000e-001) (45, -4.16535468839246830000e-002) (46, 7.46104597817793590000e-001) (47, 4.84909443435228850000e-002) (48, -7.33266684438750450000e-002) (49, -1.79640734512593020000e-001) (50, -1.48264873502568920000e-001) (51, 6.06109485236509090000e-001) (52, 3.30950059773150060000e-001) (53, 2.33051105733210890000e-001) (54, -1.06671015584110350000e-001) (55, 5.99109092393232400000e-003) (56, 8.53828669614360850000e-002) (57, 3.36654961905809180000e-001) (58, 5.14317319376344440000e-002) (59, -2.84209051848303250000e-001) (60, 2.31704521079417800000e-001) (61, 2.83106221771262210000e-001) (62, -7.67807899165844910000e-002) (63, 2.38214469899874550000e-001) (64, 4.34834901902960810000e-001) (65, 6.61885186665391640000e-001) (66, 6.74313121903722170000e-001) (67, -3.54061754894862020000e-001) (68, 4.04809715011002050000e-001) (69, 5.83335976022117950000e-001) (38, 2.05798579382448110000e-001) (39, 8.41299414883224860000e-003) (40, -6.15557530473003210000e-001) (41, 6.85382997125321270000e-002) (42, -4.13604855134622580000e-001) (43, -3.30715179511181730000e-001) (44, -4.61518043987340640000e-001) (45, -1.16147383993178990000e-001) (46, 3.97006166478159840000e-001) (47, -6.52346735066994430000e-003) (48, 7.65102066232927090000e-001) (49, 5.86653960958924640000e-001) (50, 3.59301827291480860000e-001) (51, 1.96859914652054540000e-002) (52, 8.79340754998871210000e-001) (53, 6.60262705260230980000e-002) (54, 7.19308639297661870000e-001) (55, -4.92028413495167960000e-001) (56, 1.04526711370885650000e-001) (57, 1.92625341683034970000e-001) (58, 1.77228830475597120000e-001) (59, 8.75395322995253800000e-001) (60, -3.35301949455095280000e-001) (61, 8.04294574158893380000e-001) (62, 8.22285817746305160000e-001) (63, -4.74045738911354760000e-001) (64, 3.42240551136561040000e-001) (65, 7.44722077871411760000e-001) (66, -4.25871294880995480000e-002) (67, 3.28890006894829610000e-001) (68, -2.96835523323352720000e-001) (69, 7.18873688814365750000e-001) (38, 5.34434258413026050000e-001) (39, -1.23996191625698570000e-001) (40, 3.57507009512189280000e-001) (41, 1.58446304140152570000e-001) (42, 1.03348892211380280000e+000) (43, 3.39671311001304930000e-001) (44, 9.27397288812769730000e-001) (45, -2.97676793801694760000e-001) (46, -1.58086385974708170000e-001) (47, -1.74172757629578560000e-002) (48, 4.43010474111586520000e-002) (49, 2.99411713169159770000e-001) (50, 4.72385322984335890000e-001) (51, 5.07941716352572350000e-001) (52, 5.92268069286926230000e-002) (53, 1.00730512313022720000e+000) (54, 3.21145897617618820000e-002) (55, 4.16581297376296290000e-001) (56, 2.99876703351939220000e-001) (57, 6.05777951076456820000e-001) (58, 3.41272307379400230000e-001) (59, -6.17628162383542030000e-002) (60, -2.67802217150116150000e-001) (61, 3.11183676643434530000e-002) (62, 7.08892791715885930000e-001) (63, 3.16024934598376490000e-001) (64, 2.85785346772886130000e-002) (65, 6.87367698347600030000e-001) (66, 6.97158926174791690000e-001) (67, 7.62237761119362700000e-001) (68, 9.80724808687057140000e-001) (69, 6.73201808105190480000e-001) 
