FANN_FLO_2.1
num_layers=3
learning_rate=0.700000
connection_rate=1.000000
network_type=0
learning_momentum=0.000000
training_algorithm=2
train_error_function=1
train_stop_function=0
cascade_output_change_fraction=0.010000
quickprop_decay=-0.000100
quickprop_mu=1.750000
rprop_increase_factor=1.200000
rprop_decrease_factor=0.500000
rprop_delta_min=0.000000
rprop_delta_max=50.000000
rprop_delta_zero=0.100000
cascade_output_stagnation_epochs=12
cascade_candidate_change_fraction=0.010000
cascade_candidate_stagnation_epochs=12
cascade_max_out_epochs=150
cascade_max_cand_epochs=150
cascade_num_candidate_groups=2
bit_fail_limit=3.49999999999999980000e-001
cascade_candidate_limit=1.00000000000000000000e+003
cascade_weight_multiplier=4.00000000000000020000e-001
cascade_activation_functions_count=10
cascade_activation_functions=3 5 7 8 10 11 14 15 16 17 
cascade_activation_steepnesses_count=4
cascade_activation_steepnesses=2.50000000000000000000e-001 5.00000000000000000000e-001 7.50000000000000000000e-001 1.00000000000000000000e+000 
layer_sizes=38 39 4 
scale_included=0
neurons (num_inputs, activation_function, activation_steepness)=(0, 0, 0.00000000000000000000e+000) (0, 0, 0.00000000000000000000e+000) (0, 0, 0.00000000000000000000e+000) (0, 0, 0.00000000000000000000e+000) (0, 0, 0.00000000000000000000e+000) (0, 0, 0.00000000000000000000e+000) (0, 0, 0.00000000000000000000e+000) (0, 0, 0.00000000000000000000e+000) (0, 0, 0.00000000000000000000e+000) (0, 0, 0.00000000000000000000e+000) (0, 0, 0.00000000000000000000e+000) (0, 0, 0.00000000000000000000e+000) (0, 0, 0.00000000000000000000e+000) (0, 0, 0.00000000000000000000e+000) (0, 0, 0.00000000000000000000e+000) (0, 0, 0.00000000000000000000e+000) (0, 0, 0.00000000000000000000e+000) (0, 0, 0.00000000000000000000e+000) (0, 0, 0.00000000000000000000e+000) (0, 0, 0.00000000000000000000e+000) (0, 0, 0.00000000000000000000e+000) (0, 0, 0.00000000000000000000e+000) (0, 0, 0.00000000000000000000e+000) (0, 0, 0.00000000000000000000e+000) (0, 0, 0.00000000000000000000e+000) (0, 0, 0.00000000000000000000e+000) (0, 0, 0.00000000000000000000e+000) (0, 0, 0.00000000000000000000e+000) (0, 0, 0.00000000000000000000e+000) (0, 0, 0.00000000000000000000e+000) (0, 0, 0.00000000000000000000e+000) (0, 0, 0.00000000000000000000e+000) (0, 0, 0.00000000000000000000e+000) (0, 0, 0.00000000000000000000e+000) (0, 0, 0.00000000000000000000e+000) (0, 0, 0.00000000000000000000e+000) (0, 0, 0.00000000000000000000e+000) (0, 0, 0.00000000000000000000e+000) (38, 5, 5.00000000000000000000e-001) (38, 5, 5.00000000000000000000e-001) (38, 5, 5.00000000000000000000e-001) (38, 5, 5.00000000000000000000e-001) (38, 5, 5.00000000000000000000e-001) (38, 5, 5.00000000000000000000e-001) (38, 5, 5.00000000000000000000e-001) (38, 5, 5.00000000000000000000e-001) (38, 5, 5.00000000000000000000e-001) (38, 5, 5.00000000000000000000e-001) (38, 5, 5.00000000000000000000e-001) (38, 5, 5.00000000000000000000e-001) (38, 5, 5.00000000000000000000e-001) (38, 5, 5.00000000000000000000e-001) (38, 5, 5.00000000000000000000e-001) (38, 5, 5.00000000000000000000e-001) (38, 5, 5.00000000000000000000e-001) (38, 5, 5.00000000000000000000e-001) (38, 5, 5.00000000000000000000e-001) (38, 5, 5.00000000000000000000e-001) (38, 5, 5.00000000000000000000e-001) (38, 5, 5.00000000000000000000e-001) (38, 5, 5.00000000000000000000e-001) (38, 5, 5.00000000000000000000e-001) (38, 5, 5.00000000000000000000e-001) (38, 5, 5.00000000000000000000e-001) (38, 5, 5.00000000000000000000e-001) (38, 5, 5.00000000000000000000e-001) (38, 5, 5.00000000000000000000e-001) (38, 5, 5.00000000000000000000e-001) (38, 5, 5.00000000000000000000e-001) (38, 5, 5.00000000000000000000e-001) (38, 5, 5.00000000000000000000e-001) (38, 5, 5.00000000000000000000e-001) (38, 5, 5.00000000000000000000e-001) (38, 5, 5.00000000000000000000e-001) (38, 5, 5.00000000000000000000e-001) (38, 5, 5.00000000000000000000e-001) (0, 5, 0.00000000000000000000e+000) (39, 5, 5.00000000000000000000e-001) (39, 5, 5.00000000000000000000e-001) (39, 5, 5.00000000000000000000e-001) (0, 5, 0.00000000000000000000e+000) 
connections (connected_to_neuron, weight)=(0, -7.11513893185894820000e+000) (1, 4.63181018293164490000e-001) (2, 2.25019476836620710000e+000) (3, 2.30838635620397360000e-001) (4, -1.30083297040383510000e+001) (5, -1.00600028052528050000e-001) (6, 9.86526017048513840000e-001) (7, 1.47109070078648960000e-001) (8, -1.66129798576461060000e+001) (9, 3.22104964767607800000e-001) (10, 2.36373476758052980000e+000) (11, 6.73106606719162670000e-002) (12, -1.61442560021599730000e-001) (13, 1.00995667917545840000e+000) (14, -4.00662286117239520000e-002) (15, -1.05325350579681640000e-002) (16, 4.09246337477054910000e-001) (17, -3.48882770401780450000e-001) (18, 1.25142089828517110000e+001) (19, -2.34329281009864280000e-001) (20, -1.96463794507354850000e+000) (21, 2.13583358163009680000e+000) (22, 2.73853985485141660000e+000) (23, 7.56754753179457060000e-001) (24, 1.12286141331309520000e+000) (25, 1.31965344418916670000e+000) (26, 3.64727198935698490000e-001) (27, -4.94769587093382560000e-002) (28, -2.54091272211781140000e+000) (29, 1.21321645302216050000e+000) (30, -1.26021390420821300000e+000) (31, 1.28687868499604670000e-002) (32, -1.79478410916840200000e+000) (33, -4.46242643700480280000e-001) (34, 7.54973508535763950000e-001) (35, -5.09738361582281700000e-001) (36, -2.29388393673766360000e+000) (37, 6.69164602190453150000e-001) (0, -4.92519157517029530000e+000) (1, 8.55368670921174970000e-001) (2, -2.40956578989701600000e-001) (3, 1.30096357603638730000e+000) (4, -8.19825665128098000000e+000) (5, 2.12061214762652070000e+000) (6, 6.90021753205270190000e+000) (7, 1.59800619955795220000e+000) (8, -1.17325978055135100000e+001) (9, 5.74638429604550140000e-001) (10, 1.50677399669279600000e+000) (11, 2.24531924373428640000e+000) (12, -7.63687035810902250000e+000) (13, 6.98473899288414410000e-001) (14, -5.89557150106990610000e-001) (15, 1.59787793899711090000e+000) (16, -5.53097103867440150000e+000) (17, 1.18486036839000120000e+000) (18, 2.15692851489603440000e+000) (19, 2.28222911657793540000e-001) (20, -3.31146867414593290000e+000) (21, 5.33071957260773280000e-001) (22, -6.66487887327360350000e+000) (23, -4.24166047350905520000e-001) (24, 4.31559373842389520000e+000) (25, 1.69387580073284540000e+000) (26, -7.76654031625681980000e+000) (27, -4.44196868310914250000e-002) (28, -1.87251683066617790000e+000) (29, 1.46118852281284430000e+000) (30, -8.56476497769916280000e+000) (31, 6.96733274376506120000e-001) (32, -7.34631184935697680000e+000) (33, 1.26917169933265780000e+000) (34, -2.65400957934061840000e+000) (35, 1.12349179712919070000e+000) (36, 1.55290418630561430000e+001) (37, 3.69955986832847810000e-001) (0, 7.95533789772707590000e+000) (1, 1.42172183814088320000e+000) (2, 4.88740935551752730000e+000) (3, 1.95514846301826210000e+000) (4, 3.63122096760741010000e+000) (5, 8.75371507410917070000e-001) (6, 7.05315856399097820000e+000) (7, 6.64610366195101830000e-001) (8, -2.74252634430044440000e-001) (9, 5.48640894472874010000e-001) (10, -7.08819970805254760000e+000) (11, -3.14337208890551000000e-001) (12, -3.57986627924042230000e+000) (13, 1.74066653567637090000e+000) (14, 7.81028333013411570000e-001) (15, 5.34418268922114970000e-001) (16, 4.73732475321899130000e+000) (17, 4.85043536810573610000e-001) (18, 6.31423060844969690000e-001) (19, 2.08596565136717980000e-001) (20, 9.88951820400834850000e-001) (21, 3.02630882210458330000e+000) (22, 3.43923395665479250000e+000) (23, 3.88326040916012750000e-001) (24, 6.42815306007324770000e+000) (25, 8.51476782905996270000e-001) (26, -8.43049297208755450000e+000) (27, 6.22141358017873290000e-001) (28, 2.09441839005168660000e+000) (29, 8.93186539252247670000e-001) (30, -1.30168915942784510000e-001) (31, 2.07933310208713570000e+000) (32, 3.46087991159817310000e-001) (33, 2.17455807668074690000e+000) (34, -7.87193823247376190000e-001) (35, -1.58607361844737630000e+000) (36, 5.18437239855898070000e-001) (37, 6.00166182250615470000e-001) (0, 8.75511736802405950000e+000) (1, -1.24479436441903300000e-001) (2, 1.48086499710666650000e+000) (3, 1.90469096852102490000e+000) (4, 3.30031023474223280000e+001) (5, 1.64613323797400430000e+000) (6, 7.58991321483155450000e+000) (7, -1.51019606226435780000e+000) (8, -3.55527034768159280000e+001) (9, 4.11931029292224390000e-003) (10, -1.05700564207070670000e+001) (11, 1.49480399651540450000e+000) (12, -7.87804475199642250000e+000) (13, 1.26623736202189830000e+000) (14, -8.58085644456668680000e-002) (15, 7.31281203149337090000e-001) (16, 3.36712810675020970000e+000) (17, -7.72343892660446560000e-001) (18, 1.30895332457737350000e+000) (19, 7.72276603340090300000e-001) (20, -2.91050710651064260000e+001) (21, 3.90059995866994940000e+000) (22, 2.76495041962764620000e+000) (23, -4.24373903716909470000e-002) (24, 2.07052393824522610000e+000) (25, 1.35097545702303390000e+000) (26, 9.44474966346416340000e+000) (27, 3.86091211342536270000e-001) (28, 5.53671644298855630000e+000) (29, 4.72431225788283670000e-001) (30, 1.79984689072943200000e+001) (31, 6.71027028821092000000e-001) (32, -8.03055404011339460000e-001) (33, 3.17107969538159340000e-001) (34, 1.16375516531995720000e+000) (35, 6.82453055448966950000e+000) (36, 2.47860245007985290000e+001) (37, 6.48607480593624160000e-001) (0, 3.35961747382456220000e+001) (1, -6.55021420770920960000e-001) (2, 1.47300889783853490000e+000) (3, -2.72998272187713550000e-001) (4, 2.40043670249551370000e+001) (5, 3.41586574764770170000e-001) (6, -1.28905221438228270000e+000) (7, 1.24566829696427410000e+000) (8, -3.71218560242761700000e+000) (9, 4.97615896488743990000e-001) (10, 4.27978474002781620000e+000) (11, 2.29587350822788170000e-001) (12, 9.91281188861206890000e+000) (13, 4.58373146093540560000e+000) (14, -5.17436825408360330000e+000) (15, 1.18109979105846130000e+000) (16, -1.31134825473082330000e-001) (17, 2.49476146223521520000e-001) (18, -1.33775274156998640000e+000) (19, 4.60604992954626660000e-002) (20, 1.69371343542815510000e+000) (21, 1.45862568071722400000e+000) (22, -3.21785767262302300000e+000) (23, 3.59928235475705850000e+000) (24, 5.71224275445549790000e+000) (25, 7.42628721140727420000e-001) (26, 1.83886181273521590000e+000) (27, 4.01451350519294310000e-001) (28, 9.53009391347791990000e+000) (29, 3.27987662949015160000e-001) (30, -7.46882308422604170000e+000) (31, -5.87098302105980820000e-003) (32, 2.40276603182764690000e+000) (33, 4.58309683100571630000e-001) (34, 1.05176938480116640000e+000) (35, 6.57296768017782470000e-001) (36, -4.45246934358794210000e+001) (37, 1.99197295485475350000e-001) (0, -3.40181914466590020000e-001) (1, 8.10157978470073870000e-001) (2, -1.08283424712853670000e+001) (3, 1.51661875037969380000e-001) (4, -9.60769405451991190000e-001) (5, 1.34666723044796190000e+000) (6, -3.49832778910741100000e-001) (7, 6.28086764065758640000e-002) (8, -3.13481129654045270000e+000) (9, 1.06161221605111610000e+000) (10, -7.89662690646937810000e+000) (11, 5.92672172205812700000e-001) (12, 1.13101106442447090000e+000) (13, 2.86680461934924470000e-001) (14, -5.07511628432913840000e+000) (15, 7.40277342710207180000e-001) (16, 1.37355280110417730000e+000) (17, 7.02332186896018950000e-001) (18, 5.83957162947353230000e-001) (19, 1.17999754530978280000e+000) (20, 1.46657471466868980000e+000) (21, 1.43652996961800980000e-001) (22, 3.68425113008442940000e-001) (23, 9.56370741656120900000e-001) (24, -3.73224503088564630000e+000) (25, -1.47621068697886770000e-001) (26, -2.78038362389254750000e+000) (27, 9.89335347986227020000e-001) (28, 4.67784066320381000000e-001) (29, 3.38118078478281130000e-001) (30, 9.23390467303378700000e-001) (31, 6.25915088458773440000e-002) (32, 3.22616568745454630000e-001) (33, 1.08782568676344490000e-001) (34, 3.70389731922563880000e+000) (35, 1.52463557620998720000e+000) (36, -1.69307060758561650000e+001) (37, 2.56141216130273190000e-001) (0, 1.42951438185052060000e+001) (1, 1.69180629075477930000e-001) (2, -3.85442107696285670000e-001) (3, 5.80131825933290160000e-001) (4, -8.00215131070784120000e+000) (5, 4.07207083583130680000e-001) (6, 1.09229781843655700000e+000) (7, 4.86184136359930740000e-001) (8, -3.18615381810406450000e+000) (9, 1.90775419258118070000e+000) (10, -6.33603268185310320000e+000) (11, -6.75922374953043940000e-002) (12, -1.84876576976856160000e+000) (13, 4.46491292702925590000e-001) (14, -2.49304743622347580000e+000) (15, 1.95383394248216850000e-001) (16, 2.20277316616999830000e+000) (17, 9.89989558024276910000e-001) (18, 6.10858463459688640000e-001) (19, -4.72855560270924070000e-001) (20, 5.08307243110060590000e-001) (21, 3.15249374454357410000e-001) (22, -8.16145027318154170000e+000) (23, 3.12336525000267290000e-002) (24, 1.06933783348775880000e+000) (25, 3.48059394324084670000e-001) (26, 8.39805905665976900000e-001) (27, 1.93726761278442570000e-001) (28, 1.09614459943458580000e+000) (29, 5.43389822987170200000e-001) (30, 3.91254007345622680000e+000) (31, 6.34802988702591220000e-001) (32, 1.89090592687566610000e+000) (33, 5.79333218615533440000e-001) (34, -2.94074249470594880000e+000) (35, 4.39222127416028340000e-001) (36, -1.86320607429589560000e+000) (37, 3.85319922547143090000e-001) (0, 1.53532377657298900000e+000) (1, -1.26022250867461680000e+000) (2, -9.10364116513139980000e-001) (3, 9.46598663929086310000e-001) (4, 2.27664129077555620000e+000) (5, -2.74500840550503500000e-001) (6, -2.16917599519023430000e+000) (7, 7.86597186667379770000e-001) (8, 4.39336560505386940000e-001) (9, -1.22267067772877780000e-001) (10, -8.89310185869207760000e-002) (11, -2.71464533778420230000e-001) (12, 6.62650775207105000000e+000) (13, -4.10258365757869350000e-002) (14, 2.82131710896161600000e-002) (15, 7.20201887369513180000e-001) (16, 1.09182294048124560000e+000) (17, 2.89854115517548940000e-002) (18, 4.55989545713879000000e+000) (19, 1.30065717084989350000e-001) (20, -1.74013538510909140000e+001) (21, 2.42731976654218550000e+000) (22, 7.73437840347675290000e+000) (23, -3.08745702774330440000e-001) (24, 1.18401877755948990000e+000) (25, 2.99011015257958700000e-001) (26, 4.79267395850201350000e+000) (27, 2.21745578808341810000e-001) (28, -6.94308054123382230000e+000) (29, -1.20837850578824080000e-001) (30, 1.44047843595133320000e+000) (31, -5.59199991195826970000e-001) (32, 6.20354720311933730000e-001) (33, 1.15799745003708040000e+000) (34, 4.06736119335665890000e-001) (35, -1.31403048269272230000e+000) (36, 5.29050477303948720000e-001) (37, 8.59929561510718870000e-001) (0, 1.78582701755270680000e+001) (1, 8.02620998923109670000e+000) (2, 3.62856392900456630000e-001) (3, -8.60023319146566050000e-001) (4, 3.22496205377523640000e+001) (5, 7.93039475144508120000e-001) (6, 4.00045280305157070000e-001) (7, 9.66009012673462730000e-001) (8, 3.16396136824463100000e-001) (9, 1.42069439374540280000e-001) (10, 9.36985283396279730000e+000) (11, 2.04538608291864990000e+000) (12, 9.40291642041088770000e+000) (13, -4.87202620714648370000e-001) (14, 1.41373952150457470000e+000) (15, 2.03812485307513750000e+000) (16, 8.69584311098206280000e-002) (17, -1.46767764372397380000e+000) (18, 3.56340682330904230000e+000) (19, 9.52509774246789400000e-001) (20, -3.07708879125103610000e+001) (21, 2.00375803706730470000e+000) (22, -6.35111575075786930000e+000) (23, -1.42727564549599230000e+000) (24, -7.20302537162431240000e+001) (25, 1.26637827813460960000e+000) (26, 1.01793781328980510000e+000) (27, 4.95930801982042870000e-001) (28, -1.02539922595081530000e+000) (29, 3.27877097469315700000e-001) (30, -6.54256896408721470000e+000) (31, 8.35420629154255520000e-001) (32, 1.03827657465486250000e+001) (33, -8.91080417914379840000e-002) (34, 1.84602722434634430000e+001) (35, 1.31304574011517520000e+001) (36, -1.11988158138381150000e+001) (37, 4.40367772698537050000e-001) (0, 1.84415570896988880000e+000) (1, 1.71905845832306700000e-002) (2, -9.31739031865303910000e-002) (3, -5.20878723821765480000e-002) (4, 5.60681636629390970000e-001) (5, 3.06022975168878940000e-001) (6, 1.31605400024820600000e+000) (7, 9.35317058217736970000e-002) (8, -2.79528589783596740000e-001) (9, -4.32515071245456680000e-001) (10, 3.49915374664243490000e-001) (11, -4.97035925678013870000e-002) (12, -6.32725587958513190000e-001) (13, 8.54205900772876810000e-002) (14, 1.37571352108541540000e-001) (15, 9.50443218049014800000e-002) (16, 2.40172495246931740000e+000) (17, -2.21353003922834880000e-001) (18, 2.01660571737676710000e+000) (19, 4.73222881072790480000e-001) (20, 1.25440311442272010000e+000) (21, 2.14048559290452910000e-001) (22, 8.81406484953225380000e-001) (23, -1.68242514379112450000e-001) (24, -3.18504180562423630000e-002) (25, -3.40159434028493800000e-001) (26, 3.50886284657662420000e-001) (27, -1.74453779279535180000e-001) (28, -3.90877567724140010000e-001) (29, -6.87379427371499070000e-003) (30, 9.87764378180180810000e-001) (31, -2.96489140571253140000e-001) (32, 8.71201685203805140000e-001) (33, 1.28519943132645430000e-002) (34, -1.61360598270520850000e+000) (35, -3.86446409785657530000e-001) (36, 1.62558073754292590000e+000) (37, -3.14622348170975900000e-001) (0, 4.85133434466800310000e+000) (1, 1.81326454499382060000e-001) (2, -2.64866843235268630000e+000) (3, 7.48715842423459680000e-001) (4, 4.75278304255910560000e+000) (5, -1.56681441607426280000e-001) (6, 3.45465252504011790000e+000) (7, 1.17976961785014410000e-002) (8, 2.75416923992278630000e-001) (9, 4.59648157575025030000e-001) (10, -4.60806774436660490000e+000) (11, -1.62283172580044960000e-001) (12, 2.36829690310616980000e+000) (13, -3.74782040704347220000e-002) (14, -5.24245450934452960000e+000) (15, 7.56792023504074370000e-001) (16, 2.25656342984233980000e+000) (17, 1.22648178779924750000e-001) (18, -1.38524530906493280000e+000) (19, 1.12602102497799030000e-001) (20, 1.29667656812385280000e+000) (21, -8.40097374805255150000e-001) (22, 2.37335389789482150000e-001) (23, 3.17443944287644840000e-002) (24, -5.34990691816559560000e-001) (25, 8.16371821661120210000e-001) (26, -8.47722840673821410000e-003) (27, -1.67963165522888340000e-001) (28, 4.46999999181373740000e+000) (29, -4.02500828078828480000e-001) (30, 9.09394356356521990000e-001) (31, 5.55000924338812720000e-002) (32, 2.88844924557731010000e+000) (33, -4.72253806542517530000e-001) (34, 8.08864932946969230000e-002) (35, 1.99329156669287940000e-001) (36, 4.37473580532093200000e+000) (37, 9.77568387663061530000e-001) (0, 3.32045224058807880000e+001) (1, 7.33312866485362050000e+000) (2, 5.85472601665096360000e+000) (3, 3.79040531337449970000e-001) (4, 4.37750940142687030000e+000) (5, 8.77709358949436000000e-002) (6, 4.13446213300262500000e+000) (7, 1.07432207747026950000e+000) (8, -2.20035726990642820000e+000) (9, 3.72963010526011430000e-002) (10, 2.54977973619959950000e+000) (11, 1.09460788062790760000e+000) (12, -5.86598828569744680000e+000) (13, 1.24504699052852860000e+000) (14, 8.85102115507037370000e+000) (15, 1.02361558829941510000e+000) (16, -1.10160287610071710000e+000) (17, -1.27771905066223380000e-001) (18, -4.89710767324692850000e+000) (19, 2.46492813065654200000e+000) (20, -9.73946238024066660000e-001) (21, 9.33780343245575020000e-001) (22, 1.08849611614543720000e+000) (23, -5.10211669544737510000e-001) (24, -2.74224810865051300000e+000) (25, 1.06838604576336030000e+000) (26, 1.98668466628740430000e+000) (27, 1.02303162010863380000e+000) (28, 3.40013287964661130000e+000) (29, 2.64257161594921240000e-001) (30, -1.19539598338412730000e+001) (31, 5.25150491105296440000e-001) (32, 5.75394641529810260000e+000) (33, 9.64458015325099890000e-001) (34, 1.17537725213902220000e+000) (35, 9.24036104370684290000e-001) (36, -1.13776708656699710000e+001) (37, 9.55985401212061770000e-001) (0, 4.28746655783222350000e-001) (1, -6.79340797842218010000e-001) (2, 1.41133040019173040000e+000) (3, -2.83048468956931250000e-001) (4, -2.99487898808916130000e-001) (5, -2.75357230176235150000e-001) (6, -6.50950455245228280000e+000) (7, 4.57086713148006580000e-001) (8, 5.74130575576320010000e+000) (9, 2.91094585500806870000e+000) (10, -3.37963599078996340000e+000) (11, 4.48426533049583020000e-001) (12, 3.46352559557026880000e+000) (13, 2.78220245356841380000e+000) (14, -2.07015976732465660000e+000) (15, 4.26391890298132180000e-001) (16, 4.58966054590449170000e+000) (17, 5.10183485476028990000e-001) (18, 5.32912342080291480000e-001) (19, 2.66411268284244420000e+000) (20, -1.66560344656845020000e+000) (21, 1.15703725283297070000e+000) (22, 3.90270317499534780000e+000) (23, 9.43736754628415890000e-001) (24, 5.14394960938543530000e-001) (25, -2.02355674091235870000e-001) (26, 4.52112474897217710000e+000) (27, -2.22763942956032220000e-001) (28, -7.73084285326928720000e+000) (29, 7.77080735544665610000e-001) (30, 1.88030586474529990000e+000) (31, 6.25873167469388150000e-001) (32, -2.73901934523167070000e+000) (33, 7.78164352176165200000e-001) (34, 2.01547182958862690000e+000) (35, 7.13158531141642740000e-001) (36, 1.18897939881086520000e+001) (37, 9.89258319685348970000e-002) (0, -4.41186008093813860000e-001) (1, 2.11499228128932240000e-001) (2, 2.90583992691438140000e-002) (3, 4.49189930155795170000e-001) (4, -1.33360842130928640000e-001) (5, -1.71426320115005970000e-001) (6, 1.37555253306668560000e+000) (7, 3.51759946763414160000e-002) (8, 4.06142909912604200000e+000) (9, -1.37144586103832290000e-001) (10, 8.23143196370406670000e-001) (11, -3.20262086255862440000e-001) (12, 3.28988694360406120000e-001) (13, -1.19733937719023640000e-001) (14, 5.80335853463502140000e-001) (15, 3.94344144071850760000e-001) (16, 8.26734663615549480000e-001) (17, 1.29401822795212900000e-001) (18, 1.74635744706943920000e+000) (19, -1.75165260419253230000e-001) (20, 2.61961610517868460000e+000) (21, -2.96781597447618620000e-001) (22, 1.81698411389058910000e+000) (23, -4.01877362878542310000e-001) (24, -3.34073120961270840000e+000) (25, -2.00701533880103120000e-001) (26, 4.20727307419630660000e-001) (27, 1.89859684197400900000e-001) (28, 3.41965096929602030000e-001) (29, 8.94729770079012720000e-002) (30, 2.04468629227728590000e+000) (31, 4.89725161393250450000e-001) (32, 7.07777331388465330000e-001) (33, 4.37521776009482720000e-001) (34, 1.89881192335379280000e-001) (35, 6.78043835949326160000e-001) (36, 3.95024977255040710000e+000) (37, 5.43845965809962030000e-002) (0, 1.01748357539442400000e+001) (1, 1.28711000050705440000e+000) (2, -4.42044732081869450000e+000) (3, -7.53376409269295610000e-001) (4, 1.23705479681136890000e+001) (5, -7.97679046557098200000e-002) (6, 1.42690171244954610000e+001) (7, 1.38868826396203990000e+000) (8, 2.00075444408950130000e+000) (9, -4.08692120184424130000e-001) (10, 3.11152821499323280000e+000) (11, -1.85535032368722960000e-001) (12, 1.51273167175197630000e+001) (13, 2.36294331050624700000e+000) (14, -1.73731401716618760000e+000) (15, 5.62046787568563850000e-001) (16, -5.08321610288737100000e-002) (17, 7.81886714769697620000e-001) (18, -2.40855339385263670000e+000) (19, 1.37477641706268880000e+000) (20, -5.51003043022170630000e-003) (21, 7.61070737093919480000e-001) (22, -1.15187539447788480000e+000) (23, 4.80385318363469520000e-002) (24, 2.42057632857075160000e+000) (25, 5.11122504686889130000e-001) (26, 6.30751267509674360000e-001) (27, 1.66526926571953310000e-001) (28, 1.15649544659763540000e+000) (29, 5.76415476020148860000e-001) (30, -1.12107076842306160000e+001) (31, 2.37391088893803860000e-001) (32, 1.55633954016568370000e+000) (33, 7.13143316839029540000e-001) (34, -2.28332975834484500000e-001) (35, 6.64335044714408960000e-001) (36, 3.89282021102521590000e+000) (37, 1.15372080629658490000e+000) (0, 1.89864054950158840000e+001) (1, 1.34880319765406580000e+000) (2, 1.17266972803356890000e+001) (3, 8.14309961051450510000e-002) (4, 1.87133474319796570000e+000) (5, 6.52007109630918440000e+000) (6, 3.99908194841217620000e+000) (7, -8.58963378502668570000e-001) (8, -1.15209248860612770000e+001) (9, -1.52638977427631800000e-001) (10, 3.70085136515236220000e+000) (11, 2.56561308113700410000e+000) (12, 2.78872738129670590000e+000) (13, 7.00055311513995470000e-001) (14, -1.02043170197453800000e+001) (15, -4.74539237900523550000e-001) (16, 8.11046885589849390000e-001) (17, 4.10168623803723490000e-001) (18, 1.71997234738389970000e+000) (19, 9.01946015144525330000e-001) (20, 2.46815443816238660000e+001) (21, 2.14608343623389560000e+000) (22, 3.61306525278379010000e+000) (23, 1.01394406124638240000e+000) (24, 3.98700016495193930000e-001) (25, 1.32226136482101490000e+000) (26, -1.45512708172724550000e+001) (27, 2.37122860527916060000e-001) (28, 2.66406495671063470000e-002) (29, 6.93925659845060720000e-001) (30, 1.24348002379926010000e-001) (31, -3.42336644028460800000e-002) (32, -1.70649682343655690000e+001) (33, -3.78200388426778500000e-001) (34, -3.87527774406618290000e-001) (35, 1.61440917264224910000e+000) (36, 4.51724307868206940000e+000) (37, 1.58837064121827580000e-001) (0, 6.55157795701668320000e-001) (1, -4.00249346349794920000e-001) (2, 7.50070087043670600000e+000) (3, -4.84846020912037770000e-001) (4, 8.09842670064127250000e-001) (5, -5.79749417029768790000e-001) (6, -1.47329627892820340000e+000) (7, 8.38178610786261550000e-001) (8, -9.50615788471907860000e-001) (9, -1.63276318112965610000e+000) (10, -3.40468629458456070000e-001) (11, 1.69121252814096690000e+000) (12, 1.22713402607464110000e+001) (13, 8.97387125237028680000e-001) (14, -3.77119344001668550000e+000) (15, -4.69365799706592470000e-002) (16, -1.04730758593710970000e+000) (17, -1.25923903637589230000e+000) (18, 6.27901770309619240000e+000) (19, 4.28371695658069260000e-001) (20, -1.77855108060074900000e+001) (21, 1.33632982220208650000e+000) (22, 2.77123431258941390000e-002) (23, -4.95382608398032280000e-002) (24, -6.85908141343207100000e-001) (25, 9.26089260883673080000e-002) (26, 2.22351298479225480000e+000) (27, 1.61268603942983480000e+000) (28, 8.30279318546356750000e+000) (29, -1.73423709900786020000e+000) (30, -2.97707281916336570000e+000) (31, 6.89863601148920980000e-001) (32, 7.61114897452778490000e-001) (33, 1.28368716898993900000e-001) (34, 9.21736465219147410000e+000) (35, 1.94671294241096330000e+000) (36, -1.74873400355849210000e+001) (37, 4.91429197719395970000e-001) (0, -7.04218865903257110000e+000) (1, -3.24915196721829060000e-001) (2, 6.77413246258181000000e+000) (3, 4.29907127430538690000e+000) (4, 1.89484008216975110000e+001) (5, -1.14542276533192240000e+000) (6, -8.18907711254668950000e+000) (7, -4.49580783443852830000e-001) (8, -1.17015158408186510000e-001) (9, 2.52539843540249940000e-001) (10, -3.34613656604981150000e+000) (11, 7.51657093435189270000e-001) (12, 3.71989233238981540000e+000) (13, 4.51174918842658700000e-001) (14, -2.90218516375803710000e+000) (15, 7.14014695414082250000e-001) (16, 1.50215677549829810000e+000) (17, -3.42217600525233020000e-002) (18, 3.73492036733494400000e+000) (19, -8.87373852784079650000e-002) (20, 9.20413242313369300000e-001) (21, 1.50881644549022400000e+000) (22, -1.15221239043545030000e+001) (23, 3.17875890800988830000e-001) (24, 8.77179700231816680000e-001) (25, -2.17454202754397440000e+000) (26, -3.92223671844773360000e+000) (27, 1.16631156551530560000e+000) (28, 9.42208176565689560000e-001) (29, 6.49812550644928710000e-001) (30, -3.74497407998189980000e+000) (31, 9.96550634438531090000e-002) (32, 1.11449643843580690000e+000) (33, -2.65611457233390640000e-001) (34, 2.37447350789325500000e-001) (35, -1.16699199097982630000e+000) (36, -1.27609988072579060000e+001) (37, -1.33196120814592800000e+000) (0, 3.98278948636918430000e-001) (1, 1.03821447097996650000e-001) (2, 5.20969227093684580000e+000) (3, 5.18328762553378670000e-001) (4, 6.52210244645718970000e-001) (5, 5.61866368499455150000e-001) (6, 2.17742934899975320000e+000) (7, 8.59237426717460730000e-001) (8, -9.98679193445408400000e-002) (9, 1.05229268284486550000e-001) (10, 3.95722041670839440000e+000) (11, 5.29401647781579420000e-003) (12, 7.91061546339365500000e+000) (13, 2.10100712049663050000e-001) (14, 2.57346487876059890000e+000) (15, -1.27093461143867950000e+000) (16, -1.33361310532730390000e+001) (17, 1.98666009037437470000e+000) (18, 1.92890058345132620000e+000) (19, 4.08851628668477520000e-001) (20, 3.40010254571771590000e+000) (21, -7.56044536210729870000e-001) (22, -1.36419348337514350000e+000) (23, 2.56473609544414730000e-001) (24, 8.00142708606884770000e+000) (25, -1.81724494837685410000e-001) (26, 2.22771354095539960000e+000) (27, -1.46464018886952350000e-001) (28, -3.16099454047275910000e+000) (29, 1.90254418686045580000e+000) (30, -1.09493794954886250000e+000) (31, 3.50010250249382040000e-001) (32, 1.89576157019141790000e+000) (33, -4.80174007943014870000e-002) (34, 3.90156312261117090000e+000) (35, 1.42443718906380660000e-001) (36, 2.30067479623983790000e+001) (37, -3.07411975996726870000e-001) (0, -1.58100384283668150000e+000) (1, -2.83872732876937140000e-002) (2, 4.43516202250504030000e-001) (3, -3.67660720771908210000e+000) (4, -1.39983168680266100000e+001) (5, -4.67874302865902760000e-001) (6, 1.12637162848579340000e+000) (7, 7.15707710760396520000e-001) (8, -1.47883763990886050000e+000) (9, -1.03601382642852040000e-001) (10, 5.84732020802832060000e+000) (11, 7.39235849830322530000e-001) (12, 3.93069411254626380000e+000) (13, 1.07054560662910440000e+000) (14, -1.02485867209324080000e+001) (15, -1.30312119968737990000e+000) (16, 1.11489843943366760000e+001) (17, -6.91325535358364160000e-001) (18, -1.38780227728990620000e-001) (19, 5.63576379177107120000e-001) (20, 6.96256265931835760000e-001) (21, -6.47795259762139920000e-001) (22, -4.65559696395454910000e+000) (23, -3.34099845300342040000e-001) (24, 8.11274610080745440000e+000) (25, 3.92610725207164890000e-001) (26, -2.35306883036226330000e+000) (27, -1.50209007132201200000e-001) (28, -4.73663902171043370000e+000) (29, -4.88860097488142630000e-001) (30, -7.66711841248365910000e+000) (31, -2.09675645060197650000e-001) (32, 6.85449019857033100000e-001) (33, -6.86824598217662950000e-001) (34, 8.91261429684858550000e-001) (35, -4.43907833146940170000e-002) (36, -3.32977958752688610000e+001) (37, 6.83790018948770010000e-001) (0, 2.57922532445721850000e+000) (1, -1.39338060786046050000e-001) (2, 1.18002071043377850000e+000) (3, 9.41639837399262380000e-002) (4, 4.25053506592565980000e+000) (5, -1.07567499995738120000e-002) (6, 3.09880370486870890000e+000) (7, 1.30715996854744030000e-001) (8, -2.02009239464515700000e+000) (9, -2.04352503949563390000e-001) (10, -6.31823073021571440000e+000) (11, 3.55290396368428620000e-002) (12, 9.01952565533246320000e-001) (13, 4.19959903826293610000e-001) (14, 3.41629220890283400000e+000) (15, 8.00214492661659030000e-002) (16, 1.05587926245844250000e-001) (17, -4.70751377231993510000e-001) (18, 4.45236432811273790000e-001) (19, -1.86949928719545020000e-001) (20, -9.53376014347969660000e+000) (21, 3.62594572429381150000e-001) (22, -3.09899995705029860000e+000) (23, -4.44923397587402400000e-001) (24, 1.13278615026923600000e+000) (25, -2.82411710652351670000e-002) (26, 1.53891258561204050000e+001) (27, 1.66671471328264960000e-001) (28, 1.45706565643919220000e+000) (29, -2.18876509535231900000e+000) (30, 4.61007009660699030000e+000) (31, -6.71644103319541050000e-001) (32, 3.96315680238274240000e-001) (33, 1.88418619342027000000e-001) (34, 3.90849954668298640000e+000) (35, 8.89657821142383760000e-002) (36, 1.47411860682850990000e+001) (37, 5.82834011913922480000e-001) (0, 2.38755050603374070000e+000) (1, 1.43112188292360520000e+000) (2, 2.65894586177386480000e-002) (3, -2.23720800780457500000e-001) (4, 1.26586493721468720000e+001) (5, 1.50794181940995390000e+000) (6, 7.97823632286015890000e+000) (7, 5.60667540824953290000e-001) (8, 1.96781273826694190000e-001) (9, -3.30651075321596320000e-001) (10, -7.70533334101350160000e-001) (11, -6.26538025857572680000e-001) (12, -5.08571507060378640000e+000) (13, -1.58205196547994560000e+000) (14, 1.19571237748927840000e+001) (15, 1.36244069143207440000e-001) (16, 1.97268688082333290000e+000) (17, 8.47511487471275940000e-003) (18, 2.34551854093933980000e+000) (19, 8.16366208241893880000e-001) (20, 1.18423184494002890000e+000) (21, -1.27227330193330770000e+000) (22, 2.75369348167068570000e+000) (23, 1.21862222759794910000e-001) (24, 2.10054335744089650000e+000) (25, -3.35688493877079000000e-001) (26, 4.40164998413374240000e+000) (27, 3.53522823157990330000e-001) (28, -2.68222525979219120000e+000) (29, -1.11847115289113930000e+000) (30, 8.88534623428522430000e+000) (31, 2.24242073561796540000e-001) (32, 5.93840163741965350000e-001) (33, 1.48622365220379770000e+000) (34, 5.45943138980982830000e+000) (35, 1.83205463075811400000e+000) (36, 5.38306188572020350000e+000) (37, 3.03808018286777120000e-002) (0, -8.24774506673379370000e+000) (1, -6.76818488919535440000e-001) (2, 3.90928059573952020000e+000) (3, 5.99478793363334870000e-001) (4, 5.90337492304129690000e-001) (5, 2.58177270219247080000e-001) (6, 1.39847253657115030000e+000) (7, -5.05913045324960620000e-001) (8, 7.07192050375912370000e-001) (9, 1.33329424059954360000e+000) (10, -3.12364997405489340000e-001) (11, 4.82307880913932450000e-001) (12, 1.42735985196169280000e+000) (13, -9.61150173742177040000e-001) (14, 2.06841291899284380000e-001) (15, -1.72644417665859060000e-001) (16, 2.64715052067134750000e-001) (17, -3.87270040519408330000e-001) (18, -4.90299738896588180000e+000) (19, -4.49534721317938200000e-001) (20, -2.66296677230522950000e+000) (21, 4.53430732210551250000e-001) (22, 4.39767362750823400000e+000) (23, 2.29846704164377610000e-001) (24, -4.34603566596353300000e-001) (25, 7.90426381665502610000e-001) (26, -2.66561794918597440000e+000) (27, 2.67040439237909270000e-001) (28, 3.17366052979191470000e+000) (29, 4.75370857905453470000e-001) (30, 3.64254171891124800000e-001) (31, -5.80854605230590630000e-001) (32, 1.17492716555329890000e+000) (33, 5.64434613852458080000e-001) (34, 3.36316977271343520000e-001) (35, 2.38989311446532850000e-001) (36, 7.06620505550938580000e-001) (37, 8.28389758529550550000e-001) (0, 1.74982200179760030000e+001) (1, 5.16112069953148730000e-001) (2, -9.39191103474381880000e+000) (3, 2.20276519707945260000e+000) (4, -2.88459700476124500000e+000) (5, 8.12148332271969810000e-001) (6, 9.25021758820740340000e-001) (7, 1.77561646037005170000e+000) (8, 3.47954783836017080000e+000) (9, -2.07694014957581520000e-001) (10, 3.14627826226225470000e+000) (11, 6.61248683362167240000e-001) (12, -1.06976573217530110000e+000) (13, -3.75132971869145960000e-001) (14, 8.10582653251489300000e+000) (15, 4.56628032552247320000e-001) (16, -8.35103857329262670000e+000) (17, -3.48562414164484580000e-001) (18, -1.35131004120252340000e+000) (19, -6.28358215701091070000e-001) (20, -2.07658344326680340000e-001) (21, -1.45394245104472060000e-002) (22, 1.37024861232000790000e+000) (23, 1.23423980401756570000e+000) (24, 2.43631727536725550000e+000) (25, 1.31614980875294630000e-001) (26, 6.07166751204270040000e+000) (27, -2.67541018446709570000e-002) (28, -6.92820465277264180000e-002) (29, -2.88903783217606010000e+000) (30, 4.54750241070343280000e+000) (31, 3.09259679571933340000e-001) (32, 8.78788197710326100000e+000) (33, 8.96377644905431290000e-002) (34, -1.22359255398449610000e+000) (35, -1.25218974096342530000e+000) (36, 8.38456654755260720000e+000) (37, 2.44304660597193770000e-002) (0, 1.10675692402667970000e+001) (1, 3.76147502892756510000e+000) (2, 1.03138983468467630000e+001) (3, 4.25030509616785290000e-001) (4, 9.06002905051166250000e+000) (5, -2.58288601117351470000e-001) (6, 6.23854171898055830000e+000) (7, 1.41745853546050200000e+000) (8, -2.25319109360142860000e+000) (9, -1.22133440450263890000e-001) (10, -4.76237117286867220000e+000) (11, 6.28369288078863050000e-001) (12, -4.31768858097788840000e+000) (13, 9.82433000308203460000e-001) (14, 1.07857070673564960000e+001) (15, -3.81024470327081140000e-001) (16, -1.17409744250011540000e+000) (17, 4.58946579301348570000e+000) (18, 1.16687016254089530000e-001) (19, 1.06969812715073910000e+000) (20, 1.88302674389952830000e+000) (21, 1.41226201087615520000e-001) (22, -9.26284489359785050000e-002) (23, 1.13385091833239370000e-001) (24, 5.58190942270642480000e-001) (25, 8.85575014313742410000e-001) (26, 4.20512553066451570000e+000) (27, 1.91937105100672340000e+000) (28, 1.22895090996378030000e+000) (29, 1.37816535588667850000e-001) (30, -1.16915959818363520000e+001) (31, -3.65056158850309120000e-001) (32, 1.57539546938949200000e+001) (33, 1.30768846287732180000e+000) (34, 1.22811647115606010000e+001) (35, 1.04989427452369720000e+000) (36, 2.70779129731452100000e+001) (37, 2.90602110729565210000e-001) (0, 6.47170788889327840000e+000) (1, -7.44369331151283680000e-001) (2, 4.97827047105594470000e+000) (3, 3.50596730711886130000e-001) (4, -4.15466431866141130000e-001) (5, 5.31811990577007680000e-001) (6, 2.80288326769364990000e+000) (7, -1.99324106238469320000e+000) (8, -7.70318220527999650000e+000) (9, 5.36225041582678920000e-001) (10, 8.45621870501457270000e+000) (11, -7.76707371482346250000e-001) (12, 4.57556487157139310000e-001) (13, 4.65652950861838280000e-001) (14, 3.32245849000223400000e+000) (15, -7.67184228037649630000e-001) (16, -1.33207955868303560000e+000) (17, 6.57120622863276880000e-001) (18, 3.98060366020076240000e+000) (19, 1.77942372994812500000e-001) (20, 9.13743204627321150000e+000) (21, 2.15691924837318280000e-001) (22, -3.81213151838618810000e+000) (23, -4.76314205185884410000e-001) (24, 1.20544627998991430000e+001) (25, 1.03652705190212700000e+000) (26, 7.43416622180716670000e+000) (27, -1.01426216759449730000e-002) (28, -2.55791773100550570000e+000) (29, 1.23886340310905110000e+000) (30, 5.76134364700765510000e-002) (31, -7.90285597529163110000e-002) (32, -8.13418548404844400000e-001) (33, 2.51634843217546980000e-001) (34, -1.62922787852005820000e+000) (35, -1.09417012211234880000e+000) (36, 3.40634038098273070000e+001) (37, -2.12479130378960430000e-001) (0, -2.33995914976288510000e+001) (1, 1.43765038597128750000e+000) (2, 7.07430386049188060000e-001) (3, -3.37766971573534640000e-001) (4, 7.25055720855594820000e+000) (5, 8.08613079320773310000e-001) (6, 3.08329297061795330000e+000) (7, 1.45408395449846250000e+000) (8, -8.33722147162044180000e+000) (9, 1.00961920302574870000e+000) (10, -7.30639269388434600000e-001) (11, -1.42590999298398160000e-001) (12, 2.86683892678510740000e-001) (13, 1.68529172072588830000e-001) (14, 2.19158883042595600000e-002) (15, 9.58740697147337890000e-001) (16, 5.46440019930283790000e-001) (17, 6.17475094300249940000e-001) (18, 6.52166806027570440000e+000) (19, 3.14034510611679570000e+000) (20, -3.15791995558441310000e+000) (21, 8.72603215431808630000e-001) (22, 1.11348007237442960000e+000) (23, -3.24633895794584790000e-001) (24, 7.93671525911978320000e-001) (25, 1.01923399619899470000e+000) (26, -3.04253166044190060000e-001) (27, 3.04063161977775790000e+000) (28, -6.41868054553999530000e-002) (29, 5.40880660891618350000e-001) (30, 2.84451154368537120000e+000) (31, 5.56350853720365630000e-001) (32, 2.28777517806379740000e+000) (33, 3.96436770292890150000e-001) (34, 2.64137602975865030000e-001) (35, -1.60200673513629430000e-001) (36, -7.35157189203368850000e+000) (37, 3.19115519719273380000e-001) (0, -2.53059310807581730000e+000) (1, -4.91239707125697700000e-002) (2, 2.11087411200630020000e+000) (3, -7.55074634651303890000e-002) (4, -1.85242572737980820000e+001) (5, 5.02759275469381620000e+000) (6, -9.59980159243746380000e+000) (7, 1.36756894500747910000e+000) (8, -5.10306735403304310000e+000) (9, 1.48962326695359760000e+000) (10, -1.40668655329178630000e+000) (11, 4.68133193701604890000e-001) (12, 9.29761313154010160000e+000) (13, -1.54939713901567620000e+000) (14, 7.66194761083793900000e+000) (15, -1.04901104975615070000e+000) (16, 1.04487966160818680000e+000) (17, 1.74591498193839190000e+000) (18, 1.33052270086470160000e+000) (19, -3.54283211904255490000e-001) (20, 1.42195171254819750000e+001) (21, -4.17295324487580720000e-003) (22, -8.25443747353021000000e+000) (23, 9.42351775713107240000e-001) (24, -3.57915141062395790000e+000) (25, -3.83097710198240570000e-001) (26, -3.87812568268807570000e+000) (27, 1.09003288018968330000e+000) (28, -1.82451715048641960000e+001) (29, -1.27244893447990240000e+000) (30, -4.13984207418335530000e+000) (31, 9.15805622478461650000e-002) (32, 8.04354222564525710000e-001) (33, -5.87092133009402770000e-001) (34, 1.62682267473081050000e+001) (35, 1.77417476993035250000e+000) (36, 2.90225094883898010000e+001) (37, -1.16884619564950730000e-001) (0, 1.20465380418474160000e+001) (1, 1.81576599607797510000e-001) (2, 2.02213336118976490000e+000) (3, 3.37033771924988900000e-001) (4, 3.35135815027911010000e-001) (5, 6.98811262648981410000e-001) (6, 2.45879980243880110000e+000) (7, 4.92303534099362510000e-001) (8, -5.72333432555196890000e+000) (9, 1.55548109021616310000e+000) (10, 5.91889411807171230000e+000) (11, 8.02520422220798340000e-001) (12, 5.33743732505109540000e-001) (13, -1.92111353125157950000e-002) (14, -1.68053567713995160000e+001) (15, 2.52135301123809890000e-001) (16, 1.43942851925590600000e+000) (17, 1.67123011120721430000e+000) (18, 1.54078428841854290000e+001) (19, 1.14112962069053370000e+000) (20, -2.21674114009446030000e+000) (21, 2.89709991782549080000e-001) (22, -2.17281017640938010000e+000) (23, -5.26626054029906140000e-001) (24, -7.81050021502322430000e+000) (25, 1.36553189365270670000e-001) (26, -7.97553720026726420000e-001) (27, 7.23175078274609470000e-001) (28, -5.38295085653503590000e+000) (29, 4.46212504457352000000e-001) (30, 2.98065301720195830000e+000) (31, 2.76115154171844850000e-001) (32, 3.21388257968873780000e+000) (33, 2.79935361416970060000e-001) (34, 4.70848229474261610000e+000) (35, -8.46396127042291610000e-001) (36, 1.43983696769823270000e+001) (37, 4.45050751876545910000e-001) (0, 9.91029391388654620000e+000) (1, 5.29958746852399850000e-001) (2, 2.36261901903456460000e+001) (3, -2.04487926368578880000e-001) (4, -1.21633234844163260000e-001) (5, 3.53839509367103510000e-001) (6, 9.05098518257000430000e+000) (7, -4.85063221031093230000e-001) (8, -3.58336319259465650000e+000) (9, 4.02978636385823710000e-001) (10, -5.12915007964859540000e+000) (11, 1.61247987982028940000e-001) (12, -2.25178316361016260000e+001) (13, 1.61588946649873640000e+000) (14, 1.40432269523685680000e+000) (15, 2.46982979836356180000e+000) (16, -8.58401846904173560000e+000) (17, 3.15762282706282750000e-002) (18, 3.29411961576003830000e+000) (19, 2.48081284781985540000e-001) (20, -2.15829010859068360000e+000) (21, 6.92473068754479120000e-001) (22, 4.09549963243068050000e+000) (23, 1.30411355373880360000e+000) (24, 2.42952397820670550000e+000) (25, -3.24756018084041360000e-001) (26, 1.30782695751131680000e+001) (27, -4.46035211522148370000e-001) (28, 1.41299182984200170000e+000) (29, 1.24587702811427260000e+000) (30, -2.33856303838709540000e+001) (31, 1.43232266567596470000e+000) (32, 1.04578707406815620000e+001) (33, 1.10576057720548530000e-001) (34, 1.12813422491128120000e-001) (35, 1.97610641783116540000e+000) (36, -1.76057262719455710000e+001) (37, 2.11796943775109080000e-001) (0, 2.78428066124212280000e+001) (1, 5.17684954007738060000e-001) (2, -9.75842820605566890000e+000) (3, 7.00176120797161410000e-001) (4, 4.77550487356505030000e+000) (5, 7.11806469709198470000e-001) (6, -3.28949266813970410000e+000) (7, 6.60271382019690930000e-001) (8, -3.79878948589527840000e+000) (9, 3.58951867915170640000e-001) (10, -1.16198592338846760000e-001) (11, 9.88113513335632470000e-001) (12, -9.86540683242933620000e+000) (13, -4.15368882415069530000e-001) (14, -9.90263185281703210000e-001) (15, 8.12679987277716840000e-001) (16, 1.68789789960925350000e+000) (17, 2.04411574747038530000e-001) (18, -5.42569999556709810000e-001) (19, 1.63823531537586580000e-001) (20, -1.21170833515631290000e+000) (21, -7.17833531785265990000e-001) (22, -3.69986405740060990000e+000) (23, 1.15156388037734780000e+000) (24, 1.31842926666916260000e+000) (25, -3.09453815938160740000e-001) (26, 2.17718110970435720000e+000) (27, 2.81403722864181920000e-002) (28, -9.17184714742282380000e+000) (29, 2.66470615586318570000e-001) (30, 1.19376331194920840000e+001) (31, -2.55722732348001080000e-001) (32, 3.59395921760071650000e+000) (33, 5.81630572336029440000e-001) (34, 2.52945478398424100000e+000) (35, 6.50844720007764830000e-001) (36, -5.92400803274503040000e+000) (37, 7.97061362367016080000e-001) (0, 7.47439879718336010000e+000) (1, -3.98927669334638360000e-001) (2, 8.22603445330896020000e-001) (3, -8.06121159676224660000e-002) (4, 2.04417492063724210000e+001) (5, -1.03269358271258180000e+000) (6, -5.69307287799843740000e+000) (7, -2.28863072075139620000e-001) (8, 2.70639377226542250000e+000) (9, -1.53265168600306880000e+000) (10, 5.17478494659653430000e+000) (11, -2.38986391577996200000e-001) (12, 1.80304606479877580000e+000) (13, -2.91940115861202220000e-001) (14, 1.26468849238051950000e+000) (15, -2.15613728277913100000e+000) (16, 8.90306978527587000000e-001) (17, -1.52863551989868450000e-001) (18, 8.16942325722195270000e-001) (19, -5.49305667072602310000e-001) (20, -5.90727061210401060000e+000) (21, 2.52174726232975380000e-001) (22, 2.61107743644682140000e-001) (23, 3.74576084620183550000e-001) (24, 1.24788962884772850000e+001) (25, 9.33989956604488360000e-001) (26, 5.20026268245244340000e+000) (27, -1.72445380595248520000e+000) (28, 5.65009602036213750000e-001) (29, 8.61830171947475690000e-001) (30, 2.35347111344740780000e+000) (31, 9.51274442099084180000e-001) (32, -1.46237013106132800000e-001) (33, -8.10386931625608820000e-001) (34, -1.57736536709933120000e-001) (35, -7.20765820104719010000e-002) (36, 7.00554919906776790000e+000) (37, -4.41934640595035150000e-002) (0, -2.17237894195226140000e+001) (1, -3.92901209130994800000e-001) (2, 5.42283069311690280000e+000) (3, 1.16496507375250300000e+000) (4, -3.53068803429074980000e+001) (5, 4.74641196821440180000e-001) (6, 7.19654910934806760000e+000) (7, 1.39611090401358350000e+000) (8, -1.17768896780734780000e-002) (9, 1.59988278688877640000e+000) (10, 1.72751688517138580000e+001) (11, 5.80947075982769510000e+000) (12, -9.11578584474277310000e-001) (13, 1.50408506180955580000e+000) (14, -3.40884935367086150000e+000) (15, 3.57207708712357690000e-001) (16, -5.39710840808838730000e+000) (17, 7.23353052646933950000e-002) (18, -1.77000900531538690000e-001) (19, 6.01551460386527400000e-001) (20, -2.01760139004322950000e+001) (21, -4.46061129080205300000e-002) (22, -3.18143786047632470000e+000) (23, 8.13743629346808220000e-001) (24, -8.33314226993739800000e-001) (25, -3.58730744042488230000e-001) (26, 2.78282389054212140000e+000) (27, 7.23929769465305520000e-001) (28, 6.07433044339008470000e-001) (29, -5.08845094797012120000e-001) (30, -7.80374212704689350000e-002) (31, 3.05232236104568950000e-001) (32, -2.02379629713336890000e+000) (33, 9.53824219394923230000e-001) (34, -9.79685399267266810000e+000) (35, 2.91997882489845530000e+000) (36, 2.69067009162644500000e+000) (37, 1.74714428548558200000e-001) (0, 1.69842811821112040000e+001) (1, 5.01085761523110890000e-002) (2, -2.99732721459595950000e-001) (3, -4.30032030073275590000e-002) (4, -3.14056544202129520000e+000) (5, -5.16222394921163730000e-001) (6, 3.02635496800913670000e-001) (7, 1.23375219400364800000e+000) (8, 2.34356841719344540000e+000) (9, -4.54128327937616400000e-002) (10, 5.80397016701462930000e-001) (11, 6.95830547114285600000e-001) (12, -3.01841219321917540000e+000) (13, -2.01775191584287420000e-001) (14, 6.59936799786967400000e-001) (15, 7.68958567496677350000e-001) (16, 1.53032086554968690000e+000) (17, 3.74166680432294620000e-001) (18, 3.22399276619583340000e+000) (19, 1.50666717597067820000e-001) (20, -3.17422841185348890000e+000) (21, 6.64368704376479690000e-002) (22, 1.62502797837803570000e+000) (23, 5.74531523796545260000e-001) (24, -8.81711436340351100000e-002) (25, -3.90540454240589500000e-002) (26, 7.77381822844298910000e-001) (27, 1.25782100559794860000e-001) (28, 4.13201711031685460000e+000) (29, -1.97708846336737380000e+000) (30, -1.52973169723330210000e-002) (31, -1.19712159337803850000e-001) (32, 4.77433022038624980000e-001) (33, -3.81289318619730870000e-001) (34, 6.43299008484439360000e-002) (35, 3.91497789353181080000e-001) (36, -1.30063004709751660000e-001) (37, -4.23463212018185870000e-001) (0, 1.45936754075624790000e+000) (1, -4.23576033638670000000e-002) (2, -6.84605100497979510000e-001) (3, 7.66544916843844020000e-002) (4, 1.10657207737359580000e+001) (5, -1.92164167931740850000e-001) (6, 4.70549345878698140000e+000) (7, -7.44839829050704810000e-002) (8, 2.36285670210769290000e-001) (9, 4.47882690714883690000e-002) (10, 5.47868060148641870000e-001) (11, 4.63546681487990940000e-001) (12, 2.13750890628371560000e+000) (13, 4.24266240753941870000e-001) (14, 2.54103242386749860000e-001) (15, -4.43742730756874340000e-002) (16, 3.38354326232231320000e+000) (17, 3.54689311311071510000e-001) (18, -1.15899625648072720000e+000) (19, -2.76642923231502580000e-001) (20, 9.17009183738504930000e-001) (21, 1.29573285916514850000e-001) (22, 3.08834878816571570000e+000) (23, 4.77454625810144640000e-001) (24, 1.40094000350189110000e+000) (25, -5.52075800285357080000e-002) (26, 2.04536407009542880000e+000) (27, 2.60542590414753920000e-001) (28, -8.80222609657382720000e-002) (29, 5.09463953568220830000e-001) (30, -3.99748000748151200000e-001) (31, -3.36904741628736570000e-002) (32, 7.51428080388494730000e-001) (33, 6.33179069865440810000e-001) (34, 1.23679625284387540000e+000) (35, 4.28060912823173990000e-001) (36, 1.69269460709814720000e-001) (37, -3.50798977345135430000e-001) (0, -1.21161074996375060000e+001) (1, 9.37475069846415430000e-002) (2, 8.60090442680658040000e-001) (3, -3.16971552912404030000e-001) (4, -1.13919626481425930000e+000) (5, -3.03018639159707110000e-001) (6, -5.84036422603701680000e+000) (7, 2.50313462698064320000e-001) (8, 2.14399890452911810000e+000) (9, 7.56793013522101040000e-001) (10, 2.72247712784222660000e-001) (11, 9.76386492416928320000e-001) (12, -3.90997623890648520000e+000) (13, 2.03727814259583940000e-001) (14, 1.97973300023899150000e+000) (15, -3.07169739133728080000e-001) (16, -3.50476496031486470000e+000) (17, 4.50005273711658490000e-001) (18, 7.45018418534972860000e-002) (19, 2.68270734009609160000e-001) (20, -7.91876187248077180000e-001) (21, 6.21405019782427790000e-001) (22, 2.59391682050011060000e+000) (23, 9.67539468932448350000e-001) (24, -2.68255705895302610000e+000) (25, 1.42515409867506330000e-001) (26, 8.43878144707715380000e-001) (27, 2.43672600215864680000e-001) (28, 7.51448404153492790000e-001) (29, 2.98881281244594900000e-001) (30, 3.43695819499320220000e+000) (31, 5.06254859645292380000e-001) (32, -1.53988187493935550000e+000) (33, -5.45480365127355700000e-002) (34, 1.17595743087409320000e+000) (35, 4.20189070679194250000e-001) (36, 6.12792587928542080000e-001) (37, -3.30489332571941630000e-001) (0, 3.40249953432327890000e+001) (1, 3.13395708721512230000e-001) (2, 5.52030148818971720000e-001) (3, 3.31061343967801850000e+000) (4, -9.22501274002247130000e+000) (5, -3.46761145351805690000e-001) (6, -2.15751245610731380000e+000) (7, 1.11611289647661590000e-001) (8, -7.11527207855488800000e+000) (9, -1.05084512738185820000e+000) (10, 1.27218764980618730000e+000) (11, 5.73343461446408910000e-001) (12, 4.07554630024298370000e-001) (13, -1.69668338111469490000e+000) (14, -4.70352568313031460000e-001) (15, -5.20005363107487180000e-002) (16, 6.85171810742619570000e-001) (17, 6.00158010007826540000e-001) (18, 1.12497490455729500000e+000) (19, -6.42257278633118350000e-002) (20, -4.64889935799186740000e+000) (21, 8.88477123793199870000e-001) (22, 2.24954149451445870000e-001) (23, -8.09617732763837780000e-003) (24, 2.11675501716993080000e+000) (25, -1.13051112537005100000e-001) (26, 1.35393111975520790000e+001) (27, 3.40321023417548330000e-001) (28, 7.07576526022947740000e-001) (29, 8.29427009546150120000e-001) (30, 1.71066184627282460000e+001) (31, -4.17736515481859080000e-001) (32, -5.65795268959052020000e-002) (33, -2.85693016426711580000e-001) (34, -9.91899409603031910000e-001) (35, -6.48723091387532480000e-001) (36, 1.68741115161717230000e+001) (37, 5.03513579851693540000e-001) (0, -8.59427089334214630000e-001) (1, 6.98820810720010230000e-001) (2, 9.46517132167637220000e-001) (3, 6.40722833692383810000e-001) (4, 3.90504766186436260000e+000) (5, 1.10528513966528170000e-001) (6, -1.37816199322669220000e+001) (7, 2.81040812456582580000e-001) (8, -3.64755762211010800000e-001) (9, -2.29723716793109540000e-001) (10, -8.60726609703940880000e-001) (11, -7.10776133330809020000e-001) (12, -3.08631855628819840000e-001) (13, 9.73095960738616150000e-001) (14, 1.03272541285443080000e+000) (15, 4.22073255745874120000e-001) (16, 5.70143009159176370000e+000) (17, 7.43958536027465200000e-001) (18, 5.98691014114160150000e+000) (19, -1.46368558569446720000e-001) (20, 2.03517481807534130000e+000) (21, 2.71564182483271470000e-001) (22, 8.30158431597587130000e+000) (23, 1.32786418498402640000e-001) (24, 2.69357199952308470000e+000) (25, 1.29838421582258310000e-001) (26, 1.22972284090240060000e+000) (27, -4.75772764284874920000e-001) (28, -6.94556755287213720000e-001) (29, 5.62210643446663720000e-001) (30, 2.96547170700817150000e+000) (31, -3.46112882417824230000e-001) (32, 1.41641649535359580000e+000) (33, -1.00489730196613030000e+000) (34, -3.33769885210786340000e+000) (35, -2.13542907842728850000e+000) (36, -7.42380103773450810000e+000) (37, -8.80051837105984110000e-001) (38, -1.16538916083606850000e+000) (39, 1.79354356193920480000e-001) (40, 1.80389159926761880000e+000) (41, -2.98577584799867790000e-001) (42, 1.39640506525747610000e-001) (43, -1.44880478176852980000e-001) (44, -2.68882631384701980000e-001) (45, -7.21200956348986070000e-001) (46, 2.38441178516581200000e+000) (47, 9.25403391369497900000e-001) (48, 1.06102227167730010000e+000) (49, -1.65154292295130570000e-001) (50, 1.19956948131532490000e-001) (51, 5.56400947379230960000e-001) (52, 9.80909440503930920000e-001) (53, -6.66862633232267580000e-001) (54, 1.59273272153828740000e+000) (55, 2.00443065834444980000e+000) (56, -2.11638348931268150000e-001) (57, -1.06742306036039140000e+000) (58, 2.00385765872818220000e+000) (59, 1.93842479058771140000e+000) (60, 8.72139376448668240000e-001) (61, -3.71609896530587310000e-002) (62, 7.83448090486939950000e-002) (63, 3.04497216678328450000e+000) (64, 1.75290121124126790000e-001) (65, -1.26578227671510080000e+000) (66, 2.45680636500285540000e-001) (67, 5.14376565778138620000e-001) (68, 1.43024402057726370000e+000) (69, 3.40713429234722920000e+000) (70, 9.21162003724192880000e-001) (71, -7.76048986240219670000e-001) (72, 1.20767331018175290000e+000) (73, 3.76590923719878120000e-001) (74, -8.29317328905596840000e-001) (75, 2.28542688493292820000e-001) (76, 3.78527249832349210000e-002) (38, 1.64074952312593970000e+000) (39, 4.73949703584315540000e-001) (40, 3.85426596819562100000e-001) (41, 1.72282976029628050000e+000) (42, -8.89435133358915770000e-001) (43, 3.36346445443384320000e-001) (44, 1.32378441308787930000e+000) (45, 2.00865549261755220000e+000) (46, -2.06342319110249050000e+000) (47, 1.12200422211383840000e+000) (48, 1.42222179402337370000e+000) (49, -6.03446898431859840000e-001) (50, 1.83933048174380720000e-001) (51, 7.39896805070006320000e-001) (52, -5.60772182346154450000e-001) (53, -3.47263243616698250000e-001) (54, -1.03286552152619570000e+000) (55, -1.35676128475092940000e+000) (56, -9.86715354553985400000e-001) (57, 3.31588352805717880000e+000) (58, -5.29215788608987100000e-002) (59, -2.47113012043403500000e-001) (60, -4.66210127998785920000e-001) (61, -1.41767434841311420000e+000) (62, -4.21030069014710410000e-001) (63, -4.96315415549002440000e-001) (64, -8.41761109727389850000e-002) (65, 2.29389772046663820000e+000) (66, 1.97987409003293730000e-001) (67, 1.77615975812026370000e+000) (68, 4.89939426020569280000e-001) (69, -7.41186950466225180000e-001) (70, -9.97370101985815110000e-001) (71, 9.58726420466998070000e-001) (72, 6.16679503305186280000e-001) (73, -1.03540685609693650000e-001) (74, 6.90465055047066350000e-001) (75, 1.36323802933010900000e+000) (76, 2.21479520991502530000e-001) (38, -1.24696099727745590000e-001) (39, 2.21167674992000100000e-001) (40, -7.72991370731707760000e-001) (41, -1.75201719004280010000e+000) (42, 2.76629803768429830000e-001) (43, 2.87552092281674660000e-001) (44, -1.68599836829623100000e-002) (45, -6.85583251878421730000e-001) (46, -6.93181795153893080000e-002) (47, 1.10627702971815460000e+000) (48, 7.08846696182962870000e-002) (49, 1.45769246434247580000e+000) (50, 2.35621749960549520000e-001) (51, 6.17152703750798890000e-001) (52, -2.80147067202431880000e-001) (53, 1.41423994756607940000e+000) (54, 6.17441311332037830000e-001) (55, -1.13072297266474360000e-001) (56, 2.14504336109622740000e+000) (57, -8.80305759015439060000e-001) (58, -5.95797395930423130000e-001) (59, -9.59054620215453850000e-001) (60, 1.51533642467638590000e+000) (61, 1.65247551903682720000e+000) (62, -6.50917985128101400000e-001) (63, -1.18369636626085110000e+000) (64, 3.42481907216024340000e-001) (65, -2.53007972263328880000e-001) (66, 6.93349203456383590000e-002) (67, -9.47374105675116820000e-001) (68, -1.40074577590284450000e+000) (69, -1.82327879257488170000e+000) (70, 5.83392718597890330000e-001) (71, -2.13594909054282190000e-001) (72, -8.93956388208624890000e-002) (73, 1.19275184241472190000e+000) (74, -2.18494932753216710000e-001) (75, 4.31682177740302600000e-001) (76, 1.55868164561366070000e-001) 
