FANN_FLO_2.1
num_layers=3
learning_rate=0.700000
connection_rate=1.000000
network_type=0
learning_momentum=0.000000
training_algorithm=2
train_error_function=1
train_stop_function=0
cascade_output_change_fraction=0.010000
quickprop_decay=-0.000100
quickprop_mu=1.750000
rprop_increase_factor=1.200000
rprop_decrease_factor=0.500000
rprop_delta_min=0.000000
rprop_delta_max=50.000000
rprop_delta_zero=0.100000
cascade_output_stagnation_epochs=12
cascade_candidate_change_fraction=0.010000
cascade_candidate_stagnation_epochs=12
cascade_max_out_epochs=150
cascade_max_cand_epochs=150
cascade_num_candidate_groups=2
bit_fail_limit=3.49999999999999980000e-001
cascade_candidate_limit=1.00000000000000000000e+003
cascade_weight_multiplier=4.00000000000000020000e-001
cascade_activation_functions_count=10
cascade_activation_functions=3 5 7 8 10 11 14 15 16 17 
cascade_activation_steepnesses_count=4
cascade_activation_steepnesses=2.50000000000000000000e-001 5.00000000000000000000e-001 7.50000000000000000000e-001 1.00000000000000000000e+000 
layer_sizes=38 19 4 
scale_included=0
neurons (num_inputs, activation_function, activation_steepness)=(0, 0, 0.00000000000000000000e+000) (0, 0, 0.00000000000000000000e+000) (0, 0, 0.00000000000000000000e+000) (0, 0, 0.00000000000000000000e+000) (0, 0, 0.00000000000000000000e+000) (0, 0, 0.00000000000000000000e+000) (0, 0, 0.00000000000000000000e+000) (0, 0, 0.00000000000000000000e+000) (0, 0, 0.00000000000000000000e+000) (0, 0, 0.00000000000000000000e+000) (0, 0, 0.00000000000000000000e+000) (0, 0, 0.00000000000000000000e+000) (0, 0, 0.00000000000000000000e+000) (0, 0, 0.00000000000000000000e+000) (0, 0, 0.00000000000000000000e+000) (0, 0, 0.00000000000000000000e+000) (0, 0, 0.00000000000000000000e+000) (0, 0, 0.00000000000000000000e+000) (0, 0, 0.00000000000000000000e+000) (0, 0, 0.00000000000000000000e+000) (0, 0, 0.00000000000000000000e+000) (0, 0, 0.00000000000000000000e+000) (0, 0, 0.00000000000000000000e+000) (0, 0, 0.00000000000000000000e+000) (0, 0, 0.00000000000000000000e+000) (0, 0, 0.00000000000000000000e+000) (0, 0, 0.00000000000000000000e+000) (0, 0, 0.00000000000000000000e+000) (0, 0, 0.00000000000000000000e+000) (0, 0, 0.00000000000000000000e+000) (0, 0, 0.00000000000000000000e+000) (0, 0, 0.00000000000000000000e+000) (0, 0, 0.00000000000000000000e+000) (0, 0, 0.00000000000000000000e+000) (0, 0, 0.00000000000000000000e+000) (0, 0, 0.00000000000000000000e+000) (0, 0, 0.00000000000000000000e+000) (0, 0, 0.00000000000000000000e+000) (38, 5, 5.00000000000000000000e-001) (38, 5, 5.00000000000000000000e-001) (38, 5, 5.00000000000000000000e-001) (38, 5, 5.00000000000000000000e-001) (38, 5, 5.00000000000000000000e-001) (38, 5, 5.00000000000000000000e-001) (38, 5, 5.00000000000000000000e-001) (38, 5, 5.00000000000000000000e-001) (38, 5, 5.00000000000000000000e-001) (38, 5, 5.00000000000000000000e-001) (38, 5, 5.00000000000000000000e-001) (38, 5, 5.00000000000000000000e-001) (38, 5, 5.00000000000000000000e-001) (38, 5, 5.00000000000000000000e-001) (38, 5, 5.00000000000000000000e-001) (38, 5, 5.00000000000000000000e-001) (38, 5, 5.00000000000000000000e-001) (38, 5, 5.00000000000000000000e-001) (0, 5, 0.00000000000000000000e+000) (19, 5, 5.00000000000000000000e-001) (19, 5, 5.00000000000000000000e-001) (19, 5, 5.00000000000000000000e-001) (0, 5, 0.00000000000000000000e+000) 
connections (connected_to_neuron, weight)=(0, 2.58586591118254990000e-001) (1, -6.80595496515558760000e-002) (2, 1.80376112263617130000e-001) (3, -1.93046661125515180000e-002) (4, 3.98338790466349960000e-001) (5, -6.88618372993125980000e-002) (6, 2.24571669562807220000e-001) (7, 8.60026669614732950000e-002) (8, 1.25808656510213130000e+000) (9, -4.27726840403772350000e-002) (10, 3.04590845198853430000e-001) (11, 9.06596494527427410000e-002) (12, 2.44835370210220840000e-001) (13, -7.36042690106053360000e-002) (14, 1.32814434289725720000e-001) (15, -1.92387792903425420000e-001) (16, 4.29337871553276910000e-001) (17, 3.92802541558801080000e-002) (18, 2.83514823170161910000e-001) (19, -6.80927943191029640000e-002) (20, 6.98402990943403410000e-001) (21, -2.16056915374644690000e-002) (22, -9.26598966294089000000e-001) (23, -1.13396464389628540000e-001) (24, 5.15983380656895420000e-001) (25, -6.77998255647373900000e-002) (26, -1.90830293560644790000e-001) (27, -1.20781035048673460000e-002) (28, -8.34760171702494250000e-002) (29, -8.89057829104906580000e-002) (30, -1.07950653653766940000e-001) (31, -1.59636699453661710000e-001) (32, -6.89878036898934760000e-002) (33, -8.36689664262060120000e-002) (34, 9.47287554371013530000e-002) (35, -8.99677946450658660000e-002) (36, -1.55241233364021780000e+000) (37, -4.11579794646179530000e-002) (0, -2.19863413991373770000e+000) (1, 2.92596973228290920000e-001) (2, -3.48277044170748730000e-001) (3, 2.92926934958973430000e-001) (4, -5.21268949175141440000e-001) (5, 3.89978566476264720000e-001) (6, -6.99025667445984930000e-002) (7, 3.77121835289507770000e-001) (8, -5.72191303611577660000e-001) (9, 2.84601367640397120000e-001) (10, -5.35968828679498350000e-001) (11, -6.64421179868292660000e-002) (12, -8.04039163362538110000e-001) (13, 9.29457538705538600000e-001) (14, -5.49567461694633770000e-001) (15, 4.12750783612472190000e-001) (16, 5.19248761564928380000e-001) (17, 4.13428273856942590000e-001) (18, -1.58059388233752650000e-001) (19, 3.60624032309296350000e-001) (20, -2.22406748990209910000e+000) (21, 8.38899781920178440000e-001) (22, 6.40273291880560920000e-001) (23, -1.54845439616641380000e-001) (24, 3.02210474069633140000e-001) (25, 7.98899067843558570000e-001) (26, -1.21876712681125310000e-001) (27, -1.21757597563225370000e-002) (28, 1.18944012298526180000e-001) (29, 8.80802145235884510000e-001) (30, 1.12874619087156390000e+000) (31, 4.26550832646233950000e-001) (32, 2.99701929110377910000e-001) (33, 6.50724122699635640000e-001) (34, 8.58267413898765930000e-001) (35, -5.41848210006338200000e-002) (36, 1.52873543929021260000e+000) (37, 3.19403614252741000000e-001) (0, 2.57310956333621550000e-001) (1, -4.58793735397955150000e-002) (2, 3.36455216151876960000e-001) (3, 7.04631159486659440000e-002) (4, 3.09221357497771740000e-001) (5, 9.09953428171199620000e-002) (6, 2.80274438586510740000e-001) (7, -7.84626675205011140000e-002) (8, -3.61630893868833180000e-001) (9, 2.77107154474072400000e-002) (10, 2.37096112282396910000e-001) (11, 9.83073546448274270000e-002) (12, -6.14122077955800210000e-001) (13, -9.05964567638086610000e-002) (14, 2.32536786042582650000e-001) (15, -1.58293925996152830000e-001) (16, 4.10999538190716440000e-001) (17, -4.93061729454104950000e-002) (18, 1.39773180011962990000e+000) (19, 8.06498836785856100000e-002) (20, 2.90168237562064830000e-001) (21, -6.41410925619163300000e-002) (22, 5.58097639096946760000e-001) (23, 1.47834691610262620000e-002) (24, 3.33606958912477210000e-001) (25, -3.56281942259677330000e-002) (26, 2.43944256915692210000e-001) (27, -9.83574016655290460000e-002) (28, -1.34200791756778280000e+000) (29, 7.11472633282640020000e-003) (30, 3.72423262736428510000e-001) (31, -1.50426494238293960000e-001) (32, 3.25104761520159600000e-001) (33, -6.56819056113029240000e-002) (34, 5.93200242190661250000e-001) (35, -4.52229209314403000000e-002) (36, 2.32562497426787700000e-001) (37, -8.79170133645068440000e-002) (0, 1.29135972822206260000e+000) (1, 1.20197627601173130000e-001) (2, -3.19709222235088690000e-001) (3, -5.47687408984243170000e-001) (4, 3.56389046907442610000e-001) (5, 2.62988523270795800000e-001) (6, 2.45061171821249590000e-001) (7, -5.93282618045973260000e-001) (8, -3.59473594248144180000e-002) (9, -1.62414780214053480000e-001) (10, 2.28753621792638530000e-001) (11, -1.90882983254256740000e+000) (12, 8.48471634929791610000e-002) (13, 2.01645643641198910000e-001) (14, 1.38790920216187330000e-001) (15, 1.33982832716870500000e-001) (16, 1.75365314900899100000e-001) (17, -3.24177449593783110000e-002) (18, 2.17154055127487010000e-001) (19, -5.32392572567996010000e-002) (20, 5.01302183664598330000e-001) (21, -2.94654500131054820000e-001) (22, 3.63041564803316950000e-001) (23, -2.24402791454182400000e-002) (24, 1.94871744763889600000e+000) (25, 1.68705733624907040000e-001) (26, 2.22131307240833350000e-001) (27, 4.19899752311570670000e-001) (28, 1.09800851526445420000e-001) (29, 7.87852734684559710000e-002) (30, 4.68057356800040180000e-001) (31, -2.35358170283235630000e-001) (32, 2.75850423607558020000e-001) (33, -1.44560185892822660000e-001) (34, 2.61174620577558800000e-001) (35, -1.56763198408954310000e-001) (36, -1.28685678742780810000e-001) (37, 1.18057832340868270000e-002) (0, -1.43397325592596330000e-001) (1, 1.81108319865471460000e-001) (2, 9.22546302794843180000e-001) (3, -1.30438508642170130000e-003) (4, -4.68763280605714180000e-002) (5, 3.42585230530638880000e-001) (6, -4.76127720031251640000e-002) (7, 4.56978854908272000000e-001) (8, 2.90278100844951930000e-001) (9, -4.48361920018814230000e-002) (10, 1.13123604000109210000e+000) (11, 3.94621179875255190000e-001) (12, -1.44382466056303650000e+000) (13, -6.80295517224894090000e-002) (14, 2.08732745255898580000e-001) (15, 4.83618219196832730000e-001) (16, -1.96424461257641380000e-001) (17, 3.89087916770457840000e-001) (18, 1.22356392223625980000e+000) (19, 3.38475508324317550000e-001) (20, 3.19885013147536320000e+000) (21, 3.01185083429353630000e-001) (22, 8.24826017763586660000e-001) (23, -2.03763632284793550000e-001) (24, -4.55589114429495070000e-001) (25, -5.60992346272955330000e-002) (26, -6.36406042732084730000e-002) (27, -1.58164266370935060000e-001) (28, -3.22410344566554870000e-001) (29, 3.57970137521060160000e-001) (30, 2.10212622227266210000e-002) (31, 4.32222966693919630000e-001) (32, 2.64361403678981750000e-001) (33, 2.72099774913367070000e-001) (34, 3.70184865009440590000e-001) (35, 1.32957684382346150000e-001) (36, -5.55271733102381760000e-001) (37, 3.73389674349035810000e-001) (0, 1.05721632916777790000e-001) (1, -3.79731184707787660000e-001) (2, 1.10423447175631080000e+000) (3, 1.28120748357664240000e-001) (4, -3.78311424087955480000e-001) (5, -6.03057752811992360000e-001) (6, -1.28508769302319410000e-001) (7, 1.54208947734625810000e+000) (8, -1.68523937985597450000e-001) (9, 2.71808054472918930000e-002) (10, 8.96801119707490770000e-001) (11, -1.49546102180014410000e-001) (12, 5.42664799593030270000e-001) (13, 6.26809089807413430000e-002) (14, 2.06872799778356380000e-001) (15, -1.22007050449185940000e-001) (16, -8.19203813803591090000e-001) (17, 1.38463734002051110000e-001) (18, -2.98123371994596030000e-002) (19, 1.78543906788002220000e-002) (20, 1.04560409978890020000e+000) (21, 1.07853028794483370000e-001) (22, 5.66069699406477890000e-002) (23, 1.04479567518983570000e+000) (24, -6.80713703883240150000e-001) (25, 3.88141064018915840000e-002) (26, -8.70170694652949300000e-002) (27, -6.39198802009594000000e-002) (28, 3.74705944131568440000e-001) (29, 1.15040914178384540000e-001) (30, -4.10080696423484940000e-001) (31, 6.90399805250869750000e-002) (32, 3.02802692913757550000e-001) (33, 5.30514459300851500000e-001) (34, -4.58841683478205250000e-001) (35, -8.52455183510996420000e-002) (36, 1.56123678462440410000e-001) (37, -3.33677313245545750000e-003) (0, -5.25974158036488610000e-001) (1, 3.38415737464971670000e-001) (2, 1.95384640476043870000e-001) (3, 5.39560828253713650000e-001) (4, -4.45090367768726240000e-001) (5, 3.75103970433543930000e-001) (6, 1.12349716735584740000e+000) (7, 4.61522358195890100000e-001) (8, -3.19226443801785380000e+000) (9, -7.03677067468295840000e-001) (10, 3.45426818447086780000e-001) (11, -3.17115382394162340000e-002) (12, -3.14411380253472840000e+000) (13, 5.27440864989001450000e-001) (14, 3.33726378819611650000e-001) (15, 2.89825648850297930000e-001) (16, 1.40265801893435240000e-001) (17, -2.67010444804155590000e-001) (18, 1.24140745314237910000e-001) (19, 2.27618616673341020000e-001) (20, -2.83436238245139690000e-001) (21, 1.02387574342058670000e+000) (22, 2.37153442310758300000e-001) (23, 8.40180080920270300000e-002) (24, 3.99550384365482350000e-001) (25, 2.83673305008620870000e-001) (26, 9.53237385365501180000e-001) (27, -2.38745063523593560000e-001) (28, 6.55173292205671890000e-002) (29, 5.64043648737550200000e-001) (30, 1.58247191134963550000e-001) (31, 4.22323713540430910000e-001) (32, -3.58674276475648810000e-001) (33, 3.87925095395404040000e-001) (34, 1.56257445011564020000e-001) (35, -8.09625109308242940000e-003) (36, -3.91884828865459720000e-002) (37, 3.00500697837493560000e-001) (0, -1.00622543232436580000e+000) (1, -1.14092784830760060000e-001) (2, 5.24637706628290570000e-001) (3, 4.29818209972296860000e-001) (4, 1.76043608185058320000e-002) (5, -2.34738869960582770000e-002) (6, -1.05461893958894230000e-001) (7, 4.43531276956727120000e-001) (8, 3.57408614075192810000e-001) (9, 3.83543868370888440000e-001) (10, -8.09590054483244480000e-002) (11, 4.15349288766701130000e-001) (12, 2.88170331793462020000e-001) (13, -1.41137462968132180000e-001) (14, 3.51761727489737720000e-001) (15, -7.07150986375071760000e-002) (16, -1.50169171459828980000e+000) (17, 3.85252852771354290000e-001) (18, 9.60490538299261230000e-002) (19, -1.48085319982370010000e-001) (20, 2.14479306093021740000e-001) (21, -4.46164654361072420000e-002) (22, -8.71967985100248060000e-002) (23, 4.42865993743688620000e-001) (24, -5.32272986255348470000e-001) (25, 3.90367598941319950000e-001) (26, 3.78861337268553370000e-001) (27, 4.00947047806547660000e-001) (28, 3.35151148388612430000e-001) (29, -1.51546013393313360000e-001) (30, -9.86530975088619620000e-002) (31, -5.32244787250833460000e-002) (32, -3.86453892285599680000e-001) (33, 3.18144697474489870000e-001) (34, 9.37025898193315940000e-001) (35, 4.21479274675001680000e-001) (36, 2.70805829581585780000e-001) (37, 3.41645289110382670000e-001) (0, 5.49042968504022680000e-002) (1, 1.25343596266259630000e-002) (2, 4.71024682398147600000e-001) (3, -1.45189396184948440000e-001) (4, 4.34089358522005090000e-001) (5, 2.09677241039474660000e-001) (6, 8.24647776265264170000e-002) (7, -1.40310704820442140000e-001) (8, 1.39050866454065320000e+000) (9, -8.28663083758150340000e-001) (10, 3.22737638094687470000e-001) (11, 1.12350795672874220000e-001) (12, 6.12154442929775940000e-001) (13, -3.49506238352276180000e-001) (14, 5.86995830605747450000e-001) (15, -1.20985496721647200000e-001) (16, -1.45365091920059970000e-002) (17, -4.84829469581102710000e-002) (18, 1.63503821216760800000e-001) (19, -7.39407915833843050000e-003) (20, 1.18145832677842700000e-003) (21, -1.54056399751364680000e-001) (22, -5.71932604971787520000e-002) (23, 1.07944057325958700000e-001) (24, -2.47486697475834820000e-001) (25, -2.11070104284259870000e-001) (26, 1.31512565699467790000e-001) (27, -1.09158077264412750000e-002) (28, 9.48156100941489610000e-001) (29, -1.40545934263513960000e+000) (30, 1.58633764948515170000e-001) (31, 1.37383483797659660000e-002) (32, 3.59524540838145560000e-001) (33, 8.45488902406395180000e-001) (34, 6.44945905371403510000e-001) (35, 1.10897125893128150000e+000) (36, 1.05007797680869120000e+000) (37, -8.80524032604828030000e-002) (0, 1.91877562729845130000e-001) (1, 3.08832325032716510000e-001) (2, -6.27891609410982210000e-001) (3, 2.04157402386204310000e-001) (4, 3.09358033230440530000e-001) (5, 1.28473807508430880000e-001) (6, -1.91084616671695350000e-001) (7, 3.49015791047451670000e-001) (8, 5.28798521964950700000e-001) (9, 3.27893604613626710000e-001) (10, -9.78330189634706720000e-002) (11, 3.26268411133291580000e-001) (12, 1.49209603444736790000e+000) (13, 4.20343557163113330000e-001) (14, -8.46575023157267740000e-002) (15, 2.91126397822768330000e-001) (16, 2.11872680215295590000e-001) (17, 1.53754569603893580000e-001) (18, -1.30381749541743310000e+000) (19, 4.77774912961230480000e-001) (20, 3.62444435980994320000e-002) (21, 4.78699270923306220000e-001) (22, -5.59772539971701290000e-001) (23, 3.99389080379652930000e-003) (24, -1.44059879250996750000e-001) (25, 1.84552909906574610000e-001) (26, -2.03596795418930440000e-001) (27, -5.68032292427761430000e-002) (28, 1.57244881884784270000e+000) (29, 4.68698985091613620000e-001) (30, -7.91379503255174450000e-002) (31, 4.45433028812305450000e-001) (32, 2.43104370133809030000e-001) (33, 1.22034598428104190000e-001) (34, -9.88957162463049430000e-002) (35, 2.23938896821596570000e-001) (36, 6.96718534306667640000e-001) (37, 2.90235284528239710000e-001) (0, -1.57896825592594960000e-001) (1, 5.36759748153987410000e-001) (2, -6.22009919857359870000e-001) (3, 1.46737251276214540000e-001) (4, -4.06888022052815310000e-002) (5, 1.81367819463607420000e-001) (6, 8.51827471745000730000e-001) (7, 3.03380292957608100000e-001) (8, 2.88477472002046260000e-001) (9, -8.04298902126027170000e-002) (10, -3.09234988574776090000e+000) (11, 1.09820747371620000000e-002) (12, 3.04877618730802490000e-001) (13, 9.55655661976288820000e-001) (14, 3.95545550622611870000e-002) (15, 2.89972925059154450000e-001) (16, -2.95476173345811940000e-001) (17, 9.05414020945633360000e-002) (18, 8.13697412322310080000e-002) (19, 5.89524641518370580000e-001) (20, -2.95048927245695480000e-001) (21, 3.03339624477083790000e-001) (22, -5.26939814685991050000e-002) (23, 4.82216802496570480000e-002) (24, 3.21269212460780000000e-001) (25, -1.95347807986035880000e-002) (26, 1.07903915888087140000e+000) (27, -2.08558088114715880000e-003) (28, 2.77346417433374240000e-001) (29, 4.94008257401882760000e-001) (30, 1.06415268404967070000e+000) (31, -9.17844348889647470000e-002) (32, 1.63912879742755420000e-001) (33, 2.51866620314994630000e-001) (34, 1.70141048996826360000e-002) (35, -7.87887341084663600000e-002) (36, 3.07328250265113480000e+000) (37, 2.75590985902890160000e-001) (0, 7.45485511176237630000e-001) (1, -4.42612340388050750000e-001) (2, 4.43620098328598670000e-001) (3, -1.30471250751343910000e-002) (4, 4.30708010815369080000e-001) (5, -2.47465918724153440000e-001) (6, -6.55393173103820250000e-002) (7, 6.94870851873098160000e-001) (8, 9.05606833105503160000e-001) (9, 4.32117238979179860000e-001) (10, 1.44589790394458460000e-001) (11, 5.95930687882291200000e-001) (12, 3.05853640868140090000e+000) (13, -2.06901641800720480000e-002) (14, 4.71900418004460250000e-001) (15, 2.71262153672450210000e-002) (16, -9.25225438106580530000e-001) (17, 3.14811688975270840000e-001) (18, -5.59540606374495210000e-001) (19, -7.03896552264796640000e-002) (20, 4.28291965959076540000e-001) (21, -2.94609162638914370000e-002) (22, -3.77659368827329480000e-001) (23, 3.52873636139115320000e-001) (24, -4.06989873680742300000e-001) (25, 1.47882987485150190000e-001) (26, -7.12949326305223760000e-002) (27, -7.09206610937672680000e-002) (28, 9.49709003851058940000e-001) (29, -9.22199919442512200000e-002) (30, -1.59596550622650710000e-001) (31, -1.34521764251871830000e+000) (32, 2.49262817491202050000e-001) (33, 2.63407879615544460000e-001) (34, -3.47471380096243400000e-001) (35, 3.04718927322187800000e-001) (36, 1.58192886183121220000e+000) (37, 1.96241142502617840000e-001) (0, 2.73008477967049860000e+000) (1, -1.10872184662226080000e-001) (2, 4.91768492116285320000e-001) (3, 1.01146160470817520000e-001) (4, 2.68084161487421820000e+000) (5, -4.76939212403886310000e-001) (6, 5.03733165301163630000e-001) (7, -1.66273796815899430000e-001) (8, 7.63781573677685840000e-001) (9, -2.05380959366865820000e-002) (10, -1.81920263450572080000e-001) (11, -5.46343908554676600000e-002) (12, 2.65865533524674190000e+000) (13, -1.59456169761183870000e-001) (14, 4.10127865899745200000e-001) (15, -4.26001952224934820000e-003) (16, -1.60680028759067890000e-001) (17, -4.59568606676294120000e-001) (18, -9.41125396723646700000e-001) (19, -7.30059731604755650000e-002) (20, -1.22232652168420190000e+000) (21, -4.40976666002515370000e-002) (22, -3.48875363034952870000e-001) (23, -3.84275005001344790000e-002) (24, 4.75507132203864650000e-001) (25, -2.52088788216910800000e-002) (26, 1.29969102717433360000e+000) (27, -1.76999611287700780000e-002) (28, 7.47592129893962070000e-001) (29, -6.67925941616390050000e-002) (30, 1.27616197408934840000e+000) (31, -3.86899516759203060000e-002) (32, 3.49335255323757200000e-001) (33, 2.65147870512900670000e-001) (34, 9.03968409761202740000e-002) (35, 2.41289227579254200000e-001) (36, 3.18619143988048400000e+000) (37, -8.78192058030849290000e-002) (0, 1.99040354809342620000e-001) (1, -6.01366644970279530000e-002) (2, -2.49408917140834520000e-001) (3, 6.38967068602353750000e-001) (4, 1.54609090954815810000e+000) (5, -3.03527815559449740000e-001) (6, 4.89918671789079220000e-001) (7, 1.01394776058789370000e-001) (8, -8.44384472892706210000e-002) (9, 4.92820129803004660000e-001) (10, -7.63357048445041380000e-001) (11, -4.13311869347022450000e-002) (12, 4.41977527949314110000e-001) (13, 4.50973730011963890000e-001) (14, -2.66004376372501130000e-001) (15, 6.17647032550644020000e-001) (16, -1.84501739123185920000e-002) (17, -1.50675427236258930000e-001) (18, -2.98295353972838520000e-001) (19, -2.59772289770715760000e-001) (20, -3.07415530539851560000e+000) (21, 3.45089958866461490000e-001) (22, -5.61487627887883090000e-001) (23, 5.80637831667020900000e-002) (24, 1.10698715734420410000e+000) (25, 9.22049704444271030000e-001) (26, 4.00431036274658310000e-001) (27, -8.83921977052884780000e-001) (28, 7.72793546285117430000e-001) (29, 5.15802236152399730000e-001) (30, 6.77488024349858110000e-001) (31, -1.26910578174316830000e-002) (32, 8.84156540127175370000e-001) (33, 1.29414098797496550000e+000) (34, -2.79105900561893380000e-001) (35, -9.38372737753009540000e-003) (36, 3.14159305054404130000e+000) (37, 2.14086337489755640000e-001) (0, -9.02249357559274380000e-002) (1, 4.11487819447992400000e-001) (2, 3.58908944393114550000e-001) (3, 3.69965602032388150000e-001) (4, -1.90910742100165650000e-001) (5, 4.16161056356922410000e-001) (6, 1.35783494760168890000e-002) (7, 3.38453150390941090000e-001) (8, 2.75672387736684840000e-001) (9, 4.66553738237288520000e-001) (10, 3.04413379654369100000e-001) (11, 2.32158368068193790000e-001) (12, 7.42672696226906790000e-001) (13, 4.58100368970698500000e-001) (14, 4.91598730617323560000e-001) (15, 5.70335188107425450000e-001) (16, -2.11363623264312320000e-001) (17, 2.66765302177627280000e-001) (18, 2.64820679051157250000e-001) (19, 3.16594404482638700000e-001) (20, -1.23452207678002020000e-002) (21, 3.55878687759976830000e-001) (22, 7.89879450222300550000e-002) (23, 4.47742702800732250000e-001) (24, -5.35166052704708520000e-001) (25, 3.03075117171810630000e-001) (26, 6.68620416762557570000e-002) (27, 4.47883083662199090000e-001) (28, -1.99818201377489010000e-001) (29, 3.51311201874959290000e-001) (30, -8.13313199069973650000e-002) (31, 3.16038984552487300000e-001) (32, -1.18950663691142560000e-001) (33, 3.99339767043765670000e-001) (34, 1.15014070388463900000e-001) (35, 4.18641139867085180000e-001) (36, -1.76245570914532580000e-001) (37, 3.05748457055396490000e-001) (0, -1.01567977816837150000e+000) (1, -5.48042970417767230000e-002) (2, 1.88929722254486390000e+000) (3, 3.37562151321091910000e-002) (4, -1.09069198631739050000e+000) (5, 1.11396229497916930000e-001) (6, 1.83112929791583940000e-001) (7, 1.20645546002470750000e-001) (8, -1.58922871546410050000e+000) (9, 1.03210563324610140000e-001) (10, 3.03131472858826620000e+000) (11, 3.24064622658684850000e-001) (12, -2.21475962843527620000e+000) (13, -4.03465033274363840000e-001) (14, 2.01670811311530860000e+000) (15, -4.68162891869058740000e-001) (16, 1.38041830864926140000e+000) (17, 3.67151819505875780000e-001) (18, 2.71738946698132370000e+000) (19, 3.01338319809353940000e-001) (20, 2.06379923646312320000e+000) (21, 6.81071883126973950000e-002) (22, 9.44815818064762560000e-001) (23, 3.05686936837961000000e-001) (24, 6.86849910849181230000e-001) (25, -4.83500491798531990000e-001) (26, -2.55836084606029660000e-002) (27, 3.70082529866186600000e-002) (28, -5.33024418317745940000e-001) (29, 2.13071790082213270000e-001) (30, -6.20704254105489410000e-002) (31, 7.46957325569900800000e-002) (32, 1.30489087492838830000e-001) (33, -9.65277775614215990000e-002) (34, 3.02623127514349220000e-001) (35, -2.97985206394213890000e-001) (36, -1.44094992963554860000e+000) (37, 3.43893870703493700000e-001) (0, 5.07717964633614070000e-001) (1, -1.63289177630800140000e-001) (2, 3.75044857564467650000e-001) (3, -8.30116773604493430000e-002) (4, 9.63384926450261080000e-001) (5, -5.58978186086692000000e-002) (6, 5.50130309392194090000e-001) (7, -4.76576835510214070000e-001) (8, -7.13233235617818820000e-001) (9, -5.78589845123671580000e-003) (10, -3.85945028639191750000e-002) (11, -1.75136101635458060000e-001) (12, 2.48229571478125880000e+000) (13, 2.78844159779491230000e-001) (14, 1.21834625348195320000e-001) (15, -1.68877941897122520000e-001) (16, -1.40896302040502740000e-001) (17, -2.06868279842679360000e-001) (18, -9.60563762406160950000e-002) (19, -1.00337516536497290000e-001) (20, -1.39441514729539720000e+000) (21, -1.56982189766737000000e-001) (22, -2.34166357979099540000e-001) (23, -1.47350841966968740000e-001) (24, 1.09271675231773500000e+000) (25, 4.04161544459365750000e-001) (26, 5.16147716267404850000e-001) (27, -1.13580089510620310000e-001) (28, 3.01599490414123310000e+000) (29, -4.51026366660327650000e-003) (30, 3.88181405766808210000e-001) (31, -9.40671497667298490000e-002) (32, 1.09833434089867370000e+000) (33, -7.71685708787531040000e-002) (34, -1.78736478554183010000e-001) (35, -1.19087516815894070000e-001) (36, 1.35623132027988100000e+000) (37, -9.67486492955190040000e-002) (0, -7.08454799069961750000e-002) (1, 2.81598901496871780000e-001) (2, 2.45089496932178880000e-002) (3, 1.26419624108076890000e-001) (4, -1.65870470458722270000e-001) (5, 4.61518337771630200000e-001) (6, 3.51107026677104250000e-001) (7, 2.25157635541999750000e-001) (8, 7.02748342953153360000e-001) (9, 3.67377711368825580000e-001) (10, 6.52926601139585780000e-001) (11, 4.49489841124802000000e-001) (12, -2.72606299958149330000e-001) (13, 3.21448755606305870000e-001) (14, -2.20440196226530990000e+000) (15, 5.07609357094612750000e-001) (16, 1.94635917869323130000e-001) (17, 4.63141872952072760000e-001) (18, 5.01607761823294580000e-001) (19, 4.15440841502440370000e-001) (20, 1.59292739715135310000e+000) (21, 4.27967311881055970000e-001) (22, 8.75581100546266370000e-001) (23, -9.71962478843159120000e-002) (24, 1.27160997080700060000e-001) (25, -7.99761881080898600000e-002) (26, -2.52032975219209590000e-001) (27, -7.36732983150466540000e-002) (28, 2.33980996248739860000e-001) (29, 3.27617353865643450000e-001) (30, -5.59745885339759390000e-002) (31, 2.40733807649102790000e-001) (32, -2.48814795697378270000e-001) (33, 4.17003341525723440000e-001) (34, 4.46213367856183040000e-001) (35, 3.21796656002114990000e-001) (36, -6.68824055268570580000e-001) (37, 3.51044703312944850000e-001) (38, -6.94904994180553930000e-002) (39, -9.44903484806177000000e-002) (40, -6.18122766473909600000e-002) (41, -3.54911897912495170000e-002) (42, 4.14935498011934010000e-002) (43, -7.67798832318105150000e-003) (44, -5.27300939520914390000e-002) (45, 3.75859542084508060000e-001) (46, 1.44302394907689700000e-001) (47, -8.87652507390570970000e-002) (48, 3.76671309674729340000e-001) (49, -5.93951331139082470000e-002) (50, 9.77524558786535770000e-001) (51, 1.25521430647574210000e-001) (52, 3.62926192282411130000e-001) (53, -1.18726463439083700000e-001) (54, 8.06668058508636990000e-001) (55, 2.35155194284724980000e-001) (56, 2.74120038615346340000e-001) (38, 1.87948863960958920000e-002) (39, -1.46149856780617480000e-001) (40, 6.90085101912121800000e-002) (41, 3.90345203719277720000e-001) (42, 2.48815511176816330000e-001) (43, -1.58344681181084520000e-001) (44, 3.48298524683155360000e-001) (45, 2.94272750249875480000e-001) (46, -1.69091991247236780000e-001) (47, -2.14326127327773060000e-001) (48, 2.06249592573784830000e-001) (49, -1.92739738219792400000e-001) (50, -1.02602849281895560000e-001) (51, 1.29742804324367090000e-002) (52, 1.97143147125588230000e-001) (53, 2.61219199285077250000e-001) (54, 1.79416145785678200000e-002) (55, 3.17370199698360780000e-001) (56, 2.13897297765869520000e-001) (38, 1.73198046098939140000e-002) (39, -5.60758793731020330000e-001) (40, -1.07390604925134260000e-001) (41, 2.04905245035145790000e-001) (42, 4.14854903993709220000e-001) (43, 3.10503095798121130000e-001) (44, -1.28731071647094240000e-001) (45, 3.52611250722456530000e-001) (46, -2.54653188036863400000e-002) (47, -1.18196403521365440000e-001) (48, -1.26582634115080030000e-001) (49, -7.53375161639682630000e-002) (50, 1.49268935146644130000e-001) (51, -4.67375003276993490000e-001) (52, 4.17082687230030780000e-001) (53, 3.47241749433186530000e-001) (54, 5.52089117266070790000e-002) (55, 4.11314864878458530000e-001) (56, 3.89732833306861200000e-001) 
