FANN_FLO_2.1
num_layers=3
learning_rate=0.700000
connection_rate=1.000000
network_type=0
learning_momentum=0.000000
training_algorithm=2
train_error_function=1
train_stop_function=0
cascade_output_change_fraction=0.010000
quickprop_decay=-0.000100
quickprop_mu=1.750000
rprop_increase_factor=1.200000
rprop_decrease_factor=0.500000
rprop_delta_min=0.000000
rprop_delta_max=50.000000
rprop_delta_zero=0.100000
cascade_output_stagnation_epochs=12
cascade_candidate_change_fraction=0.010000
cascade_candidate_stagnation_epochs=12
cascade_max_out_epochs=150
cascade_max_cand_epochs=150
cascade_num_candidate_groups=2
bit_fail_limit=3.49999999999999980000e-001
cascade_candidate_limit=1.00000000000000000000e+003
cascade_weight_multiplier=4.00000000000000020000e-001
cascade_activation_functions_count=10
cascade_activation_functions=3 5 7 8 10 11 14 15 16 17 
cascade_activation_steepnesses_count=4
cascade_activation_steepnesses=2.50000000000000000000e-001 5.00000000000000000000e-001 7.50000000000000000000e-001 1.00000000000000000000e+000 
layer_sizes=38 21 4 
scale_included=0
neurons (num_inputs, activation_function, activation_steepness)=(0, 0, 0.00000000000000000000e+000) (0, 0, 0.00000000000000000000e+000) (0, 0, 0.00000000000000000000e+000) (0, 0, 0.00000000000000000000e+000) (0, 0, 0.00000000000000000000e+000) (0, 0, 0.00000000000000000000e+000) (0, 0, 0.00000000000000000000e+000) (0, 0, 0.00000000000000000000e+000) (0, 0, 0.00000000000000000000e+000) (0, 0, 0.00000000000000000000e+000) (0, 0, 0.00000000000000000000e+000) (0, 0, 0.00000000000000000000e+000) (0, 0, 0.00000000000000000000e+000) (0, 0, 0.00000000000000000000e+000) (0, 0, 0.00000000000000000000e+000) (0, 0, 0.00000000000000000000e+000) (0, 0, 0.00000000000000000000e+000) (0, 0, 0.00000000000000000000e+000) (0, 0, 0.00000000000000000000e+000) (0, 0, 0.00000000000000000000e+000) (0, 0, 0.00000000000000000000e+000) (0, 0, 0.00000000000000000000e+000) (0, 0, 0.00000000000000000000e+000) (0, 0, 0.00000000000000000000e+000) (0, 0, 0.00000000000000000000e+000) (0, 0, 0.00000000000000000000e+000) (0, 0, 0.00000000000000000000e+000) (0, 0, 0.00000000000000000000e+000) (0, 0, 0.00000000000000000000e+000) (0, 0, 0.00000000000000000000e+000) (0, 0, 0.00000000000000000000e+000) (0, 0, 0.00000000000000000000e+000) (0, 0, 0.00000000000000000000e+000) (0, 0, 0.00000000000000000000e+000) (0, 0, 0.00000000000000000000e+000) (0, 0, 0.00000000000000000000e+000) (0, 0, 0.00000000000000000000e+000) (0, 0, 0.00000000000000000000e+000) (38, 5, 5.00000000000000000000e-001) (38, 5, 5.00000000000000000000e-001) (38, 5, 5.00000000000000000000e-001) (38, 5, 5.00000000000000000000e-001) (38, 5, 5.00000000000000000000e-001) (38, 5, 5.00000000000000000000e-001) (38, 5, 5.00000000000000000000e-001) (38, 5, 5.00000000000000000000e-001) (38, 5, 5.00000000000000000000e-001) (38, 5, 5.00000000000000000000e-001) (38, 5, 5.00000000000000000000e-001) (38, 5, 5.00000000000000000000e-001) (38, 5, 5.00000000000000000000e-001) (38, 5, 5.00000000000000000000e-001) (38, 5, 5.00000000000000000000e-001) (38, 5, 5.00000000000000000000e-001) (38, 5, 5.00000000000000000000e-001) (38, 5, 5.00000000000000000000e-001) (38, 5, 5.00000000000000000000e-001) (38, 5, 5.00000000000000000000e-001) (0, 5, 0.00000000000000000000e+000) (21, 5, 5.00000000000000000000e-001) (21, 5, 5.00000000000000000000e-001) (21, 5, 5.00000000000000000000e-001) (0, 5, 0.00000000000000000000e+000) 
connections (connected_to_neuron, weight)=(0, 5.19084281721795620000e-002) (1, -1.35343869102663490000e-001) (2, -1.17356316865627930000e-001) (3, -1.27795177613066640000e-001) (4, 4.76149635543724610000e-003) (5, 9.32693772943458450000e-001) (6, 5.04713752667504620000e-001) (7, 1.09901753945555080000e-001) (8, 4.02710500259735320000e-001) (9, -2.49613890923788440000e-001) (10, 4.60499414346566660000e-001) (11, -6.03558454213167440000e-002) (12, -1.22686753737686830000e+000) (13, -1.51174973389308160000e-001) (14, -2.36619737524626090000e-001) (15, 2.69807251391087970000e-001) (16, 6.67135585726316150000e-001) (17, 7.34149369956091230000e-002) (18, 7.68478386975212090000e-001) (19, 7.78557660017502040000e-002) (20, 4.06677785475102470000e-001) (21, 1.03867995244245440000e+000) (22, 4.80489709575318140000e-002) (23, -2.25081199209533900000e-001) (24, 8.16580952872664190000e-001) (25, 7.55072271549663420000e-002) (26, -3.08329533809859450000e-001) (27, 6.08539016521851130000e-002) (28, 7.15347256366601010000e-001) (29, 5.63540789570090350000e-001) (30, -3.99149847663187560000e-001) (31, 1.79176657321581560000e-001) (32, 8.41562642698045370000e-001) (33, -1.17378532415428210000e-001) (34, -3.53825139956546800000e-001) (35, 4.77130323157459040000e-002) (36, 1.89836105033524110000e-001) (37, 3.49974531933166360000e-001) (0, -1.19270539940876220000e-001) (1, 2.41136326614148190000e-001) (2, -5.08610793254011400000e-003) (3, 3.65213876127690350000e-001) (4, 1.79548323712770480000e-002) (5, 7.04306882557686480000e-002) (6, -3.97723877462809600000e-002) (7, 8.36202027973728780000e-001) (8, 3.01565670143093880000e-001) (9, 5.28824718409431900000e-001) (10, 1.25109977713436850000e-001) (11, 4.27835947373331920000e-001) (12, 3.15377566791307640000e+000) (13, 5.45138619488100270000e-001) (14, 1.66412532783695440000e-001) (15, 4.46622568747024380000e-001) (16, -5.33878910517978870000e-001) (17, 1.99672633540998680000e-001) (18, -1.49378273060413760000e-001) (19, 2.89740527873226570000e-001) (20, 3.86083436352305740000e-001) (21, 1.91615992795945380000e-001) (22, 8.04352241025398710000e-001) (23, 4.75901133636433990000e-001) (24, -4.90983486309754800000e-002) (25, 3.17120899374975900000e-001) (26, 6.37337628230898680000e-001) (27, 5.28427989887895190000e-001) (28, -6.00452472218504510000e-001) (29, 1.22188501527020170000e-001) (30, 5.50747050768723550000e-001) (31, 3.57437997105570730000e-001) (32, -1.59077862998828820000e+000) (33, 3.70774178944920320000e-001) (34, 2.06555094547360070000e+000) (35, 8.69032733117638840000e-001) (36, -1.75397639542061470000e+000) (37, 4.65128428397783180000e-001) (0, 4.15783924115135710000e-001) (1, 9.00438653835054360000e-002) (2, 5.89551595108448900000e-001) (3, -4.61240791708889680000e-003) (4, 2.14801266693374740000e-001) (5, 5.76230750675138070000e-001) (6, 8.69565589382717550000e-002) (7, 3.83710719424706360000e-001) (8, 8.48697652569990300000e-001) (9, 6.09927302281070060000e-001) (10, -4.68582799759415750000e-001) (11, -5.85243833860081830000e-002) (12, -5.02705284285305120000e-002) (13, 1.08354412531353850000e-001) (14, -3.06044680910049300000e+000) (15, 8.76910602552149340000e-002) (16, 2.62828049480563820000e-001) (17, 4.16723806189833180000e-001) (18, 4.73162753237478810000e-002) (19, 2.77574385756052870000e-001) (20, 1.63541934049235490000e+000) (21, 1.35383947519266720000e+000) (22, 8.43646157195611650000e-002) (23, 1.25933744157113170000e-002) (24, 2.38981613578349240000e-001) (25, 8.12539073043755810000e-002) (26, -1.54681540972869210000e+000) (27, 6.67051064528466190000e-001) (28, 2.14276364341803080000e-001) (29, 5.77867345077266230000e-001) (30, -6.83979084791273120000e-001) (31, 4.18944259523395370000e-001) (32, 3.05546555976494160000e-001) (33, 3.40618288157691800000e-001) (34, -1.03740219060143570000e+000) (35, 1.92087649190302020000e-001) (36, -7.25910854017577240000e-002) (37, 4.18116237515513520000e-001) (0, 3.39333047456817970000e-001) (1, -1.95387809535499310000e-001) (2, 7.33912503155545350000e-001) (3, -1.17799703470290060000e-001) (4, 3.23040981629331540000e-001) (5, -6.06442977061905500000e-002) (6, -6.63200476725102770000e-002) (7, 3.06212295779347330000e-001) (8, 6.50978673830476030000e-001) (9, -2.60078758324788160000e-001) (10, 6.82557521921546510000e-001) (11, -2.50954278097529350000e-002) (12, 6.98482450348576920000e-001) (13, -1.06036144085706760000e-001) (14, 5.20309517555617830000e-001) (15, -5.41962481112560730000e-001) (16, 9.64745175484252730000e-002) (17, -1.86869111860993590000e-001) (18, 1.04758244941348670000e-002) (19, -2.01008659477959150000e-001) (20, 1.37561608619373650000e+000) (21, -1.86909811921985910000e-001) (22, 1.33537862507791090000e+000) (23, -1.81575310715784750000e-001) (24, -3.03073385857446480000e-001) (25, -3.08136301445077920000e-001) (26, -3.18271497027770020000e-002) (27, 4.67444851531817140000e-001) (28, -4.57119137031147370000e-001) (29, -1.74342673062845950000e-001) (30, 5.59298775949103040000e-001) (31, 1.03143764021088910000e-001) (32, -5.24465478348642990000e-001) (33, -1.76576559814883460000e-001) (34, 1.26261227392109930000e-001) (35, 2.57579511025123330000e-001) (36, -3.20460574679550360000e+000) (37, -1.36140768196718220000e-001) (0, -1.58348343211434820000e-001) (1, 2.59050458312667150000e-001) (2, 1.80497285687063860000e-001) (3, 3.85503096915708220000e-001) (4, 3.41087939628535940000e-002) (5, 3.15196699383686270000e-001) (6, 7.87722979253821950000e-001) (7, 1.26460592082925980000e-001) (8, -8.75424696368582780000e-001) (9, -4.50320181203902050000e-001) (10, -9.29677538471815750000e-002) (11, 1.84901755063142160000e-001) (12, -1.00758810430864530000e-001) (13, 1.02719313586503750000e+000) (14, 7.05246171384196760000e-001) (15, 3.96233077544347390000e-001) (16, 9.31308737785366380000e-001) (17, 2.71624949001440450000e-002) (18, -3.62666240425202960000e-001) (19, 2.47020428836530750000e-001) (20, -3.06720340099804910000e+000) (21, 1.32353379385544420000e-001) (22, -1.02884899180374580000e-001) (23, 4.29996225783056020000e-001) (24, 9.22725360870846330000e-001) (25, 3.67772383760875010000e-001) (26, 5.47463964977271790000e-001) (27, 4.98370557848963200000e-002) (28, 9.27058857029170460000e-001) (29, 6.62611974785075720000e-001) (30, -5.44300127631769380000e-001) (31, 2.98100751863311810000e-001) (32, 9.57857197331851480000e-001) (33, 3.94347091188119000000e-001) (34, -3.76200685512140250000e-001) (35, 7.93536577872279570000e-002) (36, 1.03069045037027650000e+000) (37, 2.61961835309175050000e-001) (0, -4.88731451087334290000e-001) (1, 2.53581395158969160000e-001) (2, 1.53501476694546450000e-001) (3, 3.52768807582869380000e-001) (4, -2.57564109849816980000e-001) (5, 1.47811060502576030000e-001) (6, 1.03000987660780520000e-001) (7, 8.21736695726928530000e-001) (8, 5.57908021397889750000e-001) (9, 4.60007578712101570000e-001) (10, 1.98466895466849270000e-002) (11, 5.21248473024321200000e-001) (12, 3.02078006046253740000e+000) (13, 7.99243822830374290000e-002) (14, 2.69958612684349620000e-001) (15, 4.12361752651782710000e-001) (16, -3.43902097454437950000e-001) (17, 3.78568368514187790000e-001) (18, 7.85625749545473680000e-002) (19, 4.40335947559596430000e-001) (20, 9.91016286625506640000e-002) (21, 2.02474147254619490000e-001) (22, 7.83939046614164030000e-001) (23, 1.63436060735406670000e-001) (24, -2.19911580415303480000e-001) (25, 3.27338184683475310000e-001) (26, 4.95101241045489640000e-001) (27, 4.12027841669022790000e-001) (28, -2.62141805653957840000e-001) (29, 2.08614284064864650000e-001) (30, 7.75021753212239210000e-001) (31, 4.25589853589862510000e-001) (32, -3.88667233028711870000e-001) (33, 3.56479745138166660000e-001) (34, 5.51571025390376720000e-001) (35, 4.11301523298824800000e-001) (36, -3.79339438330511920000e-001) (37, 3.55899911145151460000e-001) (0, 2.92600914683159850000e-001) (1, -1.77697249570809480000e-001) (2, 1.12757971172249460000e+000) (3, -4.56448357773953100000e-002) (4, 3.00004479246606560000e-001) (5, -2.19263817066724320000e-001) (6, -1.96099799216254700000e-001) (7, 1.01477936025232130000e-001) (8, 1.18218857448041750000e+000) (9, 4.79080762397056940000e-002) (10, -1.08817865580401210000e-001) (11, 1.91992428462871570000e-001) (12, 3.20210330535196430000e+000) (13, 4.67780908595694380000e-001) (14, 1.60466951925139520000e-001) (15, 5.34866896040835090000e-002) (16, 4.44788601194212710000e-001) (17, 8.59233212571659520000e-002) (18, -1.71330256668952740000e+000) (19, -1.37945051712830590000e-001) (20, 1.03615585746061050000e+000) (21, -4.77042272541721710000e-001) (22, 9.72058368671849250000e-003) (23, 1.59315548602931370000e-001) (24, 1.39570943840785440000e-001) (25, 2.74859909444088500000e-001) (26, 3.65073818011131200000e-001) (27, 2.76239255890122100000e-001) (28, 5.08988247649506540000e-002) (29, -7.61042304788305670000e-002) (30, -1.05433211867702010000e-002) (31, -8.30210873577076620000e-003) (32, -3.31659906006917750000e-001) (33, -2.37981545856385340000e-001) (34, 1.40568386520750650000e-001) (35, -1.68012804475020540000e-001) (36, -9.09985196515274540000e-001) (37, 1.90437375238557720000e-001) (0, -3.24298754208195870000e-001) (1, 1.56089914716206200000e-001) (2, -1.04263174401388870000e-001) (3, 3.82245084074041400000e-001) (4, 4.72241029909859640000e-003) (5, -3.19471395032105370000e-001) (6, 2.31379516443470100000e-001) (7, -2.38498261915697020000e-002) (8, -4.21884801016686350000e-001) (9, 4.56942048248024980000e-001) (10, 1.11591917002245800000e-001) (11, 3.60464880859629400000e-002) (12, -6.51711120006771560000e-002) (13, 3.63464894206180220000e-001) (14, 7.67305579860756980000e-001) (15, 1.01352126066131070000e+000) (16, -1.46214743971704110000e+000) (17, -2.60837129436072080000e-002) (18, 1.52314573859060660000e-001) (19, 3.15263800767896010000e-001) (20, -3.09861209287232510000e+000) (21, 7.99239136797938790000e-001) (22, 1.86872679842766560000e-001) (23, 4.38020932721634280000e-001) (24, -4.30887486697711820000e-001) (25, 5.40786812782628300000e-001) (26, 6.03829014924766480000e-001) (27, 2.65494176319455780000e-002) (28, 4.08136525731214390000e-001) (29, 7.79256226343920220000e-001) (30, 1.57148558306092640000e-001) (31, 2.46213529312798160000e-002) (32, 4.30963674508865410000e-001) (33, 4.82198544557909500000e-001) (34, 7.61002588674158710000e-001) (35, 4.29634702127919710000e-001) (36, 3.16321170320993430000e+000) (37, 4.30526180506681290000e-001) (0, 3.72978113146498370000e-001) (1, -2.00288043646760060000e-001) (2, 5.35929236402723720000e-001) (3, -1.01442725867683660000e-002) (4, 3.71256921714600620000e-001) (5, -3.83924520992531770000e-001) (6, 2.53918665893367310000e-001) (7, 3.68620735156726280000e-001) (8, 6.42235826946524040000e-001) (9, 9.78879555855372560000e-002) (10, 5.02328597545096400000e-001) (11, 1.28331125240068010000e-001) (12, 2.79265059609370870000e-001) (13, -6.01871626348307320000e-002) (14, 7.92263511882253190000e-001) (15, -3.01515971036507290000e-002) (16, -2.89935617580116540000e-001) (17, 1.10160958953686440000e-001) (18, 5.03665381187755610000e-001) (19, -6.10055153133495650000e-002) (20, 6.09431900047125770000e-001) (21, 1.29327165038392980000e-001) (22, 2.42534991315145070000e+000) (23, 1.14239274188565890000e-001) (24, -1.07877521558264780000e+000) (25, -3.60043979782686320000e-001) (26, 5.35966939383325740000e-001) (27, 4.82468955310950130000e-002) (28, -1.95214907927206480000e+000) (29, -2.36330423190166950000e-002) (30, 3.06131961184787380000e+000) (31, 1.81688059628898280000e-001) (32, -2.11452090786346860000e+000) (33, -2.67390095427908540000e-001) (34, 9.13215378450810800000e-001) (35, 7.51572963227162270000e-002) (36, -1.57201680114512300000e+000) (37, -1.30878563229539110000e-001) (0, -1.93641072245797070000e-002) (1, 8.00950778255850590000e-002) (2, 2.33317110692890540000e-001) (3, 3.13666773068470290000e-001) (4, 7.59990047030321140000e-002) (5, 2.44206708091478040000e-001) (6, 7.57583818648463470000e-001) (7, 3.06029218778330170000e-001) (8, -2.46585036099021160000e-001) (9, 1.74748456489452110000e-001) (10, 8.61239408457277760000e-002) (11, -1.77797234487612030000e-001) (12, 2.66154590452849570000e-002) (13, -2.22618579834197860000e-001) (14, -6.55762531636438720000e-001) (15, 2.44701064394008570000e-001) (16, 5.39011486139351570000e-001) (17, -1.97352898841514130000e-001) (18, -1.34254671023532170000e-001) (19, 3.50084395216053450000e-001) (20, 9.08488584399371750000e-002) (21, 4.02989669441903450000e-001) (22, -6.82483723440865500000e-001) (23, 3.87340255146209010000e-001) (24, 1.03535353637726190000e+000) (25, 4.18181320058901680000e-001) (26, 7.54080400627508470000e-001) (27, -4.85003575609384560000e-002) (28, 9.22096698752103540000e-001) (29, 3.55559248813260120000e-001) (30, -5.02083886301519340000e-001) (31, -7.89630044992422480000e-002) (32, 9.49519794863864510000e-001) (33, 3.93706222037944310000e-001) (34, -5.52948809401269780000e-001) (35, -9.81646649416192810000e-002) (36, 3.10376346013658640000e+000) (37, 3.96977706461693220000e-001) (0, -1.17839309404678180000e-001) (1, 2.01176679539513320000e-001) (2, 3.51389622217933020000e-001) (3, 2.82689374680539400000e-001) (4, -1.85891675819619630000e-001) (5, 3.68433619587684840000e-001) (6, -1.57701884971705730000e-001) (7, 2.65312665437231310000e-001) (8, -8.01735425525328390000e-002) (9, 2.40367596706145830000e-001) (10, 3.63251271156121990000e-001) (11, 3.33806318801616210000e-001) (12, -2.03345848079528070000e-001) (13, 1.55436932764188050000e-001) (14, 1.32297037236885520000e-001) (15, 3.55016007444079300000e-001) (16, -1.74145737420108360000e-001) (17, 2.44389813562956530000e-001) (18, 8.80773841234885000000e-001) (19, 4.56330349413073160000e-001) (20, 6.01943340594107700000e-001) (21, 2.46196454214877570000e-001) (22, 8.71307288359447370000e-001) (23, 2.41240399453526600000e-001) (24, -5.33207759031509960000e-001) (25, 3.34119654232616970000e-001) (26, 1.76266764454585500000e-001) (27, 3.25322431956446450000e-001) (28, -5.41770991580987070000e-001) (29, 3.82548995309188680000e-001) (30, 2.56014790063728430000e-002) (31, 3.77336592887767830000e-001) (32, -2.68244530687218820000e-001) (33, 2.64568036519885470000e-001) (34, 1.18470278207454010000e-001) (35, 4.04893966345279690000e-001) (36, -3.77125554559736450000e-001) (37, 3.93712325553660260000e-001) (0, 4.90045634317441750000e-001) (1, 4.25928976149707110000e-002) (2, -2.95428781724471120000e-001) (3, 1.05574859480905930000e-001) (4, 2.69926894848027730000e-001) (5, -1.42144023411750530000e-001) (6, 3.51850367387450180000e-001) (7, -4.95643029870976860000e-002) (8, -3.20793245060337630000e-002) (9, 3.01231982003385900000e-002) (10, -1.70973258639771810000e-001) (11, -6.50733364213252900000e-002) (12, -5.35437822812210750000e-001) (13, 3.23126758839470170000e-001) (14, -1.94140393445437380000e-001) (15, -2.13524125283618030000e-001) (16, 4.13906316030355270000e-001) (17, -3.70398887379693730000e-002) (18, -3.89340923045582850000e-002) (19, 5.42677956847573830000e-003) (20, -1.36317125034545180000e+000) (21, 5.28769786767988360000e-001) (22, -1.60492085436980660000e+000) (23, -1.56906036656126900000e-001) (24, 6.44461130733746000000e-001) (25, 3.47430958420380960000e-001) (26, -1.99460549122394830000e-002) (27, -9.52385051346788660000e-002) (28, 6.07089304004987400000e-001) (29, 4.64705503431765370000e-001) (30, -1.48980480663127250000e-001) (31, 9.61989486533301050000e-003) (32, 2.37184039086972160000e+000) (33, 9.36186046668230350000e-004) (34, -1.95798439692825150000e-002) (35, 4.67857961048806430000e-002) (36, 1.66528994640621160000e+000) (37, -9.66527099287004950000e-002) (0, 9.82619710022081930000e-001) (1, -2.64756076013812180000e-001) (2, -1.95474195493660300000e-001) (3, -1.65146688349981250000e-001) (4, 1.13823105429414940000e+000) (5, -2.27005831310664710000e-001) (6, 5.37871456798791340000e-002) (7, 9.18597614892084220000e-002) (8, 1.49094484487153960000e-001) (9, -2.85866277213278900000e-002) (10, -2.66368506896448980000e-001) (11, 1.37990244087312200000e-001) (12, 1.03837143366550010000e+000) (13, 1.71013705651891780000e-002) (14, 1.03104794787979940000e+000) (15, -1.40952352051957550000e-001) (16, 2.42555506856850620000e-001) (17, 5.52630812563753990000e-002) (18, 1.49602788752194350000e-001) (19, -2.33542696642446590000e-001) (20, 1.76906149475248350000e-001) (21, -2.08335176735575280000e-001) (22, -2.93809882354949650000e-001) (23, -8.60982978015461420000e-001) (24, 4.03517883290259450000e-001) (25, -5.30122302505872110000e-002) (26, 5.95538840467094270000e-001) (27, 3.19754998237774700000e-001) (28, 6.78630476840594160000e-002) (29, -1.86216035780974370000e-001) (30, 1.21972896169499260000e-001) (31, 1.72548239254060430000e-001) (32, -2.29820365730654420000e-001) (33, 2.34911053656087000000e-001) (34, 3.90705801509572680000e-001) (35, 8.03643679019281770000e-002) (36, 1.21173569406132890000e+000) (37, -1.73447480903208080000e-001) (0, 4.96714540520825230000e-002) (1, -1.57326963489225510000e-001) (2, 8.52041603082507650000e-001) (3, 1.56850079179134710000e-001) (4, 1.80034447573167330000e-001) (5, -3.33750888456139210000e-001) (6, -1.12570678915896710000e-001) (7, 3.47855280919835590000e-001) (8, 2.00257689807843750000e-001) (9, 2.37916974918375550000e-001) (10, 3.90287000217133420000e-001) (11, 3.03448695928297150000e-001) (12, 9.11406832815757850000e-001) (13, 7.04244595722025720000e-002) (14, -2.92913259135558930000e-001) (15, -5.55706891000123590000e-002) (16, 4.26060070345528560000e-001) (17, 1.37931435740946050000e-001) (18, -9.96261389595408110000e-001) (19, 1.37762905161954300000e-001) (20, 1.09558578998681040000e+000) (21, 1.80354991949126190000e-001) (22, 8.28488135934658640000e-001) (23, -6.49029646296991060000e-002) (24, 1.13217636670392750000e+000) (25, -1.29488828308779970000e-001) (26, -3.14206302125416940000e+000) (27, -3.86991856046366320000e-001) (28, 1.43601320342799430000e-001) (29, 3.16200941239013490000e-001) (30, -1.77040095621223470000e+000) (31, -2.32633943590004310000e-001) (32, 6.20197903054384490000e-001) (33, -3.26800039792227050000e-001) (34, -1.18936509302760250000e+000) (35, 4.11016037885785670000e-001) (36, -9.72198332207947490000e-001) (37, 3.73661751503015370000e-002) (0, -5.24561130995587990000e-001) (1, 1.44212510421634240000e-001) (2, -3.62751668918583760000e-002) (3, 3.72655196333634590000e-001) (4, -4.89856540634699240000e-001) (5, 4.03941817893591570000e-001) (6, 4.19658010708978750000e-002) (7, 3.78764815565300010000e-001) (8, -1.48007954391577630000e+000) (9, 4.07634444901741000000e-001) (10, 8.73454404189821790000e-002) (11, 3.14281172026293850000e-001) (12, -8.67076627477336990000e-002) (13, 8.98729669434588510000e-002) (14, 4.14325080450485990000e-001) (15, 2.65483535406816520000e-001) (16, -2.08423355428750620000e-001) (17, 3.27904219104293070000e-001) (18, 8.35238849102488580000e-001) (19, 4.18254562247493080000e-001) (20, -2.06592686322646770000e-001) (21, 2.81828778964590520000e-001) (22, 8.55941974410989180000e-001) (23, 3.20115810153351890000e-002) (24, -6.07831785965180390000e-001) (25, 4.72718289110397480000e-001) (26, 7.67617998485484400000e-001) (27, 3.47319502596728340000e-001) (28, 1.67663557164088760000e-001) (29, 3.86223311770190260000e-001) (30, 7.21920976320170720000e-001) (31, 3.71379561549001150000e-001) (32, -2.39918114249497330000e-001) (33, 2.44316571374365130000e-001) (34, 4.71664534588166320000e-001) (35, 4.35004665501545710000e-001) (36, 1.24097477044313620000e-001) (37, 3.58806319174145240000e-001) (0, 9.96639485621617860000e-001) (1, -5.69171057332327620000e-002) (2, 4.00748544625948170000e-001) (3, -7.26540111904830920000e-002) (4, 1.13904112308826600000e+000) (5, -5.22296056633835830000e-002) (6, 4.59476572844813970000e-001) (7, -8.53961100638529900000e-002) (8, -3.12692019876289870000e+000) (9, 4.20539333254745460000e-001) (10, -9.94459089220442040000e-002) (11, -1.41249382380506610000e-001) (12, 3.02825686721457550000e+000) (13, 2.73277753446545310000e-001) (14, 4.12607675662037990000e-001) (15, 2.49447394080216460000e-001) (16, 4.72851692650725460000e-001) (17, -8.32354655004068770000e-002) (18, -8.67692584950088500000e-001) (19, -2.04286492694832730000e-001) (20, -4.70872317782232540000e-001) (21, -1.40647368335889780000e-001) (22, -3.41332377474557750000e-001) (23, 3.57734156537625470000e-001) (24, 2.66858336270964000000e-001) (25, 4.01683517078690270000e-001) (26, 8.24875630730639520000e-001) (27, -1.75245964918345150000e-001) (28, 1.18901205173397790000e+000) (29, -3.10645505193489840000e-003) (30, 5.09793956407101460000e-001) (31, -1.82399285337437930000e-001) (32, 2.88184020182491400000e-001) (33, -1.82649529481791860000e-001) (34, 2.54463123698148660000e-001) (35, -7.84299425024673060000e-002) (36, 3.20864017068374620000e+000) (37, -2.39113153370040410000e-001) (0, -7.49233708772142680000e-001) (1, -6.33198450292304790000e-002) (2, 3.90487154698718470000e-001) (3, 2.27280733649816520000e-001) (4, -1.33359116939548850000e+000) (5, 3.52536873985663300000e-001) (6, -6.26386145159979340000e-002) (7, 4.03090512279255460000e-001) (8, 2.41539572539457350000e-001) (9, 1.92991182357612420000e-001) (10, 4.24564922263404420000e-001) (11, 3.48191170795907280000e-001) (12, -1.14662222644422010000e-001) (13, 2.99790500355296250000e-001) (14, -1.46232365761641840000e-001) (15, 3.45674897689909220000e-001) (16, 3.09467554255897060000e-001) (17, 4.52191702168937670000e-001) (18, 3.95262618545511420000e-001) (19, 5.15866954544471180000e-001) (20, -5.11494563952474390000e-001) (21, -9.79145721072320760000e-002) (22, 3.05435550041597550000e+000) (23, 2.18204020938874310000e-001) (24, -1.92916064339239510000e+000) (25, -1.69392291037304550000e-002) (26, -4.83907157885069380000e-001) (27, 5.10306651727241210000e-001) (28, -1.04120155365604770000e+000) (29, 2.53708954586429750000e-003) (30, 2.32616131746890000000e-001) (31, 4.03788095452491000000e-001) (32, -5.50912011945852040000e-001) (33, 4.28287607536312180000e-001) (34, -1.21013353710787030000e-001) (35, 3.33130421097911360000e-001) (36, -3.04485842996195810000e+000) (37, 5.00028331261582300000e-001) (0, -7.89113115358249660000e-002) (1, -1.40298154641726490000e-001) (2, 8.62625099333964030000e-001) (3, 7.36896775493232070000e-002) (4, 1.82945824569675260000e-001) (5, -4.00437901168603010000e-001) (6, 5.43177513053096290000e-002) (7, 1.38613244377231750000e+000) (8, 3.81733400710590530000e-001) (9, 1.57820538177970680000e-001) (10, 4.65653212277677480000e-001) (11, 2.80713099886385380000e-001) (12, 1.04376157111612210000e+000) (13, 5.82540492345993280000e-002) (14, -3.43120779414959280000e-001) (15, 1.47235298710390250000e-002) (16, 1.05979994612166630000e+000) (17, 3.17633266452163720000e-001) (18, -4.47591489818740250000e-001) (19, 1.45105434568241510000e-001) (20, 1.00653012524883030000e+000) (21, 2.97988050342620270000e-001) (22, 9.12680031720465630000e-001) (23, -4.07978266519149920000e-001) (24, 6.36402737280230340000e-001) (25, -1.68197324979331510000e-001) (26, -6.50511617278641150000e-001) (27, -2.35423250272193210000e-001) (28, 3.79293419004875930000e-002) (29, 2.10475568259466730000e-001) (30, -7.48619528896812940000e-001) (31, 2.11126917208845550000e-001) (32, 2.87323288536057320000e-001) (33, -2.32128407522134870000e-001) (34, -2.58572435927155010000e-001) (35, -3.30888339585358900000e-001) (36, -2.59295155973825960000e-001) (37, 1.26294399131685250000e-001) (0, -6.25871610163921540000e-002) (1, 3.15520148427965890000e-001) (2, -3.60866941576220230000e-001) (3, 3.18866176879622100000e-001) (4, -1.68843294585817820000e-001) (5, -2.52991901853983740000e-001) (6, 5.47822265360832780000e-002) (7, 8.01559209307492470000e-002) (8, -1.30249303250707200000e+000) (9, 3.84401763963965530000e-001) (10, -4.62357079529125000000e-002) (11, -4.62350072807518470000e-002) (12, -1.44944062408136680000e-001) (13, 3.24249805731204880000e-001) (14, 1.65023927397562610000e-001) (15, 8.70308367902272280000e-001) (16, -4.44364399473300640000e-001) (17, -4.74251928453619940000e-002) (18, 1.57917601286302280000e-001) (19, 6.57624660221892920000e-001) (20, -3.02893435745904590000e+000) (21, 7.33138061594206140000e-001) (22, 3.23301468548048420000e-003) (23, 3.44933394105514210000e-001) (24, 3.52350792439918790000e-001) (25, 6.57241892642944190000e-001) (26, 5.18814978335201400000e-001) (27, -3.90102227492632870000e-003) (28, 1.89347813081028930000e+000) (29, 5.16200865527230990000e-001) (30, 2.30532961576848240000e-001) (31, 7.62448888567804350000e-002) (32, 1.27997083884827580000e+000) (33, 4.71431942834974640000e-001) (34, 8.36344386671838970000e-001) (35, 9.37730192563621110000e-002) (36, 3.15546634176639440000e+000) (37, 4.73031063952553400000e-001) (0, -4.55168581022919790000e-001) (1, 2.57208493887791660000e-001) (2, 6.07854251782079860000e-001) (3, 1.97169553073249990000e-001) (4, -1.15085801237567730000e+000) (5, 9.85440818670122230000e-001) (6, 1.78602416047655030000e-001) (7, 5.44032897191960570000e-001) (8, 3.21051395000854270000e+000) (9, -6.26840106056970050000e-002) (10, 7.15468420885198130000e-001) (11, 2.47264239970687530000e-001) (12, -3.10460574530538750000e+000) (13, -2.99474466694576280000e-001) (14, -6.06799207945869390000e-001) (15, -5.84782852026630940000e-001) (16, 2.97824840487439010000e-001) (17, 3.58915047908830500000e-001) (18, 1.46019906131581600000e+000) (19, 1.34308768532878570000e-001) (20, 9.57114402232400740000e-001) (21, 9.93737156308200250000e-001) (22, -2.38629249556548610000e-002) (23, 2.04199049266867800000e-001) (24, 1.17592636735585330000e+000) (25, -2.29438377765212090000e-001) (26, -3.03174807820409860000e+000) (27, -9.42502201953728250000e-002) (28, -1.31894128103531850000e-001) (29, 1.17324082044083560000e+000) (30, -1.02931503227780260000e+000) (31, 3.59842782297654820000e-001) (32, 1.18820664097634370000e+000) (33, -1.75552185857242440000e-002) (34, -1.04058822580516130000e+000) (35, 1.60423418364158520000e-001) (36, -1.86621386287651570000e-001) (37, 4.58396250563090910000e-001) (38, 6.61334427464814050000e-002) (39, -4.93182286668756850000e-002) (40, -1.70424187502745070000e-001) (41, 7.94430111325127380000e-003) (42, 3.53496260501269200000e-001) (43, -8.80755534631548070000e-002) (44, -2.30355440444279110000e-002) (45, 1.97147717579301110000e-001) (46, 5.72403517693924340000e-002) (47, 3.76854415146207820000e-001) (48, 2.95604413935488470000e-001) (49, -2.58092030136750080000e-002) (50, 2.87859297769357310000e-001) (51, -4.21384380554317570000e-002) (52, 3.95909591211402070000e-001) (53, 5.26474864858791360000e-001) (54, -5.04173099528452790000e-001) (55, -9.76519696214795260000e-002) (56, 2.06724133737625830000e-001) (57, -5.05552494080257380000e-001) (58, 2.69664472142703230000e-001) (38, 3.48399824878451390000e-001) (39, -1.84382927945121510000e-001) (40, 3.50298018266111680000e-001) (41, -1.80523779940709730000e-002) (42, 4.14256759453546180000e-001) (43, -1.45552360960250980000e-001) (44, -2.94776570445373810000e-001) (45, -1.65480339772826000000e-001) (46, -1.37356262925252050000e-001) (47, 3.96947188883113480000e-001) (48, 3.47575850256798210000e-001) (49, 4.65294484448107660000e-002) (50, -1.24824850059347900000e-001) (51, -6.71282875260162250000e-002) (52, 3.58275313306857630000e-001) (53, 1.30908643103494650000e-001) (54, -4.72935306094223460000e-001) (55, -5.85345373979593710000e-002) (56, -1.50953972368866260000e-001) (57, 8.26373492424087720000e-002) (58, 3.79222579243996220000e-001) (38, -3.61792308103989710000e-001) (39, -6.11710109098408530000e-002) (40, 4.25859788106974780000e-001) (41, 3.33127554102478130000e-001) (42, -1.25660757964562940000e-001) (43, -4.42032372195013260000e-002) (44, 1.84379767000554670000e-001) (45, -4.83480370399305410000e-001) (46, -1.84865134375534060000e-002) (47, -4.14349467018733860000e-002) (48, 4.34154465964950110000e-001) (49, -3.49785746741147760000e-001) (50, 6.67307360726463460000e-002) (51, 2.80650771960950950000e-001) (52, 3.73583175999867570000e-001) (53, -1.65421300795811880000e-001) (54, 1.01658523701108850000e-001) (55, 2.42638076082017650000e-001) (56, -4.94808495568107630000e-001) (57, 1.16184891105068590000e-001) (58, 3.10094405522561230000e-001) 
