FANN_FLO_2.1
num_layers=3
learning_rate=0.700000
connection_rate=1.000000
network_type=0
learning_momentum=0.000000
training_algorithm=2
train_error_function=1
train_stop_function=0
cascade_output_change_fraction=0.010000
quickprop_decay=-0.000100
quickprop_mu=1.750000
rprop_increase_factor=1.200000
rprop_decrease_factor=0.500000
rprop_delta_min=0.000000
rprop_delta_max=50.000000
rprop_delta_zero=0.100000
cascade_output_stagnation_epochs=12
cascade_candidate_change_fraction=0.010000
cascade_candidate_stagnation_epochs=12
cascade_max_out_epochs=150
cascade_max_cand_epochs=150
cascade_num_candidate_groups=2
bit_fail_limit=3.49999999999999980000e-001
cascade_candidate_limit=1.00000000000000000000e+003
cascade_weight_multiplier=4.00000000000000020000e-001
cascade_activation_functions_count=10
cascade_activation_functions=3 5 7 8 10 11 14 15 16 17 
cascade_activation_steepnesses_count=4
cascade_activation_steepnesses=2.50000000000000000000e-001 5.00000000000000000000e-001 7.50000000000000000000e-001 1.00000000000000000000e+000 
layer_sizes=40 18 4 
scale_included=0
neurons (num_inputs, activation_function, activation_steepness)=(0, 0, 0.00000000000000000000e+000) (0, 0, 0.00000000000000000000e+000) (0, 0, 0.00000000000000000000e+000) (0, 0, 0.00000000000000000000e+000) (0, 0, 0.00000000000000000000e+000) (0, 0, 0.00000000000000000000e+000) (0, 0, 0.00000000000000000000e+000) (0, 0, 0.00000000000000000000e+000) (0, 0, 0.00000000000000000000e+000) (0, 0, 0.00000000000000000000e+000) (0, 0, 0.00000000000000000000e+000) (0, 0, 0.00000000000000000000e+000) (0, 0, 0.00000000000000000000e+000) (0, 0, 0.00000000000000000000e+000) (0, 0, 0.00000000000000000000e+000) (0, 0, 0.00000000000000000000e+000) (0, 0, 0.00000000000000000000e+000) (0, 0, 0.00000000000000000000e+000) (0, 0, 0.00000000000000000000e+000) (0, 0, 0.00000000000000000000e+000) (0, 0, 0.00000000000000000000e+000) (0, 0, 0.00000000000000000000e+000) (0, 0, 0.00000000000000000000e+000) (0, 0, 0.00000000000000000000e+000) (0, 0, 0.00000000000000000000e+000) (0, 0, 0.00000000000000000000e+000) (0, 0, 0.00000000000000000000e+000) (0, 0, 0.00000000000000000000e+000) (0, 0, 0.00000000000000000000e+000) (0, 0, 0.00000000000000000000e+000) (0, 0, 0.00000000000000000000e+000) (0, 0, 0.00000000000000000000e+000) (0, 0, 0.00000000000000000000e+000) (0, 0, 0.00000000000000000000e+000) (0, 0, 0.00000000000000000000e+000) (0, 0, 0.00000000000000000000e+000) (0, 0, 0.00000000000000000000e+000) (0, 0, 0.00000000000000000000e+000) (0, 0, 0.00000000000000000000e+000) (0, 0, 0.00000000000000000000e+000) (40, 5, 5.00000000000000000000e-001) (40, 5, 5.00000000000000000000e-001) (40, 5, 5.00000000000000000000e-001) (40, 5, 5.00000000000000000000e-001) (40, 5, 5.00000000000000000000e-001) (40, 5, 5.00000000000000000000e-001) (40, 5, 5.00000000000000000000e-001) (40, 5, 5.00000000000000000000e-001) (40, 5, 5.00000000000000000000e-001) (40, 5, 5.00000000000000000000e-001) (40, 5, 5.00000000000000000000e-001) (40, 5, 5.00000000000000000000e-001) (40, 5, 5.00000000000000000000e-001) (40, 5, 5.00000000000000000000e-001) (40, 5, 5.00000000000000000000e-001) (40, 5, 5.00000000000000000000e-001) (40, 5, 5.00000000000000000000e-001) (0, 5, 0.00000000000000000000e+000) (18, 5, 5.00000000000000000000e-001) (18, 5, 5.00000000000000000000e-001) (18, 5, 5.00000000000000000000e-001) (0, 5, 0.00000000000000000000e+000) 
connections (connected_to_neuron, weight)=(0, -2.42279653076344190000e-001) (1, 3.88672727032672920000e-001) (2, 4.31267502030481860000e-001) (3, 4.22680504755922280000e-001) (4, -2.89274970177999190000e-001) (5, -1.71548000700947080000e-001) (6, -2.73395604255490920000e-001) (7, 5.08839474272364200000e-001) (8, -8.45940670526334480000e-002) (9, 2.21711330482711910000e-001) (10, 3.06653958701580630000e-001) (11, -3.53753103792143250000e-001) (12, 6.10146011385891860000e-001) (13, 3.18102030882210620000e-001) (14, 5.36280880931273130000e-001) (15, 3.32997583792769950000e-001) (16, 1.06553114737894280000e+000) (17, -6.45482315821748420000e-001) (18, -2.09734084307225980000e-001) (19, 5.56765538840737540000e-001) (20, 4.74049817951650850000e-001) (21, 3.94577764703062770000e-001) (22, -1.11560885047090650000e-001) (23, -9.94292878242319790000e-002) (24, -1.23461960381597750000e-001) (25, 7.06930534495577630000e-001) (26, -2.33598581144311920000e-001) (27, -2.80638626379410950000e-001) (28, -1.13769123460428540000e-001) (29, 4.68973517764770860000e-001) (30, -2.21544137605311660000e-001) (31, -1.99140232055249610000e-001) (32, 1.70191080036462270000e-001) (33, 1.42720603227624090000e-001) (34, -6.70445551906296150000e-002) (35, 3.27415995864749510000e-001) (36, 4.13207012768135260000e-001) (37, -1.67260789159251130000e-001) (38, 4.56547070401716190000e-002) (39, 4.46642286589419900000e-001) (0, 8.65140970890298650000e-002) (1, 1.62021011240164730000e+000) (2, 6.94932962755519080000e-001) (3, 4.16103008565836490000e-001) (4, 1.84548766518610240000e-001) (5, -4.29225164711081130000e-001) (6, -2.15023847325500060000e-001) (7, 1.37039718009761860000e-001) (8, 4.00358249120746560000e-002) (9, 6.59602812954766190000e-001) (10, 3.98652452697281390000e-001) (11, 2.70333186807270860000e-002) (12, 2.23782275738333230000e-001) (13, 4.23229083555710510000e-002) (14, 3.76750900656445340000e-001) (15, 3.26399638088527120000e-001) (16, 6.07832490869243180000e-001) (17, 9.65477706291350430000e-001) (18, 1.08550944636121290000e+000) (19, 7.49313071789116770000e-001) (20, 4.63897808500142560000e-001) (21, 4.20357159019853270000e-001) (22, -2.00187473161096500000e-001) (23, -3.70271306410725200000e-001) (24, -5.24750343537143950000e-002) (25, 4.51461519958046230000e-001) (26, -2.72647139199779010000e-001) (27, 2.91440355076135580000e-001) (28, -2.75727791029745260000e-001) (29, 2.87593485166520390000e-001) (30, -3.32442165546365240000e-002) (31, -2.40963789118285310000e-001) (32, 4.14601543699712920000e-001) (33, 8.22182945921837490000e-001) (34, 4.42420023625855750000e-001) (35, -7.35757146071326250000e-001) (36, -2.69731112111545210000e-001) (37, 1.13674742025004990000e-001) (38, 9.87594075330580750000e-001) (39, 6.96651938191904960000e-001) (0, -2.37336274288509200000e-002) (1, 8.57792272339299440000e-001) (2, 2.90366913857443230000e-001) (3, 5.62859191380723270000e-001) (4, -2.62283894098460260000e-001) (5, 2.90477700587976620000e-003) (6, 7.52236931655070550000e-001) (7, 1.73476154503937610000e-001) (8, 8.28837704306231160000e-002) (9, 4.24040829937168630000e-001) (10, 1.07585991054140070000e-001) (11, 1.16939107566044820000e-001) (12, 1.34118892444238690000e-001) (13, 4.94752862825884430000e-001) (14, 6.76846305531662700000e-001) (15, 5.13022070780306150000e-001) (16, 6.70816005703033680000e-001) (17, 1.70253317344863430000e-001) (18, 3.07378095751555000000e-001) (19, 3.54891584604512200000e-001) (20, 1.04571772863327330000e-001) (21, 6.02729951730709420000e-001) (22, 3.22394800542278040000e-001) (23, 4.87830708247767860000e-002) (24, -3.56064582337332130000e-001) (25, 1.74426510232368990000e-001) (26, -3.14842643556746960000e-002) (27, 1.01152885489529330000e-001) (28, 3.64915288046007810000e-001) (29, 7.36952365840154000000e-001) (30, -1.39193768070543840000e-001) (31, 3.66600508743412710000e-001) (32, 7.09341396902106740000e-001) (33, 5.80052795152552920000e-001) (34, -5.61063969516817810000e-001) (35, 4.21364974266917880000e-001) (36, 3.00417706839663230000e-001) (37, 1.09363301014715530000e-001) (38, -2.28722036804699940000e-002) (39, 3.84916475813216470000e-001) (0, 3.41332176484412220000e-001) (1, -9.54353273994243000000e-002) (2, 2.29545669428475800000e-002) (3, 1.66225631982112350000e-001) (4, 2.62102438975672150000e-001) (5, 6.86495193678374890000e-002) (6, 5.10199078721335300000e-001) (7, -9.45991457463392220000e-002) (8, 1.70491121420367900000e-001) (9, 1.07448775637518980000e-001) (10, 7.80510033107234410000e-002) (11, 3.61579371438673580000e-001) (12, 4.49231086830001010000e-001) (13, 1.99477585602605060000e-001) (14, 4.10404757443021460000e-001) (15, 9.97852224227370050000e-002) (16, 1.02772352422541060000e-001) (17, 1.01700643924198390000e-002) (18, -2.76777081611151940000e-001) (19, 1.80770309933219940000e-001) (20, 9.50036537579479590000e-001) (21, 1.52910223214361210000e-001) (22, 1.79341956055768050000e-001) (23, 7.78526064838937560000e-003) (24, -9.20661360435238720000e-002) (25, 8.38345538601906860000e-001) (26, 9.87930390545284500000e-002) (27, 1.21059155711696910000e-001) (28, 4.59695440768308260000e-001) (29, 9.40454551252939420000e-002) (30, 9.35030353631837310000e-002) (31, 2.13902509807267970000e-001) (32, 1.62284926238712640000e-002) (33, 1.14968306999568730000e-001) (34, -4.14680347249929250000e-001) (35, 2.68819627651507080000e-001) (36, 1.16555221085715590000e-001) (37, 7.60729276167289860000e-002) (38, 9.38448322432769020000e-002) (39, 2.16366013588637250000e-001) (0, -1.17609449937484300000e-001) (1, 1.86514721662799030000e-001) (2, 4.12126690486412210000e-001) (3, 2.17231402576145980000e-001) (4, -2.05748854014230460000e-001) (5, -2.61188553639479630000e-001) (6, 2.79730650915901440000e-001) (7, 4.83452589872311160000e-001) (8, -1.92864332337861130000e-001) (9, 8.33428140380770570000e-002) (10, 7.24817710405321060000e-001) (11, -4.07322989391714490000e-002) (12, 4.42021127521649290000e-002) (13, 4.21123272651721730000e-001) (14, 1.88504467786198560000e-001) (15, 1.29075379261782530000e-001) (16, 7.30245572671970460000e-002) (17, -2.73684174740138230000e-001) (18, -1.55197757190247230000e-001) (19, 4.73614879760960170000e-002) (20, 1.06575583157771280000e-001) (21, 4.98904698520076070000e-001) (22, -1.17319214142905400000e-001) (23, 3.32680789362086340000e-001) (24, 1.79244837979033840000e-001) (25, 6.28373937626748090000e-001) (26, -6.17703454881710080000e-002) (27, -6.39288849253014880000e-001) (28, 6.86024630706271620000e-001) (29, 3.40811434445552900000e-001) (30, -7.04262739376178000000e-002) (31, 2.14252134315195520000e-001) (32, -4.29539483677863710000e-001) (33, 2.40784869723994960000e-001) (34, -1.46707120559976590000e-001) (35, 4.68201743420693480000e-001) (36, 4.81824790498692700000e-001) (37, 6.78841855246462710000e-002) (38, -3.17094304256479500000e-001) (39, 4.64867384517245020000e-001) (0, 3.36397520961963130000e-001) (1, 2.21898813651249420000e-001) (2, 3.14488237756619240000e-002) (3, 4.17806403812626960000e-001) (4, 4.27496818122519220000e-001) (5, -1.29415067094909850000e-001) (6, 1.75264386094154260000e-001) (7, -1.72186326342022360000e-001) (8, 3.59369323977610070000e-001) (9, 1.87002792615813650000e-001) (10, -2.64181753556520290000e-001) (11, 2.50114865028426060000e-001) (12, 3.86782076036828900000e-001) (13, 3.69358844043004980000e-002) (14, 7.19772952505545040000e-002) (15, -3.07832867531129400000e-002) (16, 1.88578780796038510000e-001) (17, 9.85088538258987790000e-001) (18, -1.73203340172982720000e-001) (19, 3.53481451682235490000e-001) (20, 2.92934418388389850000e-001) (21, 2.52675786117614100000e-001) (22, 2.59618056803789080000e-001) (23, -4.38620873044461430000e-002) (24, 3.77759216829765820000e-001) (25, -6.69241440254041530000e-001) (26, -1.33675321064642580000e-001) (27, 5.16671859477577660000e-001) (28, 4.72888995873347710000e-001) (29, 3.08193365069890420000e-001) (30, 6.80319665365042290000e-003) (31, -1.35156601440270600000e-002) (32, 4.39937751798659740000e-001) (33, 2.96376958643812250000e-001) (34, 3.28778787629288970000e-001) (35, 4.41420906117635460000e-001) (36, 3.00618902066397130000e-001) (37, 3.40926329623197630000e-001) (38, 1.61232651519052570000e-002) (39, -7.38612363873302200000e-002) (0, 2.30118361148452630000e-001) (1, -5.32528073701703080000e-001) (2, -1.33005170784724100000e-001) (3, -1.27800518038105190000e-001) (4, 3.50937454745672340000e-001) (5, 1.73709668901647630000e-001) (6, -4.93841761127730840000e-002) (7, 3.72952730426518720000e-001) (8, 3.55233247923394340000e-001) (9, 2.23112152729573950000e-002) (10, 1.58578307147245250000e-001) (11, 2.07959871205686600000e-001) (12, -3.26656272886680640000e-002) (13, -5.08976696279721090000e-001) (14, -3.27594869574232170000e-001) (15, -6.30767092686822520000e-001) (16, 6.54392717842944420000e-002) (17, 3.06200149347134850000e-001) (18, 3.64165238101506970000e-001) (19, -8.19062253536961830000e-001) (20, 4.49473278931266790000e-002) (21, -4.50947507394260260000e-001) (22, 1.33081940402418500000e-001) (23, 9.18542182612215320000e-001) (24, 1.92156329508248790000e-001) (25, 2.88219503388284730000e-001) (26, 1.40997763526160470000e+000) (27, 3.91887406483349470000e-001) (28, -9.68589061811830910000e-003) (29, -2.96887985239210010000e-001) (30, 6.15028055033587260000e-001) (31, 3.71575767930864940000e-001) (32, -6.82442407482728000000e-001) (33, -9.41397597742280600000e-001) (34, 1.09974138528422480000e+000) (35, -4.52708384894382980000e-001) (36, -4.53080699353055890000e-001) (37, 5.12813816677777700000e-001) (38, 5.35836759884310790000e-001) (39, 6.89133401458489060000e-002) (0, -4.95867559392333120000e-001) (1, 8.58085145804964870000e-002) (2, 2.79695416445009780000e-001) (3, 4.23153708999424230000e-001) (4, -4.22112675480799730000e-001) (5, 1.76630468185284880000e-001) (6, 4.32850703608793300000e-001) (7, 3.59450056305321450000e-001) (8, 2.07325802478281420000e-001) (9, 2.88893811925855560000e-001) (10, 2.33613872789591280000e-001) (11, -2.38711595787455430000e-001) (12, 1.12776869713447960000e+000) (13, 4.43898067054661840000e-001) (14, 4.40504512316593930000e-001) (15, 5.37795552561813660000e-001) (16, 1.07449685133839000000e-001) (17, -1.14381997912513310000e+000) (18, -1.31480407669985540000e+000) (19, 2.68038377639865540000e-001) (20, 1.08142470230327530000e+000) (21, 2.92338567602489160000e-001) (22, -3.95174496850166090000e-001) (23, -9.55645942085935900000e-002) (24, -3.84820194456348460000e-001) (25, 1.20557021196568750000e+000) (26, 1.30362280152237220000e-001) (27, -2.31963023546672000000e+000) (28, 1.54425878010660710000e-001) (29, 3.63007402439109510000e-001) (30, -4.22521611033768340000e-001) (31, 2.57572133054739580000e-001) (32, 3.56031083975779260000e-001) (33, 1.36971202240157350000e-001) (34, -9.95479739755965740000e-002) (35, 7.91334654012728840000e-001) (36, 6.21028254990590780000e-001) (37, -5.73586126482425460000e-003) (38, -4.11883183140868410000e-001) (39, 2.57258892673179530000e-001) (0, 3.86551923600503110000e-001) (1, 4.44762338990604580000e-001) (2, 1.75815164668189030000e-001) (3, 3.55695707479234620000e-001) (4, 5.06778976173275720000e-001) (5, -1.85121278309365200000e-001) (6, -1.02120034839170850000e+000) (7, -2.61165397920755220000e-001) (8, -1.15586761629145090000e-001) (9, 5.85573270836015070000e-001) (10, -1.23871402378972840000e-001) (11, 2.30667858416316480000e-001) (12, 1.81068177673444410000e-001) (13, -1.46925894265328980000e-001) (14, -1.61708609329358630000e-001) (15, 1.24643296609314770000e+000) (16, 8.15471836512752010000e-001) (17, 8.58450294584254590000e-001) (18, 4.29102333410084750000e-001) (19, 3.04307481577688720000e-001) (20, 4.51672967421134500000e-002) (21, 7.80355252068566370000e-002) (22, 6.10855666704406000000e-002) (23, -2.46023646257918370000e-002) (24, 4.73606368257090400000e-001) (25, 1.02087979374472060000e-001) (26, 1.09751556719655790000e-001) (27, 1.04728933903111730000e-001) (28, 2.21036799268436560000e-001) (29, -9.21671140481103020000e-002) (30, 2.34435134455730550000e-001) (31, -1.74884486909875850000e-001) (32, 3.72520892025914980000e-001) (33, 4.23527454057329670000e-001) (34, 1.40939250133277900000e-002) (35, 9.15303984548209020000e-002) (36, -3.78336171447281180000e-002) (37, -2.74757927905706250000e-001) (38, 3.86186845701382230000e-001) (39, 2.05265333247443250000e-001) (0, 4.22729594996063500000e-001) (1, 1.67564141672396120000e-003) (2, 6.20438541793777170000e-002) (3, 3.64195946356358930000e-001) (4, 6.78582741852092000000e-001) (5, 6.13517843118856900000e-002) (6, -6.96359360580005030000e-001) (7, -2.08167211992314670000e-001) (8, 6.03863502457438580000e-001) (9, 3.19267967171254890000e-001) (10, 4.60649826687062610000e-001) (11, 3.32833159679908450000e-001) (12, -2.42954498766634830000e-001) (13, 1.03730866519312600000e-001) (14, -2.70252173854952700000e-001) (15, 1.85449334081313310000e-001) (16, 1.23712272614484410000e-001) (17, 6.45242380745387530000e-001) (18, 6.25534128498586690000e-001) (19, 3.68541649546114960000e-001) (20, -1.19980864121684880000e-001) (21, 1.97338033713732320000e-001) (22, 3.88759793991977740000e-001) (23, -8.63532960140914880000e-002) (24, 3.68335062935521820000e-001) (25, -4.79856061113113490000e-002) (26, -1.07959770119013930000e-001) (27, 4.76178041931536730000e-003) (28, -2.07758168186933990000e-001) (29, 2.38457419092083900000e-001) (30, 1.66590441608826440000e-001) (31, 2.38690404075616310000e-002) (32, 1.10110701626282250000e-001) (33, 4.03097973148203560000e-001) (34, 3.38737565586811830000e-002) (35, 1.99830749937398360000e-001) (36, 2.91503074179400750000e-001) (37, -1.29793118885056100000e-002) (38, 4.60887308288360710000e-002) (39, 1.65950105727701500000e-001) (0, 8.63629762815681380000e-002) (1, 1.05959025202601560000e+000) (2, 8.81932233168372550000e-001) (3, 1.31585039543166250000e-001) (4, 1.37614197748395810000e-001) (5, -4.41596336116736270000e-001) (6, 1.60365202588755580000e-001) (7, 1.59187224055577340000e-001) (8, 1.45145936141877460000e-001) (9, 1.24259705361898400000e-001) (10, -5.99701446319366620000e-001) (11, -7.74123317052004990000e-001) (12, 1.11237566281624020000e+000) (13, 6.77539617891846140000e-001) (14, 1.38349821401325850000e-001) (15, 5.36066511634867520000e-001) (16, 1.05025797649632890000e+000) (17, -2.80109517304145290000e-001) (18, -1.86764569560654010000e-001) (19, 7.53436835819677800000e-001) (20, 1.15695574160553520000e+000) (21, 6.20176295948804860000e-001) (22, 7.44826329496306030000e-002) (23, -8.08901149601485070000e-001) (24, 1.31937928132562830000e-001) (25, 6.14972762810662150000e-001) (26, -7.57656031650373320000e-001) (27, -6.69397492279793620000e-001) (28, 1.03401872805488070000e+000) (29, 1.20995646520414680000e+000) (30, -6.04547637797830490000e-001) (31, -1.85749712023106360000e-001) (32, 1.23089762762556940000e+000) (33, 6.53485946978303200000e-001) (34, -7.88429957890190550000e-001) (35, 7.27820380359837870000e-001) (36, 8.11469063246925360000e-001) (37, 2.23498373146214900000e-001) (38, -4.49762840144676770000e-001) (39, 8.35889229626439190000e-001) (0, 2.18322591819089750000e-001) (1, 9.24810456375676080000e-002) (2, -1.72388319205296930000e-001) (3, 2.70989440496646580000e-001) (4, 3.24456626603735030000e-001) (5, 6.24501345022045740000e-002) (6, 7.18463690767287330000e-001) (7, -1.07498968898461260000e-001) (8, 2.93878012866828240000e-001) (9, 1.77527446496836080000e-001) (10, 3.61576443948394970000e-002) (11, -3.25843708251294550000e-001) (12, 9.85733815226004450000e-001) (13, 4.12877422919473990000e-001) (14, 3.07671467948308410000e-001) (15, 1.81959942834550830000e-001) (16, 3.12592017471554800000e-001) (17, 9.84074011818081710000e-002) (18, -5.66028350114473390000e-001) (19, 1.96746060598523760000e-001) (20, 4.77635049288797800000e-001) (21, 5.82896281326062300000e-001) (22, -2.91096393280394220000e-001) (23, -3.36767786667611090000e-002) (24, 1.93729315905593610000e-001) (25, 5.71830607333045910000e-001) (26, 4.61704543699422220000e-003) (27, -1.59114481779254260000e-002) (28, 2.77930446932474210000e-001) (29, 5.43260050266686560000e-001) (30, -1.67044300937184480000e-001) (31, -1.55860795562101810000e-001) (32, 4.06468607640867620000e-001) (33, 3.19373023431974660000e-001) (34, -2.36166587949850850000e-001) (35, 6.47886696507144370000e-001) (36, 5.99508391619989030000e-001) (37, 7.11251523698154390000e-002) (38, -2.06587969749390530000e-001) (39, -7.16286070358262280000e-002) (0, -1.59288799057852590000e-001) (1, 1.19291816982647750000e+000) (2, 9.79922212204338170000e-001) (3, -4.74773073502549490000e-001) (4, -1.39049540943764150000e-001) (5, 1.73989157483582010000e-001) (6, 1.64542482764222060000e-001) (7, 3.45954371205842990000e-001) (8, -3.88108189834720720000e-003) (9, 8.43386809055789000000e-001) (10, 3.41324417493051920000e-001) (11, 1.15848634382377180000e-001) (12, 1.36866120146307170000e-001) (13, 2.78003930740177540000e-001) (14, 2.99677515047514110000e-001) (15, 7.61636319556361800000e-001) (16, 7.14144863770558970000e-001) (17, 3.94804043063521070000e-001) (18, 2.48290354732072890000e-001) (19, 1.06594933056070950000e+000) (20, 5.98628389169591380000e-001) (21, 7.28492893057848030000e-001) (22, 1.43277834009854110000e-001) (23, -3.07407902936751080000e-001) (24, -1.11119853027579390000e-001) (25, 1.72762977530882160000e-001) (26, -4.29331732878557690000e-001) (27, 3.64847367062321180000e-001) (28, 1.56706310204066060000e-001) (29, 8.60868062907593550000e-001) (30, -1.80282635870315680000e-001) (31, 9.66469739400001440000e-002) (32, 8.37191740604100290000e-001) (33, 1.17803169499527670000e+000) (34, -4.68712274755833100000e-002) (35, 4.50562527061500910000e-001) (36, 7.19991438056286400000e-001) (37, -4.11796664385144230000e-002) (38, 4.04453918936034110000e-001) (39, 3.99528976030960100000e-001) (0, 4.31402428714014070000e-001) (1, 1.86176649450735120000e-001) (2, -1.51048130733612780000e-001) (3, -1.96922154854689000000e-001) (4, 4.77877598212090690000e-001) (5, 5.74069005895454290000e-001) (6, -1.43239526351626180000e-002) (7, -2.66239782840727190000e-001) (8, 1.59628980211450330000e-001) (9, -1.56065220652123250000e-001) (10, -8.22543849603708300000e-001) (11, 1.36817519423513830000e-002) (12, -1.51500341122279920000e-001) (13, -2.17491002817438720000e-001) (14, -4.63225458562745160000e-002) (15, -1.92516797969890740000e-001) (16, 9.48821169953669020000e-002) (17, -5.15302159129698980000e-002) (18, -3.01068757499872510000e-002) (19, 2.59555143676320420000e-002) (20, -6.34488123100571120000e-002) (21, 1.11115387340716340000e-001) (22, -1.44073254027503870000e-001) (23, 2.48477081907708620000e-001) (24, 9.32501136927556760000e-001) (25, 7.58455051707443980000e-001) (26, 2.21981720184771970000e-001) (27, -2.41437408955046190000e-002) (28, 4.88293691690055710000e-001) (29, -6.66777713411785540000e-003) (30, 2.91946320836700750000e-001) (31, -5.08598050548830340000e-001) (32, 1.01431589711063180000e-001) (33, 7.62851049613513660000e-002) (34, 2.97962604951009620000e-001) (35, 1.08023386684288610000e-001) (36, -5.14797895206188650000e-002) (37, 5.19405919143410940000e-001) (38, 2.75021271756372860000e-001) (39, -1.43809361094496710000e-001) (0, -7.11893017161685380000e-002) (1, 2.96200147522094280000e-001) (2, 4.46767886208294720000e-001) (3, 2.69238634524208040000e-001) (4, 1.05075740466359260000e-001) (5, 3.26304978010671210000e-001) (6, -6.37002020017990440000e-002) (7, 4.34170441409983120000e-001) (8, -6.02229191789297600000e-003) (9, 1.30294826339585670000e-001) (10, 5.36993546083951780000e-001) (11, 5.18518130813985230000e-001) (12, -5.69550166216757470000e-001) (13, 2.40004221296373570000e-002) (14, 2.64360028067232580000e-001) (15, 2.39958287253181110000e-001) (16, -1.31275071276517270000e-001) (17, 4.10640926304117910000e-001) (18, 5.05904599598657300000e-001) (19, 8.21974444812155760000e-002) (20, -1.15159358214726030000e-002) (21, 1.03321712374116680000e-001) (22, 3.51848245498835810000e-001) (23, 3.41356247766202600000e-001) (24, 2.97258888134653980000e-002) (25, -2.23126879285840850000e-001) (26, 3.36632126602057710000e-001) (27, 2.10036562196560810000e-001) (28, -8.98355422283941690000e-002) (29, -5.47593446689745990000e-002) (30, 2.60533492655599720000e-001) (31, 5.81486126258055510000e-001) (32, -6.56384884307570580000e-001) (33, 1.66762032704979930000e-002) (34, 2.55211226951291780000e-001) (35, 6.76466630143920390000e-002) (36, -5.14207215723502390000e-002) (37, 1.74248090979222060000e-001) (38, 2.86414906726112150000e-002) (39, -4.70506043197304190000e-002) (0, -1.46436021347106480000e-001) (1, 7.32023559301277490000e-002) (2, -1.80211744258697880000e-001) (3, 6.75265314385025410000e-002) (4, -5.03369781370733850000e-001) (5, 2.22517047186158220000e-001) (6, 3.35857345359583890000e-001) (7, 6.42853622601119220000e-001) (8, -5.24536773873646610000e-001) (9, -7.48521017026973910000e-002) (10, 2.84373702263620580000e-001) (11, 1.80356802801204810000e-001) (12, 3.28010475545091050000e-002) (13, -6.74248773436675890000e-002) (14, 5.86088780746650160000e-001) (15, 1.14877234480817370000e-001) (16, 1.89456093014003960000e-001) (17, -1.39173747471845600000e-002) (18, 2.46397627478982940000e-001) (19, 2.06637086312013880000e-001) (20, -8.16215615723955980000e-002) (21, 3.32458335707344790000e-001) (22, 2.73786401380456460000e-001) (23, 7.72927256047243740000e-002) (24, -2.17498218949287280000e-001) (25, 7.96091986388146740000e-002) (26, 2.74478809250540070000e-003) (27, 1.17833115497300630000e-001) (28, 2.09423252302818950000e-002) (29, 2.26845826847522580000e-001) (30, 7.38120689595336970000e-002) (31, 2.02419201262283520000e-001) (32, 2.88207846766711180000e-001) (33, -2.14138995743131320000e-002) (34, 3.90906942273488160000e-001) (35, 1.55013550386513270000e-001) (36, -5.63931481424195250000e-002) (37, 8.57215479377029800000e-002) (38, -4.26165407084310580000e-002) (39, 2.77297487755560850000e-001) (0, -7.20344980864896100000e-002) (1, 3.17170040420324870000e-001) (2, 4.07201339562493100000e-001) (3, 5.69098961721054230000e-001) (4, -2.43280838528883880000e-001) (5, -2.24015661117788700000e-001) (6, -7.62108298629061260000e-001) (7, 6.55265424232452710000e-001) (8, -4.50787670758248940000e-001) (9, 4.04964137599530150000e-001) (10, 4.88756516559009920000e-001) (11, 4.50217421032041270000e-001) (12, -9.01656304620735150000e-002) (13, 4.06340557587692110000e-001) (14, 4.01152783958448500000e-001) (15, 3.44057154270070390000e-001) (16, 3.49574796697717290000e-001) (17, 3.25719661369259950000e-001) (18, 4.48641746059093710000e-002) (19, 5.43472081611399700000e-001) (20, 3.70560511211772550000e-002) (21, 2.76804389668530380000e-001) (22, 5.57227375876780510000e-001) (23, 2.65342914762482340000e-001) (24, -1.77851150053905560000e-001) (25, 1.35944057478601360000e-001) (26, -1.55355802329476990000e-001) (27, 4.77139350896707280000e-001) (28, -7.01625011433104350000e-002) (29, 3.19502710544805670000e-001) (30, -1.15438809547167440000e-001) (31, -2.89997167002873480000e-001) (32, -5.31501888469356750000e-001) (33, 4.65316562868666680000e-001) (34, 4.41812879891178840000e-001) (35, -8.29628357203443940000e-002) (36, -2.44371011966459550000e-001) (37, -7.99700144190065410000e-001) (38, 3.23276501171724180000e-001) (39, 4.47661573713983460000e-001) (40, -4.18398374149353940000e-001) (41, -2.77568779839527270000e-001) (42, 5.44688078268768640000e-001) (43, 6.17783782482979490000e-001) (44, -4.15951101397670980000e-003) (45, -2.44335732640979350000e-001) (46, 3.39857935457497150000e-001) (47, 4.82328186287287520000e-001) (48, -2.51561699373866580000e-001) (49, -3.68447064999568090000e-001) (50, 7.59344938568851240000e-002) (51, 1.19495285521616490000e-001) (52, -1.62609525395177590000e-002) (53, 2.61597529826605000000e-001) (54, 4.79166932188991590000e-003) (55, 2.48706398702657140000e-002) (56, -2.54387627150351180000e-001) (57, 5.14225431330464830000e-001) (40, -5.41032360819887700000e-001) (41, 3.29685733629128400000e-001) (42, 6.94568711262359080000e-001) (43, -2.08794664938369360000e-002) (44, -4.12683982170283740000e-001) (45, 1.66118807478108730000e-001) (46, 5.03663169730359960000e-001) (47, -5.19621227688336960000e-001) (48, 4.33548888685419350000e-001) (49, -3.18167853257001860000e-001) (50, -4.14240378677850740000e-001) (51, -1.42856694938790160000e-001) (52, 6.38675441424661150000e-001) (53, 1.27273998123793470000e-001) (54, 1.77719721772072460000e-002) (55, 2.51238185010525530000e-001) (56, -1.04784497040994310000e-001) (57, 6.66547470610435070000e-001) (40, 3.75574491356233830000e-001) (41, 5.30720325758995860000e-001) (42, 5.84962298397100230000e-001) (43, 1.53524518359013430000e-001) (44, 3.48375442944345690000e-001) (45, -3.11153058263555560000e-002) (46, -3.53695162260519840000e-001) (47, 3.65837601407677130000e-001) (48, 2.60307634103648270000e-001) (49, 7.26202183710966120000e-002) (50, 1.11731340703044340000e+000) (51, 3.57794950075673020000e-001) (52, 5.93824603216658860000e-001) (53, 4.30528114993099790000e-001) (54, 8.81436580097627320000e-002) (55, 2.10453394821486090000e-002) (56, 8.39322321657575980000e-002) (57, 4.71723771319089770000e-001) 
